{"version": "0.5.4", "metadata": {"date": {"year": 2026, "month": 4, "day": 2, "hour": 10, "minute": 58, "second": 25}, "loudness": -27.304729461669922, "gain": 0.7380467424706568}, "architecture": "WaveNet", "config": {"layers": [{"input_size": 1, "condition_size": 1, "head_size": 6, "channels": 12, "kernel_size": 3, "dilations": [1, 2, 4, 8, 16, 32, 64], "activation": "Tanh", "gated": false, "head_bias": false}, {"input_size": 12, "condition_size": 1, "head_size": 1, "channels": 6, "kernel_size": 3, "dilations": [128, 256, 512, 1, 2, 4, 8, 16, 32, 64, 128, 256, 512], "activation": "Tanh", "gated": false, "head_bias": true}], "head": null, "head_scale": 0.02}, "weights": [-0.29257673025131226, 0.598723292350769, -0.9568010568618774, -0.8902572393417358, -0.45050984621047974, 0.5068649649620056, -0.16768735647201538, 0.7764371633529663, -0.22044077515602112, 0.4256099760532379, -0.4520881772041321, -0.32914990186691284, -0.08720617741346359, -0.09158917516469955, -0.18046262860298157, -0.07995626330375671, 0.015596899203956127, 0.18609440326690674, -0.02147449180483818, -0.018255777657032013, -0.020983995869755745, 0.2289421707391739, 0.018618576228618622, 0.041960474103689194, 0.05788102000951767, 0.06629440188407898, 0.06450829654932022, -0.23927919566631317, -0.15203708410263062, 0.053102001547813416, 0.031875789165496826, 0.20266547799110413, -0.19151674211025238, -0.16784392297267914, -0.17169994115829468, -0.07590926438570023, 0.00012320451787672937, 0.22789165377616882, 0.006979045458137989, 0.0010393148986622691, -0.03434285521507263, 0.007820341736078262, 0.10879803448915482, -0.11375639587640762, -0.21404016017913818, -0.015812762081623077, 0.1312176138162613, -0.00937686674296856, -0.21036429703235626, 0.028232067823410034, 0.44739168882369995, 0.3398517370223999, 0.11090275645256042, -0.21710354089736938, -0.06796296685934067, -0.14526668190956116, 0.2700459063053131, -0.307672917842865, -0.16019156575202942, 0.1556244045495987, -0.09639327228069305, 0.025080760940909386, 0.14208859205245972, 0.2263418436050415, 0.11869803071022034, -0.2939095199108124, -0.15778270363807678, 0.028976408764719963, 0.39168140292167664, 0.3365870714187622, -0.08251351863145828, -0.2980591058731079, -0.13524974882602692, 0.0840727686882019, 0.38187721371650696, 0.31451615691185, 0.06663831323385239, -0.3951551020145416, -0.14972226321697235, -0.1340436488389969, 0.10194771736860275, -0.00797445047646761, 0.11381866782903671, 0.10697814077138901, -0.09013669192790985, 0.07071060687303543, -0.20898942649364471, -0.03289750590920448, -0.08265163004398346, 0.004188548773527145, 0.02298802323639393, 0.23695632815361023, 0.021274231374263763, 0.02431766875088215, -0.012494044378399849, -0.20685306191444397, 0.0383879579603672, 0.1782427877187729, -0.23475897312164307, -0.034650832414627075, 0.008408784866333008, 0.23264795541763306, -0.1298016905784607, 0.10543091595172882, -0.2812880873680115, 0.03463095426559448, -0.2773040235042572, -0.03217027708888054, -0.0720863863825798, 0.19941408932209015, -0.16384916007518768, 0.15489603579044342, -0.23958195745944977, 0.26548877358436584, 0.06454084813594818, 0.001609605154953897, -0.1522207409143448, -0.054293010383844376, 0.15788902342319489, -0.082451730966568, -0.16860495507717133, 0.1190187856554985, 0.05917517468333244, 0.3048534095287323, -0.23413260281085968, -0.20735003054141998, -0.2719700336456299, -0.007075787987560034, 0.05097450315952301, -0.36461493372917175, 0.03956453502178192, 0.14733164012432098, -0.32959848642349243, 0.06710608303546906, 0.23120248317718506, 0.2176416665315628, -0.07463934272527695, -0.1274844855070114, -0.18229396641254425, 0.18222171068191528, 0.2854368984699249, 0.33143937587738037, 0.08655049651861191, -0.1186993271112442, -0.4207112491130829, -0.03516745567321777, 0.17548930644989014, 0.22297894954681396, -0.1597590446472168, -0.237461656332016, -0.37861207127571106, -0.05644158646464348, 0.08707129210233688, -0.13751564919948578, 0.1782604604959488, -0.04385126009583473, -0.06588787585496902, -0.24144472181797028, 0.0612722709774971, 0.11120213568210602, 0.10267938673496246, -0.09339187294244766, -0.33377429842948914, -0.2822149693965912, 0.03129418566823006, -0.18162457644939423, -0.21327345073223114, 0.12132829427719116, -0.32715746760368347, -0.14424823224544525, 0.20810391008853912, 0.11824677884578705, 0.2925497591495514, -0.0060820505023002625, -0.33508482575416565, -0.036217644810676575, 0.05123452842235565, 0.10746386647224426, 0.27143594622612, -0.1914180964231491, -0.204027459025383, -0.22722356021404266, 0.14493811130523682, 0.21897515654563904, 0.20963171124458313, -0.009104342199862003, -0.21103161573410034, -0.159129336476326, -0.06478290259838104, -0.06863055378198624, 0.02440977282822132, 0.2027422934770584, -0.20354865491390228, -0.18756906688213348, 0.058901797980070114, 0.034423843026161194, 0.11932723224163055, -0.045846231281757355, -0.23157092928886414, -0.22628766298294067, 0.10543693602085114, -0.024888398125767708, -0.3494386672973633, -0.015663014724850655, -0.21974994242191315, -0.09676331281661987, 0.04483539238572121, 0.2630622684955597, 0.2840660810470581, -0.09818512946367264, -0.13251297175884247, -0.27256473898887634, 0.1318848878145218, 0.09190377593040466, 0.21932005882263184, -0.07564177364110947, -0.2538491189479828, -0.3251475691795349, 0.236239492893219, -0.016577351838350296, 0.19925612211227417, 0.05159180611371994, -0.06269782781600952, -0.20969592034816742, -0.03311941400170326, -0.034376200288534164, -0.3268387019634247, 0.07513222098350525, -0.32635554671287537, 0.09392884373664856, 0.3147124648094177, 0.4016125798225403, -0.03920166939496994, -0.09201640635728836, -0.16788004338741302, -0.04598461464047432, 0.31706464290618896, -0.3852160573005676, -0.007490111514925957, 0.29602381587028503, -0.20917262136936188, 0.1843952238559723, 0.18721431493759155, 0.2868663966655731, 0.017623640596866608, -0.42453473806381226, -0.1304161250591278, -0.03361395373940468, 0.3078479766845703, 0.23691201210021973, -0.14733649790287018, -0.21915359795093536, -0.18731825053691864, -0.012167884968221188, 0.1325814574956894, 0.21005019545555115, -0.22327196598052979, -0.1636229306459427, -0.33788764476776123, -0.03683144226670265, 0.162058487534523, -0.17054547369480133, 0.1645231693983078, 0.3838253617286682, -0.1330307275056839, -0.00032227023621089756, 0.060943715274333954, 0.20839616656303406, 0.08545232564210892, -0.047729987651109695, -0.24569816887378693, -0.0312519334256649, -0.06619321554899216, -0.12993410229682922, -0.045907970517873764, -0.05585182085633278, -0.012907425872981548, -0.06007659062743187, 0.0704990103840828, 0.21491801738739014, -0.05702599510550499, -0.2254934161901474, -0.3295552432537079, 0.14331519603729248, 0.08465350419282913, 0.29973044991493225, -0.10381903499364853, -0.04177236184477806, -0.21409918367862701, 0.05095469951629639, 0.02489928901195526, 0.2179926633834839, 0.0022688114549964666, -0.08862458914518356, -0.19564740359783173, -0.04647553712129593, 0.21640907227993011, -0.28170356154441833, 0.13993918895721436, 0.059156809002161026, 0.08391569554805756, -0.1876503825187683, 0.052038274705410004, -0.030425716191530228, 0.28644227981567383, -0.18470682203769684, 0.09356921166181564, -0.1883774697780609, 0.12187353521585464, 0.04489285126328468, -0.3966441750526428, 0.030044903978705406, 0.12799477577209473, -0.31146442890167236, 0.12589052319526672, 0.012596878223121166, 0.16744834184646606, -0.07055991142988205, 0.15553554892539978, -0.2516549527645111, 0.08322083950042725, -0.04384999722242355, 0.12572932243347168, -0.04083150625228882, 0.23926521837711334, -0.10864493250846863, 0.14845989644527435, -0.06151514872908592, 0.32051801681518555, -0.1557646095752716, -0.060627687722444534, -0.39467766880989075, 0.23429962992668152, 0.20614342391490936, -0.34934237599372864, 0.15193986892700195, 0.539513349533081, -0.07154975831508636, 0.24851436913013458, -0.1930023580789566, 0.20033498108386993, -0.10644152015447617, 0.46021297574043274, -0.14878518879413605, -0.055562131106853485, 0.4729454219341278, -0.16224263608455658, 0.13629645109176636, 0.21670730412006378, -0.1880675107240677, -0.008139219135046005, -0.2344016432762146, 0.22685132920742035, 0.003657751251012087, 0.3626037538051605, -0.2077537328004837, -0.0047914450988173485, -0.23678529262542725, 0.12545990943908691, -0.0057473150081932545, 0.3249322474002838, -0.3910343647003174, -0.0445944108068943, -0.2024473249912262, 0.3325037658214569, 0.10066329687833786, 0.45588573813438416, -0.39554744958877563, -0.06902298331260681, 0.30234166979789734, -0.36105385422706604, 0.1597941666841507, -0.20539242029190063, 0.08222781121730804, -0.2594776153564453, -0.04615483060479164, -0.021428486332297325, 0.22021424770355225, 0.07460134476423264, 0.2930871546268463, 0.0699608325958252, -0.08680009096860886, 0.23903711140155792, 0.07084134221076965, 0.004651366733014584, 0.32239487767219543, 0.0012798411771655083, 0.16182304918766022, -0.22755545377731323, 0.17041748762130737, -0.012375871650874615, 0.15611135959625244, -0.15933282673358917, -0.048534587025642395, -0.29064512252807617, 0.1913185715675354, 0.06594833731651306, 0.1796569973230362, -0.16091610491275787, 0.1852525770664215, -0.045488107949495316, 0.10593441873788834, -0.13240405917167664, 0.3104613423347473, -0.019288411363959312, -0.1975107043981552, 0.30206501483917236, 0.021547401323914528, -0.6075799465179443, 0.3648235499858856, 0.17002594470977783, 0.4222864508628845, -0.11898405849933624, -0.24025104939937592, -0.5654581189155579, 0.2117103487253189, 0.2099980115890503, -0.47964388132095337, 0.28622207045555115, 0.41266223788261414, -0.43896883726119995, 0.157105952501297, 0.2557184398174286, 0.5811253786087036, -0.20357394218444824, -0.4276859760284424, -0.501248836517334, 0.20361323654651642, 0.24676227569580078, 0.5045111179351807, -0.38627851009368896, -0.19362656772136688, -0.4316786229610443, 0.28547918796539307, 0.17342013120651245, 0.40260693430900574, -0.22690416872501373, -0.37518492341041565, -0.36748620867729187, 0.11752872914075851, 0.09689369052648544, -0.6255562901496887, 0.2287687063217163, 0.3628474473953247, -0.04438240826129913, -0.06698141247034073, 0.09714557230472565, 0.010326224379241467, -0.015329561196267605, -0.17937321960926056, -0.09171497821807861, 0.05883144587278366, -0.08467550575733185, 0.08390738070011139, -0.1251845508813858, 0.06659567356109619, 0.12575769424438477, 0.24704812467098236, -0.7147146463394165, -0.3914955258369446, -1.0274609327316284, -0.47647619247436523, -0.021914146840572357, -0.869654655456543, 0.27491939067840576, 0.49186596274375916, 0.20719920098781586, -0.9292017221450806, -0.06134791299700737, -0.2514380216598511, 0.3041754364967346, 0.0818239226937294, -0.1189965307712555, -0.1346360296010971, -0.06329716742038727, -0.2972213625907898, -0.37680181860923767, -0.06153314188122749, 0.026262719184160233, 0.34645578265190125, -0.1934533715248108, -0.12526939809322357, -0.2226175218820572, 0.232192263007164, 0.0770784467458725, 0.261909544467926, 0.22936910390853882, 0.10247372835874557, -0.026501454412937164, -0.25525426864624023, -0.027387795969843864, -0.05266895517706871, 0.14212197065353394, -0.17112787067890167, 0.2835903763771057, 0.07820960134267807, -0.34320053458213806, -0.25521761178970337, 0.2887934446334839, 0.2955820858478546, -0.29637059569358826, 0.059742435812950134, 0.19097839295864105, 0.35267266631126404, 0.21861936151981354, -0.11161863803863525, 0.1963818222284317, 0.321369469165802, -0.11541308462619781, 0.01817977800965309, 0.12193223834037781, 0.21058470010757446, -0.19362792372703552, -0.4345606565475464, 0.15188317000865936, 0.31888988614082336, -0.17765815556049347, 0.03363782539963722, 0.16506515443325043, -0.1025286316871643, -0.012774385511875153, -0.09675543010234833, 0.08635248988866806, -0.17472140491008759, -0.1672246754169464, -0.17165003716945648, 0.3486098647117615, 0.009942129254341125, -0.08446533232927322, -0.1060267984867096, 0.19594410061836243, 0.08543065935373306, -0.42491021752357483, -0.26052916049957275, -0.31829190254211426, -0.03238615021109581, -0.06935932487249374, -0.33188632130622864, 0.06044761463999748, -0.06281404197216034, -0.031099850311875343, -0.1883477419614792, 0.09435276687145233, -0.6474828720092773, -0.08970621228218079, 0.09739058464765549, -0.5309469103813171, -0.26133450865745544, -0.18876080214977264, 0.5046119093894958, -0.22529777884483337, -0.5645977854728699, 0.3274611234664917, -0.3490447998046875, 0.18333633244037628, -0.22290553152561188, -0.2474682331085205, -0.22714808583259583, 0.032332565635442734, -0.0022298607509583235, -0.41897544264793396, -0.1171405017375946, 0.09100086987018585, 0.34176793694496155, -0.20340341329574585, 0.390347957611084, -0.031671829521656036, 0.6788622736930847, 0.5818688869476318, 0.2564420700073242, 0.6001901030540466, 0.3091564476490021, -0.16140177845954895, -0.6654072403907776, 0.05179490149021149, 0.6484369039535522, -0.04747474566102028, -0.3331952691078186, 0.13704805076122284, 0.19782863557338715, -0.2590840458869934, -0.4422460198402405, -0.21178573369979858, -0.02968106046319008, -0.1494683474302292, -0.20508120954036713, 0.22448770701885223, 0.23202620446681976, 0.2544185221195221, 0.18400777876377106, 0.11259426176548004, -0.02265009842813015, -0.26218801736831665, 0.15751414000988007, 0.2618595063686371, 0.12055905908346176, -0.38449954986572266, -0.051156528294086456, 0.3849319815635681, 0.6053151488304138, -0.1952466070652008, -0.16254885494709015, -0.1588800996541977, 0.006738362833857536, -0.25019657611846924, -0.16048985719680786, -0.031605444848537445, -0.2463875114917755, -0.17141437530517578, -0.14629201591014862, -0.016336947679519653, -0.2828512191772461, 0.2428281307220459, -0.046343836933374405, 0.15296903252601624, 0.3526081442832947, 0.08879721164703369, -0.0514986477792263, 0.34979569911956787, -0.13558423519134521, -0.11887530982494354, 0.4466339349746704, 0.14236117899417877, -0.3084404766559601, -0.06904403865337372, -0.11813340336084366, 0.2667573094367981, -0.02581462450325489, -0.08418192714452744, -0.012238455936312675, 0.10739579796791077, -0.04449468478560448, 0.08275949209928513, 0.05702359601855278, -0.032494619488716125, 0.006798399146646261, -0.04761352017521858, -0.17287752032279968, -0.06661935895681381, -0.03313902020454407, 0.13913919031620026, 0.20935627818107605, 0.18964718282222748, 0.26871463656425476, -0.03922490403056145, 0.16037119925022125, -0.010091269388794899, 0.345928817987442, -0.1444549411535263, -0.20529623329639435, 0.02321358025074005, -0.06490936130285263, 0.13785329461097717, -0.003862714394927025, -0.094296894967556, -0.22292402386665344, 0.07179293781518936, 0.11937230825424194, -0.034147925674915314, 0.050654225051403046, 0.22744955122470856, -0.05508899316191673, 0.14589382708072662, -0.3958371877670288, 0.09046316146850586, 0.19829636812210083, 0.19342747330665588, 0.03515119105577469, -0.11758583039045334, 0.3233000636100769, -0.25385674834251404, -0.08494981378316879, 0.24284738302230835, 0.0063463663682341576, 0.07035074383020401, 0.42363739013671875, -0.09930010885000229, 0.03605305030941963, 0.07626649737358093, -0.007540385238826275, 0.158594012260437, 0.2914031147956848, 0.038779117166996, 0.02781802974641323, -0.2344338744878769, 0.2839798629283905, 0.04898809641599655, 0.04960241913795471, 0.03601862117648125, 0.007818643935024738, 0.29347261786460876, -0.223087340593338, -0.041162945330142975, 0.2894381284713745, 0.06112693250179291, -0.12351761758327484, 0.044659923762083054, -0.13530024886131287, 0.2060052454471588, 0.07772902399301529, 0.004796419758349657, -0.037961434572935104, -0.26611563563346863, -0.03343961387872696, 0.010626149363815784, -0.13804160058498383, -0.027468955144286156, 0.291470468044281, -0.15081626176834106, 0.08453252911567688, 0.14775297045707703, 0.06654024124145508, -0.05032644420862198, 0.11749410629272461, 0.349538654088974, -0.019763754680752754, 0.007991001009941101, 0.09812035411596298, 0.1419004201889038, 0.34164124727249146, -0.22177764773368835, -0.09353402256965637, -0.12521666288375854, -0.06988368183374405, -0.05161907523870468, 0.18784110248088837, 0.006725241430103779, -0.19899359345436096, 0.2222275286912918, -0.15542453527450562, -0.08487348258495331, 0.11698995530605316, -0.04172531142830849, 0.13574546575546265, -0.06318507343530655, 0.19780021905899048, -0.15028579533100128, -0.24866017699241638, 0.08422203361988068, 0.09929230809211731, 0.0157120730727911, 0.0054444437846541405, 0.3070164918899536, 0.02709604986011982, 0.04934735596179962, 0.2604736387729645, 0.1388481706380844, -0.3265576958656311, -0.202997624874115, -0.13070547580718994, -0.21261367201805115, -0.12905235588550568, 0.18895263969898224, -0.0325082466006279, -0.007198473438620567, 0.13679058849811554, 0.3242742717266083, 0.32379475235939026, -0.16401240229606628, -0.17348980903625488, 0.018943781033158302, 0.06517612934112549, -0.07802661508321762, 0.4836260974407196, 0.241170272231102, -0.11148497462272644, -0.031074682250618935, 0.15463516116142273, -0.0029967885930091143, 0.03240043669939041, -0.12128446251153946, -0.3562544584274292, -0.1171230748295784, 0.062259476631879807, 0.30824729800224304, 0.08311454206705093, -0.01815592497587204, 0.07634427398443222, 0.33366191387176514, -0.4198778569698334, 0.04468156397342682, 0.2364644557237625, -0.11085237562656403, -0.05865988880395889, -0.5045221447944641, 0.08426260948181152, 0.025608088821172714, -0.17199061810970306, 0.6847743391990662, 0.03439304232597351, -0.008849075995385647, 0.0628102570772171, 0.15827466547489166, 0.12329550832509995, -0.9886760711669922, -0.06249558553099632, -0.1623266190290451, -0.1984158456325531, 0.12176337838172913, 0.17745472490787506, -0.20705822110176086, 0.043370068073272705, 0.051946010440588, 0.030385201796889305, -0.2715504765510559, 0.17574883997440338, 0.3052772283554077, 0.2372388392686844, 0.05367976054549217, -0.19688323140144348, -0.46044740080833435, 0.021795053035020828, 0.29001563787460327, -0.4233509302139282, 0.13805538415908813, 0.31943193078041077, -0.4255780279636383, 0.17083562910556793, 0.16382145881652832, -0.17518799006938934, 0.0834435448050499, 0.1657862663269043, 0.4190746247768402, -0.2953889071941376, -0.00890862662345171, -0.4137836992740631, -0.053442489355802536, 0.1637866050004959, -0.027994148433208466, 0.5133967399597168, -0.12271402776241302, -0.23560060560703278, -0.0019782998133450747, 0.026827093213796616, -0.4442521631717682, 0.26990312337875366, 0.37160202860832214, -0.07809089124202728, -0.08107216656208038, 0.11719052493572235, 0.2105720490217209, 0.1487429440021515, 0.11560618877410889, -0.06850286573171616, 0.12906312942504883, -0.03641662001609802, 0.23601336777210236, 0.0496518611907959, -0.02095571905374527, 0.2133999615907669, -0.04375466704368591, 0.11657892912626266, 0.0707228034734726, -0.18823695182800293, 0.07220350205898285, -0.1429414451122284, -0.13871173560619354, -0.040300153195858, 0.10701525211334229, 0.1354573518037796, 0.3731994926929474, 0.32004064321517944, 0.00598125159740448, 0.044615644961595535, 0.1332358866930008, -0.11419904977083206, -0.10789480060338974, 0.22629588842391968, 0.10556899011135101, 0.22794142365455627, 0.2260734885931015, -0.11448215693235397, -0.23089715838432312, -0.14541158080101013, -0.19937016069889069, -0.1619904786348343, 0.11943312734365463, 0.17143453657627106, -0.1797848790884018, 0.0937594473361969, -0.3196868598461151, -0.1252969205379486, -0.024064481258392334, 0.34218528866767883, 0.1173316016793251, 0.1723632514476776, 0.2477583885192871, -0.1187305748462677, 0.0518006831407547, 0.3078416585922241, -0.16347140073776245, 0.12163538485765457, 0.4294206500053406, 0.0074297282844781876, -0.4161951243877411, 0.07297351211309433, -0.28702184557914734, -0.002183666918426752, 0.2799656093120575, 0.05998287349939346, 0.924427330493927, -0.2430921196937561, 0.2845790684223175, 0.09891368448734283, 0.13133671879768372, -0.06740531325340271, -0.07098820805549622, 0.06462641805410385, 0.06113075837492943, -0.08450471609830856, 0.1106504574418068, 0.03154740855097771, 0.14863529801368713, 0.05199175328016281, -0.04852927476167679, -0.12337541580200195, -0.22981961071491241, 0.046505242586135864, 0.24840594828128815, 0.07815633714199066, -0.22888407111167908, 0.016663657501339912, -0.08922376483678818, -0.24571070075035095, 0.30730706453323364, -0.1586441695690155, -0.21702653169631958, -0.15070344507694244, -0.3330437242984772, -0.1642964780330658, 0.1461002677679062, -0.15240824222564697, 0.31635311245918274, 0.20478703081607819, 0.08561405539512634, 0.058311060070991516, 0.1913258582353592, 0.07600029557943344, -0.3929223418235779, -0.12071105092763901, -0.10764061659574509, -0.21152465045452118, 0.09655704349279404, 0.15898266434669495, -0.3868403434753418, 0.049057651311159134, -0.31040412187576294, -0.11663972586393356, 0.0064514861442148685, -0.1124747022986412, -0.12535181641578674, 0.039487943053245544, -0.11026132851839066, -0.1553650051355362, 0.00734366150572896, 0.11667226999998093, 0.022071598097682, -0.2002362757921219, 0.0748949646949768, -0.003493195166811347, -0.20946004986763, -0.03059472143650055, 0.08093471080064774, -0.03882337361574173, -0.5543781518936157, -0.29218417406082153, 0.05800085887312889, -0.3358857333660126, 0.016786929219961166, 0.14654725790023804, -0.11803369224071503, -0.02556687965989113, 0.22233739495277405, 0.5522984862327576, -0.12562216818332672, -0.04274074360728264, -0.08977752923965454, 0.009617915377020836, -0.20573733747005463, 0.21272480487823486, 0.010195016860961914, -0.10185278207063675, -0.03395352512598038, -0.08190909028053284, 0.35148173570632935, 0.05732230469584465, -0.11384451389312744, -0.2380037158727646, -0.1235181912779808, 0.2020299732685089, 0.2391451895236969, 0.1583610624074936, -0.08404558151960373, 0.1885901391506195, 0.14826719462871552, -0.08936124294996262, 0.23766304552555084, -0.04857476055622101, -0.11544280499219894, -0.0012955067213624716, -0.05274833366274834, -0.24008451402187347, 0.1667090207338333, 0.27132442593574524, 0.31541892886161804, 0.16590090095996857, -0.11475925147533417, -0.2550159692764282, -0.0890846997499466, -0.16480503976345062, 0.08083274215459824, 0.4075653851032257, 0.364377498626709, 0.09465561807155609, 0.15880221128463745, 0.07826928794384003, -0.04154828563332558, -0.20973004400730133, -0.3153899908065796, -0.19386731088161469, 0.06811092048883438, -0.19771911203861237, -0.08243446797132492, 0.13370901346206665, 0.15482273697853088, -0.10552266240119934, -0.20510247349739075, -0.10654289275407791, -0.13991618156433105, -0.017140720039606094, -0.04109151288866997, -0.04428490623831749, -0.06587247550487518, -0.1552838683128357, -0.008590048179030418, 0.07215060293674469, -0.1473766267299652, -0.008629570715129375, -0.1805344671010971, 0.09604806452989578, -0.1581866443157196, 0.31346121430397034, 0.05755959078669548, -0.010047630406916142, -0.003276313655078411, 0.1401524692773819, 0.13967236876487732, 0.006290752440690994, -0.2595084607601166, 0.012209438718855381, -0.08742263913154602, -0.19441968202590942, 0.013258595019578934, 0.16117754578590393, -0.0814899355173111, 0.038616057485342026, 0.15304507315158844, 0.014709701761603355, 0.2126736044883728, -0.053285401314496994, -0.09796210378408432, 0.11124314367771149, 0.30130520462989807, 0.11546240001916885, -0.06405828893184662, -0.13245128095149994, 0.2342211902141571, -0.23527206480503082, 0.414155513048172, 0.8226454257965088, 0.18952102959156036, -0.20850910246372223, 0.8182000517845154, -0.9264211058616638, 1.1575918197631836, -0.9262263774871826, -0.5804977416992188, -0.21251672506332397, 1.1254605054855347, 0.1606307178735733, 0.08172006905078888, -0.35440585017204285, 0.10036048293113708, 0.002217122120782733, -0.03945758938789368, 0.3678183853626251, -0.13463862240314484, -0.15091027319431305, 0.04656926915049553, -0.1779901683330536, -0.46229469776153564, 0.21286602318286896, -0.11532337218523026, 0.16022871434688568, -0.1767195612192154, 0.005822629667818546, 0.21793746948242188, -0.5533543825149536, 0.06688867509365082, 0.11281289160251617, 0.017274295911192894, -0.03884191811084747, 0.3491307497024536, 0.10897167772054672, -0.05612565949559212, -0.023697372525930405, -0.1169501543045044, -0.396816223859787, 0.11998507380485535, 0.035296935588121414, -0.21788088977336884, -0.3818207383155823, 0.022072838619351387, -0.09835192561149597, -0.4980292320251465, -0.10833285748958588, -0.14950691163539886, -0.31321609020233154, -0.3010725677013397, -0.18579821288585663, 0.18708167970180511, -0.3284524381160736, -0.3447708487510681, -0.029561031609773636, -0.06730063259601593, -0.0935504361987114, -0.34453335404396057, -0.10074928402900696, 0.11300330609083176, -0.0487961582839489, -0.448240727186203, 0.11179418861865997, -0.014632177539169788, 0.33770251274108887, -0.0902918130159378, -0.12194129824638367, 0.14428827166557312, -0.17862902581691742, 0.13218720257282257, -0.2270822525024414, -0.05705183744430542, 0.3071518540382385, -0.30739882588386536, -0.08967970311641693, 0.3961927890777588, -0.44380638003349304, 0.09640075266361237, -0.1412990838289261, 0.2627824544906616, -0.09843569248914719, 0.3980671167373657, -0.2911001741886139, -0.2189032882452011, -0.3428935408592224, 0.31181856989860535, -0.31624287366867065, 0.03601382300257683, 0.4580087661743164, -0.2572089433670044, 0.20989890396595, -0.04386749491095543, 0.17133641242980957, -0.7078806161880493, 0.2325112223625183, 0.025707418099045753, -0.21037998795509338, -0.1440872997045517, -0.10736873000860214, -0.2709834575653076, 0.17984247207641602, -0.07813710719347, 0.24474024772644043, -0.16921938955783844, -0.2700127959251404, -0.29583653807640076, 0.0043320138938724995, 0.35611554980278015, 0.06533654779195786, 0.16773201525211334, -0.30359959602355957, -0.2972310185432434, -0.38824278116226196, 0.28706997632980347, -0.2446945756673813, -0.28858765959739685, -0.5034021139144897, 0.001874638837762177, 0.2950652241706848, 0.10141553729772568, -0.3387398421764374, 0.2944021224975586, 0.41176849603652954, -0.12290210276842117, 0.4611622095108032, 0.015076205134391785, -0.3367490768432617, -0.1714777797460556, 0.007382091134786606, 0.024978695437312126, -0.021121252328157425, 0.41070064902305603, 0.30648210644721985, 0.40460866689682007, -0.34725019335746765, -0.4782101511955261, -0.4281606078147888, -0.23980841040611267, 0.22993223369121552, -0.2508288025856018, -0.46795985102653503, -0.2958930730819702, 0.0029056016355752945, -0.10344427078962326, -0.15692242980003357, -0.19419416785240173, -0.13185419142246246, 0.5037534236907959, 0.049619704484939575, 0.010650490410625935, -0.07221119850873947, 0.25986912846565247, -0.004735765513032675, 0.2740509808063507, 0.07645321637392044, -0.034398436546325684, 0.28538182377815247, -0.23536796867847443, 0.21613581478595734, 0.0812976211309433, -0.24458381533622742, 0.39264166355133057, 0.039535291492938995, 0.009138709865510464, 0.018299518153071404, 0.1669023633003235, -0.2707206606864929, -0.06790841370820999, -0.09477140754461288, 0.06137609854340553, -0.14050012826919556, -0.13555441796779633, -0.04339216649532318, 0.11804936081171036, -0.14202173054218292, 0.20229555666446686, -0.31147900223731995, -0.22906191647052765, 0.007234218064695597, 0.03555918484926224, -0.12547513842582703, 0.12909244000911713, -0.0016769657377153635, -0.03427254781126976, -0.17504243552684784, 0.05125754326581955, -0.09202614426612854, -0.015606947243213654, -0.17641717195510864, -0.08326512575149536, 0.057327404618263245, 0.11523532122373581, 0.13652129471302032, 0.1493830680847168, -0.19068321585655212, -0.0456790030002594, 0.032568562775850296, 0.032084353268146515, -0.000280639564152807, 0.03159181773662567, 0.15007221698760986, 0.004058595281094313, 0.23912958800792694, -0.02258414775133133, 0.047585953027009964, -0.0392938069999218, -0.17934449017047882, -0.01919197104871273, 0.2480797916650772, 0.1055775135755539, 0.10432764887809753, -0.22812718152999878, 0.08575750887393951, 0.04507423937320709, -0.08705433458089828, 0.1821417659521103, 0.03932739794254303, -0.1643843948841095, 0.2619648873806, 0.11102239042520523, 0.025624621659517288, 0.08288876712322235, 0.5076011419296265, -0.18692365288734436, 0.0830831229686737, -0.01459398865699768, -0.11664672195911407, -0.14570413529872894, -0.5016027092933655, 0.3512844741344452, -0.16025656461715698, 0.1155867949128151, -0.13960614800453186, 0.06850037723779678, -0.2265928089618683, 0.26673996448516846, 0.16268190741539001, 0.04544173181056976, -0.18161237239837646, -0.179454043507576, 0.07280953228473663, 0.17176690697669983, -0.03102729097008705, -0.06947244703769684, -0.18556857109069824, 0.09834223985671997, 0.2309148907661438, -0.01274787075817585, -0.1302262395620346, 0.3702467978000641, 0.18530938029289246, 0.03664546087384224, 0.09481868892908096, 0.10493889451026917, -0.2076226770877838, -0.1582077294588089, 0.18183842301368713, -0.057013001292943954, -0.02498110756278038, -0.25802311301231384, -0.17293530702590942, -0.10126528143882751, -0.10774129629135132, 0.09878011792898178, 0.005339699797332287, 0.0020652813836932182, -0.10065414756536484, 0.1474962830543518, 0.030068140476942062, 0.02696317434310913, -0.2207576334476471, -0.06047186255455017, 0.0891115739941597, 0.03548109531402588, 0.1443243771791458, -0.008421992883086205, -0.2751447260379791, 0.16890759766101837, -0.1630445271730423, 0.247017502784729, 0.17063772678375244, 0.025155674666166306, 0.12095537781715393, 0.2058892697095871, 0.23061387240886688, -0.3243965804576874, -0.08175559341907501, -0.03910450637340546, -0.14525851607322693, 0.09118880331516266, 0.24825717508792877, 0.2912503480911255, 0.008575609885156155, -0.16835501790046692, -0.2258327603340149, 0.13690181076526642, 0.11740060150623322, -0.0941864475607872, -0.1514015644788742, -0.2627227008342743, 0.4405509829521179, 0.03418976441025734, 0.06372617185115814, -0.2744658589363098, -0.004763035569339991, 0.04025474563241005, 0.05876642093062401, -0.23793548345565796, 0.06419301778078079, -0.06510157138109207, 0.000552506884559989, 0.024709707126021385, -0.16278724372386932, -0.05451127141714096, -0.0070851026102900505, 0.1031779944896698, 0.08510926365852356, 0.029283562675118446, -0.014354324899613857, 0.004965781234204769, 0.04046979174017906, -0.04192445054650307, 0.10300258547067642, 0.08529272675514221, 0.059532903134822845, 0.10713398456573486, 0.3371540307998657, 0.0654454380273819, -0.28669703006744385, -0.270091712474823, -0.06400677561759949, -0.037639107555150986, -0.211091086268425, -0.13402743637561798, 0.0660155639052391, 0.026550404727458954, 0.046143561601638794, 0.26725172996520996, -0.13436724245548248, -0.013733265921473503, -0.14580486714839935, 0.003737076185643673, -0.0324263758957386, 0.18528272211551666, 0.24675431847572327, 0.1466558575630188, 0.015664100646972656, 0.23334796726703644, -0.4701830744743347, -0.04175495356321335, -0.15713423490524292, 0.3605159819126129, -0.05162651464343071, 0.05014540255069733, -0.30212095379829407, -0.14639149606227875, 0.1299721747636795, -0.121316097676754, -0.040854908525943756, 0.07268926501274109, -0.2414434850215912, -0.11616126447916031, 0.1817609816789627, 0.3044424057006836, -0.12770946323871613, -0.024211103096604347, -0.2368200421333313, 0.14488089084625244, -0.02411735989153385, -0.3750150501728058, 0.1431816667318344, -0.3523165285587311, 0.09787167608737946, 0.009761842899024487, -0.15812523663043976, -0.22954793274402618, 0.002632674528285861, 0.05593324452638626, -0.2156299501657486, -0.2779114246368408, -0.16855092346668243, 0.08857990056276321, 0.10392702370882034, 0.24619854986667633, -0.04101799428462982, -0.005487929098308086, -0.279439240694046, 0.04475490376353264, 0.2717422544956207, 0.06188727170228958, -0.047715071588754654, -0.3061218857765198, 0.13383591175079346, -0.05185632407665253, -0.314359575510025, 0.026129279285669327, -0.17963159084320068, -0.10777399688959122, 0.05615604668855667, 0.13791732490062714, -0.10949785262346268, -0.10966252535581589, 0.028037454932928085, 0.1251104474067688, 0.2053687423467636, 0.03498174995183945, -0.22293996810913086, -0.23728281259536743, -0.0650085061788559, 0.3909635841846466, -0.015748286619782448, 0.011368369683623314, -0.15546636283397675, 0.02977588400244713, 0.015330892987549305, 0.13713452219963074, 0.1872708648443222, 0.09915143996477127, -0.08524509519338608, 0.006320993881672621, 0.07691145688295364, -0.09069608151912689, 0.14342251420021057, 0.048660680651664734, -0.034137580543756485, -0.2409818023443222, 0.23743554949760437, -0.07066719233989716, -0.37018412351608276, 0.24264629185199738, 0.14718858897686005, 0.06681308895349503, -0.17279569804668427, -0.0414348803460598, -0.0004428649554029107, -0.2989882230758667, 0.10953855514526367, -0.1697705090045929, 0.19884106516838074, -0.18218117952346802, 0.11161983758211136, 0.18696190416812897, 0.05751371756196022, -0.12738342583179474, -0.054507751017808914, -0.0808834657073021, -0.19179023802280426, -0.10450951009988785, -0.22613070905208588, -0.3093254268169403, 0.021698324009776115, 0.14026613533496857, 0.10579141974449158, 0.020085984840989113, 0.022898400202393532, 0.41836532950401306, -0.030633626505732536, -0.3088615834712982, -0.2517995238304138, 0.0698808953166008, 0.28634926676750183, 0.5072341561317444, -0.387943297624588, -0.30797505378723145, 0.3034977316856384, -0.4039534032344818, -0.3521886467933655, 0.10251250863075256, -0.017757823690772057, -0.09541325271129608, 0.2009672075510025, 0.18666796386241913, -0.534021258354187, 0.2149723470211029, 0.028916899114847183, -0.02378459833562374, 0.4593268036842346, 0.17136520147323608, -0.4978893995285034, -0.2521752119064331, 0.20482468605041504, 0.26898840069770813, 0.4883107841014862, 0.2128312885761261, -0.02548823691904545, 0.43262550234794617, 0.597466230392456, -0.17983713746070862, -0.18998365104198456, -0.43040189146995544, -0.289951354265213, 0.19837893545627594, -0.2195163071155548, -0.05348317697644234, -0.3374742567539215, 0.29027506709098816, 0.0668797641992569, 0.18782436847686768, -0.4084315896034241, -0.26089951395988464, 0.22152714431285858, -0.30887261033058167, -0.21791018545627594, 0.3158734142780304, -0.12710677087306976, -0.16870863735675812, 0.08451676368713379, 0.31054386496543884, -0.203555166721344, -0.18587613105773926, -0.2565257251262665, 0.03265805542469025, 0.36188578605651855, -0.12117776274681091, 0.10638176649808884, -0.054302383214235306, -0.05942213907837868, -0.005911802873015404, 0.05318000540137291, -0.15886391699314117, -0.3228406310081482, 0.4256310760974884, -0.08103854954242706, -0.2589123845100403, -0.0105441240593791, 0.17226411402225494, -0.022921888157725334, -0.19759678840637207, -0.16163447499275208, 0.2397175282239914, -0.08618130534887314, 0.07997584342956543, 0.19649037718772888, -0.12944786250591278, -0.3932205140590668, -0.15787386894226074, -0.2875988185405731, -0.2698551416397095, -0.11706665903329849, 0.03210185840725899, -0.041120290756225586, -0.0571623370051384, 0.41585126519203186, 0.04751229286193848, -0.1750413328409195, -0.35548335313796997, 0.08038599789142609, 0.2728826105594635, -0.05598798021674156, -0.5444344878196716, -0.07935547828674316, -0.22194671630859375, -0.3006802797317505, -0.005461115390062332, 0.3839656710624695, 0.12284732609987259, 0.16032551229000092, 0.22242321074008942, -0.13244733214378357, 0.23416277766227722, 0.11149191856384277, -0.060254234820604324, -0.034970130771398544, 0.23134414851665497, 0.3482631742954254, -0.0554841011762619, -0.04375233128666878, -0.19151124358177185, -0.12739315629005432, 0.6507554054260254, 0.9287571907043457, 0.4401587247848511, 0.06889001280069351, 0.18387988209724426, -0.12368662655353546, -0.23065665364265442, 0.08178795874118805, -0.030472924932837486, -0.27477049827575684, -0.0836530476808548, 0.05522239953279495, 0.2951081395149231, 0.14772675931453705, -0.258545458316803, -0.4783889055252075, 0.03145020455121994, -0.020033398643136024, 0.2900228202342987, -0.08813388645648956, -0.03632732853293419, -0.33748292922973633, -0.21678490936756134, -0.2092452496290207, 0.12537628412246704, 0.27965888381004333, -0.10139229148626328, 0.27231311798095703, 0.2669983208179474, 0.29594889283180237, 0.04070642590522766, 0.017949145287275314, 0.06685160100460052, 0.08806218206882477, -0.17441608011722565, 0.029825137928128242, -0.02516537345945835, -0.0907231941819191, 0.20836719870567322, -0.09749013930559158, -0.12530700862407684, -0.2516792416572571, -1.1297924518585205, 0.8867093920707703, -0.6046236753463745, -0.6186611652374268, -0.2599014639854431, -0.5778390765190125, -0.4434870779514313, 0.7031885385513306, -0.6494249701499939, 0.6367904543876648, 0.7399899959564209, -0.2715165615081787, 0.09848685562610626, -0.29595333337783813, 0.5245694518089294, 0.2662810981273651, 0.3065492808818817, 0.2841102182865143, -0.23336508870124817, -0.13557729125022888, 0.06763573735952377, -0.464827299118042, -0.00840846262872219, -0.1836261749267578, -0.21030959486961365, -0.02316093258559704, 0.2831477224826813, -0.001427466981112957, -0.0319274365901947, 0.042016539722681046, 0.13029266893863678, 0.22532735764980316, -0.33899423480033875, -0.0920552909374237, -0.18340757489204407, 0.2715562582015991, 0.31924811005592346, 0.2614120543003082, 0.022077815607190132, -0.26079562306404114, 0.19519560039043427, -0.13800278306007385, 0.020870981737971306, 0.03938058018684387, 0.038348253816366196, 0.09561999142169952, 0.38718387484550476, -0.2834400236606598, 0.022520314902067184, -0.20108860731124878, -0.03945886716246605, -0.032941803336143494, 0.09108244627714157, 0.14112646877765656, 0.23196756839752197, -0.024936486035585403, 0.031986404210329056, -0.06652308255434036, 0.05865403637290001, 0.26352962851524353, -0.32482442259788513, 0.18773490190505981, -0.03929337486624718, -0.18100476264953613, -0.09715768694877625, -0.1442786604166031, 0.07577802985906601, -0.09637685865163803, -0.2747545838356018, -0.12697429955005646, 0.01002574060112238, 0.07663513720035553, 0.08896932005882263, -0.09399143606424332, -0.06146042421460152, 0.141500324010849, -0.2657627761363983, 0.0062874192371964455, -0.08435041457414627, 0.29496896266937256, -0.12842939794063568, -0.11379577219486237, -0.05218955874443054, -0.11294931918382645, 0.1842861771583557, -0.2917584180831909, -0.09207459539175034, 0.1504022628068924, 0.1390497088432312, -0.18427808582782745, -0.09312992542982101, -0.2008998692035675, -0.03205244615674019, -0.133711040019989, -0.0579059012234211, -0.14987316727638245, -0.12117874622344971, -0.3196749985218048, -0.06334660202264786, 0.06170282140374184, 0.1859847754240036, 0.11133286356925964, 0.1588793396949768, -0.33685654401779175, 0.4292624592781067, -0.15908628702163696, 0.10666603595018387, -0.5474473834037781, -0.3252287805080414, 0.3915686011314392, -0.038248125463724136, 0.07987207174301147, 0.11023572832345963, 0.15232734382152557, 0.10450171679258347, 0.08460161834955215, -0.04182003438472748, 0.31130078434944153, -0.15529048442840576, 0.21919500827789307, 0.04522977024316788, 0.14659540355205536, -0.16659140586853027, 0.3856970965862274, -0.15109027922153473, 0.3361780345439911, -0.11252911388874054, 0.07118861377239227, -0.350652277469635, 0.4624018669128418, -0.35466253757476807, 0.28573837876319885, 0.16427096724510193, 0.22377076745033264, -0.021839356049895287, 0.1353139728307724, 0.37854859232902527, -0.06461350619792938, 0.42804110050201416, 0.10399124026298523, -0.2763388156890869, -0.15467335283756256, -0.23048102855682373, 0.06824987381696701, -0.2525703012943268, -0.07405281811952591, 0.23096710443496704, 0.2635537087917328, -0.2517673969268799, 0.18873821198940277, -0.26774317026138306, -0.32281455397605896, -0.12942072749137878, -0.014233074150979519, 0.008288242854177952, -0.11964487284421921, 0.2801314890384674, 0.4577566087245941, -0.06549515575170517, 0.2709086537361145, -0.10435768216848373, -0.11925946921110153, 0.07537505030632019, -0.16319751739501953, -0.05971512570977211, -0.11343953013420105, 0.15996794402599335, -0.010002629831433296, 0.25161033868789673, 0.07737826555967331, -0.09613393247127533, -0.14728106558322906, 0.06774090975522995, 0.2642916738986969, 0.054913945496082306, 0.3097062110900879, -0.3303910195827484, 0.18434755504131317, 0.2570163905620575, -0.01593555137515068, -0.011881699785590172, 0.39132899045944214, -0.039989396929740906, 0.26128530502319336, -0.18263135850429535, 0.04124772921204567, -0.24003078043460846, 0.025233568623661995, 0.09413307905197144, 0.13615301251411438, 0.08021286129951477, -0.22525842487812042, -0.11392548680305481, -0.07299575209617615, 0.10627956688404083, 0.073885977268219, -0.07265303283929825, -0.10775332152843475, 0.19748584926128387, 0.1743611991405487, -0.007238248363137245, -0.08596303313970566, -0.2277553528547287, -0.21055814623832703, -0.09583824872970581, -0.026196017861366272, 0.16867168247699738, -0.30987805128097534, -0.16818228363990784, 0.01716328039765358, 0.33277371525764465, 0.24736298620700836, -0.07937497645616531, 0.01348119881004095, -0.10252698510885239, -0.13582511246204376, 0.024526003748178482, 0.050767481327056885, -0.06956317275762558, 0.13241952657699585, 0.03847384825348854, -0.13339106738567352, -0.16680283844470978, 0.011992041952908039, 0.25098562240600586, -0.02852163277566433, 0.08792807161808014, -0.03681333363056183, -0.19746807217597961, -0.020662454888224602, 0.011292892508208752, -0.13432233035564423, -0.2783859372138977, 0.26877301931381226, -0.034241531044244766, 0.0851336345076561, -0.08877284824848175, 0.012255382724106312, -0.007240075618028641, 0.0311500933021307, -0.19431263208389282, -0.05226010084152222, 0.0987892895936966, 0.16429772973060608, -0.018413618206977844, -0.1279556304216385, -0.17470267415046692, -0.004859360866248608, 0.3499818444252014, -0.14727289974689484, -0.050155624747276306, 0.019212109968066216, -0.12942151725292206, -0.06557909399271011, 0.27337446808815, -0.008724489249289036, -0.12700305879116058, 0.13834233582019806, -0.26360023021698, 0.08133967220783234, -0.12881126999855042, -0.005723934154957533, -0.03842237964272499, 0.06187817454338074, 0.0388256274163723, 0.10607261210680008, -0.11362888664007187, -0.12630623579025269, 0.1651270091533661, 0.10299312323331833, -0.15395043790340424, 0.12894046306610107, 0.19249048829078674, 0.037779927253723145, 0.019276108592748642, 0.040442727506160736, 0.1990097016096115, -0.12175095081329346, -0.08665258437395096, -0.20953187346458435, 0.08612354099750519, 0.01639246940612793, 0.07630028575658798, 0.17567002773284912, -0.2775295078754425, 0.02544897235929966, -0.08277739584445953, -0.23272763192653656, 0.1057964488863945, -0.0005073073552921414, -0.38367369771003723, 0.17171967029571533, 0.08802161365747452, -0.2831875681877136, -0.36605381965637207, -0.17649221420288086, 0.47012782096862793, 0.27256205677986145, -0.08547951281070709, -0.15404053032398224, -0.29307490587234497, -0.18419042229652405, 0.15074054896831512, 0.023066142573952675, -0.006514927837997675, -0.025905009359121323, 0.3211597800254822, -0.2827543020248413, -0.12689697742462158, 0.2803519070148468, -0.14458736777305603, -0.0840715765953064, 0.07693421840667725, -0.22598882019519806, -0.13921162486076355, 0.04389882832765579, 0.08691881597042084, -0.028651179745793343, -0.02134474739432335, 0.011635597795248032, 0.15245921909809113, 0.0012586235534399748, -0.03821932524442673, 0.17191503942012787, 0.15476322174072266, -0.25862839818000793, 0.015611695125699043, 0.1469101756811142, -0.30474624037742615, -0.024424472823739052, -0.2298387736082077, -0.0951785072684288, -0.09639899432659149, 0.03253358229994774, 0.10546450316905975, 0.08070707321166992, -0.08721759170293808, 0.29877790808677673, -0.101325124502182, 0.15186956524848938, -0.04122193902730942, -0.06445707380771637, -0.04943462461233139, 0.048147015273571014, -0.012561528943479061, 0.022958816960453987, 0.11599401384592056, -0.046120937913656235, -0.17157240211963654, 0.10187815129756927, -0.1597682535648346, 0.10448215156793594, 0.18488410115242004, -0.14942479133605957, 0.10615238547325134, 0.2420160174369812, 0.20451948046684265, -0.11190065741539001, 0.37122201919555664, -0.10345689952373505, -0.17738200724124908, 0.13431836664676666, 0.23994377255439758, 0.20026575028896332, 0.17725788056850433, 0.15606634318828583, 0.4103093147277832, 0.08782323449850082, -0.3009825646877289, -0.26746106147766113, -0.4997613728046417, -0.06739922612905502, 0.04341400787234306, -0.11226536333560944, -0.05620482563972473, 0.5290297269821167, 0.2179998755455017, 0.4215754270553589, -0.13289687037467957, 0.3951895534992218, 0.10243669897317886, 0.25267380475997925, 0.04754774272441864, 0.013682983815670013, 0.10340631753206253, 0.4016580283641815, -0.03267703577876091, 0.11405963450670242, -0.31980907917022705, -0.059608589857816696, -0.09391815215349197, 0.28204938769340515, -0.06784520298242569, 0.11724209785461426, 0.2199089378118515, 0.0009784543653950095, -0.08178804814815521, -0.12963035702705383, 0.08470132946968079, -0.4121985137462616, -0.041221339255571365, 0.044750336557626724, 0.10567726194858551, 0.3291034996509552, 0.004116678610444069, -0.07647426426410675, 0.13892437517642975, 0.09219281375408173, 0.08102213591337204, -0.027158567681908607, -0.09015548229217529, -0.1972237080335617, 0.15939146280288696, 0.25672611594200134, -0.022352317348122597, -0.005300507880747318, 0.03346269205212593, 0.004477835260331631, -0.12250657379627228, 0.12805962562561035, -0.17382511496543884, -0.10742012411355972, -0.05207494646310806, 0.204304501414299, 0.16142301261425018, 0.17968659102916718, -0.07439686357975006, -0.17292816936969757, -0.05493483692407608, 0.0203999076038599, -0.3375592827796936, 0.05647962912917137, -0.12803341448307037, 0.01797405071556568, -0.009737173095345497, -0.058396972715854645, -0.13237178325653076, -0.12993116676807404, 0.23572233319282532, 0.05223560705780983, 0.011883989907801151, -0.035474520176649094, -0.1782670021057129, 0.038509245961904526, 0.06458022445440292, 0.19466915726661682, 0.07679474353790283, -0.06969168037176132, -0.07117735594511032, -0.10177348554134369, -0.1652129888534546, -0.11051254719495773, -0.10562540590763092, -0.03079810179769993, -0.19365322589874268, 0.04579436406493187, 0.0544574037194252, -0.12444521486759186, 0.18422071635723114, 0.06800489127635956, -0.1514599770307541, 0.13468390703201294, -0.28308942914009094, 0.0667242482304573, -0.046817339956760406, 0.005931322928518057, -0.06947853416204453, -0.0567592978477478, -0.30261337757110596, 0.040974587202072144, 0.1799176186323166, 0.17911091446876526, 0.060867492109537125, 0.036392487585544586, 0.17214220762252808, -0.030090415850281715, 0.055612534284591675, -0.11737142503261566, -0.20994751155376434, 0.02527487277984619, 0.09713739156723022, -0.1315745860338211, -0.17141154408454895, 0.0854952335357666, -0.6091281771659851, 0.1049262285232544, -0.20574602484703064, -0.16473276913166046, 0.0901305228471756, 0.10961867868900299, -0.1447262018918991, 0.00761391082778573, 0.17746886610984802, 0.07265690714120865, -0.029231548309326172, 0.004447643179446459, 0.030025962740182877, 0.08472279459238052, -0.25615984201431274, 0.02093343809247017, -0.07602322846651077, -0.020444335415959358, -0.03649595379829407, -0.27718690037727356, -0.05739191174507141, 0.009416463784873486, -0.1856955885887146, 0.2668139934539795, 0.09620433300733566, -0.1589193195104599, -0.22154898941516876, -0.04855302721261978, 0.04784484952688217, 0.05858509987592697, 0.21718236804008484, 0.08348676562309265, -0.024815930053591728, -0.07076016813516617, 0.15103405714035034, 0.1062324121594429, -0.5319234132766724, -0.10494779050350189, -0.018399478867650032, -0.02402326464653015, -0.17636917531490326, 0.22286804020404816, -0.26555031538009644, -0.2153189331293106, -0.09784218668937683, -0.2061755657196045, -0.08837293833494186, 0.056080009788274765, 0.11457937955856323, -0.2074812352657318, 0.07749434560537338, -0.0014948572497814894, 0.11252938210964203, -0.07096140086650848, -0.14961457252502441, -0.17617444694042206, 0.14000318944454193, -0.1927337795495987, -0.0033961248118430376, 0.08078990131616592, 0.07991595566272736, -0.18283908069133759, 0.18400539457798004, -0.12312853336334229, -0.012275024317204952, -0.09356044977903366, -0.060917697846889496, 0.07932267338037491, 0.10469774901866913, 0.033337801694869995, -0.1574373096227646, 0.018873466178774834, 0.4892313778400421, -0.09775721281766891, 0.0994613766670227, 0.07290469855070114, -0.08342602849006653, -0.17987434566020966, -0.1044829785823822, -0.16584935784339905, 0.01763293705880642, 0.24562907218933105, -0.16341450810432434, -0.14757655560970306, 0.032270822674036026, 0.002158691408112645, 0.16293688118457794, 0.16811229288578033, 0.08417225629091263, 0.1292107105255127, 0.11269419640302658, -0.07617022097110748, 0.23135744035243988, 0.09121382236480713, -0.1913841813802719, 0.009965615347027779, 0.0224857609719038, -0.29559198021888733, -0.06471722573041916, 0.10673258453607559, 0.06506970524787903, -0.04712608829140663, 0.09347960352897644, 0.025961825624108315, -0.08424176275730133, -0.20290504395961761, 0.3814297616481781, 0.1822429895401001, -0.025288445875048637, 0.3181339502334595, 0.09407759457826614, 0.2272629588842392, 0.0007080631330609322, -0.1433199793100357, -0.05618356168270111, -0.15025310218334198, 0.0829252153635025, 0.059593699872493744, -0.032924722880125046, -0.0768171176314354, 0.006662910804152489, -0.22887887060642242, -0.08070190995931625, 0.06766815483570099, -0.027761615812778473, 0.05048101395368576, 0.02281445637345314, 0.0822058767080307, 0.6929027438163757, 0.12045769393444061, 0.2458944320678711, 0.04505524784326553, 0.2928406000137329, 0.28095248341560364, 0.4460824131965637, -0.8641549348831177, -0.4550057649612427, -0.8590865135192871, -0.26071271300315857, 0.6974391341209412, -0.33589231967926025, -0.18517592549324036, 0.2333642989397049, -0.2098330408334732, 0.15097825229167938, 0.2839410901069641, 0.06494151800870895, 0.059645190834999084, -0.27752265334129333, 0.02082354761660099, -0.009237449616193771, 0.003484091255813837, 0.08846671879291534, -0.24088962376117706, -0.2587020695209503, -0.11420567333698273, -0.13343268632888794, 0.23193731904029846, 0.20975744724273682, -0.09081236273050308, -0.2276928424835205, -0.046395014971494675, 0.11085277050733566, 0.1868126392364502, -0.016340581700205803, -0.04152844473719597, 0.16175159811973572, -0.24341534078121185, 0.007731561549007893, -0.5650520324707031, 0.03565310686826706, 0.25296300649642944, -0.03445223718881607, 0.3233334422111511, -0.1316351592540741, -0.19392290711402893, 0.09613275527954102, -0.022145522758364677, 9.17045254027471e-05, 0.39923572540283203, -0.0344097726047039, 0.17944571375846863, -0.22296231985092163, 0.1451643854379654, 0.20022793114185333, -0.08355347812175751, 0.13391859829425812, 0.11134534329175949, 0.1209634467959404, -0.4528636038303375, -0.1935061663389206, 0.09358696639537811, -0.008635107427835464, -0.03866518288850784, -0.13600188493728638, 0.3084603250026703, -0.021660322323441505, 0.08832404017448425, 0.2173415869474411, -0.12898123264312744, -0.16130295395851135, -0.04729344695806503, 0.1444147527217865, 0.26956817507743835, 0.33183813095092773, -0.06687936186790466, -0.40635210275650024, 0.19935797154903412, 0.17691010236740112, -0.17263294756412506, -0.03575638309121132, -0.023567931726574898, 0.06710945814847946, -0.06682951003313065, 0.15678668022155762, -0.13347545266151428, 0.301099568605423, 0.26588472723960876, -0.216305211186409, -0.033073313534259796, 0.08717264235019684, -0.21638084948062897, 0.2914063036441803, -0.2755223512649536, -0.13229230046272278, 0.10211578011512756, -0.16383694112300873, -0.17353838682174683, -0.3218967616558075, -0.06539294123649597, 0.01370226126164198, -0.16316349804401398, 0.2116113007068634, 0.07076441496610641, -0.017528168857097626, -0.21361376345157623, 0.3266145884990692, 0.06659097224473953, 0.005980100482702255, 0.21691158413887024, -0.09793772548437119, -0.0017676478018984199, -0.14536736905574799, -0.28852617740631104, -0.02837001532316208, 0.1517311930656433, -0.25853756070137024, 0.13947859406471252, -0.08658841252326965, -0.3397603929042816, 0.2332386076450348, -0.1450870931148529, -0.11779827624559402, 0.17961791157722473, -0.16847269237041473, 0.27116328477859497, 0.10564696043729782, -0.06622867286205292, -0.25851038098335266, 0.027524171397089958, 0.05247163027524948, -0.1787717193365097, -0.001349306432530284, -0.08573921024799347, -0.06307902932167053, 0.2434200942516327, 0.08906081318855286, 0.06951399147510529, -0.09654634445905685, -0.1742274910211563, 0.19610457122325897, 0.14847922325134277, 0.3807896077632904, 0.135512113571167, 0.016966834664344788, 0.3825192451477051, 0.036347441375255585, 0.09745845943689346, -0.05695123225450516, -0.3126465082168579, -0.18602770566940308, 0.40746641159057617, -0.08641841262578964, 0.11726808547973633, -0.16063596308231354, -0.007349435705691576, -0.16248929500579834, 0.1934121698141098, -0.069634348154068, -0.1069747656583786, 0.27492254972457886, -0.391343891620636, -0.17710866034030914, 0.197372168302536, 0.3085459768772125, -0.11491432785987854, 0.10766690224409103, 0.037465766072273254, 0.08508651703596115, -0.024971509352326393, 0.3791060447692871, 0.05068115517497063, 0.07459238916635513, 0.18988379836082458, -0.24312306940555573, 0.02281702496111393, -0.07398255169391632, -0.16839484870433807, -0.1162102073431015, -0.1027861088514328, 0.19667379558086395, -0.06424210965633392, -0.22240988910198212, -0.07944727689027786, -0.267963171005249, 0.16430377960205078, -0.019918590784072876, -0.03982650116086006, -0.21916061639785767, 0.09604902565479279, -0.22821789979934692, -0.13918426632881165, 0.08481517434120178, -0.08407186716794968, -0.06493379175662994, 0.045308228582143784, 0.02779470384120941, 0.03612113371491432, -0.09723148494958878, 0.2914210557937622, -0.38280192017555237, 0.0005429628072306514, -0.10230506956577301, 0.15171043574810028, -0.25629711151123047, 0.3170851171016693, 0.1572735607624054, -0.19390171766281128, -0.4400019645690918, 0.12692004442214966, -0.08316217362880707, -0.18171457946300507, -0.1827244907617569, 0.16617810726165771, -0.062242232263088226, -0.03458995372056961, -0.09915672987699509, 0.5015644431114197, -0.059543903917074203, -0.10819742828607559, -0.31518176198005676, 0.07900979369878769, -0.03799284249544144, -0.21047793328762054, -0.03567170724272728, 0.08419515937566757, -0.03739173337817192, 0.12004584819078445, -0.14776284992694855, -0.08938025683164597, -0.0006961302715353668, -0.14839909970760345, -0.24430300295352936, -0.262237012386322, -0.017107456922531128, 0.2984403371810913, -0.0699828639626503, -0.03435858339071274, 0.12585754692554474, 0.14839325845241547, 0.1487695425748825, -0.17227879166603088, 0.25028473138809204, 0.12344836443662643, 0.04010063037276268, -0.10701928287744522, -0.2095751166343689, -0.11807909607887268, -0.29315969347953796, -0.25133025646209717, -0.15176858007907867, -0.09331397712230682, 0.007238229736685753, 0.06251738220453262, -0.1014389768242836, 0.046082522720098495, -0.23934443295001984, -0.1293133795261383, -0.13719592988491058, 0.11970711499452591, 0.11098548024892807, -0.04209623113274574, -0.20991921424865723, -0.04705902561545372, 0.17276401817798615, -0.18558068573474884, -0.09408240020275116, -0.10105534642934799, 0.23168650269508362, 0.00016460251936223358, -0.010903498157858849, 0.29480552673339844, -0.05745907127857208, -0.026185443624854088, 0.2749183773994446, -0.1543453484773636, 0.04583005979657173, -0.02877430059015751, 0.10530371963977814, 0.24033936858177185, 0.21326613426208496, 0.1047809049487114, -0.17706088721752167, 0.006011649500578642, 0.031352449208498, -0.1939522922039032, -0.010252566076815128, 0.15894541144371033, -0.18743416666984558, 0.08873143047094345, -0.015278197824954987, 0.06264443695545197, 0.12130362540483475, -0.0712604820728302, 0.007411209866404533, 0.0879705622792244, 0.1084028035402298, -0.12138980627059937, -0.24923250079154968, -0.1746274083852768, -0.08687780797481537, 0.23003078997135162, 0.08400657027959824, 0.18843621015548706, 0.20404624938964844, 0.05519180744886398, 0.20768015086650848, -0.2199668288230896, 0.1055416613817215, -0.21198046207427979, 0.07971450686454773, -0.24897831678390503, -0.2397022694349289, -0.1202625259757042, 0.036217596381902695, -0.08059178292751312, -0.13538695871829987, 0.08200240135192871, -0.12752564251422882, 0.03890243172645569, -0.2710200548171997, 0.036644481122493744, -0.1831047534942627, -0.1069364845752716, 0.10920592397451401, 0.019592449069023132, -0.03417350351810455, 0.07077492028474808, 0.15963628888130188, 0.03420751541852951, -0.11333189159631729, -0.2845446467399597, 0.040040336549282074, -0.0678379088640213, 0.043511174619197845, 0.04704799875617027, -0.1662648320198059, -0.0373307466506958, -0.2159852385520935, -0.017604028806090355, 0.009509343653917313, -0.039063844829797745, 0.1010182723402977, -0.06381978839635849, -0.06484254449605942, 0.1390763521194458, -0.10195160657167435, -0.04916321486234665, -0.003836533520370722, -0.07187216728925705, -0.006990875583142042, 0.27332884073257446, 0.12864495813846588, -0.07169941067695618, 0.061668917536735535, 0.04994060844182968, 0.18519821763038635, 0.09052392095327377, 0.18442919850349426, 0.03474809229373932, 0.03002559207379818, -0.03359777107834816, 0.1156500056385994, -0.00037604340468533337, -0.25996971130371094, 0.16620959341526031, -0.07131969183683395, 0.2687731385231018, 0.03365709260106087, -0.13129717111587524, -0.06498079001903534, 0.08194083720445633, 0.09204856306314468, -0.06073382869362831, -0.12768131494522095, 0.025705669075250626, 0.09208881109952927, 0.09177672863006592, 0.10177794843912125, 0.18709589540958405, -0.039457306265830994, -0.17919744551181793, 0.08262897282838821, 0.1978159248828888, 0.15769071877002716, 0.24000005424022675, -0.19380497932434082, 0.037421226501464844, -0.19318251311779022, 0.3512169420719147, -0.21311818063259125, -0.05465991422533989, 0.022685179486870766, -0.060226719826459885, 0.0912148505449295, 0.016260268166661263, 0.21890373528003693, 0.0089194281026721, -0.02584528550505638, -0.07360021024942398, 0.18424585461616516, -0.12515069544315338, 0.07493321597576141, -0.24308080971240997, 0.2616674304008484, -0.00798891019076109, 0.05415571853518486, 0.022305339574813843, -0.09906483441591263, 0.03735503926873207, -0.11611368507146835, 0.21769189834594727, -0.11535738408565521, 0.4366687536239624, 0.3820230960845947, -0.087409108877182, -0.07169812172651291, -0.20423728227615356, -0.21426326036453247, 0.44727471470832825, -0.06090454012155533, 0.11980079859495163, -0.3361618220806122, 0.008933932520449162, -0.2164473980665207, 0.13837796449661255, -0.1325339376926422, 0.008413746953010559, 0.1923232227563858, 0.03312695398926735, -0.07305619865655899, 0.1290515959262848, -0.12608374655246735, -0.04768284037709236, -0.1529446542263031, -0.08406262844800949, 0.13734282553195953, -0.043187156319618225, 0.12728029489517212, -0.26467740535736084, 0.05387188866734505, -0.0603119358420372, -0.047059301286935806, -0.27491244673728943, 0.03647445887327194, 0.31221774220466614, 0.29456502199172974, -0.13375915586948395, -0.06190783530473709, 0.20684854686260223, 0.17935357987880707, -0.334892600774765, 0.0424635149538517, -0.07174696028232574, -0.027427103370428085, 0.08016933500766754, -0.09274660795927048, -0.0398210845887661, -0.13706114888191223, -0.2186436802148819, -0.24021472036838531, -0.14905411005020142, 0.1238633319735527, 0.006338124629110098, 0.04560849070549011, 0.0016266361344605684, -0.07086824625730515, -0.23692843317985535, 0.18820878863334656, -0.17044392228126526, 0.12431485950946808, 0.04530298709869385, 0.10647686570882797, 0.34335994720458984, -0.20276476442813873, 0.015371337532997131, -0.15944695472717285, 0.11898630857467651, -0.0018144497880712152, 0.14857783913612366, -0.09515523165464401, 0.013146942481398582, 0.11048195511102676, 0.03834867104887962, 0.10020053386688232, 0.0441984198987484, -0.0743701308965683, 0.06032134220004082, -0.09722375869750977, 0.2496614307165146, -0.15854957699775696, -0.28677937388420105, -0.13590118288993835, -0.09046745300292969, -0.22468572854995728, 0.2726634740829468, 0.34202566742897034, 0.24696193635463715, -0.24254673719406128, -0.2688788175582886, -0.2108675092458725, 0.0317436084151268, -0.33901745080947876, -0.016775960102677345, 0.07888501137495041, -0.11512474715709686, -0.15278467535972595, -0.20491400361061096, -0.03313709795475006, -0.1547127366065979, 0.09337272495031357, 0.09948398917913437, 0.2463083267211914, -0.1264161765575409, 0.1086646243929863, 0.1205081194639206, 0.01581384427845478, -0.19258864223957062, -0.3786514103412628, 0.23383758962154388, -0.3252098858356476, -0.3596919775009155, -0.05294407159090042, 0.00846854504197836, 0.12135615944862366, -0.2194211333990097, -0.03961952030658722, 0.1702975332736969, 0.17797382175922394, 0.0935390293598175, 0.04361572116613388, -0.13050313293933868, -0.1770085096359253, 0.054257459938526154, 0.06690975278615952, 0.010559296235442162, 0.21142587065696716, -0.2687784433364868, 0.038575999438762665, 0.2399885505437851, 0.09431891143321991, -0.01959606260061264, 0.19035542011260986, -0.2902715504169464, 0.1325434446334839, -0.08737629652023315, 0.017845813184976578, -0.2088400274515152, -0.03170778229832649, 0.3691392242908478, -0.024949030950665474, 0.006802844349294901, -0.5057503581047058, 0.3084179759025574, 0.20673762261867523, -0.37218916416168213, 0.011864994652569294, 0.28155210614204407, -0.34029752016067505, -0.21010521054267883, -0.040976569056510925, 0.07376851886510849, 0.06368604302406311, 0.008702441118657589, -0.3366934657096863, -0.060977593064308167, 0.11804182827472687, 0.4860052764415741, 0.04656426981091499, -0.03746398910880089, 0.04651467874646187, -0.045128002762794495, 0.20219355821609497, 0.046591076999902725, -0.14165759086608887, 0.13542312383651733, 0.006712460890412331, 0.04071186110377312, -0.07963745296001434, 0.4012647569179535, -0.14272087812423706, -0.11946263909339905, -0.19850687682628632, 0.09506908804178238, 0.1601659506559372, -0.4863617420196533, 0.011615822091698647, -0.024596139788627625, 0.3499716818332672, -0.29745203256607056, -0.3946917951107025, 0.08570750057697296, -0.08641191571950912, 0.2693966031074524, 0.2609221935272217, 0.22960984706878662, -0.09749113023281097, 0.14451703429222107, -0.06589033454656601, 0.10972677916288376, -0.036772117018699646, 0.11670117825269699, -0.043828949332237244, -0.06682080030441284, 0.21032710373401642, 0.15713314712047577, 0.12279774993658066, 0.26034313440322876, -0.11466430127620697, 0.13752275705337524, 0.34894639253616333, -0.10430344194173813, 0.30644211173057556, -0.7476676106452942, 0.18724499642848969, -0.42549362778663635, -0.1704784631729126, -0.9924033284187317, 0.6454043984413147, -0.8873300552368164, 0.5644501447677612, 0.6429734230041504, -0.460165798664093, 0.21357762813568115, -0.30053430795669556, -0.0619548000395298, 0.16208279132843018, -0.006149218883365393, 0.177211731672287, -0.23037287592887878, -0.008615010417997837, -0.3126344382762909, -0.2834073603153229, 0.3914736211299896, -0.02663934975862503, -0.11004584282636642, -0.06966909766197205, -0.3247176706790924, 0.10916216671466827, -0.01784965768456459, -0.08021572977304459, -0.187983438372612, 0.385094553232193, -0.11567371338605881, 0.12519027292728424, -0.09460494667291641, 0.1349530816078186, 0.05640165135264397, 0.14028605818748474, 0.04125742241740227, -0.039253804832696915, -0.18124476075172424, 0.12821340560913086, 0.06708132475614548, -0.19502617418766022, 0.28307047486305237, -0.02763320319354534, 0.07592076808214188, 0.04869488626718521, 0.0506545715034008, 0.4066089987754822, 0.10595482587814331, 0.05792442336678505, -0.16630686819553375, 0.04938187077641487, -0.15674836933612823, 0.06256552040576935, 0.1541355848312378, 0.1886855959892273, -0.2085893452167511, -0.0773606076836586, 0.33360815048217773, 0.39313602447509766, -0.018615247681736946, 0.12249106168746948, 0.07018870860338211, 0.06752243638038635, 0.17832639813423157, -0.34950438141822815, 0.05553758889436722, -0.03928093984723091, -0.11627580225467682, 0.1657085120677948, 0.05968687683343887, 0.23226216435432434, 0.13582301139831543, 0.3078179657459259, 0.19736701250076294, -0.03125127777457237, -0.021262051537632942, -0.551070511341095, 0.3111354410648346, 0.1781821846961975, -0.14981625974178314, 0.2422834187746048, 0.231256902217865, 0.28174862265586853, -0.25173577666282654, -0.037415385246276855, -0.11424069106578827, 0.08380371332168579, -0.14470522105693817, 0.09190631657838821, -0.2878758907318115, 0.03323211520910263, -0.15586808323860168, -0.10109655559062958, 0.047700803726911545, -0.16836878657341003, 0.0856613889336586, 0.2759241759777069, -0.3042851984500885, 0.06251711398363113, 0.23108117282390594, 0.2318355292081833, 0.031525176018476486, 0.26327088475227356, -0.059673383831977844, -0.22158527374267578, 0.12007533758878708, -0.1833842694759369, 0.28782913088798523, 0.46307072043418884, -0.262896329164505, 0.1092953234910965, 0.23669949173927307, 0.10142922401428223, 0.18047332763671875, 0.2743726372718811, -0.3523697257041931, 0.07856197655200958, -0.1421867460012436, 0.33833277225494385, 0.23528867959976196, 0.2727760672569275, -0.1552852988243103, 0.11920133233070374, 0.07760011404752731, 0.33646878600120544, -0.06067921221256256, -0.15300549566745758, 0.15603788197040558, 0.15681879222393036, 0.3127067983150482, 0.2988722622394562, 0.047953248023986816, -0.13494691252708435, 0.09099728614091873, -0.2944886386394501, -0.20223788917064667, 0.12612596154212952, 0.02712201699614525, 0.31482377648353577, -0.2396911233663559, -0.28257259726524353, -0.04993688687682152, -0.11996043473482132, 0.11097279191017151, -0.08885639905929565, 0.1327257603406906, 0.3655458986759186, 0.12132896482944489, -0.03252306953072548, 0.45323970913887024, -0.025871066376566887, -0.05392182990908623, 0.2889134883880615, -0.032382894307374954, -0.22757042944431305, -0.07247059047222137, -0.14455123245716095, 0.07402274012565613, 0.2715595066547394, -0.22354638576507568, 0.08443095535039902, 0.2492341697216034, 0.08987274765968323, -0.03953517600893974, 0.047730591148138046, -0.0761609673500061, -0.8906651735305786, 0.05428794398903847, 0.017577217891812325, 0.3878847360610962, 0.011902380734682083, -0.08052745461463928, -0.22465482354164124, 0.06674958020448685, 0.12387771159410477, 0.01087926235049963, -0.020999358966946602, -0.02533283457159996, -0.056832119822502136, -0.014096992090344429, -0.006793076638132334, 0.28769704699516296, 0.061451416462659836, 0.03557677939534187, 0.19687648117542267, 0.0006834212108515203, -0.13024653494358063, -0.04798399657011032, 0.015568694099783897, -0.038699906319379807, 0.26917165517807007, 0.036167483776807785, -0.14986832439899445, -0.26612257957458496, 0.028147147968411446, 0.19122089445590973, 0.4282165765762329, -0.06599894911050797, -0.003416988532990217, 0.12061387300491333, -0.0020869183354079723, -0.022142166271805763, 0.1384185403585434, -0.12875473499298096, -0.18277204036712646, -0.02296130359172821, 0.17591023445129395, 0.08613145351409912, -0.07376068085432053, -0.044275913387537, 0.07952457666397095, 0.04149096459150314, -0.04651186987757683, 0.05964423343539238, 0.022181060165166855, 0.06155747175216675, 0.12617510557174683, 0.062412142753601074, -0.11248061060905457, -0.14984239637851715, 0.2264702171087265, 0.0573103167116642, -0.043231647461652756, 0.16371728479862213, -0.002147082472220063, -0.03184172138571739, 0.2137049287557602, -0.1993958204984665, -0.0956893041729927, -0.00957176648080349, -0.026347456499934196, -0.037486448884010315, -0.27222010493278503, 0.28071120381355286, 0.20985902845859528, 0.025018418207764626, -0.007342103403061628, -0.1515359878540039, -0.05424422398209572, 0.2124200463294983, -0.15968506038188934, -0.14053913950920105, -0.23605802655220032, -0.01503134984523058, -0.1906018853187561, -0.14169682562351227, -0.006979719735682011, -0.0007053379085846245, 0.033537641167640686, 0.14532431960105896, -0.28479915857315063, 0.04077058658003807, -0.044466182589530945, -0.06798900663852692, -0.030434971675276756, -0.003679815214127302, -0.03231244534254074, 0.07220867276191711, 0.23112870752811432, 0.019780080765485764, 0.0452917106449604, 0.14265167713165283, 0.02983247861266136, -0.029361018911004066, 0.037022922188043594, -0.10633978992700577, -0.0028174829203635454, -0.12036670744419098, 0.09811996668577194, 0.014234944246709347, 0.36838096380233765, -0.07868790626525879, 0.011537725105881691, 0.04934868589043617, -0.4359484612941742, -0.15979023277759552, -0.07721324265003204, 0.4384618103504181, -0.045703791081905365, -0.09542806446552277, -0.1658998280763626, -0.04557371512055397, 0.11402159929275513, -0.15168941020965576, -0.12053444981575012, 0.12934793531894684, 0.16095460951328278, 0.012227402068674564, 0.10722371935844421, 0.5041085481643677, -0.09404251724481583, -0.19398441910743713, -0.18183757364749908, -0.02093653567135334, 0.017261257395148277, -0.2871699929237366, -0.16484548151493073, -0.019376590847969055, 0.10922612249851227, -0.016522830352187157, -0.08782721310853958, 0.08164158463478088, 0.09151169657707214, -0.0595817044377327, -0.2855885922908783, 0.11877767741680145, 0.16500265896320343, 0.10171842575073242, -0.010548261925578117, -0.14994902908802032, 0.32538068294525146, 0.13807350397109985, -0.20362533628940582, 0.12281325459480286, 0.12402033060789108, 0.25300154089927673, -0.0890849307179451, -0.07293220609426498, 0.05567091703414917, 0.11658906936645508, 0.013705860823392868, 0.1471099853515625, 0.20785090327262878, 0.11968492716550827, 0.2784744203090668, -0.08434714376926422, -0.006809582933783531, -0.11623090505599976, -0.06875938922166824, 0.06395789980888367, 0.12816064059734344, 0.06639059633016586, 0.16931231319904327, 0.04480918496847153, 0.23495857417583466, 0.07191940397024155, 0.05798310041427612, -0.16539867222309113, -0.13789665699005127, -0.042985040694475174, -0.18108418583869934, 0.10545548051595688, 0.11771482974290848, 0.044886402785778046, -0.10648998618125916, -0.1274738758802414, -0.07723544538021088, -0.1154438927769661, 0.025906288996338844, -0.19813697040081024, 0.08089889585971832, -0.16008204221725464, -0.11191128194332123, -0.00012500540469773114, 0.12599875032901764, -0.04916977882385254, 0.04916221648454666, 0.10761836916208267, -0.1786459982395172, -0.06318885087966919, -0.3166939914226532, -0.08715147525072098, -0.20854328572750092, 0.021992048248648643, -0.018086029216647148, 0.03970863297581673, -0.0617859922349453, -0.2225157916545868, -0.22825153172016144, 0.016306614503264427, -0.016248119994997978, -0.0786227211356163, -0.07591913640499115, 0.427842378616333, -0.02717485837638378, -0.0009592333226464689, -0.025263365358114243, 0.2513415515422821, 0.2680150270462036, -0.32646727561950684, 0.23812197148799896, 0.046787191182374954, 0.03711926192045212, 0.3645484745502472, 0.07863688468933105, 0.11136918514966965, -0.1048523485660553, -0.11100012063980103, -0.07102055102586746, -0.020518342033028603, -0.019829681143164635, 0.11255448311567307, 0.12442725151777267, -0.1117747351527214, 0.0420583076775074, -0.12353404611349106, 0.0950498953461647, 0.17650099098682404, -0.18240176141262054, 0.08733139932155609, -0.018354507163167, 0.05791061744093895, -0.06466842442750931, -0.08850029110908508, 0.1678195595741272, -0.01480818446725607, -0.15225917100906372, 0.10552173852920532, 0.24727287888526917, -0.0631488561630249, 0.1856626272201538, -0.19380246102809906, 0.014156424440443516, -0.27155202627182007, -0.057268209755420685, 0.24922727048397064, 0.09826935827732086, 0.0577232800424099, 0.429341584444046, 0.09146182239055634, -0.05846260115504265, -0.20937849581241608, -0.06185126304626465, 0.16005034744739532, -0.04950905963778496, -0.10759119689464569, -0.023688165470957756, -0.1021839901804924, -0.0014254136476665735, -0.028681468218564987, 0.08214115351438522, -0.06023789569735527, 0.2952706813812256, -0.0726737380027771, 0.1330481469631195, 0.029743721708655357, 0.027187539264559746, -0.03267744556069374, 0.007283055689185858, 0.21631614863872528, 0.19628331065177917, 0.19000263512134552, -0.47437044978141785, 0.23423106968402863, -0.008561842143535614, -0.06457505375146866, -0.07316702604293823, 0.1634843349456787, -0.3543355166912079, -0.09216734766960144, -0.317122220993042, 0.06592372804880142, -0.0074706654995679855, -0.004788127262145281, 0.10926339775323868, -0.008353425189852715, -0.1531078815460205, 0.0527995266020298, -0.10479621589183807, 0.0685354694724083, 0.02184133604168892, -0.2055044174194336, -0.00961440522223711, -0.038815293461084366, -0.10757936537265778, 0.02664494700729847, -0.005182202439755201, 0.039213910698890686, -0.007569966837763786, 0.10433383285999298, -0.14336319267749786, -0.14328201115131378, 0.19983084499835968, 0.031593773514032364, 0.19353972375392914, 0.043865472078323364, 0.108058862388134, 0.07477983832359314, 0.2407418191432953, -0.10178922116756439, -0.21418888866901398, 0.13937817513942719, -0.04332074522972107, 0.01031179167330265, -0.17300909757614136, -0.034992750734090805, 0.39232295751571655, -0.022505754604935646, 0.08559217303991318, -0.017057429999113083, -0.1741856038570404, -0.009672967717051506, -0.12405477464199066, -0.2548663020133972, -0.00922203715890646, -0.13839389383792877, -0.011161837726831436, 0.20411498844623566, 0.02258915826678276, -0.03231026977300644, 0.1431128978729248, -0.032305680215358734, 0.10148961842060089, 0.02248462103307247, 0.03497777879238129, 0.08609621226787567, -0.07323236018419266, 0.32262834906578064, 0.003906785044819117, -0.02553614228963852, -0.2450488954782486, 0.010593072511255741, -0.3126104772090912, -0.02895580790936947, -0.01614096388220787, -0.021225709468126297, 0.14821358025074005, -0.0031931307166814804, -0.04227668046951294, 0.09696828573942184, -0.002243107184767723, 0.1510290801525116, -0.35892245173454285, 0.08902812749147415, 0.05309112370014191, 0.42429807782173157, 0.06999737024307251, 0.031239943578839302, -0.0179214458912611, -0.06059253588318825, 0.02326076850295067, -0.05186394229531288, 0.10372461378574371, 0.21019279956817627, 0.04863670840859413, 0.02805493213236332, -0.09603651612997055, 0.08083433657884598, 0.12501007318496704, -0.12810128927230835, -0.16104371845722198, 0.2545485496520996, -0.09760341048240662, -0.14429903030395508, -0.010059107095003128, -0.021608617156744003, 0.010012616403400898, 0.17983478307724, -0.3497568368911743, -0.06988617032766342, 0.049255773425102234, 0.07751858234405518, 0.14361397922039032, 0.021492384374141693, 0.1286504566669464, -0.05689377337694168, -0.13517005741596222, -0.060639891773462296, -0.07941248267889023, -0.16117730736732483, -0.07736558467149734, -0.004147549159824848, -0.07669030129909515, -0.11178554594516754, -0.17806173861026764, -0.1290254443883896, 0.022552993148565292, 0.03137267753481865, -0.09768225252628326, -0.08111364394426346, 0.05193519592285156, 0.19284841418266296, -0.004336880054324865, -0.017337655648589134, 0.007969058118760586, 0.028001245111227036, 0.017127491533756256, -0.13322117924690247, -0.1882779598236084, -0.24492675065994263, -0.06095698103308678, -0.0017960804980248213, 0.09683743864297867, 0.1533299684524536, -0.08796121180057526, 0.07887125015258789, 0.011523236520588398, -0.16744400560855865, -0.21605531871318817, 0.2876375615596771, 0.0008162834565155208, -0.1956721544265747, -0.08847837895154953, 0.05664936453104019, 0.23213395476341248, -0.05218261107802391, -0.020878536626696587, -0.06934888660907745, -0.050013769418001175, 0.0002422000397928059, -0.14976471662521362, -0.05538396164774895, -0.2579468786716461, 0.040342316031455994, -0.09544791281223297, -0.05531623214483261, -0.03271801769733429, -0.038179706782102585, -0.11804157495498657, -0.03522960841655731, 0.6418048739433289, 0.08332042396068573, 0.6917353272438049, 0.5600243210792542, -0.6802136898040771, -0.41759881377220154, -0.33278217911720276, 0.53629070520401, -0.11739014834165573, 0.6593081951141357, -0.14025914669036865, -0.27249807119369507, -0.14482882618904114, -0.026968587189912796, -0.246331587433815, 0.24700145423412323, -0.08356652408838272, -0.33178359270095825, -0.4497684836387634, 0.275809109210968, -0.10505786538124084, -0.21242204308509827, -0.13179321587085724, 0.35066768527030945, -0.17712530493736267, -0.19795292615890503, -0.060365621000528336, 0.03469573333859444, -0.10512062907218933, 0.056730128824710846, 0.05430285260081291, 0.10815652459859848, 0.2907025218009949, -0.05039834603667259, 0.04325340688228607, 0.09907200932502747, -0.20049576461315155, -0.32034382224082947, 0.2603011727333069, -0.32271555066108704, -0.25017237663269043, -0.2063840925693512, 0.10457142442464828, -0.19432584941387177, 0.014907211065292358, 0.20420241355895996, 0.07320484519004822, 0.14210312068462372, 0.048334237188100815, -0.3508675694465637, -0.08200350403785706, -0.194416806101799, -0.23512864112854004, 0.06615275889635086, -0.018652398139238358, 0.29247066378593445, -0.15506067872047424, -0.19768546521663666, 0.5009421110153198, -0.23477819561958313, 0.2048845887184143, -0.13583196699619293, -0.22737592458724976, 0.25328654050827026, -0.14501962065696716, -0.15088722109794617, -0.22164040803909302, -0.050874974578619, 0.08769448101520538, -0.2527957856655121, 0.509004533290863, 0.05831683799624443, 0.10158105939626694, -0.2823885977268219, 0.48491087555885315, -0.1872849315404892, -0.013159473426640034, -0.1182379350066185, -0.21537084877490997, -0.015723440796136856, -0.2561429738998413, -0.09043505787849426, -0.41784733533859253, -0.18035446107387543, -0.118616983294487, 0.028554672375321388, 0.2555624842643738, -0.026027780026197433, 0.22481337189674377, 0.18129301071166992, -0.16613240540027618, -0.04240536317229271, 0.11307894438505173, -0.19029276072978973, 0.11086110770702362, -0.09713450819253922, -0.13557139039039612, -0.20592978596687317, -0.257169634103775, 0.2112605720758438, 0.12548868358135223, 0.2976059913635254, -0.1231873631477356, 0.22704379260540009, 0.013788233511149883, -0.2506190240383148, 0.3943973481655121, -0.19519571959972382, -0.1499200314283371, -0.20023398101329803, -0.29028651118278503, -0.08435744047164917, 0.008653158321976662, 0.04761623218655586, 0.1635836809873581, -0.018234960734844208, -0.01154656894505024, -0.1508764624595642, -0.3631638288497925, 0.035310301929712296, -0.13576804101467133, -0.17342287302017212, -0.03272772580385208, -0.041988860815763474, -0.07879369705915451, 0.20923356711864471, 0.24904708564281464, -0.40071654319763184, -0.01754843257367611, 0.08176441490650177, 0.06707817316055298, 0.28259381651878357, 0.014207868836820126, -0.1731012463569641, 0.26110079884529114, 0.01116510946303606, -0.0054947128519415855, -0.16781768202781677, 0.20209932327270508, 0.08046155422925949, -0.08164332807064056, 0.19759294390678406, -0.24050992727279663, 0.04703089967370033, -0.2599041163921356, 0.29955053329467773, -0.2971303164958954, 0.3672928810119629, 0.01252934243530035, 0.1463441252708435, -0.07058016955852509, -0.06485003232955933, 0.24915114045143127, -0.1531733125448227, 0.18929673731327057, 0.16304895281791687, -0.31277579069137573, -0.04266462102532387, 0.27762413024902344, 0.014447791501879692, 0.1989930123090744, -0.015585608780384064, 0.08189545571804047, -0.03437041491270065, -0.10463094711303711, -0.18031944334506989, 0.03765829652547836, 0.22989732027053833, 0.4182944893836975, 0.02759888954460621, 0.1904037445783615, -0.34864774346351624, -0.05476604402065277, -0.18477709591388702, 0.0931808277964592, 0.010278263129293919, -0.15073706209659576, 0.05465143173933029, 0.07370705157518387, -0.038860443979501724, -0.28590065240859985, 0.016464799642562866, 0.10599910467863083, -0.758712112903595, 0.030795535072684288, 0.09515530616044998, 0.3899526298046112, -0.025957180187106133, 0.048846326768398285, 0.2632465362548828, 0.10728795826435089, 0.25415271520614624, -0.45800408720970154, 0.03326046094298363, -0.08966431021690369, 0.21003779768943787, -0.06287369877099991, -0.0668439120054245, -0.24593566358089447, -0.103322334587574, -0.21138626337051392, 0.10010462999343872, 0.15286967158317566, 0.26621493697166443, 0.1961185783147812, 0.052507732063531876, -0.11616629362106323, -0.008611052297055721, -0.1459827572107315, 0.028283290565013885, -0.003058707807213068, 0.022032443434000015, 0.18454371392726898, -0.02539355866611004, -0.09593859314918518, -0.1591331958770752, 0.06194394454360008, -0.011619212105870247, -0.23509036004543304, -0.08122864365577698, 0.10835213214159012, 0.028501378372311592, 0.14165917038917542, -0.025905098766088486, 0.20302489399909973, -0.06414452940225601, 0.19674094021320343, -0.02500952035188675, 0.15566371381282806, -0.030695892870426178, 0.021951546892523766, -0.16562707722187042, 0.01756115071475506, -0.007383743766695261, -0.14323922991752625, -0.030917635187506676, -0.0801544338464737, 0.1357225626707077, -0.03782567381858826, 0.015394659712910652, 0.010303914546966553, -0.007088040933012962, -0.1278998702764511, 0.09934920817613602, -0.17246529459953308, -0.15225233137607574, 0.1806080937385559, -0.07986035943031311, -0.12144836783409119, -0.1433200091123581, 0.012803423218429089, 0.023797137662768364, -0.17331838607788086, 0.02475890703499317, -0.11307699233293533, -0.18728937208652496, 0.12616166472434998, 0.06645593047142029, -0.07344108819961548, -0.1506466567516327, -0.07236087322235107, -0.11807254701852798, -0.05137074366211891, 0.2390766739845276, -0.1184300035238266, 0.07029084116220474, -0.023582402616739273, -0.1261623501777649, 0.06616280227899551, -0.1031646728515625, 0.09485579282045364, -0.1927434504032135, 0.0967952087521553, 0.0372764877974987, 0.1578078716993332, 0.32275089621543884, 0.08767487108707428, -0.017501043155789375, -0.17895931005477905, 0.08038531243801117, -0.20429575443267822, 0.22300568222999573, -0.03197106719017029, 0.038563795387744904, 0.05931275337934494, -0.1687963753938675, -0.1432587206363678, 0.07477455586194992, -0.0035795271396636963, 0.09969072788953781, -0.369793176651001, -0.03251849114894867, -0.02614540606737137, 0.04891544207930565, -0.010177725926041603, -0.11452071368694305, 0.3623866140842438, -0.0021204687654972076, 0.15031833946704865, -0.09858052432537079, 0.07552546262741089, -0.19219207763671875, -0.11826197057962418, 0.2026912420988083, -0.1603405624628067, 0.14643792808055878, -0.04643445461988449, -0.2545214295387268, -0.1399892121553421, 0.0669732540845871, -0.024214962497353554, -0.09314967691898346, -0.0024819562677294016, 0.14906372129917145, -0.07544244080781937, 0.35335078835487366, 0.15863744914531708, 0.2577960789203644, -0.052711185067892075, 0.030344707891345024, -0.010431801900267601, 0.06504537910223007, -0.02798282541334629, -0.43051764369010925, -0.15167663991451263, -0.07427109777927399, 0.05571843683719635, 0.1917155385017395, -0.001644499134272337, 0.10669874399900436, 0.03838557004928589, 0.005184234585613012, -0.09765411168336868, 0.13570815324783325, -0.2266244739294052, 0.008503694087266922, 0.19531404972076416, -0.0684959813952446, 0.08963780105113983, 0.17997395992279053, 0.17881318926811218, 0.10407169163227081, 0.2505970001220703, 0.09065887331962585, -0.10821620374917984, -0.05685173347592354, 0.08348742127418518, 0.19720999896526337, 0.05011355131864548, 0.07461667060852051, 0.16273903846740723, 0.18832489848136902, -0.08697081357240677, -0.03139684721827507, -0.0415726862847805, 0.04756352677941322, -0.09704370051622391, -0.142633855342865, 0.12551076710224152, 0.03679877892136574, 0.0037972480058670044, 0.0006508177611976862, 0.07214528322219849, -0.0876774787902832, 0.12277179211378098, 0.09758514165878296, -0.14396396279335022, 0.08277977257966995, 0.07525119185447693, -0.16153724491596222, 0.23385970294475555, 0.15658032894134521, -0.0526878647506237, 0.06979845464229584, -0.01834133081138134, -0.022394580766558647, -0.1394483745098114, -0.0996924489736557, -0.1380777657032013, -0.04930361732840538, -0.031076805666089058, -0.06131177768111229, 0.07136444002389908, -0.04176171123981476, -0.0978456661105156, 0.053789012134075165, -0.14927831292152405, -0.08996167778968811, 0.14644691348075867, -0.0543348453938961, 0.01721300557255745, 0.20035558938980103, -0.043957993388175964, -0.014040089212357998, 0.024566788226366043, 0.02835787460207939, 0.017356939613819122, 0.2146918922662735, -0.12501223385334015, 0.0016423719935119152, -0.10164406150579453, -0.13459302484989166, -0.30286410450935364, -0.02430144138634205, 0.05041927099227905, -0.14682263135910034, 0.02285437099635601, -0.051768120378255844, 0.23415236175060272, 0.13707323372364044, 0.026715146377682686, -0.13301445543766022, 0.15370556712150574, -0.04010340943932533, 0.3433678150177002, 0.04241451993584633, 0.1251097172498703, -0.06080050766468048, -0.05925791710615158, -0.1088491752743721, -0.20871460437774658, -0.12304691225290298, -0.1363806426525116, -0.03287115320563316, 0.03605402261018753, -0.08375316113233566, 0.25031378865242004, -0.022611845284700394, -0.2032148241996765, 0.08063288778066635, -0.05712702125310898, -0.11499810218811035, -0.03796372190117836, -0.05938231945037842, 0.012295780703425407, 0.08016645908355713, -0.05293717235326767, -0.18812473118305206, 0.021869901567697525, 0.01469686534255743, -0.3972737789154053, -0.0796181932091713, -0.18754728138446808, 0.14181426167488098, -0.11898114532232285, -0.04116658493876457, -0.05658451467752457, 0.19104556739330292, 0.19313906133174896, -0.010463535785675049, 0.03309148922562599, 0.19186383485794067, -0.10118576884269714, -0.029432380571961403, -0.012069515883922577, 0.033018842339515686, 0.027702024206519127, 0.047679997980594635, 0.25662603974342346, 0.04433014988899231, 0.02032352425158024, -0.23047888278961182, 0.033318258821964264, 0.17476527392864227, -0.2252597212791443, 0.04022921621799469, -0.030119791626930237, -0.042390283197164536, -0.11552020162343979, 0.044872719794511795, -0.22829192876815796, -0.13944977521896362, 0.027543559670448303, 0.05965667590498924, 0.11992663145065308, -0.04018304497003555, 0.03604508936405182, 0.210502028465271, 0.14756688475608826, 0.052917152643203735, -0.29302161931991577, 0.0647178664803505, -0.05635900795459747, -0.5374558568000793, 0.18937189877033234, -0.2879194915294647, -0.08778911083936691, -0.02293173409998417, -0.39150679111480713, 0.04293961077928543, 0.1673150509595871, 0.1555052399635315, 0.014068832620978355, 0.001433520927093923, 0.1682071089744568, 0.04765880107879639, -0.19059425592422485, 0.06469246745109558, 0.24695411324501038, 0.09914515167474747, 0.13273422420024872, -0.0950518324971199, -0.04429957643151283, 0.08203889429569244, 0.07054691016674042, -0.08967354893684387, 0.04000107944011688, -0.031992107629776, -0.027789365500211716, 0.019780568778514862, 0.11854469776153564, -0.018287133425474167, 0.12360920011997223, -0.04446446895599365, 0.13712531328201294, -0.13197313249111176, -0.02093600295484066, -0.023240450769662857, -0.09569986164569855, -0.09434551000595093, -0.08627001196146011, -0.14215725660324097, -0.22509700059890747, -0.03858237713575363, -0.07081452012062073, 0.22016602754592896, -0.09785545617341995, -0.08610551059246063, 0.26743051409721375, 0.0216666366904974, 0.04883350059390068, -0.24349835515022278, 0.11052063852548599, 0.018879171460866928, 0.018785936757922173, -0.038349978625774384, -0.03470958396792412, -0.007827586494386196, 0.042326781898736954, 0.10303640365600586, -0.05013410001993179, -0.030619090422987938, -0.024347474798560143, 0.12223899364471436, -0.010523393750190735, 0.020879879593849182, -0.01124989241361618, 0.09754440188407898, -0.04531226307153702, 0.017209574580192566, 0.0071237944066524506, 0.051638808101415634, 0.0770532563328743, 0.03014397621154785, 0.07250267267227173, -0.2044811099767685, 0.06584779918193817, -0.045579999685287476, -0.09828387200832367, 0.06763146817684174, -0.07404278963804245, 0.3009500205516815, -0.1208578422665596, -0.06508216261863708, -0.24736396968364716, 0.07285454124212265, 0.004038265906274319, 0.2681264579296112, 0.22861234843730927, 0.17746441066265106, -0.25133031606674194, 0.10844571888446808, 0.04263179004192352, -0.16057243943214417, 0.04202191159129143, 0.022529741749167442, 0.12355885654687881, -0.045368485152721405, -0.01572348177433014, 0.3086850941181183, -0.07044421136379242, -0.04052096605300903, -0.05488021671772003, -0.034205999225378036, 0.05076529458165169, -0.29285773634910583, 0.00042438803939148784, 0.08006992936134338, 0.1333450973033905, -0.014095536433160305, -0.14332179725170135, -0.28905031085014343, -0.03809141740202904, 0.01115275826305151, -0.24886953830718994, 0.05769035220146179, 0.1454738825559616, 0.20165304839611053, 0.05613378435373306, 0.06614762544631958, -0.0036023184657096863, -0.01912105828523636, 0.003859925549477339, 0.13292543590068817, -0.06391611695289612, 0.07449641078710556, -0.12678012251853943, -0.012928432784974575, -0.158131942152977, 0.019770469516515732, -0.4847239553928375, -0.6492682695388794, -0.21580292284488678, -0.09102047979831696, -0.08808302879333496, -0.4287247657775879, 0.7743651866912842, 0.34908008575439453, -0.895669162273407, 0.12280213832855225, 0.08288442343473434, -0.02206776663661003, -0.10422755032777786, -0.10548104345798492, 0.08054513484239578, -0.18078698217868805, -0.1323024034500122, 0.1702587604522705, -0.13872015476226807, 0.2311529666185379, 0.17329339683055878, -0.24929063022136688, -0.10724610090255737, 0.2822587192058563, -0.12609674036502838, 0.12542970478534698, 0.038463205099105835, 0.06348397582769394, -0.20588703453540802, -0.16225214302539825, 0.08928955346345901, 0.011427495628595352, -0.2360888123512268, 0.08252859115600586, -0.010050807148218155, -0.08679596334695816, 0.21271897852420807, 0.010724514722824097, -0.24871891736984253, -0.32396399974823, 0.13385599851608276, -0.25225457549095154, -0.1521087884902954, -0.05787273868918419, 0.321088969707489, -0.1461745798587799, 0.13109253346920013, 0.04669707641005516, 0.10550746321678162, 0.21925485134124756, -0.0735488161444664, -0.05807929113507271, 0.05678715929389, 0.11325588077306747, -0.1608377993106842, 0.09331488609313965, -0.1785392165184021, -0.3472990095615387, 0.13552217185497284, -0.026903348043560982, 0.4196491837501526, -0.25741443037986755, -0.014758865348994732, -0.07959704846143723, 0.2351161241531372, 0.0428033322095871, -0.1949707716703415, -0.04414666071534157, -0.0380081869661808, -0.21174366772174835, 0.016889415681362152, -0.23295053839683533, 0.32216012477874756, -0.016071241348981857, -0.08987192064523697, -0.04061954841017723, -0.20916789770126343, 0.22875559329986572, 0.08708812296390533, -0.11223730444908142, 0.025486895814538002, 0.19511796534061432, -0.11487183719873428, -0.08021501451730728, -0.0785476490855217, -0.1326623409986496, -0.10249485075473785, -0.19055910408496857, -0.20969058573246002, -0.03235531225800514, 0.1300056278705597, 0.14023931324481964, -0.09523021429777145, 0.0928749218583107, -0.13897015154361725, 0.00595602672547102, 0.24047371745109558, 0.0956873744726181, 0.11782049387693405, 0.0872557982802391, 0.023304786533117294, -0.02145560085773468, -0.20899447798728943, 0.14369451999664307, 0.2883159816265106, -0.03984839841723442, -0.19869336485862732, -0.04553289711475372, -0.1462251991033554, 0.15727651119232178, 0.18635649979114532, -0.10791240632534027, -0.237238809466362, 0.08750671148300171, -0.1596115231513977, 0.22420690953731537, 0.063947394490242, 0.283445805311203, -0.13391642272472382, -0.11801958084106445, -0.01411870215088129, 0.3261401951313019, 0.2157783806324005, 0.006730411201715469, -0.43183696269989014, 0.08821073174476624, 0.04500859975814819, -0.20612294971942902, 0.140920028090477, 0.18052631616592407, 0.0008100001141428947, 0.19500732421875, -0.07212477922439575, -0.2578776478767395, 0.058223966509103775, 0.2690749168395996, -0.15886804461479187, 0.26084670424461365, -0.233963280916214, -0.02778909169137478, 0.0883089229464531, 0.1484495997428894, -0.08341054618358612, 0.05517562851309776, -0.10892157256603241, 0.11632481217384338, -0.391399085521698, -0.3031012713909149, -0.14039336144924164, -0.5161850452423096, 0.1815095990896225, 0.11696524918079376, -0.12384859472513199, -0.16673724353313446, -0.18485435843467712, -0.0411604680120945, 0.13207057118415833, -0.09907060861587524, 0.1337493509054184, 0.10007491707801819, -0.14884190261363983, 0.036833506077528, 0.1431354135274887, -0.04186056926846504, 0.02888696826994419, 0.04455874115228653, 0.018046913668513298, 0.03423298895359039, -0.15882115066051483, 0.1887942999601364, 0.13488377630710602, 0.09854456037282944, 0.0032134889625012875, -0.13928234577178955, -0.061092786490917206, -0.07327832281589508, 0.07048792392015457, -0.09700840711593628, 0.08963394910097122, -0.11629617214202881, 0.07675907015800476, -0.2202375829219818, 0.013660059310495853, 0.11946137994527817, -0.1725974828004837, -0.10722506791353226, 0.11033163219690323, 0.19063523411750793, 0.03566446527838707, 0.047996558248996735, -0.25116637349128723, 0.25966036319732666, -0.10163294523954391, 0.21162325143814087, 0.03995697945356369, -0.09690345823764801, 0.17390455305576324, 0.1802709996700287, 0.2620217502117157, -0.1800445318222046, 0.010706988163292408, -0.27361148595809937, 0.11352314054965973, 0.23430809378623962, -0.31016430258750916, 0.013474486768245697, 0.17573383450508118, 0.13105447590351105, -0.1646551787853241, 0.09863005578517914, -0.0668676421046257, -0.18584592640399933, 0.049409911036491394, 0.07099667936563492, 0.12649600207805634, -0.16884474456310272, -0.09980375319719315, -0.22198161482810974, 0.17277374863624573, -0.1939152330160141, -0.04819169640541077, 0.007500529754906893, 0.1438688486814499, -0.004723273683339357, -0.14387832581996918, 0.11247104406356812, 0.3205583989620209, 0.023990951478481293, -0.04877203330397606, -0.020066386088728905, -0.2245156466960907, -0.11675187945365906, -0.10598213225603104, -0.07066559791564941, 0.2578364312648773, -0.009556077420711517, 0.22418855130672455, -0.0035484684631228447, -0.008439532481133938, 0.058832697570323944, 0.0571470633149147, -0.09162552654743195, -0.21495844423770905, 0.16126078367233276, 0.20774060487747192, -0.1440185159444809, 0.02875666506588459, -0.011177277192473412, -0.031719911843538284, 0.029651494696736336, -0.0293580312281847, -0.037616077810525894, 0.12274511158466339, 0.0778348445892334, 0.18687869608402252, -0.07340505719184875, 0.07836896926164627, -0.24846969544887543, -0.07594358175992966, 0.027340831235051155, 0.0842033326625824, -0.1686752289533615, -0.08232181519269943, 0.15365132689476013, -0.0573248416185379, 0.04515813663601875, 0.11797777563333511, -0.011576347053050995, -0.2003346085548401, -0.10505138337612152, -0.17519834637641907, -0.24070659279823303, -0.18479496240615845, 0.013793013989925385, 0.1757519543170929, 0.16114306449890137, 0.33342307806015015, 0.230682373046875, -0.09315094351768494, 0.03280792385339737, 0.07229159772396088, -0.28416311740875244, 0.10806864500045776, -0.013426011428236961, -0.133128821849823, -0.2607898712158203, -0.08118552714586258, 0.15669451653957367, 0.19094377756118774, 0.10601484030485153, -0.08592802286148071, -0.14347660541534424, -0.07399175316095352, -0.18144486844539642, -0.02047119475901127, -0.24883046746253967, 0.06997532397508621, -0.005950947292149067, -0.07191862910985947, -0.016223978251218796, -0.17449498176574707, 0.13130764663219452, 0.27047887444496155, 0.10411206632852554, 0.02744177356362343, -0.11377982795238495, 0.04636179283261299, 0.008925768546760082, -0.0525704026222229, -0.16765576601028442, -0.016318436712026596, 0.07808181643486023, 0.028965432196855545, 0.0014608160126954317, 0.04038373753428459, 0.17803849279880524, 0.12400592863559723, 0.012884072959423065, -0.35250145196914673, 0.20182403922080994, -0.08865845948457718, -0.20233240723609924, -0.03155834227800369, -0.08981374651193619, 0.21654660999774933, -0.18564371764659882, 0.08298380672931671, 0.09548462927341461, 0.05782869830727577, 0.019047385081648827, -0.1844063103199005, 0.09374216943979263, -0.15081587433815002, 0.3671356439590454, 0.017096031457185745, -0.2589256763458252, -0.047811251133680344, 0.07327277958393097, 0.14058560132980347, 0.02399691753089428, 0.23351190984249115, 0.2370961457490921, -0.0885360836982727, -0.02929968200623989, 0.08299609273672104, 0.008321652188897133, -0.017221052199602127, -0.07399174571037292, 0.0358477346599102, 0.001358155976049602, -0.1323845386505127, 0.020592615008354187, 0.11131604760885239, -0.0597420372068882, -0.028561118990182877, -0.05861637741327286, -0.0038731161039322615, -0.024942312389612198, -0.07541392743587494, -0.18506939709186554, 0.1080779954791069, 0.1259298473596573, 0.2875741720199585, -0.012544628232717514, -0.13139081001281738, 0.12240701168775558, 0.09981400519609451, 0.0672193244099617, -0.07516828179359436, 0.08559489250183105, 0.06778314709663391, 0.0758509486913681, 0.09709442406892776, -0.14646188914775848, 0.1276540905237198, -0.005420065484941006, 0.20815038681030273, -0.08805577456951141, 0.08993364870548248, 0.19269225001335144, 0.18097944557666779, 0.1574784219264984, 0.09274735301733017, 0.19780775904655457, 0.05932427570223808, 0.009624753147363663, 0.1710050404071808, -0.03915637359023094, -0.06211428716778755, 0.1658293455839157, 0.052253205329179764, -0.0911182165145874, -0.030199343338608742, 0.07942414283752441, 0.3409481644630432, 0.27087822556495667, -0.020723361521959305, 0.17830580472946167, -0.14291708171367645, 0.10949783027172089, -0.07654909044504166, 0.12101834267377853, -0.11427443474531174, -0.14546027779579163, -0.19903799891471863, 0.1787610799074173, 0.16007164120674133, 0.1445690095424652, -0.09701023250818253, -0.01247708685696125, -0.12564115226268768, -0.009654762223362923, -0.11368747800588608, 0.10749878734350204, -0.1445431262254715, 0.022708918899297714, -0.18272030353546143, 0.10735249519348145, -0.08939363807439804, -0.08580697327852249, 0.08053544163703918, 0.023221949115395546, 0.15998674929141998, -0.01152182836085558, -0.1367611140012741, -0.12802429497241974, 0.09136779606342316, -0.6102043986320496, -0.8958330750465393, -0.40172070264816284, 0.11525274068117142, -0.3911437690258026, -0.06357160210609436, 0.1698692888021469, 0.3053583800792694, -0.07683797925710678, -0.3415367007255554, -0.05796249583363533, 0.21981509029865265, 0.2501608729362488, -0.16168954968452454, -0.30290138721466064, -0.1594334989786148, -0.15799368917942047, 0.13735197484493256, -0.08628985285758972, 0.1065133586525917, 0.18347060680389404, -0.002938893623650074, -0.19057923555374146, 0.4474678635597229, 0.006917957682162523, 0.33881649374961853, -0.298918217420578, -0.4783736765384674, -0.2500552535057068, -0.06301727145910263, -0.18897205591201782, -0.24358592927455902, 0.19162800908088684, -0.1691908836364746, 0.32109808921813965, 0.5319837331771851, -0.19924326241016388, -0.07112067192792892, -0.22520311176776886, -0.10324408859014511, 0.010258970782160759, -0.18157000839710236, -0.05306354537606239, -0.1844191998243332, -0.3646693527698517, 0.05009719729423523, -0.12781696021556854, -0.05113765224814415, -0.060914717614650726, 0.15113726258277893, 0.26581892371177673, -0.17002782225608826, 0.3059045374393463, 0.02724125236272812, 0.05388001352548599, -0.04980720579624176, 0.04338978976011276, 0.058199193328619, 0.03808478266000748, -0.20684927701950073, -0.006410401314496994, -0.004330651834607124, 0.07713958621025085, -0.038670074194669724, -0.013496366329491138, 0.08926188200712204, 0.029018569737672806, -0.09151161462068558, 0.21758104860782623, 0.04476804658770561, 0.036179911345243454, -0.1544070541858673, 0.15507125854492188, -0.011476453393697739, 0.04584672674536705, 0.3021188974380493, 0.07873629033565521, 0.08548519015312195, -0.07537802308797836, -0.06778069585561752, -0.001977975945919752, 0.2808496356010437, 0.06126799061894417, 0.2153140753507614, 0.26116928458213806,