{"version": "0.5.4", "metadata": {"date": {"year": 2026, "month": 4, "day": 2, "hour": 11, "minute": 34, "second": 55}, "loudness": -34.814823150634766, "gain": 0.951734216460382}, "architecture": "WaveNet", "config": {"layers": [{"input_size": 1, "condition_size": 1, "head_size": 6, "channels": 12, "kernel_size": 3, "dilations": [1, 2, 4, 8, 16, 32, 64], "activation": "Tanh", "gated": false, "head_bias": false}, {"input_size": 12, "condition_size": 1, "head_size": 1, "channels": 6, "kernel_size": 3, "dilations": [128, 256, 512, 1, 2, 4, 8, 16, 32, 64, 128, 256, 512], "activation": "Tanh", "gated": false, "head_bias": true}], "head": null, "head_scale": 0.02}, "weights": [-0.4271042048931122, 0.6008746027946472, -1.0007586479187012, -0.9725763201713562, -0.589844822883606, 0.20179733633995056, -0.32831940054893494, 0.8979648947715759, -0.2091517448425293, 0.579166829586029, -0.49937742948532104, -0.4980444610118866, -0.03195936977863312, -0.19077283143997192, -0.22219544649124146, -0.13694922626018524, 0.08169969171285629, 0.21738716959953308, 0.03381242975592613, -0.08765961229801178, -0.055808424949645996, 0.2854142487049103, -0.04952941834926605, 0.007159218192100525, 0.11630429327487946, -0.002434514230117202, 0.029861941933631897, -0.29827436804771423, -0.09503797441720963, 0.07398203015327454, 0.08968006074428558, 0.11216606199741364, -0.25926950573921204, -0.2246583253145218, -0.10206008702516556, -0.04116202890872955, 0.07131918519735336, 0.13422565162181854, -0.034075114876031876, -0.06769455969333649, 0.03452881798148155, 0.04143421724438667, 0.16834662854671478, -0.17897069454193115, -0.2488052397966385, 0.058984726667404175, 0.07106560468673706, -0.03936070203781128, -0.1205584779381752, 0.06078469008207321, 0.38870248198509216, 0.2870986759662628, 0.12678314745426178, -0.11276528984308243, -0.009355382062494755, -0.1574108600616455, 0.16946224868297577, -0.25077420473098755, -0.1738826185464859, 0.054383594542741776, -0.041985176503658295, 0.01199997216463089, 0.043687429279088974, 0.1829468309879303, 0.14313095808029175, -0.1653228998184204, -0.1173115223646164, 0.0264205913990736, 0.31280285120010376, 0.28290432691574097, -0.07069268822669983, -0.19999372959136963, -0.07961804419755936, 0.08688705414533615, 0.31143176555633545, 0.2646234333515167, 0.0720757320523262, -0.3063110411167145, -0.10017431527376175, -0.15380123257637024, -0.002831902587786317, 0.040393587201833725, 0.09683207422494888, 0.011993550695478916, -0.1695583462715149, 0.009341299533843994, -0.17867551743984222, -0.027088506147265434, -0.05450261011719704, -0.08061618357896805, 0.012495898641645908, 0.2056265026330948, 0.10363450646400452, 0.013091367669403553, -0.043656639754772186, -0.1255790740251541, 0.027139656245708466, 0.14963869750499725, -0.15227967500686646, -0.039769574999809265, 0.04755444452166557, 0.15903319418430328, -0.15588140487670898, 0.06737613677978516, -0.23867805302143097, 0.04614188149571419, -0.24658814072608948, -0.11110447347164154, -0.09970055520534515, 0.15391939878463745, -0.13087932765483856, 0.16757088899612427, -0.21071599423885345, 0.18845002353191376, 0.05522672459483147, -0.02595282904803753, -0.07112570852041245, -0.07112996280193329, 0.12769393622875214, -0.006073823664337397, -0.18946434557437897, 0.12570510804653168, 0.14792442321777344, 0.3717179000377655, -0.21435393393039703, -0.29660752415657043, -0.33540865778923035, -0.023269448429346085, 0.14363634586334229, -0.42955783009529114, 0.0224542785435915, 0.23849578201770782, -0.40506914258003235, 0.04937401041388512, 0.32176223397254944, 0.25573721528053284, -0.034802839159965515, -0.18970254063606262, -0.2441028207540512, 0.18468868732452393, 0.39302271604537964, 0.39875108003616333, 0.10160242021083832, -0.2105097472667694, -0.4961218535900116, -0.05951515585184097, 0.25296810269355774, 0.30240851640701294, -0.14103971421718597, -0.33034151792526245, -0.4432222843170166, -0.07696819305419922, 0.17760276794433594, -0.22050823271274567, 0.14681170880794525, 0.043427228927612305, -0.03663002327084541, -0.2633930444717407, 0.038258232176303864, 0.10865391790866852, 0.136386439204216, -0.049034833908081055, -0.32910412549972534, -0.31528735160827637, -0.012060855515301228, -0.17744530737400055, -0.24713613092899323, 0.07814847677946091, -0.32440614700317383, -0.17714640498161316, 0.16725091636180878, 0.10633841902017593, 0.3165276348590851, 0.04262097552418709, -0.31789320707321167, -0.04810722917318344, 0.0432853139936924, 0.10496193170547485, 0.3040873408317566, -0.14835600554943085, -0.18139159679412842, -0.22743582725524902, 0.11166740208864212, 0.2221878319978714, 0.2442159205675125, 0.03103848360478878, -0.21154944598674774, -0.1990172564983368, -0.11000779271125793, -0.08080977201461792, -0.027104074135422707, 0.1507291942834854, 0.060130078345537186, -0.20457753539085388, -0.13772748410701752, -0.11116989701986313, 0.1423417627811432, 0.14657863974571228, -0.08316977322101593, -0.24983522295951843, -0.08968999981880188, 0.12395844608545303, -0.37373995780944824, -0.21045835316181183, -0.07348191738128662, -0.1243574321269989, -0.1496572345495224, 0.10241890698671341, 0.2889671325683594, 0.08350739628076553, 0.05203967168927193, -0.3044460713863373, -0.0392599031329155, -0.05643466114997864, 0.24437859654426575, 0.11574064195156097, -0.05688195303082466, -0.3393307030200958, 0.0590067021548748, -0.1712181270122528, 0.23660698533058167, 0.2495962679386139, 0.08484457433223724, -0.24188774824142456, -0.23262909054756165, 0.12454518675804138, -0.36307021975517273, -0.13028265535831451, -0.27959585189819336, -0.06645962595939636, 0.22826936841011047, 0.3478282690048218, 0.051469337195158005, -0.006691334769129753, -0.11211835592985153, -0.1356801986694336, 0.23171518743038177, -0.3305436968803406, -0.10036527365446091, 0.20870599150657654, -0.15700072050094604, 0.09796279668807983, 0.1080116406083107, 0.18761302530765533, 0.13223566114902496, -0.3181917369365692, -0.045681439340114594, -0.14916957914829254, 0.2483806312084198, 0.18356561660766602, -0.05670592561364174, -0.13618029654026031, -0.0927886888384819, -0.11325100809335709, 0.07001576572656631, 0.1506173014640808, -0.13535161316394806, -0.1012524664402008, -0.28197646141052246, -0.13439680635929108, 0.07756534218788147, -0.1215192899107933, 0.0661466047167778, 0.3081969618797302, -0.19164904952049255, -0.05621212720870972, 0.03043695166707039, 0.21041905879974365, 0.13219287991523743, 0.03092881664633751, -0.24333320558071136, -0.07211201637983322, -0.14069323241710663, -0.12969756126403809, -0.08797725290060043, -0.1322225034236908, -0.017379825934767723, -0.10249973833560944, -0.004187577869743109, 0.20309512317180634, 0.002053997479379177, -0.13064971566200256, -0.32074984908103943, 0.12644024193286896, 0.025432724505662918, 0.30119559168815613, -0.06350687146186829, 0.03045426681637764, -0.2061900794506073, 0.0016220408724620938, -0.060312382876873016, 0.22464090585708618, 0.04198746755719185, -0.022122012451291084, -0.20026442408561707, -0.09665664285421371, 0.1322162002325058, -0.29014110565185547, 0.08953315019607544, -0.017178596928715706, 0.04748472943902016, -0.04783475026488304, 0.07979342341423035, 0.043081462383270264, 0.19860413670539856, -0.1562022566795349, 0.024063998833298683, -0.09690088778734207, 0.09853819757699966, -0.024654142558574677, -0.3047622740268707, 0.008298322558403015, 0.059859782457351685, -0.22439253330230713, 0.10177294909954071, 0.11910689622163773, 0.06339415162801743, -0.03921544924378395, 0.06475001573562622, -0.15102526545524597, 0.08797799050807953, 0.025396589189767838, 0.03535249084234238, -0.01836409419775009, 0.12647540867328644, -0.009618308395147324, 0.13942435383796692, 0.01376240886747837, 0.23505286872386932, -0.13064873218536377, -0.13503773510456085, -0.3063417077064514, 0.2116890847682953, 0.12818507850170135, -0.2661823630332947, 0.13061636686325073, 0.7299982905387878, -0.15059995651245117, -0.09118324518203735, -0.32612353563308716, 0.21109725534915924, 0.1599339097738266, 0.5967958569526672, -0.16379386186599731, -0.32860350608825684, 0.6095970869064331, -0.17973913252353668, -0.13716968894004822, 0.36006879806518555, -0.20785462856292725, -0.28124502301216125, -0.2936338782310486, 0.227774515748024, 0.25428739190101624, 0.48109954595565796, -0.2780022919178009, -0.2793847620487213, -0.3762582540512085, 0.1420074850320816, 0.26289859414100647, 0.41876912117004395, -0.42777514457702637, -0.32596325874328613, -0.3491606116294861, 0.3664367198944092, 0.382005512714386, 0.5925503969192505, -0.4193727374076843, -0.34290850162506104, 0.4717448949813843, -0.3696562349796295, -0.11246725171804428, -0.34749531745910645, 0.11185839027166367, -0.15398134291172028, 0.05518776550889015, -0.03339097276329994, 0.13923603296279907, -0.028430137783288956, 0.30573606491088867, 0.15137241780757904, -0.19042077660560608, 0.2517441213130951, 0.15153560042381287, -0.10029815882444382, 0.3368982672691345, 0.0830921083688736, 0.2595651149749756, -0.21976381540298462, 0.10450558364391327, -0.14445072412490845, 0.15658095479011536, -0.10545675456523895, 0.05498301237821579, -0.304610013961792, 0.11050811409950256, -0.05686477944254875, 0.17212656140327454, -0.10784365236759186, 0.29202237725257874, -0.06898880004882812, 0.01769833266735077, -0.23369623720645905, 0.3277842700481415, 0.06364595890045166, -0.2999480664730072, 0.3306995928287506, 0.11587748676538467, -0.8095095753669739, 0.47994092106819153, 0.30109336972236633, 0.5414912700653076, -0.1894688457250595, -0.3228188157081604, -0.6897977590560913, 0.2868991196155548, 0.2968238294124603, -0.6053014397621155, 0.3619759976863861, 0.4976067543029785, -0.567398726940155, 0.23291124403476715, 0.3427797555923462, 0.6717873215675354, -0.25249725580215454, -0.4554603397846222, -0.6446046233177185, 0.302982360124588, 0.297049343585968, 0.6354766488075256, -0.46307891607284546, -0.27802249789237976, -0.5583642721176147, 0.37548506259918213, 0.210121288895607, 0.5469053983688354, -0.3244245648384094, -0.4722340703010559, -0.495999276638031, 0.1998453289270401, 0.1829688847064972, -0.7800619006156921, 0.3188449740409851, 0.4575534164905548, -0.2514098584651947, 0.11391226947307587, 0.006364115513861179, 0.05113973468542099, -0.06763200461864471, -0.2778136134147644, 0.10838699340820312, 0.02574845217168331, 0.03402816504240036, 0.12450159341096878, -0.13350343704223633, -0.025700360536575317, 0.1620960384607315, 0.3463055491447449, -0.7956237196922302, -0.4868779182434082, -0.9857883453369141, -0.28561168909072876, 0.06675303727388382, -0.7969388961791992, 0.29717621207237244, 0.7662692666053772, 0.12850435078144073, -1.0157684087753296, -0.086504265666008, -0.26934394240379333, 0.35594096779823303, 0.19674009084701538, -0.13192251324653625, -0.14101500809192657, -0.12531647086143494, -0.29741331934928894, -0.40528008341789246, -0.18784911930561066, 0.0850786417722702, 0.4509817361831665, -0.1620350331068039, -0.17792189121246338, -0.17914195358753204, 0.16483210027217865, 0.066584013402462, 0.2870818078517914, 0.17840556800365448, 0.11749212443828583, -0.0615001916885376, -0.11085737496614456, -0.007078016642481089, -0.011866830289363861, 0.20013394951820374, -0.19657926261425018, 0.24850480258464813, 0.02384882979094982, -0.3406572937965393, -0.2894195318222046, 0.1290552169084549, 0.25663724541664124, -0.22719785571098328, 0.030739909037947655, 0.23469457030296326, 0.500119686126709, 0.258802592754364, -0.12912848591804504, 0.12780998647212982, 0.1322568655014038, -0.08166521787643433, 0.09918318688869476, -0.08116728067398071, 0.19565178453922272, -0.06827502697706223, -0.31887757778167725, 0.2355019599199295, 0.3865724205970764, -0.14156736433506012, -0.009712579660117626, 0.24087779223918915, 0.013864963315427303, -0.0418095737695694, -0.2333666831254959, -0.004946534987539053, -0.22718597948551178, -0.16583813726902008, -0.32257378101348877, 0.41193610429763794, 0.2203385978937149, -0.015267896465957165, -0.14570043981075287, 0.3552394211292267, 0.46697378158569336, -0.23115825653076172, -0.316745787858963, -0.2265292853116989, -0.004933096002787352, -0.05244259163737297, -0.3470330238342285, -0.07949654012918472, 0.3299339711666107, 0.11308860778808594, -0.18967659771442413, 0.02678416483104229, -1.1499438285827637, -0.29523658752441406, 0.3199768364429474, -0.37525418400764465, -0.17499764263629913, -0.24304573237895966, 0.519645094871521, -0.271459698677063, -0.8927204608917236, 0.2693112790584564, -0.25361207127571106, 0.16896578669548035, -0.15488481521606445, -0.16853222250938416, -0.18374928832054138, 0.25186172127723694, 0.03432038426399231, -0.30946120619773865, -0.21339845657348633, -0.10535340011119843, 0.202328622341156, -0.31475627422332764, 0.3360380530357361, -0.02999686263501644, 0.7017588019371033, 0.4895753264427185, 0.1809053122997284, 0.3362542688846588, 0.25006580352783203, -0.1049497202038765, -0.44574952125549316, 0.07079973071813583, 0.6546982526779175, -0.07923601567745209, -0.2273087054491043, 0.043916039168834686, 0.3956884741783142, -0.0362442322075367, -0.1846703290939331, -0.254473477602005, 0.05490342900156975, -0.040481265634298325, -0.16774393618106842, 0.17705462872982025, 0.20560339093208313, 0.09700148552656174, 0.2603316903114319, -0.03248566389083862, -0.20523346960544586, -0.261773020029068, 0.24459496140480042, 0.19601592421531677, 0.20429392158985138, -0.2074626386165619, 0.20270223915576935, 0.30118000507354736, 0.34482714533805847, -0.2326422482728958, -0.14742502570152283, -0.09459178894758224, 0.2304006665945053, -0.21661770343780518, -0.22064940631389618, 0.0907355323433876, -0.15531961619853973, -0.18731068074703217, -0.11579065769910812, 0.059053581207990646, -0.10052510350942612, 0.2595513164997101, 0.005016633775085211, 0.01633973978459835, 0.15239155292510986, 0.09279311448335648, 0.03986167535185814, 0.14652356505393982, 0.006424020044505596, -0.02190142683684826, 0.2050614058971405, 0.06416738033294678, -0.203695148229599, -0.13792996108531952, -0.3295261263847351, 0.48639976978302, 0.20779402554035187, 0.1751345992088318, -0.11829201877117157, -0.06857254356145859, -0.25554442405700684, 0.3128507435321808, -0.07943128794431686, -0.15003420412540436, 0.29932475090026855, -0.21306730806827545, -0.4587673544883728, 0.18227525055408478, -0.005303423386067152, -0.4082372188568115, 0.3778861165046692, -0.04332554712891579, 0.08086985349655151, -0.5754296183586121, 0.07780244946479797, -0.4531170427799225, 0.3738987147808075, 0.2583690285682678, 0.03618628904223442, 0.21009275317192078, -0.13561607897281647, -0.10820802301168442, 0.1292942315340042, -0.32226303219795227, -0.4967789947986603, 0.208409383893013, 0.1064871996641159, -0.13843342661857605, 0.34571486711502075, 0.26071518659591675, -0.1950952112674713, 0.12916025519371033, -0.39464160799980164, 0.1027177944779396, 0.2372218817472458, 0.23946458101272583, -0.09335193783044815, -0.16268907487392426, 0.40253230929374695, -0.3862515389919281, -0.06795260310173035, 0.2679665982723236, -0.19413703680038452, 0.03449372947216034, 0.43054842948913574, -0.2843819260597229, -0.052527766674757004, -0.08163249492645264, 0.4656965136528015, 0.1179334968328476, 0.2363557070493698, -0.025115100666880608, -0.06471839547157288, -0.038534414023160934, -0.46141892671585083, 0.20110231637954712, 0.09172247350215912, -0.09184417128562927, 0.09728921204805374, 0.27545663714408875, -0.3088231384754181, -0.10884467512369156, 0.34486815333366394, -0.03032321110367775, -0.18015901744365692, 0.11702816933393478, -0.12875644862651825, 0.09647011011838913, 0.06366745382547379, -0.009845326654613018, 0.04714135453104973, -0.1447063684463501, 0.01469197403639555, -0.04434918984770775, -0.011803367175161839, -0.0014243946643546224, 0.20251454412937164, -0.061278101056814194, 0.09718930721282959, 0.07448989897966385, -0.02847740240395069, -0.13787925243377686, -0.045346178114414215, 0.14060604572296143, -0.08476567268371582, -0.0989452674984932, 0.13033734261989594, 0.18211132287979126, 0.2708922028541565, 0.04986067861318588, -0.12590309977531433, -0.007924552075564861, -0.12783941626548767, -0.11333119124174118, 0.085032619535923, 0.11069227755069733, -0.19244977831840515, 0.09846828132867813, -0.07668770104646683, 0.002948205452412367, 0.20669901371002197, 0.018707139417529106, 0.07770425826311111, -0.1252838522195816, 0.1665336787700653, -0.027340499684214592, -0.10577487200498581, 0.0642690360546112, -0.10557111352682114, -0.1764325350522995, -0.0011130758794024587, 0.1318921446800232, -0.14185191690921783, 0.10986778140068054, 0.15784688293933868, 0.03301647678017616, -0.023602914065122604, 0.04125764220952988, -0.10601083189249039, -0.20730982720851898, -0.02392638474702835, 0.17257528007030487, 0.15806744992733002, 0.07507121562957764, 0.0944015383720398, 0.1501852422952652, 0.21785590052604675, -0.21037359535694122, -0.06856166571378708, 0.039717018604278564, 0.10886314511299133, -0.19281481206417084, 0.13430413603782654, 0.010862203314900398, -0.11003295332193375, -0.04238486289978027, 0.1356613039970398, -0.29130324721336365, -0.046375930309295654, 0.2614050805568695, -0.0277334526181221, 0.13530011475086212, -0.07135839015245438, -0.07315660268068314, -0.10921011865139008, 0.3854968547821045, -0.256910502910614, 0.1850830614566803, 0.07311859726905823, -0.33435335755348206, 0.12092407047748566, 0.24959854781627655, -0.20904675126075745, -0.14648987352848053, 0.07037121802568436, 0.12503953278064728, -0.2872185707092285, -0.24869416654109955, -0.09083206951618195, -0.08892522752285004, 0.08260870724916458, 0.1730266660451889, 0.22953690588474274, 0.1171402558684349, -0.12806132435798645, -0.0652366429567337, 0.012536199763417244, -0.07887884974479675, 0.07038119435310364, 0.32331010699272156, -0.16090162098407745, 0.10469876229763031, -0.04209673032164574, -0.1410815715789795, 0.23438601195812225, 0.24905283749103546, 0.08213504403829575, 0.06484459340572357, -0.03693104162812233, -0.3152883052825928, 0.014160672202706337, 0.15458282828330994, -0.3055984079837799, 0.12403587996959686, 0.17458476126194, -0.2788431644439697, 0.2390734702348709, 0.06444071233272552, -0.1656290888786316, 0.37863674759864807, 0.09432955086231232, 0.3166908025741577, -0.23089614510536194, -0.10090551525354385, -0.17484350502490997, -0.03511529043316841, 0.002447959501296282, -0.29713737964630127, 0.46521735191345215, 0.1440703123807907, -0.12112364172935486, 0.13476696610450745, 0.016087813302874565, -0.2142421305179596, 0.15698835253715515, 0.18965193629264832, -0.16705326735973358, -0.05868178978562355, 0.0710316151380539, 0.05610693246126175, 0.035640399903059006, 0.12820741534233093, 0.0671878382563591, 0.21159891784191132, -0.08025693893432617, 0.10672979801893234, -0.022621015086770058, 0.0448661632835865, 0.08362405747175217, -0.11645475775003433, 0.18420635163784027, 0.004453582689166069, -0.21858306229114532, 0.17079955339431763, -0.0927509069442749, -0.16749787330627441, -0.019298093393445015, -0.04542562738060951, -0.09882000088691711, 0.09861492365598679, 0.3530261516571045, 0.02035948634147644, 0.13677054643630981, 0.22887815535068512, 0.012418861500918865, -0.1693311631679535, 0.014361267909407616, -0.07518015801906586, 0.12147175520658493, 0.10771652311086655, -0.11102712154388428, -0.1149665042757988, 0.03361302986741066, -0.013259760104119778, 0.09447360783815384, -0.08415412157773972, 0.1911284327507019, 0.025835053995251656, 0.2820063829421997, -0.25776976346969604, -0.338371217250824, -0.19246628880500793, 0.46314072608947754, 0.48442479968070984, 0.05670740082859993, 0.3909810483455658, 0.14168429374694824, -0.06754469126462936, 0.42341768741607666, 0.22414889931678772, 0.15521155297756195, 0.44683516025543213, 0.5409841537475586, -1.0878125429153442, -0.44877126812934875, -0.7885869145393372, -0.32675138115882874, 0.2432074397802353, 0.40723946690559387, 2.1689610481262207, 0.746854841709137, 0.51411372423172, 0.02245662547647953, 0.05419383570551872, -0.01780780963599682, -0.31939494609832764, 0.17884166538715363, 0.3872494101524353, -0.04831816256046295, 0.21614770591259003, 0.2872684597969055, 0.1522952765226364, -0.11656460165977478, 0.3617478013038635, -0.0022361199371516705, 0.07052432745695114, -0.10094205290079117, 0.12005288898944855, -0.3149304687976837, 0.10531585663557053, -0.041953813284635544, -0.41792118549346924, 0.2659093141555786, 0.18493832647800446, -0.4919860064983368, 0.17670758068561554, -0.0395091250538826, -0.279848575592041, 0.11789283156394958, 0.11909064650535583, 0.23807653784751892, -0.5395101308822632, 0.2607717514038086, -0.03798133507370949, 0.010656234808266163, 0.2109697163105011, -0.33605748414993286, 0.7407965660095215, -0.012743950821459293, -0.02588166482746601, 0.1160719096660614, 0.019924230873584747, -0.2787604033946991, -0.1650022715330124, -0.03889390453696251, -0.270888090133667, -0.10034750401973724, -0.008424337953329086, -0.01170191541314125, -0.09587686508893967, 0.06699912250041962, -0.09403194487094879, -0.05724579095840454, -0.03021308407187462, 0.12616048753261566, -0.01887146383523941, -0.22596107423305511, 0.07959030568599701, -0.043390922248363495, -0.23398339748382568, 0.10614167898893356, 0.11623173207044601, -0.2551337480545044, -0.0310920812189579, -0.026133151724934578, 0.17622725665569305, -0.26832282543182373, 0.023710835725069046, 0.1646951287984848, 0.18802332878112793, 0.06905031204223633, 0.07450681179761887, 0.2857338488101959, -0.15158529579639435, -0.03464096039533615, 0.12881000339984894, 0.12761276960372925, -0.1733361929655075, 0.24162226915359497, -0.008970344439148903, -0.2095780223608017, 0.04603869840502739, -0.0878005400300026, 0.33991509675979614, -0.1537710279226303, -0.0361853688955307, -0.30214735865592957, -0.08122536540031433, 0.07997681200504303, 0.28056445717811584, 0.032875265926122665, 0.0236473698168993, 0.23651012778282166, 0.024394165724515915, 0.056276194751262665, 0.2977403402328491, -0.20502279698848724, 0.0004109885776415467, 0.18255825340747833, -0.23408320546150208, -0.17475220561027527, 0.004137272480875254, 0.31331923604011536, -0.07045707106590271, 0.24674919247627258, -0.23453834652900696, -0.2582535147666931, -0.1828220933675766, -0.41651973128318787, 0.2536279857158661, 0.17278613150119781, 0.027979372069239616, -0.0498046912252903, 0.16590896248817444, -0.0488286092877388, 0.052232638001441956, 0.08993881195783615, -0.1211274042725563, 0.026663342490792274, 0.19490574300289154, -0.22760853171348572, -0.0747721716761589, 0.03241516277194023, 0.12638333439826965, -0.10289177298545837, -0.05643608421087265, -0.10894881933927536, -0.12154702097177505, 0.11756721138954163, -0.0720062181353569, -0.04978416487574577, 0.054268062114715576, -0.22999528050422668, -0.025552136823534966, 0.07659997045993805, -0.30904442071914673, -0.07297083735466003, -0.20329247415065765, 0.35817819833755493, -0.0033984018955379725, 0.33808204531669617, -0.022060099989175797, 0.01742132380604744, -0.09149108827114105, -0.13384684920310974, -0.0759897232055664, 0.08126378059387207, -0.3556467294692993, 0.0706753060221672, -0.0009152733837254345, -0.20782142877578735, 0.016407255083322525, 0.19691728055477142, -0.1416783481836319, 0.028787121176719666, 0.10133350640535355, 0.07004629820585251, 0.08050744235515594, -0.011384593322873116, -0.02023952640593052, 0.2443995326757431, 0.030818089842796326, -0.0070117684081196785, 0.007090394385159016, -0.10276234149932861, 0.03730985149741173, -0.23246869444847107, 0.08757632225751877, 0.8687196969985962, 0.29999810457229614, 0.08456138521432877, 0.23864039778709412, -0.7345387935638428, 1.0337293148040771, -1.1920164823532104, -1.1467387676239014, -0.12892766296863556, 0.7652319669723511, 0.26378586888313293, -0.008653644472360611, -0.37016773223876953, 0.09555339813232422, -0.024571053683757782, 0.10710341483354568, 0.19541199505329132, -0.04449790343642235, -0.10231874883174896, -0.05385182425379753, 0.06680537760257721, -0.1654747724533081, 0.003542950376868248, -0.38332921266555786, 0.3992772102355957, -0.028390441089868546, 0.04272187873721123, -0.19677415490150452, -0.4559324383735657, -0.08715285360813141, 0.02698967233300209, -0.23679833114147186, -0.15457069873809814, 0.20571781694889069, 0.2508796155452728, -0.05970092490315437, 0.03690023720264435, 0.001739289378747344, -0.030550168827176094, 0.07183163613080978, 0.08652106672525406, -0.0026121644768863916, -0.3592808246612549, 0.1648094803094864, 0.00010734514216892421, -0.18536818027496338, -0.28009670972824097, -0.17948392033576965, -0.42072394490242004, -0.07016939669847488, 0.027582671493291855, 0.032167039811611176, -0.25893130898475647, -0.151577427983284, -0.14450271427631378, -0.3908219337463379, 0.083442822098732, -0.12314373254776001, -0.10015515983104706, 0.10907849669456482, -0.18524642288684845, -0.11963096261024475, 0.21503792703151703, -0.039736464619636536, 0.2401474416255951, 0.01594668999314308, -0.18164986371994019, 0.18548475205898285, -0.1892625242471695, 0.3680802583694458, -0.22548237442970276, -0.04031437262892723, 0.295960932970047, -0.23296736180782318, 0.023515967652201653, 0.062455806881189346, -0.2795468270778656, -0.02884083427488804, -0.17552559077739716, 0.3341059982776642, -0.20893622934818268, 0.3948914706707001, -0.2874681353569031, -0.5689638257026672, -0.5497279167175293, 0.03601739555597305, -0.20439524948596954, -0.025968655943870544, 0.4471074640750885, -0.2020663470029831, 0.10472724586725235, -0.44200408458709717, 0.4233531951904297, -0.42027872800827026, 0.009052339009940624, 0.04995565116405487, -0.23522000014781952, 0.05531604215502739, 0.04361496865749359, -0.09271075576543808, -0.022540250793099403, 0.025738468393683434, 0.24499920010566711, -0.12747377157211304, -0.07074623554944992, 0.03058638609945774, -0.024255258962512016, 0.2957044541835785, 0.15194134414196014, 0.011648747138679028, -0.07625327259302139, -0.04887690395116806, -0.23739907145500183, 0.1534993201494217, -0.2238859236240387, 0.0817594826221466, -0.024102522060275078, -0.0474216602742672, 0.2858293652534485, 0.5109708309173584, -0.4917556941509247, -0.07810091972351074, -0.04554582014679909, 0.30412375926971436, 0.40488240122795105, 0.0803263932466507, -0.079084612429142, 0.36027559638023376, -0.1936027854681015, -0.013805673457682133, -0.12989726662635803, 0.1107216477394104, 0.4999435842037201, 0.12653939425945282, -0.34382155537605286, -0.2039431929588318, -0.29359811544418335, -0.17644648253917694, 0.22121188044548035, 0.19498169422149658, -0.30547037720680237, 0.07348413020372391, 0.08496907353401184, 0.23401474952697754, -0.25866320729255676, 0.020829034969210625, -0.19720818102359772, 0.1486707329750061, 0.19704051315784454, -0.0771493911743164, -0.13092517852783203, 0.26777365803718567, -0.11646207422018051, 0.01054512057453394, 0.06467228382825851, -0.020166322588920593, 0.19926737248897552, -0.2616167366504669, 0.07387031614780426, 0.1195668950676918, -0.14603468775749207, 0.1360645741224289, 0.16117307543754578, 0.06540530920028687, -0.016650045290589333, 0.07123597711324692, -0.17463767528533936, -0.1315889060497284, 0.005132982507348061, 0.14622512459754944, 0.009868341498076916, -0.1265079528093338, -0.22357164323329926, 0.05016516521573067, -0.2661226987838745, 0.05763006955385208, -0.2710275650024414, -0.19392891228199005, -0.03323517367243767, 0.02952083759009838, -0.08553750067949295, 0.27403756976127625, 0.09595266729593277, -0.11644040793180466, -0.028906067833304405, 0.21069064736366272, 0.253029465675354, 0.05870912969112396, -0.44021886587142944, 0.006535861641168594, 0.1386028677225113, 0.050014156848192215, -0.012061784975230694, 0.08361368626356125, -0.060354456305503845, -0.031781286001205444, 0.25519636273384094, -0.17052049934864044, 0.0722118690609932, 0.1517200469970703, 0.26808586716651917, 0.02331675961613655, 0.21012446284294128, -0.05248510465025902, 0.10217075794935226, -0.21120063960552216, -0.24970592558383942, 0.04590120539069176, 0.41787639260292053, 0.2311570793390274, 0.24837280809879303, -0.7254877090454102, 0.09785161167383194, 0.2620374858379364, -0.21002863347530365, 0.16705457866191864, -0.007655899506062269, -0.3116872012615204, 0.38267138600349426, -0.03706540912389755, -0.11543481051921844, 0.06126286834478378, 0.16369377076625824, -0.2786169648170471, 0.09616721421480179, 0.06833340972661972, -0.2051670253276825, -0.06238897144794464, -0.3086932599544525, 0.31371280550956726, -0.16222016513347626, -0.1348012536764145, -0.06583354622125626, 0.16184188425540924, 0.16687411069869995, 0.1747860461473465, 0.08074714988470078, -0.01881292462348938, -0.087169349193573, -0.12194298952817917, 0.00015982607146725059, 0.4705917537212372, -0.03422107547521591, -0.13948984444141388, -0.5160467624664307, 0.22215579450130463, 0.3026353716850281, 0.7787654995918274, -0.0168612040579319, 0.14524540305137634, 0.4984742999076843, 0.07017967104911804, 0.09219653159379959, 0.2867260277271271, -0.1151205524802208, -0.11120430380105972, 0.30459094047546387, -0.054747018963098526, -0.2076703906059265, 0.21176040172576904, -0.11605803668498993, -0.13366469740867615, -0.014301024377346039, 0.199342280626297, 0.24899287521839142, -0.2835827171802521, 0.04048385098576546, 0.2835577130317688, 0.05412141978740692, -0.11808121204376221, -0.16639208793640137, -0.3453192412853241, 0.017858313396573067, -0.015097850933670998, 0.18827000260353088, -0.19261601567268372, -0.3396734893321991, 0.23826295137405396, -0.018399177119135857, 0.2592090964317322, -0.26855140924453735, -0.2360510528087616, -0.1272093951702118, 0.42527735233306885, 0.052515480667352676, -0.27439984679222107, 0.15470363199710846, -0.17442506551742554, -0.23218947649002075, 0.30396538972854614, -0.22036832571029663, -0.08453425765037537, 0.3892008066177368, -0.08422143757343292, 0.0599738173186779, -0.16464653611183167, 0.0001273701200261712, -0.10684803128242493, -0.01209942251443863, -0.07970760762691498, 0.2907046973705292, -0.16342458128929138, 0.025004545226693153, -0.29249176383018494, 0.2718384265899658, -0.02371997758746147, -0.043410032987594604, 0.14213979244232178, 0.06972318142652512, -0.0884350910782814, 0.17105409502983093, 0.020118551328778267, -0.30367228388786316, -0.04547148570418358, -0.1057245209813118, 0.0060065616853535175, -0.11593794077634811, 0.019468525424599648, -0.16224190592765808, -0.06343722343444824, -0.00802982971072197, -0.2551182806491852, 0.10267042368650436, -0.037759020924568176, 0.05511277914047241, 0.2054038941860199, -0.14649765193462372, 0.07853192836046219, -0.13727551698684692, -0.01703239232301712, -0.1282208263874054, 0.06126964092254639, -0.274903267621994, -0.3095945119857788, 0.04296107962727547, 0.17321357131004333, 0.09431453049182892, 0.00397689500823617, 0.04323030635714531, 0.271878719329834, 0.10470129549503326, -0.04526807367801666, -0.1103878766298294, 0.06237039715051651, 0.2862265408039093, 0.29239583015441895, 0.14030484855175018, 0.11005599796772003, -0.44946223497390747, -0.15680304169654846, 0.20378297567367554, 0.365148663520813, -0.1330336481332779, -0.0730530396103859, -0.12305716425180435, -0.03869391977787018, 0.04243884235620499, -0.13439436256885529, -0.005861739162355661, -0.0904717966914177, -0.25513145327568054, -0.08117078989744186, -0.12130269408226013, 0.18677274882793427, -0.016589706763625145, 0.0688149482011795, -0.009491745382547379, 0.022899635136127472, -0.06620317697525024, -0.23683537542819977, 0.22112403810024261, -0.2600939869880676, 0.008819777518510818, -0.17366699874401093, -0.5092288851737976, -0.31975457072257996, -0.048746153712272644, -0.021654540672898293, -0.08437508344650269, 0.0011117395479232073, -0.2100857049226761, 0.02330482006072998, 0.10766476392745972, 0.15918953716754913, 0.0910927951335907, 0.15874622762203217, -0.14024828374385834, -0.1558772623538971, 0.05449359863996506, -0.013650408945977688, 0.1301225870847702, -0.21422767639160156, 0.019495896995067596, -0.02243567258119583, -0.20467890799045563, -0.07000230252742767, -0.11132045090198517, -0.047537196427583694, 0.17921435832977295, 0.22187279164791107, -0.17936114966869354, 0.04004436358809471, -0.21860405802726746, 0.133043572306633, 0.14026300609111786, -0.12350202351808548, -0.2668744623661041, -0.15898250043392181, -0.03231077641248703, 0.2976146936416626, -0.11136932671070099, 0.35806769132614136, 0.20894663035869598, 0.01734505034983158, -0.09212274104356766, -0.02348405309021473, 0.17800316214561462, 0.2653353810310364, 0.047008056193590164, 0.004624742083251476, -0.04418104141950607, 0.04155762121081352, 0.165768563747406, 0.057165857404470444, -0.09589921683073044, -0.219291090965271, 0.06205251067876816, 0.06843268126249313, -0.25086456537246704, 0.1259227842092514, 0.07759837806224823, 0.033664170652627945, -0.06760811805725098, 0.05383544787764549, -0.13504905998706818, 0.03100726194679737, 0.07993736863136292, 0.0004138121148571372, -0.11588747799396515, 0.012447405606508255, 0.04135457053780556, 0.06964022666215897, -0.021619409322738647, -0.029762955382466316, -0.11332301050424576, -0.08663706481456757, -0.06586550921201706, 0.09700458496809006, -0.04899713397026062, -0.2475690394639969, 0.011789772659540176, 0.09549791365861893, 0.10785288363695145, 0.005573707167059183, -0.06693124771118164, 0.12840716540813446, -0.08471343666315079, -0.07735419273376465, 0.14052481949329376, 0.43774983286857605, 0.01305510476231575, 0.10953962057828903, -0.6189635396003723, -0.20513826608657837, -0.14197969436645508, -0.3913530111312866, -0.2940281927585602, 0.23134993016719818, -0.004243843257427216, 0.18178148567676544, 0.42463335394859314, 0.02409590780735016, -0.2199268490076065, 0.20788398385047913, 0.4562264680862427, 0.03700888156890869, 0.2268185317516327, -0.0451468750834465, -0.0844646468758583, -0.25631648302078247, -0.0004116821219213307, -0.12718082964420319, -0.006295499391853809, -0.08078140765428543, 0.260640025138855, 0.19174602627754211, 0.15186864137649536, -0.02989780344069004, -0.40769028663635254, -0.5205687880516052, -0.3776310384273529, 0.162178173661232, -0.014989973045885563, -0.19322024285793304, -0.23960362374782562, 0.27719366550445557, 0.08959197998046875, 0.07706500589847565, -0.08523892611265182, -0.37089803814888, 0.18577641248703003, -0.11819924414157867, -0.34388911724090576, 0.2642834782600403, -0.13170841336250305, -0.2901601195335388, 0.2717157304286957, -0.016098501160740852, -0.10779569298028946, -0.029846763238310814, 0.15722797811031342, -0.20572395622730255, 0.23370161652565002, -0.025490961968898773, -0.10071605443954468, -0.1625504195690155, -0.1384001523256302, 0.1481555551290512, -0.10562434047460556, -0.2905365526676178, 0.035062484443187714, 0.21250005066394806, 0.08224817365407944, -0.20754794776439667, -0.05163809284567833, 0.10298776626586914, 0.1401997059583664, -0.18121272325515747, -0.17106683552265167, 0.1438385397195816, -0.3149547576904297, -0.022971855476498604, 0.15149304270744324, -0.09164101630449295, -0.0515325702726841, 0.14925429224967957, -0.19194157421588898, -0.15577761828899384, -0.017041543498635292, -0.053110603243112564, -0.040601953864097595, 0.04704644903540611, -0.07226777076721191, 0.06942738592624664, 0.15203683078289032, -0.059359095990657806, 0.07219816744327545, 0.025123488157987595, 0.12368312478065491, -0.12315262854099274, -0.07948359102010727, -0.22428826987743378, -0.10315222293138504, -0.058510810136795044, 0.2155640423297882, 0.17423900961875916, 0.20424501597881317, 0.1476220190525055, -0.012948751449584961, -0.13569200038909912, 0.07026950269937515, -0.017371410503983498, 0.06348827481269836, 0.19099073112010956, 0.18982073664665222, -0.16244782507419586, -0.1198238804936409, -0.04971925914287567, 0.37344634532928467, 0.09462599456310272, 0.2826838493347168, -0.04879437014460564, -0.15797436237335205, -0.004064290318638086, -0.19006505608558655, 0.15247255563735962, 0.10655815899372101, -0.2525682747364044, 0.04785769060254097, -0.06973069161176682, -0.3822809159755707, -0.031592585146427155, 0.15817272663116455, 0.026260871440172195, -0.08967191725969315, 0.1019473522901535, 0.13398756086826324, -0.0003175799793098122, -0.1186734139919281, 0.04542664438486099, 0.04232471436262131, -0.034336674958467484, -0.3215205669403076, 0.06573574244976044, 0.046039752662181854, -0.15620006620883942, -0.0058988588862121105, -0.07997571676969528, 0.06002838909626007, 0.10345719009637833, 0.010300115682184696, 0.03399137407541275, 0.02797950617969036, -0.18094955384731293, -0.03866281732916832, 0.023035116493701935, -0.06520180404186249, 0.6018233299255371, -0.15165507793426514, -0.17449069023132324, 0.050948578864336014, -1.172054409980774, 1.0047719478607178, -0.559586226940155, -0.8765431642532349, -0.15135826170444489, -0.4668847620487213, -0.5344312191009521, 0.5039706230163574, -0.4885197579860687, 0.7298457622528076, 1.014772653579712, 0.2974802553653717, 0.1559496819972992, -0.4201247990131378, 0.3614189326763153, 0.35292908549308777, 0.2352534681558609, 0.42663222551345825, -0.33497053384780884, 0.07414029538631439, 0.14262165129184723, -0.30120477080345154, -0.1990569531917572, -0.15680323541164398, -0.3234456181526184, -0.2526281476020813, 0.283710241317749, -0.02395089715719223, 0.019710151478648186, 0.11579768359661102, 0.09547345340251923, -0.027871351689100266, -0.27299267053604126, -0.3251801133155823, -0.2886960804462433, -0.08978884667158127, 0.3433384597301483, 0.20899295806884766, -0.06885331869125366, -0.17676958441734314, 0.24690009653568268, -0.2702110707759857, 0.10578958690166473, -0.003731628181412816, 0.1514589935541153, 0.006385504268109798, 0.023564085364341736, 0.010549853555858135, 0.04682250693440437, -0.2577216923236847, -0.0799190029501915, 0.04313109815120697, 0.31177255511283875, 0.5283663272857666, 0.16693174839019775, -0.09324774891138077, 0.3576589524745941, -0.06907865405082703, 0.04326417297124863, 0.2192043662071228, -0.2055821567773819, 0.4390469193458557, -0.2867963910102844, -0.19870564341545105, -0.07344315946102142, 0.018717877566814423, 0.3188967704772949, -0.16173073649406433, -0.24234911799430847, -0.021251121535897255, -0.25583332777023315, 0.2247450053691864, 0.2084047794342041, -0.0017128121107816696, -0.04265429824590683, -0.03359895944595337, -0.3388039767742157, -0.022592689841985703, -0.08469291776418686, 0.14091689884662628, -0.04682748392224312, 0.06980486959218979, -0.7760788798332214, -0.09164351224899292, 0.21224035322666168, -0.36574217677116394, 0.11764217168092728, 0.11250447481870651, 0.15878619253635406, 0.10307685285806656, -0.06846468895673752, -0.04891346022486687, -0.01195933111011982, 0.11870477348566055, 0.14576487243175507, 0.23479200899600983, -0.008394167758524418, -0.14395323395729065, -0.01641317456960678, 0.2639872133731842, 0.29544463753700256, 0.08721594512462616, 0.18062913417816162, -0.03932226821780205, 0.40484726428985596, -0.2464379370212555, 0.0022449507378041744, -0.20012854039669037, -0.4032028615474701, 0.3130508363246918, -0.004056366626173258, 0.07836297154426575, 0.17132209241390228, 0.2759039103984833, 0.05413760244846344, -0.15709605813026428, -0.04284876957535744, 0.38948896527290344, 0.18767708539962769, -0.002970536006614566, -0.11172199994325638, 0.3434840142726898, -0.27014240622520447, 0.07044602185487747, -0.11259622871875763, 0.28573065996170044, -0.020647117868065834, 0.018207652494311333, -0.2381046563386917, 0.38394805788993835, -0.08477624505758286, 0.012087725102901459, 0.22974132001399994, 0.07706890255212784, -0.09303217381238937, 0.16968689858913422, 0.2881183922290802, 0.11334112286567688, -0.0679563581943512, -0.22009286284446716, -0.16162535548210144, 0.02531387284398079, 0.07384075969457626, 0.05705351382493973, -0.07247453182935715, -0.13844384253025055, 0.22870931029319763, 0.29786375164985657, -0.4059276580810547, 0.05527529492974281, -0.22500599920749664, -0.28978604078292847, -0.08267904072999954, 0.030753782019019127, -0.012756053358316422, -0.10178342461585999, 0.26051828265190125, 0.2769380211830139, -0.06871853768825531, 0.07134223729372025, -0.1050771027803421, -0.04975505173206329, -0.08801411092281342, -0.13251303136348724, 0.005169562064111233, -0.05559222772717476, 0.08168567717075348, 0.1187678799033165, 0.18571601808071136, 0.0072295633144676685, -0.08456037938594818, -0.06189112737774849, -0.09082552045583725, 0.2038816213607788, 0.1582813560962677, 0.30179718136787415, -0.07674212753772736, 0.23448221385478973, -0.01598786935210228, 0.13956476747989655, 0.13818471133708954, 0.3481407165527344, 0.11772630363702774, 0.26187363266944885, 0.10673464834690094, -0.19012333452701569, -0.08870839327573776, -0.10686015337705612, 0.06456529349088669, 0.1127987951040268, 0.16525983810424805, -0.25681453943252563, -0.10234704613685608, -0.06746909767389297, 0.14980608224868774, -0.12151357531547546, -0.08615580201148987, -0.11737879365682602, 0.026885107159614563, -0.09719431400299072, 0.05329357460141182, -0.21761074662208557, -0.144615039229393, -0.31900784373283386, 0.04210957884788513, -0.1574205756187439, 0.10617773234844208, -0.1603579819202423, -0.1240151971578598, 0.11176574975252151, 0.31758543848991394, 0.21961265802383423, -0.02876904606819153, -0.20258252322673798, -0.22064128518104553, -0.011690489947795868, -0.09349510073661804, -0.1441335678100586, -0.12199865281581879, 0.11221223324537277, 0.05627834424376488, -0.14022746682167053, -0.1400926411151886, -0.017408765852451324, 0.03899247571825981, -0.0904795229434967, 0.10224729776382446, -0.06962235271930695, -0.2849145531654358, -0.053426679223775864, 0.077243372797966, -0.3351704478263855, -0.3095579147338867, 0.05727338418364525, 0.06887911260128021, -0.06293950974941254, -0.17881517112255096, 0.0016186862485483289, -0.0013390228850767016, 0.062104079872369766, -0.08739146590232849, -0.07003792375326157, 0.07457062602043152, 0.023750143125653267, 0.084531269967556, 0.02837391570210457, -0.04835912957787514, 0.0018722504610195756, 0.16417403519153595, -0.15970534086227417, -0.0012708557769656181, -0.15906518697738647, -0.21638579666614532, 0.007188503164798021, 0.26383426785469055, -0.20324647426605225, -0.07217387855052948, 0.16336795687675476, -0.0259440578520298, -0.09446331858634949, -0.07001474499702454, -0.03608797863125801, -0.055391207337379456, 0.1546429544687271, 0.05326205864548683, 0.17159497737884521, -0.13254110515117645, 0.1959707885980606, 0.32861098647117615, -0.5476740598678589, -0.005052464548498392, 0.16595514118671417, 0.3283754289150238, -0.0347089059650898, 0.03748035430908203, -0.0610484853386879, -0.009979359805583954, -0.32937029004096985, 0.04704027622938156, 0.11577998846769333, -0.10572656989097595, -0.16150738298892975, -0.03332633525133133, 0.053316161036491394, -0.07209847122430801, -0.0691528171300888, -0.3036922216415405, -0.022591548040509224, 0.09017518907785416, 7.837586963432841e-06, -0.26960429549217224, 0.15066617727279663, 0.06859026104211807, -0.26164641976356506, 0.01152021437883377, -0.038708921521902084, 0.16297601163387299, 0.15143977105617523, -0.1329123079776764, -0.07877238839864731, -0.2148691862821579, -0.1094118282198906, 0.0820552408695221, -0.13063617050647736, 0.12880197167396545, 0.041516516357660294, 0.08587620407342911, -0.3316854238510132, -0.08212423324584961, 0.21955278515815735, -0.134048193693161, -0.10453806817531586, 0.13331562280654907, -0.20233778655529022, -0.24130557477474213, 0.22175054252147675, 0.07026650756597519, -0.12899014353752136, -0.1021370217204094, 0.013143256306648254, 0.14029666781425476, -0.12652169167995453, 0.05750621482729912, -0.000596310303080827, -0.003055254928767681, -0.2340482622385025, -0.10620849579572678, 0.1257108449935913, -0.2397301346063614, 0.12683728337287903, -0.25459757447242737, 0.1428646594285965, -0.12440381199121475, 0.07674501836299896, 0.07998637855052948, 0.048099029809236526, 0.08779267221689224, 0.29173460602760315, -0.11079073697328568, -0.0028314641676843166, 0.05039205402135849, -0.13137701153755188, 0.03526200354099274, 0.05239887908101082, 0.027065427973866463, 0.06970730423927307, 0.1517459750175476, -0.04742187634110451, 0.09041087329387665, 0.027225982397794724, -0.08937090635299683, 0.23981040716171265, 0.09215354919433594, 0.009310092777013779, -0.17053082585334778, 0.10004329681396484, 0.43648916482925415, -0.07368867099285126, 0.2378915697336197, -0.06276189535856247, -0.04720745235681534, 0.14032398164272308, 0.28225260972976685, 0.10518240183591843, -0.08957332372665405, 0.1797792762517929, 0.09244260936975479, 0.10452016443014145, 0.032182879745960236, 0.04486513510346413, -0.19696496427059174, 0.1203714907169342, 0.054303038865327835, 0.01472353283315897, -0.12855874001979828, 0.1871682107448578, 0.13082118332386017, -0.25614234805107117, -0.05152988061308861, 0.10841772705316544, -0.18257005512714386, 0.111274853348732, -0.09335847198963165, 0.002027468988671899, 0.07225771993398666, 0.08944777399301529, -0.11372286826372147, -0.07160722464323044, -0.07520295679569244, -0.2163570076227188, -0.030242403969168663, 0.21215185523033142, -0.06590632349252701, 0.2842969298362732, 0.1451515257358551, 0.08708925545215607, 0.0341520681977272, 0.009283808059990406, -0.06553643941879272, -0.09742733091115952, 0.03639162331819534, -0.07989781349897385, -0.1609392613172531, -0.07489508390426636, -0.10590891540050507, 0.09569057077169418, -0.06625699251890182, 0.1335471272468567, -0.0208001509308815, -0.029700379818677902, -0.02396167442202568, -0.14924220740795135, -0.07579988986253738, -0.06564738601446152, -0.11322793364524841, -0.0029473130125552416, 0.01030182559043169, 0.012353163212537766, -0.2577420473098755, 0.13673856854438782, -0.11419723182916641, -0.0549718514084816, -0.003976508975028992, -0.07814709842205048, 0.2990120053291321, 0.1079050600528717, 0.23299948871135712, -0.23944708704948425, 0.1784413456916809, -0.10906190425157547, 0.027163241058588028, 0.09795460104942322, -0.017767049372196198, -0.0040488168597221375, 0.02696709893643856, -0.06741616129875183, -0.26558127999305725, -0.05367306247353554, 0.18221786618232727, 0.09660112112760544, -0.12383025139570236, 0.023371506482362747, -0.1601172536611557, 0.17478223145008087, -0.04149560257792473, 0.16457800567150116, 0.17676286399364471, 0.04487717151641846, 0.18262505531311035, -0.08970130234956741, -0.00794922187924385, -0.011524371802806854, 0.018198778852820396, 0.05532662943005562, -0.08974701166152954, 0.1324329376220703, -0.0005603545578196645, -0.21433952450752258, 0.2412959188222885, 0.008459920063614845, -0.1875380277633667, 0.4938145875930786, -0.22172820568084717, -0.22565242648124695, -0.034646980464458466, -0.04672275483608246, 0.007309271022677422, -0.12449609488248825, -0.3347356915473938, -0.23448258638381958, 0.27112045884132385, -0.026253513991832733, -0.05267203599214554, 0.08015705645084381, 0.14791685342788696, 0.010536298155784607, 0.10962751507759094, -0.2316991686820984, -0.0945480689406395, 0.057569462805986404, 0.11465016007423401, 0.024616368114948273, -0.3084869980812073, -0.020471494644880295, -0.09006749093532562, -0.3607321083545685, -0.038554731756448746, -0.1084931492805481, 0.011002049781382084, -0.010976321995258331, -0.02997300960123539, -0.10993963479995728, 0.1716298609972, 0.24121062457561493, 0.01327477116137743, 0.21859240531921387, 0.18187828361988068, -0.028436334803700447, -0.15807631611824036, 0.06157698854804039, -0.3292856812477112, 0.2620665729045868, 0.10846852511167526, -0.0737968161702156, -0.11807122081518173, 0.11030200123786926, -0.03491991013288498, 0.10754123330116272, 0.2610948383808136, -0.05939524620771408, -0.12742508947849274, 0.22284255921840668, -0.09068609774112701, -0.1895005702972412, -0.01676599122583866, 0.010905888862907887, 0.12785488367080688, -0.2375066727399826, 0.003261313773691654, 0.0579216368496418, -0.18234239518642426, 0.1898660808801651, 0.0462610200047493, 0.0915338546037674, -0.09741265326738358, 0.0007777173304930329, -0.21027523279190063, -0.0774458795785904, 0.054361630231142044, -0.15600088238716125, -0.10631270706653595, 0.10114181041717529, 0.1264435201883316, -0.1376117318868637, -0.04645835980772972, 0.26973655819892883, 0.07274239510297775, 0.24333932995796204, -0.1436125785112381, -0.16610223054885864, 0.06605047732591629, -0.16006797552108765, -0.049693763256073, 0.22066393494606018, 0.07825808972120285, -0.11327411234378815, 0.18222250044345856, 0.05760907754302025, 0.1131511703133583, 0.0027293998282402754, -0.08459325134754181, -0.05451898276805878, 0.1358422189950943, -0.08803782612085342, -0.16305653750896454, 0.21109691262245178, -0.009391279891133308, 0.12271048128604889, 0.15787430107593536, 0.08672958612442017, -0.06668411940336227, -0.04420257732272148, -0.13614551723003387, -0.1578601747751236, 0.0893617644906044, 0.16852638125419617, -0.35423746705055237, -0.07916583865880966, -0.051791753619909286, 0.1681642234325409, 0.07431288808584213, 0.20886147022247314, -0.057251714169979095, -0.056618042290210724, -0.07288775593042374, -0.11417970806360245, 0.14276769757270813, 0.08455464243888855, -0.26017194986343384, 0.20881354808807373, 0.11051598191261292, -0.29271966218948364, 0.14298585057258606, 0.18955650925636292, 0.04927464574575424, -0.06070806086063385, 0.03721405565738678, -0.05210840702056885, -0.10199922323226929, -0.22405870258808136, 0.31874606013298035, 0.072901651263237, -0.0005181443993933499, -0.11437976360321045, 0.15749841928482056, 0.03966877609491348, -0.23021364212036133, 0.05739210918545723, -0.014520769007503986, -0.09391967207193375, 0.15281519293785095, 0.02439504861831665, -0.04831539839506149, -0.08488035202026367, -0.050477590411901474, -0.2288038730621338, -0.17043589055538177, 0.10920054465532303, -0.10908980667591095, 0.04240022599697113, -0.0029123916756361723, 0.002969597466289997, 0.5730063319206238, 0.18685747683048248, 0.3706448972225189, -0.006018586922436953, 0.26662227511405945, 0.49736467003822327, 0.5496086478233337, -0.6644168496131897, -0.4549490511417389, -1.1791887283325195, -0.5453264117240906, 0.8383537530899048, -0.3676404356956482, -0.22508162260055542, 0.25726231932640076, -0.2935360074043274, 0.31286007165908813, 0.18565715849399567, 0.02172238752245903, 0.17041891813278198, -0.15524490177631378, -0.045042138546705246, -0.017484577372670174, -0.1327407956123352, 0.1745339184999466, -0.07383795082569122, -0.19664938747882843, -0.020342223346233368, -0.06867466866970062, 0.20105348527431488, 0.16476595401763916, 0.04096727445721626, -0.2269541621208191, -0.07582493871450424, -0.01787603087723255, 0.20468823611736298, 0.14837688207626343, 0.04865797981619835, -0.004623918328434229, -0.20594987273216248, -0.10525334626436234, -0.43385377526283264, 0.006095774471759796, 0.16485558450222015, -0.07444598525762558, 0.2627592086791992, -0.052733950316905975, -0.1653202921152115, -0.009983956813812256, -0.1275104284286499, -0.13768018782138824, 0.45099925994873047, -0.13206827640533447, 0.05933795124292374, -0.03329170495271683, 0.01764116808772087, 0.08775978535413742, -0.10438334196805954, 0.17243711650371552, -0.022555440664291382, 0.1528235375881195, -0.465048611164093, 0.02701597474515438, 0.03804169222712517, 0.16072961688041687, -0.09479279816150665, -0.018658215180039406, 0.2646316885948181, -0.22997190058231354, 0.09078902751207352, 0.1553213745355606, -0.0870477706193924, -0.1383424550294876, 0.0014150911010801792, 0.04606488347053528, 0.13681690394878387, 0.22166232764720917, -0.07166027277708054, -0.2716273069381714, 0.15190540254116058, -0.07112649083137512, -0.3226061165332794, -0.18622809648513794, 0.20740392804145813, 0.05625611171126366, -0.18928568065166473, 0.11369059979915619, 0.14147473871707916, 0.168291375041008, 0.18270812928676605, -0.01608179695904255, -0.057394884526729584, 0.11244174093008041, -0.13235090672969818, 0.13832929730415344, -0.22501784563064575, -0.023374877870082855, 0.09739436954259872, -0.10435757786035538, -0.08925080299377441, -0.30120861530303955, 0.07563984394073486, 0.041882749646902084, -0.29059118032455444, 0.16033850610256195, 0.18278078734874725, -0.11628405004739761, -0.24154169857501984, 0.275293231010437, 0.039519988000392914, -0.27208298444747925, 0.2895245850086212, -0.27932441234588623, 0.11758480221033096, -0.06476195156574249, -0.3258007764816284, -0.18424895405769348, 0.24631930887699127, -0.09129496663808823, 0.27029672265052795, -0.11151278764009476, -0.15043143928050995, 0.25441974401474, -0.3298480212688446, -0.10715346038341522, 0.10887669771909714, -0.20199567079544067, 0.24313323199748993, -0.13608427345752716, -0.1375635415315628, -0.24900297820568085, 0.0972147285938263, -0.1420847326517105, -0.21763724088668823, -0.16741834580898285, 0.20425383746623993, 0.1577792912721634, 0.12412594258785248, 0.002736299065873027, 0.09358777105808258, 0.08406288176774979, 0.275168240070343, 0.3927362859249115, 0.1618639975786209, 0.2623387277126312, 0.007432449609041214, 0.02178267017006874, -0.15221448242664337, 0.0713191032409668, 0.25975409150123596, -0.13395895063877106, -0.2958505153656006, -0.4295794665813446, 0.25350522994995117, -0.015399659983813763, 0.004731807392090559, -0.15553025901317596, -0.07488277554512024, -0.008538802154362202, 0.08211575448513031, -0.06208110600709915, -0.04890848323702812, 0.17464715242385864, -0.10607039928436279, -0.1670019030570984, 0.11739493906497955, 0.14755193889141083, -0.017682360485196114, -0.06510964781045914, -0.030977381393313408, -0.1605115681886673, 0.17549391090869904, 0.13029499351978302, -0.013969875872135162, 0.14069980382919312, 0.02914281375706196, -0.3723236918449402, 0.08267886936664581, -0.03199906647205353, -0.25392746925354004, -0.0005191400414332747, -0.1981755793094635, 0.07570619136095047, 0.08233526349067688, 0.12864874303340912, -0.16209009289741516, -0.13159024715423584, 0.03581445291638374, -0.1921246200799942, 0.08574103564023972, -0.022357076406478882, -0.2556901276111603, -0.12361066788434982, -0.08550240844488144, 0.28567472100257874, -0.16047126054763794, 0.016487358137965202, 0.12306147068738937, -0.11430636793375015, 0.18202537298202515, 0.18076422810554504, 0.36878153681755066, -0.05623380094766617, -0.19188947975635529, -0.0033122131135314703, 0.23968078196048737, -0.14588557183742523, 0.034579258412122726, 0.13196158409118652, -0.11767878383398056, -0.010078714229166508, -0.1581566035747528, -0.1045440062880516, 0.16776080429553986, 0.12888991832733154, 0.20242944359779358, 0.14206084609031677, 0.3550926148891449, 0.022618019953370094, 0.0394267737865448, 0.21232563257217407, 0.06884460896253586, -0.07180844992399216, 0.2905133068561554, -0.09844132512807846, -0.16738350689411163, -0.17315322160720825, 0.03406181558966637, 0.09239555895328522, 0.11109206825494766, -0.23071295022964478, -0.17633609473705292, 0.2487054020166397, -0.16971105337142944, 0.041422802954912186, -0.17224571108818054, 0.1608661264181137, 0.04150991886854172, -0.2192552536725998, -0.061536625027656555, -0.1263115257024765, 0.11837141960859299, 0.28417325019836426, -0.1638796329498291, -0.024223601445555687, 0.1121809259057045, 0.10975515097379684, -0.049700792878866196, -0.22618521749973297, -0.0954650267958641, -0.354248970746994, -0.1912463754415512, -0.10155551880598068, 0.00857230182737112, -0.229414165019989, 0.25258171558380127, -0.047589950263500214, -0.21969586610794067, -0.2054711878299713, -0.028739947825670242, -0.12627646327018738, 0.10965932905673981, 0.04905393719673157, 0.06345991045236588, -0.23460710048675537, -0.02492227777838707, 0.07806168496608734, -0.06383593380451202, 0.06600923836231232, -0.0658692941069603, 0.08541642129421234, -0.15237067639827728, -0.034510426223278046, 0.13372832536697388, -0.027070922777056694, -0.047145772725343704, -0.00599622493609786, -0.10416539013385773, 0.1213710755109787, -0.0640832930803299, 0.18310534954071045, 0.01941678486764431, 0.07103902846574783, 0.23613424599170685, -0.2579071819782257, 0.17176298797130585, 0.018822593614459038, -0.32638782262802124, -0.08593595027923584, 0.2638861835002899, -0.057435620576143265, 0.1911908984184265, -0.009808605536818504, 0.06989463418722153, -0.03675219789147377, 0.19105076789855957, 0.03876122087240219, 0.03298608213663101, 0.16542620956897736, -0.1267983466386795, -0.06118294224143028, -0.15973754227161407, -0.20980657637119293, 0.17965246737003326, 0.023842956870794296, 0.21637983620166779, -0.007648061029613018, -0.05530296266078949, 0.30967095494270325, -0.13031184673309326, 0.07121539115905762, -0.20228300988674164, 0.1087094247341156, -0.04654337093234062, -0.05153282359242439, -0.17327675223350525, -0.08046647906303406, -0.05161092430353165, -0.13913479447364807, 0.1322225034236908, -0.03363355994224548, 0.010344997979700565, -0.1539354920387268, 0.10297828912734985, 0.12551438808441162, 0.06002900376915932, 0.35561320185661316, 0.0676896721124649, -0.09440338611602783, 0.0867500826716423, 0.002707893494516611, 0.009660976938903332, 0.12239792197942734, -0.20995305478572845, 0.07997092604637146, -0.17199040949344635, -0.019036924466490746, 0.04073221981525421, -0.11956911534070969, 0.0370669849216938, -0.13610488176345825, 0.06666658073663712, -0.022115034982562065, 0.18666325509548187, -0.018599042668938637, -0.0992627888917923, -0.00859218742698431, 0.042448751628398895, -0.0996720939874649, -0.059008821845054626, -0.0626852959394455, 0.022170787677168846, 0.14166270196437836, 0.1672428846359253, 0.10672173649072647, 0.04639683663845062, 0.02514011599123478, 0.0707172155380249, 0.21096032857894897, 0.11493853479623795, 0.23279501497745514, -0.11075680702924728, 0.10037492960691452, -0.008918960578739643, -0.05386942997574806, -0.03033025562763214, 0.045659665018320084, 0.1949208527803421, -0.1673465371131897, 0.1507069170475006, 0.21150946617126465, -0.10923949629068375, 0.036972563713788986, 0.14992308616638184, 0.05405552312731743, -0.0964231789112091, -0.07936909794807434, 0.17888733744621277, 0.190067321062088, 0.022836439311504364, 0.08299040794372559, 0.24581728875637054, -0.15284056961536407, -0.1383252888917923, 0.20124046504497528, 0.6174424290657043, -0.09543366730213165, 0.11015179008245468, -0.23431792855262756, -0.369404137134552, -0.18781523406505585, 0.05449378862977028, -0.36849549412727356, 0.057699061930179596, -0.12625440955162048, 0.014859895221889019, 0.08510465919971466, 0.03342704102396965, 0.2540988624095917, 0.12640944123268127, 0.4482342004776001, 0.040859322994947433, 0.12187761068344116, -0.1588493138551712, 0.09791816771030426, -0.17430585622787476, 0.17564529180526733, 0.23126353323459625, -0.03432612493634224, -0.15924134850502014, 0.03864637389779091, 0.011138158850371838, 0.040946636348962784, -0.05351623147726059, -0.03634068742394447, 0.3626103103160858, 0.5039406418800354, 0.02365703321993351, 0.026439912617206573, 0.010914326645433903, 0.06101975962519646, 0.07210159301757812, -0.27419787645339966, 0.11930457502603531, -0.018408991396427155, -0.047779254615306854, 0.023885121569037437, 0.019377639517188072, -0.061266399919986725, -0.060395628213882446, -0.25640973448753357, 0.048122379928827286, 6.829806079622358e-05, -0.1762155443429947, -0.22410479187965393, -0.3224598169326782, -0.3204796314239502, 0.17198169231414795, -0.14485211670398712, -0.17619363963603973, 0.14225934445858002, -0.07283058762550354, -0.017313862219452858, -0.15779909491539001, -0.10610862821340561, -0.1586790531873703, 0.07783517986536026, 0.24567599594593048, -0.0781547874212265, -0.13513341546058655, -0.10439317673444748, -0.08102324604988098, 0.14110273122787476, -0.19471623003482819, 0.04774229973554611, 0.11933144927024841, 0.12645994126796722, 0.1617891788482666, -0.1407446712255478, 0.11129400134086609, -0.0043452042154967785, 0.1805332452058792, -0.1620711088180542, -0.023599058389663696, 0.07754942774772644, 0.01750245690345764, -0.13656488060951233, -0.004732305184006691, 0.042496100068092346, -0.09448974579572678, 0.23066292703151703, -0.13578027486801147, 0.041047416627407074, 0.056267447769641876, 0.017248496413230896, 0.21403224766254425, -0.034684982150793076, -0.021530402824282646, -0.25851961970329285, 0.10629919916391373, -0.0829678624868393, 0.07931257039308548, -0.07694348692893982, 0.15338392555713654, 0.2623075246810913, -0.07467088103294373, -0.005064015276730061, 0.09118325263261795, -0.22152608633041382, 0.03321748599410057, -0.14599081873893738, 0.22324451804161072, -0.09904360771179199, -0.132208451628685, -0.003681069938465953, 0.2547490894794464, -0.029379935935139656, 0.06436119228601456, 0.295733243227005, 0.3624363839626312, -0.2529285252094269, -0.040446534752845764, -0.1368432193994522, 0.13583190739154816, -0.06992609053850174, 0.05709412693977356, 0.08818303793668747, -0.1111474260687828, -0.16950486600399017, -0.23533771932125092, 0.048905737698078156, -0.11239708960056305, 0.14526912569999695, 0.09103384613990784, 0.23996028304100037, -0.16438767313957214, -0.005972703918814659, 0.004228098783642054, 0.004073343705385923, 0.002522366587072611, -0.15773847699165344, 0.2862262725830078, -0.05670958012342453, 0.04347670450806618, -0.05283358693122864, -0.035531699657440186, 0.1463061422109604, -0.20490561425685883, -0.12329686433076859, -0.06233144924044609, 0.05959063023328781, -0.04543706029653549, 0.16846227645874023, 0.3094777464866638, -0.09495051205158234, 0.051554277539253235, -0.1621295064687729, -0.13868577778339386, -0.06682083755731583, -0.026859544217586517, -0.21427762508392334, -0.31630003452301025, 0.313757061958313, -0.15802650153636932, -0.4065500497817993, 0.31365343928337097, -0.05621897801756859, -0.07314087450504303, 0.04252083972096443, -0.10880474746227264, -0.10655241459608078, -0.11060985922813416, -0.05762944370508194, -0.04616006091237068, -0.26393380761146545, 0.2109706997871399, -0.08829677104949951, -0.0402216836810112, -0.15391317009925842, 0.2224300056695938, 0.15666578710079193, -0.25520873069763184, 0.18531782925128937, 0.1517624408006668, -0.057339586317539215, -0.047389689832925797, 0.1069316491484642, 0.055442772805690765, 0.12195009738206863, 0.06280040740966797, -0.20514044165611267, -0.18242034316062927, 0.18313519656658173, -0.09656664729118347, 0.2707996368408203, -0.08568920195102692, -0.1503603458404541, -0.1464279592037201, -0.1614498347043991, -0.03338117524981499, -0.09781796485185623, 0.1915709674358368, -0.04630851000547409, -0.10492414236068726, 0.16150659322738647, -0.07613353431224823, 0.09061978757381439, 0.021999889984726906, 0.01879207231104374, 0.06910479068756104, 0.017531083896756172, 0.1162896603345871, -0.01091060321778059, -0.017778074368834496, -0.008251629769802094, 0.1519870162010193, 0.0915631577372551, -0.1621292382478714, -0.034526243805885315, 0.3225157856941223, -0.047516074031591415, 0.0798652172088623, 0.11528350412845612, 0.11006353050470352, 0.09681094437837601, -0.08236178010702133, 0.28961002826690674, 0.14794526994228363, 0.09201011061668396, 0.1372557133436203, 0.24519692361354828, 0.04019206389784813, 0.23973233997821808, -0.16157357394695282, 0.2618008553981781, -0.8393562436103821, 0.14448478817939758, -0.4275747835636139, -0.21424086391925812, -0.5580988526344299, 0.8695244193077087, -1.1517585515975952, 0.46933647990226746, 0.6121340394020081, -0.39161479473114014, 0.30680862069129944, -0.30308255553245544, -0.01544244959950447, 0.12872695922851562, -0.05694663152098656, 0.04250659793615341, -0.01013221126049757, -0.12162095308303833, -0.3521288335323334, -0.15865707397460938, 0.19192440807819366, 0.19812603294849396, -0.03655894100666046, -0.0995510146021843, -0.1331813484430313, 0.16877946257591248, 0.015648776665329933, -0.21379388868808746, -0.12112163752317429, 0.3121306598186493, 0.11749614775180817, 0.10081750154495239, -0.15412461757659912, -0.04348916932940483, 0.11351030319929123, 0.09900248795747757, 0.049939583986997604, -0.124293252825737, -0.05943929776549339, 0.17841343581676483, -0.08228214830160141, -0.20140118896961212, 0.15674637258052826, -0.051198795437812805, -0.013471626676619053, 0.12848493456840515, -0.22616788744926453, 0.19464001059532166, 0.15766499936580658, 0.06753817945718765, -0.1213635727763176, 0.05785705894231796, -0.20772163569927216, 0.10275603085756302, 0.017559828236699104, 0.1284995675086975, -0.16250495612621307, 0.3271932899951935, 0.31628817319869995, 0.10772731155157089, 0.14544348418712616, 0.0730716660618782, 0.1805652678012848, 0.15148133039474487, 0.001939460402354598, -0.35599371790885925, 0.2910894751548767, -0.009285762906074524, -0.1026555597782135, 0.22677654027938843, 0.016893252730369568, 0.1369061917066574, 0.07615186274051666, -0.0751529261469841, 0.23679925501346588, -0.16158244013786316, -0.388021856546402, -0.3446861207485199, 0.18203122913837433, -0.22297251224517822, -0.09485596418380737, 0.18942636251449585, 0.27359625697135925, 0.18238407373428345, -0.12149740755558014, -0.28114524483680725, 0.01088313851505518, 0.09839816391468048, -0.2420206516981125, 0.23114745318889618, -0.2148599922657013, -0.26824262738227844, -0.3501013219356537, -0.07179756462574005, -0.022723227739334106, -0.13764232397079468, 0.19770391285419464, 0.22959886491298676, -0.20727957785129547, 0.058954816311597824, 0.09977225959300995, 0.18448516726493835, 0.0043891482055187225, 0.28074780106544495, 0.0854632705450058, 0.019553231075406075, 0.02419992722570896, -0.20854753255844116, 0.213417649269104, 0.34759068489074707, -0.11790017038583755, 0.10292843729257584, 0.1332342028617859, 0.0911349207162857, 0.12752313911914825, 0.24338079988956451, -0.024667343124747276, 0.20405130088329315, -0.04442829266190529, 0.06199568137526512, -0.21355882287025452, -0.07449712604284286, -0.17509926855564117, 0.13611304759979248, 0.01778104156255722, 0.509614884853363, -0.3623126447200775, -0.1335347592830658, 0.3051898777484894, -0.2674643397331238, 0.18599221110343933, 0.04581992328166962, -0.24700473248958588, -0.24903012812137604, -0.05611922964453697, -0.013235226273536682, -0.18878963589668274, -0.1903260052204132, -0.05302466079592705, 0.10788123309612274, 0.16388680040836334, -0.17610734701156616, -0.09652142226696014, -0.0033669390249997377, 0.3227047026157379, 0.01653240993618965, 0.2241535782814026, 0.2729506492614746, -0.09284666180610657, -0.21160435676574707, 0.4111035466194153, -0.13721831142902374, 0.008082111366093159, 0.25312379002571106, 0.0073133897967636585, -0.06933069229125977, -0.018997715786099434, -0.14848603308200836, 0.12949472665786743, 0.20157979428768158, -0.11928877234458923, 0.08976899087429047, 0.21385228633880615, 0.04857402294874191, 0.07102235406637192, 0.2327975183725357, 0.03862043470144272, -0.03953942656517029, 0.05616815388202667, 0.12837234139442444, -0.11725512146949768, 0.07579788565635681, -0.2415366768836975, -0.04409126192331314, 0.024667678400874138, 0.12977726757526398, 0.06791789084672928, -0.2584170401096344, -0.3836418688297272, -0.18592120707035065, -0.21147499978542328, -0.2104300558567047, -0.0403323620557785, 0.2342403531074524, 0.367303729057312, 0.2656908333301544, 0.07854760438203812, -0.2524864673614502, 0.21929316222667694, -0.25343403220176697, 0.1104673370718956, -0.2307581603527069, -0.0063826399855315685, 0.06949689239263535, -0.229317307472229, 0.16706103086471558, -0.24607409536838531, 0.19830214977264404, -0.008842799812555313, -0.3390146493911743, 0.1487569361925125, 0.022990427911281586, -0.08777917176485062, 0.11829220503568649, 0.022491564974188805, -0.09791123867034912, 0.008350981399416924, 0.04744832590222359, -0.08300505578517914, -0.10359252989292145, 0.019805729389190674, -0.037106309086084366, -0.18808142840862274, 0.18168985843658447, -0.16408570110797882, -0.004496118985116482, -0.15528583526611328, -0.04461124166846275, -0.16820353269577026, 0.042187392711639404, 0.018102256581187248, 0.0017117444658651948, 0.018946940079331398, -0.06528159230947495, 0.10466448217630386, 0.11917679011821747, -0.14784711599349976, 0.12736667692661285, 0.02753082849085331, -0.07216400653123856, -0.04510011896491051, 0.01526721939444542, -0.06586911529302597, -0.26338303089141846, 0.30350038409233093, 0.1804613471031189, 0.03141362965106964, -0.051421597599983215, -0.03737625852227211, -0.3475087285041809, 0.08091665804386139, -0.11622299998998642, -0.00721519673243165, -0.060615673661231995, 0.12393961101770401, -0.2771426737308502, -0.20937511324882507, 0.16909833252429962, 0.0029847719706594944, 0.13586239516735077, 0.0749707892537117, -0.19117091596126556, 0.10632383823394775, 0.13945788145065308, -0.18022625148296356, 0.07040074467658997, 0.037461575120687485, 0.000786522519774735, -0.008775305934250355, 0.06970416009426117, -0.14380662143230438, -0.20409132540225983, 0.049528397619724274, -0.005090044345706701, -0.04439163580536842, -0.18937069177627563, -0.16533292829990387, 0.03168018162250519, -0.21994492411613464, 0.014635708183050156, 0.14478503167629242, 0.24852372705936432, -0.30136436223983765, -0.1353149563074112, -0.007240506820380688, -0.49579548835754395, -0.22134192287921906, -0.050721198320388794, 0.9753578901290894, 0.07397840172052383, 0.12304314970970154, -0.32323595881462097, 0.10471667349338531, 0.12428240478038788, 0.06643209606409073, 0.09903453290462494, 0.30056077241897583, 0.1704777479171753, 0.2584936320781708, 0.10233777016401291, -0.047019653022289276, 0.0643424242734909, -0.14748188853263855, 0.031238410621881485, -0.015817370265722275, 0.001922503113746643, -0.47102057933807373, -0.08890633285045624, -0.022994570434093475, 0.39254721999168396, -0.18436996638774872, -0.21407732367515564, 0.05247553065419197, 0.0731610506772995, -0.01786792278289795, -0.4717937111854553, 0.18962399661540985, 0.1503494381904602, -0.15162749588489532, -0.16255033016204834, -0.10930709540843964, 0.2284165471792221, -0.06040764972567558, -0.1780812293291092, 0.19223572313785553, 0.2193806767463684, 0.08775173127651215, -0.12713393568992615, 0.03507348150014877, -0.09918292611837387, 0.042448535561561584, 0.08242012560367584, -0.03623911738395691, 0.16438192129135132, 0.18547479808330536, -0.1582639217376709, -0.3222498297691345, 0.1190989762544632, -0.11604677885770798, -0.09116560220718384, -0.11837431788444519, 0.15305568277835846, 0.08127855509519577, -0.1099814772605896, -0.07145330309867859, 0.22046853601932526, -0.06936599314212799, -0.02869793213903904, -0.15062212944030762, 0.035104651004076004, -0.05712225288152695, -0.3769807815551758, 0.18927782773971558, -0.051694002002477646, 0.067936472594738, 0.004700761288404465, 0.07162567228078842, 0.02129986323416233, -0.0003145291702821851, 0.07459406554698944, -0.15248747169971466, 0.048607777804136276, 0.0972614511847496, -0.04779256880283356, 0.11021529883146286, -0.058896563947200775, -0.00041710014920681715, 0.32814648747444153, 0.22420835494995117, -0.5618481636047363, 0.05324205011129379, -0.09425566345453262, 0.02414480596780777, 0.06691154837608337, -0.027545824646949768, 0.01074689719825983, 0.022917866706848145, -0.10381864756345749, -0.17641817033290863, -0.1375727504491806, -0.05522459000349045, -0.15122255682945251, 0.03784872964024544, -0.1880752593278885, 0.2720431685447693, -0.1032891795039177, 0.22452165186405182, -0.12975266575813293, 0.1773180067539215, 0.3744257390499115, -0.43492209911346436, 0.06234763562679291, 0.00767262140288949, 0.18456906080245972, 0.180400550365448, -0.04161851853132248, 0.114847332239151, 0.1917840540409088, 0.05655035376548767, -0.23404023051261902, 0.11085361987352371, -0.3087509572505951, -0.03439133241772652, 0.03516073897480965, -0.017275631427764893, -0.01682000420987606, 0.08613772690296173, -0.07541533559560776, -0.057838208973407745, -0.1311587542295456, 0.10678299516439438, 0.1524183601140976, 0.09978815168142319, 0.027300521731376648, 0.1121068149805069, -0.023352889344096184, 0.1739012748003006, -0.0355905257165432, -0.0996553897857666, -0.010895646177232265, 0.11165415495634079, 0.0597495399415493, -0.040255606174468994, -0.061647456139326096, -0.0966288223862648, 0.07209056615829468, -0.08814128488302231, 0.19794300198554993, -0.051371969282627106, 0.11092667281627655, -0.08506734669208527, -0.09658008813858032, -0.1623857170343399, -0.2262038290500641, -0.1458788961172104, 0.15642760694026947, -0.06040388345718384, -0.053074996918439865, -0.0790795236825943, 0.1806618720293045, -0.24023184180259705, 0.04776173084974289, -0.1798355132341385, 0.13576392829418182, -0.017087217420339584, 0.06296133249998093, -0.034903183579444885, -0.03795948252081871, 0.05755019187927246, -0.029906120151281357, -0.09309560060501099, 0.025661399587988853, 0.01670951023697853, -0.16407440602779388, 0.15267252922058105, -0.10981332510709763, -0.05715861916542053, 0.0323658213019371, 0.1467413306236267, -0.07084790617227554, -0.2260063737630844, -0.051842354238033295, 0.08761227130889893, 0.06524371355772018, -0.2539408206939697, 0.14971010386943817, -0.0715586319565773, 0.012197334319353104, 0.020377323031425476, -0.3489026725292206, 0.07834148406982422, 0.05421203747391701, -0.21080844104290009, 0.17884795367717743, -0.06112045794725418, -0.24114330112934113, 0.06876011937856674, 0.12092401087284088, -0.2545037567615509, 0.01273872796446085, 0.2795439660549164, -0.14390723407268524, -0.174250990152359, 0.09711334109306335, 0.0006047173519618809, 0.30801278352737427, 0.00589994341135025, 0.15213356912136078, 0.024468032643198967, 0.10515518486499786, 0.05176883935928345, -0.21860234439373016, 0.0070684971287846565, 0.04233712702989578, -0.05103253945708275, -0.09363187104463577, -0.2790103852748871, 0.3743513524532318, 0.27534863352775574, 0.030139155685901642, -0.020840901881456375, -0.024938693270087242, -0.1422857642173767, -0.04867193475365639, -0.053332649171352386, -0.38519009947776794, -0.2820275127887726, 0.07718911021947861, -0.1293613314628601, 0.013382548466324806, 0.0933900848031044, -0.005742453038692474, -0.06906377524137497, 0.0006939287413842976, 0.01307006273418665, -0.03334406390786171, 0.3428352475166321, -0.08211258798837662, 0.034533750265836716, 0.07784277945756912, -0.20342397689819336, -0.20655454695224762, 0.04526747763156891, 0.09776797890663147, -0.08971260488033295, -0.18063828349113464, -0.03116128407418728, 0.19611191749572754, -0.13249436020851135, -0.09603407979011536, 0.16393284499645233, 0.04944072663784027, 0.0470680370926857, -0.05202776566147804, 0.22008804976940155, -0.03684162721037865, 0.053586553782224655, 0.09088252484798431, 0.01527605950832367, -0.12486910820007324, -0.24013952910900116, -0.1751919984817505, -0.04107266291975975, 0.0704227015376091, 0.21989431977272034, -0.08785050362348557, -0.08760511875152588, 0.07516086101531982, 0.24681219458580017, -0.08588788658380508, 0.05245673283934593, -0.16095872223377228, 0.11916149407625198, -0.07079202681779861, -0.3087417185306549, 0.0809970274567604, 0.0184285007417202, 0.196534663438797, 0.04655139148235321, -0.14027290046215057, 0.03147568926215172, 0.14074425399303436, -0.043851446360349655, -0.18548500537872314, 0.11585275083780289, -0.07894225418567657, -0.3126849830150604, -0.16983021795749664, -0.016540493816137314, 0.04630559682846069, -0.2184896171092987, -0.20880356431007385, -0.0537167489528656, 0.14469902217388153, -0.23095488548278809, -0.08579780906438828, -0.057058095932006836, 0.030650900676846504, -0.08158010244369507, 0.004544378258287907, -0.08792634308338165, 0.03356422111392021, 0.3341788649559021, -0.10469768196344376, -0.16002607345581055, 0.17339612543582916, 0.06414249539375305, 0.015551538206636906, -0.19990746676921844, -0.14400093257427216, -0.27686628699302673, -0.09756548702716827, -0.07460474967956543, -0.004072866402566433, 0.21741355955600739, -0.18814758956432343, -0.026356598362326622, -0.017928434535861015, -0.2454514354467392, -0.27669328451156616, 0.11836488544940948, 0.046673767268657684, -0.038647063076496124, -0.06831248104572296, 0.18277063965797424, 0.15877819061279297, -0.1468380093574524, -0.11603115499019623, 0.023185214027762413, -0.10999701172113419, 0.12841801345348358, 0.06275593489408493, 0.038520943373441696, -0.16672652959823608, -0.09877077490091324, -0.06091179698705673, -0.21816083788871765, -0.053758714348077774, 0.05696713924407959, -0.6679072380065918, -0.010419918224215508, 0.92984938621521, 0.42999374866485596, 0.6087551712989807, 0.7199113368988037, -1.0728991031646729, -0.19141416251659393, -0.33684268593788147, 0.5448471903800964, -0.13771000504493713, 0.48393046855926514, -0.054947592318058014, -0.20914362370967865, -0.059124115854501724, 0.06199118122458458, -0.15800347924232483, 0.12091759592294693, -0.22030161321163177, -0.1911051720380783, -0.30286088585853577, 0.1933632642030716, -0.2561149299144745, -0.3153930902481079, -0.030573420226573944, 0.13199608027935028, -0.11493200808763504, -0.1490333527326584, -0.30255061388015747, 0.07650330662727356, -0.06763897836208344, 0.20621995627880096, 0.0476616807281971, 0.15817822515964508, 0.18153482675552368, -0.052798621356487274, 0.0035714576952159405, 0.13848569989204407, -0.21856053173542023, -0.21824988722801208, 0.31447601318359375, -0.1906593292951584, -0.05079880729317665, -0.4407898485660553, 0.009430995211005211, -0.3928021788597107, -0.1174813061952591, 0.34151673316955566, 0.14077696204185486, 0.12954333424568176, 0.00025708565954118967, -0.27051591873168945, -0.2644149363040924, -0.23359356820583344, -0.2321341633796692, -0.013897190801799297, 0.00803555827587843, 0.223818838596344, -0.1214805617928505, -0.3443060517311096, 0.10570980608463287, -0.22641995549201965, 0.32297447323799133, -0.3456600606441498, -0.2608308494091034, 0.2662293612957001, -0.04190792143344879, -0.2690570652484894, -0.46972301602363586, -0.09479644149541855, 0.16124588251113892, -0.39273199439048767, 0.13594157993793488, -0.05696745216846466, 0.13380637764930725, -0.18303059041500092, 0.11977634578943253, 0.1360929161310196, -0.012802616693079472, -0.21753627061843872, -0.2260071039199829, -0.14895115792751312, -0.2913326323032379, -0.09147733449935913, -0.21587762236595154, -0.07319030165672302, -0.1387886106967926, 0.21067023277282715, 0.10284339636564255, -0.1264374554157257, 0.15604791045188904, 0.20279456675052643, -0.0709509328007698, 0.0035899225622415543, -0.035416748374700546, -0.2839491069316864, 0.07822676748037338, -0.09422189742326736, -0.18224309384822845, -0.10117898136377335, -0.29521268606185913, 0.15203730762004852, 0.15295420587062836, 0.29979878664016724, -0.06103912368416786, 0.1574384868144989, 0.03625533729791641, -0.22417494654655457, 0.057861268520355225, -0.14266982674598694, 0.06167491525411606, -0.24758751690387726, -0.276180237531662, 0.06123797968029976, 0.025193069130182266, 0.15567997097969055, -0.007458831183612347, 0.044599711894989014, -0.20353595912456512, -0.03863568603992462, -0.1690579652786255, 0.063120037317276, -0.08990169316530228, -0.2512868344783783, 0.13154439628124237, -0.09982401132583618, -0.22313791513442993, 0.08312070369720459, 0.25879204273223877, -0.19591248035430908, 0.011701449751853943, -0.01188782136887312, -0.1037265956401825, 0.20542733371257782, 0.016010478138923645, -0.2722136080265045, 0.28501656651496887, 0.11282900720834732, 0.041941676288843155, -0.2564701735973358, 0.2046576738357544, -0.04931794852018356, 0.16127847135066986, 0.14015036821365356, -0.08197744190692902, -0.032597098499536514, -0.12939035892486572, 0.2640802562236786, -0.23338845372200012, 0.4395633637905121, 0.2210334688425064, 0.08356986194849014, -0.13650493323802948, -0.14186812937259674, 0.17360050976276398, -0.17093104124069214, 0.07308828830718994, 0.2042694091796875, -0.33069413900375366, 0.061526231467723846, 0.19453632831573486, 0.08315560221672058, 0.2635228633880615, 0.02307804301381111, 0.013409949839115143, 0.050412166863679886, -0.0567166693508625, -0.2100483924150467, 0.12721014022827148, 0.12609072029590607, 0.25469914078712463, 0.09664222598075867, 0.06671249121427536, 0.21623115241527557, -0.1525394171476364, -0.021910903975367546, 0.08608029037714005, 0.09919068962335587, -0.0987745076417923, 0.31753551959991455, 0.11435806751251221, 0.027330126613378525, -0.384439080953598, -0.11233524978160858, 0.06650509685277939, -0.3712954819202423, -0.0011095190420746803, 0.09520847350358963, 0.28064194321632385, -0.013114879839122295, 0.02026568353176117, 0.2571696639060974, 0.061681799590587616, 0.0745420902967453, -0.46579796075820923, 0.07467249780893326, -0.009575228206813335, -0.5372296571731567, -0.08211246132850647, -0.03955208137631416, -0.11347755789756775, -0.03447249159216881, -0.09986982494592667, -0.1781173050403595, 0.2462344765663147, 0.18520452082157135, 0.17605644464492798, 0.3320790231227875, 0.15120208263397217, -0.309140682220459, -0.2640664279460907, -0.1181558296084404, 0.047218501567840576, 0.23164428770542145, 0.08538428694009781, -0.0842553973197937, 0.21088409423828125, 0.3119748532772064, 0.0049560279585421085, -0.06222599372267723, 0.1989787220954895, -0.1748439222574234, 0.06236828863620758, 0.19955193996429443, 0.104405976831913, 0.13873377442359924, -0.005101620685309172, -0.1590849757194519, 0.2576567828655243, 0.020552579313516617, -0.0926600992679596, 0.09085388481616974, -0.01413041353225708, -0.1527852714061737, -0.15245024859905243, -0.009702271781861782, -0.18042007088661194, 0.07783586531877518, 0.19216778874397278, 0.10534116625785828, 0.11544214189052582, 0.05824580788612366, 0.013825379312038422, -0.01102368999272585, -0.06429143995046616, 0.17837339639663696, -0.15747904777526855, -0.018676912412047386, 0.2892521023750305, -0.10772143304347992, -0.0354427769780159, -0.08210986107587814, 0.18577978014945984, 0.05618376284837723, -0.12080031633377075, -0.07687986642122269, -0.007625117897987366, -0.3330005407333374, 0.052694037556648254, 0.0828077644109726, -0.1788400113582611, -0.013603905215859413, 0.010222017765045166, -0.15365372598171234, 0.024256763979792595, 0.13045918941497803, 0.008739402517676353, 0.014371290802955627, -0.031246893107891083, -0.19083967804908752, -0.033224571496248245, -0.045076485723257065, 0.18131959438323975, 0.00934409536421299, 0.0009524842025712132, -0.04510867968201637, 0.15921996533870697, 0.1973956823348999, -0.046548325568437576, -0.12054271996021271, 0.1306898146867752, -0.013291507959365845, -0.3053984045982361, 0.17155760526657104, 0.12190578877925873, -0.0005433493643067777, -0.10402458161115646, -0.12028823792934418, -0.147907093167305, 0.04081428796052933, -0.02064974047243595, -0.246476411819458, 0.1134808138012886, 0.12467543035745621, -0.22675326466560364, -0.022102167829871178, -0.18886445462703705, 0.011257869191467762, 0.3054104149341583, 0.08497226983308792, 0.2156320959329605, -0.2512393593788147, -0.000582508509978652, 0.034830667078495026, -0.0879930630326271, 0.038792937994003296, -0.15483111143112183, 0.10084759443998337, 0.057816989719867706, -0.2702597975730896, -0.18001006543636322, 0.1551094800233841, -0.30165940523147583, -0.04280121624469757, 0.04538280516862869, -0.08280990272760391, 0.0399090014398098, -0.15072903037071228, 0.09984982758760452, 0.14792759716510773, 0.08011340349912643, 0.012621243484318256, -0.11170335859060287, 0.06805397570133209, -0.2149992436170578, -0.19740280508995056, -0.17285983264446259, 0.11444222182035446, 0.06660627573728561, 0.1891457587480545, -0.030114073306322098, 0.013267900794744492, 0.13592582941055298, 0.05166514962911606, 0.06033499166369438, 0.16455669701099396, -0.19853071868419647, -0.045694153755903244, 0.03827892243862152, 0.003585826838389039, 0.011591564863920212, 0.174668550491333, 0.28349146246910095, 0.08370734006166458, 0.25096529722213745, -0.00889737717807293, -0.17838142812252045, -0.10796962678432465, 0.10408985614776611, 0.08737063407897949, -0.07172483205795288, 0.17716056108474731, -0.01532137393951416, 0.04746593162417412, -0.09573160856962204, -0.0024816279765218496, 0.3607366383075714, 0.16754835844039917, -0.13196603953838348, 0.06272745132446289, 0.11631742864847183, -0.06445420533418655, -0.10787876695394516, -0.0904286727309227, -0.019844435155391693, -0.31168732047080994, 0.036568932235240936, 0.07534635812044144, -0.32064035534858704, 0.18080595135688782, 0.08090810477733612, -0.09982816129922867, 0.2109033316373825, 0.20963212847709656, -0.15837258100509644, 0.062102362513542175, 0.04680116847157478, -0.12783178687095642, -0.12890109419822693, -0.08512561023235321, 0.008308731019496918, -0.08222411572933197, -0.20227491855621338, 0.028564631938934326, 0.1515011042356491, -0.10606091469526291, -0.04258444532752037, 0.37549859285354614, 0.08307550102472305, 0.03632223978638649, 0.21208441257476807, 0.010099789127707481, -0.21043580770492554, 0.23162655532360077, 0.15222173929214478, -0.09520765393972397, 0.4673644006252289, 0.06012236699461937, -0.08415266871452332, 0.38541585206985474, -0.026805363595485687, -0.04025714099407196, 0.14265292882919312, 0.4034496247768402, -0.0593249537050724, 0.037534475326538086, 0.13982616364955902, -0.5055657029151917, 0.07800117135047913, -0.12021175771951675, 0.022615507245063782, -0.03672298416495323, -0.07637084275484085, 0.40192511677742004, 0.10716070234775543, -0.1710444986820221, 0.01951664499938488, 0.32600775361061096, 0.3676010072231293, -0.21646247804164886, -0.08725156635046005, 0.18288233876228333, -0.18452328443527222, -0.05357343703508377, 0.040069740265607834, -0.14388145506381989, -0.11084253340959549, -0.15136601030826569, 0.19165413081645966, 0.10013937950134277, -0.06284904479980469, 0.013559868559241295, -0.12896698713302612, 0.2105991393327713, 0.06333883851766586, -0.0013304278254508972, -0.06396228075027466, 0.03442982956767082, 0.03999387100338936, 0.0501004196703434, 0.1829938292503357, -0.1022113636136055, -0.0069411201402544975, -0.23034246265888214, -0.11466909945011139, 0.055935997515916824, -0.31607604026794434, 0.11257272213697433, -0.10048035532236099, 0.1628548502922058, 0.09064896404743195, -0.1271148920059204, -0.020512500777840614, 0.02519018016755581, 0.1533709168434143, 0.05436478927731514, 0.07389334589242935, 0.13723070919513702, 0.4516625702381134, 0.2764236629009247, -0.024241002276539803, -0.4082685708999634, -0.1462721824645996, -0.1472676694393158, 0.03339852765202522, 0.11165444552898407, -0.0957871749997139, 0.09347758442163467, 0.2516220510005951, 0.2453949898481369, -0.5000406503677368, -0.05581177771091461, -0.05470029637217522, -0.11093837022781372, 0.04276087507605553, -0.1005617007613182, 0.2878204584121704, 0.1352800875902176, 0.0879608541727066, 0.3772727847099304, 0.10707515478134155, 0.05181559547781944, -0.33640730381011963, 0.17669065296649933, 0.1277894228696823, -0.2281324863433838, -0.018529647961258888, -0.08188781887292862, -0.1464829295873642, 0.04769816994667053, -0.21834369003772736, 0.21299634873867035, 0.09842751920223236, 0.09874752163887024, 0.12639567255973816, -0.12415666878223419, 0.11900979280471802, 0.19679862260818481, -0.027574824169278145, 0.1477123349905014, 0.27326759696006775, 0.061630357056856155, 0.03234094753861427, -0.01917221024632454, -0.00014985392044764012, 0.24506516754627228, 0.1352897584438324, 0.10266129672527313, -0.0991457849740982, -0.30354300141334534, -0.1420951783657074, -0.011918150819838047, -0.09387368708848953, -0.20177888870239258, 0.029038460925221443, -0.15380574762821198, -0.06055586040019989, 0.08197956532239914, -0.07858707010746002, -0.08457125723361969, -0.003884380217641592, 0.08177546411752701, 0.028687773272395134, -0.07279351353645325, -0.09496254473924637, 0.11835118383169174, 0.05737483128905296, 0.07582906633615494, 0.14102308452129364, -0.09946678578853607, 0.12388981133699417, 0.08910021930932999, 0.044317182153463364, -0.05673675984144211, 0.000937600270844996, 0.1721601039171219, -0.042257457971572876, -0.0604432038962841, 0.15278345346450806, -0.11270838975906372, 0.20564383268356323, -0.03569401800632477, -0.1869463175535202, 0.08435725420713425, -0.009916398674249649, 0.21741271018981934, 0.13042165338993073, 0.043529439717531204, -0.02951577864587307, 0.016578681766986847, -0.17043128609657288, -0.015570232644677162, 0.08403722941875458, -0.10639548301696777, -0.01412492897361517, -0.0031077011954039335, 0.14091017842292786, -0.17975643277168274, -0.02215576358139515, 0.04414261877536774, -0.10151379555463791, -0.008090365678071976, -0.052135221660137177, 0.15631146728992462, -0.007647208869457245, -0.1447904407978058, -0.3307214379310608, 0.14510591328144073, -0.01755085028707981, 0.3130827248096466, 0.29914766550064087, 0.14810800552368164, -0.20800305902957916, -0.0714169442653656, 0.0010885822121053934, -0.21003806591033936, 0.17559273540973663, 0.07068923115730286, 0.6836212277412415, 0.08325310051441193, 0.23577211797237396, 0.2711940109729767, 0.00026991331833414733, -0.21045726537704468, -0.21652880311012268, 0.031790293753147125, 0.14251436293125153, -0.3766584098339081, 0.015941908583045006, 0.03772346302866936, 0.46498072147369385, -0.03303583338856697, 0.021936625242233276, 0.11593204736709595, -0.06237248331308365, 0.10330256074666977, 0.15477991104125977, 0.16479283571243286, 0.07171016186475754, -0.14184582233428955, 0.03830810263752937, 0.0803949162364006, -0.0002618197468109429, -0.007914992049336433, 0.17113591730594635, 0.04959933087229729, 0.11271379142999649, 0.057028740644454956, 0.08647098392248154, -0.008935471065342426, -0.07817120105028152, 0.016125943511724472, -0.328526109457016, -0.5887117385864258, 0.010596816428005695, -0.1239512711763382, -0.3053499162197113, -0.45235246419906616, 0.916323184967041, 0.420641154050827, -0.965575098991394, 0.26769664883613586, 0.20108391344547272, -0.027242835611104965, -0.11757229268550873, -0.0007998773362487555, 0.10376536846160889, -0.34490200877189636, -0.0065459879115223885, 0.02962980605661869, -0.14362047612667084, 0.23037654161453247, 0.09301191568374634, -0.22674034535884857, -0.06042345613241196, 0.3735063374042511, -0.19038070738315582, 0.21936063468456268, 0.026723239570856094, 0.17338314652442932, -0.03265058249235153, -0.03189651668071747, 0.10406654328107834, -0.014804227277636528, -0.30685922503471375, 0.09555522352457047, -0.02598859742283821, 0.037775829434394836, 0.35916298627853394, -0.1377491056919098, -0.4757097065448761, -0.28354400396347046, 0.011240113526582718, -0.3169535994529724, -0.012505113147199154, -0.03324974700808525, 0.34263700246810913, -0.051137764006853104, -0.06428491324186325, -0.06367012858390808, 0.12399507313966751, 0.17970748245716095, -0.008870773948729038, 0.11893218755722046, -0.2152773141860962, 0.11709947884082794, -0.19149862229824066, -0.005206071771681309, -0.038238272070884705, -0.18345952033996582, 0.11940576136112213, -0.16718636453151703, 0.5221270322799683, -0.33427780866622925, 0.025552351027727127, -0.1377376765012741, 0.00804587360471487, -0.07936231791973114, -0.17277657985687256, -0.21479232609272003, 0.05015577748417854, -0.05605412274599075, 0.009785616770386696, -0.4388905465602875, 0.13954271376132965, -0.06066802144050598, 0.08538103103637695, -0.09125520288944244, -0.08186611533164978, 0.4603897035121918, -0.007086468394845724, 0.035207055509090424, -0.06195469945669174, 0.2969268262386322, -0.17055241763591766, -0.03012513928115368, -0.020611055195331573, -0.20897814631462097, 0.16419118642807007, 0.038287315517663956, -0.19850052893161774, 0.2015829086303711, 0.15319791436195374, 0.0008912190096452832, 0.027608204632997513, 0.12850333750247955, -0.21411654353141785, -0.03387674689292908, 0.22216351330280304, 0.08170576393604279, 0.28223827481269836, 0.0778748095035553, -0.1568596065044403, 0.08294897526502609, -0.132608100771904, 0.0926840528845787, 0.24218447506427765, 0.06939736753702164, -0.2866726219654083, -0.16628187894821167, -0.04943927377462387, 0.008687964640557766, -0.008138139732182026, -0.13340283930301666, 0.06056642532348633, 0.21032895147800446, -0.006011388264596462, 0.39520055055618286, 0.023692307993769646, 0.35276132822036743, 0.09061746299266815, -0.013903169892728329, 0.13313448429107666, 0.22653980553150177, 0.22532038390636444, 0.02765488810837269, -0.4025084674358368, -0.0382922887802124, -0.07051200419664383, -0.05241246148943901, 0.39528122544288635, -0.0008667469955980778, 0.12855833768844604, 0.1079615131020546, -0.20662115514278412, -0.26355481147766113, -0.06672114878892899, 0.15343588590621948, -0.2461308389902115, 0.09859947860240936, -0.2291446030139923, 0.0006886400515213609, 0.09398707747459412, 0.006205620244145393, -0.11870036274194717, 0.10419371724128723, -0.12035106122493744, 0.23998777568340302, -0.2339334636926651, -0.2469070702791214, -0.18856792151927948, -0.3398749828338623, 0.12369781732559204, -0.12426095455884933, -0.28630775213241577, 0.013373497873544693, -0.2575676143169403, 0.03629084676504135, 0.09707842022180557, -0.12705640494823456, 0.17499828338623047, 0.14845061302185059, -0.126480832695961, -0.004902221728116274, 0.1359696239233017, -0.01594594120979309, -0.016017457470297813, 0.11201946437358856, 0.00666222907602787, -0.008335396647453308, -0.19120900332927704, 0.18745124340057373, 0.18118350207805634, 0.1601339876651764, -0.011551111936569214, -0.049876756966114044, -0.05909563601016998, -0.11709830164909363, 0.06073487177491188, -0.10512692481279373, 0.04751119762659073, -0.07289284467697144, 0.12698450684547424, -0.21621012687683105, -0.03729746863245964, 0.06492390483617783, -0.14631278812885284, -0.19071997702121735, 0.11044447869062424, 0.2208852767944336, 0.042861778289079666, 0.0765346959233284, -0.2083406001329422, 0.21672096848487854, -0.07389531284570694, 0.20873217284679413, 0.008506801910698414, -0.14486797153949738, 0.18888410925865173, 0.10631535947322845, 0.25649455189704895, -0.1431010663509369, 0.021097198128700256, -0.2582165002822876, 0.1455528885126114, 0.18867823481559753, -0.280712753534317, 0.014865051954984665, 0.1433200091123581, 0.08072666823863983, -0.1530882716178894, 0.0193144753575325, -0.06769758462905884, -0.14503628015518188, 0.06157827749848366, 0.08334991335868835, 0.1565752625465393, -0.20805437862873077, -0.13000576198101044, -0.21340011060237885, 0.21995222568511963, -0.147361621260643, -0.0709397941827774, 0.0725598931312561, 0.1463465392589569, -0.03882946819067001, -0.14091432094573975, 0.1018274798989296, 0.28397589921951294, 0.05904698744416237, -0.08777416497468948, -0.015205754898488522, -0.2073633372783661, -0.07948090881109238, -0.11479085683822632, -0.019679326564073563, 0.2548771798610687, -0.03036162257194519, 0.20653018355369568, -0.021327100694179535, -0.021356776356697083, 0.09802901744842529, -0.004016948398202658, -0.009928175248205662, -0.10123556852340698, 0.11159764230251312, 0.09008342772722244, -0.10196234285831451, -0.00987453106790781, -0.07077175378799438, 0.0032296895515173674, 0.1352715790271759, -0.01768856681883335, -0.05694042146205902, 0.0356118343770504, 0.018709935247898102, 0.16460302472114563, -0.09811814874410629, 0.052766185253858566, -0.19587188959121704, -0.08162330836057663, -0.11027942597866058, 0.0461767204105854, -0.1233711987733841, -0.022322790697216988, 0.014312900602817535, -0.04578008875250816, 0.07204435765743256, 0.1370016634464264, 0.028368188068270683, -0.11123441159725189, -0.07393711060285568, -0.10161761939525604, -0.11949802935123444, -0.16385537385940552, -0.0747266560792923, 0.07890113443136215, 0.07767025381326675, 0.0815993919968605, 0.04672416299581528, 0.05732857435941696, -0.06353424489498138, 0.06760929524898529, -0.03391607105731964, -0.08150633424520493, 0.048280321061611176, -0.22494690120220184, -0.053052209317684174, 0.009950326755642891, -0.043903760612010956, 0.18382740020751953, 0.11939017474651337, -0.14034172892570496, -0.11048080027103424, -0.1404218226671219, -0.03469550609588623, -0.005035762675106525, -0.1365937441587448, 0.03567006438970566, -0.14517667889595032, -0.029064109548926353, 0.08553487062454224, -0.10039503872394562, -0.03432893380522728, 0.16909994184970856, 0.06124214082956314, 0.09814433753490448, -0.14077606797218323, -0.08559144288301468, -0.04690953344106674, -0.08178197592496872, 0.04327783361077309, 0.029039861634373665, -0.043612413108348846, 0.06725742667913437, 0.10201818495988846, -0.07101587951183319, -0.1202213317155838, -0.11697383970022202, 0.29153910279273987, -0.36159977316856384, 0.1799924224615097, -0.0632355660200119, -0.09258729964494705, 0.09099452942609787, -0.1758747100830078, 0.14548563957214355, -0.07207897305488586, 0.15932214260101318, 0.09116926044225693, -0.041493188589811325, 0.03400186449289322, -0.18990057706832886, -0.1538161039352417, 0.06293895095586777, 0.17114169895648956, -0.1799062192440033, -0.33764082193374634, -0.14154119789600372, 0.17148566246032715, 0.21412017941474915, -0.06350266933441162, -0.033476635813713074, 0.23469345271587372, 0.012021257542073727, -0.16468364000320435, 0.020312462002038956, -0.02567106857895851, -0.16341231763362885, -0.326509028673172, 0.10124831646680832, 0.06477327644824982, 0.04190443456172943, -0.018301090225577354, 0.04297257214784622, -0.043788161128759384, -0.21956180036067963, 0.047064099460840225, -0.2178560495376587, -0.02656581997871399, 0.034373585134744644, -0.2004937082529068, 0.09264739602804184, 0.05879560858011246, 0.16965878009796143, -0.057466231286525726, 0.05704442784190178, 0.19835804402828217, 0.15834388136863708, 0.02111748978495598, 0.027097947895526886, -0.017368217930197716, 0.17082519829273224, -0.03694221377372742, 0.17176483571529388, -0.07592866569757462, 0.09244802594184875, -0.10230470448732376, 0.16190876066684723, -0.09917210787534714, 0.11529678106307983, 0.1197410449385643, 0.15151715278625488, 0.11054365336894989, 0.12361355125904083, 0.18569505214691162, 0.1346212476491928, -0.23576620221138, 0.26708102226257324, -0.00892036035656929, 0.14646302163600922, 0.2555820941925049, 0.12017755955457687, -0.17415371537208557, 0.028051577508449554, -0.10036259889602661, 0.13685107231140137, 0.2150232195854187, 0.1562168151140213, 0.04365715757012367, -0.05105815827846527, 0.03668348863720894, -0.03112190216779709, 0.05745311081409454, -0.21769168972969055, -0.05789421871304512, -0.034531477838754654, 0.1741701066493988, 0.09929200261831284, -0.04810803011059761, 0.19339992105960846, 0.014863356947898865, -0.08213385939598083, -0.0382949598133564, -0.009565616026520729, 0.03879779577255249, -0.04970111697912216, 0.038178618997335434, -0.26658809185028076, 0.15010607242584229, 0.018357334658503532, -0.024455657228827477, 0.10331808775663376, 0.03857041895389557, 0.1461106538772583, -0.023221509531140327, -0.10322201997041702, -0.04847755283117294, 0.13085530698299408, -0.20222963392734528, -0.8901181817054749, -0.5201887488365173, 0.173353910446167, -0.49978411197662354, -0.10475291311740875, 0.34972694516181946, 0.06628520041704178, -0.02749033272266388, -0.24159829318523407, -0.21163833141326904, -0.07653273642063141, 0.34769323468208313, -0.04935070872306824, -0.19484001398086548, -0.10679550468921661, 0.026198197156190872, 0.27070435881614685, -0.31817716360092163, 0.3062669038772583, 0.10528949648141861, -0.06940338760614395, -0.1799754500389099, 0.502744734287262, -0.09934969246387482, 0.41072672605514526, -0.2757718563079834, -0.4025403559207916, -0.34843307733535767, -0.10878485441207886, -0.0312819704413414, -0.10924829542636871, 0.13662338256835938, -0.12078911811113358, 0.3567759096622467, 0.40823855996131897, 0.07400783896446228, -0.2458401918411255, -0.23987071216106415, -0.1304212361574173, 0.01098900381475687, -0.16588938236236572, -0.0929647833108902, -0.18177500367164612, -0.34436047077178955, 0.012323688715696335, -0.10586028546094894, -0.08687712997198105, -0.1781122237443924, 0.14679157733917236, 0.3621090352535248, -0.11605925112962723, 0.40278950333595276, -0.06559732556343079, 0.0646301731467247, 0.10042954236268997, 0.0274848360568285, 0.026499107480049133, -0.030222978442907333, -0.03191018104553223, 0.07986220717430115, -0.10001127421855927, 0.022538326680660248, 0.04872914403676987, -0.06755838543176651, 0.14002083241939545, 0.03160247579216957, -0.08567576855421066, 0.056843530386686325, -0.023236362263560295, 0.06382117420434952, -0.09308111667633057, 0.10977639257907867, -0.08017786592245102, 0.026804277673363686, 0.3396017849445343, 0.07342317700386047, 0.035208020359277725, -0.14280445873737335, 0.07173709571361542, 0.01116322074085474, 0.19875609874725342, -0.012025303207337856, 