{"version": "0.5.4", "metadata": {"date": {"year": 2026, "month": 4, "day": 2, "hour": 12, "minute": 41, "second": 17}, "loudness": -33.523677825927734, "gain": 0.8147795512864848}, "architecture": "WaveNet", "config": {"layers": [{"input_size": 1, "condition_size": 1, "head_size": 6, "channels": 12, "kernel_size": 3, "dilations": [1, 2, 4, 8, 16, 32, 64], "activation": "Tanh", "gated": false, "head_bias": false}, {"input_size": 12, "condition_size": 1, "head_size": 1, "channels": 6, "kernel_size": 3, "dilations": [128, 256, 512, 1, 2, 4, 8, 16, 32, 64, 128, 256, 512], "activation": "Tanh", "gated": false, "head_bias": true}], "head": null, "head_scale": 0.02}, "weights": [-0.047002606093883514, 0.6210958361625671, -0.9876830577850342, -0.9157711267471313, -0.6193959712982178, 0.15964289009571075, -0.3898121416568756, 0.7917978763580322, -0.2235601842403412, 0.5285612344741821, -0.44355759024620056, -0.4607115089893341, -0.11030232906341553, -0.20126645267009735, 0.03810155391693115, -0.15627099573612213, 0.06557916849851608, 0.17970842123031616, 0.05280694365501404, -0.07091043889522552, -0.016387594863772392, 0.30372244119644165, -0.03252717852592468, 0.04623376578092575, 0.13644005358219147, 0.013030542060732841, 0.06762530654668808, -0.3087150454521179, -0.10041792690753937, 0.0494491308927536, 0.10089857876300812, 0.10910346359014511, -0.244979590177536, -0.24180810153484344, -0.11899196356534958, -0.07712158560752869, 0.08157364279031754, 0.10374452918767929, -0.07007493078708649, -0.08411303162574768, 0.02131032571196556, 0.009889393113553524, 0.18713131546974182, -0.16000626981258392, -0.20821267366409302, 0.07596631348133087, 0.08157406002283096, -0.010076920501887798, 0.02029162459075451, 0.09232029318809509, 0.017482632771134377, 0.18148544430732727, 0.13504558801651, 0.0051927873864769936, 0.09414941817522049, -0.16915899515151978, 0.04466414079070091, -0.147320955991745, -0.18697121739387512, -0.0713997483253479, 0.06453175097703934, 0.0021768291480839252, -0.07793967425823212, 0.06673618406057358, 0.1482064425945282, -0.05261185020208359, 0.003777617122977972, -0.002071341499686241, 0.18049730360507965, 0.18018075823783875, -0.056652165949344635, -0.07550259679555893, 0.04392525926232338, 0.09417762607336044, 0.21264182031154633, 0.15662720799446106, 0.09220463782548904, -0.17589080333709717, -0.0004438948235474527, -0.1712045520544052, -0.13161608576774597, 0.15388761460781097, 0.07841019332408905, -0.12385950237512589, -0.041228119283914566, -0.08874276280403137, 0.08695296198129654, -0.012200739234685898, -0.047337520867586136, -0.11877551674842834, -0.000483839976368472, 0.1982589066028595, 0.1440223902463913, 0.0008204149780794978, -0.050223175436258316, -0.08429762721061707, 0.011844166554510593, 0.14336447417736053, -0.11298608034849167, -0.029339369386434555, 0.05144333094358444, 0.10243884474039078, -0.18675436079502106, 0.05901942029595375, -0.19970132410526276, 0.05716443061828613, -0.240554079413414, -0.15205781161785126, -0.11756881326436996, 0.13740621507167816, -0.10360553860664368, 0.18082036077976227, -0.20669406652450562, 0.14508889615535736, 0.046589430421590805, -0.030157338827848434, -0.0283963680267334, -0.09183024615049362, 0.12233364582061768, 0.038166310638189316, -0.19467008113861084, 0.13920660316944122, 0.03681352734565735, 0.5740563869476318, -0.3006436824798584, -0.4733622372150421, -0.5391391515731812, 0.0628763809800148, 0.32173916697502136, -0.632150411605835, 0.10911726206541061, 0.4164305627346039, -0.6116706728935242, 0.136514350771904, 0.502952516078949, 0.4640105068683624, -0.11936663091182709, -0.36723780632019043, -0.48382753133773804, 0.2587401270866394, 0.5824891328811646, 0.5991271734237671, 0.01650392636656761, -0.3893229067325592, -0.7047092318534851, 0.044881295412778854, 0.5209997296333313, 0.5101284384727478, -0.2284637689590454, -0.5188313722610474, -0.6429877877235413, 0.00593167869374156, 0.3463629186153412, -0.4373016059398651, 0.241934135556221, 0.24471043050289154, 0.07978226244449615, -0.06487150490283966, -0.16287021338939667, 0.08997009694576263, 0.11482376605272293, -0.02070092037320137, -0.3103707730770111, -0.29305845499038696, -0.042169615626335144, -0.158950075507164, -0.2257792055606842, 0.047501444816589355, -0.30699825286865234, -0.15659546852111816, 0.13736070692539215, 0.08749033510684967, 0.2931373715400696, 0.0704670175909996, -0.30415594577789307, -0.039586130529642105, 0.019438162446022034, 0.08706202358007431, 0.2832072675228119, -0.11925644427537918, -0.16455824673175812, -0.19265565276145935, 0.12026406079530716, 0.2045709192752838, 0.22469346225261688, 0.059305109083652496, -0.19487722218036652, -0.18000993132591248, -0.14093931019306183, -0.06363840401172638, -0.008248735219240189, 0.11935528367757797, -0.05942598357796669, 0.016024088487029076, -0.2774459421634674, -0.1844751387834549, 0.13013064861297607, 0.16628094017505646, -0.009839814156293869, -0.23450163006782532, -0.10839223116636276, 0.1962887942790985, -0.35893696546554565, -0.23002593219280243, 0.0016340548172593117, -0.11298678815364838, -0.17085526883602142, 0.04915497824549675, 0.29110458493232727, 0.12890484929084778, 0.1348060816526413, -0.30438143014907837, -0.06896834820508957, -0.12566402554512024, 0.23205208778381348, 0.13656067848205566, 0.0069043440744280815, -0.3805992901325226, 0.021186305209994316, -0.24126383662223816, 0.2276071012020111, 0.27539676427841187, 0.1538265496492386, -0.22793109714984894, -0.2518290877342224, 0.20378118753433228, -0.35809940099716187, -0.15864764153957367, -0.08787686377763748, -0.003055267035961151, -0.06694436818361282, 0.0441366545855999, 0.1393354833126068, 0.008943763561546803, 0.19244429469108582, -0.2269776612520218, 0.21178185939788818, -0.026747407391667366, -0.1928592175245285, 0.1872614026069641, 0.1528511345386505, 0.006684082560241222, 0.09187373518943787, -0.08933812379837036, 0.20418356359004974, -0.3010804355144501, 0.26436352729797363, -0.2551126182079315, 0.21318094432353973, -0.11689229309558868, 0.03495010361075401, -0.11407358199357986, 0.27003979682922363, -0.1588076800107956, 0.10309317708015442, -0.16373959183692932, -0.04215057194232941, -0.07841680943965912, 0.016347497701644897, -0.2317940592765808, 0.049347493797540665, 0.2090902328491211, -0.028018902987241745, 0.29286447167396545, 0.3177686929702759, 0.11014963686466217, 0.10753575712442398, -0.01504568476229906, 0.1348855346441269, 0.23996733129024506, -0.012808051891624928, -0.07699843496084213, -0.35443657636642456, 0.09883726388216019, -0.09440796822309494, -0.34752291440963745, 0.21555089950561523, -0.10559908300638199, -0.21762770414352417, 0.004095049109309912, 0.0032422326039522886, 0.06633114069700241, -0.10652878135442734, 0.10834088921546936, -0.2121381163597107, 0.07758025079965591, -0.05661731958389282, 0.24421337246894836, 0.03412974998354912, 0.013159236870706081, -0.2660213112831116, -0.009837976656854153, 0.048673953860998154, 0.19647075235843658, 0.016115179285407066, -0.10661721974611282, -0.0852753072977066, -0.03409852460026741, 0.0840163379907608, -0.24833358824253082, -0.009014810435473919, 0.14527194201946259, -0.1664423644542694, 0.09109149128198624, 0.13137322664260864, -0.06581306457519531, -0.026366261765360832, -0.029023468494415283, 0.0047878241166472435, -0.07529285550117493, -0.23743124306201935, -0.08608874678611755, 0.010530827566981316, -0.15606644749641418, 0.008816875517368317, 0.15926842391490936, -0.00010302587179467082, 0.054474279284477234, 0.026133619248867035, -0.07452208548784256, 0.0002384060062468052, 0.07633299380540848, -0.03104568086564541, 0.0737389549612999, 0.06771977245807648, 0.08364290744066238, 0.06364904344081879, 0.06435184925794601, 0.16722102463245392, -0.03581256419420242, -0.18847860395908356, -0.24021877348423004, 0.11521942168474197, 0.08084423094987869, -0.1955370157957077, 0.030982911586761475, 0.40185049176216125, 0.11735472083091736, -0.14211277663707733, -0.33834517002105713, 0.18887236714363098, 0.2435016632080078, 0.6072534322738647, -0.13828575611114502, -0.4123281240463257, 0.6186462640762329, -0.15343667566776276, -0.2211081087589264, 0.37859201431274414, -0.18277378380298615, -0.3696986138820648, -0.3076702952384949, 0.18786275386810303, 0.34692370891571045, 0.5364247560501099, -0.19429342448711395, -0.36820143461227417, -0.38091030716896057, 0.11519123613834381, 0.34578055143356323, 0.42805004119873047, -0.3875594139099121, -0.4711240231990814, -0.3623190224170685, 0.32567107677459717, 0.47119972109794617, 0.5953128337860107, -0.3828653395175934, -0.414065420627594, 0.5082051753997803, -0.33635464310646057, -0.21304495632648468, -0.1251063495874405, -0.0784071758389473, -0.0125093599781394, 0.003178226063027978, -0.01830815151333809, 0.10670708119869232, 0.02424032986164093, 0.2873178720474243, 0.18294481933116913, -0.13731379806995392, 0.23341090977191925, 0.18307361006736755, -0.047427840530872345, 0.3224238455295563, 0.11661849915981293, 0.20417243242263794, -0.21122993528842926, 0.05866066738963127, -0.10743676871061325, 0.14085747301578522, -0.08717483282089233, 0.0013607207220047712, -0.28696346282958984, 0.07930012792348862, -0.01041847001761198, 0.17638444900512695, -0.08913592994213104, 0.23782391846179962, -0.05363360047340393, -0.014260219410061836, -0.17899660766124725, 0.3099236786365509, 0.09329356253147125, -0.2502346336841583, 0.3163485825061798, 0.15081484615802765, -0.19645480811595917, 0.06770895421504974, 0.10378231108188629, 0.26822927594184875, -0.04801430553197861, -0.1353168785572052, -0.41215255856513977, 0.1378595530986786, 0.10470850765705109, -0.32485172152519226, 0.21152713894844055, 0.30380985140800476, -0.2937972843647003, 0.08744413405656815, 0.1547899693250656, 0.3618374168872833, -0.10882391035556793, -0.27980396151542664, -0.35136982798576355, 0.09585630148649216, 0.058161891996860504, 0.35074877738952637, -0.31369608640670776, -0.08571469783782959, -0.22562602162361145, 0.2175782471895218, 0.014597679488360882, 0.24835462868213654, -0.1615920066833496, -0.2739717662334442, -0.20673127472400665, 0.043673016130924225, -0.020677486434578896, -0.4927293360233307, 0.1602112054824829, 0.26515835523605347, -0.17348499596118927, 0.1106361672282219, -0.05772998183965683, 0.019184593111276627, -0.02303345687687397, -0.18659527599811554, 0.2439543753862381, 0.042983949184417725, 0.15090397000312805, 0.09528311342000961, -0.10022427141666412, 0.057684119790792465, 0.1230674609541893, 0.46965622901916504, -0.835723876953125, -0.6651526093482971, -0.956475555896759, -0.2676656246185303, 0.08637727797031403, -0.5868369936943054, 0.3891395032405853, 0.8504081964492798, 0.09708946198225021, -0.8240496516227722, -0.03736479580402374, -0.3095185160636902, 0.3723193109035492, 0.38421887159347534, -0.00659519387409091, -0.06373319029808044, -0.07434024661779404, -0.4114381968975067, -0.44532397389411926, -0.09581167995929718, 0.03631063178181648, 0.1548820286989212, -0.10672614723443985, -0.18573421239852905, -0.2224673479795456, -0.17796538770198822, -0.021168692037463188, 0.2859542965888977, 0.23185621201992035, 0.093836210668087, -0.0490097850561142, 0.030743390321731567, -0.04877275601029396, -0.03852315619587898, 0.1407233029603958, -0.24635684490203857, 0.3059256076812744, 0.07234107702970505, -0.348786324262619, -0.2017427235841751, 0.31693941354751587, 0.212415874004364, -0.2984459698200226, 0.013727400451898575, 0.16172127425670624, 0.23809583485126495, 0.3048691749572754, -0.18192094564437866, 0.09504634141921997, 0.2502226233482361, -0.1050853356719017, 0.2244345098733902, -0.21733690798282623, 0.14960110187530518, -0.11231978237628937, -0.2835984230041504, 0.1552436798810959, 0.07429676502943039, -0.0874008983373642, -0.10052131861448288, 0.32168981432914734, 0.43609148263931274, 0.017520111054182053, -0.20222675800323486, 0.03851449862122536, -0.2854837477207184, -0.27581101655960083, -0.4898588955402374, 0.44310569763183594, 0.15850459039211273, -0.08274344354867935, -0.12862053513526917, 0.3250221610069275, 0.4820536673069, -0.2311122864484787, -0.3298532962799072, -0.23514237999916077, 0.06535840779542923, -0.033409640192985535, -0.3028152585029602, -0.06361185759305954, 0.15128982067108154, 0.2008768618106842, -0.1547500491142273, 0.03926093876361847, -1.2053637504577637, -0.32216668128967285, 0.3633163571357727, -0.27177250385284424, -0.08249752968549728, -0.2887113094329834, 0.45181044936180115, -0.18751594424247742, -0.5990198850631714, 0.3607059121131897, -0.2641337215900421, 0.1719435602426529, -0.1623450219631195, -0.2658066153526306, -0.20626528561115265, 0.23115132749080658, -0.08677875995635986, -0.3170377314090729, -0.28416237235069275, -0.05823357775807381, 0.16216857731342316, -0.2246660441160202, 0.2780071794986725, -0.063052698969841, 0.49844515323638916, 0.3539831042289734, 0.10974040627479553, 0.2624754309654236, 0.16002331674098969, -0.08190500736236572, -0.27597054839134216, -0.007081420626491308, 0.38302081823349, -0.11965546756982803, -0.12372936308383942, -0.04749574512243271, 0.7131089568138123, 0.10471175611019135, -0.11841212958097458, -0.30316847562789917, 0.13279753923416138, 0.05356581136584282, -0.1194649338722229, 0.06750215590000153, 0.07106873393058777, 0.25316566228866577, 0.19822916388511658, -0.040819618850946426, -0.7558071613311768, -0.3063170909881592, 0.3111748695373535, 0.09496013820171356, 0.17104703187942505, -0.2342369109392166, 0.411101758480072, 0.24455581605434418, 0.0663311555981636, -0.34970882534980774, -0.16137969493865967, -0.05427057668566704, 1.118402361869812, -0.045046254992485046, -0.27386388182640076, 0.21069349348545074, -0.188062846660614, -0.1352359652519226, -0.2892412543296814, -0.02789936773478985, 0.061447884887456894, 0.1666060835123062, -0.06897229701280594, 0.1559588760137558, 0.12122804671525955, 0.11580711603164673, 0.060471031814813614, 0.11085589230060577, -0.01748666912317276, -0.031183188781142235, 0.10503564029932022, -0.010605407878756523, -0.11904875934123993, -0.035414330661296844, -0.1727057248353958, -0.04799604043364525, 0.014214390888810158, 0.00517756724730134, 0.25957342982292175, 0.044216252863407135, -0.14552555978298187, -0.227189302444458, -0.10661295056343079, -0.16156597435474396, -0.3129340708255768, -0.13211539387702942, -0.307669997215271, -0.38963428139686584, 0.06070388853549957, -0.22629566490650177, -0.2670038044452667, 0.0625041276216507, -0.054171230643987656, -0.15490692853927612, 0.08542788773775101, -0.3593476116657257, -0.38603514432907104, -0.14190377295017242, 0.12851303815841675, 0.5092890858650208, 0.02267402596771717, 0.21075302362442017, -0.015782881528139114, -0.2767435610294342, -0.35250869393348694, -0.4079650640487671, 0.045144401490688324, -0.15460197627544403, -0.08847517520189285, 0.1169208511710167, -0.17255118489265442, 0.18746183812618256, -0.2276686131954193, 0.18740585446357727, 0.17827586829662323, 0.051692236214876175, -0.06353522092103958, -0.10203903913497925, 0.22677454352378845, -0.38487371802330017, -0.03716444969177246, 0.11200942099094391, -0.18459641933441162, 0.08433522284030914, 0.2566767930984497, -0.24559274315834045, 0.0364675298333168, -0.04484293982386589, 0.36107510328292847, 0.06317447870969772, 0.029136577621102333, 0.02501928247511387, -0.00204764143563807, 0.04074380546808243, 0.05380013957619667, 0.04001510888338089, -0.09922261536121368, -0.05629299208521843, 0.16142812371253967, -0.04558485373854637, 0.018247803673148155, -0.1275193840265274, 0.26361727714538574, -0.12168572098016739, -0.13667045533657074, 0.1027776449918747, -0.17246562242507935, 0.08309011161327362, 0.11078993231058121, 0.07530352473258972, 0.06583544611930847, -0.25361862778663635, -0.10169533640146255, -0.08738736063241959, -0.08640776574611664, -0.09717866778373718, 0.1551237255334854, -0.10261185467243195, 0.011214878410100937, 0.02530231513082981, -0.017626604065299034, -0.17882700264453888, -0.03633086010813713, -0.09544967859983444, -0.2567068636417389, -0.04668262228369713, 0.022281207144260406, 0.06592421978712082, 0.2701275050640106, 0.24836857616901398, 0.02031649835407734, -0.14584508538246155, -0.035198505967855453, -0.09953491389751434, 0.009524380788207054, -0.16178728640079498, -0.4034004509449005, 0.07100525498390198, -0.000718285096809268, 0.05645374953746796, 0.2010064572095871, -0.04914823919534683, 0.04485690966248512, -0.11360695958137512, 0.1413753777742386, -0.00447395583614707, -0.12472080439329147, 0.05725259333848953, -0.1353573054075241, -0.10511050373315811, -0.05353637784719467, 0.08463109284639359, -0.08185643702745438, 0.017529428005218506, 0.12662869691848755, 0.07788873463869095, -0.08439917117357254, -0.022923387587070465, -0.10051602870225906, -0.003980634268373251, -0.11257471889257431, 0.15331704914569855, 0.2801021337509155, -0.09044373035430908, -0.06454092264175415, -0.20011523365974426, 0.342830091714859, 0.041120126843452454, -0.10560771822929382, 0.09451489895582199, 0.09927352517843246, 0.023402979597449303, -0.08473099768161774, 0.030603066086769104, -0.17354589700698853, 0.030182447284460068, 0.15411990880966187, -0.203416645526886, -0.1166471317410469, 0.29692453145980835, -0.046140171587467194, 0.27206769585609436, -0.06739173084497452, 0.0038192966021597385, -0.2829800844192505, 0.3329773247241974, -0.16312259435653687, 0.041749563068151474, 0.05364358797669411, -0.23036536574363708, -0.05567571148276329, 0.3186875283718109, -0.160627543926239, -0.4258590340614319, 0.10505139827728271, 0.18946632742881775, -0.06973117589950562, -0.25488078594207764, -0.04498092085123062, -0.12920311093330383, 0.055103931576013565, 0.17977306246757507, 0.14163246750831604, 0.11565537750720978, -0.15694572031497955, -0.15785545110702515, 0.0018220057245343924, 0.2581658363342285, 0.026095043867826462, -0.22912344336509705, -0.22299113869667053, 0.05199667811393738, 0.06818203628063202, -0.18669632077217102, 0.16265694797039032, 0.24526111781597137, 0.08448892831802368, 0.06627850234508514, -0.05823242664337158, -0.25987860560417175, -0.08577844500541687, 0.15363195538520813, -0.2827777862548828, 0.06177515164017677, 0.1977594494819641, -0.3225691318511963, 0.1890689581632614, 0.1427030861377716, -0.18913894891738892, 0.24864621460437775, 0.09149356931447983, 0.4952205419540405, -0.2782613933086395, -0.25162583589553833, -0.04019435867667198, -0.19135305285453796, -0.08170570433139801, -0.08628886938095093, 0.3308568000793457, 0.2647331953048706, -0.2665180265903473, 0.039303258061409, -0.12456706911325455, 0.4949752688407898, -0.21769605576992035, -0.1264781504869461, -0.20251306891441345, 0.07945040613412857, 0.24532847106456757, 0.03903428465127945, 0.012271159328520298, 0.17614009976387024, 0.07985800504684448, 0.2644423544406891, -0.10089655965566635, 0.025457089766860008, -0.0709284245967865, 0.06905432045459747, 0.017238697037100792, -0.1899336874485016, 0.19370152056217194, -0.04957667365670204, -0.3023577630519867, 0.19309136271476746, -0.18558938801288605, -0.2731788754463196, 0.015603991225361824, -0.011805964633822441, -0.09320443868637085, -0.005891779903322458, 0.1385773867368698, -0.10090003162622452, 0.07212734967470169, 0.23782679438591003, 0.017625514417886734, -0.16318853199481964, 0.010199914686381817, -0.09832630306482315, 0.09167122840881348, -0.1372663825750351, -0.08667761832475662, -0.19725218415260315, 0.021402772516012192, -0.0812598168849945, 0.08283817023038864, 0.019027283415198326, 0.2614980638027191, -0.42183545231819153, -0.10598423331975937, -0.3050541281700134, -0.07315144687891006, 0.14358483254909515, 0.5117585062980652, 0.11140964925289154, 0.1372963935136795, 0.3528372347354889, -0.34252533316612244, 0.03263546898961067, 0.47505271434783936, -0.37396806478500366, 0.33369725942611694, 0.4453190267086029, -0.01692541502416134, 0.052700966596603394, -0.1989240050315857, 0.1455005705356598, 0.26145094633102417, 0.23372595012187958, 0.2812076807022095, -0.13526155054569244, 0.1667834222316742, -0.15929368138313293, 0.018539702519774437, 0.14719058573246002, -0.1425558477640152, 0.1526341736316681, -0.028497545048594475, 0.3778631389141083, -0.09510976076126099, 0.20077301561832428, -0.007426667492836714, 0.21511639654636383, -0.10741766542196274, 0.32266053557395935, -0.0434432253241539, 0.12197118997573853, -0.08615732192993164, 0.16205669939517975, -0.2404540777206421, 0.03959687054157257, -0.04745766520500183, -0.43864700198173523, 0.1297815889120102, 0.23417383432388306, -0.5027071833610535, 0.11009910702705383, -0.07296973466873169, -0.28522756695747375, 0.07578368484973907, 0.39475420117378235, 0.35977864265441895, -0.26382750272750854, 0.3024108409881592, 0.08857864141464233, 0.031243814155459404, -0.0520525686442852, -0.2713460624217987, 0.2647552788257599, -0.17581366002559662, -0.13279211521148682, 0.10724904388189316, 0.06842959672212601, 0.3163841664791107, -0.44751328229904175, -0.04310368001461029, -0.4185674488544464, -0.1088365912437439, -0.08963590115308762, -0.014757237397134304, -0.08574342727661133, 0.11910215020179749, -0.10257674008607864, -0.10878956317901611, -0.09378880262374878, 0.04845655336976051, 0.016914209350943565, -0.2653990685939789, 0.06639710068702698, -0.0029410813003778458, -0.3312516212463379, 0.08966327458620071, 0.1462000459432602, -0.32555752992630005, -0.05226203426718712, 0.02269197255373001, 0.2220454066991806, -0.4400670826435089, 0.06757660210132599, 0.03989069536328316, 0.00525404280051589, 0.11991275101900101, 0.268444299697876, 0.422259658575058, -0.11611110717058182, 0.01710614562034607, 0.23331831395626068, 0.09273576736450195, -0.0912252888083458, -0.3681040406227112, 0.1067255362868309, -0.267566442489624, 0.19632746279239655, -0.05896809324622154, 0.2812259793281555, -0.17346352338790894, -0.05830083787441254, -0.18970641493797302, 0.023555705323815346, 0.112973153591156, 0.17717495560646057, 0.049317196011543274, -0.004442266654223204, 0.09958319365978241, -0.04294338822364807, -0.024117765948176384, 0.2503756880760193, -0.2501363158226013, -0.018751269206404686, 0.1043655052781105, -0.25144824385643005, -0.16723859310150146, -0.0805417075753212, 0.40571391582489014, -0.02448655478656292, 0.16594764590263367, -0.08741827309131622, -0.21576613187789917, -0.10884962975978851, -0.2820758521556854, 0.10951714962720871, 0.020467236638069153, -0.09572676569223404, -0.006977962329983711, -0.010745869018137455, 0.5494031310081482, 0.011887213215231895, 0.05751241743564606, -0.2909564673900604, -0.0008281506597995758, 0.15482033789157867, -0.23160342872142792, -0.05748477950692177, 0.07718056440353394, 0.14717885851860046, -0.13263434171676636, -0.12606187164783478, -0.11150867491960526, -0.10558143258094788, 0.08274579048156738, -0.08825601637363434, -0.03438764065504074, 0.0020710029639303684, -0.2742669880390167, -0.026230400428175926, 0.011316215619444847, -0.3435252606868744, -0.03563142940402031, -0.2983713448047638, 0.3337194621562958, -0.13188712298870087, 0.1974553018808365, -0.03184869885444641, -0.021615201607346535, 0.1539325714111328, 0.060761697590351105, 0.11392700672149658, 0.08479117602109909, -0.23051680624485016, 0.1558782160282135, -0.1746121048927307, -0.06063520535826683, 0.015571538358926773, 0.16028620302677155, -0.24040012061595917, -0.022601895034313202, 0.24958428740501404, 0.0642860010266304, 0.09202270209789276, -0.007492063567042351, -0.03894130885601044, 0.10940640419721603, 0.10804195702075958, 0.10812750458717346, -0.006369924172759056, -0.09220962226390839, 0.07690529525279999, -0.11610960215330124, 0.5604338049888611, 0.8138476610183716, 0.37309232354164124, -0.11171958595514297, 0.2041649967432022, -0.9194485545158386, 1.006438970565796, -0.6045874953269958, -0.9517788290977478, -0.19467318058013916, 0.9198440313339233, 0.23106218874454498, 0.09544938802719116, -0.5448457598686218, -0.02914091944694519, 0.2796337902545929, 0.05485226958990097, 0.34457528591156006, -0.17615172266960144, -0.031973645091056824, -0.10938038676977158, 0.29744479060173035, -0.3250318169593811, -0.020709510892629623, -0.1832074075937271, 0.23216372728347778, -0.25018712878227234, -0.10647585988044739, -0.19069381058216095, -0.47829151153564453, -0.22590193152427673, -0.05865127220749855, -0.08773981034755707, -0.3361222445964813, 0.24997907876968384, 0.3473414480686188, -0.09796354919672012, 0.12784576416015625, -0.1512783169746399, -0.22612667083740234, 0.06911887973546982, 0.2394345998764038, -0.08063337206840515, -0.3431907594203949, -0.0083647845312953, 0.017370203509926796, -0.2612583637237549, -0.24525092542171478, 0.08293379098176956, -0.08627849072217941, -0.263901948928833, 0.06959154456853867, -0.15841986238956451, -0.3600768744945526, -0.25047555565834045, -0.041580718010663986, -0.16596417129039764, -0.2127896100282669, 0.020466860383749008, -0.06463918834924698, 0.14732912182807922, -0.25055408477783203, -0.282540887594223, 0.11537627130746841, -0.025884194299578667, 0.3874979317188263, -0.17889942228794098, -0.18899884819984436, 0.18653734028339386, -0.13004478812217712, 0.2259720116853714, -0.2441873848438263, -0.07082798331975937, 0.17722231149673462, -0.15547063946723938, -0.1711423397064209, 0.2528856694698334, -0.12528300285339355, 0.1997968554496765, -0.14097492396831512, 0.3863492012023926, -0.13175222277641296, 0.2428240180015564, -0.3779502213001251, 0.06035862863063812, -0.37396010756492615, 0.016257762908935547, -0.1069452092051506, -0.20954270660877228, 0.28336215019226074, -0.20857815444469452, 0.22113201022148132, -0.558667004108429, 0.18694795668125153, -0.3302968442440033, 0.06447121500968933, 0.11930535733699799, -0.2613756060600281, -0.09828633069992065, -0.02359522134065628, -0.2985564172267914, 0.01810808666050434, -0.17235571146011353, 0.3153996467590332, -0.32167452573776245, -0.32999393343925476, -0.16590766608715057, -0.20897677540779114, 0.1737329512834549, 0.1385946422815323, -0.06421912461519241, -0.07706015557050705, -0.03201909735798836, -0.2494092434644699, 0.1949535757303238, -0.2814781963825226, 0.11205707490444183, -0.20173639059066772, 0.1784941405057907, 0.260051429271698, 0.36090078949928284, -0.17288099229335785, 0.023852720856666565, -0.09182968735694885, 0.2708148658275604, 0.3791196346282959, 0.1592441201210022, -0.19509257376194, 0.13986770808696747, 0.12953263521194458, 0.08702133595943451, -0.05223497748374939, 0.2526187598705292, 0.2557966709136963, 0.29531997442245483, 0.0024805194698274136, -0.23228131234645844, -0.4127978980541229, -0.16653867065906525, 0.3416706621646881, -0.12625443935394287, -0.23428712785243988, -0.025918185710906982, -0.1779061108827591, 0.22001896798610687, -0.05356191471219063, -0.2791294455528259, -0.18834029138088226, -0.05638938397169113, 0.003022504271939397, -0.22134490311145782, 0.03103344328701496, 0.32663485407829285, -0.802241325378418, 0.22391390800476074, 0.15188297629356384, -0.02455642633140087, 0.16722705960273743, -0.1146513819694519, 0.039249714463949203, 0.17377980053424835, -0.10749533772468567, 0.06572418659925461, 0.19618307054042816, 0.014706633053719997, -0.16300040483474731, -0.04306565225124359, -0.13990241289138794, -0.06410013139247894, -0.2547700107097626, 0.13650886714458466, -0.1343098282814026, 0.06202344968914986, -0.2114112824201584, -0.04878554493188858, -0.32660338282585144, 0.12912993133068085, -0.35389789938926697, -0.274808406829834, 0.03686244413256645, -0.032444022595882416, -0.185915008187294, 0.21133966743946075, -0.022044414654374123, 0.17287898063659668, -0.031193289905786514, 0.1643531620502472, -0.10670731216669083, 0.18948054313659668, -0.3306770324707031, -0.04181704297661781, 0.27255862951278687, -0.10047648102045059, 0.13060185313224792, 0.0076464018784463406, -0.1500277817249298, 0.09048831462860107, -0.03406684473156929, -0.14064055681228638, 0.04059256985783577, 0.19512909650802612, 0.03292442858219147, -0.022785060107707977, 0.24604955315589905, -0.09239885956048965, 0.13836520910263062, -0.20709848403930664, -0.16989800333976746, -0.053745437413454056, 0.5445839762687683, 0.21554042398929596, 0.31800466775894165, -0.43390223383903503, 0.15877369046211243, 0.19823279976844788, -0.11804379522800446, 0.16367632150650024, 0.057240307331085205, -0.3513266444206238, 0.3650910258293152, 0.0038829785771667957, -0.20512507855892181, 0.021365543827414513, 0.14368504285812378, -0.17089571058750153, 0.10119826346635818, -0.0009060074225999415, -0.30452412366867065, -0.03127521649003029, -0.20698174834251404, 0.32236412167549133, -0.12648102641105652, -0.13766027987003326, 0.11777996271848679, 0.17384156584739685, 0.14260464906692505, -0.011840286664664745, 0.20809973776340485, 0.14428111910820007, -0.26469886302948, -0.21985040605068207, -0.06395439058542252, 0.23971326649188995, -0.056645262986421585, -0.15453694760799408, -0.2914354205131531, 0.041629042476415634, 0.2462855726480484, 0.06837718933820724, -0.15754249691963196, 0.12526638805866241, 0.24280421435832977, 0.00111488183028996, 0.1070312038064003, 0.18350881338119507, -0.25254079699516296, -0.1478056162595749, 0.2872861623764038, 0.007051099557429552, -0.0314750038087368, 0.07800501585006714, -0.12396981567144394, -0.050834693014621735, 0.1355753242969513, 0.2289479374885559, 0.15719744563102722, -0.24805504083633423, 0.039759326726198196, 0.19808687269687653, -0.16855375468730927, -0.04698840156197548, 0.02798761986196041, 0.07352742552757263, -0.11211296170949936, -0.11697022616863251, 0.12413113564252853, -0.17423033714294434, -0.061459656804800034, -0.016468346118927002, -0.2307446151971817, -0.39112523198127747, 0.005551433656364679, -0.25156906247138977, 0.14139124751091003, 0.13521744310855865, -0.01614130474627018, -0.1278539001941681, 0.19393828511238098, -0.16599838435649872, -0.05948500707745552, 0.1006043404340744, -0.17085446417331696, -0.023982727900147438, 0.04537450894713402, -0.1585080772638321, 0.16373401880264282, 0.1307164877653122, -0.10854388028383255, 0.042540933936834335, 0.06252849847078323, -0.030519932508468628, 0.09071280062198639, -0.23987053334712982, 0.234938383102417, -0.03535288944840431, -0.0732545405626297, -0.018285101279616356, 0.050737302750349045, 0.21421250700950623, 0.02714603953063488, -0.06890054792165756, 0.008402442559599876, 0.30007481575012207, -0.26767197251319885, -0.29050180315971375, -0.09034908562898636, 0.21672090888023376, 0.2760498821735382, 0.2242930829524994, 0.09971621632575989, -0.0790003314614296, 0.21876399219036102, 0.09303825348615646, 0.19992691278457642, 0.15984685719013214, 0.1986566036939621, 0.11253517866134644, 0.05672086775302887, 0.307553231716156, -0.008777794428169727, 0.08479425311088562, -0.07954660058021545, -0.04480063542723656, -0.06253103911876678, -0.09839759021997452, 0.11917818337678909, 0.003753978293389082, 0.02121393382549286, 0.11880474537611008, -0.23270101845264435, 0.021275866776704788, -0.08896228671073914, -0.18383841216564178, -0.058575186878442764, 0.14399637281894684, 0.24282538890838623, 0.1890326887369156, -0.027173303067684174, 0.06741930544376373, -0.28415319323539734, -0.10883677750825882, -0.03240044414997101, 0.10938289761543274, -0.1434660702943802, -0.15520116686820984, -0.19697538018226624, -0.1304922252893448, -0.12990792095661163, -0.0544903539121151, 0.1131075844168663, -0.13524587452411652, -0.2268187403678894, -0.08728339523077011, -0.14991430938243866, 0.21589551866054535, 0.021145986393094063, 0.0486421138048172, -0.12817399203777313, 0.13472111523151398, -0.24366465210914612, -0.23155595362186432, 0.30376580357551575, -0.027424033731222153, 0.07684177160263062, -0.15794481337070465, -0.154713436961174, -0.03446818143129349, -0.13339877128601074, -0.14019563794136047, -0.0500282384455204, 0.20980079472064972, -0.2392737716436386, 0.1511155366897583, 0.21339233219623566, 0.21329531073570251, 0.13051919639110565, 0.049570705741643906, -0.03512462601065636, -0.05500246584415436, 0.24115775525569916, 0.0512155145406723, 0.18478088080883026, -0.20975497364997864, 0.13438111543655396, 0.03533482924103737, -0.28896254301071167, 0.027985455468297005, -0.10160467773675919, -0.031183458864688873, 0.3094009459018707, 0.1565663367509842, -0.04450593516230583, -0.08273376524448395, 0.09298589080572128, -0.0031504882499575615, 0.23020903766155243, -0.022283846512436867, -0.31307363510131836, -0.2055838257074356, -0.17759965360164642, 0.2773283123970032, -0.07859058678150177, 0.008904436603188515, 0.21406574547290802, 0.043470632284879684, -0.14945317804813385, -0.04719516262412071, 0.26496240496635437, 0.11829422414302826, -0.11083202809095383, 0.11681216210126877, -0.09752495586872101, 0.0920037105679512, 0.12321879714727402, 0.4286135733127594, -0.1063087061047554, 0.037237126380205154, 0.010661840438842773, 0.022887704893946648, -0.20429560542106628, 0.2001015543937683, -0.08188587427139282, 0.0905870571732521, -0.2684037387371063, 0.009538830257952213, -0.024989958852529526, -0.278835654258728, -0.0811818540096283, -0.019022809341549873, 0.3045395314693451, 0.036661453545093536, 0.1314137876033783, 0.13470280170440674, -0.08297591656446457, -0.07813747972249985, -0.17787134647369385, -0.0004371198592707515, -0.0620601549744606, -0.11272220313549042, 0.07026328891515732, -0.21939420700073242, 0.005556232295930386, -0.042729154229164124, 0.004029711242765188, -0.25239190459251404, -0.1974390745162964, 0.29726165533065796, 0.3404565751552582, -0.13994339108467102, 0.09615565836429596, -0.13853725790977478, 0.0827147513628006, 0.18757350742816925, -0.051893897354602814, 0.009345757775008678, 0.11772260069847107, -0.010074282996356487, -0.20071306824684143, 0.046226926147937775, 0.10703688114881516, 0.01094912365078926, 0.07189679890871048, 0.008402594365179539, -0.22030803561210632, 0.10993669927120209, 0.24779723584651947, -0.0623270682990551, 0.31325653195381165, 0.08104359358549118, -0.17523989081382751, -0.31799617409706116, -0.07214830815792084, -0.042959317564964294, -0.17389214038848877, 0.012947993353009224, 0.054551225155591965, 0.1657923310995102, -0.01624123379588127, -0.20535914599895477, -0.06888959556818008, -0.1826770156621933, -0.2516709566116333, 0.19386164844036102, 0.2522767186164856, -0.14376595616340637, -0.21066980063915253, 0.10701736807823181, 0.1931730955839157, -0.009095271117985249, -0.2223110944032669, -0.37358349561691284, 0.24533921480178833, -0.056282542645931244, -0.29403331875801086, 0.2606298625469208, -0.05123283341526985, -0.28719741106033325, 0.11953907459974289, -0.17733511328697205, -0.1910964846611023, 0.03418576717376709, 0.2580030560493469, -0.1832476407289505, 0.2393793761730194, 0.031078152358531952, -0.1430625021457672, -0.1123180240392685, -0.1561046987771988, 0.09804845601320267, 0.02462005242705345, -0.04380090534687042, 0.14264358580112457, 0.29016897082328796, 0.1857229620218277, -0.24685627222061157, 0.10865617543458939, 0.1749519407749176, -0.05302653834223747, -0.13113032281398773, -0.2068815976381302, 0.08288908749818802, -0.28642070293426514, 0.16322559118270874, 0.12511926889419556, -0.049047645181417465, -0.32487377524375916, -0.10868886858224869, -0.07566263526678085, -0.0344121940433979, -0.029073672369122505, -0.07830027490854263, -0.04637426137924194, 0.010661045089364052, -0.06257069855928421, -0.07226907461881638, 0.11211267858743668, -0.02674064412713051, 0.04014234617352486, 0.27188020944595337, 0.09099750220775604, -0.09734059870243073, 0.15181495249271393, -0.07832424342632294, -0.08172543346881866, -0.22709383070468903, 0.20218440890312195, 0.07473910599946976, -0.043542392551898956, 0.14134502410888672, 0.2336093783378601, 0.352088063955307, 0.0070296963676810265, -0.04823080077767372, -0.061634913086891174, 0.0872134268283844, 0.13392889499664307, -0.2805708050727844, -0.14164412021636963, -0.20712679624557495, 0.5323188900947571, 0.10082327574491501, 0.19031324982643127, -0.10484376549720764, -0.2397395819425583, -0.1599980890750885, -0.16001632809638977, 0.14781641960144043, 0.15388089418411255, -0.16832669079303741, -0.04124779626727104, -0.11004528403282166, -0.3277953863143921, -0.0688813179731369, -0.03942253813147545, -0.17728520929813385, -0.19065210223197937, 0.08260247856378555, 0.18602044880390167, 0.1287071853876114, -0.13223594427108765, 0.12367133796215057, 0.1182432770729065, -0.15576951205730438, -0.25349441170692444, -0.14785413444042206, -0.07543780654668808, 0.052924394607543945, -0.01863117516040802, -0.0072375028394162655, 0.06528618931770325, 0.09469826519489288, -0.08971638977527618, 0.15018661320209503, 0.04114570468664169, -0.15438242256641388, -0.06506223976612091, 0.037912677973508835, -0.019916974008083344, 0.2603324353694916, -0.10915735363960266, -0.16518904268741608, 0.08525077998638153, -0.9735378623008728, 1.0720993280410767, -0.49295929074287415, -0.5481890439987183, -0.04714313894510269, -0.5296903848648071, -0.6014289855957031, 0.6428120136260986, -0.6654849648475647, 0.6366553902626038, 0.9219406843185425, 0.21192970871925354, 0.19630548357963562, -0.6660801768302917, 0.2736249566078186, 0.31449684500694275, 0.06211528927087784, 0.3624681532382965, -0.5311909914016724, 0.08079496771097183, -0.11002412438392639, -0.303701251745224, 0.2094389647245407, -0.2955894470214844, -0.06482485681772232, -0.22096556425094604, 0.26092928647994995, -0.1496218591928482, 0.06979318708181381, 0.15034177899360657, 0.07305970788002014, -0.12367319315671921, -0.2484489232301712, -0.24938397109508514, 0.20951496064662933, 0.02321106195449829, 0.046696312725543976, -0.022862674668431282, -0.020453717559576035, -0.3293437659740448, 0.13675542175769806, -0.21274036169052124, 0.20139668881893158, 0.04518724977970123, -0.021365568041801453, 0.11393146216869354, -0.011575335636734962, -0.2711023986339569, -0.03763142228126526, -0.3243648409843445, -0.09663025289773941, 0.09804099053144455, 0.0626310184597969, 0.39350372552871704, 0.1947358250617981, 0.08143946528434753, 0.004551584832370281, -0.18145295977592468, 0.23204047977924347, 0.2522110044956207, -0.310302197933197, 0.1313672959804535, 0.11198147386312485, -0.07949645072221756, -0.17347261309623718, -0.025886287912726402, 0.2578270733356476, -0.03668934106826782, -0.3340703547000885, -0.19594413042068481, -0.07606973499059677, 0.102321095764637, 0.2946658432483673, -0.3498416543006897, 0.09678836911916733, -0.03167566657066345, -0.3954446613788605, -0.10108359903097153, -0.1662464737892151, 0.4345157742500305, -0.058722708374261856, 0.2097543478012085, -0.060209840536117554, -0.1899075210094452, -0.011351664550602436, -0.18744222819805145, 0.11902930587530136, 0.22673924267292023, -0.04036561772227287, -0.10037002712488174, -0.22421835362911224, -0.3955288827419281, -0.11437597125768661, -0.11846428364515305, 0.0557621531188488, 0.43817397952079773, -0.1506979763507843, -0.11568380892276764, 0.13550391793251038, 0.22292460501194, 0.10069906711578369, -0.13216742873191833, 0.23282252252101898, -0.1140974834561348, 0.29281851649284363, -0.17506350576877594, -0.3549744188785553, 0.0677485242486, -0.22058865427970886, 0.34047380089759827, 0.0912683978676796, 0.18589246273040771, 0.19671089947223663, 0.1084873154759407, 0.09344964474439621, -0.13436339795589447, 0.2159578949213028, 0.31312522292137146, 0.2612072229385376, 0.02567083202302456, 0.3457172214984894, -0.11088267713785172, -0.1968144029378891, -0.09945403784513474, -0.3081054985523224, 0.2647477388381958, -0.4317602515220642, -0.13432955741882324, -0.10243905335664749, 0.015557102859020233, 0.0471951849758625, 0.07310976088047028, 0.17362132668495178, -0.02443631924688816, 0.13298580050468445, 0.1557091325521469, 0.07446449995040894, 0.14442050457000732, -0.015751462429761887, -0.49298790097236633, -0.18781878054141998, -0.3389027714729309, -0.04845162853598595, 0.23678232729434967, -0.32327064871788025, -0.12588506937026978, 0.10681626945734024, 0.27850228548049927, -0.5454796552658081, 0.02083183079957962, -0.12456429749727249, -0.30416175723075867, -0.07412761449813843, 0.003372514620423317, 0.1362534612417221, -0.13776902854442596, 0.17397843301296234, 0.2585718631744385, -0.042772576212882996, 0.05902094393968582, -0.08802913129329681, -0.09005490690469742, -0.12658275663852692, -0.05507151782512665, -0.045505374670028687, -0.23496045172214508, -0.013128099031746387, 0.06749193370342255, 0.028750985860824585, -0.061032649129629135, -0.05103683844208717, -0.24037957191467285, 0.0016732835210859776, 0.24893341958522797, 0.20973533391952515, 0.06375303119421005, -0.19712728261947632, 0.17125797271728516, 0.02071596123278141, 0.010942728258669376, -0.032278165221214294, 0.30061668157577515, -0.056796327233314514, 0.007435739040374756, -0.006601780652999878, -0.234406515955925, -0.0542745441198349, 0.06305435299873352, 0.040286481380462646, 0.17061620950698853, 0.16829639673233032, -0.24580606818199158, -0.028036611154675484, 0.003205767134204507, 0.17910298705101013, -0.20598968863487244, 0.0028495322912931442, 0.005992500577121973, 0.0018707967828959227, -0.06038283929228783, 0.19477123022079468, -0.14048057794570923, -0.0021015047095716, -0.26460736989974976, 0.07363098859786987, -0.08090998977422714, 0.06375943124294281, -0.25474175810813904, -0.136323019862175, 0.12445604801177979, 0.22666555643081665, 0.1536375880241394, -0.03486039862036705, 0.09638484567403793, -0.16174226999282837, -0.1035575419664383, 0.14725159108638763, 0.2059880644083023, 0.07290469855070114, 0.0625476986169815, 0.01657400280237198, 0.005065401550382376, -0.017042608931660652, 0.1275145560503006, 0.07607592642307281, 0.023643331602215767, 0.08107085525989532, -0.1616814285516739, -0.20797239243984222, 0.034036289900541306, 0.019005119800567627, -0.2329367697238922, 0.02298082411289215, 0.06474024057388306, 0.12317565083503723, 0.02765967696905136, -0.0006370656192302704, 0.15875177085399628, 0.23278973996639252, 0.08343763649463654, -0.015325821936130524, -0.12500977516174316, 0.092461496591568, 0.3269897997379303, 0.02048606239259243, -0.0504031628370285, -0.1658845692873001, 0.10845470428466797, 0.23662130534648895, -0.07592768967151642, -0.14883601665496826, 0.041531823575496674, -0.07418960332870483, -0.07542205601930618, 0.2315206527709961, 0.08064059168100357, 0.028203390538692474, 0.09936702996492386, -0.1712002456188202, -0.28149574995040894, -0.04885756969451904, -0.09480562806129456, -0.08395091444253922, 0.19840267300605774, 0.012432020157575607, 0.12693850696086884, -0.10735469311475754, 0.22759735584259033, 0.07630147784948349, -0.4471196234226227, 0.051612067967653275, 0.04987645521759987, 0.3199661672115326, 0.059027958661317825, -0.21412353217601776, -0.04737723618745804, 0.04279838502407074, -0.2761637568473816, 0.026166975498199463, -0.004729531705379486, 0.06401275098323822, -0.06571552157402039, -0.006402417551726103, 0.11158385127782822, 0.0011732673738151789, 0.001022639567963779, -0.16107040643692017, 0.03796267509460449, 0.02756413258612156, -0.2390526682138443, -0.19260311126708984, -0.13798660039901733, 0.01513453759253025, -0.046158723533153534, -0.0753297358751297, -0.1829972118139267, 0.10856812447309494, 0.2571905553340912, -0.03308335319161415, -0.02233685553073883, -0.15998519957065582, -0.041493553668260574, -0.011249191127717495, -0.022091306746006012, 0.18803106248378754, 0.008894132450222969, 0.05971241369843483, -0.28370362520217896, 0.05701172351837158, 0.2448798418045044, -0.3434697091579437, -0.13819700479507446, 0.12267466634511948, -0.19317321479320526, -0.08390555530786514, 0.30434778332710266, 0.07068546861410141, -0.034362562000751495, -0.07736822217702866, 0.12087532877922058, 0.2281084507703781, -0.005786749068647623, -0.026058729737997055, 0.13016469776630402, 0.12886084616184235, -0.31428849697113037, -0.05085055157542229, 0.11207161843776703, -0.26093968749046326, 0.14909282326698303, -0.23178982734680176, -0.13313616812229156, -0.18184611201286316, -0.02384013496339321, -0.00042698305333033204, 0.04855599254369736, 0.0016877377638593316, 0.25173255801200867, -0.14081992208957672, 0.010720249265432358, -0.016656452789902687, -0.08118320256471634, -0.021141622215509415, -0.14480355381965637, -0.032429441809654236, 0.1313372105360031, -0.043551672250032425, -0.10321780294179916, 0.052684884518384933, 0.24331068992614746, 0.16522946953773499, 0.43423378467559814, 0.06454230844974518, 0.040266573429107666, -0.25712281465530396, 0.06521471589803696, 0.14315299689769745, -0.0918014869093895, 0.17081110179424286, 0.18745140731334686, -0.12811216711997986, -0.08030020445585251, 0.3767017424106598, 0.09668508917093277, -0.04687722399830818, -0.1392790973186493, 0.1376030445098877, -0.04905376583337784, 0.18646076321601868, -0.1721646636724472, -0.12358302623033524, 0.3357029855251312, 0.02832648903131485, -0.12256476283073425, -0.2935217320919037, 0.15723027288913727, 0.08744620531797409, -0.13749051094055176, -0.1167169138789177, 0.030575059354305267, 0.39050933718681335, 0.03818148374557495, -0.20605051517486572, 0.09146230667829514, 0.015049855224788189, 0.09240365028381348, -0.30288150906562805, -0.1307138353586197, -0.19736835360527039, -0.007378376554697752, 0.039672695100307465, 0.18209122121334076, -0.27665215730667114, 0.18299099802970886, 0.2822912037372589, 0.013494911603629589, 0.01941964216530323, 0.1063837856054306, 0.07327991724014282, -0.009976198896765709, -0.010954279452562332, -0.46968960762023926, -0.04572417214512825, 0.13700588047504425, 0.2007952332496643, -0.07182709127664566, -0.10237202793359756, 0.06717605888843536, -0.03761005774140358, 0.023695023730397224, -0.04001966118812561, -0.08156700432300568, 0.18837577104568481, -0.10055156797170639, 0.0470198430120945, 0.023490626364946365, 0.39035260677337646, 0.1019623875617981, 0.033549919724464417, 0.1849246770143509, 0.01380678080022335, 0.08399681746959686, 0.014683647081255913, 0.13159364461898804, 0.19377760589122772, 0.06494942307472229, -0.0641670897603035, -0.09069325774908066, 0.25896039605140686, 0.06452037394046783, -0.05095444247126579, -0.042253151535987854, 0.012908092699944973, -0.04773297905921936, -0.05188066139817238, 0.11877922713756561, -0.16515842080116272, -0.05535917356610298, 0.1946854293346405, -0.0027626685332506895, -0.07098669558763504, -0.052889350801706314, -0.18009024858474731, 0.0358051098883152, -0.10281572490930557, 0.0592070035636425, 0.17506732046604156, 0.20305375754833221, 0.1901787668466568, -0.20875310897827148, -0.0658198669552803, -0.025306258350610733, -0.21764253079891205, 0.07773961126804352, -0.2600683867931366, 0.12204762548208237, 0.130860835313797, -0.16071192920207977, 0.15924429893493652, 0.20775416493415833, -0.06956209987401962, -0.02171988971531391, -0.2129407674074173, -0.074112668633461, 0.13626261055469513, -0.06388916820287704, -0.010262586176395416, 0.06850515305995941, -0.2564048767089844, -0.09266657382249832, 0.2233332097530365, 0.15841765701770782, 0.07727628946304321, -0.045858751982450485, 0.11977507174015045, -0.14413557946681976, 0.08439532667398453, -0.23640461266040802, -0.10016845911741257, 0.1275213062763214, 0.07202619314193726, -0.03580954670906067, -0.22143040597438812, 0.06494233757257462, -0.13748237490653992, -0.185504749417305, 0.07592351734638214, -0.001758574740961194, -0.01606179028749466, 0.10986921191215515, -0.07953757792711258, -0.15012861788272858, 0.2132527083158493, 0.1557941883802414, -0.11313432455062866, 0.0012795694638043642, 0.1438341736793518, 0.08554905652999878, 0.10024924576282501, -0.009873544797301292, -0.15318195521831512, -0.0018778613302856684, 0.10080619156360626, -0.21210366487503052, -0.031600434333086014, 0.34606364369392395, -0.10030657052993774, 0.06397072970867157, 0.18270336091518402, -0.07310250401496887, 0.03229224681854248, 0.2979647219181061, 0.046416956931352615, -0.048625197261571884, 0.02307761088013649, -0.05225791037082672, 0.058912619948387146, -0.13209699094295502, 0.02408638596534729, -0.07914979755878448, 0.0495750866830349, -0.06736014038324356, 0.1284864842891693, 0.16271387040615082, -0.0920972153544426, 0.11256000399589539, 0.003504709340631962, -0.10419394075870514, -0.13308510184288025, -0.4208599030971527, 0.1128506138920784, -0.15741685032844543, -0.17248645424842834, -0.12025128304958344, 0.438202828168869, 0.2076098471879959, 0.2878633141517639, 0.10094614326953888, -0.11667398363351822, 0.026403846219182014, 0.26557302474975586, -0.3288410007953644, -0.02480195462703705, -0.10910813510417938, -0.24070949852466583, -0.1707354038953781, 0.03846093267202377, -0.1997859627008438, 0.2441212385892868, 0.045118674635887146, -0.11474785953760147, 0.011828526854515076, 0.02851296402513981, 0.10391047596931458, -0.14134034514427185, -0.04376797750592232, 0.23280127346515656, 0.20557722449302673, 0.14312204718589783, -0.2152712047100067, 0.04845340922474861, -0.09436950832605362, -0.5607873797416687, -0.0506557896733284, 0.05190713703632355, 0.2781498432159424, -0.2953532636165619, -0.10518714785575867, -0.026333045214414597, 0.08328589051961899, 0.05431774631142616, 0.09834342449903488, -0.17939679324626923, 0.18174469470977783, 0.007734030019491911, -0.11821775883436203, 0.22763679921627045, 0.08313415944576263, -0.2871183156967163, 0.3049100637435913, 0.18932415544986725, -0.5092074871063232, 0.1818259209394455, 0.1764930635690689, 0.12292587757110596, -0.03352922946214676, 0.1416020691394806, -0.03078169748187065, -0.10288389772176743, -0.2335948944091797, 0.3337230682373047, -0.026284731924533844, -0.05348649248480797, 0.0970943421125412, 0.033394113183021545, 0.1905788779258728, 0.07012540102005005, -0.07533466070890427, 0.18103474378585815, -0.19629551470279694, 0.055137116461992264, 0.037732213735580444, -0.014430494979023933, -0.09559459984302521, 0.016383467242121696, 0.0021989126689732075, -0.46849486231803894, 0.08785372972488403, -0.08135286718606949, -0.030644092708826065, -0.10497220605611801, 0.08857940882444382, 0.6626685857772827, -0.11386766284704208, 0.3086338937282562, 0.15839241445064545, 0.40289995074272156, 0.37416979670524597, 0.5763372778892517, -0.6774377822875977, -0.4933335781097412, -1.1952601671218872, -0.29339927434921265, 0.7811392545700073, -0.34385934472084045, -0.20770347118377686, 0.20316585898399353, -0.12427520751953125, 0.03119463101029396, 0.16280107200145721, 0.03202633187174797, 0.1624520719051361, 0.01672838255763054, 0.07414944469928741, 0.047847118228673935, -0.2483755499124527, -0.011736429296433926, -0.2919284701347351, -0.019266493618488312, -0.18564195930957794, -0.14062288403511047, 0.37987545132637024, 0.2299748808145523, 0.06046336889266968, -0.08501328527927399, -0.07054468989372253, -0.17955392599105835, 0.2599900960922241, -0.03110341913998127, 0.029501410201191902, -0.031116701662540436, -0.061019621789455414, -0.08442503958940506, -0.08758299052715302, -0.07993802428245544, 0.06888364255428314, -0.09961327165365219, 0.17262445390224457, 0.06441955268383026, -0.1595032662153244, -0.0788571760058403, -0.06587051600217819, -0.07561434805393219, 0.24219028651714325, 0.06339081376791, 0.4014166295528412, -0.03696156665682793, -0.10152503103017807, 0.16018685698509216, -0.159508615732193, -0.12372467666864395, 0.04827292263507843, 0.2841464877128601, -0.03761224448680878, -0.21086469292640686, 0.07708710432052612, 0.18978258967399597, -0.1388387680053711, -0.0459778793156147, 0.09357456117868423, -0.44692331552505493, 0.08714403212070465, 0.20855483412742615, -0.13695824146270752, -0.12121964246034622, 0.11530489474534988, -0.3955862522125244, 0.14916810393333435, 0.2528500556945801, -0.16545991599559784, -0.29865187406539917, -0.14479659497737885, -0.01539837196469307, 0.040880236774683, -0.03929286450147629, 0.17130064964294434, -0.010765979066491127, -0.22952964901924133, 0.4058522880077362, 0.23479880392551422, 0.2653912603855133, 0.14935067296028137, -0.0628322958946228, -0.09261000156402588, 0.23276007175445557, -0.12058475613594055, 0.12216315418481827, -0.17366507649421692, -0.09965401887893677, 0.26463639736175537, -0.06834554672241211, -0.27625319361686707, -0.30528512597084045, 0.39061006903648376, -0.11787336319684982, -0.30367758870124817, 0.10853046923875809, 0.33701586723327637, -0.31049057841300964, -0.09071490913629532, 0.3211914896965027, -0.04429323598742485, -0.242676243185997, 0.054255589842796326, -0.018629183992743492, -0.08783554285764694, -0.18177145719528198, -0.13593807816505432, -0.19538676738739014, -0.02556232362985611, -0.12484236806631088, 0.1772686243057251, -0.18541540205478668, -0.15002048015594482, 0.16743537783622742, -0.18451523780822754, 0.033315546810626984, 0.005607136059552431, -0.4664064049720764, 0.3254557251930237, 0.06191796064376831, -0.1788642704486847, -0.15959049761295319, 0.01392128225415945, 0.05348704382777214, 0.010387294925749302, -0.1507207602262497, -0.01234136801213026, 0.05041467770934105, 0.110602967441082, 0.12305182963609695, 0.047566190361976624, 0.07271463423967361, 0.12623701989650726, 0.39512890577316284, 0.08342153578996658, 0.32664233446121216, -0.028971102088689804, -0.269800066947937, 0.07002240419387817, 0.01113435160368681, 0.053288478404283524, 0.18079443275928497, -0.3880015015602112, -0.4369114637374878, 0.1849404126405716, 0.05145246163010597, 0.08983457833528519, -0.1868937611579895, -0.1124676838517189, 0.014113246463239193, -0.09047514945268631, -0.0025967354886233807, -0.18772192299365997, 0.17990978062152863, -0.15009203553199768, -0.14580529928207397, -0.08128536492586136, 0.1979972869157791, -0.09119697660207748, -0.01671547442674637, 0.10528136789798737, -0.11457961797714233, -0.3443845212459564, -0.07125633209943771, 0.15615294873714447, 0.2231350839138031, 0.15017084777355194, -0.27738523483276367, 0.28233546018600464, 0.20275136828422546, -0.22905679047107697, 0.06412524729967117, 0.11356550455093384, -0.06606211513280869, -0.06735946983098984, 0.059763871133327484, -0.1055503636598587, -0.14698314666748047, 0.005753512494266033, -0.0868566483259201, 0.10327532142400742, 0.057401303201913834, -0.2733435332775116, -0.09482492506504059, -0.20491215586662292, 0.28426748514175415, -0.19242534041404724, -0.11291109770536423, 0.1653585135936737, -0.08604045957326889, 0.0912085771560669, 0.001154339057393372, 0.29372626543045044, -0.15162600576877594, -0.16508932411670685, -0.0016416279831901193, 0.11358286440372467, -0.0976540669798851, -0.07254759222269058, 0.024597428739070892, -0.149940624833107, -0.016476992517709732, -0.22854560613632202, -0.02814098447561264, -0.22521883249282837, 0.03474953770637512, 0.19564507901668549, -0.08610961586236954, 0.2104511708021164, 0.2961295545101166, 0.0018415342783555388, 0.18214282393455505, 0.19129152595996857, -0.12445946037769318, 0.24910114705562592, 0.07583173364400864, -0.1485990285873413, -0.3017110824584961, -0.12288075685501099, 0.01205541379749775, 0.09658892452716827, -0.11367487907409668, -0.24367401003837585, 0.12747256457805634, -0.10036271065473557, 0.11906673014163971, 0.03677544742822647, 0.004165496677160263, 0.1607588529586792, -0.14108766615390778, -0.03821242228150368, -0.022163288667798042, 0.075164295732975, 0.3268938362598419, -0.005700858309864998, -0.1518847793340683, 0.29884767532348633, 0.03475986793637276, -0.00663702841848135, -0.1987701952457428, -0.19733747839927673, -0.25598567724227905, -0.23479746282100677, -0.033232588320970535, -0.20553414523601532, -0.2580059766769409, 0.031956106424331665, -0.13213007152080536, -0.1104850098490715, 0.010422070510685444, 0.007938720285892487, -0.07546431571245193, -0.018078744411468506, 0.1938360035419464, 0.019932914525270462, -0.14855419099330902, -0.03903261199593544, 0.013395626097917557, -0.13341404497623444, -0.13783372938632965, -0.037956543266773224, 0.0030178925953805447, -0.20968066155910492, -0.12753430008888245, 0.17003802955150604, -0.10176189988851547, -0.12366491556167603, -0.09099798649549484, 0.4290677309036255, -0.1361706405878067, 0.11104263365268707, 0.0984777882695198, 0.07838095724582672, -0.09697484225034714, 0.22834241390228271, -0.09024370461702347, -0.034742217510938644, 0.19372141361236572, -0.2529573440551758, -0.45482367277145386, 0.16301652789115906, -0.1269383728504181, 0.14142951369285583, -0.056149695068597794, 0.1470300704240799, -0.026204468682408333, 0.17035099864006042, -0.27802956104278564, 0.01731690764427185, 0.36125391721725464, 0.0107264444231987, -0.05368472635746002, -0.3152570128440857, -0.10467773675918579, 0.2713169455528259, 0.13322247564792633, 0.0355323925614357, -0.07241186499595642, 0.03177206963300705, 0.12185071408748627, -0.2641403377056122, -0.007136656902730465, -0.1011471226811409, 0.05903302878141403, 0.07177283614873886, -0.06375747174024582, -0.055387191474437714, -0.1351243555545807, -0.15365880727767944, 0.011747974902391434, 0.2098773866891861, -0.15466512739658356, 0.24652118980884552, -0.09447337687015533, -0.3049803674221039, 0.11323880404233932, 0.1288706213235855, -0.2485855221748352, -0.11648540943861008, -0.208123117685318, -0.10333266854286194, -0.09760843217372894, -0.09728660434484482, -0.0940520316362381, -0.0022888504900038242, 0.12653633952140808, -0.28707507252693176, -0.06538332998752594, -0.012322529219090939, -0.058061398565769196, -0.08202891796827316, -0.07899200916290283, 0.18435631692409515, -0.06555797904729843, 0.15433205664157867, -0.07509366422891617, 0.16861818730831146, 0.05484806001186371, -0.2285664975643158, -0.13004352152347565, 0.025561414659023285, -0.09950848668813705, -0.2007683515548706, -0.05393689498305321, 0.30758529901504517, 0.13955460488796234, 0.12352481484413147, -0.14218498766422272, 0.07494761049747467, 0.03751372545957565, 0.04071627929806709, 0.14014409482479095, -0.08927526324987411, -0.15344984829425812, 0.021387377753853798, -0.030461929738521576, -0.14567109942436218, 0.0511917844414711, -0.024316992610692978, -0.0239577516913414, 0.17486083507537842, 0.19682477414608002, -0.1317371428012848, 0.032137732952833176, 0.14614854753017426, 0.06540556997060776, -0.20810440182685852, 0.003911727573722601, 0.1748693287372589, 0.0600537471473217, -0.03788034990429878, -0.005091423634439707, 0.11211461573839188, -0.12112679332494736, -0.14280536770820618, 0.07926946878433228, 0.1436430811882019, 0.2164565920829773, 0.3762114942073822, -0.22087669372558594, -0.22066600620746613, -0.3633408844470978, 0.05856267362833023, 0.07168731093406677, -0.15386229753494263, -0.10557550191879272, 0.07625278830528259, -0.23307621479034424, 0.02260531485080719, 0.43960127234458923, 0.03276020288467407, 0.001687967567704618, 0.14082254469394684, -0.038350317627191544, 0.06590043008327484, 0.0762319564819336, -0.284206748008728, 0.08611507713794708, 0.38285133242607117, 0.09278715401887894, 0.009072847664356232, -0.34980690479278564, 0.16061624884605408, -0.04666925221681595, -0.09113027155399323, -0.1295592486858368, 0.0275112371891737, 0.04377323389053345, -0.13900284469127655, -0.14217934012413025, -0.08404509723186493, -0.22965173423290253, 0.06824923306703568, -0.13085457682609558, 0.18370170891284943, 0.13847272098064423, 0.0684078261256218, -0.3533008098602295, -0.06916878372430801, 0.04404628276824951, 0.06690571457147598, 0.08535613864660263, 0.0621507465839386, -0.05998300015926361, 0.17285650968551636, 0.2466728240251541, -0.15967068076133728, -0.23490779101848602, 0.11737486720085144, -0.05149305239319801, -0.27130812406539917, 0.045294664800167084, -0.09710470587015152, 0.07355811446905136, -0.0952533483505249, -0.08359427750110626, -0.11403228342533112, 0.11102942377328873, 0.4012658894062042, 0.07667364180088043, -0.07407763600349426, -0.08873586356639862, -0.06565672904253006, 0.2696737051010132, -0.25051218271255493, 0.10573460161685944, 0.24270287156105042, 0.018626123666763306, -0.057138990610837936, -0.16530443727970123, -0.04055018350481987, -0.044167883694171906, -0.04974914714694023, -0.13093525171279907, 0.07570405304431915, 0.042144712060689926, 0.09148798137903214, -0.04742833971977234, 0.03587893396615982, 0.03899279609322548, -0.07794469594955444, 0.21357202529907227, -0.2046317160129547, 0.06681227684020996, 0.015926172956824303, 0.016132567077875137, 0.16914419829845428, -0.023467417806386948, -0.0638589859008789, -0.21250033378601074, 0.14339259266853333, -0.05008004233241081, 0.11462388932704926, -0.0638386607170105, 0.22355011105537415, 0.0661420002579689, -0.11109672486782074, 0.006335608195513487, 0.09144546091556549, 0.01921132206916809, 0.06914203613996506, -0.024357983842492104, 0.30963844060897827, 0.1466429978609085, -0.06928163021802902, -0.4780934154987335, 0.04872042313218117, 0.019498242065310478, 0.34945425391197205, 0.23666754364967346, 0.21855993568897247, -0.3913145959377289, 0.002320799045264721, 0.0033273121807724237, 0.018698712810873985, 0.12230347096920013, 0.07122942060232162, -0.05146509036421776, -0.030952373519539833, -0.16155767440795898, -0.16766424477100372, 0.07108805328607559, -0.18328167498111725, -0.15349756181240082, 0.23417098820209503, 0.31378743052482605, -0.26654723286628723, -0.04666099697351456, 0.02498345449566841, 0.1915513277053833, -0.010889767669141293, -0.05373867601156235, 0.3213084936141968, 0.035651132464408875, 0.06634082645177841, -0.15133142471313477, -0.09035154432058334, 0.03045581467449665, -0.18213926255702972, 0.08942762017250061, 0.11994204670190811, 0.42783990502357483, 0.25653696060180664, 0.19690056145191193, 0.014545314013957977, -0.044618263840675354, -0.043425414711236954, 0.07690206915140152, -0.03577924892306328, -0.06633821874856949, 0.29894429445266724, 0.017729170620441437, 0.07362571358680725, 0.2526112198829651, -0.1829412430524826, 0.014009278267621994, -0.08754099905490875, 0.005145852919667959, 0.07541406899690628, 0.35838332772254944, -0.14344163239002228, -0.247366264462471, 0.12316997349262238, -0.2092903107404709, -0.12919825315475464, -0.5151591897010803, 0.19830894470214844, -0.01105297077447176, -0.21865364909172058, -0.06536032259464264, -0.042427804321050644, 0.03714503347873688, -0.11070326715707779, -0.08117474615573883, 0.09328710287809372, 0.02703215181827545, -0.03625250235199928, 0.10138460993766785, -0.17654529213905334, -0.16455397009849548, -0.5367798805236816, 0.12557250261306763, 0.05610411986708641, 0.010684461332857609, 0.010573350824415684, 0.17274421453475952, -0.2398899346590042, 0.05168871954083443, -0.1288665533065796, 0.11501169204711914, 0.006533139850944281, 0.013909786008298397, 0.4580443799495697, -0.04606464132666588, -0.06704343110322952, -0.009832100011408329, 0.10683772712945938, 0.08700587600469589, -0.32860127091407776, 0.04783076420426369, 0.004061520099639893, 0.25230711698532104, -0.20959948003292084, -0.01641933061182499, 0.2892338037490845, 0.07514854520559311, 0.16732627153396606, 0.07611174881458282, 0.1391627937555313, 0.10586120933294296, 0.1522137075662613, 0.025785474106669426, 0.05222540348768234, -0.09903574734926224, 0.14306077361106873, 0.3350899815559387, -0.08053039014339447, 0.27789878845214844, 0.1678302139043808, 0.12918008863925934, 0.15777261555194855, 0.08346801996231079, -0.11702103912830353, 0.23455560207366943, 0.09056827425956726, 0.22483715415000916, -1.0330595970153809, 0.4671171307563782, -0.35003435611724854, -0.23467287421226501, -0.8997374773025513, 0.7975134253501892, -0.9416412115097046, 0.16663670539855957, 0.8851775527000427, -0.25432175397872925, 0.18241988122463226, -0.11339011788368225, -0.22974315285682678, 0.13755393028259277, -0.18501484394073486, 0.23767253756523132, -0.09602054953575134, 0.033027008175849915, -0.4017777442932129, -0.032694362103939056, 0.33875900506973267, 0.31976965069770813, 0.06817836314439774, -0.16125772893428802, -0.2330227792263031, 0.32226958870887756, -0.01827484741806984, -0.19484591484069824, -0.22664283215999603, 0.3614217936992645, 0.07474403083324432, 0.2018585205078125, -0.014465059153735638, -0.35869836807250977, 0.046340104192495346, -0.0926598533987999, 0.07070279866456985, -0.09061391651630402, -0.05447528511285782, 0.20057474076747894, 0.1959533840417862, -0.16468708217144012, 0.06294267624616623, 0.08804744482040405, -0.04896433278918266, -0.1344454139471054, -0.25900179147720337, 0.17408427596092224, 0.09358319640159607, -0.029942253604531288, -0.04050663858652115, 0.10186628997325897, -0.14485502243041992, 0.03528798744082451, -0.11791440844535828, 0.30460047721862793, -0.32321593165397644, 0.19571825861930847, 0.12048087269067764, -0.03554045408964157, -0.05883223935961723, 0.4061317443847656, 0.4415504038333893, 0.0059862579219043255, -0.048699140548706055, -0.3822898864746094, 0.154786616563797, 0.0013085112441331148, 0.020240744575858116, 0.2780628502368927, -0.24258138239383698, 0.08183570951223373, 0.09064833074808121, 0.4152330756187439, 0.36420542001724243, -0.05582355707883835, -0.3899852931499481, -0.4209100604057312, 0.13325990736484528, -0.10683579742908478, 0.004324364010244608, 0.03194480016827583, 0.21117807924747467, 0.06415820866823196, -0.21926215291023254, 0.069785475730896, 0.006464678794145584, 0.058321889489889145, -0.17879657447338104, 0.14249080419540405, -0.08923905342817307, -0.016388900578022003, -0.24508929252624512, -0.18168023228645325, -0.0356229804456234, -0.2542482912540436, 0.07288461178541183, 0.09016408026218414, -0.1305456906557083, 0.04710808023810387, 0.20235298573970795, 0.2266271859407425, -0.08690111339092255, 0.26708152890205383, -0.07258067280054092, -0.08154850453138351, 0.06612002104520798, -0.25499042868614197, 0.2845360338687897, 0.15955767035484314, -0.24285946786403656, 0.09886036068201065, 0.44428789615631104, 0.26337307691574097, 0.3062148988246918, 0.002981689292937517, -0.12954354286193848, -0.12245907634496689, -0.0569499209523201, 0.07026126235723495, -0.07429249584674835, 0.246816024184227, -0.1235855370759964, 0.1537822037935257, 0.19927304983139038, 0.17444638907909393, -0.04533569887280464, -0.1762213110923767, 0.19232740998268127, -0.15146386623382568, -0.1432579904794693, 0.5042149424552917, -0.27747204899787903, -0.2809554934501648, -0.00820316281169653, -0.034190062433481216, -0.10402937978506088, -0.26931554079055786, -0.1626744270324707, 0.141117125749588, 0.035901110619306564, -0.03205021843314171, -0.36339813470840454, -0.05228614807128906, 0.21993573009967804, 0.05606755614280701, 0.3947020173072815, 0.3481244146823883, -0.07221061736345291, -0.11996220797300339, 0.2405795305967331, 0.0569637306034565, -0.03456185758113861, 0.2569301426410675, -0.04268835857510567, -0.06343898177146912, -0.2457425445318222, -0.14693482220172882, 0.07719851285219193, 0.23755843937397003, -0.09579215943813324, 0.13301974534988403, 0.037060871720314026, 0.15241684019565582, 0.04779506474733353, 0.07750330120325089, 0.14908187091350555, -0.41017845273017883, 0.07636930793523788, 0.1942414492368698, 0.15708182752132416, 0.035459622740745544, -0.05628703907132149, 0.1550612449645996, -0.06447041779756546, -0.03635090962052345, 0.1011761873960495, -0.08750811219215393, 0.17933741211891174, 0.005055873189121485, -0.5091931819915771, -0.242745041847229, -0.22436532378196716, -0.06294291466474533, 0.009758338332176208, 0.039667241275310516, -0.1406010389328003, -0.19500389695167542, 0.1783931404352188, 0.2250722497701645, 0.06602248549461365, -0.07460284233093262, 0.20203305780887604, -0.12259139865636826, -0.33038416504859924, 0.032779622822999954, -0.10756802558898926, 0.1361960768699646, -0.2785215675830841, -0.2329656332731247, 0.24853676557540894, -0.07685981690883636, -0.10265794396400452, -0.035385213792324066, -0.23120960593223572, -0.19281738996505737, -0.2779155373573303, 0.12581980228424072, -0.02668713964521885, -0.08088751137256622, 0.14576859772205353, 0.19366984069347382, 0.00861169584095478, 0.20787884294986725, -0.1932888925075531, -0.15964262187480927, 0.07948851585388184, 0.09739627689123154, -0.031532835215330124, 0.10148344933986664, -0.06403597444295883, 0.1203593835234642, 0.14193351566791534, -0.12029014527797699, 0.030996298417448997, 0.05099957063794136, -0.05351968854665756, 0.31394630670547485, -0.01502550020813942, 0.013730654492974281, 0.07954834401607513, 0.034148670732975006, 0.026864230632781982, -0.23420795798301697, 0.4895511865615845, 0.23369719088077545, 0.12740127742290497, -0.05236904323101044, -0.13280151784420013, -0.5594432950019836, 0.07578399777412415, -0.1191193163394928, 0.10583493858575821, 0.03562656044960022, 0.10992331802845001, -0.39509981870651245, -0.13158778846263885, 0.1430744081735611, -0.07070876657962799, 0.3874998986721039, 0.1629413217306137, -0.1526595652103424, -0.07348749786615372, 0.3043346405029297, -0.08432846516370773, -0.09224893897771835, 0.08302386105060577, 0.02151886560022831, 0.14329437911510468, 0.0936804786324501, -0.2621748745441437, -0.12970854341983795, -0.0305282361805439, 0.2754976749420166, -0.12384159117937088, -0.09142611920833588, -0.036898501217365265, 0.06133188679814339, 0.01683090627193451, -0.027321111410856247, 0.16341416537761688, 0.2357492446899414, -0.19674676656723022, -0.006406159605830908, -0.019284812733530998, -0.002980724675580859, 0.044520940631628036, -0.09607401490211487, 0.011399720795452595, 0.018448807299137115, 0.07913834601640701, -0.10689109563827515, 0.016864439472556114, 0.22605611383914948, -0.29198122024536133, 0.14706504344940186, 0.30776840448379517, 0.08285991847515106, 0.17909188568592072, 0.20662258565425873, 0.40258264541625977, -0.04941866919398308, -0.06558432430028915, -0.17745113372802734, 0.057261038571596146, 0.08613859117031097, -0.38571321964263916, -0.1773739457130432, -0.022408124059438705, 0.2636081278324127, -0.25698116421699524, -0.07601039111614227, 0.32168370485305786, 0.09372497349977493, 0.1923915147781372, -0.4813321828842163, 0.16560545563697815, 0.10023181140422821, -0.038434628397226334, -0.009611371904611588, 0.09337455034255981, 0.23568172752857208, 0.18048200011253357, 0.0029268569778651, -0.03409285470843315, 0.12069787830114365, 0.33485716581344604, -0.12452878803014755, -0.05562988296151161, 0.06412436068058014, 0.07172112911939621, 0.19592531025409698, 0.23267869651317596, -0.16074517369270325, -0.1752426028251648, -0.11168640851974487, -0.110261470079422, 0.19132424890995026, -0.0639624297618866, -0.047752007842063904, 0.038254909217357635, 0.354233980178833, -0.0266648568212986, 0.345392644405365, -0.02241910807788372, 0.14496733248233795, 0.26135575771331787, -0.03414151072502136, -0.047819774597883224, -0.1317049264907837, 0.08053421974182129, -0.22145426273345947, 0.015442182309925556, 0.1482561230659485, -0.0782497450709343, -0.011633533984422684, 0.07206986844539642, 0.23012498021125793, 0.08960644900798798, 0.06694632768630981, 0.14029070734977722, 0.008951976895332336, 0.09459060430526733, -0.14376182854175568, -0.1444617360830307, -0.048512957990169525, -0.18747350573539734, 0.394840806722641, 0.14860503375530243, -0.1870541125535965, 0.06452729552984238, -0.030266184359788895, -0.07696492224931717, -0.1950937807559967, -0.21268291771411896, 0.06395440548658371, -0.12741363048553467, -0.12075314670801163, -0.30747610330581665, -0.41667401790618896, -0.24091151356697083, -0.28509950637817383, -0.24738740921020508, -0.3130239248275757, 0.21505126357078552, 0.03931254893541336, 0.24758075177669525, -0.12621650099754333, 0.014432576484978199, 0.21673919260501862, -0.40314415097236633, 0.056327253580093384, -0.08003730326890945, 0.47435763478279114, 0.2018936723470688, 0.27748608589172363, 0.08626290410757065, 0.06774572283029556, -0.25565412640571594, 0.015635885298252106, -0.03710893914103508, -0.28927597403526306, 0.20226061344146729, 0.41086456179618835, 0.35077741742134094, 0.06378892064094543, 0.3383968472480774, 0.18040452897548676, -0.02282222919166088, -0.07009107619524002, 0.2606770396232605, 0.3277370035648346, 0.18948721885681152, -0.24451948702335358, 0.23571614921092987, -0.39195573329925537, -0.059933487325906754, -0.16943535208702087, -0.38206779956817627, -0.009985849261283875, 0.04867759719491005, 0.24216695129871368, -0.0008914509089663625, 0.3534442186355591, 0.00819617509841919, -0.03418087586760521, 0.08877638727426529, 0.009019818156957626, 0.13202586770057678, 0.1828186810016632, -0.018210647627711296, 0.2163742184638977, -0.04074542224407196, -0.08713246136903763, -0.11486481875181198, 0.1529693603515625, -0.3381708562374115, -0.49366602301597595, -0.13284717500209808, -0.0744980052113533, 0.1658662110567093, 0.2772090435028076, -0.10215532779693604, 0.030560728162527084, 0.02322724461555481, -0.05013585463166237, -0.030305413529276848, -0.06714031845331192, 0.05663680657744408, 0.105277419090271, 0.10234455019235611, 0.001519117853604257, -0.049726761877536774, -0.029145890846848488, 0.12230850011110306, -0.1795414686203003, -0.11227753758430481, 0.18964555859565735, 0.1771315634250641, 0.0821882113814354, -0.1925676017999649, -0.1889009326696396, 0.1779322624206543, 0.004793254658579826, -0.09445854276418686, -0.1737041026353836, -0.06503666192293167, -0.26507818698883057, -0.09609391540288925, -0.07467500865459442, -0.017771555110812187, -0.23686595261096954, -0.0956946313381195, 0.1554524451494217, -0.38918536901474, 0.18724657595157623, 0.20238997042179108, 0.07171627134084702, 0.07777869701385498, 0.20567165315151215, 0.5123481750488281, 0.0640396773815155, 0.008124113082885742, -0.1811123490333557, 0.1897837072610855, 0.16746896505355835, -0.34442371129989624, -0.03802267462015152, 0.10098351538181305, 0.4985593259334564, -0.048701923340559006, 0.020629964768886566, 0.3556722402572632, -0.10551933944225311, 0.1449865698814392, -0.34973421692848206, 0.05354277789592743, 0.33269283175468445, 0.03236144036054611, 0.08902192860841751, 0.2281598001718521, -0.032787904143333435, 0.18600401282310486, 0.38567373156547546, 0.02681824192404747, -0.13444207608699799, -0.5684946775436401, -0.04953116923570633, 0.04900380223989487, -0.11972884088754654, 0.10030587762594223, 0.1849636435508728, -0.07921092957258224, 0.2859736680984497, 0.0024159494787454605, 0.10063450038433075, 0.25224319100379944, -0.0007320961449295282, 0.04202469065785408, 0.10151367634534836, -0.09309056401252747, -0.3265516757965088, 0.020511923357844353, -0.33605170249938965, -0.3699703812599182, -0.11166973412036896, -0.26744115352630615, 0.2521120011806488, -0.10139898210763931, 0.06767958402633667, 0.1899174302816391, 0.09810200333595276, 0.008202587254345417, -0.27046775817871094, 0.03586142882704735, -0.1380947083234787, 0.040339142084121704, -0.3891229033470154, -0.14387215673923492, -0.06516057252883911, 0.14281150698661804, -0.08656706660985947, -0.12667594850063324, -0.3093045651912689, 0.20885097980499268, 0.10920330882072449, -0.4575690031051636, 0.06752485781908035, 0.22769437730312347, -0.010954984463751316, 0.31421005725860596, 0.06032475829124451, 0.25468510389328003, -0.21445155143737793, -0.28952258825302124, -0.2571905851364136, -0.04555053636431694, 0.054670803248882294, -0.5555518865585327, -0.26618123054504395, -0.24907417595386505, 0.3391839563846588, -0.25365617871284485, -0.30452027916908264, -0.04990093782544136, 0.09697410464286804, -0.020691871643066406, -0.3085159957408905, 0.02027604915201664, -0.0034500090405344963, -0.28240877389907837, 0.014829427003860474, -0.005735783372074366, 0.028782367706298828, 0.06268443167209625, -0.3068948984146118, -0.23679666221141815, -0.07426123321056366, 0.07277742773294449, -0.02168313041329384, -0.00605565682053566, 0.14662660658359528, 0.20295527577400208, 0.1175960972905159, -0.08401887863874435, 0.10706090927124023, 0.04108762368559837, 0.00942356325685978, -0.3608733117580414, -0.1299467384815216, -0.0632920041680336, -0.07228704541921616, 0.021850459277629852, -0.038455937057733536, 0.035395629703998566, -0.258200079202652, 0.06548205018043518, 0.11031989008188248, -0.14287169277668, -0.10299564152956009, 0.16674740612506866, 0.04423828423023224, 0.0977974683046341, 0.05721505358815193, 0.18710020184516907, 0.044412124902009964, -0.17088638246059418, -0.18334025144577026, 0.09341176599264145, -0.03627477586269379, 0.1002628430724144, 0.038089364767074585, -0.12498433887958527, 0.012942013330757618, 0.04988253116607666, -0.012817706912755966, -0.16999129951000214, -0.30461448431015015, 0.03760221228003502, -0.7197968363761902, -0.10811396688222885, 0.8443250060081482, 0.22136731445789337, 0.7970418334007263, 0.7521544694900513, -0.7282687425613403, -0.32932472229003906, -0.15707767009735107, 0.4447824954986572, 0.1448751986026764, 0.46793174743652344, 0.05852334201335907, -0.28417104482650757, -0.15911787748336792, -0.2677995264530182, -0.05811428278684616, 0.2217656672000885, 0.13046374917030334, -0.16688178479671478, -0.3531024158000946, 0.2323305904865265, -0.2663630247116089, -0.4466411769390106, -0.04631810635328293, 0.2681579887866974, -0.10308311134576797, -0.13620422780513763, -0.2861858904361725, 0.005921022966504097, -0.05207552760839462, 0.052340660244226456, 0.027670402079820633, 0.20227974653244019, -0.1278654932975769, -0.12154951691627502, 0.026408888399600983, 0.10771600157022476, -0.19015386700630188, -0.11413648724555969, 0.19220902025699615, -0.2926039397716522, -0.019515855237841606, -0.5500051975250244, -0.037733837962150574, -0.36879071593284607, -0.25127875804901123, 0.39896994829177856, 0.18833371996879578, 0.1107674241065979, -0.1623464971780777, -0.4535438120365143, -0.021721435710787773, -0.1637735217809677, -0.020929353311657906, -0.02066844142973423, -0.29196834564208984, 0.06771884113550186, -0.38592156767845154, -0.21954281628131866, 0.31151050329208374, -0.20761635899543762, 0.23396426439285278, -0.06618288904428482, -0.28827619552612305, 0.301119327545166, -0.20989307761192322, -0.48498088121414185, -0.19615091383457184, 0.1818530261516571, 0.5444296598434448, -0.12759321928024292, 0.03176863491535187, 0.19361624121665955, 0.23981986939907074, 0.0005990006029605865, 0.13553199172019958, -0.009671139530837536, -0.16685116291046143, -0.11785713583230972, -0.06346625089645386, -0.10241710394620895, 0.023061776533722878, 0.23440155386924744, -0.21330715715885162, 0.030096696689724922, -0.2237979620695114, 0.027014248073101044, 0.2483847737312317, -0.017878463491797447, 0.30010145902633667, 0.26949939131736755, -0.28172925114631653, -0.011962714605033398, -0.20012789964675903, -0.037627216428518295, 0.1622917503118515, 0.0011704681674018502, -0.3100387156009674, -0.1665181815624237, -0.29174020886421204, 0.3435755968093872, 0.19124320149421692, 0.2780229151248932, -0.07310552895069122, 0.3332776427268982, 0.13540072739124298, -0.06343813240528107, 0.04648929089307785, -0.34771648049354553, 0.1491745561361313, 0.033900972455739975, -0.15997207164764404, -0.06988648325204849, -0.10385892540216446, 0.010617285966873169, 0.47508251667022705, -0.06840484589338303, 0.054027970880270004, -0.35662609338760376, -0.09231866896152496, -0.012827415950596333, -0.19684569537639618, -0.20558756589889526, 0.09253104031085968, -0.04253475368022919, -0.11098918318748474, 0.047079697251319885, 0.25582581758499146, -0.1512444019317627, 0.24331478774547577, 0.012774555012583733, 0.13435882329940796, 0.09479442983865738, -0.20162434875965118, -0.45836329460144043, 0.4033972918987274, 0.0887550637125969, -0.24169304966926575, 0.029640335589647293, 0.042331039905548096, -0.029429752379655838, 0.23648780584335327, 0.12333306670188904, -0.36238232254981995, 0.2897186577320099, 0.10524524003267288, 0.4051460027694702, -0.16646386682987213, 0.15578000247478485, 0.1007993295788765, 0.11302413791418076, 0.022925017401576042, -0.11710705608129501, 0.11339421570301056, 0.18790696561336517, 0.05646130442619324, 0.18291933834552765, -0.3097745180130005, -0.059903569519519806, 0.19165168702602386, 0.0019144199322909117, 0.31422102451324463, 0.018707847222685814, 0.13421420753002167, -0.16592055559158325, 0.06936080008745193, -0.3320048153400421, 0.11976911127567291, 0.14793740212917328, 0.3438347578048706, 0.09890715032815933, 0.2789463400840759, 0.16416889429092407, -0.176192969083786, -0.2980652153491974, 0.27311238646507263, -0.03917541727423668, -0.2905315160751343, 0.5595613718032837, 0.029090944677591324, -0.05684090033173561, -0.7828124761581421, -0.10208097845315933, -0.24054054915905, -0.2477482110261917, 0.0999312624335289, 0.12695196270942688, 0.8042042255401611, 0.00418812595307827, 0.09064574539661407, 0.3431532084941864, 0.36501333117485046, 0.40464675426483154, -0.15624108910560608, 0.11449531465768814, 0.12036401778459549, -0.24568408727645874, 0.06266479194164276, -0.046245597302913666, 0.1966225951910019, -0.2296428084373474, -0.279228538274765, -0.0797957256436348, 0.0802818015217781, 0.2355245053768158, 0.2397969663143158, 0.09875960648059845, 0.1283886879682541, 0.028711438179016113, 0.01658192276954651, 0.12720508873462677, 0.22939950227737427, -0.07928872853517532, 0.1681780219078064, 0.07369811832904816, -0.10153409838676453, 0.06695710867643356, -0.08131835609674454, -0.1193070039153099, 0.14053358137607574, -0.31476104259490967, 0.0031637814827263355, -0.015300193801522255, -5.745539965573698e-05, -0.11989472061395645, 0.10212153941392899, -0.07619662582874298, 0.04041890799999237, -0.149266317486763, -0.05245460942387581, -0.05978165194392204, -0.20888936519622803, -0.11629500240087509, -0.006381396669894457, -0.020006146281957626, 0.1085541620850563, 0.17584408819675446, 0.09834662824869156, -0.046465225517749786, -0.01568266749382019, 0.1593933254480362, 0.03160260245203972, 0.06847256422042847, 0.1284499168395996, 0.048559557646512985, -0.0945049300789833, -0.07670080661773682, 0.2645421326160431, -0.05344229191541672, -0.019437897950410843, -0.043322913348674774, -0.06052262708544731, 0.08492982387542725, -0.20154067873954773, -0.12102092057466507, -0.018499329686164856, -0.3243257701396942, 0.022110601887106895, 0.005465024616569281, -0.26143985986709595, 0.04176119714975357, 0.16373944282531738, -0.1707082986831665, -0.09323172271251678, 0.07048949599266052, -0.12557068467140198, 0.03981628268957138, -0.1250019073486328, 0.054258882999420166, -0.12030881643295288, -0.04798904061317444, 0.2015342116355896, 0.1742205023765564, 0.1792912483215332, -0.10732067376375198, 0.1754463016986847, 0.10594378411769867, 0.031709734350442886, -0.11057572066783905, 0.029978757724165916, 0.05692049488425255, -0.12886375188827515, 0.24933792650699615, 0.08428164571523666, 0.07314217835664749, -0.015628958120942116, -0.22023522853851318, 0.15429086983203888, 0.39996421337127686, -0.09920679032802582, -0.009187557734549046, 0.09772523492574692, 0.02355208620429039, -0.08618419617414474, -0.07119467109441757, -0.014003428630530834, 0.008762448094785213, 0.34625494480133057, 0.016805613413453102, 0.24158352613449097, -0.06953154504299164, 0.020785942673683167, -0.04797380417585373, 0.024134855717420578, -0.04725020006299019, -0.07484377920627594, 0.022018592804670334, 0.06946496665477753, -0.4200465679168701, -0.19946396350860596, 0.049317143857479095, -0.18078623712062836, 0.054270002990961075, -0.1668001115322113, -0.17840299010276794, -0.10690929740667343, 0.17762942612171173, -0.3819562792778015, -0.22679004073143005, -0.20515939593315125, -0.13896773755550385, -0.12832394242286682, -0.20285239815711975, -0.23358872532844543, 0.2293243706226349, 0.20651811361312866, 0.050617463886737823, 0.044482722878456116, 0.23537130653858185, 0.18503521382808685, 0.26516827940940857, 0.1084299236536026, 0.09973430633544922, 0.24369999766349792, 0.09452123939990997, 0.02906172163784504, 0.13098423182964325, 0.1921856701374054, 0.05055994912981987, -0.1504705250263214, -0.09937196969985962, 0.03368360921740532, -0.15122810006141663, -0.1504284292459488, -0.38123711943626404, -0.23546281456947327, 0.2674981951713562, 0.07334847003221512, 0.1156199648976326, -0.12189356982707977, 0.018105313181877136, 0.05893490090966225, 0.02883743867278099, -0.12522557377815247, 0.006355008110404015, 0.046631887555122375, 0.1622602641582489, -0.01906740292906761, 0.11641238629817963, 0.03482180833816528, 0.19921046495437622, -0.10302077978849411, 0.15642404556274414, 0.14079852402210236, -0.04669457674026489, 0.053891561925411224, 0.09220827370882034, -0.15034708380699158, -0.027614235877990723, 0.3097436726093292, -0.08707654476165771, 0.37434226274490356, 0.24103973805904388, -0.19262784719467163, 0.2202347069978714, -0.03153728321194649, 0.12671217322349548, -0.01216798648238182, 0.0006558638415299356, -0.012799197807908058, -0.5303940176963806, -0.12764808535575867, -0.2692384421825409, 0.1422569453716278, -0.1042577251791954, 0.1566418558359146, 0.1379084289073944, -0.19658921658992767, -0.11444879323244095, 0.02016287110745907, -0.052446454763412476, -0.2024029940366745, 0.0030861678533256054, 0.05210139602422714, -0.004136667121201754, 0.38199687004089355, 0.13850048184394836, 0.03728795051574707, 0.1767163872718811, 0.16985413432121277, 0.10827535390853882, -0.012978523038327694, 0.07489758729934692, -0.0004861927591264248, 0.13223151862621307, 0.2767528295516968, -0.3048100769519806, -0.050133462995290756, -0.10364745557308197, -0.1841673105955124, -0.17546841502189636, -0.07978910952806473, 0.3208576440811157, 0.10987415164709091, 0.06239234656095505, 0.16093766689300537, 0.08641815930604935, 0.12579354643821716, -0.1683826893568039, -0.07063283026218414, 0.18913042545318604, -0.20202450454235077, -0.024698182940483093, -0.025726912543177605, 0.11959055811166763, -0.0748058632016182, -0.20456825196743011, 0.22025564312934875, -0.0292972419410944, -0.06390190869569778, 0.1034439355134964, -0.06129172444343567, -0.02321426384150982, 0.1811230480670929, -0.0005378613132052124, -0.084219790995121, -0.09150145947933197, -0.06796044111251831, -0.1799069195985794, 0.05596134811639786, 0.10745493322610855, -0.20353278517723083, -0.0222645103931427, -0.2528471052646637, 0.08252996951341629, -0.08216992020606995, -0.07126108556985855, 0.03809848427772522, 0.1248772069811821, -0.028875190764665604, 0.00795731134712696, -0.007235391531139612, 0.2404797524213791, -0.0879267230629921, 0.09796810895204544, 0.14952249825000763, 0.17188914120197296, 0.9180623888969421, -0.001411886652931571, 0.3052237629890442, -0.4541698098182678, -0.3761674165725708, -0.3695546090602875, 0.24938040971755981, 0.008962764404714108, -0.17165054380893707, 0.7707833647727966, 0.23108989000320435, 0.4679589569568634, -0.05790938436985016, -0.38267388939857483, -0.5431063175201416, -0.09065252542495728, -0.12043613940477371, -0.12041638046503067, 0.28828972578048706, 0.015682652592658997, 0.12560012936592102, 0.8849363923072815, 0.25488153100013733, -0.015329496003687382, -0.5807777047157288, 0.2798979878425598, 0.21763759851455688, -0.11403067409992218, 0.0922045186161995, -0.33998358249664307, 0.4424378275871277, -0.29723528027534485, -0.31916067004203796, -0.3554762601852417, -0.020092304795980453, 0.0821111723780632, -0.03919999301433563, 0.014678011648356915, 0.19027544558048248, 0.15583071112632751, -0.07717372477054596, 0.04044804722070694, 0.10311650484800339, 0.049874138087034225, -0.027738630771636963, 0.017494654282927513, -0.12435761839151382, 0.22937044501304626, 0.01686575822532177, -0.011504068039357662, 0.09992529451847076, -0.0555976964533329, -0.13489416241645813, -0.07351429760456085, -0.062197186052799225, -0.026364769786596298, 0.16006313264369965, -0.24597646296024323, -0.20641736686229706, -0.1760561168193817, 0.15002025663852692, -0.09768493473529816, -0.10010542720556259, 0.1085355132818222, -0.06809798628091812, 0.05729864165186882, 0.11716073006391525, 0.1755349487066269, 0.16610440611839294, -0.2551705539226532, 0.0392719991505146, -0.10449444502592087, 0.021005457267165184, 0.07212777435779572, -0.028293436393141747, 0.11552818864583969, 0.20947851240634918, 0.2868521511554718, -0.04247364401817322, 0.03424942493438721, 0.13866201043128967, -0.1262345016002655, -0.11644984781742096, 0.04539429023861885, -0.17116419970989227, -0.1016477420926094, 0.026182685047388077, 0.12274183332920074, 0.10091039538383484, 0.04672645404934883, -0.029128950089216232, -0.047962091863155365, -0.06400812417268753, -0.3672749698162079, 0.24726837873458862, -0.0016222713747993112, 0.09180653095245361, 0.17558717727661133, 0.10609141737222672, -0.14412550628185272, -0.08396214246749878, 0.047571659088134766, 0.07833246141672134, 0.05310238525271416, 0.0754084438085556, 0.11671619117259979, -0.1221456378698349, -0.12126185745000839, -0.5645496845245361, 0.07280034571886063, -0.052071381360292435, 0.2891649007797241, 0.3137665390968323, 0.23421353101730347, -0.26655399799346924, -0.0032923221588134766, 0.09730491787195206, -0.18130925297737122, 0.033166032284498215, -0.10017944872379303, 0.07367818802595139, -0.11319146305322647, 0.2722597122192383, -0.2750638723373413, -0.04945947974920273, 0.009639212861657143, -0.26715660095214844, -0.035587698221206665, -0.015896866098046303, -0.4171820282936096, -0.2708043158054352, -0.19882941246032715, 0.1604912430047989, 0.032968081533908844, -0.07715398818254471, -0.10916183888912201, -0.027282413095235825, 0.07876281440258026, 0.19324932992458344, 0.26647230982780457, 0.12998269498348236, -0.003787452355027199, 0.29188698530197144, 0.09008388966321945, 0.006333511788398027, -0.05222377926111221, 0.3633064925670624, 0.18428157269954681, 0.0385836623609066, 0.039618439972400665, -0.16712632775306702, 0.07744158804416656, -0.28925615549087524, -0.12057933211326599, -0.3237215280532837, -0.4950610399246216, -0.1679147481918335, -0.26339274644851685, -0.4059043526649475, -0.3321469724178314, 0.7075466513633728, 0.0016838961746543646, -0.9587445855140686, 0.7800748348236084, 0.3703041672706604, 0.001953322673216462, -0.08183278888463974, -0.06507585197687149, 0.2281469702720642, -0.30570173263549805, 0.06270565092563629, 0.17423735558986664, -0.14402808248996735, 0.26146382093429565, 0.1539347916841507, -0.0563257560133934, -0.07627125829458237, 0.4356842637062073, -0.11880113929510117, 0.1318824589252472, 0.03263429179787636, 0.10125379264354706, -0.15022557973861694, 0.0418253093957901, 0.01407740917056799, -0.06863046437501907, -0.23107711970806122, -0.013612871058285236, -0.1098947674036026, 0.0884166806936264, -0.07082351297140121, -0.008075636811554432, -0.3972415328025818, -0.031591542065143585, 0.1546444296836853, -0.15833918750286102, -0.14964492619037628, -0.16059938073158264, 0.23823916912078857, -0.07733995467424393, 0.20836400985717773, 0.20070305466651917, 0.09706483781337738, 0.09902942180633545, -0.09189200401306152, 0.02255113422870636, -0.19864538311958313, 0.04578406363725662, -0.2764509618282318, 0.004250687547028065, 0.0010927574476227164, -0.22083787620067596, 0.1546582132577896, -0.1840900331735611, 0.3846033811569214, -0.10127638280391693, 0.11289601773023605, -0.13779878616333008, -0.06555359810590744, 0.08452801406383514, -0.16501860320568085, -0.05581070855259895, 0.025406185537576675, 0.13272330164909363, 0.06645970791578293, -0.48775091767311096, 0.3623179495334625, -0.07094279676675797, 0.0011741833295673132, -0.08758190274238586, -0.1219237744808197, 0.12063091993331909, 0.23253288865089417, 0.11039336025714874, 0.06256937235593796, 0.3198733925819397, -0.0889580026268959, -0.21565376222133636, 0.05396993085741997, -0.22699901461601257, 0.08780062198638916, -0.28701165318489075, -0.14137063920497894, 0.09332860261201859, 0.10352639853954315, 0.3024425506591797, 0.34540891647338867, 0.21683138608932495, -0.21033211052417755, -0.23253381252288818, 0.18227669596672058, 0.16932442784309387, 0.29069074988365173, 0.04917991906404495, -0.10557551681995392, 0.03624507039785385, -0.07938908785581589, 0.19264119863510132, 0.33183524012565613, 0.24236029386520386, -0.14127783477306366, -0.34231606125831604, -0.1302037537097931, 0.26578670740127563, 0.3715081810951233, -0.1596386730670929, 0.028901932761073112, 0.21018947660923004, 0.20531854033470154, 0.4791209101676941, 0.030122928321361542, 0.4497847855091095, 0.03169620782136917, 0.08013489097356796, 0.1298120766878128, 0.2811642289161682, 0.02814832329750061, -0.03885035961866379, -0.31810837984085083, -0.20703405141830444, -0.13794568181037903, -0.04747629538178444, 0.445136159658432, -0.11818444728851318, 0.15032224357128143, -0.019826151430606842, -0.06779810041189194, -0.27803611755371094, -0.10077417641878128, 0.3095342516899109, -0.12545724213123322, -0.08259402215480804, -0.14912016689777374, -0.0781288743019104, -0.11911652237176895, 0.028823109343647957, -0.06297402083873749, 0.1392088383436203, -0.12331601977348328, 0.1303328573703766, -0.1932697296142578, -0.2470053881406784, -0.37435439229011536, -0.20284803211688995, 0.045105110853910446, -0.08694474399089813, -0.1489678919315338, -0.03404789790511131, -0.40551382303237915, 0.07944557070732117, 0.10016632080078125, -0.11950231343507767, 0.20016156136989594, 0.13055922091007233, -0.10112909972667694, 0.02209421619772911, 0.1852845400571823, -0.026046108454465866, -0.06331143528223038, 0.06763947010040283, 0.08801630884408951, 0.014017731882631779, -0.17731782793998718, 0.18644841015338898, 0.17933906614780426, 0.1529194712638855, -0.01674850471317768, -0.054245173931121826, -0.05798382684588432, -0.10551261156797409, 0.06495940685272217, -0.11069822311401367, 0.031622178852558136, -0.06726542860269547, 0.11825479567050934, -0.20579691231250763, -0.0292485523968935, 0.0669703260064125, -0.1513776034116745, -0.19047509133815765, 0.1162734180688858, 0.20919081568717957, 0.04382173344492912, 0.07869517803192139, -0.18897520005702972, 0.20597898960113525, -0.08221134543418884, 0.21321430802345276, 0.011800235137343407, -0.149270161986351, 0.189764142036438, 0.0967591255903244, 0.255977600812912, -0.1463242471218109, 0.020522568374872208, -0.2514643967151642, 0.16561569273471832, 0.18262484669685364, -0.28551605343818665, 0.014679119922220707, 0.14922943711280823, 0.08071310073137283, -0.1480078250169754, 0.018007861450314522, -0.07480327039957047, -0.15455372631549835, 0.059868671000003815, 0.0868086889386177, 0.16959868371486664, -0.2137322872877121, -0.11984342336654663, -0.2117931991815567, 0.20724180340766907, -0.13895906507968903, -0.05495220795273781, 0.07003220170736313, 0.1461936980485916, -0.04305695369839668, -0.13546603918075562, 0.1023118644952774, 0.27053403854370117, 0.0740773156285286, -0.0711149200797081, -0.011622877791523933, -0.21756131947040558, -0.07724764198064804, -0.10370943695306778, -0.027036571875214577, 0.2616698145866394, -0.037011973559856415, 0.20764635503292084, -0.017316007986664772, -0.036377910524606705, 0.1066315770149231, -0.08399445563554764, -0.07194416970014572, -0.08175968378782272, 0.07840379327535629, -0.049573034048080444, -0.11178561300039291, -0.0654999241232872, -0.07706883549690247, -0.1188972070813179, 0.07922057807445526, -0.027653701603412628, -0.03591179475188255, 0.11728233844041824, 0.01383903156965971, -0.03354473039507866, -0.108348548412323, -0.07834012806415558, -0.05788740515708923, -0.05871095135807991, -0.0930069163441658, -0.004240027628839016, -0.18003694713115692, 0.008702723309397697, 0.02414414845407009, -0.030964288860559464, 0.010821008123457432, 0.12436757236719131, 0.03550112247467041, -0.09513065218925476, -0.12237300723791122, -0.11674405634403229, -0.16260439157485962, -0.1623857468366623, -0.03262700140476227, 0.028680555522441864, -0.02461184561252594, 0.06299829483032227, 0.14350327849388123, 0.10808968544006348, 0.09569620341062546, 0.023926351219415665, -0.06438864767551422, 0.0538715161383152, -0.11600678414106369, 0.0040015061385929585, -0.015506945550441742, -0.10308221727609634, 0.047198306769132614, 0.19807593524456024, 0.08385827392339706, -0.021157966926693916, -0.0888674184679985, -0.033053427934646606, -0.02510322444140911, 0.015083538368344307, -0.08341657370328903, 0.10370965301990509, -0.21163791418075562, -0.0497501865029335, 0.05788663402199745, -0.04978616163134575, 0.12728995084762573, 0.17506632208824158, 0.11417583376169205, 0.01924087107181549, -0.047631070017814636, 0.02278301678597927, -0.09700044989585876, -0.09940837323665619, 0.07646244764328003, -0.050206225365400314, 0.02121853642165661, 0.06293521821498871, 0.21996894478797913, 0.014919054694473743, 0.05015961453318596, 0.0960952416062355, 0.11161508411169052, -0.08324524760246277, 0.22741419076919556, -0.2700609564781189, 0.03214578330516815, 0.17809386551380157, -0.33455172181129456, 0.09827133268117905, -0.13392309844493866, 0.02391575649380684, 0.1370554119348526, 0.11809046566486359, 0.23542997241020203, 0.07010576874017715, 0.1400154083967209, -0.3066844046115875, 0.06431742012500763, 0.051863059401512146, -0.18533432483673096, -0.05909574776887894, 0.20834383368492126, 0.23715603351593018, 0.054210368543863297, 0.21139879524707794, 0.5091424584388733, 0.04207739979028702, -0.13380755484104156, -0.03194465488195419, 0.05134853720664978, 0.024188771843910217, -0.4623681604862213, -0.09801174700260162, -0.36003953218460083, 0.01610487885773182, 0.07488436251878738, 0.1595495492219925, -0.04693695530295372, -0.15392719209194183, 0.01908814162015915, 0.0054734451696276665, 0.04878169298171997, -0.06336107850074768, -0.33100882172584534, -0.019385959953069687, -0.11193368583917618, 0.20642952620983124, -0.005751157645136118, -0.014119844883680344, 0.22351029515266418, -0.019041599705815315, 0.09805716574192047, 0.4285353422164917, 0.08725176006555557, 0.14872406423091888, -0.11272258311510086, -0.12904846668243408, -0.19381271302700043, 0.25937607884407043, -0.048150330781936646, 0.05853747949004173, -0.08469197154045105, 0.1859740912914276, 0.14418260753154755, 0.052000463008880615, 0.10935152322053909, 0.04208749905228615, 0.10833604633808136, 0.02266698144376278, 0.05305463820695877, 0.33697962760925293, -0.03541054204106331, 0.004553528968244791, 0.21701960265636444, 0.013285108841955662, -0.20921267569065094, 0.0326010026037693, -0.09015219658613205, 0.18967844545841217, 0.3960213363170624, 0.16305682063102722, 0.2257412075996399, 0.08671258389949799, 0.0073019289411604404, -0.13413429260253906, 0.03891865536570549, -0.3310207426548004, -0.2659685015678406, -0.04688383638858795, 0.10381817817687988, 0.09004060924053192, -0.045217741280794144, -0.09880562871694565, -0.16756808757781982, 0.111037977039814, -0.04190153628587723, -0.009996069595217705, 0.01789894700050354, -0.09478770196437836, 0.20045046508312225, -0.25841811299324036, 0.18923364579677582, -0.14216479659080505, -0.035620901733636856, 0.10129839181900024, 0.08042227476835251, 0.16714292764663696, -0.05373011529445648, -0.1943812221288681, -0.1369570791721344, -0.13517868518829346, -0.2293616384267807, -0.4707592725753784, -0.5074813961982727, 0.05004483461380005, -0.6268594264984131, -0.20284715294837952, 0.3687712252140045, 0.4254494905471802, -0.4382342994213104, -0.48410868644714355, -0.0735173225402832, 0.24644328653812408, 0.2721211016178131, -0.24428468942642212, -0.19109845161437988, 0.06040262058377266, 0.10957279056310654, 0.5079411268234253, -0.00035871067666448653, 0.17579668760299683, -0.07328419387340546, -0.16038309037685394, -0.4133625030517578, 0.33446067571640015, -0.44351139664649963, 0.39413902163505554, -0.017030509188771248, -0.3888210356235504, -0.1325439065694809, 0.005714430473744869, -0.13191653788089752, -0.23877793550491333, 0.1186160147190094, -0.19686241447925568, 0.44411757588386536, 0.3385535180568695, 0.14924481511116028, -0.15282711386680603, -0.1947794258594513, -0.22795267403125763, -0.09309518337249756, -0.1932109296321869, -0.06576912105083466, -0.19927561283111572, -0.3021221160888672, -0.011648651212453842, -0.08640316873788834, 0.022161006927490234, -0.3719339668750763, 0.2401793897151947, 0.26946884393692017, -0.31624114513397217, 0.5920649170875549, 0.35213515162467957, 0.08944038301706314, -0.11283028870820999, 0.20529866218566895, -0.07775754481554031, 0.23059150576591492, -0.20315693318843842, 0.07856033742427826, 0.04890933632850647, -0.03363692760467529, 0.10261781513690948, 0.10417134314775467, 0.1046685203909874, 0.2665000557899475, 0.0981571227312088, 0.0531855933368206, -0.16294772922992706, 0.0888441801071167, -0.022727789357304573, 0.004003444686532021, -0.06469373404979706, 0.01672758162021637, 0.16350474953651428, 0.3475542664527893, 0.034166548401117325, -0.1458703726530075, 0.1091119647026062, 0.017388341948390007, 0.12980709969997406, -0.015923038125038147, 0.02194870449602604, -0.1508244127035141, -0.1553526073694229, -0.051114048808813095, 