{"version": "0.5.4", "metadata": {"date": {"year": 2026, "month": 4, "day": 2, "hour": 14, "minute": 27, "second": 37}, "loudness": -31.75248146057129, "gain": 0.935409876872762}, "architecture": "WaveNet", "config": {"layers": [{"input_size": 1, "condition_size": 1, "head_size": 6, "channels": 12, "kernel_size": 3, "dilations": [1, 2, 4, 8, 16, 32, 64], "activation": "Tanh", "gated": false, "head_bias": false}, {"input_size": 12, "condition_size": 1, "head_size": 1, "channels": 6, "kernel_size": 3, "dilations": [128, 256, 512, 1, 2, 4, 8, 16, 32, 64, 128, 256, 512], "activation": "Tanh", "gated": false, "head_bias": true}], "head": null, "head_scale": 0.02}, "weights": [-0.09177827835083008, 0.6734703183174133, -0.9776018261909485, -0.9367652535438538, -0.6305235028266907, 0.04218528792262077, -0.1482401192188263, 0.7896023392677307, -0.21344467997550964, 0.3907911479473114, -0.38795745372772217, -0.24301695823669434, -0.07365633547306061, -0.21432487666606903, 0.09312303364276886, -0.25843822956085205, 0.014148695394396782, 0.1935432106256485, 0.15482722222805023, -0.01753395050764084, -0.027584759518504143, 0.4060502350330353, 0.019507672637701035, 0.03410115838050842, 0.23724137246608734, 0.06575260311365128, 0.051283083856105804, -0.3536517322063446, -0.10973569750785828, 0.0904112309217453, 0.18458044528961182, 0.17159901559352875, -0.28089281916618347, -0.3413541615009308, -0.17347899079322815, -0.06686919182538986, 0.1606612205505371, 0.15729115903377533, -0.11277791857719421, -0.1795448362827301, -0.03930205479264259, 0.025293881073594093, 0.2805567681789398, -0.11119402945041656, -0.2281918227672577, 0.1686144769191742, 0.13488805294036865, -0.029727883636951447, -0.10086393356323242, 0.26956939697265625, -0.06729254126548767, 0.3822310268878937, 0.005960517097264528, -0.03514964133501053, -0.10814046859741211, -0.04195024073123932, 0.08359795063734055, -0.34881675243377686, -0.05811570957303047, -0.03133204206824303, -0.13940982520580292, 0.13301680982112885, -0.035335034132003784, 0.21338865160942078, 0.02052801288664341, -0.11725416779518127, -0.19585375487804413, 0.11380358785390854, 0.23587526381015778, 0.3785848617553711, -0.1798902451992035, -0.11632441729307175, -0.1491905301809311, 0.23562514781951904, 0.3027392625808716, 0.3597773015499115, -0.026989059522747993, -0.21999651193618774, -0.19136112928390503, -0.04272718355059624, -0.08471959084272385, -0.056031644344329834, 0.20661263167858124, -0.07846296578645706, 0.06840313971042633, -0.32732677459716797, 0.15564604103565216, -0.18766465783119202, 0.15025320649147034, -0.12007956206798553, 0.1768859326839447, 0.003022970864549279, 0.1459520161151886, 0.17764361202716827, -0.24725842475891113, -0.0828060433268547, 0.19227592647075653, -0.05716358870267868, -0.11305715888738632, -0.1629677563905716, 0.2484312653541565, 0.1305120438337326, 0.011453120037913322, -0.14793743193149567, -0.2051410675048828, -0.11775288730859756, -0.049550075083971024, -0.1521337777376175, 0.07499560713768005, -0.09966859966516495, -0.13952487707138062, -0.0055277165956795216, -0.013023529201745987, 0.14689679443836212, 0.2172282338142395, -0.2278076708316803, -0.03277146443724632, 0.10140178352594376, -0.08513721078634262, 0.03356047347187996, -0.10822184383869171, -0.23399963974952698, -0.051953237503767014, 0.44423726201057434, 0.05982975289225578, -0.44783923029899597, -0.4073942005634308, -0.29987117648124695, 0.2910004258155823, -0.5015298128128052, -0.25312307476997375, 0.38701021671295166, -0.47085094451904297, -0.22537744045257568, 0.4767954349517822, 0.28022053837776184, 0.15169550478458405, -0.3502844572067261, -0.29378411173820496, -0.07198823243379593, 0.5598495006561279, 0.4620237350463867, 0.37278491258621216, -0.3569750487804413, -0.5021485686302185, -0.30208730697631836, 0.4931192398071289, 0.34767696261405945, 0.12308517098426819, -0.48480862379074097, -0.5025893449783325, -0.3437405228614807, 0.3221628665924072, -0.26398178935050964, -0.11086402833461761, 0.2055054008960724, 0.07505274564027786, 0.09607300162315369, -0.18900363147258759, 0.24640163779258728, 0.025241408497095108, -0.057122740894556046, -0.4659692347049713, -0.20285671949386597, -0.005630137864500284, -0.314546674489975, -0.134958878159523, 0.08469966799020767, -0.4627932906150818, -0.06553355604410172, 0.17664869129657745, 0.185951367020607, 0.1815614253282547, 0.005053805187344551, -0.44622939825057983, 0.04257933795452118, 0.0717083066701889, 0.23798254132270813, 0.19678647816181183, -0.1572655588388443, -0.287789911031723, -0.09146688133478165, 0.19967465102672577, 0.3519926965236664, 0.13929177820682526, 0.01589064672589302, -0.34148067235946655, -0.08875672519207001, -0.09853901714086533, -0.21004733443260193, 0.09078523516654968, 0.16893556714057922, -0.20027612149715424, 0.3220679759979248, -0.3494107723236084, 0.016343524679541588, -0.15307144820690155, 0.19938574731349945, -0.21249939501285553, 0.04804201424121857, -0.1403006762266159, -0.0057083917781710625, -0.07508353143930435, -0.26208290457725525, -0.2045014202594757, 0.1752544790506363, -0.20306210219860077, 0.22098413109779358, 0.044863298535346985, 0.12800782918930054, -0.08706922084093094, -0.008691919036209583, -0.09210849553346634, 0.07245927304029465, -0.046099040657281876, 0.16434602439403534, -0.1990935504436493, -0.05777377635240555, 0.040439967066049576, -0.03426751866936684, -0.06056046113371849, 0.29695701599121094, -0.04337376356124878, 0.05388902872800827, -0.27877846360206604, -0.012158866040408611, -0.05887742340564728, -0.1758326292037964, -0.3079260289669037, -0.13764464855194092, -0.1368911862373352, 0.18237310647964478, 0.23607078194618225, 0.034223221242427826, 0.052300166338682175, -0.322976291179657, 0.18474648892879486, -0.16453368961811066, -0.287312388420105, 0.1620127409696579, 0.013704578392207623, -0.0904204323887825, 0.06740185618400574, -0.013367926701903343, 0.230411559343338, -0.2909487783908844, 0.14428548514842987, -0.32700029015541077, 0.1851775050163269, 0.01521306112408638, 0.12613865733146667, -0.090658999979496, 0.17284759879112244, -0.22968856990337372, 0.09440916031599045, -0.028492538258433342, 0.04920364171266556, -0.04891474172472954, -0.111895851790905, -0.3164321184158325, 0.028610531240701675, 0.07186904549598694, -0.11609061062335968, 0.26122942566871643, 0.10053562372922897, 0.2810191810131073, 0.16435422003269196, 0.2608230412006378, -0.03067014180123806, 0.10739649087190628, -0.2930574119091034, 0.0868234932422638, -0.22199676930904388, -0.1797606498003006, 0.06998530775308609, -0.21464532613754272, -0.06772048026323318, 0.06104448437690735, -0.08203531056642532, 0.19763946533203125, -0.12172834575176239, -0.05580585077404976, -0.3567284047603607, 0.2491094022989273, -0.07068293541669846, 0.3508022129535675, -0.21184465289115906, 0.11137842386960983, -0.24773162603378296, 0.14446695148944855, -0.11700177192687988, 0.2623925507068634, -0.10325807332992554, 0.056659895926713943, -0.2429613620042801, 0.05469974875450134, 0.05071369931101799, -0.32185399532318115, 0.23972277343273163, -0.11175970733165741, -0.0993453860282898, 0.38215434551239014, -0.23265552520751953, 0.24892111122608185, -0.050998587161302567, -0.03389972820878029, -0.1845371127128601, 0.15128162503242493, -0.027031105011701584, -0.23341785371303558, -0.05503368377685547, -0.1179579645395279, -0.1511131078004837, 0.029914313927292824, -0.022303523495793343, 0.2641087472438812, -0.1780550330877304, 0.0553891621530056, -0.13604922592639923, 0.11404331028461456, -0.026256557554006577, 0.23274105787277222, -0.2059643566608429, 0.1033429205417633, -0.10516960173845291, 0.29290303587913513, 0.05465507134795189, 0.2273101508617401, -0.009973572567105293, -0.006529942154884338, -0.3380869925022125, -0.057630814611911774, 0.09022513777017593, -0.0895058810710907, -0.0052234404720366, -0.0024500852450728416, 0.002022757660597563, 0.5040351748466492, -0.14887702465057373, 0.2619958519935608, -0.21655476093292236, 0.06931927055120468, 0.0007729183998890221, 0.2685007154941559, -0.23245498538017273, 0.01418056059628725, 0.25600799918174744, -0.03967027738690376, -0.23767980933189392, 0.2299356609582901, -0.18492646515369415, 0.21389533579349518, -0.16432544589042664, 0.13441923260688782, -0.09411047399044037, 0.21549586951732635, -0.14188919961452484, 0.21816033124923706, -0.2835271656513214, 0.16344991326332092, -0.22899079322814941, 0.0437343530356884, -0.20118014514446259, 0.2643979787826538, -0.07591034471988678, 0.26888328790664673, 0.007062528748065233, 0.020597202703356743, -0.22845588624477386, -0.1467922329902649, 0.07548744231462479, 0.008344003930687904, 0.04913466423749924, -0.24526315927505493, 0.03435276821255684, -0.19353525340557098, 0.1378646343946457, 0.08651113510131836, 0.22154797613620758, 0.13019217550754547, 0.20144106447696686, 0.058634769171476364, 0.07469330728054047, 0.20095756649971008, 0.15135955810546875, 0.1620587259531021, 0.13296177983283997, 0.07235130667686462, -0.03106190823018551, 0.08289261162281036, 0.0821726843714714, -0.03483825549483299, -0.08603876084089279, -0.1910039484500885, -0.13245709240436554, 0.06412535905838013, 0.1715715378522873, -0.00920130405575037, -0.11632675677537918, 0.04118146747350693, 0.10582797229290009, -0.024326443672180176, 0.007252807728946209, 0.14805059134960175, 0.10421820729970932, -0.04899653047323227, 0.1439635455608368, 0.15600071847438812, -0.07992251962423325, -0.3725343644618988, 0.19059768319129944, -0.007447599899023771, 0.3487570285797119, -0.2890731990337372, -0.13213403522968292, -0.25933727622032166, 0.2556387782096863, -0.045956484973430634, -0.1867801398038864, 0.45589759945869446, -0.009554537013173103, -0.3129650354385376, 0.3071926534175873, 0.11127282679080963, 0.22890979051589966, -0.3835499584674835, -0.04379444941878319, -0.28243720531463623, 0.21179209649562836, 0.07225186377763748, 0.07501751184463501, -0.23289652168750763, 0.09285642206668854, -0.17340776324272156, 0.14514446258544922, -0.04240482673048973, 0.22925975918769836, -0.41366755962371826, 0.06405270099639893, -0.34713003039360046, 0.12412397563457489, -0.1875329166650772, -0.23729492723941803, 0.400005042552948, -0.17288653552532196, 0.18866248428821564, -0.13145266473293304, 0.05016278475522995, 0.01643654704093933, -0.06846202909946442, 0.16364149749279022, -0.019328990951180458, 0.22921697795391083, 0.045785438269376755, -0.16247577965259552, 0.02330699935555458, 0.1274871528148651, 0.4353902041912079, -0.8417949676513672, -0.6262103319168091, -0.9879167079925537, -0.23446598649024963, 0.11777633428573608, -0.7159643769264221, 0.4240984320640564, 0.6767705678939819, 0.07401697337627411, -0.9751774668693542, -0.11408538371324539, -0.25323399901390076, 0.33948174118995667, 0.6761564016342163, 0.055322419852018356, -0.05477563664317131, 0.03354271128773689, -0.37845587730407715, -0.3964745104312897, -0.05688244476914406, -0.06978848576545715, 0.21259066462516785, -0.21097995340824127, -0.12216413766145706, -0.2871965765953064, 0.12350491434335709, -0.02914479933679104, 0.2301853597164154, 0.2208084613084793, 0.1428132802248001, 0.03372666612267494, 0.008540788665413857, -0.061545517295598984, -0.04375956207513809, 0.24242977797985077, -0.32676637172698975, 0.37266188859939575, -0.13014096021652222, -0.33688753843307495, -0.19202342629432678, 0.14555516839027405, 0.14986678957939148, -0.3960886299610138, 0.05399974808096886, 0.2210446298122406, 0.24622376263141632, 0.49927181005477905, -0.38152360916137695, 0.28227630257606506, -0.37539905309677124, -0.4900563955307007, 0.029991446062922478, -0.19307532906532288, -0.12588967382907867, -0.2950872778892517, -0.2697185277938843, 0.2858448028564453, 0.12659341096878052, 0.05169510468840599, -0.18691833317279816, 0.39424318075180054, -0.14004826545715332, -0.09987573325634003, -0.22719360888004303, 0.011254203505814075, -0.4075216054916382, -0.35744717717170715, -0.37411755323410034, 0.413737952709198, 0.12471984326839447, 0.0416538380086422, -0.2097228318452835, 0.40294674038887024, 0.2813155949115753, -0.15260770916938782, -0.22731541097164154, -0.2269667387008667, -0.03233054280281067, -0.148734450340271, -0.30527448654174805, -0.07512836158275604, 0.13311095535755157, 0.07654600590467453, -0.0709957405924797, -0.06661292165517807, -0.9727199673652649, -0.29237693548202515, 0.31283682584762573, -0.3605547547340393, -0.08378808945417404, -0.17549513280391693, 0.3752667009830475, -0.1283966451883316, -0.5646817088127136, 0.4087905287742615, -0.33798548579216003, 0.2706902027130127, -0.43053093552589417, -0.40354758501052856, -0.2230926752090454, 0.21889330446720123, -0.17130853235721588, -0.39291688799858093, -0.3244076669216156, 0.004467024002224207, 0.2691381275653839, -0.165062814950943, 0.22009149193763733, 0.04022353142499924, 0.4675966203212738, 0.477354496717453, 0.03847920894622803, 0.30047500133514404, 0.07109209895133972, -0.16301514208316803, -0.3741714358329773, 0.03044288046658039, 0.47605404257774353, -0.3062385022640228, -0.07169713824987411, -0.05567014589905739, 0.757621169090271, 0.3355771005153656, -0.07381252944469452, -0.020245127379894257, 0.1756882220506668, 0.10997070372104645, -0.024722378700971603, -0.12446378916501999, 0.0399637408554554, 0.10291168093681335, 0.31424465775489807, -0.07469017058610916, 0.06578630954027176, 0.004981953650712967, 0.37087681889533997, 0.1956210434436798, 0.2711363434791565, -0.14464090764522552, 0.280881404876709, 0.11300300061702728, 0.23738916218280792, -0.2002546638250351, -0.2039053589105606, -0.03729461506009102, 0.6194918751716614, -0.20064958930015564, -0.24843139946460724, 0.2068725973367691, -0.2332703024148941, -0.20616842806339264, -0.2111770510673523, -0.016979249194264412, -0.025526585057377815, 0.2349155843257904, -0.012425120919942856, 0.021833833307027817, 0.27623334527015686, 0.1787595897912979, -0.02303054928779602, 0.28225189447402954, 0.033011067658662796, -0.0360618494451046, 0.19288450479507446, -0.009089456871151924, -0.10167048126459122, 0.06845678389072418, -0.03377676010131836, 0.1675996482372284, 0.0015037490520626307, -0.15684960782527924, 0.04838578775525093, 0.07944516837596893, 0.04981290549039841, 0.0012773772468790412, -0.002457133959978819, 0.10198462009429932, -0.07847953587770462, -0.07328740507364273, -0.1423671394586563, -0.1753530502319336, 0.07192473858594894, -0.09125299006700516, 0.0031211930327117443, 0.06372431665658951, 0.21525293588638306, 0.05397384986281395, 0.13483722507953644, -0.12033036351203918, 0.16097158193588257, -0.07916043698787689, -0.07358301430940628, 0.021955696865916252, -0.02182008884847164, 0.17059537768363953, -0.0639755129814148, -0.2598519027233124, -0.18032905459403992, -0.08006101846694946, 0.179169699549675, -0.12286482751369476, -0.01791635900735855, 0.06099102273583412, -0.13196693360805511, 0.12595102190971375, -0.19154053926467896, 0.09843936562538147, 0.18631653487682343, 0.007154154125601053, 0.026309316977858543, -0.12689326703548431, 0.18565119802951813, -0.26849040389060974, -0.05639956519007683, 0.06927527487277985, -0.07479264587163925, 0.07748518884181976, 0.2964632511138916, -0.026095671579241753, 0.10745526850223541, -0.18248160183429718, 0.10517868399620056, -0.20196294784545898, -0.014325467869639397, 0.14178083837032318, -0.10695145279169083, 0.14060446619987488, -0.12500375509262085, 0.2783045768737793, -0.07086370885372162, -0.11381979286670685, 0.1721240133047104, -0.08190995454788208, -0.17878253757953644, -0.20964977145195007, 0.30651405453681946, 0.004762008786201477, -0.00602708850055933, 0.14547137916088104, -0.1851469725370407, 0.0037175239995121956, 0.015794364735484123, 0.006251597311347723, 0.12273057550191879, -0.14894232153892517, -0.05155310407280922, -0.18040893971920013, -0.006300374399870634, -0.08390593528747559, 0.08689065277576447, -0.03833862394094467, 0.008196800947189331, -0.04883508384227753, 0.05811508744955063, -0.11089375615119934, -0.07847503572702408, 0.07230401039123535, -0.09260639548301697, -0.1668429672718048, 0.12249892204999924, 0.19364479184150696, 0.03409121185541153, 0.15399782359600067, -0.21045465767383575, 0.21169234812259674, -0.05014680325984955, -0.08949463814496994, 0.13871903717517853, -0.09598695486783981, -0.276324987411499, -0.23598648607730865, -0.046025656163692474, -0.040821373462677, 0.1599007546901703, -0.05864732712507248, 0.09018244594335556, -0.10463931411504745, 0.20107431709766388, 0.03956325352191925, -0.1317809522151947, 0.006512693595141172, -0.1835053563117981, -0.11373692005872726, 0.001795060932636261, 0.05434124916791916, -0.01761680841445923, 0.044712211936712265, 0.08051695674657822, 0.1275797188282013, -0.16420194506645203, -0.04977674037218094, -0.04539785161614418, 0.12899914383888245, -0.22951561212539673, 0.22637939453125, 0.21744365990161896, -0.10420038551092148, 0.06870094686746597, -0.1999666392803192, 0.29739201068878174, -0.10288210958242416, -0.19846181571483612, 0.1339530050754547, 0.04840853810310364, -0.2579556703567505, 0.24496285617351532, 0.03901177644729614, -0.13653451204299927, 0.04579833522439003, 0.15492942929267883, -0.18017947673797607, -0.0031780991703271866, 0.14358069002628326, 0.028946641832590103, 0.21091386675834656, -0.06619296967983246, -0.0405140295624733, -0.21350309252738953, 0.332966685295105, -0.23112691938877106, 0.07007299363613129, 0.04602426290512085, -0.22886857390403748, 0.041334521025419235, 0.24501372873783112, -0.15405604243278503, -0.3156364858150482, -0.0426020622253418, -0.0366421639919281, -0.285725474357605, 0.310254842042923, -0.08377466350793839, -0.09930485486984253, 0.13751628994941711, 0.4477963149547577, 0.19909141957759857, -0.1753038465976715, 0.05988382548093796, -0.036241888999938965, -0.1733357310295105, 0.09786678850650787, 0.2438436597585678, 0.219999760389328, -0.1001434251666069, 0.18068192899227142, -0.10183119773864746, -0.0753268152475357, 0.22237472236156464, 0.173463374376297, 0.03348230570554733, 0.05981273576617241, -0.06464960426092148, -0.21510641276836395, -0.09090764075517654, 0.15310825407505035, -0.22963692247867584, 0.01928568072617054, 0.20882965624332428, -0.20693281292915344, 0.15366411209106445, 0.10181910544633865, -0.028637105599045753, 0.21785154938697815, 0.049569640308618546, -0.036435190588235855, -0.3028869032859802, 0.10585357993841171, -0.05346790701150894, -0.08131197839975357, 0.11630537360906601, 0.12144256383180618, 0.3167170286178589, -0.006075630430132151, -0.03145579248666763, 0.04827611520886421, -0.18310920894145966, -0.051724087446928024, 0.0011054105125367641, -0.03173620253801346, -0.0035640730056911707, 0.10359489172697067, 0.11550173163414001, 0.1485918015241623, 0.04777470603585243, -0.05530468374490738, -0.024901803582906723, 0.10934479534626007, 0.04630864039063454, 0.12197883427143097, 0.05825504660606384, -0.1305488497018814, 0.10646527260541916, -0.05407892167568207, 0.024836719036102295, 0.07597798109054565, -0.18739578127861023, -0.005979994311928749, -0.045700687915086746, -0.07900183647871017, -0.15931913256645203, -0.02758035622537136, 0.17660993337631226, 0.15856224298477173, 0.2978064715862274, 0.21804960072040558, -0.17980749905109406, 0.15867818892002106, -0.44531941413879395, 0.13401414453983307, -0.0024730113800615072, -0.1839863657951355, 0.12419727444648743, -0.006408969406038523, 0.13021473586559296, -0.310850590467453, 0.09603004157543182, -0.10516161471605301, -0.040191732347011566, -0.05335601046681404, 0.029963916167616844, -0.11106225103139877, 0.005651514977216721, -0.17168667912483215, -0.3546420931816101, -0.10997536033391953, 0.28220051527023315, 0.3520869016647339, 0.036667920649051666, 0.17920757830142975, 0.04581822082400322, -0.07981439679861069, 0.2969791889190674, 0.12082571536302567, 0.20087042450904846, 0.11148776859045029, 0.387513130903244, -0.24636872112751007, 0.13786308467388153, -0.157373309135437, -0.11750174313783646, 0.05110069736838341, 0.45231327414512634, 0.2871659994125366, 0.42687347531318665, -0.15771929919719696, 0.10621517896652222, 0.12513896822929382, -0.13580648601055145, 0.11375264823436737, -0.028677914291620255, 0.30587926506996155, 0.0020563267171382904, 0.14223963022232056, 0.1878678798675537, 0.022570697590708733, 0.0909651517868042, 0.18981029093265533, 0.2015220671892166, 0.0185202956199646, -0.04089777171611786, -0.0365312434732914, -0.09289174526929855, 0.021782025694847107, -0.21709248423576355, -0.27493032813072205, 0.08928447961807251, 0.047939885407686234, -0.2785816192626953, 0.04999280348420143, -0.1806706041097641, 0.08289482444524765, 0.07143539935350418, 0.3900628387928009, -0.3269471228122711, -0.1765032708644867, 0.1127195805311203, 0.19742615520954132, 0.05386154353618622, 0.2267543077468872, -0.1326797753572464, 0.27794376015663147, -0.07378271967172623, 0.0465800017118454, -0.07337111234664917, -0.4248236119747162, -0.029498416930437088, -0.43932080268859863, -0.06707162410020828, -0.11932870745658875, -0.12877272069454193, -0.08800813555717468, 0.021572349593043327, 0.047580696642398834, 0.10811934620141983, -0.048346567898988724, -0.27809596061706543, -0.05762701481580734, 0.015131166204810143, 0.20578792691230774, -0.24035674333572388, -0.020538711920380592, 0.17928653955459595, -0.3029848039150238, 0.020954350009560585, 0.3374302089214325, -0.33481013774871826, -0.18038250505924225, 0.17006909847259521, 0.13015705347061157, -0.5720286965370178, -0.0634794607758522, -0.02748916484415531, -0.146153524518013, 0.2363211214542389, 0.309913694858551, 0.6100661158561707, -0.15044614672660828, -0.0019566838163882494, 0.23863205313682556, 0.022032588720321655, -0.1434837132692337, -0.01976289041340351, 0.03608107566833496, -0.18657326698303223, 0.25779762864112854, 0.11149944365024567, 0.13757599890232086, -0.052318036556243896, -0.0442914180457592, -0.05255505442619324, -0.019954362884163857, 0.07155907899141312, 0.05449286475777626, 0.09655331820249557, 0.055372849106788635, -0.002553085796535015, 0.04960378631949425, 0.044375449419021606, 0.10775146633386612, -0.13352903723716736, 0.04524907469749451, -0.000706964114215225, -0.06609783321619034, -0.10095873475074768, 0.09896498173475266, -0.0249563567340374, 0.013668098486959934, 0.11850347369909286, -0.12001214176416397, -0.18925714492797852, -0.01631825417280197, -0.1923905313014984, 0.09915081411600113, 0.08794835209846497, 0.07976540923118591, -0.07848969101905823, -0.12690158188343048, 0.2258806973695755, 0.04295320808887482, -0.03350037708878517, -0.12333804368972778, 0.03523477911949158, 0.22232620418071747, -0.18754179775714874, -0.1432206928730011, 0.018325015902519226, 0.06511638313531876, -0.058184120804071426, -0.06947512179613113, -0.031742241233587265, -0.18852046132087708, 0.15212251245975494, 0.015000849030911922, -0.08580318093299866, 0.08049895614385605, -0.17970269918441772, -0.08217122405767441, 0.12991124391555786, -0.19142134487628937, -0.061969149857759476, -0.34187865257263184, 0.34366148710250854, -0.17752927541732788, 0.29137253761291504, 0.10382329672574997, -0.17205332219600677, 0.05323899909853935, -0.21752020716667175, 0.27203747630119324, 0.1341845989227295, -0.28488197922706604, 0.21743714809417725, -0.053770583122968674, 0.03873972222208977, -0.04776925966143608, 0.21426023542881012, -0.22729411721229553, -0.02812262997031212, 0.26057320833206177, -0.06796491891145706, 0.13520434498786926, -0.00022279958648141474, -0.06584253907203674, 0.10239741206169128, 0.09354200214147568, 0.02536851167678833, -0.053670525550842285, -0.17786450684070587, 0.05488980934023857, -0.2071712464094162, 0.6039488911628723, 0.8049024343490601, 0.4047113060951233, 0.011403616517782211, 0.31616711616516113, -0.8129217028617859, 1.1816595792770386, -0.9003629684448242, -0.8481664657592773, -0.5078394412994385, 0.9299606680870056, 0.32612088322639465, 0.11941652745008469, -0.43985068798065186, -0.06806251406669617, -0.2549137771129608, 0.1013868972659111, 0.3596244752407074, -0.1723824292421341, 0.01095315907150507, -0.20145395398139954, 0.510566234588623, -0.22764775156974792, -0.07100376486778259, 0.1035311222076416, 0.2575909197330475, -0.13221140205860138, -0.2732606530189514, -0.07649675756692886, -0.26991933584213257, 0.024534201249480247, 0.07118074595928192, -0.17947423458099365, -0.30046525597572327, 0.16302761435508728, 0.2574746012687683, -0.21351000666618347, 0.2110559493303299, 0.006648067384958267, -0.08183635771274567, 0.060765575617551804, -0.03734281286597252, -0.032169513404369354, -0.36565926671028137, 0.06855791062116623, -0.053405873477458954, -0.18639107048511505, -0.10405849665403366, 0.09930794686079025, -0.1444290280342102, -0.13748972117900848, -0.14237606525421143, -0.15550820529460907, -0.298724889755249, -0.07897636294364929, -0.2469584196805954, -0.32042428851127625, -0.05837162584066391, -0.06087687984108925, -0.23231886327266693, 0.1954159140586853, -0.3365674316883087, -0.2167658656835556, 0.08216088265180588, -0.11413323134183884, 0.42731595039367676, -0.2185797095298767, -0.14458872377872467, 0.038179732859134674, 0.3177391290664673, 0.14910727739334106, -0.44056129455566406, -0.12655551731586456, -0.06088278815150261, -0.2735174596309662, -0.011098097078502178, 0.2729107737541199, -0.09579459577798843, -0.18657787144184113, -0.3331831395626068, 0.2364097684621811, 0.31551268696784973, 0.02599456161260605, -0.4313112199306488, -0.04687432199716568, -0.23250696063041687, -0.025763820856809616, -0.11554935574531555, -0.0075597441755235195, 0.2395632416009903, -0.22984027862548828, 0.09554974734783173, -0.34881293773651123, 0.13349129259586334, -0.2427286058664322, 0.11203456670045853, -0.04400581121444702, -0.14238275587558746, -0.14554350078105927, -0.15381452441215515, -0.24542269110679626, -0.17617559432983398, -0.06571117043495178, 0.16842976212501526, -0.2990711033344269, -0.13494868576526642, -0.20853383839130402, -0.11700905859470367, 0.16343654692173004, -0.05953864008188248, -0.030107835307717323, -0.02699444256722927, -0.08023780584335327, -0.12084872275590897, 0.3210158944129944, -0.4515951871871948, -0.08072512596845627, -0.633911669254303, 0.07443246990442276, 0.2839847207069397, 0.0753367468714714, -0.08848286420106888, 0.0735791027545929, 0.015115289948880672, 0.3885321021080017, 0.27168500423431396, 0.1219540387392044, -0.2272569239139557, 0.3174228370189667, 0.19102220237255096, 0.2129596471786499, -0.06231549382209778, 0.09149247407913208, 0.47042933106422424, 0.3277626931667328, -0.22574038803577423, -0.1859591156244278, -0.2679999768733978, -0.024285944178700447, 0.45664340257644653, 0.0803014412522316, -0.10446289926767349, 0.008713440969586372, -0.04653933271765709, 0.1140940934419632, -0.2170524150133133, -0.2159305065870285, -0.37966886162757874, 0.047384750097990036, 0.087273009121418, -0.08757223933935165, -0.0848880410194397, -0.02168254554271698, -0.39384642243385315, 0.01040833629667759, 0.12690122425556183, 0.1384878307580948, 0.2320844680070877, -0.26368066668510437, 0.19839376211166382, 0.26541227102279663, -0.21373815834522247, 0.2821485698223114, 0.2877277433872223, 0.04395948722958565, -0.058708880096673965, 0.010714201256632805, -0.05972996726632118, -0.10191348195075989, -0.21562199294567108, 0.11313342303037643, -0.12417677044868469, -0.07415129244327545, -0.19171582162380219, -0.09122099727392197, -0.23045849800109863, 0.12780843675136566, -0.3323686718940735, -0.22620390355587006, 0.07745084911584854, -0.04413367062807083, -0.2615407109260559, 0.15740077197551727, 0.02031051553785801, -0.07898367941379547, -0.05650835856795311, 0.1379566639661789, -0.00032929860753938556, 0.20993216335773468, -0.33862459659576416, -0.02294236794114113, 0.2706144452095032, -0.15202851593494415, 0.11165260523557663, -0.035075727850198746, -0.12831789255142212, 0.056618910282850266, -0.09297247231006622, -0.062448494136333466, 0.15068520605564117, 0.22821179032325745, 0.15769922733306885, 0.012209519743919373, 0.3079763650894165, -0.07621287554502487, 0.23594410717487335, -0.16293537616729736, -0.14317704737186432, -0.14015717804431915, 0.4245615005493164, 0.19428202509880066, 0.2253972440958023, -0.4065476059913635, 0.1184358075261116, 0.17301271855831146, -0.11888276785612106, 0.12480095028877258, 0.1845797747373581, -0.29780057072639465, 0.25945839285850525, 0.38679370284080505, -0.32919618487358093, 0.02222779020667076, 0.19690582156181335, -0.13923956453800201, 0.1011243686079979, 0.034377530217170715, -0.2577924430370331, 0.02232668548822403, -0.34925758838653564, 0.31664708256721497, -0.17027240991592407, -0.12612846493721008, 0.09800180792808533, 0.1217273697257042, 0.1300114095211029, -0.010650488547980785, 0.10402793437242508, 0.07444775849580765, -0.2280016988515854, -0.1365099847316742, -0.16064196825027466, 0.15806668996810913, -0.21400529146194458, -0.044480182230472565, -0.2908700108528137, 0.07952556759119034, 0.24077649414539337, 0.026516493409872055, -0.1502038538455963, 0.1931837499141693, 0.22564615309238434, 0.03307096287608147, 0.002724782796576619, 0.06186450645327568, 0.03559344261884689, -0.157286137342453, 0.1286894679069519, 0.006231792736798525, -0.0762503370642662, 0.004299965687096119, -0.15549609065055847, -0.051923006772994995, 0.03655538707971573, 0.10757989436388016, 0.19221791625022888, -0.10460302978754044, 0.015499161556363106, 0.15635016560554504, -0.13583220541477203, -0.01399578433483839, 0.03906944766640663, -0.02446938119828701, 0.0465865395963192, 0.010741409845650196, 0.18086279928684235, -0.13553446531295776, -0.17571789026260376, -0.18785908818244934, -0.2262454628944397, -0.2451036423444748, 0.08168476819992065, 0.28792136907577515, 0.7901118397712708, 0.6991688013076782, 0.0801725685596466, 0.007945232093334198, 0.21672368049621582, -0.14652584493160248, -0.08858700841665268, -0.049437228590250015, 0.12176896631717682, 0.49531427025794983, 0.3635575473308563, -0.19342665374279022, -0.054669007658958435, 0.024675333872437477, -0.039620205760002136, 0.02015286684036255, 0.0023311537224799395, 0.0038360212929546833, 0.29935458302497864, -0.03734838217496872, 0.12702971696853638, -0.11847147345542908, -0.13037241995334625, -0.10949230939149857, -0.12882189452648163, -0.18519464135169983, 0.17026659846305847, 0.11159706860780716, -0.02171906642615795, 0.23193839192390442, -0.284419447183609, -0.33394134044647217, -0.24298180639743805, 0.08018787205219269, 0.24923491477966309, 0.31190064549446106, 0.07404682040214539, -0.18250039219856262, 0.22699065506458282, -0.014734627678990364, -0.006685017608106136, 0.16361330449581146, 0.08652625232934952, -0.051659807562828064, -0.03822414577007294, 0.19052815437316895, -0.10014913976192474, 0.13720403611660004, -0.06949619203805923, -0.17802079021930695, -0.05257098004221916, -0.17258058488368988, -0.03815390542149544, -0.023541409522294998, -0.00905159953981638, 0.17429856956005096, -0.25827857851982117, 0.0645352452993393, 0.00023595367383677512, 0.08783729374408722, -0.07442961633205414, 0.10397817194461823, 0.3181284964084625, 0.09318340569734573, -0.11016573011875153, 0.04144561290740967, -0.28261831402778625, -0.1766967475414276, 0.013810367323458195, 0.1910434514284134, -0.14470979571342468, -0.16696414351463318, -0.16702143847942352, -0.049289800226688385, -0.14584992825984955, -0.1295919567346573, 0.10593955963850021, -0.11570094525814056, -0.3613644242286682, -0.1506926566362381, 0.025660138577222824, 0.08534304052591324, 0.020063363015651703, -0.0032123199198395014, -0.2610827684402466, 0.1672414243221283, -0.20969410240650177, -0.2760103642940521, 0.3122706115245819, -0.2180212140083313, 0.12793807685375214, -0.168434739112854, -0.2618013024330139, -0.08186207711696625, -0.19455401599407196, 0.0015420453855767846, 0.09314154833555222, 0.08484230190515518, -0.19814224541187286, 0.1659928858280182, 0.19262441992759705, 0.25225698947906494, -0.046747539192438126, 0.10359013080596924, -0.30037909746170044, 0.10892246663570404, -0.007869893684983253, 0.19806626439094543, 0.09095123410224915, -0.1525554209947586, 0.17742885649204254, -0.05152944102883339, -0.28316530585289, 0.10641707479953766, -0.188471719622612, 0.051450349390506744, 0.20214682817459106, 0.05670265853404999, -0.01980099268257618, -0.012935266830027103, -0.016411276534199715, 0.056693121790885925, 0.30514028668403625, -0.0584467351436615, -0.25769516825675964, -0.16590946912765503, 0.00044312787940725684, 0.15065041184425354, -0.06622671335935593, 0.09649637341499329, 0.2538815140724182, 0.037445783615112305, -0.10050327330827713, 0.10554134845733643, 0.2244230955839157, 0.0815020278096199, -0.14213204383850098, 0.09993808716535568, -0.20787180960178375, 0.31255006790161133, 0.23898588120937347, 0.5819999575614929, -0.21718619763851166, -0.3019116222858429, -0.28519928455352783, -0.06701821833848953, -0.18266236782073975, -0.008086195215582848, 0.06324071437120438, 0.15449339151382446, -0.31021514534950256, 0.2613787055015564, -0.15410183370113373, -0.60494464635849, -0.13520947098731995, 0.051872290670871735, 0.1080193892121315, 0.10974802076816559, 0.14077550172805786, -0.07659003138542175, -0.011035056784749031, -0.13479524850845337, 0.0546565055847168, -0.18263313174247742, -0.1442771553993225, -0.013645804487168789, -0.013642510399222374, -0.001827139058150351, -0.0053809648379683495, 0.20612283051013947, 0.020072538405656815, -0.12131164222955704, 0.016667742282152176, 0.2175525575876236, 0.13304251432418823, -0.26794731616973877, -0.08640703558921814, 0.09789872169494629, 0.11321333050727844, 0.35483354330062866, -0.058014996349811554, -0.05442292243242264, 0.20933561027050018, -0.04832381382584572, -0.3110169768333435, 0.0635850578546524, 0.02532280422747135, -0.08193574845790863, -0.035869695246219635, 0.0645996704697609, -0.1273871660232544, 0.1514953374862671, 0.0718812420964241, -0.20639683306217194, 0.347857803106308, -0.011166097596287727, -0.31594523787498474, -0.1678190380334854, 0.15245458483695984, 0.0758383646607399, -0.17507719993591309, 0.11895449459552765, 0.21911858022212982, 0.10706847906112671, 0.06951051205396652, -0.21939346194267273, 0.011300045996904373, -0.08882741630077362, -0.23561231791973114, 0.15002529323101044, 0.25703078508377075, -0.03840561583638191, -0.12116432189941406, 0.12010080367326736, 0.15753115713596344, -0.019961213693022728, -0.21903686225414276, -0.3503726124763489, 0.21076597273349762, -0.12941667437553406, -0.2845594882965088, 0.19415920972824097, -0.006334408186376095, -0.23991334438323975, -0.2040305733680725, 0.03573859855532646, -0.22592341899871826, 0.06291714310646057, 0.16732566058635712, -0.09284421801567078, 0.22727254033088684, -0.016322361305356026, -0.06269638985395432, -0.02446812577545643, -0.1434856802225113, 0.010890756733715534, -0.07320611923933029, -0.031430330127477646, 0.03375691547989845, 0.21544910967350006, 0.10239825397729874, -0.19226153194904327, 0.015373731032013893, 0.21896439790725708, -0.07479299604892731, -0.007549496367573738, -0.13044437766075134, 0.1477787047624588, -0.2624772787094116, 0.19843792915344238, 0.11579153686761856, 0.12357436120510101, -0.1469511240720749, 0.03491152822971344, 0.029697468504309654, -0.057323064655065536, 0.04207112640142441, 0.043520987033843994, -0.1355956643819809, 0.05684589594602585, 0.15599875152111053, -0.19448333978652954, 0.21915042400360107, -0.09825369715690613, -0.05695856362581253, 0.21980758011341095, 0.070799320936203, -0.14614051580429077, 0.10242396593093872, -0.16227403283119202, 0.09827049821615219, -0.17436718940734863, 0.09773276001214981, 0.09778349846601486, 0.019779665395617485, 0.11119729280471802, 0.11657562106847763, 0.018262548372149467, 0.1293209195137024, 0.023254720494151115, 0.05104145035147667, -0.05980448052287102, -0.05808672681450844, -0.09747897833585739, 0.0500534288585186, 0.08672136068344116, -0.048842903226614, -0.24248135089874268, 0.029030969366431236, 0.30195683240890503, -0.5077974796295166, -0.22587566077709198, -0.08387354016304016, -0.2292463481426239, -0.18669700622558594, -0.0715087354183197, -0.13023722171783447, -0.10178373754024506, 0.11477452516555786, -0.015328822657465935, -0.07992321252822876, -0.0026715316344052553, -0.32364025712013245, 0.02818715013563633, 0.24138860404491425, -0.005097371060401201, -0.06577002257108688, -0.12002825736999512, 0.031851183623075485, -0.258955717086792, -0.3538961112499237, 0.0005666642100550234, 0.08446545153856277, -0.06610871106386185, 0.048940304666757584, 0.020457373932003975, 0.28750208020210266, -0.06007794663310051, -0.007833635434508324, 0.029984058812260628, -0.12102101743221283, -0.15851831436157227, -0.1328260898590088, 0.06510413438081741, 0.12334734946489334, 0.12219066917896271, -0.03605083376169205, -0.15828272700309753, -0.29330122470855713, -1.0479844808578491, 0.989407479763031, -0.6066462993621826, -0.5382737517356873, -0.06981614232063293, -0.3908267915248871, -0.6681877970695496, 0.40861281752586365, -0.6137624382972717, 0.6351858377456665, 0.9235047698020935, 0.1115545928478241, 0.13540315628051758, -0.4782481789588928, 0.2172129601240158, 0.3067041337490082, -0.0015698502538725734, 0.33096227049827576, -0.5360655188560486, 0.1432378590106964, -0.09666068106889725, -0.383126437664032, -0.055070098489522934, 0.04060976207256317, -0.01005784422159195, -0.24877670407295227, 0.30297449231147766, -0.04073278605937958, -0.07396382093429565, 0.23299427330493927, 0.17042532563209534, -0.09675878286361694, -0.13118880987167358, -0.2844955623149872, 0.12713226675987244, 0.06022413447499275, 0.1965709775686264, 0.1368955671787262, 0.0628771036863327, -0.35411879420280457, 0.17494294047355652, -0.11530322581529617, -0.06249327212572098, 0.11797522008419037, -0.055421482771635056, 0.14158599078655243, 0.008810198865830898, -0.1701280176639557, 0.04851112887263298, -0.3452172875404358, -0.07186150550842285, 0.179068461060524, 0.26164498925209045, 0.40337201952934265, 0.2839335501194, 0.11599676311016083, 0.23735834658145905, 0.026961132884025574, 0.09513538330793381, 0.32929813861846924, -0.1989404410123825, -0.04070131108164787, 0.1248379498720169, 0.09410687536001205, -0.09320426732301712, -0.039486851543188095, 0.019169148057699203, -0.16813169419765472, -0.17753417789936066, -0.2899684011936188, -0.30574357509613037, 0.19487027823925018, 0.28904661536216736, -0.5508729219436646, 0.07595184445381165, -0.056929297745227814, -0.19203411042690277, -0.1271747201681137, -0.1637403666973114, 0.4088885188102722, -0.19435785710811615, -0.05849149078130722, 0.07283249497413635, -0.1842690259218216, 0.1177435964345932, 0.3266388177871704, -0.07097157835960388, 0.34601157903671265, 0.041578419506549835, -0.12837383151054382, -0.14045080542564392, -0.3408649265766144, 0.02304110862314701, 0.25846317410469055, -0.23851551115512848, 0.551839292049408, -0.18831156194210052, -0.07080811262130737, -0.08427539467811584, 0.17507220804691315, 0.222744420170784, -0.10743149369955063, 0.12032397836446762, -0.09928815066814423, 0.19272473454475403, -0.11190589517354965, -0.25853872299194336, -0.17621879279613495, -0.3173084855079651, 0.4046921133995056, 0.035955291241407394, 0.30332911014556885, 0.15167731046676636, 0.30682340264320374, 0.12466713041067123, -0.17668431997299194, 0.23647932708263397, 0.273452490568161, 0.13067029416561127, 0.10453346371650696, 0.12913623452186584, -0.08387922495603561, -0.12974813580513, -0.1259511113166809, -0.28150293231010437, 0.24777330458164215, -0.5261130332946777, 0.06598984450101852, -0.3890087902545929, 0.08310134708881378, 0.02004949375987053, 0.29384616017341614, -0.038800809532403946, 0.08765776455402374, -0.07051299512386322, -0.1502244770526886, 0.051523953676223755, -0.1875264048576355, -0.16541926562786102, -0.12744969129562378, -0.3626392185688019, -0.05057337135076523, -0.05092257261276245, -0.16272929310798645, -0.40750089287757874, 0.32120975852012634, -0.011671546846628189, 0.16144265234470367, -0.3849928081035614, 0.06034988537430763, -0.32886621356010437, -0.6276085376739502, -0.19955818355083466, 0.023521125316619873, -0.2117316871881485, -0.1536586433649063, 0.29437628388404846, 0.2966376841068268, -0.02276667207479477, 0.2631210684776306, 0.011987016536295414, -0.13053826987743378, 0.045872610062360764, 0.02680276334285736, -0.021152012050151825, -0.2275463193655014, -0.021954013034701347, 0.324819952249527, 0.2545703053474426, -0.007167608477175236, 0.03685840219259262, -0.28443872928619385, 0.13225291669368744, 0.19323672354221344, 0.25577276945114136, 0.016165897250175476, -0.15643081068992615, 0.24754227697849274, -0.010309308767318726, -0.0855632945895195, 0.020642073825001717, 0.14669856429100037, -0.06104066222906113, 0.01583603024482727, -0.08538112789392471, 0.11984926462173462, 0.056349530816078186, 0.01878253184258938, -0.09800942242145538, 0.1663062572479248, 0.1272573620080948, -0.3038242757320404, -0.0397670641541481, 0.061990346759557724, 0.1069004237651825, -0.12255242466926575, 0.06701966375112534, 0.1246151402592659, -0.05583525076508522, -0.07920560240745544, 0.03999171406030655, -0.1065983772277832, -0.10179280489683151, -0.28103166818618774, 0.05173397436738014, -0.007060132920742035, 0.09164726734161377, -0.2919985055923462, -0.11789988726377487, 0.11353300511837006, 0.18836872279644012, 0.20993347465991974, -0.023881951346993446, 0.094926618039608, -0.21511206030845642, -0.25422999262809753, -0.00288919429294765, 0.10389616340398788, 0.033497460186481476, -0.06635741889476776, 0.16004198789596558, 0.08963683247566223, -0.017944050952792168, 0.08674880117177963, -0.015371897257864475, 0.10541794449090958, 0.042592715471982956, -0.15539777278900146, -0.25487470626831055, -0.055581290274858475, -0.02560564875602722, -0.3335544466972351, 0.06067328155040741, 0.05444544926285744, 0.18571524322032928, 0.3026908040046692, -0.006280029192566872, -0.08697622269392014, 0.1497669368982315, 0.229444220662117, -0.12716129422187805, -0.09778330475091934, 0.15319328010082245, 0.34528928995132446, 0.028093328699469566, -0.0546046644449234, -0.21661140024662018, 0.05650801584124565, 0.23280256986618042, -0.14523473381996155, -0.11908715218305588, 0.06810867041349411, -0.16154271364212036, 0.01368660293519497, 0.2902129292488098, -0.025454403832554817, 0.23472987115383148, 0.2902415990829468, -0.20566268265247345, -0.20175018906593323, 0.03000257909297943, -0.1610417515039444, -0.10395028442144394, 0.1802923083305359, 0.09182363003492355, 0.08165154606103897, -0.14246177673339844, 0.2745955288410187, 0.0702841579914093, -0.4136061668395996, -0.11199704557657242, 0.007971965707838535, 0.3387938439846039, 0.0378379300236702, -0.15401937067508698, 0.03673134371638298, 0.241958349943161, -0.08015251159667969, -0.11740132421255112, -0.06436007469892502, 0.17842987179756165, -0.05221785232424736, 0.15620720386505127, 0.14881531894207, -0.04879498481750488, 0.08884317427873611, -0.17976383864879608, -0.1340082585811615, 0.05853522568941116, -0.1815796047449112, -0.36239293217658997, -0.24637950956821442, 0.03687189519405365, -0.10427667945623398, 0.007678380701690912, -0.1888420283794403, -0.05406637117266655, 0.38441088795661926, 0.008615134283900261, -0.08896848559379578, -0.18626843392848969, -0.06691787391901016, 0.06632297486066818, -0.12152761965990067, 0.0935840830206871, 0.03784984350204468, 0.2441532462835312, -0.08668378740549088, 0.11324431002140045, 0.29158931970596313, -0.11348880082368851, -0.3373565971851349, 0.07415618002414703, -0.223636195063591, -0.10963555425405502, 0.21794113516807556, 0.018185192719101906, -0.0495675764977932, -0.12333591282367706, 0.08563123643398285, 0.20727211236953735, -0.006587535608559847, 0.016301952302455902, 0.18757261335849762, 0.007465326227247715, -0.33419421315193176, -0.058285683393478394, -0.09953022003173828, -0.39495545625686646, 0.07558085769414902, -0.1153087168931961, -0.00895577110350132, -0.11467140913009644, 0.012319943867623806, 0.05643483251333237, 0.08700662106275558, 0.06732423603534698, 0.2978428602218628, -0.10916628688573837, -0.044293615967035294, -0.07132404297590256, -0.13346703350543976, -0.0021036977414041758, -0.14177484810352325, 0.08434954285621643, 0.2554146945476532, 0.025530405342578888, -0.037472374737262726, -0.013264704495668411, 0.2738542854785919, -0.14497308433055878, 0.4332931339740753, 0.059871334582567215, -0.025374630466103554, -0.22018782794475555, 0.07269930839538574, 0.1761002540588379, -0.15655802190303802, 0.17780840396881104, 0.09905476868152618, -0.08748237043619156, 0.06977696716785431, 0.18925295770168304, 0.040646929293870926, 0.17814067006111145, -0.4347130060195923, 0.03687213733792305, -0.10029732435941696, -0.04526152461767197, -0.19457370042800903, -0.11406054347753525, 0.25857260823249817, -0.007466576062142849, -0.23324018716812134, -0.14034472405910492, 0.15041111409664154, 0.07735701650381088, -0.10134542733430862, -0.15232275426387787, 0.14762546122074127, 0.26481449604034424, 0.015075547620654106, -0.08070835471153259, -0.05759676918387413, 0.0825510323047638, 0.29847198724746704, -0.2316567450761795, -0.1494321972131729, -0.18332180380821228, -0.023282598704099655, 0.019051088020205498, 0.13050228357315063, -0.3331807553768158, 0.1770879477262497, 0.22125357389450073, -0.15092520415782928, 0.06960966438055038, 0.08206453174352646, -0.09655424952507019, -0.031187092885375023, 0.025829775258898735, -0.340885728597641, -0.07619164884090424, 0.2708817422389984, 0.04677586257457733, 0.01517729926854372, -0.021165579557418823, 0.060799550265073776, -0.10737375169992447, -0.14052553474903107, -0.045869920402765274, -0.12940290570259094, 0.12442959100008011, -0.08777906745672226, -0.0020052248146384954, -0.002214048756286502, 0.053770147264003754, 0.04483293369412422, 0.027535151690244675, 0.1123846173286438, -0.17537306249141693, -0.10442575812339783, 0.06287860125303268, 0.13222476840019226, 0.1432759016752243, 0.1506129652261734, -0.06234169378876686, -0.1065964624285698, 0.18615712225437164, -0.0248393714427948, -0.09120611101388931, 0.04437447339296341, -0.05850731208920479, -0.030178207904100418, 0.011889372020959854, 0.1723146140575409, -0.07518284022808075, 0.005698036402463913, 0.0816444531083107, -0.14003512263298035, -0.024208633229136467, 0.006507185287773609, -0.15582133829593658, 0.09938444942235947, -0.11170566827058792, 0.10112735629081726, 0.086404949426651, 0.10462113469839096, 0.15383045375347137, -0.2935854494571686, -0.05958576127886772, 0.004016682039946318, -0.09862302988767624, 0.07502305507659912, -0.3125707507133484, 0.1195705309510231, 0.055698979645967484, -0.24071691930294037, 0.19678255915641785, 0.14550310373306274, -0.12240993976593018, -0.008044015616178513, -0.17573198676109314, -0.1005823165178299, 0.17933708429336548, -0.06381619721651077, -0.021804148331284523, 0.10990400612354279, -0.2467835545539856, -0.12207615375518799, 0.28917384147644043, 0.12190712243318558, 0.21079657971858978, 0.10556640475988388, 0.03451167047023773, -0.2033088058233261, 0.11722062528133392, -0.246956929564476, -0.15003366768360138, 0.10984251648187637, 0.18726800382137299, 0.04383302107453346, -0.18267890810966492, 0.10327748209238052, -0.03979805111885071, -0.14673711359500885, -0.04207116737961769, -0.07940413802862167, 0.05697198957204819, 0.12158682942390442, -0.1406979262828827, 0.0053506591357290745, 0.12090924382209778, -0.050373949110507965, -0.012579700909554958, -0.09963297843933105, 0.16714216768741608, 0.19375348091125488, 0.0738578513264656, -0.16446523368358612, -0.24407333135604858, 0.3010394275188446, 0.07303117960691452, -0.29220980405807495, 0.028154797852039337, 0.06534341722726822, -0.0026067907456308603, -0.0022773693781346083, -0.010005195625126362, -0.011631750501692295, -0.04875127598643303, 0.058638788759708405, -0.032786354422569275, 0.1813136637210846, 0.05722145736217499, -0.054037366062402725, -0.040777336806058884, -0.1373448520898819, -0.06716848164796829, -0.22393469512462616, 0.11594074219465256, 0.09223123639822006, 0.13189038634300232, 0.08178801089525223, -0.11834382265806198, 0.06387513130903244, -0.26080450415611267, 0.07875490188598633, -0.06163633614778519, -0.357817679643631, 0.18890032172203064, -0.02397662028670311, 0.03437799587845802, -0.18682563304901123, -0.027367204427719116, 0.0006085410132072866, 0.10717257112264633, 0.0025736833922564983, 0.03810776770114899, 0.107967309653759, 0.013852003961801529, -0.4089427888393402, -0.004445032216608524, -0.1983869969844818, -0.5257570743560791, -0.3043069541454315, 0.17299972474575043, -0.1581171303987503, 0.2565157115459442, -0.058685239404439926, -0.05367821455001831, 0.16714788973331451, 0.024535102769732475, 0.17796452343463898, -0.23595352470874786, 0.3171598017215729, 0.26379653811454773, 0.0854213610291481, 0.20817208290100098, -0.05230739712715149, 0.12326253205537796, 0.013900192454457283, -0.37662550806999207, 0.13407757878303528, 0.047033634036779404, 0.27438902854919434, -0.2912066876888275, -0.14759764075279236, -0.028235342353582382, 0.06626264750957489, 0.09548478573560715, 0.162123903632164, -0.1505301147699356, 0.21079103648662567, -0.009802591986954212, -0.2577691078186035, 0.20461289584636688, 0.08050422370433807, -0.2898816466331482, 0.13423766195774078, 0.09144116938114166, -0.4516512155532837, 0.2383652925491333, 0.19274967908859253, 0.041869569569826126, -0.026093926280736923, 0.08306535333395004, -0.12103570997714996, -0.0892236977815628, -0.16965463757514954, 0.4096440374851227, -0.07950206845998764, -0.07444682717323303, 0.14880767464637756, 0.10423384606838226, 0.1498064249753952, -0.22045154869556427, -0.12892913818359375, 0.19821995496749878, 0.001738965860567987, 0.06404028087854385, 0.020854933187365532, 0.0205911286175251, 0.00875100027769804, 0.0017640118021517992, 0.1707349717617035, -0.22976869344711304, 0.06899643689393997, -0.08946457505226135, 0.014677293598651886, 0.02997075766324997, -0.08788417279720306, 0.7051078081130981, 0.034705571830272675, 0.2517792284488678, 0.13153980672359467, 0.2768085300922394, 0.4282096028327942, 0.6676472425460815, -0.7810813784599304, -0.4812318682670593, -1.0461013317108154, -0.36321187019348145, 0.7546915411949158, -0.3149780333042145, -0.3325444459915161, 0.47363796830177307, -0.20338723063468933, 0.2459002137184143, 0.13280396163463593, -0.008905384689569473, 0.18071627616882324, 0.2544063627719879, -0.017535261809825897, 0.14738096296787262, -0.6400518417358398, -0.002465037629008293, -0.16831685602664948, -0.15789839625358582, -0.09778915345668793, -0.1730809509754181, 0.21505729854106903, 0.24940069019794464, -0.014059439301490784, -0.25489842891693115, -0.07530193775892258, -0.040633443742990494, 0.3810967803001404, 0.019788077101111412, 0.05018119513988495, -0.0259881392121315, -0.2309374064207077, -0.10995257645845413, -0.49865713715553284, 0.07564395666122437, 0.14221878349781036, -0.06875862181186676, 0.33268868923187256, -0.03256434574723244, -0.14775530993938446, 0.08547069132328033, -0.13029725849628448, -0.03337901458144188, 0.17220905423164368, -0.06318053603172302, 0.3643030822277069, 0.08515078574419022, -0.08176781982183456, 0.2283928245306015, -0.29287344217300415, -0.18749602138996124, 0.052545443177223206, 0.49663281440734863, -0.37391397356987, -0.13382333517074585, 0.16375458240509033, 0.317570298910141, -0.16572482883930206, 0.11388938128948212, 0.1290409117937088, -0.09006468206644058, -0.07292475551366806, 0.27128875255584717, -0.36226460337638855, 0.035713355988264084, 0.22641457617282867, -0.23462103307247162, 0.39112037420272827, 0.4433547854423523, -0.09399376064538956, -0.2229633927345276, -0.19646644592285156, 0.11793162673711777, 0.1525990068912506, -0.022007059305906296, -0.013814091682434082, 0.005582877434790134, -0.2888490557670593, 0.39926984906196594, 0.11692934483289719, 0.28072938323020935, 0.15150459110736847, -0.11058130860328674, -0.08236155658960342, 0.2634844183921814, -0.17149052023887634, 0.03907674178481102, -0.3957597017288208, -0.13070610165596008, 0.19081050157546997, -0.010227044112980366, -0.3434866666793823, -0.2983635365962982, 0.40335768461227417, -0.01118883490562439, -0.2992507815361023, 0.19702203571796417, 0.2692364454269409, -0.25829029083251953, -0.2974633276462555, 0.362432062625885, -0.08598681539297104, -0.3100989758968353, 0.18925036489963531, -0.07549344003200531, -0.0706140547990799, -0.184262216091156, -0.13124091923236847, -0.3364296853542328, -0.03158135339617729, -0.07634963095188141, 0.5331162214279175, 0.0692366361618042, -0.06822317093610764, 0.1324329376220703, -0.08785711973905563, 0.08648835122585297, 0.1428333967924118, -0.33396151661872864, 0.24142958223819733, -0.0028255877550691366, -0.1353997141122818, -0.23674376308918, 0.034305114299058914, -0.20545080304145813, -0.04226512089371681, -0.2407144010066986, -0.3910765051841736, -0.1249973252415657, 0.12173362821340561, 0.15107926726341248, 0.2762116491794586, 0.09733720868825912, 0.18474514782428741, 0.44023868441581726, 0.1851682960987091, 0.3970879018306732, -0.0889710783958435, -0.2572208344936371, 0.06158692017197609, -0.024664852768182755, -0.11550046503543854, 0.1395372748374939, -0.2676248848438263, -0.4342498779296875, 0.21718446910381317, -0.08467994630336761, 0.36779162287712097, -0.2656881809234619, -0.08013178408145905, 0.07042458653450012, 0.07134564965963364, -0.12046380341053009, -0.14177630841732025, 0.16902722418308258, -0.20430922508239746, -0.12288723886013031, -0.16382402181625366, 0.17787329852581024, 0.12727783620357513, -0.022382833063602448, 0.11625494062900543, 0.011627424508333206, -0.23441243171691895, -0.04311005026102066, 0.23370888829231262, 0.1852322518825531, 0.15592479705810547, -0.2702105641365051, 0.2539494037628174, 0.17192243039608002, -0.2924746870994568, 0.017488807439804077, 0.16860701143741608, -0.14271517097949982, 0.03421347960829735, 0.16068939864635468, -0.11451292783021927, -0.22804266214370728, 0.1367817372083664, -0.19198738038539886, 0.09023317694664001, 0.030830232426524162, -0.22758834064006805, -0.11994766443967819, -0.18176889419555664, 0.24215629696846008, -0.14723509550094604, -0.1151290014386177, 0.14459586143493652, -0.05489518493413925, 0.10751452296972275, 0.06273913383483887, 0.30535510182380676, -0.1029830276966095, -0.15973292291164398, 0.015483478084206581, 0.007480161730200052, -0.24534577131271362, -0.06353170424699783, -0.19413062930107117, -0.23563092947006226, -0.31437209248542786, -0.14704324305057526, -0.025653395801782608, -0.2854974567890167, 0.041669316589832306, 0.2155563235282898, -0.4816046953201294, 0.08638018369674683, 0.19124522805213928, 0.07297969609498978, -0.08083605021238327, 0.3735458552837372, 0.061449237167835236, 0.22747819125652313, -0.029220150783658028, -0.09787062555551529, -0.10808074474334717, -0.026628805324435234, -0.010859396308660507, 0.2504615783691406, 0.03693683072924614, -0.07160469144582748, 0.07686629146337509, -0.2216925024986267, -0.012209514155983925, -0.4097374677658081, -0.168163001537323, -0.0533573217689991, -0.021188344806432724, 0.14716851711273193, -0.08152536302804947, 0.32938069105148315, 0.16568277776241302, -0.013601038604974747, -0.0349910594522953, 0.1954861432313919, -0.07575372606515884, -0.037588778883218765, -0.06918880343437195, -0.3812400698661804, -0.1572415828704834, -0.27808651328086853, -0.3953217566013336, 0.016943570226430893, 0.1976248174905777, 0.1371256411075592, 0.025800717994570732, 0.09271024167537689, -0.10137932747602463, 0.07092941552400589, -0.27084457874298096, -0.12759706377983093, 0.18645840883255005, 0.14650273323059082, -0.15538166463375092, -0.04901187866926193, 0.14935119450092316, -0.005647201091051102, -0.1553093045949936, -0.19577904045581818, 0.022081168368458748, -0.06945771723985672, -0.0077009000815451145, -0.22727321088314056, -0.048179980367422104, 0.20030200481414795, 0.005000149365514517, 0.5924994945526123, -0.05209100991487503, 0.22587232291698456, 0.07370654493570328, 0.15222115814685822, -0.1977595090866089, 0.0002244975185021758, -0.04599864035844803, -0.07491123676300049, 0.373181015253067, 0.11284264177083969, -0.3716624975204468, 0.0504666306078434, -0.1684395670890808, -0.01417934987694025, -0.18117022514343262, 0.055111367255449295, 0.17664361000061035, 0.27901020646095276, -0.04533492773771286, -0.08457767963409424, 0.2638825476169586, 0.20926351845264435, -0.004221351817250252, -0.2700170874595642, -0.1763378381729126, 0.3118707537651062, 0.1876876950263977, -0.13881701231002808, -0.16384653747081757, -0.004291553981602192, 0.14639951288700104, -0.20306089520454407, -0.14739708602428436, 0.012812876142561436, 0.15916092693805695, -0.07209412008523941, -0.11708644777536392, -0.27112072706222534, -0.08736862242221832, -0.23943191766738892, -0.03738170117139816, 0.0498962365090847, -0.1551845818758011, 0.3468753397464752, -0.20249250531196594, -0.20025485754013062, 0.2172711044549942, -0.2137555330991745, -0.1331651359796524, 0.002727746032178402, 0.19320176541805267, 0.11826231330633163, 0.08748213201761246, -0.2399456650018692, -0.2229624092578888, -0.026784289628267288, 0.06540616601705551, -0.22972804307937622, -0.01662156544625759, 0.003551532281562686, -0.08008130639791489, -0.11313045024871826, -0.12896445393562317, 0.12431076914072037, 0.027023199945688248, 0.15454068779945374, -0.034505054354667664, 0.28264951705932617, 0.019923435524106026, -0.16043637692928314, -0.10163810104131699, 0.1200079396367073, -0.03913075849413872, -0.08449070155620575, -0.03613090515136719, 0.329252153635025, 0.12061993777751923, 0.157270148396492, -0.18672174215316772, 0.12370738387107849, 0.08615301549434662, 0.01576620526611805, 0.11695847660303116, -0.08966738730669022, -0.1767604649066925, 0.09515231102705002, 0.05108391493558884, -0.11550336331129074, 0.04146166518330574, 0.04924216866493225, -0.06889792531728745, 0.17805413901805878, 0.183286651968956, -0.1695675104856491, -0.021900396794080734, 0.0842546820640564, 0.03606809675693512, -0.19296438992023468, -0.01235291175544262, 0.18022118508815765, 0.0850188210606575, 0.03782949224114418, -0.01825844496488571, 0.11952212452888489, -0.1394692361354828, -0.16266845166683197, 0.24697452783584595, 0.0732269436120987, 0.35509443283081055, 0.31022021174430847, -0.18166255950927734, -0.35621219873428345, -0.3340606093406677, -0.02541474439203739, 0.050681617110967636, -0.14667794108390808, -0.15302768349647522, 0.18652239441871643, -0.3284350037574768, -0.10219000279903412, 0.3392036557197571, -0.17178957164287567, 0.06006794795393944, 0.2125261127948761, 0.26625606417655945, 0.17027880251407623, 0.2029687911272049, -0.26099154353141785, 0.010602446272969246, 0.3319597840309143, 0.0638185366988182, 0.01714511029422283, -0.32530489563941956, 0.1090773195028305, -0.04090949147939682, -0.08327877521514893, -0.1687740683555603, -0.04641193524003029, 0.10871472209692001, -0.2177409827709198, -0.20115405321121216, -0.11525949090719223, -0.13156329095363617, 0.9006802439689636, -0.48101091384887695, 0.11377574503421783, -0.06494683027267456, 0.14914998412132263, -0.46942058205604553, -0.034061528742313385, -0.09013593196868896, 0.14450223743915558, 0.22004899382591248, 0.2542520761489868, -0.233210489153862, -0.260987251996994, -0.4985105097293854, -0.2987050414085388, -0.4790014922618866, -0.31788936257362366, 0.049111686646938324, 0.1916172206401825, 0.027781518176198006, -0.17383605241775513, 0.3760002851486206, 0.12261533737182617, -0.15094587206840515, -0.5269644260406494, 0.14752301573753357, 0.41568228602409363, -0.0009244470275007188, -0.4081854820251465, -0.20076264441013336, -0.07664721459150314, 0.2449408322572708, -0.31398624181747437, -0.23855842649936676, 0.1450691819190979, 0.008177724666893482, 0.03480842337012291, -0.09920430183410645, -0.04624238237738609, -0.1769712120294571, -0.12220612913370132, -0.13405217230319977, 0.13395753502845764, 0.18309828639030457, 0.03342583775520325, -0.08153757452964783, 0.05292077362537384, 0.0344073586165905, -0.08688408136367798, 0.13539521396160126, -0.3374508321285248, -0.06323292851448059, -0.04566628113389015, 0.07633305341005325, 0.352150559425354, -0.09243592619895935, -0.1370263695716858, -0.16558897495269775, 0.1846250593662262, -0.037118565291166306, 0.03723415732383728, -0.08023682236671448, 0.351925790309906, 0.16251593828201294, -0.07921884208917618, -0.007446389179676771, 0.08364944905042648, -0.01060742512345314, 0.0022864541970193386, -0.18510116636753082, 0.3065275549888611, 0.06502357125282288, 0.009628989733755589, -0.29960450530052185, -0.03760353848338127, 0.0005067951278761029, 0.3546314537525177, 0.1863446682691574, 0.19853977859020233, -0.39994725584983826, -0.0026058091316372156, 0.028155410662293434, -0.03720210865139961, 0.145683154463768, -0.06744661927223206, -0.2720741629600525, -0.003887011669576168, -0.16250605881214142, -0.18180395662784576, 0.035535816103219986, -0.29471632838249207, -0.15451523661613464, 0.17977210879325867, 0.2610415518283844, -0.3195923864841461, -0.004207608290016651, 0.005579064134508371, 0.09912974387407303, -0.038566384464502335, -0.1051580160856247, 0.3067432940006256, -0.04672732949256897, 0.017687804996967316, -0.196403369307518, 0.019698655232787132, 0.05588109791278839, -0.17815417051315308, -0.008289651945233345, 0.11602213233709335, 0.26137498021125793, 0.15554532408714294, 0.0896943062543869, -0.3459503948688507, -0.12904387712478638, -0.027823351323604584, 0.1864750236272812, -0.1336299180984497, 0.0596095509827137, 0.20567229390144348, -0.08088202774524689, 0.03615229204297066, 0.2484428882598877, -0.18165983259677887, -0.20696616172790527, -0.15113359689712524, -0.019025588408112526, -0.048448845744132996, 0.17260871827602386, -0.22926825284957886, -0.13816964626312256, 0.18580491840839386, -0.08065567910671234, -0.20551836490631104, -0.5059799551963806, 0.19987957179546356, -0.03741905093193054, -0.26020464301109314, -0.0980672538280487, 0.06866823136806488, 0.036990150809288025, -0.07309398055076599, -0.033503208309412, 0.14745073020458221, -0.00555334473028779, 0.015338328666985035, -0.20582439005374908, -0.0018456963589414954, -0.07839373499155045, 0.14056426286697388, 0.08378321677446365, 0.19922545552253723, -0.0847167819738388, 0.0762961283326149, 0.10817430168390274, -0.18931546807289124, 0.22937582433223724, 0.009438040666282177, 0.07878346741199493, -0.09942903369665146, 0.04467902332544327, 0.08577966690063477, 0.00816144049167633, -0.2711309492588043, 0.02338848076760769, 0.09372085332870483, 0.20370841026306152, -0.23570160567760468, -0.00906163826584816, -0.03679275140166283, 0.38354408740997314, -0.20110836625099182, -0.07769564539194107, 0.12193695455789566, 0.060407012701034546, 0.2368813008069992, 0.06908705085515976, 0.032968565821647644, 0.15098907053470612, 0.16745050251483917, 0.003599477233365178, -0.045991044491529465, -0.1641298234462738, 0.05370698869228363, 0.09931393712759018, -0.07923530042171478, -0.010725193656980991, 0.045303575694561005, 0.1733904927968979, 0.0792691633105278, 0.15554757416248322, 0.06700267642736435, 0.16942624747753143, -0.17223992943763733, 0.19211207330226898, -0.9404999613761902, 0.16977541148662567, -0.27318471670150757, -0.08579706400632858, -1.179692268371582, 0.6659379005432129, -0.8825591206550598, 0.24945713579654694, 0.6946651339530945, -0.16948656737804413, 0.22054308652877808, -0.02083205245435238, -0.07989119738340378, 0.08128321170806885, -0.08775883167982101, 0.26063305139541626, -0.18333449959754944, 0.06646728515625, -0.31135016679763794, 0.009189142845571041, 0.15337879955768585, 0.3054940402507782, -0.007606873754411936, 0.11519427597522736, -0.29641053080558777, 0.253486692905426, -0.15916389226913452, -0.2432989627122879, -0.2172362357378006, 0.28659331798553467, 0.0840533897280693, 0.1940244436264038, -0.007591333705931902, -0.365573912858963, 0.01429417822510004, 0.2055203765630722, 0.23332704603672028, -0.08406366407871246, -0.12010066956281662, 0.20422405004501343, 0.11846259981393814, -0.2455228567123413, -0.03581998869776726, 0.06465407460927963, -0.03651454299688339, -0.03800586611032486, -0.15754002332687378, -0.017822472378611565, 0.12736926972866058, 0.06742411851882935, -0.07990600913763046, 0.15527889132499695, -0.24420446157455444, 0.1296294927597046, -0.08193105459213257, 0.11648909747600555, -0.31609731912612915, 0.2481134533882141, 0.6377297043800354, -0.4635082185268402, 0.021639874204993248, 0.4248577654361725, 0.37618353962898254, 0.22196915745735168, 0.20433427393436432, -0.4387779235839844, 0.4178716242313385, 0.04022216796875, -0.15913015604019165, 0.39315739274024963, -0.2562137246131897, -0.02051026001572609, 0.020163653418421745, -0.012692674994468689, 0.3937336206436157, 0.04419462010264397, -0.08271760493516922, -0.31083327531814575, 0.25322771072387695, -0.2179165631532669, -0.03494492173194885, 0.06770847737789154, 0.2975764572620392, -0.050540659576654434, -0.15995186567306519, 0.05522828921675682, -0.12177169322967529, 0.010767003521323204, -0.2268202006816864, 0.2031707614660263, -0.0253573190420866, -0.06870223581790924, -0.2595665752887726, -0.15096957981586456, -0.09720519930124283, -0.31069305539131165, 0.15278291702270508, 0.002442808821797371, -0.13094674050807953, 0.07180136442184448, 0.1295434832572937, 0.24745683372020721, -0.0886303260922432, 0.2996859848499298, -0.09440267086029053, -0.22183367609977722, 0.399446576833725, -0.26247504353523254, 0.2579927444458008, 0.19277358055114746, -0.19003862142562866, 0.06831108033657074, 0.39358410239219666, 0.1412629336118698, 0.21274204552173615, 0.19886521995067596, -0.14848768711090088, -0.2415686398744583, -0.1271170675754547, 0.23114848136901855, -0.1453937441110611, 0.06438148021697998, -0.17073987424373627, 0.3150576651096344, 0.08615253120660782, 0.18693757057189941, 0.002785056596621871, -0.13555222749710083, 0.2729661762714386, -0.25825291872024536, -0.40760472416877747, 0.2612136900424957, -0.12730015814304352, -0.2765792906284332, -0.04495770111680031, -0.03254333883523941, -0.06062581017613411, -0.1252826601266861, -0.11202196031808853, 0.08301743119955063, 0.12373214960098267, 0.1253506988286972, -0.2862538993358612, -0.12220341712236404, 0.10658228397369385, 0.10363291203975677, 0.3995054364204407, 0.2795006036758423, 0.09719499945640564, -0.2246059626340866, 0.15847927331924438, -0.046647947281599045, -0.09921811521053314, 0.18281111121177673, 0.04436725750565529, 0.021059675142169, -0.14494667947292328, -0.24683475494384766, 0.11177344620227814, 0.18183957040309906, -0.15444743633270264, 0.08741225302219391, -0.021224969998002052, 0.09548401087522507, 0.10983507335186005, 0.13862435519695282, 0.4303056597709656, -0.19779445230960846, 0.025936827063560486, 0.019508425146341324, -0.015835480764508247, -0.0487171895802021, -0.08609570562839508, 0.158231720328331, -0.04194943979382515, -0.0064094276167452335, 0.26185739040374756, -0.26148948073387146, -0.09481041133403778, -0.03075353056192398, -0.22240372002124786, -0.2286478877067566, 0.14371845126152039, 0.08457706868648529, 0.2671906650066376, 0.10309173911809921, -0.12191884219646454, -0.11286761611700058, 0.1817641407251358, 0.22509664297103882, 0.07637561857700348, -0.1987486481666565, 0.222616508603096, 9.494065307080746e-05, -0.23153865337371826, -0.08491256833076477, -0.07257237285375595, 0.16382604837417603, -0.1382097750902176, -0.30668947100639343, 0.29193881154060364, 0.140502467751503, 0.03342605009675026, 0.018340542912483215, -0.15509772300720215, -0.3976479172706604, 0.007720815017819405, 0.12390775978565216, 0.07907431572675705, -0.15379270911216736, 0.07439021021127701, 0.24464428424835205, -0.16295471787452698, 0.1789407581090927, 0.08119282126426697, -0.036954570561647415, -0.09009303897619247, 0.3333824872970581, -0.12050402164459229, -0.0016805288614705205, -0.21017739176750183, 0.07871755212545395, 0.08237988501787186, -0.09239224344491959, -0.05236877501010895, 0.24088938534259796, 0.1919223517179489, 0.27449744939804077, 0.16429798305034637, 0.10452818870544434, 0.10634540021419525, -0.1606379896402359, -0.09285195171833038, -0.27905723452568054, 0.3656855821609497, 0.34533223509788513, -0.013487630523741245, 0.0132449334487319, -0.014766053296625614, -0.17350530624389648, 0.12846563756465912, -0.019276726990938187, -0.30020949244499207, 0.003488825401291251, 0.15005914866924286, -0.21062873303890228, -0.038690052926540375, 0.09639027714729309, -0.5409513115882874, 0.18222811818122864, 0.3315977156162262, -0.14833304286003113, 0.16667205095291138, 0.16780252754688263, 0.14972087740898132, -0.01548910140991211, 0.1729944795370102, -0.12443582713603973, 0.17295719683170319, 0.2575421631336212, -0.2277410328388214, 0.017516860738396645, 0.1745370477437973, 0.26780661940574646, -0.06217646971344948, -0.12311024218797684, 0.17173165082931519, -0.07870570570230484, -0.11200615763664246, -0.2701435983181, 0.2160181701183319, 0.34848752617836, -0.20073910057544708, -0.03415282070636749, -0.04539380967617035, -0.17361700534820557, 0.021002361550927162, -0.12228673696517944, 0.3099559545516968, -0.009502443484961987, 0.10772770643234253, -0.35746094584465027, 0.04473089426755905, 0.18888206779956818, -0.25468239188194275, 0.24722497165203094, 0.21112407743930817, 0.14299054443836212, 0.0012693700846284628, 0.12295082211494446, 0.36433055996894836, -0.10958623141050339, -0.24017234146595, -0.14549195766448975, 0.014339933171868324, 0.0728173702955246, -0.47174879908561707, -0.12536226212978363, -0.14781692624092102, 0.1688174158334732, -0.2280759960412979, -0.1411641240119934, 0.20333436131477356, 0.21750783920288086, 0.22988900542259216, -0.22927075624465942, 0.14723658561706543, 0.08472619950771332, -0.04492179676890373, 0.07538122683763504, -0.0014476150972768664, 0.1429063379764557, 0.22146442532539368, -0.2426329255104065, -0.1212807223200798, 0.050027087330818176, 0.25559693574905396, -0.12476569414138794, -0.0344337522983551, 0.2921798527240753, -0.08568719774484634, 0.10507331788539886, 0.052134919911623, -0.13343669474124908, -0.22115127742290497, -0.33109983801841736, -0.19927768409252167, 0.09681252390146255, -0.01035095565021038, -0.022944001480937004, 0.008104900829494, 0.4408291280269623, -0.023149775341153145, 0.29624101519584656, -0.10645532608032227, 0.0905313640832901, 0.2658240497112274, -0.08669646084308624, -0.0653952807188034, -0.1413109004497528, 0.37366580963134766, -0.08507189154624939, -0.006112424191087484, 0.23669147491455078, -0.09994078427553177, -0.11370166391134262, -0.4685223698616028, 0.27478617429733276, -0.1803380697965622, -0.08803690969944, 0.16822507977485657, 0.009076730348169804, 0.013271437957882881, -0.1277458667755127, -0.02916652522981167, -0.2048685997724533, 0.012278403155505657, 0.37562480568885803, 0.21483804285526276, -0.19034644961357117, 0.15486693382263184, 0.03151986747980118, 0.08371374756097794, -0.24281466007232666, -0.24668031930923462, 0.13080599904060364, 0.08231841772794724, -0.1698736846446991, -0.3377053439617157, -0.28159740567207336, 0.20793236792087555, -0.17534302175045013, -0.33597564697265625, -0.13574647903442383, 0.38499441742897034, -0.020651541650295258, 0.018937360495328903, -0.34618693590164185, 0.3609146475791931, 0.38654735684394836, -0.33880946040153503, 0.21493299305438995, 0.019511593505740166, 0.20792852342128754, 0.05857441574335098, 0.02504960261285305, -0.02614644356071949, 0.14075374603271484, -0.04885181412100792, -0.05147093906998634, -0.0017240726156160235, -0.06893759965896606, 0.4172954559326172, 0.19903627038002014, 0.051793165504932404, 0.11513420939445496, 0.08373761177062988, 0.06866421550512314, 0.28729894757270813, -0.057767290621995926, 0.0802326500415802, 0.2067217379808426, 0.19729258120059967, -0.055281370878219604, 0.20779475569725037, -0.4993317425251007, -0.13874585926532745, -0.18065932393074036, -0.33398014307022095, -0.13614444434642792, -0.11069425195455551, 0.22396358847618103, -0.11230403929948807, 0.1586630642414093, 0.07073861360549927, 0.12227040529251099, 0.1954694539308548, -0.14281542599201202, -0.033698324114084244, 0.10124732553958893, -0.028832197189331055, -0.06694196164608002, -0.12451186031103134, 0.052804600447416306, 0.14430467784404755, 0.010879207402467728, -0.20925217866897583, -0.22134384512901306, -0.10519956052303314, -0.023221394047141075, -0.45930567383766174, -0.09884049743413925, -0.059532444924116135, 0.17541465163230896, -0.09084412455558777, -0.14744222164154053, -0.20353606343269348, -0.0439399890601635, 0.023349642753601074, 0.05395900085568428, -0.12077756226062775, -0.2201685905456543, -0.40769317746162415, -0.04631641507148743, 0.02095554955303669, -0.16878095269203186, 0.0675225704908371, 0.06845709681510925, 0.2181650549173355, -0.02316652424633503, -0.16949020326137543, -0.14799347519874573, -0.0442635640501976, -0.04514006897807121, -0.12230301648378372, -0.3005319833755493, -0.12249214947223663, -0.10231103748083115, 0.04843495041131973, -0.06118880212306976, -0.07708251476287842, -0.3652392029762268, -0.06256736069917679, 0.13465707004070282, -0.2764841616153717, 0.1385410726070404, 0.06349111348390579, 0.3237587809562683, 0.08662863820791245, 0.2182879000902176, 0.5948343873023987, -0.2156369686126709, -0.11013571918010712, -0.07319659739732742, 0.22691114246845245, 0.15913009643554688, -0.37575510144233704, -0.1759674847126007, -0.17185136675834656, 0.4645235538482666, -0.09891630709171295, -0.022130975499749184, 0.26779937744140625, -0.06275426596403122, 0.04300374165177345, -0.4404476284980774, 0.12026429176330566, 0.2198326289653778, -0.13552066683769226, -0.0641290470957756, 0.2954699397087097, -0.06929081678390503, 0.025111142545938492, 0.10379795730113983, 0.023281404748558998, -0.049299560487270355, -0.3740617632865906, -0.05850068852305412, 0.015809154137969017, -0.22157220542430878, 0.28227800130844116, 0.0315823033452034, -0.004166035912930965, 0.032959986478090286, 0.17570897936820984, -0.008577808737754822, 0.24431279301643372, -0.13483577966690063, 0.09287649393081665, 0.2104804515838623, -0.06756188720464706, -0.3988504111766815, 0.009749570861458778, -0.3901367783546448, -0.23537586629390717, 0.05333686247467995, -0.28509730100631714, 0.3286459147930145, -0.015485369600355625, 0.15939146280288696, 0.1044960618019104, -0.004000002518296242, 0.22021399438381195, -0.1718655526638031, 0.13680410385131836, -0.15462085604667664, 0.2306697517633438, -0.01669863983988762, 0.060809772461652756, 0.28382164239883423, -0.07316162437200546, -0.06361900269985199, -0.2877596616744995, 0.13822034001350403, 0.1425779014825821, -0.1177821084856987, -0.09418343007564545, 0.10450974106788635, 0.18930326402187347, -0.24232117831707, 0.11210867762565613, -0.10830513387918472, -0.13148874044418335, -0.1688546985387802, 0.06519286334514618, -0.012243524193763733, 0.10431234538555145, 0.014456596225500107, 0.0746777355670929, -0.22581899166107178, -0.1955353021621704, 0.21370132267475128, -0.21525347232818604, -0.062216609716415405, 0.04041421785950661, -0.006999166216701269, -0.14038601517677307, -0.02354356087744236, 0.001503856386989355, -0.11581260710954666, -0.21897698938846588, 0.04693173989653587, 0.03233307972550392, 0.023788681253790855, -0.11295460164546967, -0.22291100025177002, -0.1747409701347351, 0.011352816596627235, 0.027760514989495277, -0.022642089053988457, -0.030763743445277214, -0.018272722139954567, -0.07260540127754211, 0.269462913274765, 0.05608050525188446, 0.05223957449197769, -0.0032738405279815197, 0.14041532576084137, -0.0863288938999176, -0.19356216490268707, -0.18086083233356476, -0.17820857465267181, 0.057757627218961716, -0.10858194530010223, 0.011206810362637043, -0.04382922872900963, 0.3162550628185272, -0.011176259256899357, -0.10367626696825027, 0.04005855321884155, 0.23875410854816437, -0.16673290729522705, -0.038196634501218796, 0.005671952851116657, 0.18964990973472595, 0.12446226179599762, -0.2837224006652832, -0.04271826520562172, 0.07803485542535782, 0.19615444540977478, -0.00907551683485508, 0.059341784566640854, -0.06514182686805725, -0.10523206740617752, 0.030462948605418205, -0.10113359242677689, -0.15513981878757477, 0.05246076360344887, 0.021437915042042732, -0.6970651149749756, 0.06123515963554382, 1.0867592096328735, 0.24189788103103638, 1.0832030773162842, 0.8174494504928589, -0.9503412842750549, -0.30088064074516296, -0.3039604127407074, 0.39507925510406494, 0.0017811940051615238, 0.835258424282074, 0.046081867069005966, -0.24466097354888916, -0.2686782777309418, -0.23673486709594727, -0.20043285191059113, 0.2724893391132355, -0.10163564234972, -0.11148828268051147, -0.17872440814971924, 0.25649845600128174, -0.02097455970942974, -0.31566545367240906, -0.11427594721317291, 0.22462493181228638, -0.16818378865718842, -0.18845586478710175, -0.2660457491874695, 0.06773725152015686, -0.09711293131113052, 0.06506668031215668, 0.10987769812345505, 0.11442238092422485, 0.06054630130529404, -0.17136630415916443, 0.18919791281223297, 0.14906638860702515, -0.37536048889160156, -0.18949231505393982, 0.24169303476810455, -0.03085235320031643, 0.04710198566317558, -0.10196676850318909, -0.11316623538732529, -0.26634514331817627, -0.17648926377296448, 0.1589871346950531, 0.16298964619636536, 0.1765488088130951, -0.0010111707961186767, -0.38433554768562317, -0.04119764640927315, -0.05064056068658829, -0.02528558298945427, -0.007612078450620174, -0.3559248447418213, 0.2321023792028427, -0.20797114074230194, -0.14680853486061096, 0.09266932308673859, 0.13938501477241516, 0.4442865252494812, 0.01006599236279726, -0.23339836299419403, 0.10393554717302322, 0.013686290942132473, -0.533251941204071, -0.29834702610969543, -0.18159304559230804, 0.2542695105075836, -0.04735611751675606, 0.1253775805234909, 0.16488733887672424, 0.3439936637878418, -0.056132908910512924, 0.10829216241836548, -0.05790587142109871, -0.09503733366727829, -0.21529020369052887, -0.1269190013408661, -0.14261339604854584, -0.10161945968866348, -0.06147255375981331, -0.25047406554222107, 0.07934194803237915, -0.09837356954813004, 0.0046914792619645596, 0.17587000131607056, 0.10476135462522507, 0.28187158703804016, 0.16984407603740692, -0.3050009310245514, -0.07496555149555206, -0.0025707983877509832, -0.06754497438669205, 0.06026088446378708, -0.0035000452771782875, -0.075932078063488, -0.07582659274339676, -0.34134674072265625, 0.35033294558525085, 0.06744193285703659, 0.15178349614143372, -0.023551836609840393, 0.25398683547973633, 0.17334628105163574, -0.10596907883882523, -0.031129099428653717, -0.1762022078037262, 0.09246974438428879, -0.046588387340307236, -0.06447106599807739, -0.19072087109088898, 0.08143293857574463, -0.2831243872642517, 0.2503320276737213, -0.1234128549695015, -0.13013379275798798, -0.09333787858486176, -0.173179492354393, -0.1514432430267334, -0.1416676640510559, -0.2301458865404129, 0.018096724525094032, 0.01606733724474907, -0.07033360749483109, 0.22319240868091583, 0.02082003653049469, -0.1413242071866989, 0.17787416279315948, 0.02999386563897133, 0.06910065561532974, 0.2883410155773163, 0.02509152889251709, -0.30720415711402893, 0.42068079113960266, 0.13396362960338593, -0.09289718419313431, -0.2188267856836319, 0.0986102893948555, -0.01645028404891491, 0.1218685433268547, 0.22921685874462128, -0.24620862305164337, 0.015622250735759735, -0.12806397676467896, 0.4537905752658844, -0.08679893612861633, 0.1363154947757721, -0.045960910618305206, 0.22375887632369995, 0.10154319554567337, -0.09735672920942307, 0.23049207031726837, -0.18161113560199738, -0.07305456697940826, 0.17912554740905762, -0.20860706269741058, -0.10594132542610168, 0.13208746910095215, 0.1446998119354248, 0.18085502088069916, -0.03492147475481033, 0.05194021016359329, -0.14770962297916412, -0.08733458817005157, -0.1045958548784256, 0.13135379552841187, -0.08041391521692276, 0.3657452166080475, 0.08377949148416519, 0.24996086955070496, -0.2024807184934616, -0.006070306524634361, -0.2561745047569275, 0.33953744173049927, 0.004615489859133959, -0.2086319923400879, 0.3801589906215668, 0.37352994084358215, -0.261405348777771, 0.1297447234392166, -0.1900307685136795, -0.24397510290145874, 0.06563380360603333, -0.11854204535484314, -0.10770560055971146, 0.29514333605766296, -0.019223114475607872, -0.08400305360555649, 0.2648700475692749, 0.07278192788362503, 0.5384401679039001, -0.2636016309261322, -0.03815045952796936, 0.15290890634059906, -0.18852455914020538, 0.15642188489437103, 0.18687252700328827, 0.06232959404587746, -0.03165951743721962, -0.12615883350372314, -0.07199888676404953, 0.1408364623785019, 0.15044495463371277, 0.2815694510936737, -0.07281231880187988, 0.037393227219581604, -0.05882786586880684, -0.17052271962165833, -0.14566576480865479, 0.23563987016677856, -0.16204272210597992, 0.04151802882552147, 0.40139907598495483, -0.2690158486366272, 0.4755014181137085, -0.3136521279811859, -0.16721577942371368, -0.049931157380342484, -0.2505362629890442, 0.10944896936416626, -0.03547805920243263, 0.1912420243024826, -0.00698176259174943, 0.25153928995132446, 0.12424948811531067, 0.04872429370880127, 0.0075104376301169395, -0.09675298631191254, -0.0011950633488595486, -0.38827934861183167, -0.05572442337870598, -0.13094255328178406, -0.09155081957578659, 0.1805754005908966, 0.042945437133312225, 0.25799810886383057, -0.04143643006682396, 0.07165001332759857, 0.17887763679027557, -0.15949107706546783, -0.008926625363528728, -0.028915271162986755, -0.03011038526892662, -0.08937034755945206, -0.16317379474639893, 0.2307826429605484, -0.03969941660761833, -0.05451390519738197, 0.03521570935845375, -0.057195477187633514, 0.1394651234149933, -0.3609117567539215, -0.20296068489551544, -0.11857401579618454, -0.1558268517255783, 0.04649902507662773, 0.02151421457529068, -0.14455337822437286, -0.0026970873586833477, 0.16268731653690338, -0.2985374629497528, 0.1825525015592575, 0.2610035240650177, -0.21392083168029785, 0.132154181599617, -0.06906924396753311, 0.04169517010450363, -0.23232117295265198, -0.22344191372394562, 0.16638469696044922, 0.05075369402766228, 0.22500088810920715, -0.1570451259613037, 0.08804228156805038, 0.1650146245956421, -0.08209061622619629, -0.052252866327762604, -0.07018892467021942, -0.2792639136314392, -0.16092124581336975, 0.24089521169662476, 0.16678553819656372, 0.07601902633905411, -0.09512918442487717, -0.04742160066962242, -0.20522110164165497, 0.01978289894759655, -3.274265327490866e-05, 0.09021053463220596, 0.2367061972618103, 0.3301059603691101, 0.014662550762295723, 0.00259522907435894, 0.059257540851831436, -0.12821757793426514, 0.2250000536441803, 0.11153525114059448, 0.31696853041648865, -0.2107050120830536, -0.08435788750648499, 0.0635097473859787, 0.044034749269485474, -0.0393960103392601, 0.02408425323665142, -0.06579110026359558, -0.018760932609438896, -0.3164742588996887, -0.287485271692276, -0.011488056741654873, 0.28736022114753723, 0.2251553237438202, -0.21003763377666473, 0.42243432998657227, 0.2099565714597702, -0.10586587339639664, -0.4435059428215027, -0.21437503397464752, 0.06584352999925613, -0.0961025059223175, -0.03725916147232056, -0.025026869028806686, -0.24554291367530823, -0.07500112056732178, 0.0010884527582675219, -0.19561392068862915, -0.28279927372932434, 0.33119910955429077, -0.021678131073713303, 0.07531222701072693, -0.041334375739097595, 0.21888063848018646, 0.1051836609840393, -0.1759921759366989, 0.14827559888362885, 0.2686307728290558, 0.20889365673065186, 0.22335457801818848, 0.15722154080867767, 0.029072612524032593, -0.4423612654209137, -0.2857770323753357, 0.1482861042022705, 0.14893001317977905, -0.12788447737693787, -0.14862707257270813, 0.1672557294368744, 0.09656013548374176, 0.4080885946750641, -0.05103975161910057, 0.12436233460903168, -0.05291176214814186, 0.08316998928785324, -0.016848472878336906, 0.24552646279335022, 0.08117149770259857, -0.17575296759605408, 0.23074491322040558, 0.3513350188732147, -0.261078417301178, -0.02167978137731552, 0.05694284290075302, 0.005321051925420761, -0.12429302930831909, 0.00196639122441411, -0.039119236171245575, -0.10527203977108002, 0.2293466478586197, 0.12036912888288498, 0.0008824912365525961, -0.06732404977083206, 0.12615130841732025, -0.024886323139071465, -0.06961889564990997, 0.13833875954151154, 0.17964544892311096, -0.1926288604736328, -0.05417754873633385, -0.16714225709438324, 0.24301928281784058, -0.11680220812559128, -0.3164701461791992, 0.03425922989845276, 0.0513109490275383, -0.0426529236137867, 0.027105672284960747, -0.08063292503356934, 0.0762578696012497, 0.17152057588100433, -0.08368264138698578, -0.23766233026981354, 0.04358837008476257, -0.12192203849554062, -0.06470218300819397, 0.04284333065152168, -0.27991145849227905, -0.4294465184211731, 0.20316928625106812, -0.006093594711273909, -0.11720125377178192, -0.04507618770003319, -0.05735725909471512, -0.2425369769334793, 0.033951714634895325, 0.2898789942264557, -0.25392237305641174, -0.04560813307762146, -0.2323436141014099, -0.23353686928749084, 0.06529931724071503, -0.03485286235809326, 0.2739342749118805, 0.05915652588009834, -0.16025781631469727, 0.005350381601601839, 0.01362075936049223, 0.184091717004776, -0.1031879410147667, -0.12907055020332336, 0.2902698218822479, -0.16577208042144775, -0.23375466465950012, -0.07800185680389404, 0.06014498323202133, 0.033574339002370834, -0.293484091758728, 0.1837494969367981, -0.04064279794692993, -0.3170207142829895, 0.0918004959821701, -0.04222644492983818, -0.2823893129825592, 0.24294613301753998, -0.06976469606161118, -0.24201761186122894, -0.022203532978892326, -0.008192581124603748, -0.16575059294700623, -0.016594305634498596, 0.1219899132847786, -0.3662400245666504, -0.01687936671078205, -0.2945886254310608, -0.1361423283815384, -0.2025173008441925, 0.04262890666723251, 0.14612728357315063, 0.04870536923408508, -0.02030407078564167, -0.29436013102531433, -0.13767336308956146, 0.23314929008483887, 0.048815835267305374, 0.1287277787923813, -0.1302211731672287, -0.013597849756479263, 0.3787282407283783, 0.12672288715839386, 0.1896662563085556, -0.22915522754192352, -0.2766833007335663, -0.24705159664154053, 0.17593882977962494, -0.15199419856071472, -0.0794345811009407, 0.29851141571998596, -0.28422027826309204, 0.5714090466499329, 0.091997891664505, -0.13865941762924194, 0.020849941298365593, 0.15434090793132782, 0.06090833246707916, 0.04836234822869301, 0.2288392037153244, -0.08372781425714493, 0.19016814231872559, 0.22458364069461823, -0.024668896570801735, -0.07113669812679291, -0.13271939754486084, 0.349941611289978, -0.2377137839794159, 0.13851900398731232, 0.030217351391911507, -0.1622016876935959, 0.07449739426374435, -0.13686852157115936, -0.12889447808265686, -0.30554479360580444, 0.009899908676743507, 0.25660011172294617, 0.14703767001628876, -0.017373107373714447, 0.28376996517181396, 0.21385079622268677, -0.14176063239574432, 0.010277675464749336, 0.11442017555236816, 0.05165472999215126, 0.028629526495933533, -0.09476791322231293, 0.3338560163974762, 0.22071851789951324, 0.048077117651700974, -0.12457892298698425, -0.06444930285215378, -0.16128671169281006, -0.10139835625886917, 0.05250396206974983, -0.030943915247917175, -0.004149089567363262, 0.10566315799951553, -0.007873979397118092, -0.025648968294262886, -0.2514699101448059, 0.09236975759267807, -0.14465276896953583, -0.031378623098134995, 0.1650359183549881, -0.09068712592124939, -0.027987372130155563, -0.17813000082969666, 0.10543684661388397, 0.17946697771549225, 0.08144103735685349, -0.03638540580868721, -0.19295991957187653, -0.07271192222833633, 0.07664578408002853, -0.14256416261196136, -0.039647556841373444, 0.20041382312774658, 0.1787143051624298, 0.010973005555570126, 0.12835417687892914, 0.20966826379299164, -0.27483147382736206, 0.2555271089076996, -0.07854264974594116, -0.4068422317504883, 0.15787214040756226, 0.20789958536624908, 0.1121707558631897, 0.11076868325471878, 0.16351044178009033, -0.028511812910437584, -0.0018985680071637034, -0.06531841307878494, -0.190419539809227, 0.32954975962638855, 0.04407009854912758, -0.07079805433750153, -0.046979162842035294, 0.13609080016613007, -0.15914572775363922, 0.1839417815208435, 0.19142431020736694, -0.1566782295703888, -0.16450272500514984, -0.11797025054693222, 0.27630898356437683, -0.07089293003082275, -0.10613977909088135, -0.5852881073951721, 0.06037890911102295, -0.008244144730269909, 0.2840518355369568, 0.21594834327697754, 0.20613153278827667, -0.32558542490005493, 0.028292013332247734, 0.11127294600009918, -0.5132969617843628, 0.10043321549892426, 0.05017103627324104, -0.2091551423072815, -0.07420260459184647, 0.29217180609703064, -0.15736716985702515, 0.11222073435783386, 0.0016945949755609035, -0.1671009063720703, -0.004823305644094944, 0.16926530003547668, -0.5583708882331848, -0.026836590841412544, -0.12000571936368942, 0.26907816529273987, 0.07350258529186249, -0.17673803865909576, -0.16851063072681427, -0.142068549990654, -0.019219141453504562, 0.016136549413204193, 0.12366832047700882, 0.2258014976978302, 0.17082853615283966, -0.07298260927200317, 0.08309070020914078, -0.06573601067066193, -0.03138607367873192, 0.09303086996078491, -0.0005397025379352272, -0.09692998230457306, -0.031369343400001526, 0.03765258193016052, 0.08144601434469223, -0.02484062686562538, 0.09838125854730606, -0.39976805448532104, -0.29926103353500366, -0.5887951254844666, 0.20081089437007904, -0.2513127624988556, -0.25414279103279114, 0.797003984451294, -0.19875194132328033, -0.7262532114982605, 0.3267972469329834, 0.5825930833816528, -0.09495401382446289, -0.057569898664951324, -0.18553927540779114, 0.23759274184703827, -0.2784290909767151, 0.006007004529237747, -0.18344934284687042, -0.03444363921880722, 0.25500765442848206, 0.07131709158420563, -0.13196715712547302, -0.06274525821208954, 0.4652996063232422, -0.05807967111468315, 0.07693874835968018, 0.06600892543792725, 0.1002006009221077, -0.14566662907600403, -0.10463830828666687, 0.03496624901890755, -0.04830468073487282, -0.24626289308071136, -0.003606880083680153, -0.11447285115718842, 0.0601443387567997, -0.05737708508968353, -0.16324031352996826, -0.4694743752479553, -0.11409098654985428, -0.08519133925437927, -0.070220448076725, -0.07768580317497253, -0.3083631694316864, 0.09721742570400238, 0.001868011779151857, 0.13794034719467163, 0.31839415431022644, -0.012704112567007542, 0.15654155611991882, -0.06886103749275208, 0.06620029360055923, -0.10087352246046066, 0.1447077989578247, -0.16620294749736786, 0.0061006247997283936, -0.0444035604596138, -0.19761520624160767, 0.34144845604896545, -0.18014711141586304, 0.27177247405052185, -0.11659472435712814, 0.05638492852449417, -0.09332279860973358, 0.019369514659047127, 0.051207661628723145, -0.08785322308540344, -0.05512535572052002, 0.08707325160503387, 0.08818697929382324, 0.2968689203262329, -0.30846503376960754, 0.19951288402080536, 0.07322976738214493, -0.014633485116064548, -0.11329612135887146, -0.12252821773290634, 0.2880852222442627, 0.20101334154605865, 0.009668908081948757, 0.005175402853637934, 0.19249789416790009, -0.20287205278873444, -0.32676199078559875, -0.20383134484291077, -0.19023260474205017, 0.06837555021047592, -0.18148839473724365, -0.08136260509490967, -0.051258016377687454, 0.2558596134185791, 0.14549307525157928, 0.24087633192539215, 0.03787387162446976, 0.023157307878136635, -0.20499686896800995, 0.05857076868414879, 0.2051304578781128, 0.29445064067840576, 0.046732574701309204, -0.1255374401807785, 0.18058191239833832, -0.1007484570145607, 0.11841807514429092, 0.2542385756969452, 0.12360300868749619, -0.18105414509773254, -0.3775588274002075, -0.10742083191871643, 0.37929296493530273, 0.47544828057289124, -0.07373322546482086, 0.032098110765218735, 0.16728875041007996, 0.2503167986869812, 0.33995476365089417, 0.10609613358974457, 0.3371926546096802, 0.1295449286699295, -0.05530443787574768, 0.03434598818421364, 0.2971053123474121, -0.06948980689048767, -0.13347317278385162, -0.24209733307361603, -0.13480499386787415, -0.2000332474708557, -0.026244498789310455, 0.4437534809112549, -0.1376684308052063, 0.15850067138671875, -0.06054574251174927, -0.15827800333499908, -0.33676859736442566, -0.15339583158493042, 0.1945141702890396, -0.21809022128582, 0.11750654131174088, -0.2871435880661011, -0.052447933703660965, -0.0024210577830672264, 0.0753789097070694, -0.12908080220222473, 0.14869296550750732, -0.022302042692899704, 0.22902193665504456, -0.030996959656476974, -0.11091971397399902, -0.25650662183761597, -0.17904910445213318, 0.1213696151971817, -0.11525820940732956, -0.13030776381492615, -0.03478100895881653, -0.32827988266944885, 0.09318242222070694, 0.06691694259643555, -0.06549165397882462, 0.17239174246788025, 0.029955748468637466, -0.1770521104335785, 0.05393894389271736, 0.1605563759803772, -0.034898243844509125, 0.015532060526311398, 0.055040422827005386, -0.016284648329019547, 0.08480371534824371, -0.177348792552948, 0.17612217366695404, 0.17910052835941315, 0.155446857213974, -0.01983793079853058, -0.06541057676076889, -0.055976759642362595, -0.09280873090028763, 0.06417146325111389, -0.10151807963848114, 0.034408655017614365, -0.05278438329696655, 0.11148137599229813, -0.18870404362678528, -0.041481561958789825, 0.05872491002082825, -0.14212961494922638, -0.19560444355010986, 0.09886173158884048, 0.2033538967370987, 0.05435050278902054, 0.0754891037940979, -0.1813690960407257, 0.19290456175804138, -0.08562774211168289, 0.22236742079257965, 0.012986354529857635, -0.14907650649547577, 0.1961667537689209, 0.10648003220558167, 0.253432959318161, -0.15941299498081207, 0.02058669738471508, -0.26175937056541443, 0.16564132273197174, 0.17058219015598297, -0.29437148571014404, 0.021481599658727646, 0.15076708793640137, 0.08100853860378265, -0.1416778713464737, 0.02713191881775856, -0.08085837215185165, -0.16504092514514923, 0.052299052476882935, 0.0779530256986618, 0.16926248371601105, -0.22585639357566833, -0.12192640453577042, -0.22381889820098877, 0.19953413307666779, -0.14501750469207764, -0.05656079947948456, 0.05177488923072815, 0.14920252561569214, -0.0270495917648077, -0.13580243289470673, 0.10708613693714142, 0.2746718227863312, 0.08245711028575897, -0.06880896538496017, -0.0342533215880394, -0.21856790781021118, -0.07658258080482483, -0.11786247044801712, -0.03763701766729355, 0.2656972110271454, -0.024958547204732895, 0.2079908400774002, -0.019146796315908432, -0.0414980947971344, 0.11827269941568375, -0.09550189971923828, -0.08790768682956696, -0.028578991070389748, 0.20157650113105774, 0.17409275472164154, -0.09621065109968185, 0.08383487910032272, -0.08099326491355896, 0.023504916578531265, 0.03253844007849693, -0.010604376904666424, -0.004690456669777632, 0.11625756323337555, 0.062443528324365616, 0.0629926547408104, -0.1692359298467636, -0.20163428783416748, -0.11602131277322769, -0.15432241559028625, -0.10828805714845657, -0.10041465610265732, -0.12502573430538177, 0.048420049250125885, -0.009310879744589329, 0.00045852953917346895, 0.08249460160732269, 0.16874021291732788, -0.04465403035283089, -0.1546154022216797, -0.14457358419895172, -0.12852874398231506, -0.15958675742149353, -0.17870639264583588, -0.023620404303073883, 0.07767616212368011, -0.012571276165544987, 0.12260114401578903, 0.07352054864168167, -0.005627500358968973, 0.16141115128993988, 0.19519710540771484, -0.19671519100666046, 0.1696263998746872, -0.1567993313074112, 0.10333573073148727, -0.16645193099975586, -0.0644478052854538, 0.10518915206193924, 0.21402254700660706, 0.11110126227140427, -0.029348859563469887, -0.039348311722278595, 0.03407358378171921, -0.10594762116670609, 0.06778141856193542, -0.07208865135908127, 0.10090257227420807, -0.20347341895103455, -0.054680172353982925, 0.08523136377334595, -0.10105444490909576, 0.04923680052161217, 0.13968966901302338, 0.11398104578256607, 0.01745378039777279, -0.09641727805137634, -0.00843972060829401, -0.1000978946685791, -0.10660291463136673, 0.10106930136680603, 0.04453827813267708, -0.013627310283482075, 0.0460958294570446, 0.0272656362503767, 0.04680081084370613, 0.07397762686014175, -0.010203700512647629, 0.022405963391065598, -0.11072806268930435, 0.16468963027000427, -0.3478068709373474, -0.09969538450241089, 0.052814677357673645, -0.2650669515132904, 0.0727163776755333, -0.2093106359243393, 0.046614691615104675, 0.21140895783901215, 0.089685820043087, 0.08628016710281372, -0.008389286696910858, 0.0035133380442857742, -0.17223648726940155, 0.07741683721542358, 0.019721273332834244, -0.3051193654537201, -0.1227119192481041, 0.01752808317542076, 0.05559776350855827, 0.005471341777592897, 0.11376683413982391, 0.6646517515182495, 0.04444558918476105, -0.11193675547838211, -0.058743420988321304, 0.018880557268857956, -0.010719980113208294, -0.3904680013656616, -0.024754375219345093, -0.043485432863235474, -0.03917183727025986, 0.1042073518037796, 0.06934110820293427, -0.021320316940546036, -0.17194533348083496, -0.13633231818675995, -0.0075984010472893715, 0.013852225616574287, 0.21996073424816132, -0.3050045669078827, 0.06922880560159683, -0.11207693070173264, 0.24809414148330688, -0.06883013248443604, -0.055777549743652344, 0.21579399704933167, 0.24377955496311188, -0.19520635902881622, 0.25676897168159485, 0.016543816775083542, 0.08664672076702118, -0.1345742642879486, 0.0011368594132363796, -0.22558178007602692, 0.15906913578510284, -0.0030972324311733246, 0.06842334568500519, -0.15165013074874878, 0.19996005296707153, 0.14099708199501038, -0.004560224246233702, 0.11117826402187347, -0.009992923587560654, 0.05276746675372124, -0.1266731470823288, -0.05403578653931618, 0.25084349513053894, -0.06126881390810013, -0.0003013117238879204, 0.2789534330368042, 0.001575237954966724, -0.15161651372909546, 0.1420689970254898, -0.008913995698094368, 0.0864005833864212, 0.22187724709510803, 0.17026107013225555, 0.21966825425624847, 0.06877843290567398, -0.031021837145090103, -0.2652569115161896, 0.10512767732143402, -0.1441727578639984, -0.1473895162343979, -0.16842986643314362, 0.08820866793394089, -0.027359815314412117, -0.057343799620866776, -0.1818467527627945, -0.1832752674818039, -0.057307057082653046, 0.06574776023626328, 0.1154164969921112, 0.10506261885166168, -0.02947116456925869, 0.2655731737613678, -0.2869446277618408, 0.1394929438829422, -0.1603366732597351, -0.02993222326040268, 0.11144721508026123, 0.10648418962955475, 0.05588975176215172, -0.1170450896024704, -0.20045621693134308, -0.11625789850950241, -0.14101476967334747, -0.6615579128265381, -0.7355436086654663, -0.775850772857666, 0.06152543053030968, -0.5823116302490234, 0.01975690945982933, 0.30052927136421204, 0.28539037704467773, -0.21254315972328186, -0.2357029914855957, -0.1558832973241806, 0.2656745910644531, 0.16843347251415253, -0.2706485986709595, -0.1340222805738449, -0.039969660341739655, -0.1366824507713318, 0.29993900656700134, 0.09778504073619843, 0.18447154760360718, -0.139969602227211, -0.316407173871994, -0.33429208397865295, 0.35598069429397583, -0.4192471206188202, 0.3716053068637848, 0.14878563582897186, -0.3501633405685425, -0.03790871053934097, 0.0361308753490448, -0.16406387090682983, -0.28578808903694153, 0.18326525390148163, -0.17607124149799347, 0.509739339351654, 0.47986868023872375, -0.11236515641212463, -0.15622179210186005, -0.5061230659484863, -0.2623501420021057, 0.01186447124928236, -0.2523822784423828, -0.09093913435935974, -0.22381660342216492, -0.3128889501094818, 0.016004478558897972, -0.10617757588624954, -0.06359288096427917, 0.07128432393074036, -0.1794641613960266, 0.08504057675600052, -0.11203555017709732, 0.18573503196239471, -0.024490656331181526, 0.1897791028022766, -0.2544822692871094, -0.07450425624847412, 0.24100057780742645, 0.11391929537057877, 0.04679739847779274, 0.12532898783683777, -0.1321304738521576, -0.2283180058002472, -0.056345805525779724, 0.05816787853837013, -0.027931006625294685, 0.054574642330408096, 0.2261255979537964, 0.19349808990955353, -0.044806528836488724, 0.007520301733165979, -0.18270032107830048, 0.12231285870075226, -0.08467729389667511, -0.07450505346059799, 0.10622882097959518, 0.2563246488571167, 0.14349684119224548, -0.03992757573723793, -0.07197872549295425, 0.04915173351764679, 0.030374985188245773, 0.16629259288311005, 0.11245627701282501, -0.3952007293701172, 