{"version": "0.5.4", "metadata": {"date": {"year": 2026, "month": 4, "day": 2, "hour": 11, "minute": 15, "second": 7}, "loudness": -31.431901931762695, "gain": 0.8881680422158204}, "architecture": "WaveNet", "config": {"layers": [{"input_size": 1, "condition_size": 1, "head_size": 6, "channels": 12, "kernel_size": 3, "dilations": [1, 2, 4, 8, 16, 32, 64], "activation": "Tanh", "gated": false, "head_bias": false}, {"input_size": 12, "condition_size": 1, "head_size": 1, "channels": 6, "kernel_size": 3, "dilations": [128, 256, 512, 1, 2, 4, 8, 16, 32, 64, 128, 256, 512], "activation": "Tanh", "gated": false, "head_bias": true}], "head": null, "head_scale": 0.02}, "weights": [-0.5609100461006165, 0.6007359623908997, -1.0130879878997803, -0.9297577142715454, -0.5422568917274475, 0.34585753083229065, -0.30561327934265137, 0.8858409523963928, -0.004027924500405788, 0.4768219590187073, -0.506664514541626, -0.4327186942100525, -0.14574018120765686, 0.06200297176837921, -0.24782751500606537, -0.04069266468286514, -0.10499824583530426, 0.2004190981388092, -0.06330183148384094, 0.1032610684633255, -0.037472959607839584, 0.18754833936691284, 0.1402692198753357, 0.025344353169202805, 0.01763591729104519, 0.18773941695690155, 0.04759562015533447, -0.19558894634246826, -0.26525527238845825, 0.07268311083316803, -0.008630258031189442, 0.31449830532073975, -0.23058751225471497, -0.12666401267051697, -0.2905847430229187, -0.059125203639268875, -0.02107713744044304, 0.2762816250324249, 0.06388653069734573, 0.03995614871382713, -0.1554999053478241, 0.027522768825292587, 0.06602325290441513, 0.00972424540668726, -0.23327189683914185, -0.05776938423514366, 0.26358678936958313, -0.030914686620235443, -0.1397617757320404, -0.03659353405237198, 0.4176373779773712, 0.2778315544128418, 0.1602584421634674, -0.13501860201358795, -0.0031900720205157995, -0.19422823190689087, 0.18831245601177216, -0.24492570757865906, -0.20953691005706787, 0.0732342004776001, -0.03378995507955551, -0.02147309109568596, 0.06550274789333344, 0.16040313243865967, 0.15767133235931396, -0.21889053285121918, -0.1317792683839798, -0.028264285996556282, 0.3226971924304962, 0.27438193559646606, -0.0345936194062233, -0.21832723915576935, -0.07703986018896103, 0.078651063144207, 0.2543093264102936, 0.2557904124259949, 0.11052089929580688, -0.32594454288482666, -0.09140971302986145, -0.18464404344558716, 0.019666453823447227, 0.049008097499608994, 0.058108482509851456, 0.02631252445280552, -0.09124308079481125, 0.10048626363277435, -0.28263214230537415, -0.047231484204530716, -0.10098671913146973, 0.021429849788546562, 0.03286723792552948, 0.2544120252132416, 0.0005372599698603153, 0.03455360606312752, 0.003905253019183874, -0.22793589532375336, 0.04785291105508804, 0.19652056694030762, -0.25687119364738464, -0.054673273116350174, 0.005418715998530388, 0.2591080069541931, -0.09934832900762558, 0.11414854973554611, -0.3198656439781189, 0.02507978118956089, -0.293582558631897, -0.010234060697257519, -0.0357685424387455, 0.11700217425823212, -0.159564808011055, 0.1393323838710785, -0.25708210468292236, 0.29116764664649963, 0.07601118832826614, 0.019321883097290993, -0.1748066395521164, -0.03975922614336014, 0.1793779581785202, -0.10905814915895462, -0.08235112577676773, -0.004131628200411797, 0.07748275995254517, 0.2156861275434494, -0.14030058681964874, -0.21960651874542236, -0.18471293151378632, -0.10403098165988922, 0.059295691549777985, -0.2779872417449951, -0.05831927806138992, 0.15461349487304688, -0.24710772931575775, -0.028313901275396347, 0.2406969964504242, 0.1193276047706604, 0.02414785511791706, -0.14228656888008118, -0.09895555675029755, 0.0896114706993103, 0.31327810883522034, 0.24960832297801971, 0.18216650187969208, -0.1274213045835495, -0.2984808087348938, -0.1867697387933731, 0.09944213181734085, 0.1391323208808899, -0.06573093682527542, -0.25421833992004395, -0.2934638261795044, -0.1587040275335312, 0.0933336690068245, -0.05589296668767929, 0.07251060009002686, -0.031413108110427856, 0.024782385677099228, -0.3102559745311737, 0.05320253595709801, 0.04595611244440079, 0.16181409358978271, -0.06070953235030174, -0.2667471170425415, -0.3427972197532654, -0.0019444815116003156, -0.11543615907430649, -0.2736845016479492, 0.08764584362506866, -0.26241743564605713, -0.2044566422700882, 0.176240012049675, 0.04195885360240936, 0.33614689111709595, 0.020344045013189316, -0.278569757938385, -0.08563721925020218, 0.029951995238661766, 0.041787054389715195, 0.3301227390766144, -0.15937340259552002, -0.17045822739601135, -0.2459646761417389, 0.038936156779527664, 0.15383516252040863, 0.26600757241249084, 0.017318306490778923, -0.1471327394247055, -0.2223290205001831, -0.0997391939163208, -0.002345514018088579, -0.04212198406457901, 0.17069262266159058, 0.022429654374718666, -0.24924901127815247, -0.011678078211843967, -0.14553223550319672, 0.16411003470420837, 0.03678642958402634, -0.0453445129096508, -0.2722076177597046, 0.02239745669066906, 0.15991026163101196, -0.39446955919265747, -0.09844650328159332, -0.03652985021471977, -0.1442825347185135, -0.036316949874162674, 0.0782003253698349, 0.31655582785606384, -0.01728939078748226, 0.02987607754766941, -0.30980440974235535, 0.06263110786676407, -0.09188689291477203, 0.26419463753700256, 0.004913548473268747, -0.12465894967317581, -0.2797074615955353, 0.13320299983024597, -0.20008763670921326, 0.24601779878139496, 0.1291903406381607, 0.12229274213314056, -0.25869110226631165, -0.1189388632774353, 0.15879225730895996, -0.37619709968566895, -0.007446356117725372, -0.46570998430252075, 0.17646832764148712, 0.33409440517425537, 0.5239437818527222, -0.10125267505645752, -0.050367243587970734, -0.29716649651527405, 0.016429191455245018, 0.27577370405197144, -0.5148453712463379, 0.05249190703034401, 0.2517896890640259, -0.339505136013031, 0.24858379364013672, 0.1491398960351944, 0.4024505317211151, -0.04215754196047783, -0.37890395522117615, -0.25698599219322205, 0.013084799982607365, 0.25206929445266724, 0.3685712516307831, -0.209050253033638, -0.17635321617126465, -0.24466320872306824, -0.09162534773349762, -0.05942409113049507, 0.341516375541687, -0.28897982835769653, -0.13319095969200134, -0.4765680730342865, 0.023146776482462883, 0.11757779866456985, -0.31366774439811707, 0.2308005839586258, 0.34630098938941956, -0.15007242560386658, 0.028784336522221565, -0.021427717059850693, 0.2057313472032547, 0.052653681486845016, 0.009332285262644291, -0.24261507391929626, 0.00570254260674119, -0.12135212868452072, -0.12839457392692566, -0.008841817267239094, -0.11353684216737747, -0.01422914955765009, -0.02115296572446823, 0.017470194026827812, 0.2042180299758911, -0.102723129093647, -0.1682184934616089, -0.3282995820045471, 0.21696394681930542, 0.025038639083504677, 0.298648476600647, -0.14258526265621185, 0.010187341831624508, -0.18253332376480103, 0.04349632188677788, -0.10121423751115799, 0.2189902365207672, -0.04025691747665405, -0.04197308048605919, -0.20177559554576874, -0.009332171641290188, 0.15495306253433228, -0.28687724471092224, 0.1748456060886383, -0.0037518294993788004, 0.08812110126018524, -0.2409086972475052, 0.16124577820301056, -0.03767000883817673, 0.31318244338035583, -0.22356539964675903, 0.10589898377656937, -0.21481183171272278, 0.16423223912715912, 0.056513961404561996, -0.4208606779575348, 0.07434584200382233, 0.14197547733783722, -0.3391280174255371, 0.16979143023490906, 0.014484080485999584, 0.1692463755607605, -0.1278175413608551, 0.1305423378944397, -0.2645187973976135, 0.164366215467453, -0.05729850381612778, 0.15072068572044373, -0.0846938043832779, 0.17942912876605988, 0.010434912517666817, 0.16822287440299988, -0.06962816417217255, 0.3473142683506012, -0.20340994000434875, -0.04690947383642197, -0.4184631109237671, 0.2830708622932434, 0.21302589774131775, -0.38214343786239624, 0.20229624211788177, 0.542264997959137, -0.22998444736003876, 0.28547894954681396, -0.19345565140247345, 0.33910977840423584, -0.1154816523194313, 0.4677794575691223, -0.29228469729423523, -0.043037738651037216, 0.4788314402103424, -0.3039798140525818, 0.14878353476524353, 0.22991473972797394, -0.32990214228630066, 0.005413956008851528, -0.20652097463607788, 0.3507266044616699, -0.0059450226835906506, 0.31196051836013794, -0.3382784128189087, -0.012314586900174618, -0.24828049540519714, 0.2658686935901642, -0.01990910805761814, 0.21274083852767944, -0.27566859126091003, -0.0015595711302012205, -0.20629028975963593, 0.4695862829685211, 0.0871318131685257, 0.47103777527809143, -0.5318770408630371, -0.04747413471341133, 0.32553836703300476, -0.489081472158432, 0.19496174156665802, -0.3640364706516266, 0.28662312030792236, -0.24259920418262482, 0.08806626498699188, -0.17512886226177216, 0.1918068826198578, -0.06515174359083176, 0.45000723004341125, 0.09813183546066284, -0.2260444313287735, 0.39416131377220154, 0.09789229184389114, -0.1352696567773819, 0.479674756526947, 0.029062287881970406, 0.29111582040786743, -0.36608967185020447, 0.15187948942184448, -0.12728974223136902, 0.2942032516002655, -0.1534690260887146, 0.09008477628231049, -0.4450925886631012, 0.1644190549850464, 0.044754508882761, 0.2102004885673523, -0.10655971616506577, 0.3204893469810486, -0.20229560136795044, 0.07976929843425751, -0.2753933072090149, 0.46915116906166077, 0.007594462018460035, -0.340202659368515, 0.4694433808326721, 0.04788251966238022, -0.7059943079948425, 0.687166154384613, -0.008482263423502445, 0.48983636498451233, -0.38771799206733704, -0.10824966430664062, -0.6419250965118408, 0.48472580313682556, 0.07562044262886047, -0.554763674736023, 0.5564008355140686, 0.27444854378700256, -0.5198640823364258, 0.428806871175766, 0.12124796211719513, 0.6303844451904297, -0.4429713785648346, -0.25565871596336365, -0.5340419411659241, 0.4365140497684479, 0.05314537510275841, 0.5836188197135925, -0.6531079411506653, -0.05668024346232414, -0.3530067503452301, 0.29865753650665283, -0.0594969168305397, 0.48271599411964417, -0.49208906292915344, -0.2317585051059723, -0.4557025730609894, 0.3861228823661804, -0.04992586374282837, -0.7264138460159302, 0.4984062910079956, 0.20698323845863342, -0.11503011733293533, 0.06643594056367874, 0.02091127447783947, 0.06789019703865051, -0.04290344566106796, -0.18281981348991394, 0.05168979614973068, 0.059144556522369385, 0.0475262813270092, 0.02919526770710945, -0.02748924493789673, 0.03162939473986626, 0.14127202332019806, 0.3290036916732788, -0.6954032182693481, -0.3990127146244049, -0.9946314692497253, -0.39385920763015747, 0.02274366095662117, -0.815061092376709, 0.23361094295978546, 0.48783016204833984, 0.1784280389547348, -0.8003328442573547, 0.04287029430270195, -0.26109424233436584, 0.3582371771335602, -0.09190089255571365, -0.17262409627437592, -0.20699554681777954, 0.009730810299515724, -0.23558515310287476, -0.5329660177230835, -0.3039913773536682, 0.29120388627052307, 0.461084246635437, -0.14065228402614594, -0.16202034056186676, -0.17898574471473694, 0.17059548199176788, 0.06475641578435898, 0.23815524578094482, 0.22239217162132263, 0.11569145321846008, -0.019765304401516914, -0.17131407558918, -0.058922652155160904, 0.03422774001955986, 0.2510124742984772, -0.2606640160083771, 0.3386676013469696, -0.13047905266284943, -0.4499078094959259, -0.34867727756500244, 0.1428334265947342, 0.2101736068725586, -0.35222044587135315, 0.09836526215076447, 0.3719797134399414, 0.5300917625427246, 0.3209991753101349, -0.21092312037944794, 0.1544390320777893, -0.0910448357462883, -0.24970358610153198, -0.012436648830771446, -0.05221135541796684, 0.1590006798505783, -0.22957763075828552, -0.3232932388782501, 0.3225483298301697, 0.3714659810066223, -0.13058874011039734, 0.032965365797281265, 0.19055680930614471, -0.015065120533108711, 0.03561394661664963, -0.13995985686779022, 0.16018624603748322, -0.10814052820205688, -0.23386217653751373, -0.3399847447872162, 0.44558730721473694, 0.14926037192344666, 0.08629240840673447, -0.17781610786914825, 0.34319475293159485, 0.06066938117146492, -0.4100223183631897, -0.3528899550437927, -0.2530691921710968, -0.0026747542433440685, -0.167928546667099, -0.25606080889701843, 0.11717964708805084, 0.2320336252450943, -0.0839013084769249, -0.2220011055469513, -0.009980987757444382, -0.7857233881950378, -0.07276543974876404, 0.3895244002342224, -0.8662914037704468, -0.38842660188674927, -0.05177636072039604, 0.9361444711685181, -0.5992664694786072, -0.9532275795936584, 0.3136184513568878, -0.2900998294353485, 0.17689256370067596, -0.1929337978363037, -0.3021734952926636, -0.24503576755523682, 0.1103026270866394, 0.02520265057682991, -0.3891051411628723, -0.2559783458709717, 0.10228726267814636, 0.34050485491752625, -0.27476733922958374, 0.41353341937065125, -0.17573927342891693, 0.24113476276397705, 0.5726929306983948, 0.25940871238708496, 0.4857875406742096, 0.28902706503868103, -0.03978178650140762, -0.37538549304008484, -0.04185411334037781, 0.28571054339408875, -0.03563835471868515, -0.2054762840270996, 0.10813908278942108, 0.19436131417751312, -0.1363300234079361, -0.25567346811294556, 0.00874952133744955, 0.1055678054690361, -0.14699183404445648, -0.4844176769256592, 0.28895866870880127, 0.2671898901462555, 0.2976970374584198, 0.16317163407802582, 0.10091975331306458, -0.3028775453567505, -0.3568446934223175, 0.09773550927639008, 0.17790597677230835, 0.14706549048423767, -0.40466704964637756, -0.12772853672504425, 0.551986575126648, 0.5829652547836304, -0.27607738971710205, -0.09266982227563858, -0.19107221066951752, 0.22550080716609955, -0.15379014611244202, -0.12306437641382217, 0.11017422378063202, -0.0877779871225357, -0.09715988487005234, -0.0034814616665244102, -0.06823010742664337, -0.23294441401958466, 0.28565528988838196, -0.020575175061821938, 0.056083206087350845, 0.17267726361751556, 0.14975808560848236, -0.0023315688595175743, 0.1494162529706955, -0.017844604328274727, -0.12748301029205322, 0.3259636163711548, 0.21668493747711182, -0.2356097549200058, 0.05623692274093628, -0.16083618998527527, 0.14366473257541656, -0.12804347276687622, -0.11034925282001495, 0.053360722959041595, 0.2441675066947937, -0.07132212072610855, -0.021614043042063713, 0.12622030079364777, -0.04059269279241562, -0.11055786907672882, 0.07975327968597412, -0.24207936227321625, -0.16148987412452698, 0.17436760663986206, -0.1597471684217453, 0.01730458252131939, -0.2765146493911743, 0.34503915905952454, -0.028774190694093704, 0.2696978449821472, -0.12485897541046143, 0.21278949081897736, -0.16983406245708466, -0.08379051834344864, 0.09321105480194092, -0.024747159332036972, 0.04621604457497597, -0.11470485478639603, 0.006619914434850216, -0.23173847794532776, -0.0631079450249672, 0.1890263706445694, -0.03790204972028732, 0.061574120074510574, 0.2104053497314453, -0.15494824945926666, 0.11492466926574707, -0.38273853063583374, 0.1199602484703064, 0.26150238513946533, 0.20757834613323212, -0.0720214694738388, -0.1361934393644333, 0.34498944878578186, -0.36030328273773193, -0.0830506682395935, 0.22095465660095215, -0.1238391250371933, 0.04918899014592171, 0.415836900472641, -0.15598446130752563, -0.07453753054141998, -0.014963730238378048, 0.44675353169441223, -0.10219981521368027, 0.26416704058647156, -0.08713511377573013, -0.04327898472547531, -0.2669617235660553, 0.07351905107498169, 0.22674596309661865, 0.020438726991415024, -0.08706878870725632, -0.005915518384426832, 0.3200833797454834, -0.3326251804828644, -0.036899399012327194, 0.27219197154045105, 0.06966172158718109, -0.15790121257305145, 0.1249479353427887, -0.14728790521621704, 0.13752131164073944, -0.01433473452925682, -0.029394451528787613, -0.0006058372091501951, -0.17208197712898254, -0.020654460415244102, -0.053591612726449966, -0.03252837061882019, -0.006599090527743101, 0.22450944781303406, -0.053228721022605896, 0.11477378010749817, 0.08330105245113373, -0.004667005967348814, -0.20927764475345612, -0.03879554197192192, 0.35618874430656433, -0.12028797715902328, 0.08647121489048004, 0.12113962322473526, 0.014212566427886486, 0.2734927833080292, -0.041821762919425964, 0.0013525018002837896, -0.1459442526102066, -0.04510027542710304, -0.08223115652799606, 0.11050377041101456, 0.10470731556415558, -0.24185223877429962, 0.09674792736768723, -0.1310640275478363, -0.1082530990242958, 0.07440157234668732, 0.01838146708905697, 0.2634771764278412, -0.24255289137363434, 0.11580116301774979, -0.16785351932048798, -0.01767653413116932, 0.10239052027463913, 0.14516864717006683, -0.31881844997406006, 0.0634545087814331, 0.37670350074768066, -0.20491160452365875, 0.1124095693230629, 0.39051392674446106, -0.0875217393040657, -0.10705754905939102, 0.23158802092075348, -0.253579318523407, 0.012958177365362644, -0.14559076726436615, 0.7420095205307007, -0.0068613095209002495, 0.2938040792942047, -0.18717266619205475, -0.07851693034172058, -0.08681013435125351, -0.12341877818107605, -0.0871763676404953, 0.1951717734336853, 0.036100149154663086, -0.14860469102859497, 0.49803489446640015, -0.19943074882030487, -0.1440540999174118, -0.053795091807842255, 0.09988074004650116, -0.202369824051857, 0.1558004468679428, 0.03141241893172264, -0.04561372101306915, -0.009179307147860527, 0.08237099647521973, 0.036372896283864975, 0.12627829611301422, 0.10150672495365143, -0.168980672955513, 0.3624287545681, -0.21573390066623688, -0.226984903216362, 0.3229086101055145, -0.04512614756822586, -0.16666829586029053, 0.0897800624370575, -0.14478711783885956, 0.04996483772993088, -0.46379977464675903, 0.48830434679985046, -0.2170161008834839, 0.22301483154296875, -0.009140817448496819, 0.32556894421577454, -0.06320459395647049, -0.2921309471130371, -0.07093020528554916, 0.09592558443546295, -0.06359861046075821, -0.09789830446243286, 0.2941611409187317, 0.05093599110841751, -0.19050969183444977, 0.06620346009731293, -0.18036721646785736, -0.2377592921257019, 0.2238607108592987, 0.21886666119098663, 0.1981244534254074, -0.040184956043958664, -0.10146701335906982, -0.4064491093158722, 0.11897404491901398, 0.16503670811653137, -0.3820387125015259, 0.19966277480125427, 0.19068272411823273, -0.3665723502635956, 0.30199769139289856, 0.06657799333333969, -0.25731465220451355, 0.32657819986343384, 0.08827408403158188, 0.23487348854541779, -0.3737491965293884, -0.07805883139371872, -0.38786089420318604, 0.147172749042511, 0.11570046097040176, 0.3347371220588684, 0.09923863410949707, -0.12136092782020569, -0.21101421117782593, 0.06558850407600403, -0.06078550964593887, -0.42815881967544556, 0.3360288441181183, 0.2522072196006775, -0.08659929782152176, -0.034986525774002075, 0.11426185071468353, 0.19529274106025696, 0.10466363281011581, 0.03990090265870094, -0.0645633414387703, 0.15110434591770172, 0.009315811097621918, 0.2436867207288742, 0.014623340219259262, -0.06116741523146629, 0.1795811653137207, -0.1090448796749115, 0.06185276433825493, 0.14026258885860443, -0.1638401299715042, 0.05907642841339111, -0.019915543496608734, -0.11204353719949722, -0.1303730458021164, -0.22573299705982208, 0.03978361189365387, 0.21329933404922485, 0.41123661398887634, 0.01076037809252739, -0.009393378160893917, 0.04735882207751274, -0.08405456691980362, 0.04806914180517197, 0.1758493185043335, 0.03236004710197449, 0.12048845738172531, 0.2387637495994568, -0.1480930745601654, -0.2888713479042053, -0.08131134510040283, -0.07528851926326752, -0.05743580684065819, -0.014237169176340103, 0.11510412395000458, -0.1084575206041336, 0.12494543194770813, -0.2425728440284729, -0.4176270067691803, -0.12433677911758423, 0.3906908929347992, 0.30838045477867126, 0.02699708379805088, 0.2731872797012329, 0.0033025210723280907, -0.036824341863393784, 0.3412075638771057, 0.013863869942724705, 0.07136832922697067, 0.13120079040527344, 0.3213614523410797, -0.3349471092224121, -0.19197948276996613, 0.08501657843589783, -0.1560986489057541, -0.038965776562690735, 0.16076211631298065, 0.5334622859954834, 0.2523204982280731, -0.27829939126968384, -0.013464135117828846, 0.005615005735307932, -0.12230337411165237, -0.2394150346517563, 0.050006311386823654, 0.12489653378725052, -0.012115953490138054, 0.15273092687129974, 0.15985314548015594, -0.0833311453461647, 0.16785021126270294, 0.060016535222530365, 0.14485810697078705, -0.3149580657482147, -0.037432558834552765, -0.04412573575973511, 0.20197619497776031, -0.07089823484420776, -0.254025936126709, 0.048482850193977356, -0.036913566291332245, -0.023068739101290703, 0.029418401420116425, -0.12730081379413605, -0.3073952794075012, 0.2736329436302185, -0.15252459049224854, 0.5283157229423523, -0.08031902462244034, 0.264453649520874, -0.09898001700639725, 0.3347322940826416, 0.028155071660876274, 0.18678811192512512, -0.29647916555404663, -0.06264521926641464, -0.24274560809135437, 0.05444181337952614, -0.22277557849884033, -0.17662876844406128, 0.3223317265510559, -0.10447001457214355, 0.011756069958209991, -0.11318075656890869, -0.09731412678956985, -0.06972586363554001, 0.01989315077662468, -0.09331633150577545, 0.10394849628210068, -0.13849490880966187, -0.11269626766443253, -0.07916667312383652, 0.20097722113132477, 0.002319201361387968, -0.2448292225599289, 0.15453313291072845, -0.009124630130827427, -0.3141538202762604, 0.13755249977111816, 0.10812342166900635, -0.2967601716518402, -0.04108947888016701, 0.0032795292790979147, 0.26152580976486206, -0.564080536365509, 0.005668153055012226, -0.023460933938622475, 0.22264432907104492, 0.07755240052938461, 0.2966499924659729, 0.1631006896495819, -0.16847777366638184, -0.0855744257569313, 0.17640574276447296, 0.11499959230422974, -0.3283039629459381, 0.31400272250175476, 0.018693244084715843, -0.12039250135421753, 0.1040128618478775, 0.008394524455070496, 0.3331443667411804, 0.0029595864471048117, -0.24861182272434235, -0.24803687632083893, -0.11043769121170044, 0.21417979896068573, 0.2850615680217743, 0.13701464235782623, -0.17012900114059448, 0.1986367404460907, 0.10468027740716934, -0.18588930368423462, 0.3256242871284485, -0.033311519771814346, -0.19000011682510376, 0.16646817326545715, 0.007222413085401058, -0.31400975584983826, -0.2744567096233368, 0.18902450799942017, 0.5299705862998962, 0.30925697088241577, -0.0553528368473053, -0.2921370565891266, -0.20364634692668915, -0.24325130879878998, 0.08521904796361923, 0.26091107726097107, 0.1831832230091095, -0.27038270235061646, 0.2592852711677551, 0.09253212809562683, -0.12925340235233307, -0.06066904589533806, -0.11371386796236038, -0.03290927782654762, 0.21650801599025726, -0.19112791121006012, -0.004832063801586628, 0.046379778534173965, 0.1533118039369583, -0.12885650992393494, -0.0587008111178875, -0.1006457582116127, -0.06626281142234802, 0.13075906038284302, -0.03999977186322212, 0.026091689243912697, 0.068800188601017, -0.1689009815454483, 0.04179448261857033, 0.11993338912725449, -0.28025633096694946, -0.0028033119160681963, -0.33012065291404724, 0.0764189139008522, -0.26747941970825195, 0.410501629114151, -0.0723763108253479, 0.03653781861066818, -0.052721794694662094, 0.151178777217865, 0.14509859681129456, 0.22366465628147125, -0.20939874649047852, 0.20591440796852112, 0.06006207689642906, -0.2233159989118576, 0.0764089897274971, 0.07288120687007904, -0.20902565121650696, -0.05589495226740837, 0.05622004345059395, -0.033282339572906494, 0.18907909095287323, 0.03329489007592201, 0.03602568432688713, 0.1417989730834961, 0.17557993531227112, 0.062146902084350586, -0.05893203988671303, -0.14286935329437256, 0.05212029814720154, -0.11639514565467834, 0.5401678681373596, 0.8223769068717957, 0.27917274832725525, 0.06312963366508484, 0.6829267740249634, -0.7942166924476624, 1.134586215019226, -1.2184462547302246, -0.9076915383338928, -0.19223377108573914, 1.081270694732666, 0.183873251080513, 0.1906360387802124, -0.233372762799263, 0.323729008436203, -0.05744234099984169, -0.14103779196739197, 0.30472618341445923, -0.10513503104448318, -0.18051491677761078, 0.006229029037058353, -0.30870315432548523, -0.529757559299469, 0.04606425389647484, 0.08894184976816177, 0.32195818424224854, -0.014420697465538979, 0.02983941324055195, -0.15278002619743347, -0.4660145342350006, 0.09616975486278534, 0.03633914142847061, -0.18900790810585022, -0.29684698581695557, 0.25426191091537476, 0.13628080487251282, -0.16780652105808258, 0.15725082159042358, -0.15517161786556244, -0.2769430875778198, -0.0988500565290451, 0.1246475949883461, -0.21340781450271606, -0.4335426390171051, 0.08660393208265305, 0.04242198169231415, -0.38638541102409363, -0.10214795172214508, 0.02208113670349121, -0.21317525207996368, -0.23870772123336792, -0.1685524731874466, -0.20046792924404144, -0.060409948229789734, -0.18599410355091095, -0.1466917097568512, -0.10647939890623093, 0.00024809062597341835, -0.18472282588481903, 0.029314221814274788, 0.2813323736190796, -0.19159242510795593, -0.21203045547008514, 0.09716436266899109, -0.13953512907028198, 0.36572206020355225, -0.05848528444766998, -0.1932028830051422, -0.012413040734827518, -0.07280352711677551, 0.1591780185699463, -0.14008498191833496, 0.029799260199069977, 0.22169750928878784, -0.23633140325546265, 0.15214821696281433, 0.12076365202665329, -0.3374238908290863, 0.20456872880458832, -0.0870949998497963, 0.01197008229792118, -0.3013615608215332, 0.3557736575603485, -0.37534788250923157, -0.05008242279291153, -0.3208618760108948, 0.16905295848846436, -0.43042251467704773, -0.1486101895570755, 0.5714293122291565, -0.3124615550041199, 0.2708987593650818, -0.1805184930562973, 0.13985799252986908, -0.6856629848480225, 0.13036955893039703, 0.1456070989370346, -0.3122284412384033, -0.17403163015842438, -0.10934602469205856, 0.02290254645049572, -0.019607989117503166, -0.02267306298017502, 0.15074491500854492, -0.10594023764133453, -0.0306351687759161, -0.1255296766757965, 0.03435633331537247, 0.2456304281949997, 0.28967851400375366, -0.010707478038966656, -0.46255168318748474, -0.06767915934324265, -0.4004620909690857, 0.23817534744739532, -0.24854950606822968, -0.3295122981071472, -0.3048979640007019, -0.06553851068019867, 0.3840318024158478, 0.04948224499821663, -0.5353356003761292, 0.035071853548288345, 0.27511924505233765, 0.30323725938796997, 0.5933369994163513, -0.13362354040145874, -0.4009075164794922, 0.30161353945732117, 0.011960341595113277, -0.10989801585674286, -0.20285427570343018, 0.24887137115001678, 0.536811351776123, 0.17545002698898315, -0.38564246892929077, -0.29623839259147644, -0.4111674726009369, -0.23363880813121796, 0.18354865908622742, -0.14478304982185364, -0.4631325602531433, -0.20219126343727112, 0.1305522322654724, 0.05249197408556938, -0.14717082679271698, -0.017257438972592354, 0.041122373193502426, -0.051079511642456055, 0.17258583009243011, -0.16304536163806915, 0.024225842207670212, -0.04296688735485077, -0.19495084881782532, 0.05898166820406914, 0.1192520335316658, 0.018210336565971375, 0.2686271667480469, -0.2475743293762207, -0.007512430194765329, 0.14016509056091309, -0.1730717420578003, 0.2437296062707901, 0.08127841353416443, -0.025522805750370026, 0.08445125073194504, 0.19706225395202637, -0.3414728045463562, -0.039379142224788666, -0.11647239327430725, 0.03531249240040779, -0.0264568068087101, -0.11812413483858109, 0.09882412850856781, 0.13607849180698395, -0.5566655397415161, -0.0008668121881783009, -0.2758040726184845, -0.2832667827606201, -0.13057328760623932, 0.0635293573141098, -0.1497259885072708, 0.01956585980951786, -0.061847370117902756, 0.023833364248275757, -0.10071311146020889, 0.01218153815716505, 0.26888856291770935, 0.09618273377418518, -0.4647957980632782, -0.011985298246145248, 0.085283562541008, 0.021221047267317772, -0.036983832716941833, 0.19539770483970642, -0.20757006108760834, -0.10430997610092163, -0.11312652379274368, -0.050518423318862915, -0.05590621754527092, 0.23897024989128113, 0.20190727710723877, 0.06993448734283447, 0.20142529904842377, -0.02876160480082035, 0.03069213218986988, -0.21215511858463287, -0.2680397629737854, 0.0002485704026184976, 0.33069124817848206, 0.09792088717222214, 0.2479589432477951, -0.5603991746902466, 0.15944954752922058, 0.13316424190998077, -0.1102953851222992, 0.15803077816963196, 0.013878869824111462, -0.27677860856056213, 0.2915416657924652, -0.045884452760219574, -0.07341735810041428, 0.04766678065061569, 0.11722348630428314, -0.267447292804718, 0.21714936196804047, 0.045759011059999466, -0.17563658952713013, -0.12419945746660233, -0.23884077370166779, 0.3155283033847809, -0.18397165834903717, 0.0409248061478138, -0.3216562271118164, 0.2096506655216217, 0.19581925868988037, -0.019899820908904076, 0.14991024136543274, 0.014732781797647476, -0.10973186045885086, -0.21783168613910675, 0.02840075083076954, 0.25926944613456726, -0.022553037852048874, -0.08514904230833054, -0.44582873582839966, 0.0271221362054348, 0.43255913257598877, 0.2061789184808731, -0.10829197615385056, 0.17540620267391205, 0.2561441659927368, -0.0055113285779953, 0.077743299305439, 0.12071205675601959, -0.1688675582408905, -0.35863760113716125, 0.2181195318698883, 0.00670874398201704, -0.018786892294883728, 0.09922671318054199, 0.02678210474550724, -0.09805446863174438, -0.05426023155450821, 0.14621129631996155, 0.2735411822795868, -0.2227322906255722, -0.01519601047039032, 0.20753556489944458, 0.015423526056110859, 0.06741170585155487, -0.06136453151702881, -0.21037043631076813, 0.04684574529528618, 0.01337385829538107, 0.1653590351343155, -0.1029355451464653, -0.371773898601532, 0.35942381620407104, -0.08937837928533554, 0.2548866868019104, 0.02644025720655918, -0.15787166357040405, -0.2294086068868637, 0.47936931252479553, 0.05641200393438339, -0.2435251921415329, 0.2441667765378952, -0.07753268629312515, -0.28116747736930847, 0.18839997053146362, 0.022513175383210182, 0.21085727214813232, -0.012808007188141346, -0.11323551088571548, -0.07483766227960587, 0.2591942846775055, -0.0003423866000957787, -0.09213093668222427, -0.05203734338283539, -0.1417689472436905, 0.3444119691848755, -0.1111055314540863, 0.10991354286670685, -0.47833842039108276, 0.03378530219197273, 0.002314099343493581, -0.11433052271604538, 0.1708696037530899, 0.04647231847047806, -0.08689923584461212, 0.06248220056295395, 0.29100361466407776, -0.19222958385944366, -0.02960207127034664, -0.10417983680963516, 0.10859803110361099, 0.09452598541975021, 0.24342066049575806, -0.14549189805984497, 0.13424983620643616, 0.15752220153808594, -0.0510898232460022, 0.19839288294315338, 0.09449221938848495, 0.09752733260393143, 0.17076537013053894, -0.3701801896095276, 0.061284441500902176, 0.0884917825460434, 0.28934675455093384, 0.0001254056696780026, 0.011100679636001587, -0.0788630023598671, -0.1282556653022766, 0.08124842494726181, 0.16536472737789154, 0.05082063376903534, 0.11839409917593002, -0.0009133979910984635, 0.016669876873493195, -0.10781043022871017, 0.14933156967163086, -0.16511213779449463, 0.17581745982170105, 0.09828052669763565, 0.10267595201730728, -0.029651502147316933, -0.03238016366958618, -0.72124844789505, -0.14728054404258728, -0.06396029144525528, 0.551173210144043, -0.04544671252369881, -0.3584132492542267, -0.5659226775169373, -0.16223254799842834, -0.027638474479317665, -0.2642092704772949, -0.0023622142616659403, -0.008189203217625618, -0.4079277515411377, -0.13477547466754913, 0.3582986295223236, 0.49186840653419495, -0.0715426579117775, -0.24738478660583496, -0.7015418410301208, -0.07375168055295944, 0.02921035885810852, -0.2766154408454895, 0.18903933465480804, -0.4392080008983612, 0.3018294870853424, -0.0752185583114624, -0.29114803671836853, -0.5522334575653076, -0.059203434735536575, -0.09079620987176895, 0.06582562625408173, 0.05212067440152168, -0.16667647659778595, 0.044039107859134674, 0.11554722487926483, 0.22085906565189362, 0.0008931566262617707, -0.007478870917111635, -0.2780480682849884, -0.040671125054359436, 0.378427118062973, 0.09412779659032822, -0.06068437919020653, -0.2810536026954651, 0.10893271863460541, -0.05280401557683945, -0.3431382179260254, -0.023776385933160782, -0.15879501402378082, -0.1749477982521057, 0.03035067208111286, 0.23283880949020386, -0.07737986743450165, -0.12884944677352905, -0.07870008051395416, -0.11353080719709396, 0.19378995895385742, 0.012669454328715801, -0.29120615124702454, -0.13556130230426788, -0.16780856251716614, 0.513933539390564, -0.05249319598078728, 0.17071858048439026, -0.2564730942249298, 0.15177425742149353, -0.16995131969451904, 0.2540243864059448, 0.20442721247673035, 0.1631912887096405, -0.06272504478693008, -0.0338558554649353, 0.1832939088344574, 0.006076593417674303, 0.25006699562072754, 0.06301206350326538, -0.07452601194381714, -0.3960574269294739, 0.20171330869197845, -0.2285550981760025, -0.3092360198497772, 0.2674861252307892, -0.05718192458152771, 0.0739016979932785, -0.025652680546045303, 0.02611270360648632, 0.05787798389792442, -0.3191538453102112, 0.0436038114130497, -0.26749187707901, 0.31781989336013794, -0.1277039498090744, -0.0633864551782608, -0.01862601935863495, -0.05340331047773361, -0.05586951971054077, -0.15955808758735657, -0.08904770761728287, -0.11600721627473831, 0.20134799182415009, 0.12852686643600464, -0.23607082664966583, 0.011929964646697044, 0.05489751324057579, 0.020752830430865288, -0.05170325189828873, -0.11591394245624542, 0.3704952895641327, 0.12758812308311462, -0.07700038701295853, -0.10904395580291748, 0.14072716236114502, 0.11641831696033478, 0.5162338018417358, -0.47549372911453247, -0.05984051898121834, 0.31867197155952454, -0.11164581030607224, -0.2078038454055786, 0.25873926281929016, -0.02620488777756691, 0.059887394309043884, 0.503745973110199, 0.016584450379014015, -0.6034069061279297, -0.2154778689146042, 0.47009405493736267, 0.36182987689971924, 0.40164515376091003, 0.20830194652080536, -0.27769219875335693, -0.2695372700691223, 0.14091116189956665, 0.133600115776062, 0.4004663825035095, 0.1260973960161209, 0.2528609335422516, 0.40671753883361816, 0.18223699927330017, -0.32006725668907166, -0.35093173384666443, -0.27506351470947266, -0.30103325843811035, 0.11926313489675522, -0.08918821066617966, -0.140977144241333, -0.2799099087715149, 0.1243802160024643, 0.15801410377025604, 0.036991700530052185, -0.1921444684267044, -0.18946793675422668, 0.20772631466388702, -0.2017793208360672, -0.24929039180278778, 0.24541887640953064, -0.06320629268884659, -0.2165800780057907, 0.18903197348117828, 0.13579383492469788, -0.2668508291244507, -0.06816022843122482, -0.07602408528327942, -0.1109149381518364, 0.26766979694366455, -0.03186213970184326, 0.01802533119916916, -0.10435763001441956, -0.0768764466047287, 0.11394607275724411, -0.04925135523080826, 0.0694870799779892, -0.29241204261779785, 0.21523264050483704, -0.017488781362771988, -0.18294309079647064, 0.013949654065072536, 0.15409816801548004, -0.04172191396355629, -0.18137161433696747, -0.07110615819692612, 0.053774502128362656, -0.011088474653661251, 0.014057434163987637, 0.3245537281036377, -0.0242015291005373, -0.24183283746242523, -0.20818550884723663, -0.023305600509047508, -0.062174227088689804, -0.13542474806308746, -0.08654770255088806, 0.04102090746164322, -0.058841437101364136, 0.3467463254928589, 0.13321726024150848, 0.21737220883369446, -0.49967703223228455, -0.19883622229099274, 0.041816722601652145, 0.07165271788835526, -0.06512842327356339, -0.01571962796151638, -0.00531533919274807, -0.1685170978307724, -0.06129692867398262, 0.09413495659828186, 0.1285630762577057, 0.061848122626543045, 0.3627624213695526, 0.06447453051805496, 0.12615491449832916, 0.0708758756518364, -0.04009552299976349, -0.035776589065790176, -0.04431656375527382, 0.06514548510313034, -0.06507113575935364, 0.09678846597671509, -0.031077725812792778, -0.30149656534194946, 0.31445783376693726, 0.5957461595535278, 0.3923828601837158, -0.27053946256637573, -0.014714449644088745, 0.00855930894613266, -0.21971364319324493, 0.0032487574499100447, -0.042055919766426086, -0.5757529735565186, -0.02588508464396, 0.008200690150260925, 0.11873713880777359, -0.2306782305240631, -0.08992840349674225, -0.32073745131492615, 0.022189738228917122, 0.32797664403915405, 0.350259929895401, -0.0987628698348999, -0.30896735191345215, -0.31528326869010925, -0.25407683849334717, -0.17852777242660522, -0.06163312494754791, 0.02455161325633526, -0.10344870388507843, 0.3486877977848053, 0.17864811420440674, 0.4441128671169281, 0.07482270896434784, -0.05737852305173874, 0.0704525038599968, 0.07803156971931458, -0.06441736221313477, -0.010276869870722294, -0.023759879171848297, 0.02483164705336094, 0.3625831604003906, -0.1296149343252182, -0.14804188907146454, -0.3207400143146515, -1.1065216064453125, 0.9675485491752625, -0.7031540274620056, -0.8483174443244934, -0.20149853825569153, -0.6010963320732117, -0.39806103706359863, 0.5949077606201172, -0.4677028954029083, 0.6831211447715759, 0.8052794933319092, -0.19334299862384796, 0.17993049323558807, -0.35929474234580994, 0.41575300693511963, 0.3651222586631775, 0.22841598093509674, 0.4280582666397095, -0.3422395586967468, 0.02774263732135296, 0.08716147392988205, -0.343259334564209, 0.12920290231704712, -0.3115623891353607, -0.25426435470581055, -0.11644034087657928, 0.43543773889541626, -0.04904285818338394, -0.10809924453496933, 0.056082483381032944, 0.08247370272874832, 0.011531454510986805, -0.5674054622650146, -0.18540078401565552, 0.03982030227780342, 0.4781981408596039, 0.3592376112937927, 0.07859326153993607, -0.08732505142688751, -0.11246521770954132, 0.17656154930591583, -0.10309470444917679, 0.20865638554096222, 0.19052739441394806, 0.022460155189037323, 0.003908840473741293, 0.2632639408111572, -0.2258920669555664, 0.21824443340301514, -0.31126469373703003, -0.1992800086736679, 0.041129764169454575, 0.22061535716056824, 0.3182741403579712, 0.21068689227104187, -0.035059135407209396, 0.3889616131782532, -0.10803800821304321, 0.05238940194249153, -0.04769136756658554, -0.12990060448646545, 0.25538164377212524, -0.22121550142765045, 0.02344147115945816, -0.30864307284355164, -0.10177750885486603, 0.005177680868655443, 0.14252212643623352, -0.3467850983142853, -0.2653694748878479, -0.28135156631469727, 0.08608901500701904, 0.3494638502597809, -0.24305175244808197, 0.04321635141968727, -0.11463551968336105, -0.19438710808753967, -0.08248388767242432, -0.2838536202907562, 0.25366002321243286, -0.2703639566898346, -0.162478968501091, -0.3168601989746094, -0.1236516609787941, 0.2560232877731323, -0.29444369673728943, -0.05515625700354576, 0.21486982703208923, 0.20652496814727783, -0.12838388979434967, -0.21849051117897034, -0.13131539523601532, 0.09514205157756805, -0.05486965551972389, -0.0061035798862576485, -0.16999146342277527, -0.1563175469636917, -0.1650577038526535, -0.006935374811291695, 0.18561595678329468, 0.1259666085243225, 0.09135611355304718, -0.005293044727295637, -0.06088383495807648, 0.5052087903022766, -0.21785756945610046, -0.0013998583890497684, -0.6066772937774658, -0.2500408887863159, 0.40605679154396057, -0.07447323948144913, 0.06335491687059402, 0.21572867035865784, 0.16474974155426025, 0.3563976585865021, -0.07894115895032883, 0.014956209808588028, 0.3001158833503723, 0.24709799885749817, 0.37019702792167664, 0.07866843044757843, 0.007802610285580158, -0.10310845822095871, 0.12258363515138626, 0.03526472672820091, 0.5355466604232788, -0.17434097826480865, -0.15986338257789612, -0.34011155366897583, 0.3117810785770416, -0.4061145782470703, 0.0946355015039444, 0.11483676731586456, 0.20170317590236664, 0.03468039631843567, 0.36763858795166016, 0.20904266834259033, 0.14622116088867188, 0.41341185569763184, -0.3537929058074951, -0.20695558190345764, 0.08990275859832764, -0.23499520123004913, 0.029162563383579254, -0.07644181698560715, -0.14893893897533417, 0.08811085671186447, 0.25923946499824524, -0.07798154652118683, 0.21808108687400818, -0.3121340870857239, -0.2676013708114624, 0.09399230778217316, 0.16513557732105255, -0.06911057978868484, -0.24760694801807404, 0.34462854266166687, 0.5162025690078735, -0.11487804353237152, -0.03603518754243851, -0.0686594545841217, -0.08180831372737885, 0.005232404917478561, -0.2614573836326599, -0.12729191780090332, -0.05902346968650818, 0.24891477823257446, -0.09434229880571365, 0.2836557626724243, -0.01799856685101986, 0.09875292330980301, -0.367195188999176, -0.02117791771888733, 0.2113986611366272, 0.33925870060920715, 0.1737685203552246, -0.055847007781267166, 0.17770864069461823, 0.0813697800040245, 0.09204581379890442, 0.08313009142875671, -0.019131094217300415, 0.00047005750820972025, 0.3115941882133484, -0.013404574245214462, -0.13913270831108093, -0.05544604733586311, 0.046181004494428635, 0.22551731765270233, 0.1309858113527298, 0.2651160657405853, -0.20035916566848755, -0.1925991177558899, 0.17476874589920044, 0.13805115222930908, 0.004014624282717705, -0.3983980417251587, 0.018647195771336555, -0.09675513207912445, -0.033444084227085114, -0.02022835984826088, -0.18454255163669586, -0.06366851925849915, -0.25340285897254944, -0.0011037313379347324, -0.1351999044418335, 0.05599954351782799, -0.1857450157403946, -0.24669158458709717, 0.1272912323474884, -0.1317279189825058, 0.3220643401145935, -0.17468586564064026, -0.1309596449136734, -0.18307670950889587, -0.1377090960741043, -0.049089740961790085, 0.04866582900285721, -0.042514245957136154, 0.17098261415958405, 0.10647260397672653, -0.07057738304138184, -0.19075877964496613, -0.07174722105264664, 0.1476871520280838, -0.01037853304296732, 0.05919656157493591, -0.12407759577035904, -0.2814052700996399, -0.02207639440894127, 0.0321354903280735, -0.4405467212200165, -0.45721200108528137, 0.007350853644311428, 0.094937264919281, 0.16220928728580475, 0.07969778031110764, -0.0011077342787757516, 0.0012509683147072792, 0.09711717814207077, -0.2770615220069885, -0.14092332124710083, -0.031255077570676804, 0.23912972211837769, 0.0948968306183815, -0.038327161222696304, -0.22242654860019684, 0.07548484206199646, 0.02964775823056698, -0.28711575269699097, -0.19008032977581024, -0.1445947140455246, -0.2482772171497345, 0.020645208656787872, 0.146729975938797, -0.3364114463329315, 0.07637502253055573, 0.2646138370037079, 0.20716749131679535, -0.03418003395199776, -0.0705718919634819, -0.23684345185756683, -0.22195127606391907, 0.03898439556360245, 0.10533574223518372, 0.06883427500724792, -0.09555866569280624, 0.09501246362924576, 0.37841475009918213, -0.0339815728366375, -0.20024389028549194, 0.3500257432460785, 0.47148534655570984, 0.1259421408176422, 0.10990466177463531, 0.19093206524848938, 0.10822119563817978, -0.06406721472740173, -0.13051849603652954, -0.07404390722513199, -0.0015597199089825153, -0.07609257847070694, -0.05294635146856308, 0.4151422679424286, -0.1745145469903946, 0.03224997967481613, -0.061876896768808365, -0.1096036359667778, -0.03135523945093155, 0.11248350888490677, -0.2657029628753662, -0.054191648960113525, 0.14578251540660858, -0.19917811453342438, -0.26584574580192566, -0.01828036829829216, 0.24045999348163605, 0.23395435512065887, 0.018417730927467346, -0.10717880725860596, -0.1415749490261078, -0.179421067237854, 0.10092625021934509, -0.03443751484155655, -0.1585131287574768, -0.03697672858834267, 0.12587477266788483, -0.18740001320838928, -0.06746739149093628, 0.19355754554271698, -0.25254398584365845, -0.11372234672307968, 0.10332141071557999, -0.20299293100833893, -0.07727326452732086, 0.12455178052186966, -0.09349375218153, -0.10344502329826355, 0.17940852046012878, 0.03284741938114166, 0.27352598309516907, 0.0963035449385643, 0.05777548998594284, 0.16839353740215302, 0.23542338609695435, -0.30938881635665894, 0.05244813486933708, 0.12709307670593262, -0.4880557656288147, 0.1317664384841919, -0.08872496336698532, -0.07074519991874695, -0.0904480442404747, 0.08587922900915146, 0.13226695358753204, 0.10230498760938644, -0.04462233558297157, 0.3953196406364441, -0.1371408849954605, -0.12617599964141846, 0.17716282606124878, -0.17046213150024414, 0.09009897708892822, 0.09634267538785934, -0.055434081703424454, -0.013995741493999958, 0.2476656138896942, -0.018902229145169258, -0.09464888274669647, 0.022339873015880585, -0.17696411907672882, 0.19807346165180206, -0.10437439382076263, -0.37689411640167236, 0.29583311080932617, 0.6758294701576233, 0.21012702584266663, -0.009366171434521675, 0.2140658050775528, 0.023106947541236877, 0.08316807448863983, 0.20825083553791046, 0.133297398686409, 0.1690809726715088, 0.2610769271850586, 0.07091401517391205, -0.09942254424095154, -0.1628243625164032, -0.17284779250621796, -0.1821003258228302, -0.2496323585510254, 0.11779914051294327, 0.06981232017278671, -0.04521137475967407, 0.017819231376051903, 0.5189529061317444, 0.4266188144683838, 0.006266195792704821, -0.1315150111913681, 0.14233101904392242, 0.09615802764892578, 0.1772804707288742, 0.01910964399576187, 0.1286849081516266, 0.10503403842449188, 0.22322356700897217, -0.1338295191526413, -0.04441915079951286, -0.4352215826511383, 0.12750564515590668, -0.14181925356388092, 0.03690817207098007, -0.35690200328826904, 0.17674946784973145, 0.342694491147995, -0.07191120088100433, 0.014733817428350449, 0.034243807196617126, 0.12397701293230057, -0.11945794522762299, 0.04420583322644234, -0.02082461677491665, -0.20294466614723206, 0.08502519130706787, -0.036474741995334625, 0.02103368751704693, 0.046238161623477936, 0.03115825355052948, -0.06149499863386154, -0.19170373678207397, -0.11098907887935638, -0.03014308400452137, 0.27192360162734985, 0.1356222778558731, -0.0664389580488205, -0.21962043642997742, -0.030215313658118248, -0.0592864528298378, -0.2702465355396271, -0.015703238546848297, -0.14281640946865082, 0.03798928111791611, -0.010483941994607449, 0.2442217469215393, 0.30548933148384094, 0.33993908762931824, 0.13280892372131348, -0.233809694647789, 0.06813546270132065, 0.004952619317919016, -0.14308729767799377, -0.0881398394703865, -0.17849460244178772, 0.03526138514280319, -0.011659692041575909, 0.034545496106147766, -0.2629604637622833, -0.06361506134271622, 0.38854584097862244, 0.1501317322254181, -0.08820239454507828, 0.020804261788725853, -0.203872412443161, 0.08115208148956299, 0.04292994365096092, 0.13965454697608948, 0.19296886026859283, -0.09339824318885803, 0.18956328928470612, -0.31858310103416443, -0.02429872192442417, -0.05008320510387421, -0.08591995388269424, -0.04775276780128479, -0.13112583756446838, 0.11121078580617905, -0.020098203793168068, -0.22904863953590393, 0.27749738097190857, -0.060397833585739136, -0.2015364170074463, 0.38681289553642273, -0.19637134671211243, -0.11104797571897507, -0.057119786739349365, -0.1341305673122406, -0.09269963204860687, -0.16638104617595673, -0.1780465990304947, -0.19181892275810242, 0.3251434564590454, 0.0845000147819519, -0.14437386393547058, 0.1585063636302948, 0.15746596455574036, 0.00942628551274538, 0.09293559938669205, -0.21566574275493622, -0.1930069625377655, -0.04316192492842674, 0.09234935790300369, 0.05466105416417122, -0.3055989146232605, -0.13347673416137695, -0.0004445699159987271, -0.1634126454591751, -0.06704872101545334, -0.10510091483592987, -0.10481521487236023, 0.09206066280603409, -0.006471740081906319, 0.007444255519658327, 0.141973614692688, 0.3441576659679413, -0.00625204062089324, 0.1343793123960495, 0.24728862941265106, 0.059009648859500885, -0.1908372938632965, 0.020143724977970123, 0.25788193941116333, -0.10327749699354172, 0.1350780576467514, -0.16029232740402222, -0.29550856351852417, 0.047722965478897095, -0.0017939481185749173, 0.030141258612275124, 0.294951856136322, 0.17820939421653748, -0.10687092691659927, 0.21118617057800293, -0.044870100915431976, -0.19984948635101318, -0.007696258369833231, -0.04331492632627487, 0.18945269286632538, -0.10088302940130234, -0.014613929204642773, 0.08971918374300003, 0.20197996497154236, -0.22181320190429688, -0.09437239170074463, 0.25808653235435486, 0.10436327755451202, 0.08838152140378952, -0.13268515467643738, -0.17741797864437103, -0.09153527766466141, -0.17844778299331665, -0.06868875026702881, -0.1182011216878891, 0.16552653908729553, -0.10097134858369827, 0.2850835919380188, -0.0035972960758954287, 0.31238216161727905, 0.030029356479644775, -0.19801077246665955, -0.05377589538693428, 0.28145015239715576, 0.005549412686377764, 0.06713609397411346, 0.12070425599813461, 0.12381957471370697, -0.01113269105553627, -0.006044396199285984, -0.22115905582904816, -0.061650600284338, -0.09073381125926971, -0.13520821928977966, -0.04314197972416878, 0.03294786065816879, -0.021948425099253654, -0.09146995097398758, 0.49300917983055115, 0.3715973198413849, 0.1937544196844101, 0.20266036689281464, 0.0870940089225769, 0.06887947022914886, -0.02874082699418068, -0.01481185108423233, -0.02453349344432354, -0.01264444924890995, 0.1625160276889801, -0.38301458954811096, -0.14421680569648743, -0.12934409081935883, -0.08819219470024109, 0.09492725878953934, 0.20700277388095856, -0.06241879612207413, 0.17884409427642822, 0.08549106121063232, -0.18348634243011475, 0.13715259730815887, 0.14414754509925842, -0.23450663685798645, 0.16190804541110992, 0.23116877675056458, -0.1384655237197876, 0.019084112718701363, 0.01466464065015316, -0.14352771639823914, -0.05824092775583267, 0.11367034167051315, -0.017436867579817772, -0.0885329619050026, -0.2592715620994568, 0.31080377101898193, -0.07793430238962173, -0.035654012113809586, -0.28517359495162964, 0.129825621843338, 0.0785583034157753, -0.3074544370174408, -0.061661478132009506, 0.026303356513381004, -0.01640739105641842, 0.05478903651237488, -0.04206690937280655, -0.15121690928936005, -0.04471134394407272, 0.05456935614347458, -0.20166440308094025, -0.07367376983165741, 0.10541670024394989, -0.10107120871543884, -0.026330990716814995, -0.007368684746325016, -0.009054386988282204, 0.7046433687210083, 0.03888166323304176, 0.2812339961528778, 0.00456727622076869, 0.2982158362865448, 0.32047751545906067, 0.5768566727638245, -0.6681943535804749, -0.45368295907974243, -1.1462358236312866, -0.5250572562217712, 0.7783133387565613, -0.24232327938079834, -0.2952408790588379, 0.2283715307712555, -0.12301140278577805, 0.26371312141418457, 0.37845826148986816, -0.021074002608656883, 0.11815743893384933, -0.39306363463401794, 0.18340343236923218, 0.12251224368810654, -0.22854189574718475, 0.05390115827322006, -0.173170268535614, -0.06077514588832855, 0.05046996474266052, -0.1503818780183792, 0.3417108654975891, 0.38025736808776855, -0.10118938982486725, -0.199118509888649, 0.044432010501623154, -0.026745488867163658, 0.29633980989456177, 0.06985468417406082, 0.015080539509654045, -0.11373401433229446, -0.20586107671260834, -0.0070229265838861465, -0.48971322178840637, 0.004119568038731813, 0.17650863528251648, -0.09679059684276581, 0.2927481532096863, -0.20093324780464172, -0.06246350333094597, 0.07597682625055313, -0.08372662216424942, -0.14189863204956055, 0.32241010665893555, -0.18392322957515717, 0.36426207423210144, -0.1274878829717636, 0.0565209798514843, 0.09347491711378098, -0.2305060476064682, 0.0314161442220211, 0.003101206151768565, 0.06609000265598297, -0.3923989236354828, -0.10395655035972595, -0.1379789561033249, 0.11283370852470398, -0.07141494750976562, -0.015923291444778442, 0.2630082070827484, -0.046113453805446625, 0.1399974524974823, 0.04631413519382477, -0.20148009061813354, -0.2500014305114746, 0.03347835689783096, 0.029196882620453835, 0.26061150431632996, 0.11600420624017715, -0.06167718395590782, -0.13132542371749878, 0.11803490668535233, 0.04373191297054291, -0.41611963510513306, -0.08850056678056717, 0.0012330851750448346, 0.04552675783634186, -0.33998411893844604, 0.1878446638584137, 0.060997314751148224, 0.2302238941192627, 0.19970384240150452, -0.05376967415213585, -0.05841296911239624, 0.08059746026992798, 0.007471770513802767, 0.008418150246143341, -0.17786677181720734, -0.012732944451272488, 0.07548504322767258, -0.24113474786281586, -0.17958614230155945, -0.27520468831062317, 0.02327663078904152, -0.1098289042711258, -0.18973425030708313, 0.217833012342453, 0.20522873103618622, -0.11195068061351776, -0.19942131638526917, 0.245939701795578, 0.11212261021137238, -0.19564375281333923, 0.30023592710494995, -0.1536751389503479, -0.07799405604600906, -0.07600877434015274, -0.34786123037338257, -0.06594791263341904, 0.10498485714197159, -0.24387012422084808, 0.3199903964996338, 0.040568407624959946, -0.20339004695415497, 0.19718728959560394, -0.29706746339797974, -0.1444658786058426, 0.12244169414043427, -0.09383207559585571, 0.4390062987804413, -0.05566764622926712, 0.043515972793102264, -0.3143167197704315, 0.17511865496635437, 0.02531442791223526, 0.10712800174951553, -0.11851074546575546, -0.038112711161375046, 0.1410316377878189, 0.17051689326763153, -0.2667087912559509, 0.30289676785469055, 0.046119268983602524, 0.26681244373321533, 0.31945687532424927, 0.27537912130355835, 0.4175509810447693, -0.056829240173101425, -0.17330874502658844, 0.2861214578151703, -0.10247210413217545, 0.0037614277098327875, 0.21562840044498444, -0.3843855857849121, -0.2514955997467041, 0.2868264317512512, -0.24305322766304016, -0.06341645121574402, -0.0665682777762413, -0.08126377314329147, -0.10685263574123383, -0.05339200049638748, -0.011863620951771736, -0.05817381292581558, 0.274524986743927, -0.27634599804878235, -0.2229466736316681, 0.2791924476623535, 0.4572880268096924, -0.21066361665725708, -0.12200990319252014, 0.05289608612656593, 0.026657849550247192, 0.043937310576438904, 0.07327936589717865, -0.10846801102161407, 0.27492091059684753, 0.011797137558460236, -0.13001616299152374, 0.22789640724658966, 0.027853745967149734, -0.07055339217185974, -0.019716881215572357, 0.03699503466486931, 0.34145882725715637, 0.049033381044864655, 0.06959515064954758, -0.06780873239040375, -0.1876329630613327, 0.33059999346733093, -0.06185222044587135, 0.11223314702510834, -0.18927724659442902, -0.09353771060705185, -0.1304837465286255, -0.0687999576330185, 0.08072859793901443, -0.23037704825401306, 0.03292969986796379, 0.11552650481462479, -0.2122419774532318, 0.036986205726861954, -0.11242770403623581, 0.3044634461402893, -0.19793003797531128, -0.15861880779266357, -0.0936104878783226, -0.020093558356165886, -0.22702696919441223, 0.18671643733978271, -0.09472718834877014, -0.11138273030519485, -0.1897585242986679, 0.014800382778048515, 0.03345388174057007, -0.18712827563285828, -0.11648246645927429, 0.2576892375946045, -0.0932595282793045, 0.02594902738928795, -0.08676809817552567, -0.02863241173326969, 0.13061977922916412, 0.08857844769954681, -0.1937776505947113, 0.2694892883300781, -0.0014177284901961684, -0.1416928619146347, -0.1507781594991684, 0.06914761662483215, 0.009896156378090382, 0.28574511408805847, -0.16358652710914612, -0.1334613710641861, 0.12806430459022522, -0.2788698971271515, -0.19554772973060608, -0.2749369740486145, 0.05380324274301529, 0.12799376249313354, -0.04473297670483589, 0.07051302492618561, -0.012900291010737419, 0.1114729642868042, 0.24064846336841583, -0.12530075013637543, -0.009966881945729256, -0.0015525220660492778, -0.032567743211984634, -0.12113562226295471, -0.07793676853179932, -0.1898960918188095, -0.3044010400772095, -0.27141445875167847, 0.03894728794693947, 0.1560620367527008, 0.08124986290931702, -0.07069983333349228, -0.20301969349384308, -0.007124703843146563, -0.15212251245975494, 0.10323087126016617, -0.015573754906654358, 0.021309280768036842, 0.04198813438415527, 0.040732670575380325, -0.3147037923336029, 0.03764327988028526, 0.09792045503854752, -0.06162145733833313, 0.017019011080265045, -0.3117824196815491, 0.3037744164466858, 0.060515791177749634, -0.12341432273387909, 0.24515971541404724, -0.09174638986587524, 0.08367691934108734, -0.06077190488576889, -0.17399375140666962, 0.23005889356136322, 0.08169237524271011, 0.07659504562616348, 0.2125621885061264, 0.13077034056186676, 0.0995141938328743, -0.37586522102355957, -0.004874561447650194, -0.01310423482209444, -0.2219848483800888, -0.1907711774110794, 0.07948271185159683, 0.1082712933421135, 0.01775791123509407, -0.10532862693071365, 0.10803663730621338, 0.06235729530453682, 0.03932884335517883, -0.01779116317629814, 0.06683583557605743, 0.21215249598026276, -0.13688437640666962, -0.07727550715208054, -0.07040994614362717, -0.34377092123031616, 0.11090652644634247, 0.026025179773569107, 0.24006259441375732, 0.09306151419878006, -0.03200685977935791, 0.2513667345046997, -0.11982247233390808, 0.04893912374973297, -0.2639597952365875, 0.07324955612421036, -0.021654322743415833, -0.09814902395009995, -0.21941396594047546, 0.20822538435459137, -0.04717203229665756, -0.18457157909870148, 0.060806069523096085, -0.1379304826259613, 0.13407310843467712, -0.20245002210140228, 0.03463030606508255, 0.021056143566966057, -0.12787948548793793, 0.28671395778656006, -0.007768587209284306, -0.10553141683340073, 0.05425436794757843, 0.2114795297384262, 0.1862567812204361, -0.23176853358745575, -0.20648136734962463, 0.12141887843608856, -0.10669633001089096, 0.004481154959648848, 0.013461098074913025, -0.10216972976922989, 0.07485934346914291, -0.07844344526529312, 0.04217897728085518, 0.03770250454545021, 0.04563048109412193, 0.009823090396821499, -0.032132383435964584, 0.0069957273080945015, 0.03889533504843712, -0.02143518626689911, 0.08096837252378464, -0.030787330120801926, 0.19223445653915405, 0.07902669161558151, 0.14888915419578552, 0.05770743265748024, -0.14915800094604492, -0.05163593962788582, 0.12194464355707169, 0.30897825956344604, 0.06318452954292297, 0.08766225725412369, -0.30489879846572876, 0.1296505182981491, -0.04264902323484421, 0.012357027269899845, -0.034541282802820206, 0.07451949268579483, 0.022542770951986313, -0.0030927592888474464, 0.21264339983463287, 0.18283164501190186, -0.10191584378480911, -0.044278502464294434, 0.03739071637392044, 0.05211472511291504, -0.05614747852087021, 0.08022663742303848, 0.203145369887352, 0.03406842425465584, -0.0514642708003521, 0.07627176493406296, 0.20778733491897583, -0.10632685571908951, -0.19180694222450256, 0.0917041152715683, -0.0896509513258934, 0.04508128762245178, 0.066183902323246, -0.33791881799697876, -0.25667449831962585, -0.09462537616491318, 0.11941831558942795, 0.09933213889598846, 0.07067745923995972, 0.10698714107275009, 0.07250002771615982, 0.021036067977547646, -0.12359903007745743, 0.21240787208080292, 0.15803788602352142, 0.09153758734464645, 0.050741713494062424, 0.059665072709321976, -0.22210004925727844, 0.12668558955192566, -0.1294507533311844, 0.11516416072845459, 0.12475763261318207, 0.19320155680179596, 0.056060150265693665, 0.030048439279198647, -0.08642002940177917, -0.17572371661663055, -0.01286777388304472, -0.20083655416965485, -0.0586649626493454, 0.4380257725715637, 0.18643362820148468, 0.08116497844457626, -0.32513663172721863, -0.09095346182584763, 0.47255557775497437, -0.13958770036697388, 0.1889374703168869, -0.43106696009635925, -0.07520648092031479, -0.2942971885204315, 0.17615507543087006, 0.05131900683045387, -0.022932684049010277, 0.20399557054042816, 0.26615050435066223, -0.07948464900255203, -0.15123453736305237, -0.11799861490726471, -0.18269997835159302, -0.05171922594308853, 0.09449976682662964, 0.1484721302986145, -0.09514565765857697, -0.054389987140893936, -0.2960995137691498, 0.06060245633125305, 0.12851524353027344, -0.11800729483366013, -0.18957814574241638, 0.014844601973891258, 0.4597540497779846, 0.09672489017248154, -0.36111316084861755, -0.07654546946287155, 0.13963919878005981, 0.22123491764068604, -0.3530416190624237, -0.0676792562007904, 0.19745872914791107, 0.04586593434214592, 0.11286112666130066, -0.07746797800064087, -0.01847391575574875, -0.08838077634572983, -0.20692060887813568, -0.24518713355064392, 0.1639450341463089, 0.11328843235969543, 0.08030444383621216, -0.22276878356933594, 0.034439485520124435, 0.007712818216532469, 0.03842933848500252, 0.10867901891469955, -0.01966915838420391, 0.033153098076581955, 0.08221447467803955, 0.08700114488601685, 0.18049372732639313, -0.20744839310646057, -0.09423018246889114, -0.19958369433879852, 0.13394582271575928, -0.023120561614632607, 0.11886822432279587, -0.02845456637442112, 0.14558371901512146, 0.19475211203098297, -0.11896227300167084, 0.07033545523881912, 0.1500837653875351, -0.2408689558506012, -0.0994747057557106, -0.025293363258242607, 0.30771604180336, -0.04263680428266525, -0.1278599202632904, -0.027319932356476784, -0.06996258348226547, 0.10466638207435608, 0.19372957944869995, 0.2449205070734024, 0.3471739888191223, -0.2833491265773773, -0.2061426043510437, -0.12375039607286453, 0.011851540766656399, -0.03210270777344704, 0.08728645741939545, -0.08637861907482147, -0.053641825914382935, -0.13736265897750854, -0.29443198442459106, -0.031030628830194473, -0.032948821783065796, 0.18836067616939545, 0.10988219082355499, 0.21699412167072296, -0.14830893278121948, 0.10480029135942459, 0.11698288470506668, 0.031005773693323135, -0.04133804887533188, -0.18385596573352814, 0.1816432774066925, -0.17920580506324768, -0.19115488231182098, -0.2604120969772339, 0.1763545423746109, 0.2906462550163269, -0.13246573507785797, 0.12725558876991272, 0.40591877698898315, 0.029177367687225342, 0.12399916350841522, 0.32816487550735474, -0.30187511444091797, -0.1380157172679901, 0.16524271667003632, -0.08147319406270981, 0.07716940343379974, 0.012139974161982536, 0.12646226584911346, 0.14743828773498535, 0.7484596371650696, -0.04603872075676918, -0.030900457873940468, -0.12011328339576721, -0.11939147859811783, -0.03678543493151665, -0.19403044879436493, 0.0263871680945158, -0.1862807422876358, -0.0012337177759036422, -0.02712978422641754, -0.071353480219841, -0.21000580489635468, -0.1872308999300003, 0.2609431743621826, 0.14490161836147308, -0.08544839918613434, 0.156324103474617, 0.4751216471195221, 0.042949605733156204, -0.09983337670564651, 0.029385555535554886, 0.027785370126366615, 0.13669025897979736, 0.008766631595790386, -0.2570650577545166, 0.061963070183992386, 0.10283011943101883, 0.10449807345867157, -0.014366290532052517, 0.13394597172737122, 0.12139381468296051, 0.0027733275201171637, 0.11857716739177704, 0.08026858419179916, -0.08246937394142151, 0.06616736203432083, -0.6869592070579529, 0.15470834076404572, -0.1452118307352066, -0.26733747124671936, -0.22962641716003418, -0.220978245139122, -0.14447319507598877, 0.0721004381775856, 0.10799217969179153, -0.282810240983963, -0.01972869038581848, -0.06422170251607895, 0.6509509682655334, -0.3518643379211426, -0.10812608897686005, 0.15857982635498047, 0.03557468205690384, -0.11165224760770798, 0.45452257990837097, 0.000692067900672555, 0.16216632723808289, 0.13102078437805176, 0.016026364639401436, 0.06477031111717224, -0.026225507259368896, 0.21801674365997314, 0.06538941711187363, -0.05885836109519005, 0.1546063870191574, 0.10893365740776062, 0.058490075170993805, 0.11206801980733871, 0.3727434575557709, -0.02979441173374653, 0.14264166355133057, -0.07548321783542633, 0.34828415513038635, -0.8303782939910889, 0.10740020126104355, -0.3290591537952423, -0.25601837038993835, -1.2502963542938232, 0.7428526878356934, -0.8929807543754578, 0.294691264629364, 0.7987986207008362, -0.363058865070343, 0.2297838181257248, -0.2787625789642334, -0.22965013980865479, 0.014880644157528877, -0.08851820230484009, 0.305476576089859, -0.06312281638383865, 0.08173782378435135, -0.5009298920631409, -0.058005355298519135, 0.21628043055534363, 0.235728919506073, 0.005924953613430262, -0.01624695397913456, -0.21239598095417023, 0.21972626447677612, -0.04247976094484329, -0.12344188243150711, -0.17327192425727844, 0.2942022979259491, -0.09252500534057617, 0.12104471772909164, -0.005382221657782793, -0.03427962213754654, 0.24756087362766266, 0.12689197063446045, 0.10866820067167282, -0.06930067390203476, -0.15448340773582458, 0.19477789103984833, 0.12436527758836746, -0.14163120090961456, 0.13897912204265594, -0.11821182817220688, 0.05586225166916847, 0.02176719158887863, 0.06904229521751404, 0.3124234080314636, 0.1382756382226944, -0.026204200461506844, -0.1932678520679474, -0.014359244145452976, -0.15265627205371857, 0.19263380765914917, 0.03713216632604599, 0.12005942314863205, -0.18193627893924713, -0.068278968334198, 0.3233727514743805, 0.20831900835037231, -0.05042319372296333, -0.015454371459782124, 0.331796795129776, 0.06529361009597778, 0.006100151222199202, -0.24507585167884827, 0.21079374849796295, -0.14946645498275757, -0.024830922484397888, 0.3298364579677582, 0.02482490800321102, 0.03617323189973831, 0.12335540354251862, 0.2462836354970932, 0.03431243076920509, -0.13153176009655, -0.26517990231513977, -0.23579198122024536, 0.27328434586524963, 0.09893947094678879, 0.12044845521450043, 0.15877951681613922, 0.3667048215866089, 0.26156046986579895, -0.13149188458919525, -0.030476510524749756, -0.14989371597766876, 0.053157560527324677, -0.19256439805030823, 0.4045882225036621, -0.28749269247055054, 0.033975403755903244, -0.16421879827976227, -0.16437524557113647, -0.03967507556080818, -0.1285635232925415, 0.24159979820251465, 0.24186722934246063, -0.21966905891895294, -0.11151521652936935, 0.12389504909515381, 0.3023154139518738, -0.08714969456195831, 0.2233046591281891, -0.052194658666849136, -0.12153228372335434, 0.1518857181072235, -0.3385166823863983, 0.27706700563430786, 0.2609027922153473, -0.0981200560927391, 0.19849075376987457, 0.12709541618824005, -0.1223621815443039, 0.29149100184440613, -0.0781659334897995, -0.41354578733444214, 0.04158072918653488, -0.240720734000206, 0.30529627203941345, -0.12717485427856445, 0.047319285571575165, -0.009358299896121025, 0.1621887981891632, 0.12777815759181976, 0.1622164100408554, -0.0898173376917839, -0.1606634557247162, 0.3859769105911255, -0.23280757665634155, -0.06502935290336609, 0.27459484338760376, -0.21562761068344116, -0.24677225947380066, 0.012659721076488495, 0.05035822466015816, -0.018203744664788246, -0.14097484946250916, -0.06607700139284134, 0.09321954101324081, -0.1402525156736374, 0.13100847601890564, -0.1071765199303627, -0.07089492678642273, 0.18989525735378265, -0.17289994657039642, 0.17195728421211243, 0.502647340297699, 0.10211951285600662, -0.1611752063035965, 0.4993775486946106, 0.10676942020654678, -0.027452053502202034, 0.32911890745162964, -0.09143415093421936, -0.1192154660820961, -0.17739933729171753, -0.13375064730644226, 0.06626308709383011, 0.27835336327552795, -0.1722089648246765, 0.13340100646018982, 0.22591766715049744, 0.042569663375616074, -0.0321292020380497, 0.049713801592588425, -0.1111004650592804, -0.20720067620277405, -0.005677093751728535, 0.22566941380500793, -0.0775374099612236, -0.14507927000522614, 0.16601450741291046, -0.19803877174854279, 0.07491359859704971, 0.14640724658966064, -0.1321272850036621, 0.10458090156316757, 0.032957326620817184, -0.07646558433771133, -0.23544684052467346, -0.0603647455573082, 0.08703988045454025, -0.04484296217560768, 0.2444230616092682, 0.18581552803516388, 0.11400512605905533, -0.05166816711425781, 0.03918740898370743, 0.05528610199689865, -0.02852669730782509, -0.23734067380428314, 0.15805500745773315, -0.2702323794364929, -0.2116316258907318, -0.15562650561332703, 0.05143304541707039, -0.2652239501476288, -0.07367496192455292, -0.34837040305137634, 0.14889048039913177, -0.13540223240852356, -0.09054701775312424, 0.028965463861823082, -0.22113753855228424, -0.1667555272579193, 0.01295853778719902, 0.22923463582992554, 0.22745923697948456, 0.01953147165477276, -0.06703302264213562, -0.027864698320627213, -0.15256772935390472, 0.08048716932535172, 0.0036711101420223713, 0.07610643655061722, 0.22275499999523163, 0.1053532138466835, 0.033261582255363464, 0.05240359157323837, 0.01190935354679823, 0.3369905948638916, -0.037594955414533615, -0.07379533350467682, 0.05461185425519943, 0.21750731766223907, 0.08831217139959335, 0.3218371272087097, -0.02742929384112358, -0.10135722160339355, -0.00866896752268076, -0.14150787889957428, -0.16056415438652039, -0.29131269454956055, 0.45449334383010864, 0.3294293284416199, 0.02337096631526947, 0.05301247164607048, -0.3910328149795532, 0.025167139247059822, -0.04946112260222435, -0.17428870499134064, -0.048052042722702026, -0.005244578700512648, 0.19634142518043518, -0.2670232951641083, -0.08616260439157486, 0.11542192846536636, -0.1409841775894165, -0.006180773954838514, -0.26820066571235657, -0.1810019463300705, 0.11680006980895996, 0.24544550478458405, -0.04820224642753601, -0.12453847378492355, -0.020929133519530296, -0.03138080984354019, 0.028100235387682915, 0.23933546245098114, 0.017384033650159836, -0.12848874926567078, 0.012828923761844635, -0.13503877818584442, -0.10729485005140305, 0.05690790340304375, -0.08581157773733139, 0.13563068211078644, 0.14667053520679474, 0.1500805765390396, 0.1574762761592865, 0.10787522047758102, -0.11156096309423447, -0.13549284636974335, -0.11394545435905457, -0.7745689153671265, -0.10128195583820343, -0.148065984249115, 0.5444456934928894, 0.052139125764369965, 0.023415228351950645, -0.5233483910560608, 0.1146317720413208, 0.09052025526762009, -0.5100417137145996, -0.06068801134824753, 0.1407373696565628, -0.06715679913759232, 0.252800315618515, 0.2593132555484772, 0.22972837090492249, -0.09170455485582352, -0.27526599168777466, -0.5407673716545105, -0.07832642644643784, -0.04822131246328354, -0.6215835809707642, -0.15752644836902618, 0.006535099819302559, 0.2585548162460327, -0.09973475337028503, -0.1491769552230835, 0.25145047903060913, 0.06823123246431351, 0.07229169458150864, -0.200640469789505, 0.4387941360473633, 0.19946973025798798, -0.06609447300434113, 0.028538484126329422, -0.12153223901987076, 0.3125362694263458, -0.033829040825366974, -0.20056472718715668, 0.22320201992988586, 0.035277482122182846, 0.07923305779695511, -0.05928938090801239, -0.10367918014526367, -0.08324232697486877, -0.06339037418365479, 0.046575989574193954, -0.002092214534059167, 0.19791153073310852, 0.17476491630077362, 0.09370581060647964, -0.18994779884815216, -0.015565307810902596, -0.02010393887758255, -0.047165073454380035, 0.02116810344159603, 0.1705549955368042, 0.07865621149539948, 0.09584688395261765, 0.06462321430444717, 0.27946680784225464, 0.04228322580456734, -0.0843280479311943, -0.23442581295967102, -0.07644227147102356, -0.02278747223317623, -0.22793586552143097, 0.22117702662944794, 0.13466273248195648, 0.006252724211663008, -0.09305181354284286, -0.22304372489452362, -0.08245614916086197, -0.08135449141263962, -0.12723930180072784, -0.20517832040786743, 0.057489968836307526, -0.10950082540512085, 0.07660479843616486, -0.00107501947786659, 0.10183744877576828, -0.23150427639484406, 0.05837598443031311, 0.20280751585960388, -0.3774210214614868, -0.024773547425866127, -0.17214953899383545, -0.014218772761523724, -0.16745539009571075, 0.11789162456989288, 0.1474291980266571, -0.12046512961387634, -0.2086499184370041, -0.19419662654399872, -0.33627307415008545, 0.011386841535568237, -0.19712187349796295, -0.11743763089179993, -0.14383497834205627, 0.327455997467041, 0.25467291474342346, 0.1376388967037201, -0.14587153494358063, 0.29659542441368103, 0.22807201743125916, -0.1793242245912552, 0.05003432556986809, 0.0696481466293335, 0.7421485185623169, -0.021487494930624962, -0.04819902777671814, -0.12673796713352203, -0.01646674983203411, -0.08113732933998108, 0.11333847045898438, -0.18789134919643402, -0.3513280749320984, 0.04998358339071274, 0.03496735915541649, -0.13000436127185822, 0.1207447350025177, -0.19758829474449158, -0.12993627786636353, 0.20929905772209167, -0.039322804659605026, 0.24853244423866272, -0.08982498198747635, 0.13543358445167542, 0.025406472384929657, 0.12032049149274826, 0.016221126541495323, 0.21337418258190155, -0.6199106574058533, 0.026035139337182045, 0.22176270186901093, 0.3976062536239624, 0.015024255029857159, -0.1716597080230713, -0.011867525987327099, -0.1828746497631073, -0.151686429977417, 0.019063401967287064, 0.12126616388559341, 0.07904496043920517, 0.1005168929696083, 0.09013897180557251, -0.08004289865493774, -0.036512590944767, -0.19013448059558868, -0.1642685830593109, 0.18720266222953796, -0.13279832899570465, -0.1270761489868164, -0.0405796580016613, -0.10631122440099716, -0.3628448247909546, 0.044502999633550644, -0.2537279427051544, 0.07902345806360245, -0.00602687057107687, -0.06090744584798813, -0.030409516766667366, -0.18591970205307007, 0.015003504231572151, 0.004050299525260925, 0.05979902669787407, -0.1886913925409317, -0.003693212755024433, 0.09810514003038406, -0.026484262198209763, -0.04079737886786461, -0.1855926662683487, 0.14471092820167542, 0.038126684725284576, -0.1259714961051941, -0.13262704014778137, -0.30429497361183167, 0.23705388605594635, 0.05163569375872612, -0.09938081353902817, -0.06357265263795853, -0.08857554942369461, -0.16302281618118286, 0.14676405489444733, -0.22431807219982147, 0.005569483153522015, 0.07448267191648483, -0.2021128386259079, -0.0654754713177681, -0.07808104902505875, -0.10365644842386246, -0.11361384391784668, 0.16574670374393463, 0.0045239306055009365, 0.0641222596168518, 0.22464877367019653, -0.013070904649794102, -0.20848268270492554, 0.0366094708442688, 0.017087353393435478, 0.14258147776126862, -0.02093019150197506, 0.025164514780044556, 0.08289174735546112, 0.37361109256744385, -0.1053575798869133, -0.20940905809402466, 0.044739462435245514, 0.08393941074609756, -0.025792406871914864, -0.002219513524323702, -0.08989404141902924, 0.2721838653087616, -0.0616617314517498, 0.053809329867362976, -0.054435521364212036, -0.1115172877907753, -0.06403476744890213, -0.16728293895721436, -0.12359094619750977, 0.13534732162952423, -0.23905132710933685, 0.0381239652633667, 0.41317644715309143, 0.02089623734354973, 0.050278402864933014, 0.12169462442398071, -0.0425494946539402, 0.05753304809331894, 0.3780358135700226, 0.11215648800134659, 0.2482205629348755, -0.09330350905656815, 0.25655436515808105, 0.05836058035492897, -0.02777637355029583, -0.3680392801761627, 0.048744287341833115, -0.31672579050064087, -0.0700773075222969, 0.08842243254184723, -0.012444728054106236, 0.3535987436771393, -0.11443920433521271, -0.003080167807638645, -0.024970250204205513, 0.053263869136571884, 0.2843259871006012, -0.26137039065361023, 0.14451715350151062, -0.07013603299856186, 0.26967960596084595, -0.006482199765741825, 0.026090918108820915, -0.0810006707906723, -0.16993337869644165, -0.003009277395904064, -0.2104784995317459, 0.16270171105861664, 0.06534655392169952, -0.135227769613266, 0.07910966128110886, -0.02096819505095482, 0.19838953018188477, 0.17224325239658356, -0.06630407273769379, -0.20660021901130676, 0.39584115147590637, -0.05013833940029144, -0.29163211584091187, 0.04451349005103111, -0.0076756044290959835, 0.03993866220116615, 0.006815876346081495, -0.19566120207309723, -0.11558683961629868, 0.13338716328144073, -0.0793507844209671, -0.0057745580561459064, 0.12670870125293732, 0.09906907379627228, -0.14858531951904297, -0.15091069042682648, 0.028644051402807236, 0.1209525391459465, -0.2560984790325165, 0.002203976269811392, 0.03321567550301552, -0.03721059113740921, -0.1031976193189621, -0.20981669425964355, -0.1729554682970047, 0.09248924255371094, -0.05234521999955177, -0.057386837899684906, -0.11117132753133774, -0.09425771236419678, 0.32775071263313293, 0.08423539996147156, 0.0010166135616600513, 0.05498699098825455, -0.07407372444868088, -0.02339029684662819, -0.2642076015472412, -0.1309196799993515, -0.1387438327074051, -0.09858941286802292, 0.021606719121336937, -0.036160603165626526, 0.16553574800491333, -0.09131845831871033, -0.008221768774092197, 0.030279144644737244, -0.2020544707775116, -0.3093357980251312, 0.07368221879005432, -0.04689281806349754, 0.012886077165603638, 0.07263350486755371, 0.1279577761888504, 0.1854901760816574, -0.10342398285865784, -0.02368680201470852, 0.2395867556333542, -0.08041607588529587, 0.07456734776496887, -0.05265432968735695, -0.011743046343326569, -0.021655648946762085, -0.03722935542464256, -0.14042000472545624, -0.11345057189464569, -0.006867369636893272, -0.08698172122240067, -0.5860905051231384, 0.16947750747203827, 0.6748923063278198, 0.31896236538887024, 0.7031252980232239, 0.9010659456253052, -0.8964847922325134, -0.06341730058193207, -0.33179378509521484, 0.5117313265800476, -0.04646444320678711, 0.5880922675132751, -0.03633987158536911, -0.27322617173194885, -0.0961490273475647, 0.025273632258176804, -0.07328008115291595, 0.2411050647497177, -0.08101430535316467, -0.2992312014102936, -0.16559365391731262, 0.25360703468322754, -0.1577586531639099, -0.19497337937355042, -0.15961061418056488, 0.24536707997322083, -0.16107794642448425, -0.026255784556269646, -0.2702144384384155, 0.18926654756069183, -0.06923914700746536, 0.12701396644115448, -0.015325945802032948, 0.2693328261375427, 0.177566796541214, -0.01384176779538393, 0.02077385038137436, 0.24804311990737915, -0.21293218433856964, -0.2116481214761734, 0.2924547791481018, -0.2728762626647949, -0.2617996633052826, -0.4749685227870941, -0.07254067808389664, -0.09330210834741592, -0.17835047841072083, 0.2170226126909256, 0.09522189944982529, 0.29375457763671875, 0.1362093985080719, -0.44920000433921814, 0.05608591064810753, -0.11245062947273254, -0.2135036438703537, -0.06870456784963608, -0.030314752832055092, 0.2821352183818817, -0.21677584946155548, -0.2338411808013916, 0.21302616596221924, -0.33406955003738403, 0.2649580240249634, -0.147891104221344, -0.2878550887107849, 0.3131619095802307, -0.28118273615837097, -0.20958733558654785, -0.23002736270427704, -0.028037499636411667, 0.07427817583084106, -0.3706216812133789, 0.11245699226856232, 0.07621945440769196, 0.09743331372737885, 0.14672355353832245, 0.07916686683893204, -0.012454641982913017, 0.38795918226242065, -0.2131291627883911, -0.31140750646591187, -0.1345232129096985, -0.28834065794944763, -0.1145886704325676, -0.21960842609405518, -0.3238738179206848, -0.1490764319896698, 0.20696917176246643, 0.16670627892017365, 0.049454472959041595, 0.3766810894012451, 0.10009024292230606, -0.11225780099630356, -0.050645265728235245, -0.002055453136563301, -0.03876183554530144, 0.0772203579545021, -0.11657694727182388, -0.14406175911426544, -0.16564659774303436, -0.198435977101326, 0.24282187223434448, 0.11314254999160767, 0.19646026194095612, -0.05115732550621033, 0.17806550860404968, 0.011344517581164837, -0.21154239773750305, 0.16667510569095612, -0.18701431155204773, -0.12961211800575256, -0.34952080249786377, -0.5040821433067322, -0.04665616899728775, -0.33875423669815063, -0.11117706447839737, 0.05843565613031387, 0.12251651287078857, -0.02241266891360283, -0.1189613863825798, 0.009530867449939251, 0.09181860834360123, -0.07502211630344391, -0.23710794746875763, 0.07913810759782791, -0.1464105248451233, -0.09918642789125443, 0.25928109884262085, 0.2796550691127777, -0.4104171693325043, -0.06518726795911789, 0.06280990689992905, -0.09052827209234238, 0.3066920042037964, 0.07094763219356537, -0.46978896856307983, 0.4030284881591797, -0.019611872732639313, -0.38934266567230225, -0.05076414719223976, 0.283452570438385, 0.02186400443315506, 0.20711871981620789, 0.14241476356983185, 0.02005249448120594, -0.010593819431960583, -0.29789215326309204, 0.4636869430541992, -0.14448954164981842, 0.2576994299888611, 0.29104214906692505, -0.027166295796632767, -0.09797564148902893, -0.05434186011552811, 0.10632611066102982, -0.23513290286064148, 0.06648338586091995, 0.11602959036827087, -0.2485930621623993, -0.07132099568843842, 0.25888216495513916, 0.012677128426730633, 0.23970048129558563, 0.0031510447151958942, 0.11581045389175415, -0.11161551624536514, -0.09098049998283386, -0.3013289272785187, 0.07295362651348114, 0.19410337507724762, 0.25008198618888855, 0.03158440440893173, 0.08437028527259827, -0.43755581974983215, -0.0670510083436966, -0.2277100384235382, 0.09716508537530899, -0.04668485000729561, -0.1529257893562317, 0.14553388953208923, 0.12673719227313995, 0.061517100781202316, -0.4607071280479431, -0.04680444300174713, -0.027918970212340355, -0.22580763697624207, -0.00502826739102602, 0.1491505354642868, 0.4022296965122223, 0.011278804391622543, -0.005313141271471977, 0.3278719186782837, 0.14526548981666565, 0.2865680754184723, -0.4048275351524353, 0.06556962430477142, 0.005926988553255796, -0.33543914556503296, -0.03724468871951103, -0.0899188369512558, -0.4453102648258209, -0.02390741929411888, -0.2183094322681427, 0.4369352161884308, 0.18858419358730316, 0.24399255216121674, 0.028716113418340683, 0.23006044328212738, 0.03883402422070503, -0.06456346809864044, -0.1615424007177353, -0.02306394651532173, 0.018053479492664337, 0.08792832493782043, 0.198669895529747, 0.1294037103652954, 0.01956544630229473, 0.034124281257390976, 0.11661350727081299, 0.03031662106513977, 0.10092026740312576, -0.1696183830499649, -0.09319375455379486, 0.1199333593249321, 0.11061029881238937, -0.003486506175249815, 0.10752863436937332, 0.0029354109428822994, -0.07674821466207504, -0.20486436784267426, 0.06936661899089813, -0.18912851810455322, -0.238683819770813, -0.24192538857460022, 0.15674324333667755, 0.20337799191474915, -0.11020132899284363, 0.2050878256559372, -0.029849864542484283, -0.045482087880373, 0.10690807551145554, 0.11873224377632141, -0.021656198427081108, 0.15189586579799652, 0.0475865975022316, 0.16826307773590088, -0.06943755596876144, -0.022197894752025604, 0.22832739353179932, -0.030454764142632484, 0.025846902281045914, -0.008561971597373486, 0.029174134135246277, 0.07553260028362274, -0.14830133318901062, -0.08717209100723267, 0.03145891800522804, -0.36040547490119934, 0.12042738497257233, 0.08486134558916092, -0.049691978842020035, -0.120695099234581, -0.1235143318772316, -0.09165260940790176, -0.03328390419483185, 0.25098085403442383, -0.14733576774597168, -0.05010602995753288, -0.09056755900382996, -0.19289439916610718, 0.016370242461562157, -0.08893094956874847, 0.15980270504951477, 0.02224019169807434, 0.01567636989057064, 0.07448478043079376, 0.18536238372325897, 0.30559033155441284, 0.12721799314022064, 0.10249584913253784, 0.029690347611904144, 0.006520511582493782, -0.2551761567592621, 0.2372896820306778, 0.08352095633745193, 0.10100729018449783, -0.1323741227388382, -0.06276334822177887, -0.11031079292297363, 0.3466717004776001, 0.07611502707004547, 0.01053356658667326, 0.17411677539348602, -0.022673828527331352, 0.036566268652677536, 0.0026545419823378325, 0.005352528300136328, -0.0825408548116684, 0.3201324939727783, 0.07616682350635529, 0.12139137834310532, -0.16827449202537537, 0.053618818521499634, -0.1227322444319725, -0.05574914067983627, 0.21247780323028564, -0.11658656597137451, 0.03489360958337784, -0.043834932148456573, -0.18976326286792755, -0.10158582776784897, 0.13744507730007172, -0.021513812243938446, -0.02957197278738022, 0.22397634387016296, 0.12038372457027435, -0.08744660764932632, 0.01839100569486618, 0.021381955593824387, 0.021871285513043404, 0.0032342399936169386, 0.04801812022924423, -0.04637671634554863, 0.12983468174934387, -0.07088468223810196, -0.2787894606590271, -0.11264190077781677, -0.05685892701148987, 0.11535704135894775, -0.06071566045284271, 0.04853259399533272, -0.08193498849868774, 0.14118646085262299, -0.10452871769666672, -0.13162022829055786, 0.01931358501315117, -0.22852258384227753, -0.22007548809051514, 0.33164066076278687, -0.13563288748264313, 0.047902025282382965, -0.006889833603054285, 0.06444200873374939, 0.1376017928123474, 0.34849318861961365, -0.02529872953891754, -0.10566004365682602, -0.22175413370132446, 0.02153409831225872, 0.16375432908535004, -0.030423065647482872, 0.010863047093153, 0.1145709678530693, 0.08041930198669434, -0.019306989386677742, 0.0994953140616417, 0.2722359299659729, 0.05846109241247177, -0.08907966315746307, -0.009179284796118736, 0.05872206389904022, 0.06155259534716606, -0.11080290377140045, 0.10571906715631485, 0.030237866565585136, -0.1732306182384491, 0.04791621118783951, 0.14554180204868317, -0.08760491758584976, 0.12512384355068207, 0.09314768761396408, -0.1136028990149498, 0.3124001920223236, 0.18278121948242188, -0.2524324059486389, 0.11929798126220703, 0.07713468372821808, -0.1142009049654007, -0.15673552453517914, -0.17879140377044678, -0.11869869381189346, -0.06693217158317566, -0.061037205159664154, 0.0035194489173591137, -0.00021113701222930104, -0.18762582540512085, -0.15029588341712952, 0.1293599158525467, -0.07915499061346054, 0.1786843091249466, 0.19553540647029877, 0.10471847653388977, 0.17845375835895538, 0.1545388400554657, 0.051590729504823685, 0.04752453789114952, -0.05270104110240936, -0.10055677592754364, -0.08962292224168777, 0.18577025830745697, 0.031511351466178894, -0.44374650716781616, -0.06028344854712486, -0.12763600051403046, -0.4006541967391968, -0.08793206512928009, 0.07903077453374863, -0.4510335326194763, -0.10286354273557663, -0.21790596842765808, 0.4228482246398926, -0.07444780319929123, 0.027348903939127922, 0.16240592300891876, 0.028943095356225967, 0.1136978343129158, 0.6945764422416687, 0.13507917523384094, 0.16000734269618988, -0.2985338568687439, -0.20671722292900085, 0.07012225687503815, -0.17907682061195374, -0.16966642439365387, -0.16168524324893951, 0.01760825514793396, 0.08828956633806229, -0.09588024765253067, 0.09596135467290878, -0.0354217104613781, -0.146634042263031, 0.015594844706356525, -0.08475714176893234, -0.08513548970222473, -0.0952916219830513, -0.023269951343536377, -0.17709586024284363, 0.0778883621096611, -0.04372531548142433, -0.07040026038885117, 0.07952161133289337, -0.013317721895873547, -0.23312415182590485, -0.14393003284931183, -0.20788788795471191, 0.03949683532118797, -0.08099845051765442, -0.13811878859996796, 0.05826378986239433, 0.3579533100128174, 0.15483756363391876, -0.07112111151218414, 0.00963589921593666, 0.10819809883832932, -0.22299779951572418, -0.08715388178825378, -0.030183132737874985, 0.1497143805027008, 0.09139849990606308, 0.08661941438913345, 0.1629224419593811, 0.21268898248672485, -0.1531430184841156, -0.3080567717552185, 0.05764847993850708, 0.07366826385259628, -0.13084536790847778, -0.013691782020032406, 0.07521282881498337, -0.041621334850788116, -0.1946345865726471, -0.06311267614364624, -0.1888725757598877, -0.5515850186347961, 0.10276591032743454, 0.07127442955970764, -0.1847359836101532, -0.027191609144210815, 0.06620487570762634, 0.08918819576501846, 0.06815335899591446, 0.020724337548017502, 0.21855342388153076, 0.05807413533329964, 0.18449348211288452, 0.029882103204727173, -0.01495896652340889, -0.006559231784194708, 0.2337450534105301, -0.02160802111029625, -0.40711501240730286, 0.18519283831119537, 0.16436517238616943, 0.04981306195259094, -0.046932630240917206, 0.006767856888473034, 0.24364136159420013, 0.10287782549858093, -0.21349886059761047, 0.037972591817379, 0.28152331709861755, 0.05144261196255684, 0.0566251315176487, 0.05447015166282654, 0.09935969114303589, 0.06662365794181824, 0.06587007641792297, -0.09048571437597275, -0.13568666577339172, -0.3312399387359619, -0.06772643327713013, 0.01991039514541626, 0.10244497656822205, -0.13206343352794647, 0.020653998479247093, -0.10842904448509216, -0.03866402432322502, -0.0032063040416687727, -0.1308273822069168, -0.035218849778175354, -0.060079120099544525, -0.052890878170728683, 0.027191590517759323, -0.09316398203372955, -0.1696704477071762, -0.044285763055086136, 0.06009771674871445, 0.20887723565101624, 0.07528198510408401, -0.11591603606939316, 0.12951353192329407, 0.14268846809864044, -0.20099382102489471, -0.08162523061037064, 0.0652339980006218, -0.03854271396994591, 0.1910642683506012, -0.1138039156794548, 0.11423374712467194, -0.14269618690013885, 0.03126232698559761, -0.08263968676328659, -0.1431317776441574, 0.00207971571944654, 0.1122506782412529, 0.17467813193798065, 0.008154771290719509, 0.06882678717374802, -0.02635781466960907, 0.14844121038913727, -0.13664129376411438, -0.008566883392632008, 0.1157318577170372, 0.00018756618374027312, 0.12288688868284225, -0.0774412527680397, 0.05001087859272957, -0.24936996400356293, -0.05369175970554352, -0.022414064034819603, -0.07365879416465759, 0.09573806822299957, -0.08326510339975357, 0.12069608271121979, -0.07871481031179428, 0.042003314942121506, -0.24641826748847961, 0.16914230585098267, 0.0629035234451294, 0.22593814134597778, 0.1818254590034485, 0.35007885098457336, -0.2761293947696686, 0.052027732133865356, 0.0035202419385313988, -0.1852763593196869, 0.10860709846019745, 0.09996696561574936, 0.16405701637268066, -0.138737753033638, 0.36136457324028015, 0.03031166084110737, -0.1219082698225975, -0.07441874593496323, -0.08017958700656891, 0.04090762138366699, 0.019544661045074463, -0.2947830557823181, 0.005567572079598904, 0.16380569338798523, 0.186685711145401, 0.045275453478097916, -0.30613139271736145, 0.13882863521575928, 0.029112862423062325, 0.20203648507595062, -0.0924883708357811, 0.2718817889690399, -0.01544705405831337, -0.1331062912940979, -0.038113467395305634, 0.026401082053780556, 0.09105072915554047, 0.026959313079714775, 0.03475755825638771, 0.10612577944993973, -0.12756814062595367, 0.11080554872751236, 0.023324307054281235, -0.09552422165870667, -0.04232417792081833, -0.0018859562696889043, -0.3655097484588623, -0.5286396741867065, -0.20121780037879944, -0.19346342980861664, -0.08958380669355392, -0.30592846870422363, 0.8115233182907104, 0.4166731536388397, -1.0358631610870361, 0.3444158136844635, 0.3149236738681793, -0.02743390016257763, -0.14627768099308014, -0.12053190171718597, 0.10276105999946594, -0.26582109928131104, -0.096372090280056, 0.19033217430114746, -0.0343264676630497, 0.273428738117218, 0.19530627131462097, -0.17659436166286469, -0.0010304921306669712, 0.2634495198726654, -0.1483665555715561, 0.09316536784172058, 0.06387560069561005, 0.19305582344532013, -0.2230881303548813, 0.018169241026043892, 0.23285461962223053, -0.018217800185084343, -0.2879638373851776, 0.09134826064109802, -0.06055602803826332, -0.12055431306362152, 0.21553698182106018, 0.12749698758125305, -0.33478114008903503, -0.16933844983577728, 0.03184136375784874, -0.25357991456985474, -0.1940719336271286, -0.04494420066475868, 0.2584936320781708, -0.029310597106814384, -0.32604044675827026, 0.12609919905662537, 0.17833015322685242, 0.12613925337791443, -0.1333179920911789, -0.08449356257915497, -0.041860468685626984, -0.008864914067089558, -0.3349311053752899, 0.05757741257548332, -0.1458628922700882, -0.4048749804496765, 0.19084997475147247, -0.028529221192002296, 0.4286510646343231, -0.21806775033473969, -0.10612574219703674, -0.16938799619674683, 0.1551993191242218, -0.05016198381781578, -0.2999626100063324, -0.026881800964474678, -0.04293545335531235, -0.11200027167797089, 0.05451572313904762, -0.19538654386997223, 0.060085855424404144, -0.08892890065908432, 0.19265636801719666, -0.012896177358925343, -0.11070471256971359, 0.3531954288482666, 0.1698472499847412, -0.13106347620487213, -0.1104615330696106, 0.46672043204307556, -0.1463332176208496, -0.09823764115571976, -0.1685887575149536, -0.27509650588035583, 0.12915299832820892, -0.11154516786336899, -0.23366858065128326, 0.14228832721710205, 0.18911080062389374, 0.1765347123146057, -0.020425595343112946, 0.09088508039712906, 0.17722058296203613, 0.10585407167673111, 0.15202216804027557, 0.14680974185466766, 0.16315896809101105, -0.0022540444042533636, 0.02054431475698948, -0.0768224447965622, -0.3047080934047699, 0.1696878969669342, 0.23332315683364868, 0.10657480359077454, -0.21925881505012512, -0.027044320479035378, -0.03735262528061867, 0.23558253049850464, 0.08427602052688599, -0.1552729457616806, -0.1338924765586853, 0.1808917373418808, -0.15338076651096344, 0.33635759353637695, -0.029108671471476555, 0.4654496908187866, -0.23928596079349518, -0.01149678509682417, 0.13848549127578735, 0.24380390346050262, 0.23174621164798737, -0.038697194308042526, -0.3447110950946808, -0.056021712720394135, -0.1131477877497673, -0.2539420425891876, 0.2544766366481781, -0.007273827213793993, 0.19306355714797974, 0.1637776494026184, -0.08729246258735657, -0.18087781965732574, -0.016455279663205147, 0.11730816960334778, -0.10210201144218445, 0.05451011657714844, -0.31570836901664734, -0.06124355271458626, 0.039368730038404465, -0.012172365561127663, -0.11753607541322708, 0.012295302003622055, -0.18796175718307495, 0.14537033438682556, -0.35296639800071716, -0.22811447083950043, -0.19575490057468414, -0.38651159405708313, 0.15239398181438446, 0.042113181203603745, -0.21592342853546143, -0.04678639769554138, -0.18860159814357758, 0.057815711945295334, 0.09536904841661453, -0.17487603425979614, 0.19844843447208405, 0.13121424615383148, -0.08204463124275208, -0.01906929351389408, 0.14573237299919128, -0.015281437896192074, 0.04851740971207619, 0.05532834306359291, 0.02316892519593239, -0.03461150825023651, -0.17722758650779724, 0.18617722392082214, 0.15644820034503937, 0.15242242813110352, -0.010924877598881721, -0.07509245723485947, -0.06321356445550919, -0.09393533319234848, 0.06547945737838745, -0.10433482378721237, 0.026201041415333748, -0.06468693166971207, 0.10252199321985245, -0.20847125351428986, -0.02141466923058033, 0.05047158896923065, -0.14814172685146332, -0.18516747653484344, 0.11699949204921722, 0.21092703938484192, 0.04074721038341522, 0.06571922451257706, -0.18496836721897125, 0.20203056931495667, -0.08639734983444214, 0.21400950849056244, 0.024249443784356117, -0.15019939839839935, 0.18814246356487274, 0.11949054896831512, 0.2582898736000061, -0.1654372364282608, 0.020658647641539574, -0.2580471932888031, 0.1742914468050003, 0.17978616058826447, -0.29550716280937195, 0.018891997635364532, 0.15861976146697998, 0.08220306038856506, -0.1524299532175064, 0.037042781710624695, -0.06671101599931717, -0.1679161787033081, 0.056157756596803665, 0.07886242866516113, 0.1815958321094513, -0.21963880956172943, -0.11519081890583038, -0.2226802557706833, 0.20718395709991455, -0.1300811916589737, -0.064860999584198, 0.07541178911924362, 0.1502056121826172, -0.02741280384361744, -0.15097886323928833, 0.1035008653998375, 0.2535434365272522, 0.07786083221435547, -0.06312651187181473, -0.016142765060067177, -0.19957321882247925, -0.07235557585954666, -0.12273890525102615, -0.026503130793571472, 0.2692316770553589, -0.015750596299767494, 0.21308645606040955, -0.028023798018693924, -0.04333416372537613, 0.10729529708623886, 0.0009690433507785201, -0.019688108935952187, -0.0962320938706398, 0.11944696307182312, 0.13237589597702026, -0.11515012383460999, 0.024387840181589127, -0.0544404536485672, -0.034896254539489746, 0.049319375306367874, -0.004623299930244684, -0.08454133570194244, 0.09544641524553299, 0.055154941976070404, 0.11826390027999878, 0.007571304216980934, 0.06307000666856766, -0.12813912332057953, -0.08354019373655319, -0.05977783724665642, 0.0836440771818161, -0.1726047843694687, -0.14762799441814423, 0.010694834403693676, -0.00650760205462575, 0.04874191805720329, 0.053814053535461426, -0.02622639387845993, -0.11508261412382126, -0.056633662432432175, -0.060923729091882706, -0.1288597136735916, -0.1857001930475235, -0.017413567751646042, 0.035159144550561905, 0.11054185777902603, 0.13333626091480255, 0.1643601953983307, 0.009743869304656982, 0.018276788294315338, 0.022541217505931854, -0.18557289242744446, 0.08348624408245087, 0.00952214002609253, -0.16193699836730957, -0.24152380228042603, -0.00947058666497469, 0.1644676923751831, 0.20268017053604126, 0.10821006447076797, -0.08433182537555695, -0.13693459331989288, -0.07037540525197983, -0.01569303497672081, 0.034909263253211975, -0.14869120717048645, 0.035326238721609116, -0.10372941195964813, -0.0784778967499733, 0.08054238557815552, -0.019865570589900017, 0.028518768027424812, 0.0956081673502922, 0.10203979164361954, 0.0798688605427742, -0.15214166045188904, -0.038293998688459396, -0.03006681427359581, -0.0660506933927536, -0.08660070598125458, -0.042267389595508575, 0.015355534851551056, 0.05902676656842232, 0.05519402399659157, 0.04837275668978691, 0.03230215609073639, 0.03753073140978813, -0.008259180001914501, -0.33266958594322205, 0.24584978818893433, -0.1585923433303833, -0.16379329562187195, 0.025427548214793205, -0.12774616479873657, 0.22336116433143616, -0.12225106358528137, 0.06577789038419724, 0.1013893261551857, 0.006369264330714941, 0.09947141259908676, -0.17296576499938965, -0.07613570988178253, 0.07807638496160507, 0.2093936800956726, 0.0391288660466671, -0.2313731461763382, -0.22117872536182404, 0.07946446537971497, 0.2199065238237381, -0.055599141865968704, 0.09019335359334946, 0.24327576160430908, 0.019298899918794632, -0.08145257830619812, 0.039739444851875305, 0.005304672289639711, -0.07187241315841675, -0.37073394656181335, 0.10188128054141998, 0.0020575642120093107, -0.038253288716077805, 0.05199078842997551, 0.06527667492628098, -0.1548018902540207, -0.00039465251029469073, -0.034863315522670746, -0.09690183401107788, -0.039023276418447495, -0.014860870316624641, -0.280344694852829, 0.13973048329353333, 0.05564495548605919, 0.20263025164604187, -0.013673580251634121, -0.004884826485067606, 0.12461187690496445, 0.1683027595281601, 0.11758334189653397, -0.03373824059963226, 0.10395258665084839, 0.21086551249027252, -0.1428796648979187, 0.2888971269130707, -0.0863877460360527, 0.07107742130756378, -0.03714776784181595, 0.14329417049884796, -0.09328290820121765, 0.18052349984645844, 0.17701178789138794, 0.12706659734249115, 0.11992856115102768, 0.11256860196590424, 0.1448000818490982, 0.017788242548704147, 0.04006719961762428, 0.23521563410758972, 0.03164476156234741, 0.1597462147474289, 0.30595237016677856, 0.09002665430307388, -0.1366165280342102, 0.004316280130296946, -0.01617528311908245, 0.20535744726657867, 0.21795544028282166, 0.012629002332687378, 0.13788340985774994, -0.07622417062520981, 0.034517642110586166, -0.04796646535396576, 0.11093521863222122, -0.20197896659374237, -0.09455849230289459, -0.17032046616077423, 0.12259460985660553, -0.0014151223003864288, 0.17174194753170013, 0.0019392730901017785, -0.021951505914330482, 0.0003511353279463947, -0.01948360912501812, -0.0464920699596405, 0.1433127075433731, -0.16019649803638458, -0.031104445457458496, -0.2308903932571411, 0.17990145087242126, -0.0050351559184491634, 0.050507478415966034, 0.08798178285360336, -0.026880651712417603, 0.1981058418750763, -0.03808768093585968, -0.08972625434398651, -0.11176060140132904, 0.040572162717580795, -0.3406708836555481, -0.8691725730895996, -0.4951478838920593, 0.09966444224119186, -0.47049224376678467, -0.09074334800243378, 0.10333198308944702, 0.11441998183727264, -0.09204861521720886, -0.35849088430404663, -0.1941879838705063, 0.16892676055431366, 0.2843082845211029, -0.06892213970422745, -0.20468305051326752, -0.20233650505542755, -0.15383774042129517, 0.30549341440200806, -0.21419961750507355, 0.2642107307910919, 0.1875787228345871, 0.03259468078613281, -0.2526489496231079, 0.4563544690608978, -0.03256542235612869, 0.32641005516052246, -0.33244588971138, -0.41634777188301086, -0.29512518644332886, -0.016553029417991638, -0.04437939450144768, -0.18673115968704224, 0.18918026983737946, -0.14578306674957275, 0.3838154971599579, 0.3688928782939911, 0.01388236228376627, -0.05385999009013176, -0.24617095291614532, -0.203158900141716, -0.10339432954788208, -0.17632648348808289, -0.05149131640791893, -0.18698014318943024, -0.36425331234931946, 0.0026247978676110506, -0.08349496126174927, -0.12067710608243942, -0.1892748773097992, 0.052829425781965256, 0.4648805856704712, -0.2099778801202774, 0.3148901164531708, 0.22290335595607758, -0.13854163885116577, -0.053098518401384354, -0.022778328508138657, 0.16688278317451477, 0.04388662427663803, -0.00770350219681859, -0.009751813486218452, -0.12781894207000732, 0.013941869139671326, 0.08583660423755646, 0.13276855647563934, 0.0413629412651062, 0.037967585027217865, -0.05978910252451897, 0.19358213245868683, -0.022200850769877434, -0.06256625056266785, -0.00038220020360313356, 0.07840584963560104, -0.03463568910956383, -0.1368785947561264, 0.30962246656417847, 0.12731455266475677, 0.1735386997461319, -0.1322930008172989, -0.1229076161980629, -0.08910909295082092, 0.23933719098567963, 0.09904295951128006, 0.11885061115026474, 0.20843739807605743, -0.23483523726463318, 