{"version": "0.5.4", "metadata": {"date": {"year": 2026, "month": 4, "day": 1, "hour": 17, "minute": 23, "second": 15}, "loudness": -32.506744384765625, "gain": 0.7889468846501294}, "architecture": "WaveNet", "config": {"layers": [{"input_size": 1, "condition_size": 1, "head_size": 6, "channels": 12, "kernel_size": 3, "dilations": [1, 2, 4, 8, 16, 32, 64], "activation": "Tanh", "gated": false, "head_bias": false}, {"input_size": 12, "condition_size": 1, "head_size": 1, "channels": 6, "kernel_size": 3, "dilations": [128, 256, 512, 1, 2, 4, 8, 16, 32, 64, 128, 256, 512], "activation": "Tanh", "gated": false, "head_bias": true}], "head": null, "head_scale": 0.02}, "weights": [0.2858920097351074, 0.9469649195671082, -1.0694550275802612, -0.9732237458229065, -0.60392826795578, -0.005861435551196337, -0.1722641885280609, 0.8786842226982117, -0.666083574295044, 0.5169403553009033, -0.5199159979820251, -0.47491589188575745, -0.7120817303657532, -0.17179948091506958, -0.0059924195520579815, -0.44228386878967285, 0.020088044926524162, 0.017010467126965523, 0.32303789258003235, -0.017546458169817924, 0.1438770443201065, 0.5756183862686157, 0.021444756537675858, 0.20082372426986694, 0.41065269708633423, 0.06907562166452408, 0.2243976593017578, -0.4992159307003021, -0.1344723403453827, 0.023722277954220772, 0.4620317220687866, 0.18219515681266785, -0.17230693995952606, -0.5088292956352234, -0.17154264450073242, -0.2281680405139923, 0.47257915139198303, 0.09961631894111633, 0.02146482653915882, -0.381065309047699, -0.04090273380279541, -0.13039226830005646, 0.4765383005142212, -0.10418350994586945, -0.0667373538017273, 0.39168405532836914, 0.1578744649887085, 0.126853346824646, 0.22958265244960785, 0.026785464957356453, -0.2334950715303421, 0.44845324754714966, 0.15097495913505554, -0.11655199527740479, -0.16807015240192413, -0.1929248869419098, 0.1581447273492813, -0.4100947380065918, -0.2096140831708908, 0.04494578391313553, -0.20323507487773895, -0.023722054436802864, 0.03835339471697807, 0.3012063801288605, 0.16237936913967133, -0.14943024516105652, -0.329847127199173, -0.013520664535462856, 0.3688313961029053, 0.4395795166492462, -0.036387957632541656, -0.19259458780288696, -0.30511099100112915, 0.1728743612766266, 0.45080646872520447, 0.4395788609981537, 0.11570102721452713, -0.3130991756916046, -0.2702861726284027, -0.1912883222103119, 6.206814578035846e-05, -0.1514749526977539, 0.046304263174533844, 0.027482977136969566, -0.10482417047023773, -0.033341363072395325, 0.29165372252464294, -0.23621395230293274, -0.01498549897223711, -0.023359643295407295, 0.22485189139842987, 0.17544762790203094, 0.05525664612650871, 0.226636603474617, -0.07502506673336029, -0.1759829819202423, 0.24139907956123352, 0.11904148757457733, -0.20594628155231476, -0.21536290645599365, 0.10038284957408905, 0.18623240292072296, 0.09569080919027328, -0.024149924516677856, -0.38907790184020996, -0.16588422656059265, -0.2124701589345932, -0.05823018029332161, 0.1773013025522232, -0.061763886362314224, -0.35318154096603394, -0.06265708804130554, -0.17358306050300598, 0.25862839818000793, 0.27470725774765015, -0.061584215611219406, -0.1357298195362091, 0.17233723402023315, 0.09317655861377716, -0.09689202159643173, 0.7848118543624878, -0.005308333318680525, -0.22555091977119446, 0.7619771361351013, -0.1962081491947174, -0.06621081382036209, -0.700713038444519, -0.04662703350186348, -0.08727143704891205, -0.7952128648757935, -0.004948524292558432, 0.01563774049282074, -0.7695278525352478, 0.026636436581611633, 0.10107123106718063, 0.5054300427436829, 0.015163226053118706, -0.09618096798658371, -0.7023255228996277, 0.0766359344124794, 0.2643088400363922, 0.755763590335846, 0.13114739954471588, 0.008102722465991974, -1.0052143335342407, -0.10407529771327972, 0.12834933400154114, 0.6843583583831787, -0.10097438842058182, -0.13281863927841187, -0.8251832723617554, -0.11581757664680481, -0.03321714326739311, -0.6095716953277588, 0.10022450983524323, -0.14565543830394745, 0.736274242401123, -0.03736173361539841, -0.37685102224349976, 0.5138115882873535, 0.03077765181660652, -0.2000674307346344, -0.7186990976333618, -0.21078215539455414, 0.1318267434835434, -0.5691791772842407, -0.1446513682603836, 0.2240450382232666, -0.7234026789665222, -0.07866575568914413, 0.3136503994464874, 0.4540887475013733, 0.2408258616924286, -0.1522703766822815, -0.8051958680152893, 0.002697364892810583, 0.27438971400260925, 0.49331915378570557, 0.20172181725502014, -0.2933734655380249, -0.679397702217102, -0.07576265931129456, 0.40863916277885437, 0.640964925289154, 0.15404513478279114, -0.1367550939321518, -0.6230999827384949, -0.10543155670166016, 0.04764218628406525, -0.5155421495437622, 0.05401591584086418, 0.32744506001472473, -0.011234520934522152, 0.22148330509662628, -0.44048869609832764, 0.02825869433581829, 0.04875973239541054, 0.0021553002297878265, -0.22205084562301636, -0.151917964220047, 0.05199658125638962, -0.0179966501891613, -0.28000813722610474, -0.06508088856935501, -0.21751926839351654, -0.03525003045797348, -0.000691261375322938, 0.25037842988967896, 0.21971730887889862, -0.07315781712532043, -0.16451099514961243, -0.28144365549087524, 0.2540687620639801, 0.0849236473441124, 0.14786331355571747, -0.02777819149196148, -0.2786933183670044, -0.22685031592845917, 0.34051352739334106, -0.007661546114832163, 0.15621909499168396, 0.07034597545862198, -0.0659123957157135, -0.15823736786842346, -0.06341329216957092, -0.046900518238544464, -0.29356929659843445, 0.07278499752283096, -0.08057288825511932, 0.2482701689004898, -0.1625300496816635, 0.13318057358264923, 0.2806433439254761, 0.1222134679555893, 0.09832210838794708, -0.36501607298851013, 0.09521584957838058, -0.12393125146627426, -0.33180171251296997, 0.07133466750383377, 0.05388723313808441, -0.13538497686386108, -0.0254799984395504, 0.03653058409690857, 0.2896979749202728, -0.17696473002433777, 0.08188772946596146, -0.4418320953845978, 0.08471334725618362, -0.02101071923971176, 0.16743683815002441, 0.0006546006770804524, 0.11632530391216278, -0.29540228843688965, -0.03998177871108055, -0.04993690177798271, 0.10800837725400925, 0.03665590286254883, -0.08788298815488815, -0.3776288628578186, -0.060034047812223434, 0.08458669483661652, -0.1888641119003296, 0.1808377355337143, 0.15914365649223328, -0.10151293873786926, 0.3386930227279663, 0.07185793668031693, 0.053022414445877075, 0.23452259600162506, -0.10331442207098007, 0.0020453089382499456, -0.34226447343826294, 0.010067865252494812, -0.012156267650425434, -0.3374755084514618, 0.12148359417915344, -0.02451806515455246, -0.2102910280227661, 0.045376334339380264, -0.09665261209011078, 0.04186520725488663, -0.1856888085603714, 0.22623451054096222, -0.28101813793182373, 0.16204683482646942, -0.13876043260097504, 0.23315060138702393, -0.05653923749923706, 0.08105345815420151, -0.3568483591079712, 0.08516926318407059, -0.0366969108581543, 0.21122951805591583, -0.06734553724527359, -0.01690647564828396, -0.09205861389636993, -0.15705376863479614, 0.15833930671215057, -0.2859117388725281, 0.17711888253688812, 0.18216924369335175, -0.25100475549697876, 0.25113219022750854, 0.203633651137352, -0.1480158418416977, -0.18355995416641235, -0.1064520925283432, 0.08219105005264282, -0.23501618206501007, -0.31344595551490784, -0.008387480862438679, -0.15369053184986115, -0.23522403836250305, 0.08629851043224335, 0.2852416932582855, 0.015048018656671047, 0.0017150265630334616, -0.21255317330360413, -0.13380637764930725, 0.10035568475723267, 0.23142370581626892, 0.041138891130685806, -0.004329257644712925, -0.15407268702983856, 0.11051908135414124, 0.20970772206783295, 0.2469446361064911, 0.24463731050491333, -0.12108711898326874, -0.3574467897415161, -0.31494298577308655, 0.19832853972911835, -0.12745772302150726, -0.2835816740989685, 0.1221575140953064, -0.1945849359035492, 0.5328477621078491, -0.009057864546775818, -0.09929445385932922, 0.25342556834220886, -0.0017679958837106824, 0.34930628538131714, -0.19441553950309753, -0.16193562746047974, 0.3608194589614868, -0.21249905228614807, 0.03155342489480972, 0.11496314406394958, -0.2478937953710556, -0.10915325582027435, -0.038285914808511734, 0.21460002660751343, 0.08024822175502777, 0.26744768023490906, -0.3378259539604187, 0.0038410371635109186, -0.12621428072452545, 0.1650341898202896, 0.09787603467702866, 0.18472443521022797, -0.44039177894592285, -0.14006108045578003, -0.0963120386004448, 0.4055958688259125, 0.18776509165763855, 0.35461676120758057, -0.45718201994895935, -0.15213508903980255, 0.2105385661125183, -0.42495274543762207, 0.09955496340990067, -0.4326610863208771, -0.19913126528263092, 0.026687555015087128, -0.29095396399497986, 0.08179975301027298, 0.21702413260936737, 0.3120075464248657, 0.18808159232139587, 0.07386192679405212, 0.15488463640213013, 0.1345662921667099, 0.07033990323543549, 0.24764984846115112, 0.22377656400203705, 0.0022078303154557943, -0.09235741943120956, -0.10474874079227448, 0.20931948721408844, 0.3204329013824463, 0.04545758664608002, -0.27622824907302856, -0.28932228684425354, -0.1851421445608139, 0.19266018271446228, 0.42871910333633423, -0.02860357239842415, -0.30273687839508057, -0.08985794335603714, 0.04336779564619064, 0.1195330023765564, 0.12883387506008148, 0.21381738781929016, -0.03033497743308544, 0.10226841270923615, 0.22358541190624237, -0.002323379972949624, 0.07576655596494675, -0.11777278780937195, -0.27107521891593933, 0.13441526889801025, 0.007605532184243202, -0.20072484016418457, -0.2709680199623108, 0.07851199805736542, 0.15796351432800293, -0.18244300782680511, 0.15566852688789368, 0.358022004365921, -0.14740397036075592, 0.03214798495173454, 0.2044103443622589, 0.2258068323135376, -0.02016327902674675, -0.23979388177394867, -0.18011410534381866, 0.06692197918891907, 0.10365495085716248, 0.21404027938842773, -0.2487102895975113, -0.1331511288881302, -0.08189689368009567, 0.0687374472618103, 0.06645578145980835, 0.0996641218662262, -0.11023954302072525, -0.31624361872673035, -0.07200750708580017, -0.00753384456038475, 0.03045833483338356, -0.32485416531562805, 0.11466113477945328, 0.2933770716190338, -0.12520930171012878, 0.15839330852031708, -0.10574556142091751, 0.049728211015462875, 0.01936287060379982, -0.12223890423774719, 0.17459405958652496, 0.1070803627371788, 0.22549976408481598, 0.11882811039686203, -0.09137418866157532, -0.05913005769252777, -0.038732439279556274, 0.36631637811660767, -0.7554771304130554, -0.2517516314983368, -1.1197408437728882, -0.41395437717437744, 0.20718444883823395, -0.6122865080833435, 0.3156179189682007, 0.6112332940101624, 0.19871148467063904, -0.8755434155464172, -0.19648002088069916, -0.21551227569580078, 0.26698288321495056, 0.4372105598449707, 0.11332131922245026, 0.009498687461018562, -0.06681337207555771, -0.35397714376449585, -0.37230005860328674, -0.02589815855026245, -0.036761634051799774, 0.10042603313922882, -0.40500980615615845, 0.1058075949549675, -0.5580357909202576, 0.5884200930595398, 0.4892124831676483, 0.5116192698478699, 0.46617475152015686, 0.38463911414146423, 0.21497385203838348, 0.3422423005104065, -0.409294068813324, -0.35930436849594116, 0.3979509472846985, -0.4637369215488434, 0.5184158682823181, -0.6011219024658203, -0.7786175012588501, -0.4561614394187927, 0.05043329298496246, 0.0593089684844017, -0.4845789968967438, 0.07912170886993408, 0.48625925183296204, 0.2768666446208954, 0.3544829785823822, -0.2481732964515686, 0.2008589506149292, -0.1263510286808014, -0.10288878530263901, 0.03812544420361519, -0.15496569871902466, 0.1798326075077057, -0.1622089147567749, -0.2381451576948166, 0.13705947995185852, 0.22403471171855927, -0.09475433826446533, -0.1307343989610672, 0.329140305519104, -0.03409256041049957, 0.06752479076385498, -0.18523333966732025, -0.07131081074476242, -0.19752855598926544, -0.3295377492904663, -0.3150807023048401, 0.3897494375705719, -0.002465982222929597, 0.04436182603240013, -0.2701631486415863, 0.4519239664077759, 0.2214682549238205, -0.3113144040107727, -0.25303831696510315, -0.316375195980072, -0.17947351932525635, -0.17087571322917938, -0.3215695917606354, 0.049429912120103836, 0.16878098249435425, -0.032061122357845306, 0.17364124953746796, -0.29540884494781494, -0.3593941926956177, 0.4573812186717987, 0.6137149333953857, 0.03145453706383705, 0.3527257740497589, 0.009182227775454521, 0.5227338075637817, -0.5118294358253479, -0.6577591896057129, 0.45870479941368103, -0.4030033349990845, 0.3279881477355957, -0.3021921217441559, -0.29964834451675415, -0.24777325987815857, 0.08314485847949982, 0.007491057738661766, -0.4391290843486786, -0.2328675538301468, 0.1379849761724472, 0.21698759496212006, -0.495270311832428, 0.41602689027786255, -0.12297192215919495, 0.9680819511413574, 1.0459030866622925, 0.23426155745983124, 0.11766843497753143, -0.05813758075237274, -0.03752701357007027, -0.5078979730606079, -0.2059871256351471, 0.4454822242259979, -0.11470971256494522, -0.31730058789253235, 0.12783430516719818, 0.636040449142456, 0.19057811796665192, -0.21483741700649261, -0.38771888613700867, -0.04313920810818672, -0.13334278762340546, -0.3345299959182739, 0.06156374141573906, 0.24715927243232727, 0.34014853835105896, 0.15130198001861572, 0.027960190549492836, -0.5758731365203857, -0.4143003523349762, 0.266625314950943, 0.1382114738225937, 0.23284173011779785, -0.2826058566570282, 0.2762458622455597, 0.3144187927246094, 0.32390615344047546, -0.148116335272789, -0.22130608558654785, 0.021100226789712906, 0.10167261958122253, -0.5515936017036438, -0.2976212799549103, 0.08597252517938614, -0.10045477747917175, -0.186562642455101, -0.16796478629112244, 0.11185557395219803, -0.1314527839422226, 0.13019005954265594, -0.2294609546661377, 0.20853711664676666, 0.358905553817749, 0.18184694647789001, 0.06697600334882736, 0.2919952869415283, 0.18449914455413818, -0.31486523151397705, 0.1654556691646576, 0.1940276175737381, -0.1233147531747818, -0.28525257110595703, -0.11078699678182602, 0.06473476439714432, -0.06394636631011963, 0.2269802987575531, -0.11867689341306686, 0.1810411810874939, -0.2993345558643341, 0.11719297617673874, 0.02929031103849411, -0.21977964043617249, 0.19555385410785675, -0.06370279937982559, -0.4419834315776825, 0.051242176443338394, 0.12036248296499252, -0.4028652310371399, 0.2373659908771515, 0.043841540813446045, 0.35564735531806946, -0.1204877570271492, 0.2715929448604584, -0.4338664710521698, 0.24894358217716217, -0.3514949381351471, 0.31375643610954285, 0.14894729852676392, -0.1796766072511673, 0.06931202858686447, -0.1758953332901001, -0.007504095323383808, -0.40085482597351074, 0.03847875818610191, 0.19741204380989075, -0.18204201757907867, 0.13476985692977905, -0.09586233645677567, -0.1332641988992691, 0.22479593753814697, -0.4145233631134033, -0.05700092390179634, 0.5183629393577576, 0.17586974799633026, 0.16783668100833893, -0.457186758518219, 0.3542766571044922, -0.2573641538619995, -0.22490985691547394, 0.17090772092342377, -0.01858246698975563, -0.14316555857658386, 0.28956905007362366, -0.15684744715690613, -0.32353436946868896, 0.0006147538078948855, -0.08969756960868835, 0.26643407344818115, 0.11447671800851822, 0.1476927399635315, -0.38629665970802307, -0.09799326211214066, -0.21559998393058777, 0.6688418984413147, -0.22002308070659637, -0.026778649538755417, 0.1296934187412262, 0.20192132890224457, 0.07031884044408798, -0.5323598980903625, 0.2158026099205017, 0.025466691702604294, -0.20935045182704926, 0.1418582797050476, -0.3236050009727478, -0.00276494980789721, 0.2154415249824524, -0.1023562103509903, -0.03998992219567299, -0.3574301600456238, 0.10078824311494827, -0.0394333153963089, -0.07952374219894409, 0.03654209524393082, 0.3110741674900055, -0.1865319013595581, 0.06504539400339127, 0.10475136339664459, -0.18455341458320618, -0.18194441497325897, 0.00892176665365696, 0.32550954818725586, -0.016535019502043724, -0.08217334747314453, -0.11295825988054276, 0.23875008523464203, 0.2553698420524597, 0.38958197832107544, -0.42994338274002075, -0.05380535498261452, 0.06430522352457047, -0.21699519455432892, 0.20489242672920227, -0.05617666244506836, 0.10292480885982513, 0.16616778075695038, -0.22638073563575745, -0.05222472921013832, 0.1658388078212738, -0.16416586935520172, 0.0009519535233266652, -0.14207012951374054, 0.2665453553199768, 0.1138346940279007, -0.21437126398086548, -0.02279011160135269, -0.21700561046600342, -0.03441018611192703, -0.011978892609477043, 0.08661096543073654, 0.12187372893095016, -0.0026207217015326023, 0.05325617641210556, 0.23855699598789215, -0.18819010257720947, -0.15211263298988342, 0.09463610500097275, -0.021481826901435852, 0.1326606422662735, 0.11896567791700363, 0.034806735813617706, -0.13813023269176483, 0.103208988904953, -0.05988357216119766, 0.2116452008485794, -0.1115386113524437, -0.18201996386051178, 0.041257165372371674, 0.15592892467975616, -0.1844281256198883, 0.11849896609783173, 0.16542352735996246, -0.12109637260437012, -0.0808197632431984, 0.1826508343219757, -0.32161393761634827, -0.19836418330669403, -0.2907675504684448, -0.07253944873809814, 0.26387983560562134, 0.02889048494398594, 0.05799489840865135, -0.2589573264122009, 0.26730790734291077, -0.09966873377561569, 0.057825107127428055, -0.08446639776229858, -0.15989595651626587, -0.021327782422304153, 0.05757743492722511, -0.17230601608753204, -0.3732670247554779, -0.1465996652841568, 0.05509195476770401, -0.010434398427605629, -0.005021185614168644, -0.08368600904941559, -0.16314959526062012, 0.132004514336586, 0.16639702022075653, 0.11767440289258957, -0.31163379549980164, -0.10454686731100082, -0.15915518999099731, -0.2314106971025467, 0.017338737845420837, -0.0535254068672657, 0.30408522486686707, -0.07261469215154648, 0.0992458388209343, -0.07578551024198532, -0.06796446442604065, 0.05145133659243584, 0.11232004314661026, 0.044637296348810196, -0.024522101506590843, -0.011775104328989983, -0.23326396942138672, -0.005221808794885874, 0.07892559468746185, -0.20024710893630981, 0.10977809876203537, 0.1153385192155838, -0.2177392989397049, 0.15770816802978516, -0.01672414131462574, -0.01874680258333683, 0.2928996980190277, 0.07323595881462097, 0.1895626038312912, -0.08405801653862, -0.031563274562358856, -0.06189709156751633, 0.11502186208963394, 0.04194926843047142, 0.12042296677827835, -0.06052068993449211, -0.0008101225830614567, -0.06485000252723694, -0.015002021566033363, -0.06186254695057869, -0.23626215755939484, 0.1329229325056076, 0.09729374200105667, -0.10329954326152802, -0.02735433168709278, 0.059115417301654816, 0.14537346363067627, -0.02808152139186859, -0.08844821155071259, 0.06414240598678589, 0.1615595519542694, -0.053075775504112244, -0.0069230468943715096, 0.0888943299651146, -0.02612694352865219, -0.011561892926692963, -0.2404346466064453, 0.11582297086715698, -0.0431089848279953, -0.3035075068473816, 0.07317981123924255, -0.12952826917171478, -0.24007491767406464, -0.06697604060173035, 0.06169026717543602, -0.13917021453380585, -0.013681675307452679, 0.12854579091072083, 0.02475501224398613, -0.048212915658950806, 0.322052925825119, -0.3175337314605713, 0.15032963454723358, 0.08166038244962692, -0.21839529275894165, 0.01320076733827591, -0.09849581122398376, 0.115976482629776, -0.312787801027298, 0.05394062399864197, 0.0628681555390358, 0.14420580863952637, 0.2380104809999466, 0.36641421914100647, 0.11877104640007019, 0.09781861305236816, -0.11625965684652328, -0.38629114627838135, -0.21576203405857086, 0.15258179605007172, 0.2320997416973114, -0.13572773337364197, 0.015151317231357098, -0.20531654357910156, -0.14125171303749084, 0.09336291253566742, -0.0574546754360199, 0.25191161036491394, 0.354767382144928, 0.5401171445846558, -0.16432565450668335, -0.15345704555511475, -0.5305630564689636, -0.07852771133184433, 0.15535537898540497, 0.42259231209754944, 0.4569850265979767, 0.4288291931152344, 0.012692103162407875, -0.05396421253681183, 0.04660022258758545, -0.0058724163100123405, -0.44697609543800354, -0.34333401918411255, 0.05851919203996658, 0.09442954510450363, 0.2812351882457733, 0.2627374529838562, -0.07797419279813766, 0.20910467207431793, 0.09402019530534744, 0.3201097846031189, 0.06326869875192642, -0.4570313096046448, -0.15223164856433868, -0.18985924124717712, 0.3699645400047302, -0.3390882611274719, -0.1770080178976059, 0.4393940269947052, -0.06043900549411774, -0.17295822501182556, 0.4175310432910919, -0.4212054908275604, -0.04723258689045906, 0.37279510498046875, 0.36369481682777405, 0.059042807668447495, -0.24289512634277344, -0.15168778598308563, -0.1518377661705017, 0.526812732219696, 0.3462103009223938, 0.298543244600296, -0.28166744112968445, -0.0950559452176094, 0.2524458169937134, -0.050629641860723495, -0.17893090844154358, -0.17577938735485077, 0.4850045442581177, -0.10750807821750641, -0.2178603559732437, -0.023987695574760437, 0.012639199383556843, -0.01882241666316986, -0.12815389037132263, 0.1348964422941208, -0.1048099473118782, -0.24262021481990814, -0.07501904666423798, 0.03579122945666313, 0.1344078779220581, -0.25425586104393005, 0.09299784153699875, 0.08553247153759003, -0.3201592266559601, 0.04790816828608513, 0.22300012409687042, -0.35922902822494507, -0.04228346794843674, 0.18442609906196594, 0.25806716084480286, -0.06461191177368164, 0.022598663344979286, -0.03915535658597946, -0.005825797561556101, 0.19236116111278534, 0.3085038363933563, 0.3352260887622833, -0.2700127363204956, -0.027802864089608192, 0.17916007339954376, 0.10945066809654236, -0.2688180208206177, -0.007667474914342165, 0.17809683084487915, -0.23074762523174286, 0.0017689145170152187, -0.08657224476337433, 0.02912667579948902, -0.4175601899623871, -0.29814398288726807, -0.1963910311460495, 0.03871050477027893, 0.3491123616695404, 0.18987514078617096, 0.1542937159538269, -0.1309049427509308, 0.1333433985710144, -0.013303550891578197, -0.012244087643921375, 0.17811015248298645, -0.22034820914268494, -0.09787460416555405, -0.022207865491509438, -0.4471569061279297, -0.5502964854240417, 0.08965210616588593, 0.15425173938274384, 0.26001298427581787, 0.3310774564743042, -0.09435895085334778, -0.46797698736190796, -0.44841986894607544, -0.5585042834281921, 0.30263012647628784, 0.2007514238357544, -0.13507495820522308, -0.26334065198898315, 0.33020997047424316, 0.4404248595237732, -0.10896038264036179, -0.3308674693107605, -0.48337578773498535, -0.35113823413848877, 0.16109363734722137, -0.41892990469932556, -0.32324284315109253, 0.10438317805528641, -0.0062820324674248695, -0.1392035335302353, -0.1768117994070053, 0.10136451572179794, -0.11567820608615875, 0.007284803315997124, -0.09652246534824371, -0.14935517311096191, -0.04962557181715965, -0.23096764087677002, -0.10650842636823654, 0.09498561918735504, -0.1750621497631073, 0.009182033129036427, -0.2625623941421509, -0.08994423598051071, -0.3307914435863495, 0.21763339638710022, 0.13503147661685944, -0.036764830350875854, 0.23102478682994843, -0.2306717336177826, 0.22703412175178528, 0.058124132454395294, -0.5132887363433838, -0.03356105834245682, -0.18628399074077606, 0.07018537074327469, -0.043109823018312454, 0.26418086886405945, 0.06808575987815857, 0.1778966337442398, 0.1521642953157425, 0.062157485634088516, 0.2167055457830429, 0.00574612058699131, -0.077224962413311, 0.16287927329540253, 0.0038735345005989075, -0.05218815430998802, 0.0032225237227976322, -0.11619949340820312, 0.24182459712028503, -0.3736840486526489, 0.023678023368120193, 0.7609620094299316, 0.2285614311695099, -0.20853100717067719, 0.7031012773513794, -0.5289309024810791, 0.9763791561126709, -1.0646687746047974, -1.3872095346450806, -0.2515477240085602, 1.0548797845840454, 0.17840243875980377, 0.13329225778579712, -0.16562829911708832, 0.1614258587360382, 0.26755401492118835, 0.28331229090690613, 0.12038443237543106, 0.10581935942173004, -0.023916328325867653, 0.18665695190429688, -0.07708009332418442, -0.21739333868026733, 0.2529650330543518, 0.21140649914741516, 0.2354307770729065, 0.18196168541908264, -0.04368980973958969, 0.03130541369318962, -0.20322132110595703, 0.16136199235916138, 0.2235252559185028, -0.5269730091094971, -0.3328051269054413, 0.7369656562805176, 0.2772725522518158, -0.3510023057460785, 0.37714511156082153, -0.3688867390155792, -0.2420135885477066, 0.01875540055334568, -0.046984270215034485, -0.2904432415962219, -0.40299829840660095, -0.07251957803964615, 0.119368776679039, -0.3959631025791168, -0.5978032350540161, 0.03305262699723244, -0.03846393898129463, -0.4629817306995392, -0.12750962376594543, -0.17117047309875488, -0.2557658851146698, -0.13029025495052338, 0.02041303925216198, 0.03990047797560692, 0.09364680200815201, -0.3082824945449829, -0.2930850684642792, 0.07132663577795029, -0.15913209319114685, -0.31173235177993774, -0.0034174511674791574, -0.10014761239290237, 0.24566860496997833, 0.03360481932759285, 0.0912279337644577, 0.38740208745002747, 0.17114733159542084, -0.04335179924964905, -0.34515032172203064, -0.004355171229690313, 0.21364329755306244, -0.27170026302337646, -0.10129553079605103, 0.11859254539012909, -0.20899325609207153, 0.05132780596613884, -0.25911709666252136, 0.2134920060634613, -0.11322469264268875, 0.06284717470407486, -0.2311444729566574, -0.8417450189590454, 0.035426557064056396, 0.16933673620224, -0.5376351475715637, -0.362072229385376, 0.27365216612815857, -0.1615137755870819, 0.3111824691295624, -1.022079586982727, 0.16956084966659546, -0.15352310240268707, 0.14430539309978485, 0.024971675127744675, -0.1847037523984909, -0.26856812834739685, -0.0842725858092308, -0.20971225202083588, -0.2000536322593689, -0.2454276829957962, 0.30230477452278137, -0.18844711780548096, 0.010251226834952831, -0.29160815477371216, -0.2163427472114563, 0.17368417978286743, 0.20935696363449097, -0.15071557462215424, -0.2520202100276947, -0.04263092577457428, -0.23850111663341522, 0.36526042222976685, -0.5042822957038879, -1.161763072013855, -0.6729840040206909, 0.36727529764175415, 0.5218938589096069, 0.35128840804100037, -0.2783259451389313, -0.0164748877286911, 0.12875737249851227, 0.2705785036087036, 0.0923207700252533, 0.14770621061325073, -0.33983132243156433, 0.5126409530639648, -0.23191899061203003, 0.019042562693357468, 0.18548087775707245, 0.25283366441726685, 0.5317204594612122, -0.09551481157541275, -0.19798530638217926, -0.05994595214724541, -0.2087547481060028, -0.02151958830654621, 0.1668245941400528, -0.5836242437362671, -0.27632057666778564, -0.309759259223938, -0.3357321321964264, 0.14783337712287903, -0.43946176767349243, -0.48944783210754395, -0.2723657786846161, 0.11492183804512024, 0.061910998076200485, -0.28747689723968506, -0.029497651383280754, 0.3405303657054901, 0.15622256696224213, -0.06385203450918198, -0.10753939300775528, -0.16771650314331055, 0.0560896098613739, -0.0972052738070488, 0.2730853259563446, 0.15922297537326813, -0.15919508039951324, 0.27089956402778625, 0.4081310033798218, -0.25295859575271606, -0.24228014051914215, 0.23589055240154266, -0.0018688659183681011, 0.23353442549705505, 0.2207568734884262, 0.07915928214788437, -0.11542604863643646, -0.14760629832744598, -0.24756354093551636, -0.03238669037818909, -0.16584712266921997, 0.20691190659999847, -0.3284238576889038, -0.20460806787014008, 0.06971846520900726, -0.08672084659337997, -0.15400247275829315, 0.1326105147600174, 0.21992340683937073, 0.30357518792152405, 0.19933803379535675, -0.17582882940769196, -0.2791234254837036, -0.03899044543504715, -0.3614475727081299, -0.07627630978822708, 0.16279882192611694, -0.000822949456050992, 0.18581706285476685, 0.08867113292217255, -0.03544657677412033, 0.18220476806163788, 0.03400866687297821, -0.04185589775443077, 0.0238347128033638, 0.16687685251235962, 0.218854621052742, 0.0984228253364563, 0.32534822821617126, -0.24596653878688812, 0.014777546748518944, -0.01475737988948822, -0.22810794413089752, 0.01193706039339304, 0.4169095456600189, 0.2936672866344452, 0.23841121792793274, -0.3481070101261139, 0.14919646084308624, 0.13111183047294617, -0.13333836197853088, 0.2237354815006256, -0.007590544875711203, -0.20981158316135406, 0.296682745218277, -0.10758830606937408, -0.25839710235595703, 0.16666214168071747, 0.30652084946632385, -0.03371361643075943, 0.10974354296922684, 0.009793628938496113, -0.2782825231552124, 0.016796713694930077, -0.1974242776632309, 0.40894830226898193, -0.2018875777721405, -0.20460864901542664, 0.04246790334582329, 0.1719360202550888, 0.24943014979362488, -0.004580392502248287, 0.07937218248844147, -0.05436185002326965, -0.28740403056144714, -0.17869558930397034, -0.3861594498157501, 0.12548334896564484, 0.13401636481285095, 0.20781390368938446, -0.4588157832622528, -0.14685550332069397, -0.02927798591554165, 0.09585808217525482, -0.2516501247882843, 0.025185612961649895, 0.3013748228549957, -0.06543536484241486, -0.06486403942108154, 0.20709411799907684, -0.2390207201242447, -0.011843346990644932, 0.28620705008506775, -0.06738694757223129, -0.05747117102146149, -0.0209350623190403, -0.19773833453655243, -0.16769275069236755, 0.07812342047691345, 0.1283344030380249, 0.3262856900691986, -0.3890184760093689, 0.01734216697514057, 0.22252622246742249, -0.06916414946317673, -0.007898051291704178, 0.035778969526290894, 0.09438347071409225, -0.0013560854131355882, -0.10841792821884155, 0.2641492784023285, -0.03922732174396515, -0.15411782264709473, 0.08739125728607178, -0.09446150064468384, 0.1151968464255333, 0.014952764846384525, -0.14264650642871857, 0.1686479151248932, 0.2983209788799286, 0.07070236653089523, -0.05812486633658409, 0.20883961021900177, -0.1664707362651825, -0.15549512207508087, 0.07731013745069504, -0.059808120131492615, 0.12550556659698486, 0.11267514526844025, 0.038264330476522446, 0.22247330844402313, 0.08350398391485214, 0.031788334250450134, 0.07436864078044891, 0.045345768332481384, -0.0219134334474802, 0.4215804934501648, -0.27269142866134644, 0.1221829280257225, -0.1613146960735321, -0.11047998070716858, 0.014828012324869633, 0.25673216581344604, 0.2071998417377472, -0.004752964247018099, -0.11619021743535995, 0.039841972291469574, 0.026900094002485275, -0.4668658673763275, -0.21767252683639526, -0.07893345504999161, 0.22833019495010376, -0.009985875338315964, -0.06704752892255783, -0.08554313331842422, 0.008715041913092136, 0.12489083409309387, 0.010939883068203926, 0.2923000156879425, 0.16981352865695953, 0.22967423498630524, 0.3510414958000183, -0.12937124073505402, 0.31438183784484863, 0.13990122079849243, -0.07375162094831467, -0.16794627904891968, -0.23745110630989075, -0.12905192375183105, -0.2547956705093384, 0.0947369635105133, -0.1224193349480629, 0.09334927797317505, -0.2684028148651123, 0.02972104586660862, 0.2896844446659088, 0.08244357258081436, 0.1906953752040863, 0.01616819202899933, 0.2160029113292694, 0.10335569828748703, 0.027116116136312485, -0.012289859354496002, 0.1395394653081894, -0.43788427114486694, -0.12497103214263916, 0.0818495973944664, 0.29911354184150696, -0.30680224299430847, -0.1942194402217865, -0.20880453288555145, -0.026328066363930702, -0.10161531716585159, -0.05235382542014122, 0.21051712334156036, -0.07347668707370758, -0.28243014216423035, 0.003085816977545619, -0.30663833022117615, 0.07763800770044327, 0.007069196552038193, -0.002029907889664173, 0.24542836844921112, -0.009872927330434322, -0.186848983168602, -0.21653230488300323, 0.32855114340782166, -0.2548064589500427, 0.2712397277355194, -0.3365423083305359, -0.11909051239490509, -0.05694825202226639, 0.01330836396664381, -0.30382364988327026, 0.008760631084442139, 0.10913305729627609, -0.19663962721824646, 0.007634826935827732, 0.2146919071674347, 0.1358484923839569, 0.1957218497991562, 0.18001095950603485, -0.3040676414966583, -0.20514950156211853, 0.2597929537296295, 0.14025267958641052, 0.16074904799461365, -0.2694016695022583, 0.14059779047966003, 0.03197589889168739, -0.350981742143631, 0.04956066235899925, -0.044475339353084564, -0.0454830564558506, 0.3527987599372864, 0.11509804427623749, -0.08839600533246994, 0.04253159090876579, -0.09302560985088348, -0.008682074025273323, 0.2602402865886688, -0.025248952209949493, -0.33615949749946594, -0.12946216762065887, -0.29349157214164734, 0.3619002401828766, -0.019830334931612015, 0.11642923951148987, 0.2048887014389038, 0.1869155764579773, -0.14678877592086792, -0.00886991061270237, 0.17771930992603302, 0.13690434396266937, -0.19915060698986053, -0.0059011755511164665, 0.006786499172449112, 0.237264484167099, 0.05287569761276245, 0.14100782573223114, -0.006464764010161161, 0.04692406207323074, -0.04912560433149338, -0.27425846457481384, -0.11247523128986359, -0.03527258709073067, -0.2138550877571106, 0.12827470898628235, -0.1410055011510849, -0.0509285070002079, -0.031201686710119247, -0.2666439116001129, -0.25181928277015686, 0.2153993546962738, 0.08685539662837982, -0.0891231968998909, 0.24837757647037506, -0.0905289277434349, -0.17305134236812592, -0.20392560958862305, -0.2756063938140869, -0.004022136330604553, -0.4181576669216156, -0.06326556205749512, 0.02222229726612568, 0.06766967475414276, -0.5081527233123779, -0.14916984736919403, 0.1593245267868042, 0.05518663674592972, -0.038481298834085464, 0.1903950273990631, 0.47022244334220886, -0.5467107892036438, 0.24154438078403473, -0.37046241760253906, 0.17654819786548615, -0.30939987301826477, -0.02185949496924877, 0.14674700796604156, -0.20127835869789124, 0.11867109686136246, -0.022007478401064873, -0.09925401955842972, 0.2646878957748413, 0.06203049048781395, -0.17598126828670502, -0.06616198271512985, 0.03974194824695587, -0.14710572361946106, 0.0115877166390419, 0.6033876538276672, -0.1406867951154709, 0.10376134514808655, -0.028730805963277817, -0.012092535383999348, -0.543370246887207, 0.13312460482120514, 0.3508123755455017, 0.13128694891929626, -0.20072294771671295, -0.14859433472156525, 0.03607374429702759, 0.2514187693595886, -0.2440062165260315, 0.0970740020275116, -0.17935384809970856, -0.08913782984018326, 0.13718251883983612, 0.23837478458881378, -0.32170265913009644, 0.06965550035238266, 0.18596601486206055, 0.206621915102005, -0.09095819294452667, -0.36046600341796875, 0.29049167037010193, -0.1030404195189476, -0.31119629740715027, 0.31145161390304565, -0.03376172482967377, -0.1821492612361908, 0.138778418302536, -0.09270904213190079, -0.37791064381599426, 0.1864597499370575, 0.2728388011455536, -0.01465526781976223, 0.29361823201179504, 0.034924428910017014, -0.06649386137723923, -0.033470429480075836, -0.09305579960346222, 0.12749044597148895, -0.01785014197230339, -0.04405882582068443, 0.045321784913539886, 0.2908466160297394, 0.1713634431362152, -0.28196433186531067, -0.012732800096273422, 0.13407227396965027, -0.1878155767917633, -0.05255904793739319, -0.21502655744552612, -0.14366374909877777, 0.013199545443058014, 0.04185843840241432, 0.07028217613697052, -0.05969256907701492, -0.10462355613708496, 0.07726845890283585, -0.22379736602306366, -0.08543957769870758, 0.02487202361226082, -0.20360881090164185, -0.06058959662914276, 0.03740007057785988, -0.01887219026684761, 0.3041115999221802, 0.3436542749404907, -0.18683497607707977, -0.10647975653409958, 0.056687433272600174, -0.11099326610565186, -0.1991354525089264, 0.018655361607670784, -0.016778551042079926, 0.02220972254872322, -0.10077955573797226, 0.15431596338748932, 0.18062369525432587, 0.0005317464238032699, 0.03252643346786499, 0.013812581077218056, 0.11598291248083115, 0.11927057802677155, 0.018526973202824593, 0.046034399420022964, -0.0110195716843009, -0.06114199385046959, -0.20094648003578186, -0.10809623450040817, 0.20456790924072266, 0.34167638421058655, 0.25747090578079224, -0.024089839309453964, 0.06443455815315247, -0.035293348133563995, -0.16855929791927338, -0.3743840456008911, 0.05565360188484192, -0.1587141901254654, -0.36253973841667175, 0.337869793176651, 0.24529513716697693, 0.17259812355041504, 0.4309679865837097, 0.13169525563716888, -0.285530149936676, 0.10254977643489838, 0.05564729869365692, 0.10086594521999359, 0.029488351196050644, 0.2727290093898773, 0.14156733453273773, -0.2681029736995697, -0.16920125484466553, -0.24016016721725464, 0.1767003834247589, 0.17147192358970642, 0.06866627186536789, 0.17577067017555237, -0.06539055705070496, 0.17604775726795197, -0.1398390233516693, 0.07353818416595459, 0.10428345203399658, 0.035498932003974915, 0.09799913316965103, 0.0020257001742720604, 0.08928103744983673, -0.05656422674655914, 0.2727491855621338, 0.038257334381341934, -0.24031217396259308, -0.08127251267433167, -1.3533464670181274, 1.0600756406784058, -0.6424335241317749, -0.432140052318573, -0.15475209057331085, -0.651911199092865, -0.5183944702148438, 0.3175782561302185, -0.833450198173523, 0.5719723701477051, 0.6295854449272156, 0.7511202692985535, 0.04694410413503647, -0.5364440679550171, 0.9026197195053101, 0.14719900488853455, -0.040824856609106064, 0.5151365995407104, -0.867520809173584, -0.03047821670770645, 0.12721005082130432, -0.5058411359786987, 0.18854670226573944, -0.05629277974367142, -0.3126191794872284, -0.06499207764863968, -0.08726685494184494, -0.2010328769683838, -0.03144723176956177, 0.21934457123279572, 0.23882514238357544, 0.2765582501888275, 0.035617146641016006, 0.020767152309417725, 0.23671649396419525, -0.041023872792720795, 0.7942925095558167, -0.07091367244720459, 0.0866861566901207, -0.22760224342346191, 0.09476835280656815, -0.2757717967033386, 0.0330486074090004, 0.14595675468444824, 0.14067554473876953, -0.35077348351478577, 0.31086626648902893, -0.15755262970924377, 0.21600420773029327, -0.5012273788452148, 0.15633386373519897, 0.2285020500421524, 0.13150504231452942, 0.3968983590602875, 0.29775917530059814, 0.2932693660259247, 0.0765870064496994, -0.11236876249313354, 0.21087442338466644, 0.3416867256164551, -0.08878758549690247, -0.07123659551143646, 0.39253371953964233, 0.2601444125175476, -0.06906494498252869, 0.10182848572731018, -0.1199866384267807, -0.0656830221414566, -0.4147585928440094, 0.18375909328460693, -0.2227078378200531, 0.49107158184051514, 0.17301666736602783, -0.20199134945869446, 0.003996519837528467, -0.24219876527786255, -0.23962582647800446, -0.09513368457555771, -0.04526349529623985, 0.20884111523628235, -0.035498060286045074, -0.2054983228445053, -0.2710483968257904, -0.13542643189430237, 0.052530184388160706, 0.056875187903642654, -0.21496880054473877, 0.29948821663856506, 0.08085671812295914, -0.16285735368728638, -0.3095967173576355, -0.112403504550457, -0.12608011066913605, 0.04602115973830223, 0.030998727306723595, 0.3227689862251282, 0.15269562602043152, -0.12858310341835022, -0.01587330922484398, 0.2932283580303192, 0.07281721383333206, 0.04924832656979561, 0.04981408268213272, -0.06670593470335007, 0.1681954562664032, -0.34663742780685425, -0.10738812386989594, -0.19758878648281097, -0.30051666498184204, 0.4946231245994568, -0.002060342812910676, 0.10906568914651871, 0.22344151139259338, 0.3400217890739441, 0.07228362560272217, -0.11691377311944962, 0.053472697734832764, 0.11124240607023239, 0.5193782448768616, 0.07853583246469498, -0.22240754961967468, 0.29433441162109375, 0.27590444684028625, -0.0042649260722100735, -0.10343720018863678, 0.20728817582130432, -0.28051677346229553, 0.0788264349102974, -0.28931301832199097, 0.4691658020019531, -0.017739374190568924, 0.1993083953857422, 0.1695767492055893, -0.25117191672325134, 0.323611319065094, 0.06475391983985901, 0.1281319111585617, 0.16209472715854645, -0.026538364589214325, 0.0740451067686081, -0.4437329173088074, -0.07284170389175415, -0.04361744970083237, 0.21812792122364044, -0.4409472644329071, 0.013485048897564411, -0.40139874815940857, 0.19150792062282562, -0.3246246874332428, -0.030015839263796806, -0.09023186564445496, -0.3616780936717987, -0.47035032510757446, 0.32317033410072327, -0.23477330803871155, -0.1298971325159073, 0.06800691038370132, 0.24736183881759644, 0.0484401099383831, 0.2660655677318573, -0.05263416841626167, -0.09741386026144028, -0.11546637862920761, 0.11601187288761139, -0.3627626299858093, -0.22141124308109283, 0.3009358048439026, 0.18604730069637299, -0.061041541397571564, -0.07150556892156601, 0.35700467228889465, 0.011918459087610245, 0.11401310563087463, 0.04643562063574791, -0.12954530119895935, 0.1648600995540619, 0.0044788275845348835, 0.20557177066802979, 0.013213206082582474, 0.14242655038833618, 0.0623408704996109, 0.028275402262806892, 0.24610783159732819, 0.15997129678726196, 0.0337456613779068, -0.11727196723222733, 0.06395084410905838, 0.0642811581492424, -0.06831630319356918, 0.05920954421162605, 0.2309146672487259, -0.16268135607242584, -0.060768961906433105, 0.05182889476418495, 0.047968070954084396, -0.03852798417210579, -0.1884593963623047, 0.09288118779659271, 0.04529843106865883, 0.09407889097929001, 0.18797117471694946, -0.16588732600212097, -0.06909312307834625, -0.23566971719264984, -0.04480001702904701, -0.09218944609165192, 0.0660971999168396, -0.00997253879904747, 0.027790822088718414, -0.0029424987733364105, -0.0870898962020874, 0.014805907383561134, 0.1374143660068512, -0.0038977039512246847, -0.11581391096115112, 0.041147809475660324, -0.186443492770195, -0.1527518332004547, 0.03450873866677284, -0.22850942611694336, -0.25398868322372437, -0.15743426978588104, -0.006398689933121204, 0.06705848127603531, 0.10140324383974075, 0.0854782983660698, 0.12385497242212296, 0.19349730014801025, -0.2469925582408905, 0.17444422841072083, -0.07716614753007889, -0.30003100633621216, 0.13331067562103271, -0.3950568437576294, 0.15528661012649536, 0.07636993378400803, 0.014638910070061684, 0.03562070429325104, -0.04837886989116669, 0.037050679326057434, 0.1710970401763916, -0.23824064433574677, 0.06094764918088913, 0.2787274122238159, 0.06842290610074997, -0.10891126841306686, -0.22287194430828094, -0.16148832440376282, 0.14863519370555878, -0.1051674634218216, -0.18324880301952362, 0.14551159739494324, -0.16269724071025848, 0.06982620060443878, 0.4648455083370209, -0.12147291749715805, -0.01603715308010578, 0.10591340065002441, -0.12758086621761322, -0.14128923416137695, 0.18899913132190704, -0.02444428578019142, -0.047748398035764694, 0.2477957159280777, 0.02978719398379326, 0.05977582186460495, -0.2176455408334732, 0.16151118278503418, 0.15987913310527802, -0.3016805648803711, -0.09149107336997986, 0.00788295641541481, 0.47327718138694763, -0.12754616141319275, -0.05283205956220627, 0.10893985629081726, 0.13888156414031982, 0.27777716517448425, -0.40962257981300354, 0.19196896255016327, 0.12868382036685944, 0.003897471120581031, -0.09573940932750702, 0.2735816240310669, -0.10079775750637054, -0.12139810621738434, 0.02789793349802494, -0.22441476583480835, -0.29199475049972534, 0.056319281458854675, -0.07936122268438339, 0.07580908387899399, 0.20126782357692719, -0.1216445043683052, -0.15694844722747803, -0.18565882742404938, 0.1615190953016281, -0.03078647144138813, -0.14921444654464722, -0.11437104642391205, 0.1257239729166031, -0.10598873347043991, 0.25488340854644775, 0.1016969308257103, -0.027300259098410606, -0.16028383374214172, 0.0854920968413353, -0.05392436310648918, -0.028392640873789787, -0.023044055327773094, -0.2755211889743805, 0.0012524520279839635, 0.2703705430030823, -0.20098337531089783, -0.35478702187538147, 0.1143234521150589, 0.0017191701335832477, -0.06528248637914658, -0.05733843520283699, 0.06711313128471375, 0.19597047567367554, -0.1504594087600708, -0.10467398166656494, 0.0038051954470574856, 0.09164117276668549, 0.025356575846672058, -0.04858539253473282, 0.2199046015739441, 0.07749003171920776, 0.3730897307395935, -0.10579273849725723, 0.044436536729335785, -0.032693393528461456, -0.09904126822948456, 0.039651427417993546, 0.028361978009343147, 0.07342428714036942, 0.2293258160352707, -0.09211112558841705, 0.009471612051129341, 0.10600262135267258, -0.07826954871416092, -0.1109347715973854, -0.1425996571779251, -0.035935673862695694, 0.01304665021598339, 0.281643271446228, 0.0673363208770752, 0.2532888650894165, -0.03641326725482941, -0.08479726314544678, 0.18319708108901978, -0.07207505404949188, -0.1257801502943039, -0.21246322989463806, -0.050614092499017715, 0.1311621516942978, -0.15330424904823303, -0.13282135128974915, -0.046934060752391815, -0.10082466900348663, -0.23730741441249847, 0.1722167730331421, 0.06376863270998001, 0.0033806280698627234, 0.1351567506790161, 0.0572272352874279, -0.01672724075615406, -0.04462474584579468, -0.11094914376735687, -0.06199202686548233, 0.17720521986484528, 0.0713682696223259, 0.07825709879398346, -0.059969235211610794, 0.003136316081508994, 0.21986998617649078, 0.1267181932926178, -0.1669502556324005, -0.10070152580738068, 0.08215649425983429, -0.022921083495020866, -0.013228096067905426, 0.16326342523097992, -0.059307534247636795, 0.22909176349639893, -0.07355678826570511, -0.03728429600596428, -0.16824279725551605, 0.09837121516466141, -0.10653616487979889, 0.17643359303474426, -0.2972032129764557, 0.23342132568359375, 0.20754829049110413, -0.21089674532413483, -0.001378424814902246, -0.19390611350536346, -0.4991084635257721, -0.12738166749477386, -0.033918604254722595, -0.14597134292125702, 0.026165029034018517, 0.11870080232620239, -0.054809100925922394, 0.11622705310583115, 0.027211157605051994, 0.08687570691108704, -0.08806484192609787, -0.20387506484985352, -0.04607285186648369, -0.15214984118938446, -0.0009679192444309592, -0.2470993846654892, 0.095845527946949, 0.03729357570409775, -0.1381971687078476, 0.09610845893621445, -0.08497603237628937, -0.03188902884721756, -0.20518556237220764, -0.40219515562057495, 0.33672481775283813, -0.08124171942472458, 0.09820625185966492, 0.2066643089056015, 0.04659905657172203, -0.19490645825862885, -0.3684436082839966, 0.15440917015075684, -0.16046971082687378, 0.019658492878079414, 0.1922743320465088, 0.09836077690124512, 0.42526495456695557, 0.0157115887850523, -0.28504079580307007, -0.1747298389673233, 0.43733659386634827, 0.2603103220462799, -0.04196875914931297, 0.16332858800888062, -0.06391625106334686, -0.24313907325267792, -0.3362593352794647, 0.0827469602227211, 0.06853929907083511, -0.06799472123384476, 0.15863490104675293, 0.5401489734649658, 0.04931226745247841, 0.04551688954234123, 0.05382758006453514, 0.2226240187883377, 0.08802594244480133, 0.13552157580852509, 0.4541414976119995, 0.14284871518611908, 0.1950225681066513, 0.15044854581356049, -0.17011697590351105, -0.09112139046192169, -0.12930703163146973, -0.09245139360427856, 0.3610319197177887, 0.026591232046484947, 0.11592885106801987, 0.17526616156101227, -0.35767287015914917, -0.11675897240638733, 0.10579478740692139, 0.19970959424972534, 0.18254874646663666, 0.37381771206855774, -0.11231240630149841, -0.246880903840065, 0.06831559538841248, -0.26954612135887146, -0.13179287314414978, 0.1388615369796753, 0.2268058806657791, 0.032479625195264816, -0.1712794154882431, -0.008041087538003922, -0.010801478289067745, -0.29384613037109375, 0.0034494197461754084, 0.01636742614209652, 0.10504820942878723, 0.07866406440734863, -0.008942827582359314, 0.05186779052019119, 0.4537550210952759, 0.3119643032550812, -0.08110174536705017, 0.2905053496360779, 0.12519952654838562, -0.3841635584831238, -0.3196721076965332, -0.1375008374452591, 0.5193150043487549, -0.11363948881626129, 0.06998642534017563, 0.19544865190982819, -0.4761224389076233, -0.141355499625206, 0.17770373821258545, -0.0174704696983099, 0.12362410873174667, 0.12544186413288116, -0.1955484002828598, 0.0020773163996636868, 0.20628678798675537, -0.24154798686504364, -0.06735753268003464, 0.45163029432296753, 0.23680655658245087, -0.06432543694972992, -0.32360461354255676, 0.06583886593580246, 0.09727195650339127, -0.573898196220398, -0.09455925226211548, -0.1412799209356308, -0.06134722754359245, -0.07752131670713425, -0.2408662736415863, 0.15256758034229279, -0.20775558054447174, -0.1634048968553543, 0.2327338606119156, -0.000874189892783761, 0.13499772548675537, -0.2438337653875351, -0.0405556820333004, -0.053149979561567307, 0.23166567087173462, -0.08088607341051102, -0.16112178564071655, 0.12232203781604767, 0.23612786829471588, -0.05841471254825592, 0.26693210005760193, -0.01198192685842514, 0.05160321295261383, -0.04467868059873581, 0.11966167390346527, -0.18529172241687775, 0.0908830314874649, -0.15319117903709412, -0.11160008609294891, 0.09440005570650101, 0.12436556071043015, -0.0187001321464777, -0.37121719121932983, 0.21356619894504547, 0.3902256190776825, 0.1440192461013794, 0.25564906001091003, 0.012468047440052032, 0.16785044968128204, -0.20583575963974, -0.14496788382530212, -0.06711414456367493, -0.0328984335064888, 0.18109123408794403, -0.7431046366691589, -0.13369400799274445, -0.13641147315502167, 0.1040208712220192, 0.12480040639638901, 0.39705324172973633, -0.09657515585422516, 0.1112145334482193, 0.025561049580574036, -0.3588416874408722, 0.04977024719119072, -0.05422260984778404, -0.2740880250930786, 0.2915409803390503, 0.2781022787094116, -0.17754344642162323, 0.12068309634923935, 0.09407245367765427, 0.03725116699934006, -0.12025707960128784, 0.08313874900341034, -0.17154234647750854, -0.04568438604474068, -0.13916204869747162, 0.4855472445487976, -0.01818211004137993, -0.10973619669675827, 0.18933145701885223, -0.02241426520049572, 0.11915235221385956, -0.3021773397922516, -0.014484662562608719, 0.1270301640033722, -0.09864334017038345, 0.13660681247711182, 0.15338462591171265, 0.03136525675654411, -0.06390457600355148, -0.10644086450338364, -0.18024423718452454, -0.1127856969833374, 0.07685546576976776, -0.20161384344100952, -0.08984243124723434, 0.0449552908539772, -0.18842992186546326, 0.556340217590332, -0.2666729986667633, 0.24063563346862793, -0.2838298976421356, 0.35995933413505554, 0.5555501580238342, 0.6944776177406311, -0.5774033665657043, -0.6407619118690491, -1.0642645359039307, -0.15282878279685974, 0.7040117979049683, -0.27772125601768494, -0.2693260908126831, 0.48102229833602905, -0.03689083829522133, 0.18698975443840027, 0.23345135152339935, -0.10391844063997269, 0.1762905716896057, -0.06439025700092316, 0.35439667105674744, 0.21756993234157562, -0.6726074814796448, -0.20148658752441406, -0.19060513377189636, -0.06727138161659241, 0.012623216025531292, -0.25982552766799927, 0.16586309671401978, 0.17300084233283997, -0.12949104607105255, -0.352886825799942, 0.02425203286111355, -0.034479524940252304, 0.5276362895965576, 0.1852988749742508, 0.1578371673822403, -0.1139802411198616, -0.16971468925476074, -0.20728397369384766, -0.09565731137990952, 0.03603288158774376, -0.03154837712645531, 0.25100231170654297, 0.2575110197067261, -0.05506179481744766, -0.5420677065849304, 0.09104058146476746, -0.17540355026721954, -0.3678240180015564, 0.13316944241523743, 0.1447020024061203, 0.44854459166526794, -0.044872742146253586, 0.08521465957164764, 0.4280713200569153, -0.4654274582862854, 0.08171553909778595, -0.03912576287984848, 0.6139870882034302, -0.3853793144226074, -0.3528969883918762, -0.09325287491083145, -0.15384064614772797, -0.08549658954143524, 0.5962737798690796, 0.3952677249908447, -0.292590469121933, -0.4635814130306244, 0.044520579278469086, -0.3735571503639221, -0.13038243353366852, -0.07596907019615173, -0.20360863208770752, -0.024355635046958923, -0.18648046255111694, -0.08708439022302628, 0.024150202050805092, -0.11993802338838577, 0.031896378844976425, 0.06782136112451553, 0.07235991954803467, 0.2322978526353836, 0.0785704255104065, -0.14764370024204254, 0.3433797061443329, 0.1541566699743271, 0.21971166133880615, 0.22221341729164124, -0.05741811916232109, -0.25845104455947876, 0.18234951794147491, 0.2026352435350418, 0.1897738128900528, -0.3717202842235565, 0.1218927651643753, 0.1726168990135193, -0.2922382652759552, -0.12519417703151703, -0.2345583736896515, 0.41948872804641724, -0.03321971371769905, -0.08989368379116058, 0.23654116690158844, 0.21183060109615326, 0.1621585190296173, -0.12411653995513916, 0.22345998883247375, -0.0103461854159832, -0.006562556140124798, 0.20762187242507935, -0.19283442199230194, -0.06213093549013138, -0.03832118958234787, -0.19357936084270477, -0.32711660861968994, -0.10544304549694061, -0.01808987371623516, 0.23566433787345886, 0.0839575007557869, -0.04134513437747955, -0.04941682517528534, -0.2015339881181717, -0.07762781530618668, -0.10806222259998322, -0.11246559023857117, -0.09580720961093903, -0.30214956402778625, -0.6340015530586243, 0.008843010291457176, 0.29629793763160706, -0.016049839556217194, -0.20182861387729645, -0.3102039098739624, -0.046379558742046356, 0.3443019688129425, 0.36325687170028687, -0.26057636737823486, 0.32001984119415283, 0.4389841556549072, 0.011929712258279324, 0.45810067653656006, 0.43643003702163696, 0.01818908005952835, -0.11077417433261871, -0.07918917387723923, -0.13194355368614197, 0.04904165118932724, -0.05613334849476814, 0.0031854186672717333, -0.26385968923568726, -0.23208293318748474, 0.3359333574771881, 0.018663715571165085, 0.5396199226379395, -0.3964185118675232, 0.02545900270342827, 0.01149382907897234, 0.16543889045715332, -0.10556933283805847, -0.07014139741659164, 0.15432453155517578, -0.16826526820659637, -0.42027583718299866, -0.043305061757564545, 0.3970787525177002, 0.11321701854467392, -0.2147369086742401, 0.040404751896858215, 0.23055917024612427, -0.19851289689540863, -0.1009039431810379, 0.34163224697113037, 0.19569151103496552, 0.19133862853050232, -0.32979804277420044, 0.2539103627204895, 0.4923519492149353, -0.2722960114479065, 0.007477644365280867, 0.10719723254442215, -0.11468102782964706, -0.09429588168859482, 0.2712025046348572, -0.13825723528862, -0.13418453931808472, -0.07828739285469055, -0.328115850687027, 0.09116901457309723, 0.1354341357946396, -0.29566752910614014, -0.17040017247200012, -0.25995731353759766, 0.2611185610294342, -0.07647696882486343, -0.06536639481782913, 0.1255195587873459, -0.06492511183023453, 0.2701532244682312, -0.019031915813684464, 0.1650148183107376, -0.09278829395771027, -0.26353320479393005, 0.07448330521583557, 0.14099282026290894, -0.7491138577461243, 0.059949565678834915, 0.1558065265417099, 0.13663069903850555, -0.1268399953842163, 0.05317474901676178, -0.04206886142492294, -0.01780141517519951, -0.07173211872577667, 0.18704254925251007, 0.06365418434143066, 0.18974043428897858, -0.41309723258018494, -0.10214260220527649, -0.06325887888669968, 0.18054617941379547, 0.10010360181331635, 0.06731972098350525, 0.001739244326017797, -0.13988220691680908, -0.03607746586203575, 0.022272299975156784, -0.06327261030673981, 0.08656410127878189, -0.1655840426683426, -0.16233420372009277, 0.021471170708537102, -0.37897321581840515, 0.10780705511569977, -0.15060923993587494, -0.012303742580115795, 0.020550744608044624, 0.04846614599227905, 0.003252295544371009, 0.1598038673400879, -0.07416586577892303, 0.12488556653261185, -0.004502075258642435, -0.07353582233190536, 0.041616011410951614, -0.04185214638710022, 0.1146969199180603, -0.1904018521308899, -0.3876650631427765, -0.13712480664253235, -0.11384992301464081, -0.02083396725356579, -0.33504557609558105, -0.002647110726684332, -0.05183184891939163, 0.016444357112050056, -0.0584682933986187, 0.3288421928882599, 0.49071821570396423, -0.1847868263721466, -0.17727422714233398, 0.3960917890071869, 0.19468630850315094, 0.060618236660957336, 0.14209255576133728, 0.05819503217935562, -0.1300022453069687, -0.5897529125213623, -0.1215028241276741, -0.23157528042793274, -0.31353822350502014, -0.08503536134958267, -0.04597265273332596, 0.028343036770820618, 0.11059489846229553, -0.03451623022556305, -0.07508184015750885, 0.24974073469638824, 0.1567554920911789, 0.08633048832416534, 0.08220752328634262, -0.06704056262969971, 0.08666249364614487, 0.0805303230881691, 0.020280424505472183, -0.2624615728855133, 0.12364170700311661, -0.026393698528409004, 0.1757190078496933, 0.027770888060331345, -0.16978296637535095, -0.20174357295036316, -0.005138784646987915, 0.08406610786914825, 0.21832053363323212, 0.24595414102077484, 0.028286486864089966, -0.02109653316438198, 0.17322343587875366, -0.061662252992391586, -0.12536920607089996, -0.22225689888000488, 0.08556835353374481, 0.08255283534526825, -0.187361940741539, -0.1608704775571823, -0.24280045926570892, 0.17983651161193848, -0.21539965271949768, -0.1648034006357193, -0.1580611914396286, -0.10730962455272675, -0.13564516603946686, 0.3648667633533478, -0.24223017692565918, -0.16984175145626068, -0.038031693547964096, -0.04827432334423065, 0.09229230135679245, -0.31896722316741943, 0.1852518618106842, 0.1679450273513794, -0.1906501203775406, -0.02104160189628601, -0.05008559301495552, 0.2619285583496094, 0.2623555362224579, 0.08748037368059158, 0.04442330449819565, 0.04217258095741272, 0.11260007321834564, 0.08964647352695465, -0.07956162095069885, 0.20779190957546234, -0.4050871431827545, -0.01930031180381775, 0.008158162236213684, 0.11538229882717133, -0.024143356829881668, -0.0457267127931118, 0.18515996634960175, 0.060926515609025955, 0.32827574014663696, -0.19174635410308838, 0.1711481809616089, 0.07516137510538101, -0.13502924144268036, -0.1626637876033783, -0.31783509254455566, -0.2248629927635193, 0.061660099774599075, 0.01700095646083355, 0.2878463566303253, 0.050144169479608536, 0.056859035044908524, -0.012991122901439667, 0.06906170397996902, 0.44288960099220276, 0.18026202917099, 0.13443948328495026, -0.10206075012683868, -0.1567320078611374, -0.0937737450003624, 0.0008147950866259634, -0.06736874580383301, 0.08127474784851074, 0.13635341823101044, -0.23957863450050354, 0.08099532872438431, 0.21579478681087494, -0.004906997550278902, 0.024687137454748154, 0.0821390450000763, 0.01503928191959858, -0.13046829402446747, 0.022191420197486877, -0.013225712813436985, 0.05212077870965004, 0.21373708546161652, 0.1703224927186966, -0.012905379757285118, -0.14429429173469543, 0.03870806470513344, 0.5927246809005737, 0.40416839718818665, -0.32202690839767456, 0.3735530972480774, -0.2725146412849426, -0.23737019300460815, -0.43834060430526733, 0.21590982377529144, -0.03321712836623192, -0.18868790566921234, 0.09858828783035278, 0.00871447566896677, -0.32399553060531616, -0.2421400398015976, 0.43531104922294617, -0.06132480502128601, -0.08316642045974731, 0.046009328216314316, 0.25062382221221924, 0.5424813628196716, -0.09461971372365952, -0.3320275843143463, 0.14910660684108734, 0.2667849659919739, 0.24509748816490173, -0.16073660552501678, -0.08670452982187271, 0.04382422938942909, -0.33305472135543823, -0.03150540590286255, -0.18079590797424316, 0.2773401737213135, 0.14596131443977356, 0.02710762992501259, 0.10626047849655151, 0.09025140851736069, 0.1469946801662445, 0.0679686963558197, -0.11905281245708466, -0.11909905076026917, -0.03866107761859894, -0.15193544328212738, -0.11724723130464554, -0.0038666268810629845, 0.06310132145881653, 0.009468331933021545, -0.10966779291629791, 0.2894800007343292, -0.21057209372520447, -0.17794889211654663, 0.10203363746404648, -0.05869489163160324, -0.18252453207969666, 0.14436596632003784, 0.13927921652793884, -0.04493267834186554, 0.011395884677767754, 0.0014717234298586845, -0.13300234079360962, -0.1454552412033081, -0.13212795555591583, -0.16533811390399933, 0.10427703708410263, 0.26038607954978943, -0.054669249802827835, -0.10489396005868912, -0.022932343184947968, -0.10936527699232101, 0.03464769199490547, -0.1406535655260086, -0.153889998793602, -0.10487822443246841, -0.3539744019508362, -0.7293409705162048, 0.08874719589948654, -0.20547673106193542, 0.22942611575126648, -0.01622885838150978, 0.09252490848302841, -0.11386115849018097, -0.0837041512131691, 0.24767839908599854, -0.25332844257354736, 0.33394917845726013, 0.04127052426338196, -0.1368984878063202, 0.1698497086763382, -0.015519930981099606, 0.03849557042121887, 0.030516764149069786, -0.017168615013360977, 0.14889958500862122, 0.1246662363409996, 0.2670930027961731, -0.3589329421520233, -0.07959327846765518, -0.23661085963249207, 0.15369705855846405, -0.08927186578512192, 0.188788041472435, 0.4727999269962311, 0.41480448842048645, 0.24724091589450836, 0.1382197141647339, 0.07553223520517349, 0.3073796033859253, -0.08468727767467499, -0.027516735717654228, -0.13087128102779388, -0.2747017741203308, -0.3887185752391815, 0.05748721584677696, -0.22356602549552917, 0.2580852806568146, 0.17901399731636047, 0.16964191198349, -0.38376131653785706, -0.0568813793361187, 0.26346665620803833, 0.4328991174697876, 0.04351050406694412, 0.1692156046628952, 0.04033474996685982, -0.18169212341308594, -0.004565935581922531, -0.11269080638885498, 0.021102046594023705, -0.13667404651641846, -0.7645701169967651, 0.12477248907089233, 0.22065739333629608, -0.2328304797410965, 0.032203640788793564, -0.029784193262457848, 0.1769416630268097, 0.03288011997938156, -0.07623951137065887, 0.33761173486709595, 0.002980545861646533, 0.20831173658370972, 0.032789818942546844, -0.15447211265563965, 0.012100360356271267, -0.1012507751584053, -0.16209034621715546, 0.3431612253189087, -0.23140907287597656, 0.1137855052947998, 0.3995182514190674, -0.07858314365148544, 0.11407703161239624, -0.07686028629541397, 0.11856923252344131, 0.02961224503815174, -0.2658630311489105, 0.5113196969032288, 0.19066962599754333, 0.2794193625450134, 0.027649814262986183, -0.012746940366923809, -0.35904908180236816, 0.03666960075497627, -0.09619972854852676, -0.5434625744819641, -0.14858342707157135, -0.11205653101205826, -0.4746972322463989, 0.13740411400794983, -0.26503512263298035, -0.09462600201368332, -0.3636558949947357, -0.052565257996320724, -0.17619597911834717, -0.33747488260269165, 0.04301478713750839, -0.3355662226676941, 0.21036718785762787, -0.14122015237808228, -0.3083668053150177, 0.09844149649143219, 0.20398564636707306, 0.16205497086048126, -0.40891575813293457, 0.19700759649276733, -0.1756085455417633, -0.1178240105509758, -0.2462591826915741, -0.07330899685621262, 0.1569729894399643, -0.11504625529050827, 0.11117362231016159, -0.09080956131219864, -0.10000239312648773, -0.29540255665779114, -0.4062296450138092, -0.06835572421550751, -0.03037221170961857, 0.15856622159481049, -0.11646365374326706, -0.39926645159721375, 0.2638401687145233, -0.19063498079776764, 0.09519568830728531, 0.23487630486488342, 0.016805654391646385, 0.08086381107568741, 0.11394854635000229, -0.1440625637769699, 0.0032263880129903555, -0.1956252157688141, -0.17541320621967316, -0.04123500734567642, 0.12658032774925232, -0.10453523695468903, 0.12410953640937805, 0.4394097328186035, 0.015614916570484638, 0.2178199738264084, 0.018497789278626442, 0.20712706446647644, -0.20277221500873566, -0.04938609153032303, 0.08569013327360153, 0.09517744928598404, 0.14647506177425385, 0.1002061665058136, 0.37524184584617615, -0.0034457428846508265, 0.14993946254253387, -0.34246522188186646, -0.10086782276630402, -1.036720871925354, 0.03132176399230957, -0.42031267285346985, 0.040672045201063156, -0.7724179625511169, 0.8317627310752869, -1.0075294971466064, 0.3156130015850067, 0.543022632598877, -0.42778414487838745, 0.2979131042957306, -0.028646765276789665, -0.27773502469062805, -0.09817037731409073, -0.047227032482624054, 0.2519215941429138, -0.1928672194480896, -0.08674788475036621, -0.39771074056625366, 0.02693158946931362, -0.11588643491268158, 0.5058267712593079, -0.05978156626224518, 0.14727768301963806, -0.20685380697250366, 0.5654150247573853, 0.1680539846420288, -0.3699668347835541, -0.20068268477916718, -0.03270503878593445, 0.24965143203735352, -0.03377130255103111, 0.03334059566259384, -0.44113391637802124, 0.3140268921852112, 0.05636724829673767, -0.019951622933149338, -0.675875186920166, -0.20723994076251984, 0.57748943567276, -0.014656170271337032, -0.13209696114063263, -0.11229131370782852, 0.3482131063938141, -0.1299784779548645, 0.023341668769717216, -0.3889220952987671, 0.1852693259716034, 0.03025643154978752, -0.013169660232961178, -0.17439080774784088, 0.045937493443489075, -0.16684311628341675, 0.13828283548355103, -0.18702000379562378, 0.20735332369804382, -0.3219618499279022, 0.2767048180103302, 0.07638218998908997, 0.3258581757545471, -0.34187784790992737, 0.19476212561130524, 0.46796488761901855, 0.011445226147770882, -0.2470405101776123, -0.20020988583564758, 0.03159686550498009, -0.3536853492259979, 0.02952396124601364, 0.08678001165390015, 0.08676682412624359, 0.11041369289159775, 0.21969467401504517, 0.07529864460229874, 0.20602411031723022, 0.046829432249069214, -0.3150422275066376, -0.32999444007873535, 0.4068230986595154, 0.0015939067816361785, -0.017760537564754486, -0.5424529314041138, 0.12190798670053482, 0.2679765522480011, -0.01883692666888237, -0.2247057408094406, -0.07686400413513184, 0.30605006217956543, -0.4076039493083954, -0.05605483055114746, 0.056758370250463486, -0.06872173398733139, 0.01579989865422249, 0.0030741265509277582, -0.009598723612725735, -0.13648682832717896, 0.21624532341957092, -0.05825662612915039, -0.26161861419677734, -0.19278238713741302, 0.1950884461402893, 0.25124391913414, -0.24459846317768097, 0.27749186754226685, -0.3688240647315979, -0.16190369427204132, 0.2321852594614029, -0.1509857475757599, 0.20770205557346344, 0.026796333491802216, 0.12570279836654663, 0.12284853309392929, 0.019978491589426994, 0.024538245052099228, 0.11977294832468033, 0.11975112557411194, -0.18107682466506958, -0.49579760432243347, 0.15963901579380035, 0.25701650977134705, -0.07679300010204315, -0.22489169239997864, -0.022409869357943535, 0.5229194760322571, -0.1491016298532486, -0.15605124831199646, -0.26583364605903625, -0.057582173496484756, 0.3961871266365051, -0.848237156867981, -0.32399052381515503, -0.41426411271095276, -0.06683535873889923, -0.537004292011261, -0.16612322628498077, 0.5479705333709717, 0.058559682220220566, 0.2562362253665924, -0.2398681491613388, 0.45907020568847656, 0.08903191983699799, -0.10336045175790787, -0.31455057859420776, -0.055784922093153, 0.3707047402858734, 0.21656998991966248, 0.03934432566165924, 0.1443939357995987, -0.026950187981128693, 0.17858625948429108, 0.4277368187904358, -0.3235587179660797, 0.020607840269804, -0.09832726418972015, 0.013835462741553783, -0.13375596702098846, -0.1719411015510559, -0.06895145028829575, 0.16148576140403748, 0.10152943432331085, -0.2578740417957306, -0.06606946885585785, 0.06375391781330109, 0.14520767331123352, 0.18200556933879852, 0.06529707461595535, 0.204398974776268, -0.21937786042690277, 0.11051621288061142, 0.27550598978996277, -0.329073429107666, -0.09538531303405762, -0.23800630867481232, 0.4037778079509735, 0.05151648074388504, 0.010591093450784683, 0.20062655210494995, -0.17876626551151276, -0.1616334468126297, -0.0826449915766716, -0.04852345585823059, -0.24192608892917633, 0.21618244051933289, 0.004997000563889742, 0.14506658911705017, 0.2345910519361496, -0.11144110560417175, -0.25724729895591736, 0.30561110377311707, -0.0814957320690155, 0.1556614637374878, -0.2540392279624939, 0.25603342056274414, 0.08436516672372818, -0.12569501996040344, 0.11497274786233902, 0.22251631319522858, 0.8305667638778687, 0.011581702157855034, -0.16609323024749756, 0.3870915174484253, 0.16020159423351288, 0.033315666019916534, 0.25420084595680237, -0.18665696680545807, -0.13752196729183197, -0.08676458895206451, 0.10420730710029602, -0.007123887073248625, -0.06252961605787277, -0.06642340868711472, 0.040772560983896255, -0.11272062361240387, 0.24145559966564178, -0.14271196722984314, -0.18949979543685913, 0.07000678777694702, 0.25666069984436035, -0.016083041206002235, 0.03135990351438522, 0.07154592126607895, 0.3203669488430023, 0.10696873813867569, -0.0931871309876442, -0.019077051430940628, 0.03878704085946083, -0.09519027173519135, 0.15452203154563904, 0.11695278435945511, -0.10550621151924133, -0.05242449417710304, -0.09985906630754471, -0.02172715589404106, -0.33567944169044495, 0.2832086980342865, 0.14851735532283783, -0.18313750624656677, -0.01687052845954895, 0.018730241805315018, -0.08956091850996017, 0.04141514375805855, -0.20334988832473755, -0.20054306089878082, 0.032350338995456696, 0.27105581760406494, -0.1211719959974289, -0.07465993613004684, -0.155008926987648, -0.18067798018455505, -0.0370321087539196, 0.41676273941993713, -0.005014840513467789, -0.24569661915302277, 0.20861774682998657, -0.18760481476783752, 0.062352556735277176, 0.09109122306108475, -0.05155957490205765, -0.0026449267752468586, -0.1063377633690834, -0.04133579134941101, 0.11056486517190933, 0.13253696262836456, -0.05849780887365341, 0.10718049108982086, 0.47461995482444763, 0.04697403684258461, 0.06314202398061752, -0.28459128737449646, 0.04978586733341217, -0.11726594716310501, 0.09447057545185089, -0.11105489730834961, -0.019581809639930725, -0.11408867686986923, -0.3391019403934479, 0.0047321743331849575, -0.12198564410209656, 0.41972416639328003, 0.09481994807720184, 0.15034648776054382, -0.3402405083179474, -0.13066013157367706, 0.0948789119720459, -0.1611529290676117, 0.2149040400981903, 0.37280234694480896, 0.009958334267139435, -0.013348349370062351, -0.10972235351800919, -0.027563974261283875, 0.040154263377189636, -0.13680502772331238, -0.18614260852336884, -0.03126751258969307, 0.05939321964979172, -0.31867972016334534, -0.1046256348490715, -0.23028433322906494, 0.012560509145259857, -0.16923826932907104, -0.2415979951620102, -0.014861014671623707, 0.07246959209442139, 0.1698070764541626, -0.13593605160713196, -0.08578062057495117, 0.02623710036277771, -0.09215253591537476, 0.05709708854556084, -0.012092787772417068, 0.10429690033197403, 0.0863293930888176, -0.028300371021032333, 0.39368972182273865, 0.10018246620893478, 0.009696988388895988, -0.5523055791854858, 0.02499554492533207, 0.09812028706073761, -0.1831982284784317, 0.13006047904491425, 0.16840168833732605, 0.7610494494438171, 0.07091967016458511, 0.17993120849132538, 0.08959575742483139, 0.07382920384407043, 0.07278411835432053, -0.17272977530956268, 0.1284191757440567, 0.17563724517822266, -0.27682968974113464, 0.052496202290058136, -0.20106907188892365, 0.0635562539100647, 0.031046904623508453, -0.02769544906914234, -0.05083232372999191, 0.003026176942512393, -0.05766778066754341, -0.5892197489738464, 0.08067499846220016, 0.28576934337615967, 0.08126148581504822, -0.04568381980061531, -0.05264061689376831, -0.10056498646736145, -0.017969505861401558, 0.007370262406766415, -0.085727758705616, -0.0856529027223587, -0.30441999435424805, -0.036849912256002426, -0.10643687099218369, -0.09695974737405777, -0.10793345421552658, -0.11657721549272537, -0.018438519909977913, -0.17590628564357758, -0.2764195203781128, -0.3870227634906769, -0.08191479742527008, -0.03272714838385582, -0.10652030259370804, -0.0864410325884819, -0.08867526799440384, -0.2057722508907318, 0.015991514548659325, -0.11398565024137497, -0.1758740246295929, -0.10120963305234909, 0.11232368648052216, -0.2686704397201538, 0.06313671171665192, 0.09763097018003464, 0.198029562830925, -0.03301113098859787, -0.04201692342758179, 0.19409091770648956, -0.0392189659178257, 0.056884221732616425, -0.5125359892845154, 0.03233986720442772, 0.2689167261123657, 0.13555480539798737, 0.173263281583786, 0.06463872641324997, -0.12496000528335571, -0.24278360605239868, -0.06637409329414368, -0.4119686782360077, 0.1515374481678009, 0.1064085066318512, -0.150911346077919, -0.27744367718696594, -0.10298511385917664, 0.019948607310652733, 0.23257678747177124, -0.0541393980383873, 0.20013035833835602, 0.10668235272169113, 0.08755729347467422, 0.026158330962061882, 0.11805456876754761, -0.15734627842903137, -0.12000039219856262, -0.16206037998199463, 0.11025536060333252, -0.24686792492866516, 0.0024892142973840237, 0.05567655712366104, -0.6146659851074219, -0.02166556566953659, -0.07817170023918152, 0.1650998592376709, 0.21780835092067719, 0.03439102694392204, -0.2004491239786148, 0.04925239086151123, -0.015580588020384312, -0.0363621823489666, -0.06597808748483658, 0.110006183385849, 0.1297711431980133, -0.033448174595832825, -0.22920456528663635, -0.12846212089061737, -0.09222637116909027, 0.16401174664497375, 0.0311528779566288, 0.07290399074554443, 0.01637725532054901, 0.2751494348049164, -0.023098168894648552, 0.05052531883120537, -0.07370691001415253, 0.018739523366093636, -0.13219624757766724, -0.07613396644592285, -0.05658607929944992, -0.12041173875331879, 0.20948678255081177, -0.04771631211042404, 0.4427052438259125, 0.13092359900474548, 0.22251957654953003, -0.005447336472570896, 0.12671829760074615, 0.14048218727111816, -0.02915441058576107, -0.15173275768756866, 0.13122528791427612, -0.3376452922821045, 0.12879398465156555, 0.4942989945411682, -0.16566695272922516, 0.05557301267981529, -0.152582585811615, 0.09992845356464386, -0.27500176429748535, 0.05090462788939476, 0.14018681645393372, 0.030174585059285164, -0.21185965836048126, 0.36428961157798767, -0.33705848455429077, -0.8787222504615784, 0.18762201070785522, -0.0487491600215435, -0.09446370601654053, 0.03231046348810196, 0.2968387305736542, 0.13980157673358917, 0.4225253462791443, -0.14657439291477203, 0.11080783605575562, -0.2668035626411438, 0.1846030354499817, 0.22659806907176971, -0.40909475088119507, -0.058175936341285706, -0.151915043592453, -0.3076074719429016, -0.3144255578517914, 0.029733333736658096, 0.33556899428367615, -0.1115991547703743, -0.4094064235687256, 0.07248026877641678, 0.17757315933704376, 0.031891170889139175, 0.01478478405624628, 0.018531307578086853, -0.32607829570770264, -0.04453960433602333, -0.2273228019475937, 0.17268840968608856, 0.03315714746713638, -0.16539748013019562, 0.05026203393936157, -0.19076129794120789, -0.2980724573135376, -0.19896353781223297, 0.07020273059606552, 0.17160187661647797, 0.570882260799408, -0.17254722118377686, -0.05269701033830643, 0.45447713136672974, -0.1301979124546051, -0.2146383821964264, 0.08705178648233414, -0.0026428501587361097, -0.02469204179942608, -0.2175784409046173, 0.1110851839184761, 0.2586899995803833, 0.08594152331352234, 0.08599146455526352, 0.24210995435714722, 0.4978034794330597, 0.15226073563098907, 0.044288963079452515, 0.32729804515838623, -0.05553774908185005, 0.09747777879238129, -0.02555551938712597, 0.03919340297579765, 0.3916415870189667, -0.011686740443110466, 0.0979490652680397, -0.3621951937675476, 0.1519360989332199, 0.06695863604545593, -0.11287957429885864, -0.12007391452789307, 0.271086722612381, 0.6116805672645569, 0.07512522488832474, 0.08556696772575378, -0.03173302114009857, 0.19456204771995544, -0.0006096021388657391, -0.18471580743789673, -0.1380457729101181, 0.059939656406641006, -0.15250909328460693, 0.03613525629043579, -0.23288647830486298, -0.07358735799789429, -0.07489865273237228, -0.1798418164253235, -0.20681607723236084, -0.1426880806684494, -0.020710233598947525, -0.5541222095489502, -0.34682777523994446, -0.01126457192003727, -0.16849753260612488, -0.2800098657608032, 0.02158519998192787, -0.12265828251838684, -0.17165882885456085, 0.06182442232966423, 0.0728292390704155, -0.0012701947707682848, -0.1227523535490036, -0.347533643245697, -0.04530075937509537, 0.10934463143348694, 0.08714071661233902, 0.3633715808391571, 0.14724677801132202, -0.10307928919792175, 0.15291175246238708, -0.10912525653839111, 0.16081608831882477, -0.07238657772541046, -0.2502887547016144, -0.01657487265765667, -0.16982105374336243, 0.006890232674777508, -0.0655246376991272, 0.15811343491077423, -0.11225548386573792, -0.18950867652893066, 0.046215351670980453, -0.13458119332790375, -0.2739192545413971, 0.009310697205364704, 0.1837943196296692, 0.043067317456007004, 0.09118400514125824, 0.007338973693549633, 0.034470148384571075, -0.21469219028949738, 0.04098460078239441, -0.02710103429853916, -0.05268104746937752, 0.3220081329345703, -0.3564227819442749, 0.05579188093543053, -0.11940545588731766, 0.23114854097366333, 0.07068958878517151, -0.3762299716472626, 0.18440543115139008, 0.03907625377178192, -0.7554038166999817, 0.3438956141471863, 0.7105943560600281, 0.16663803160190582, 0.8084099292755127, 0.44297364354133606, -0.7591409087181091, -0.38819795846939087, -0.14313067495822906, 0.10570733994245529, -0.17203155159950256, 0.8901020288467407, 0.2735496759414673, -0.0031079393811523914, 0.17382794618606567, -0.21782582998275757, -0.0127671854570508, -0.08468449115753174, -0.20801416039466858, -0.10838509351015091, -0.3271721303462982, 0.010313163511455059, 0.12086840718984604, 0.042668890208005905, -0.00030344590777531266, 0.22675809264183044, 0.154212087392807, -0.0521780364215374, -0.29572904109954834, 0.17005272209644318, -0.1294424682855606, 0.1760447472333908, 0.13074734807014465, 0.07380693405866623, -0.116087406873703, -0.4646967649459839, 0.09302768111228943, -0.026721566915512085, -0.0335436575114727, -0.166432723402977, 0.13302142918109894, -0.34536996483802795, -0.08788672089576721, 0.018492624163627625, -0.05627407133579254, -0.42352309823036194, -0.2247697114944458, 0.1900985836982727, 0.33344319462776184, 0.19616082310676575, 0.2383602410554886, -0.35758477449417114, -0.23855572938919067, -0.2861759066581726, -0.2323923408985138, 0.2823343276977539, -0.15782573819160461, 0.13221637904644012, -0.3120480477809906, -0.14363688230514526, 0.39632636308670044, -0.2826325297355652, 0.1922226995229721, -0.044655393809080124, -0.33199191093444824, 0.2586405873298645, 0.08282621204853058, 0.0959535464644432, -0.37794801592826843, -0.4985499680042267, -0.20395739376544952, -0.20725193619728088, 0.12280843406915665, -0.05162379890680313, 0.4673450291156769, 0.030683863908052444, 0.22325067222118378, -0.1364455372095108, -0.1542826145887375, 0.019750747829675674, -0.22792626917362213, 0.03254617750644684, -0.3254832625389099, -0.2579329013824463, -0.2762041985988617, -0.03144710883498192, 0.08147557824850082, 0.17698705196380615, 0.29714465141296387, -0.1868762969970703, -0.1573370397090912, -0.03230127692222595, -0.033588603138923645, 0.07198836654424667, 0.10608207434415817, -0.3386577069759369, 0.06290911883115768, 0.06141511723399162, -0.10258808732032776, 0.026150889694690704, -0.22018428146839142, 0.11888614296913147, 0.09299861639738083, 0.3084467053413391, -0.009272500872612, -0.08145126700401306, 0.17007766664028168, -0.24659617245197296, -0.08387531340122223, -0.03213724493980408, -0.12617932260036469, -0.2369750589132309, -0.17205776274204254, -0.12863829731941223, -0.09540024399757385, 0.13766618072986603, 0.17136695981025696, -0.10035289078950882, -0.22607102990150452, -0.012299392372369766, -0.3038492798805237, 0.17800934612751007, -0.07094980031251907, 0.10324802994728088, -0.12009014189243317, -0.11017253249883652, -0.47976216673851013, 0.05159410461783409, 0.4176443815231323, -0.32085227966308594, 0.1803693175315857, 0.0028980819042772055, -0.23930983245372772, 0.5838892459869385, -0.3073767423629761, -0.2006903439760208, 0.5852203965187073, -0.10018591582775116, -0.13034150004386902, -0.11983402073383331, -0.010688504204154015, -0.06713128834962845, 0.24907450377941132, 0.09885559231042862, -0.14789387583732605, 0.00273063569329679, -0.23116512596607208, 0.23490339517593384, 0.16424822807312012, 0.264378160238266, 0.07006817311048508, 0.10613415390253067, -0.13429759442806244, 0.11949853599071503, 0.07191119343042374, -0.11697227507829666, -0.3208886682987213, 0.19474488496780396, -0.3375503718852997, 0.0014880343805998564, 0.12809064984321594, 0.1481870710849762, 0.24534742534160614, -0.1310371607542038, -0.05153600499033928, -0.1255398541688919, -0.04939720407128334, -0.03040066361427307, -0.19438953697681427, 0.001465928158722818, 0.5802479386329651, -0.023663368076086044, 0.06581877171993256, -0.23600800335407257, -0.24139289557933807, -0.2017378956079483, 0.30387061834335327, -0.45728009939193726, -0.2907370626926422, 1.063098430633545, -0.40883496403694153, -0.33930498361587524, 0.8543867468833923, -0.5765674114227295, -0.19754384458065033, 0.1181662380695343, -0.2552265524864197, 0.11166097968816757, 0.1446153074502945, -0.10139156132936478, -0.0488026924431324, 0.31652572751045227, -0.13858254253864288, 0.4469367563724518, -0.1962641030550003, 0.1274900734424591, 0.3227202892303467, -0.060839131474494934, 0.2917146682739258, 0.10496753454208374, -0.10482241958379745, 0.15089234709739685, -0.5459372997283936, 0.02013314701616764, 0.11310523748397827, 0.3348398804664612, 0.03124215640127659, -0.12025091052055359, -0.2471293956041336, -0.03530719503760338, -0.012642893008887768, 0.17926445603370667, 0.002401114208623767, -0.07041852921247482, 0.19185644388198853, 0.07679295539855957, 0.07655268162488937, -0.0073396130464971066, 0.10207609832286835, 0.15365822613239288, -0.05633930861949921, 0.0755566656589508, -0.024216948077082634, -0.40201088786125183, -0.058213572949171066, -0.05937565490603447, 0.03586170822381973, -0.17747829854488373, 0.13049006462097168, 0.13899661600589752, 0.08273070305585861, -0.0825355276465416, 0.061995264142751694, -0.28012651205062866, 0.08827927708625793, 0.055879563093185425, 0.12730301916599274, -0.0074268304742872715, -0.31220772862434387, 0.021925736218690872, 0.030776308849453926, 0.04902224987745285, 0.39366674423217773, -0.08442910760641098, -0.0891958698630333, -0.12884943187236786, 0.018264755606651306, 0.09133942425251007, 0.4529762864112854, -0.025643568485975266, -0.013912077993154526, 0.05545033887028694, 0.01650182344019413, -0.002645180793479085, 0.09873774647712708, 0.04156108200550079, 1.2772339687217027e-05, -0.23090143501758575, -0.03594762459397316, 0.030189504846930504, -0.38222163915634155, -0.090201236307621, -0.04302115738391876, 0.1125665009021759, 0.05069578438997269, 0.10608413070440292, 0.16946370899677277, -0.09626201540231705, -0.07941821217536926, -0.0974215418100357, -0.012192060239613056, -0.1392044872045517, -0.399235337972641, -0.02618349716067314, 0.0937114879488945, -0.38448935747146606, -0.013901950791478157, 0.02360944077372551, 0.141743004322052, -0.13380150496959686, -0.04516351968050003, 0.04056834056973457, -0.1498163938522339, 0.39753058552742004, 0.11224082857370377, -0.1212451234459877, -0.019850267097353935, -0.007602598052471876, -0.20379242300987244, 0.12483750283718109, -0.04438275843858719, 0.18134446442127228, 0.3232983648777008, 0.1428227424621582, -0.007554599083960056, 0.016692349687218666, -0.1287805289030075, -0.10880792886018753, 0.1559956967830658, -0.06778965145349503, 0.07145160436630249, 0.07369749248027802, 0.08051460236310959, -0.04542188346385956, 0.2417239397764206, 0.034059494733810425, -0.1009763702750206, 0.044451601803302765, -0.013492336496710777, -0.11539299041032791, -0.026891453191637993, 0.13171473145484924, -0.2803516089916229, 0.06361177563667297, -0.03696015849709511, 0.0032457965426146984, -0.1127927228808403, 0.11344433575868607, -0.06818851083517075, -0.05324545502662659, 0.042682163417339325, -0.07544488459825516, -0.3022003769874573, 0.0408979095518589, -0.21777740120887756, -0.10178864747285843, 0.05714425817131996, 0.27952027320861816, -0.08281142264604568, 0.012258109636604786, 0.10054142773151398, -0.05715605244040489, -0.03533338010311127, -0.06967177987098694, 0.05596626177430153, 0.17342403531074524, -0.10496783256530762, 0.03579007461667061, 0.10636946558952332, 0.03720824420452118, 0.14490832388401031, 0.19179752469062805, 0.006670893169939518, 0.212800532579422, 0.2035854011774063, 0.12798210978507996, 0.06125568225979805, -0.03181776776909828, 0.021650321781635284, 0.012889526784420013, 0.07526133209466934, 0.15746192634105682, 0.05921831727027893, 0.0018800438847392797, 0.15057766437530518, 0.10767145454883575, 0.0936581939458847, 0.1206522062420845, 0.08398613333702087, 0.0448443777859211, 0.0037796469405293465, 0.03469938784837723, -0.04989514499902725, 0.04547258839011192, 0.14047011733055115, 0.005233685486018658, 0.18636688590049744, -0.04137130081653595, -0.2811087667942047, 0.07270776480436325, 0.011489015072584152, -0.22284547984600067, 0.040776073932647705, 0.04125640168786049, -0.042458321899175644, 0.17258848249912262, 0.1105206161737442, -0.10314200073480606, -0.06731394678354263, 0.01656869612634182, 0.005656739696860313, 0.019451219588518143, -0.0385432094335556, 0.018101036548614502, 0.013096739538013935, -0.0747978612780571, 0.14194978773593903, 0.11720331758260727, -0.23593425750732422, 0.050327762961387634, 0.2035229355096817, 0.13573265075683594, -0.21117399632930756, -0.02576025202870369, 0.060119085013866425, -0.14054061472415924, 0.05894032120704651, -0.07666492462158203, -0.536588191986084, 0.08828725665807724, 0.13018889725208282, -0.39522701501846313, -0.06827235221862793, 0.2054283320903778, -0.05976462364196777, 0.06129992753267288, 0.20461760461330414, -0.2781328856945038, 0.14158478379249573, -0.40876057744026184, 0.1677393913269043, -0.14694853127002716, 0.023740168660879135, 0.326518714427948, 0.13312530517578125, 0.19287101924419403, 0.3309990167617798, 0.11856561154127121, 0.23526236414909363, -0.33580294251441956, 0.11109820753335953, 0.03208140283823013, -0.13994935154914856, -0.09658204764127731, -0.17070847749710083, 0.007396920118480921, -0.02096341736614704, -0.09326145052909851, -0.015238055028021336, 0.055463336408138275, -0.15983793139457703, -0.03882848471403122, 0.03864423185586929, -0.18496397137641907, -0.05194352939724922, -0.06077880039811134, -0.3250463604927063, 0.015220456756651402, 0.04458368197083473, -0.12474362552165985, 0.05320245027542114, -0.03542747721076012, -0.08333830535411835, 0.007487067021429539, -0.08897458761930466, 0.005274373106658459, -0.15134158730506897, 0.1377282589673996, -0.24156640470027924, 0.14847470819950104, -0.03848346322774887, 0.023304684087634087, 0.1723414808511734, 0.05045585334300995, 0.05436243116855621, -0.04412603750824928, -0.1999158263206482, -0.019184788689017296, 0.46453097462654114, -0.1364455372095108, 0.04833805561065674, -0.007666801568120718, -0.04362713173031807, 0.015293538570404053, 0.251323938369751, 0.14487387239933014, 0.022597864270210266, 0.36561909317970276, -0.13388200104236603, 0.26895764470100403, 0.1671898365020752, -0.1219760850071907, -0.3684675395488739, -0.12186484038829803, -0.07666312158107758, -0.27133724093437195, -0.09684314578771591, -0.16265670955181122, 0.2320309728384018, 0.31215983629226685, -0.2332567572593689, -0.1742757260799408, 0.04675285145640373, -0.166494682431221, 0.21670007705688477, -0.004219868686050177, 0.06501935422420502, 0.020125307142734528, 0.03490932658314705, 0.2320464551448822, -0.2036994993686676, -0.2928220331668854, -0.019428085535764694, -0.058979008346796036, 0.1919349879026413, 0.1422649472951889, 0.03343192860484123, -0.0035064909607172012, 0.06019442155957222, 0.01493676658719778, 0.21454942226409912, 0.04701028764247894, 0.24549748003482819, -0.18538135290145874, 0.0014714902499690652, 0.021204987540841103, 0.09262848645448685, 0.11646650731563568, 0.13685789704322815, -0.1544485092163086, -0.05069504678249359, 0.22334378957748413, 0.06971129029989243, 0.022979309782385826, -0.09332048892974854, -0.16557109355926514, -0.19533556699752808, -0.08545886725187302, 0.16890500485897064, 0.09469517320394516, 0.12923765182495117, -0.2479815036058426, 0.043276261538267136, -0.14258313179016113, -0.2535555362701416, 0.1089920848608017, -0.1712777316570282, 0.0816761776804924, 0.012225128710269928, -0.013972603715956211, -0.10166338086128235, -0.1378619223833084, 0.02593976818025112, -0.05451356619596481, -0.08676109462976456, -0.21280398964881897, -0.07675902545452118, -0.17527656257152557, -0.05901077389717102, 0.03011961095035076, -0.13217821717262268, 0.028624143451452255, 0.01813521236181259, -0.18985320627689362, -0.11434802412986755, 0.22801783680915833, 0.07590606808662415, 0.027459461241960526, 0.027947047725319862, -8.659572631586343e-05, -0.1341506391763687, -0.017447883263230324, 0.022852374240756035, -0.13038921356201172, -0.24278096854686737, 0.1398669183254242, 0.14658594131469727, -0.09675786644220352, 0.12189117074012756, -0.06325867027044296, 0.06195538118481636, -0.055338114500045776, -0.0878065750002861, 0.13741740584373474, -0.05814733728766441, -0.00017258687876164913, -1.2584736347198486, 0.30033066868782043, 0.06642944365739822, 0.4162379503250122, 0.31323644518852234, 0.12199040502309799, -0.2690804600715637, 0.003962008282542229, 0.006298223976045847, -0.4625530540943146, 0.16087181866168976, 0.16911713778972626, 0.2521043121814728, -0.23436826467514038, -0.060269374400377274, 0.18234503269195557, 0.0331743098795414, 0.04851330816745758, 0.2236318588256836, -0.19574862718582153, -0.02062155492603779, -0.2130752056837082, -0.2587571144104004, -0.01778589002788067, -0.026337912306189537, -0.24080176651477814, -0.17353591322898865, 0.0035819262266159058, 0.1412362903356552, 0.03665031120181084, -0.5354292392730713, -0.015489397570490837, -0.023886537179350853, 0.38542312383651733, -0.0012771266046911478, 0.09936083108186722, -0.1386519819498062, -0.1369573324918747, 0.13896425068378448, -0.014538727700710297, -0.20035795867443085, 0.20272940397262573, 0.04037714749574661, -0.00031761921127326787, -0.040672432631254196, 0.3622816801071167, -0.5838934779167175, -0.30326974391937256, -0.39636147022247314, 0.23536653816699982, -0.3977687656879425, -0.4890446960926056, 0.8059132099151611, 0.2140093743801117, -0.9432167410850525, 0.17590035498142242, 0.08021298795938492, -0.3296767473220825, -0.07434870302677155, -0.10278546065092087, -0.2759155035018921, -0.08010569214820862, 0.013318536803126335, 0.014604561030864716, -0.2097017467021942, 0.2020026594400406, 0.15048082172870636, -0.46275582909584045, 0.022212689742445946, 0.43304675817489624, 0.006416990887373686, -0.10430853813886642, 0.1794569492340088, 0.18433009088039398, 0.1346837878227234, -0.1778295338153839, -0.015260783955454826, 0.02783568575978279, -0.09626815468072891, -0.1686335802078247, 0.29106685519218445, -0.1855754405260086, 0.06757394224405289, 0.010491100139915943, 0.12950123846530914, -0.2530358135700226, 0.1238841861486435, -0.1642318218946457, -0.0040885647758841515, 0.009593341499567032, 0.011426297016441822, -0.18729394674301147, -0.17496488988399506, -0.07133379578590393, 0.051859330385923386, 0.3352276682853699, 0.14645177125930786, 0.10574302822351456, 0.02848723530769348, 0.20963546633720398, -0.28137916326522827, 0.04810349643230438, -0.06315991282463074, -0.09447528421878815, -0.08175816386938095, -0.19191518425941467, 0.3732479214668274, -0.10087941586971283, 0.5608289837837219, -0.09450774639844894, 0.008263600058853626, 0.2304125726222992, -0.019354207441210747, -0.07953676581382751, 0.07095181941986084, -0.06898996233940125, -0.2763305902481079, -0.5608109831809998, 0.13778997957706451, -0.030057886615395546, -0.31440597772598267, 0.05368976294994354, -0.11911547183990479, 0.4466060996055603, -0.08048311620950699, -0.3823127746582031, -0.20052289962768555, 0.43228879570961, -0.2192012518644333, 0.07522379606962204, -0.10813495516777039, -0.08083635568618774, 0.09388983249664307, 0.08550989627838135, -0.03438583388924599, 0.1784278005361557, 0.08070244640111923, 0.025148825719952583, -0.10433528572320938, 0.20884504914283752, -0.19765202701091766, -0.23419445753097534, -0.1708131730556488, 0.2191918045282364, 0.40352103114128113, -0.03243580460548401, -0.2802991271018982, 0.2799973487854004, -0.022669313475489616, 0.011677957139909267, -0.18441255390644073, 0.3527694642543793, -0.3488091826438904, -0.15506817400455475, -0.13540208339691162, 0.15721967816352844, 0.10365378856658936, -0.014253570698201656, -0.149301216006279, 0.0115596242249012, -0.015507658943533897, 0.306858092546463, 0.1569194197654724, -0.21875162422657013, -0.010523887351155281, -0.10233074426651001, 0.016222627833485603, 0.39175403118133545, 0.21497797966003418, -0.07826900482177734, -0.31135818362236023, -0.10135029256343842, -0.1255476176738739, -0.1490723192691803, 0.2881297171115875, 0.06896865367889404, 0.041088689118623734, 0.060350678861141205, -0.011721479706466198, -0.03689885511994362, -0.030188515782356262, 0.007358971983194351, -0.23792190849781036, 0.13981235027313232, -0.2636318504810333, -0.06852156668901443, 0.09215769916772842, 0.5857569575309753, -0.16314184665679932, 0.3028985559940338, -0.05223507806658745, 0.08302749693393707, -0.46724733710289, -0.03358068689703941, -0.09943954646587372, -0.2872246503829956, 0.008898154832422733, 0.03512575849890709, -0.1396673321723938, 0.041838642209768295, -0.1398579627275467, 0.3050859272480011, 0.007257946766912937, -0.04893094673752785, 0.2080225795507431, 0.19568827748298645, -0.20196694135665894, 0.06226963922381401, 0.17137105762958527, -0.04964384436607361, 0.04197359457612038, 0.13377903401851654, -0.03314518928527832, 0.02675059251487255, -0.2131604105234146, 0.25855371356010437, 0.20473092794418335, 0.11932038515806198, 0.0468592494726181, -0.02020500786602497, -0.09926705062389374, -0.15514178574085236, 0.04313778132200241, -0.12821173667907715, 0.07038937509059906, -0.12546080350875854, 0.15356917679309845, -0.20424531400203705, 0.015728868544101715, 0.20748059451580048, -0.2366635948419571, -0.011795439757406712, 0.11977335065603256, 0.0496203750371933, 0.027627237141132355, 0.06608486920595169, -0.07277609407901764, 0.21061809360980988, -0.025027992203831673, 0.1282198280096054, 0.006019284948706627, -0.13203871250152588, 0.11726871877908707, 0.06973139196634293, 0.28498727083206177, -0.10301339626312256, 0.03675531968474388, -0.2036169320344925, 0.12221294641494751, 0.2230093777179718, -0.246595099568367, -0.06054747849702835, 0.12172505259513855, 0.11383417248725891, -0.2109927386045456, 0.013412280939519405, -0.027706384658813477, -0.1197953000664711, 0.06732122600078583, 0.11659015715122223, 0.12232790887355804, -0.1516825556755066, -0.17702201008796692, -0.13215014338493347, 0.21559901535511017, -0.13574834167957306, -0.0024418572429567575, 0.12281139940023422, 0.11203663051128387, -0.09904240816831589, -0.1786162108182907, 0.06527415663003922, 0.3211946487426758, 0.023550337180495262, -0.09469716995954514, 0.05043870955705643, -0.1844160556793213, -0.09997329860925674, -0.051352377980947495, 0.017573118209838867, 0.21287940442562103, -0.07482902705669403, 0.2054472118616104, -0.05287083983421326, 0.018690194934606552, 0.03237302973866463, -0.07392635941505432, -0.09385756403207779, -0.08820458501577377, 0.19080525636672974, 0.15807843208312988, -0.07996972650289536, 0.12476326525211334, -0.14036613702774048, 0.01999441348016262, 0.04496532306075096, 0.04734374210238457, -0.0776204764842987, 0.0393979549407959, 0.07454667240381241, 0.12015386670827866, -0.10109759122133255, 0.11292648315429688, -0.22577960789203644, -0.08393466472625732, -0.03898211196064949, 0.002885755617171526, -0.11147737503051758, 0.016925707459449768, -0.03389749675989151, 0.05054566264152527, 0.07517082989215851, 0.10158862173557281, -0.03865409269928932, -0.05847037956118584, -0.03728543967008591, -0.05031967908143997, -0.02897546999156475, -0.01587015576660633, -0.044429704546928406, -0.05742812156677246, 0.10317253321409225, 0.012338431552052498, 0.013498524203896523, 0.03793592005968094, 0.010485514998435974, 0.08136236667633057, -0.12476971745491028, -0.005457386374473572, -0.06228599324822426, 0.00374806160107255, -0.046577051281929016, 0.011278529651463032, -0.012482935562729836, 0.11757978051900864, 0.009212828241288662, 0.040293991565704346, -0.05887753888964653, -0.05530599132180214, -0.07481072843074799, -0.09096676111221313, -0.13691413402557373, 0.005490712355822325, -0.1677580624818802, -0.023672930896282196, 0.26685523986816406, -0.027407482266426086, 0.09064176678657532, 0.1453229933977127, 0.11302829533815384, 0.08932239562273026, -0.16067460179328918, 0.06555591523647308, -0.07164710015058517, -0.020818235352635384, 0.050634101033210754, -0.06720581650733948, -0.06586641073226929, -0.02238897979259491, 0.01902143657207489, -0.15151624381542206, 0.05733788385987282, 0.03720574080944061, 0.013656499795615673, -0.06907317787408829, -0.006631671451032162, -0.2158627212047577, 0.05532320216298103, 0.04911915212869644, -0.06615806370973587, 0.08612670749425888, -0.02410079911351204, 0.21369735896587372, 0.05172271654009819, -0.008667049929499626, -0.08254796266555786, 0.06101246178150177, 0.06026434525847435, -0.24227644503116608, 0.08292616158723831, 0.09070248156785965, 0.00988767296075821, 0.049260322004556656, -0.05657077580690384, 0.3658871650695801, -0.0856141671538353, -0.16661939024925232, 0.5005513429641724, -0.019130302593111992, -0.01708133891224861, 0.2271728366613388, -0.023076539859175682, 0.009034913964569569, -0.4616527855396271, -0.024221306666731834, 0.09290866553783417, -0.048671599477529526, 0.4064503312110901, -0.29052719473838806, -0.254459023475647, 0.004769959952682257, -0.18888035416603088, 0.13980944454669952, 0.009070735424757004, -0.07320842146873474, -0.27540263533592224, 0.3272853195667267, -0.28209635615348816, 0.37539947032928467, 0.12340210378170013, -0.04744385927915573, -0.0014728882815688848, -0.002253330312669277, -1.559514566906728e-05, 0.019374938681721687, 0.05076182261109352, 0.08102567493915558, 0.09184993803501129, 0.09414193779230118, -0.057173557579517365, 0.235780730843544, 0.06757964938879013, 0.004554261453449726, -0.015612700022757053, 0.07209570705890656, 0.04010391607880592, 0.07517893612384796, 0.07289071381092072, 0.027339041233062744, 0.12620724737644196, 0.010566959157586098, -0.08436378091573715, 1.1754779815673828, 0.20497186481952667, 0.4244399666786194, 0.09887183457612991, 0.5221889019012451, 0.1411278396844864, -0.35351449251174927, 0.40125784277915955, 0.3285844922065735, 0.3635895550251007, 0.18981146812438965, 0.3732585608959198, -0.43837493658065796, -0.0002686558000277728, 0.14945834875106812, 0.5125157237052917, 0.018576769158244133, -0.028338074684143066, -0.3381335139274597, 0.1385839879512787, 0.17992150783538818, 0.1467387080192566, 0.22034579515457153, -0.1160723865032196, 0.10182886570692062, 0.1109938696026802, -0.10975438356399536, -0.14175423979759216, 0.10250924527645111, 0.25439292192459106, -0.3226258456707001, 0.0075440495274960995, 0.16807861626148224, -0.0983293354511261, 0.09120318293571472, 0.002462780335918069, 0.08528396487236023, -0.10021236538887024, -0.10463201254606247, -0.08450598269701004, -0.03503983095288277, -0.5051528811454773, -0.7303377985954285, -0.24598009884357452, -0.06766247004270554, -0.45785775780677795, 0.011302482336759567, 0.2916393578052521, 0.1529499739408493, 0.557522714138031, -0.4903170168399811, 0.5156510472297668, 0.1652604639530182, -0.05923626571893692, 0.17950423061847687, -0.47784683108329773, 0.01766381226480007, 0.017453046515583992, 0.03860694169998169, -0.5043918490409851, 0.3231629431247711, 0.03959258273243904, -0.22017593681812286, -0.3773657977581024, 0.20348842442035675, -0.1773567646741867, 0.29000553488731384, -0.058837175369262695, -0.35393330454826355, -0.05953694134950638, -0.10263314843177795, -0.6974608898162842, -0.29169782996177673, 0.10731969028711319, -0.32246193289756775, 0.47585660219192505, 0.43075960874557495, 0.40732091665267944, -0.268022745847702, -0.005179261788725853, 0.030901703983545303, 0.3719896674156189, -0.14689555764198303, -0.0739264041185379, -0.1725664883852005, -0.3670814335346222, 0.0034168213605880737, -0.19085894525051117, -0.06096065416932106, 0.007014505565166473, 0.17565402388572693, -0.13457053899765015, -0.03858914226293564, 0.4027896821498871, -0.002733413362875581, 0.127259761095047, 0.025799691677093506, 0.1268729716539383, 0.0664537101984024, -0.3842831552028656, -0.14865368604660034, -0.12861070036888123, -0.09033796936273575, -0.038472458720207214, -0.006607844959944487, 0.012094047851860523, 0.2063601016998291, 0.03156399726867676, -0.2993868887424469, 0.15252357721328735, 0.006989475805312395, -0.04320850595831871, -0.10412446409463882, -0.17451344430446625, -0.40087270736694336, 0.02646353282034397, 0.019615821540355682, 0.07913356274366379, 0.09041714668273926, 0.4827237129211426, -0.18067406117916107, -0.12858036160469055, 0.289978563785553, 0.25049853324890137, 0.04547682777047157, -0.021169671788811684, -0.320358544588089, -0.027272241190075874, 0.08543821424245834, 0.22653593122959137, 0.010674220509827137, -0.07204252481460571, -0.19873955845832825, 0.06414484232664108, 0.14231912791728973, 0.05497221276164055, 0.027012139558792114, 0.1374950408935547, 