{"version": "0.5.4", "metadata": {"date": {"year": 2026, "month": 4, "day": 1, "hour": 11, "minute": 38, "second": 48}, "loudness": -31.558305740356445, "gain": 0.6982602405152941}, "architecture": "WaveNet", "config": {"layers": [{"input_size": 1, "condition_size": 1, "head_size": 6, "channels": 12, "kernel_size": 3, "dilations": [1, 2, 4, 8, 16, 32, 64], "activation": "Tanh", "gated": false, "head_bias": false}, {"input_size": 12, "condition_size": 1, "head_size": 1, "channels": 6, "kernel_size": 3, "dilations": [128, 256, 512, 1, 2, 4, 8, 16, 32, 64, 128, 256, 512], "activation": "Tanh", "gated": false, "head_bias": true}], "head": null, "head_scale": 0.02}, "weights": [-0.30848464369773865, 0.6354141235351562, -0.9819003939628601, -0.908757209777832, -0.5475702285766602, 0.4049292802810669, -0.30289405584335327, 1.167398452758789, -0.5830134153366089, 0.5410718321800232, -0.46107733249664307, -0.5696695446968079, 0.2608041763305664, 0.1651003658771515, -0.2093445062637329, -0.29862579703330994, -0.19183437526226044, 0.18031838536262512, 0.18950144946575165, 0.18489891290664673, -0.016997432336211205, 0.44461020827293396, 0.2224692553281784, 0.04543651267886162, 0.27259424328804016, 0.27722063660621643, 0.07147414982318878, -0.46460700035095215, -0.3495027720928192, 0.05134930834174156, 0.34426677227020264, 0.4258318841457367, -0.2342437505722046, -0.3857625126838684, -0.3788430392742157, -0.07709769159555435, 0.3120828866958618, 0.4209516644477844, -0.06107819452881813, -0.24524976313114166, -0.2552420198917389, 0.0003956141008529812, 0.34686076641082764, 0.0956239327788353, -0.21472583711147308, 0.2610500752925873, 0.37551504373550415, -0.004042333457618952, 0.06492609530687332, -0.24496331810951233, 0.45274925231933594, 0.047916870564222336, 0.33444637060165405, -0.19089269638061523, 0.23091277480125427, -0.3706246614456177, 0.23958197236061096, -0.012449291534721851, -0.38619905710220337, 0.12514328956604004, 0.20099690556526184, -0.2039627581834793, 0.1132325679063797, -0.07870495319366455, 0.35266369581222534, -0.26428818702697754, 0.11469146609306335, -0.22370578348636627, 0.417446106672287, 0.02846880443394184, 0.1486988067626953, -0.28220903873443604, 0.17930801212787628, -0.15750809013843536, 0.4758749008178711, 0.020954616367816925, 0.3041573464870453, -0.37802648544311523, 0.12424028664827347, -0.3669705092906952, 0.07328296452760696, 0.28253602981567383, -0.1504659354686737, 0.09811028838157654, -0.04602750763297081, 0.16989998519420624, -0.2681865990161896, -0.04762487858533859, -0.15033458173274994, 0.005448759067803621, 0.03565151244401932, 0.30296438932418823, 0.021264510229229927, 0.03732282668352127, 0.053597383201122284, -0.2085500955581665, 0.051612239331007004, 0.2503076493740082, -0.23277604579925537, -0.05750296264886856, -0.04697077348828316, 0.23581022024154663, -0.1264362633228302, 0.16528193652629852, -0.36640653014183044, 0.0292646586894989, -0.34441325068473816, -0.023652328178286552, -0.05751369893550873, 0.24308031797409058, -0.27965834736824036, 0.13844162225723267, -0.3155488967895508, 0.27480971813201904, 0.08425647765398026, 0.07250073552131653, -0.1623646765947342, -0.041991859674453735, 0.24168947339057922, -0.11087846010923386, -0.050024401396512985, -0.022246278822422028, 0.3154439628124237, 0.16634294390678406, -0.11989223212003708, -0.3734160363674164, -0.12690481543540955, -0.12249556183815002, 0.21421504020690918, -0.22395475208759308, -0.07536638528108597, 0.31091970205307007, -0.18859051167964935, -0.04713698476552963, 0.39665815234184265, 0.07025213539600372, 0.03264685347676277, -0.29997992515563965, -0.07749418914318085, 0.08421196043491364, 0.5345823764801025, 0.19263198971748352, 0.19962291419506073, -0.28873348236083984, -0.27441006898880005, -0.1157345324754715, 0.45979076623916626, 0.09334837645292282, -0.04437420517206192, -0.4201965034008026, -0.2464524805545807, -0.169098362326622, 0.2636677324771881, -0.012453977949917316, 0.05184478685259819, 0.15272767841815948, -0.2514220178127289, -0.7561002969741821, 0.2769286334514618, 0.20239874720573425, 0.5443516969680786, -0.25591424107551575, -0.411712110042572, -0.7239862680435181, 0.19260349869728088, -0.26587405800819397, -0.6547175645828247, 0.2828837037086487, -0.4061468541622162, -0.5903922319412231, 0.3703424632549286, 0.2126431167125702, 0.7314803004264832, -0.1847182810306549, -0.5213797688484192, -0.514011800289154, 0.27412036061286926, 0.19155529141426086, 0.7279126048088074, -0.36088821291923523, -0.35725170373916626, -0.7049407958984375, 0.42705193161964417, 0.3288108706474304, 0.6715972423553467, -0.17755010724067688, -0.32934829592704773, -0.6076452732086182, 0.09998580068349838, -0.21045222878456116, -0.48249945044517517, 0.37525078654289246, -0.08182255178689957, -0.38825753331184387, 0.02504311315715313, -0.07580450177192688, 0.2086811661720276, 0.03030473366379738, -0.11867929995059967, -0.31363755464553833, 0.028030816465616226, 0.08753349632024765, -0.4382072985172272, -0.0909017026424408, -0.11297143250703812, -0.19312645494937897, -0.035324592143297195, 0.15452347695827484, 0.3652721345424652, -0.0021934036631137133, 0.0025415571872144938, -0.42532578110694885, 0.12701959908008575, -0.021629881113767624, 0.31306272745132446, 0.0011868984438478947, -0.12231116741895676, -0.4577469825744629, 0.20587559044361115, -0.12712913751602173, 0.3091665804386139, 0.12392009794712067, 0.04250425472855568, -0.3146998882293701, -0.10522998869419098, 0.0819668397307396, -0.4550058841705322, 0.011709853075444698, 0.22935031354427338, -0.07343942672014236, 0.18217943608760834, -0.039258722215890884, 0.10012035071849823, 0.035005297511816025, 0.27296432852745056, -0.18930493295192719, 0.18799547851085663, 0.057608526200056076, -0.15295201539993286, 0.16372311115264893, 0.22709104418754578, 0.04205959290266037, 0.06024836748838425, -0.18444320559501648, 0.15711060166358948, -0.27045783400535583, 0.3769088089466095, -0.20448899269104004, 0.15345953404903412, -0.20735523104667664, -0.007626520004123449, -0.09570257365703583, 0.37492385506629944, -0.11857753992080688, 0.03968712314963341, -0.2509070932865143, -0.08163400739431381, -0.040916506201028824, 0.10909629613161087, -0.19051960110664368, 0.020736292004585266, 0.3042656481266022, 0.006192837841808796, 0.2576817572116852, 0.04602638632059097, -0.31560876965522766, 0.038877878338098526, -0.0012585017830133438, 0.3456270396709442, -0.08490068465471268, -0.026819689199328423, -0.29140704870224, -0.02752658538520336, 0.0849841758608818, -0.3047066926956177, -0.019837161526083946, 0.1998612880706787, -0.3222973346710205, 0.1092078685760498, -0.0010461986530572176, 0.21901057660579681, -0.2623825967311859, -0.1433866322040558, -0.1213354542851448, 0.12725985050201416, 0.08030389249324799, 0.1660582423210144, -0.09488149732351303, -0.006297608371824026, -0.2717507779598236, 0.07737378031015396, 0.01371260266751051, 0.2724730968475342, -0.13506847620010376, -0.007846116088330746, -0.31359076499938965, 0.23204760253429413, -0.09086432307958603, -0.16762179136276245, 0.08179878443479538, -0.15660850703716278, -0.3764893710613251, 0.08621575683355331, 0.05745159089565277, 0.40477821230888367, -0.17819805443286896, 0.011611769907176495, -0.304839551448822, 0.11245008558034897, -0.04120553284883499, -0.5124212503433228, 0.023931795731186867, 0.046280208975076675, -0.43677347898483276, 0.11529436707496643, 0.12294131517410278, 0.2754930257797241, -0.0714823380112648, -0.014625262469053268, -0.38584983348846436, 0.16911162436008453, 0.03129764273762703, 0.2518561780452728, -0.03802374750375748, 0.058654237538576126, -0.2407740354537964, 0.2490893006324768, 0.04301566630601883, 0.4601637125015259, -0.15230533480644226, -0.1699381321668625, -0.5147420763969421, 0.241263747215271, 0.08105934411287308, -0.5113045573234558, 0.16221491992473602, 0.30849212408065796, -0.044373758137226105, 0.2736656665802002, 0.08223334699869156, 0.09678975492715836, -0.07635106891393661, 0.17838944494724274, -0.04797463119029999, -0.08733122050762177, 0.19407260417938232, -0.0646509900689125, 0.10606922209262848, -0.06180731579661369, -0.09258081018924713, -0.04236409813165665, 0.0864003375172615, 0.09017357975244522, 0.054020218551158905, 0.1692313849925995, -0.14350102841854095, 0.03437543660402298, 0.03729630261659622, 0.017070628702640533, 0.023988857865333557, 0.004757579881697893, -0.29339268803596497, -0.08190636336803436, 0.06592616438865662, 0.2328445166349411, 0.12352640181779861, 0.19053517282009125, -0.30554160475730896, -0.08941809833049774, 0.05774744227528572, -0.2543485164642334, 0.1616799682378769, 0.06864400207996368, 0.19510231912136078, -0.26458150148391724, -0.22584539651870728, -0.11054690182209015, 0.18838869035243988, 0.24871650338172913, 0.37556105852127075, 0.09754678606987, 0.08987828344106674, 0.32193970680236816, 0.09764415770769119, 0.1796945482492447, 0.4117143154144287, 0.032456424087285995, -0.03606298938393593, -0.3008505702018738, 0.13397905230522156, 0.22048945724964142, 0.2476654201745987, -0.17593598365783691, -0.2267075628042221, -0.37929806113243103, 0.16102056205272675, 0.33885878324508667, 0.2671072483062744, -0.1702791303396225, -0.012500128708779812, -0.1481197029352188, 0.06965433061122894, 0.0601554773747921, 0.40207648277282715, 0.005754260346293449, 0.023644892498850822, 0.42320677638053894, 0.056801795959472656, 0.03158413618803024, 0.4112807810306549, -0.18532170355319977, -0.09383992850780487, -0.0447816476225853, 0.10286843031644821, -0.04946587607264519, 0.13094322383403778, -0.1372707188129425, 0.03742162138223648, 0.21203859150409698, 0.06259210407733917, 0.08276155591011047, 0.08584766834974289, -0.08250240981578827, 0.02291637286543846, -0.08564408868551254, -0.03881613910198212, 0.0732811838388443, 0.1933007836341858, -0.16486431658267975, -0.006768990308046341, -0.2985859513282776, 0.16150857508182526, 0.16984961926937103, 0.19127675890922546, -0.2655840516090393, -0.12910526990890503, -0.17357881367206573, -0.026632225140929222, 0.15772341191768646, 0.07559964805841446, -0.25012680888175964, -0.09544166922569275, 0.19123153388500214, 0.007519901730120182, -0.36935514211654663, 0.1254444569349289, -0.1270836740732193, -0.010587504133582115, -0.12749698758125305, -0.1745775192975998, 0.21738888323307037, 0.031467318534851074, 0.17691515386104584, 0.04221595823764801, -0.18164953589439392, 0.16961409151554108, 0.12374836206436157, 0.27772942185401917, -0.7157953381538391, -0.5493912696838379, -1.188002586364746, -0.4019576907157898, 0.10629778355360031, -0.9146789312362671, 0.2846029996871948, 0.5293363928794861, 0.18190571665763855, -0.5793983936309814, -0.2736622393131256, -0.3415921926498413, 0.3432192802429199, -0.11462582647800446, -0.21069905161857605, -0.20412929356098175, -0.09114737063646317, -0.43164318799972534, -0.3855815529823303, -0.01688331924378872, -0.035404693335294724, 0.14051277935504913, -0.2184484750032425, -0.06672258675098419, -0.25757133960723877, 0.17069917917251587, 0.26999497413635254, 0.2746930420398712, 0.28780627250671387, 0.14217081665992737, 0.099824920296669, -0.08833904564380646, -0.19259819388389587, 0.10172782838344574, 0.1614055037498474, -0.10557157546281815, 0.2315731942653656, 0.08526109904050827, -0.42462557554244995, -0.14211589097976685, 0.2100299447774887, 0.3546302318572998, -0.28242072463035583, 0.1580582559108734, 0.2307589054107666, 0.0703812912106514, 0.2398967146873474, -0.10811416804790497, 0.059254422783851624, -0.015295255929231644, 0.02745066210627556, 0.2469755858182907, -0.2757086455821991, 0.2889297306537628, -0.11343927681446075, 0.002446404192596674, 0.13428668677806854, -0.18894295394420624, -0.08714419603347778, -0.04333140328526497, 0.23453305661678314, -0.07240795344114304, -0.006145359016954899, -0.05988587066531181, 0.02615632861852646, -0.32165074348449707, -0.24382202327251434, -0.19703997671604156, 0.38344115018844604, -0.13428367674350739, -0.22008740901947021, -0.28883740305900574, 0.37131521105766296, 0.3861057758331299, -0.29624143242836, -0.3180960714817047, -0.31321287155151367, -0.12379227578639984, -0.10101449489593506, -0.2683798670768738, -0.13848423957824707, 0.09143135696649551, 0.04644965007901192, 0.15135064721107483, -0.1491464078426361, -0.49489957094192505, 0.1778741478919983, 0.5072512030601501, -0.32750415802001953, 0.21000652015209198, -0.0831611305475235, 0.41574814915657043, -0.21566186845302582, -0.5784140825271606, 0.2589969038963318, -0.2601257562637329, 0.018439147621393204, -0.666752278804779, -0.5265034437179565, -0.06348692625761032, -0.1348365694284439, 0.0008872888865880668, -0.3255237936973572, 0.026613445952534676, 0.0004541840171441436, -0.08726014941930771, -0.2675105929374695, 0.1620897352695465, 0.04708830639719963, 0.24127323925495148, 0.5347442626953125, 0.03470798209309578, 0.4195837080478668, 0.018902994692325592, -0.05657803267240524, -0.31591489911079407, -0.13119016587734222, 0.4353683292865753, -0.020997118204832077, -0.33344462513923645, 0.17486143112182617, 0.6391093730926514, -0.23201128840446472, -0.296738862991333, -0.27025070786476135, -0.027953190729022026, -0.11514009535312653, -0.2612929344177246, 0.11721503734588623, 0.17061357200145721, 0.3513299226760864, 0.12875710427761078, 0.06367043405771255, -0.48248639702796936, -0.533644437789917, 0.2434866577386856, -0.038120467215776443, 0.035417791455984116, -0.3793633282184601, 0.23494386672973633, 0.4132903814315796, 0.14645688235759735, -0.38610735535621643, -0.1679072082042694, -0.012237648479640484, 0.47538360953330994, -0.1939021795988083, -0.2629953920841217, 0.1146918535232544, -0.08723723143339157, -0.1429307758808136, -0.14105269312858582, -0.06827165931463242, -0.05569412559270859, 0.14703409373760223, -0.12593390047550201, 0.1108986958861351, 0.21980424225330353, 0.11165355890989304, 0.015850219875574112, 0.1746939718723297, 0.09653263539075851, -0.13325218856334686, 0.200286865234375, 0.13069701194763184, -0.19803370535373688, -0.20000092685222626, -0.27169302105903625, 0.19458942115306854, 0.038741469383239746, -0.03020547889173031, -0.2696201503276825, -0.03295813128352165, -0.15433506667613983, 0.1998797059059143, -0.14026276767253876, -0.06525436788797379, 0.1183374896645546, -0.15993858873844147, -0.24560192227363586, 0.08298762142658234, 0.04172254726290703, -0.1875491589307785, 0.2767881751060486, 0.16623683273792267, 0.07562685012817383, -0.2451278418302536, 0.09904300421476364, -0.3253473937511444, 0.3505667746067047, -0.12808722257614136, 0.23910222947597504, -0.07938969880342484, -0.21598011255264282, 0.017775889486074448, -0.09000922739505768, -0.2919679880142212, -0.391255646944046, 0.19382056593894958, 0.21419982612133026, -0.054905835539102554, 0.21583034098148346, 0.2200392633676529, -0.048783548176288605, 0.08741600811481476, -0.4073001742362976, 0.03789630904793739, 0.3122442960739136, 0.1632695347070694, 0.04843505099415779, -0.23997583985328674, 0.3145041763782501, -0.18623307347297668, -0.14710038900375366, 0.12451742589473724, -0.05409913510084152, -0.15670567750930786, 0.5435068011283875, -0.04523371160030365, -0.25765717029571533, 0.010142623446881771, -0.025594139471650124, 0.38340356945991516, 0.346902459859848, -0.001831575995311141, 0.1968037188053131, -0.32728707790374756, 0.034030068665742874, -0.25185126066207886, 0.09190146625041962, 0.12661223113536835, -0.05283411592245102, 0.33075404167175293, -0.117455393075943, -0.022852284833788872, 0.1829030066728592, -0.015686294063925743, -0.4195798933506012, 0.0010553485481068492, -0.2174128293991089, -0.006330647971481085, 0.09530462324619293, -0.04031579568982124, -0.024267174303531647, -0.30359429121017456, -0.06382707506418228, -0.09191197156906128, -0.09073402732610703, 0.012202831916511059, 0.22815103828907013, -0.16583305597305298, 0.057668253779411316, 0.02799064852297306, -0.011094402521848679, -0.17605043947696686, -0.16604924201965332, 0.23557046055793762, -0.011357730254530907, 0.06764618307352066, 0.17687177658081055, 0.2693557143211365, 0.520927906036377, -0.1743134707212448, -0.49565714597702026, -0.4210180640220642, -0.10841840505599976, -0.1378425657749176, -0.040278926491737366, 0.050495848059654236, -0.15058013796806335, 0.289936900138855, -0.15518829226493835, -0.07355007529258728, 0.025365954264998436, 0.049641869962215424, 0.13599054515361786, -0.11637629568576813, 0.0651305541396141, -0.062051646411418915, -0.02205011621117592, 0.1651325821876526, -0.07380278408527374, -0.1832074224948883, 0.09279737621545792, 0.1516135334968567, -0.09621474146842957, 0.1592211127281189, 0.22042448818683624, 0.023750053718686104, 0.015548793599009514, 0.09852345287799835, -0.08864723891019821, -0.23906685411930084, -0.08692629635334015, 0.11376997828483582, 0.12588176131248474, -0.0034497182350605726, -0.16073200106620789, 0.17005127668380737, 0.43433451652526855, 0.13721908628940582, -0.10540708899497986, 0.09096164256334305, 0.07810541242361069, -0.05020025372505188, 0.15722182393074036, -0.050923075526952744, 0.0013084923848509789, 0.07139189541339874, 0.22711916267871857, -0.18814882636070251, -0.07160709798336029, 0.0009385609882883728, -0.07993782311677933, 0.24662412703037262, 0.29324254393577576, 0.20175278186798096, -0.21974074840545654, -0.030615659430623055, -0.04846258461475372, -0.002557615516707301, -0.3696286380290985, -0.15100860595703125, 0.010495420545339584, -0.17062702775001526, -0.7408191561698914, -0.5758553743362427, -0.32758262753486633, 0.13030986487865448, 0.02539651468396187, 0.15707626938819885, -0.01688067615032196, 0.05792909115552902, 0.031313203275203705, 0.12899650633335114, -0.01727619580924511, -0.19883714616298676, -0.3015249967575073, -0.18921983242034912, -0.08364008367061615, 0.13774417340755463, -0.038481682538986206, -0.13652782142162323, -0.3430917263031006, -0.1352108120918274, -0.3177563548088074, -0.0019168504513800144, 0.15225979685783386, 0.21756145358085632, -0.04805639758706093, 0.07740052044391632, -0.013154961168766022, -0.12446287274360657, -0.05892147496342659, 0.07260864973068237, -0.07881088554859161, 0.09205259382724762, 0.12202002108097076, -0.11606204509735107, 0.11132453382015228, 0.023665355518460274, 0.25307944416999817, 0.26635974645614624, 0.1230466216802597, 0.0302127655595541, -0.05308821424841881, -0.04266427829861641, -0.12658940255641937, -0.1012408435344696, 0.07896558195352554, 0.09946759045124054, 0.17825040221214294, -0.029066096991300583, 0.011241130530834198, -0.014619099907577038, -0.08036260306835175, -0.2423461675643921, -0.004103795625269413, 0.05590592324733734, -0.03951268270611763, -0.03425758332014084, -0.005190190393477678, -0.005682989023625851, 0.023457089439034462, 0.15435324609279633, 0.011414958164095879, 0.18740110099315643, -0.1641668975353241, 0.06359098106622696, -0.035730425268411636, 0.044179871678352356, 0.008345920592546463, -0.1381356567144394, 0.13673840463161469, -0.07946949452161789, -0.23735487461090088, 0.11366856098175049, -0.06565729528665543, -0.1728629469871521, -0.018343115225434303, 0.18741267919540405, -0.04240673407912254, 0.12467323988676071, 0.3386492431163788, 0.011487601324915886, 0.2786104679107666, -0.056870684027671814, -0.19718603789806366, -0.28650954365730286, -0.0016628518933430314, -0.07333449274301529, 0.09804510325193405, 0.06317399442195892, -0.15698325634002686, -0.06423360109329224, -0.07414648681879044, -0.13093064725399017, -0.06061039865016937, -0.15573494136333466, 0.2866085171699524, -0.2869345545768738, 0.44958895444869995, -0.32259896397590637, -0.07906133681535721, -0.42846614122390747, 0.4951794743537903, 0.0980333462357521, -0.08539772778749466, 0.3453880250453949, -0.2500498592853546, -0.2444661408662796, 0.37374380230903625, -0.1710490584373474, -0.12269282341003418, 0.3901199400424957, 0.035046130418777466, 0.043336477130651474, -0.11589404940605164, -0.13405145704746246, -0.6727489233016968, 0.3865317404270172, 0.27081143856048584, 0.9218318462371826, -0.14733485877513885, -0.13955064117908478, -0.04188636317849159, 0.1895422339439392, -0.16166234016418457, -0.7218379378318787, 0.34211939573287964, 0.14936639368534088, -0.10234438627958298, 0.30570653080940247, 0.08174155652523041, -0.013076839968562126, 0.1470123678445816, 0.1791292279958725, 0.2802257537841797, -0.10913074761629105, -0.08995629101991653, -0.0808173194527626, 0.04288334399461746, 0.07150719314813614, -0.30320826172828674, -0.22023804485797882, 0.05006172135472298, 0.020877525210380554, -0.13101984560489655, 0.09173180907964706, -0.40648308396339417, 0.03404628857970238, -0.005160302389413118, 0.24113431572914124, -0.14567194879055023, -0.13720284402370453, -0.27363669872283936, 0.27298784255981445, 0.14119307696819305, 0.5211238861083984, -0.3046700656414032, 0.22155578434467316, -0.15210524201393127, 0.07156158983707428, -0.07145921885967255, -0.24871058762073517, 0.12553894519805908, 0.05689992383122444, -0.03377386927604675, -0.15142659842967987, -0.15758362412452698, 0.09513051062822342, -0.00024572384427301586, -0.13857705891132355, 0.0029802366625517607, -0.16853398084640503, 0.07506314665079117, 0.08201378583908081, 0.18849092721939087, -0.11438079923391342, -0.08396991342306137, 0.14200635254383087, -0.0780218169093132, -0.16434143483638763, 0.05484918877482414, -0.012464284896850586, -0.19784294068813324, 0.02812402881681919, -0.2588375508785248, 0.1456674188375473, -0.11003411561250687, 0.1308145374059677, 0.2331031858921051, 0.2660036087036133, -0.0033981073647737503, 0.10599690675735474, -0.03543678671121597, -0.09593439102172852, 0.04684910178184509, 0.16612456738948822, 0.12002712488174438, -0.08306464552879333, 0.30729132890701294, -0.09360499680042267, -0.2440798431634903, 0.007124470546841621, -0.23187626898288727, 0.3601824939250946, -0.08972866088151932, -0.34225916862487793, -0.3631531894207001, -0.07403083890676498, 0.4283255636692047, 0.27895843982696533, 0.07493200153112411, -0.31297507882118225, 0.15450307726860046, 0.009851275943219662, -0.23322135210037231, 0.2372770458459854, -0.1507895290851593, -0.30885669589042664, 0.33500829339027405, -0.035919904708862305, -0.5012901425361633, -0.08995547890663147, -0.01699800230562687, 0.3702823221683502, 0.6377070546150208, 0.1060974970459938, -0.5884240865707397, -0.5131691694259644, -0.49300211668014526, 0.49438393115997314, 0.25338995456695557, 0.12218191474676132, -0.28976064920425415, 0.4596053659915924, 0.20068183541297913, -0.37464651465415955, 0.013803089037537575, -0.19068780541419983, -0.19778388738632202, 0.2530524730682373, -0.26951852440834045, 0.08549880236387253, -0.03442767634987831, 0.19948223233222961, -0.23231355845928192, -0.03518757224082947, -0.18255458772182465, -0.06491351872682571, 0.10241217166185379, -0.16259349882602692, 0.04498931020498276, 0.03899965435266495, -0.2636919319629669, 0.052085816860198975, 0.18740971386432648, -0.306060254573822, 0.08567851781845093, -0.1612807661294937, 0.28057265281677246, -0.18029481172561646, 0.4306378662586212, -0.05139554291963577, -0.03295320272445679, -0.12135975062847137, -0.002098790602758527, 0.2150094360113144, 0.12410196661949158, -0.32047784328460693, 0.15654009580612183, 0.11103413254022598, -0.32983455061912537, 0.0027673530858010054, 0.20408396422863007, -0.248008593916893, 0.07257688790559769, 0.10086682438850403, 0.22064626216888428, 0.012130201794207096, -0.046968378126621246, 0.031092964112758636, 0.13848093152046204, 0.17599426209926605, 0.012036019004881382, -0.07211165130138397, -0.09144116193056107, 0.1028822660446167, -0.11966761946678162, 0.300069659948349, 1.1625890731811523, 0.4391302466392517, -0.15320485830307007, 1.0468556880950928, -0.6356564164161682, 1.2014132738113403, -0.9114552736282349, -0.9275849461555481, -0.059979118406772614, 1.149402141571045, 0.15301835536956787, 0.20493093132972717, -0.39433643221855164, 0.039857715368270874, 0.11003908514976501, 0.3573058843612671, 0.1684090495109558, 0.08004388958215714, -0.052048925310373306, 0.058756984770298004, -0.13642700016498566, -0.5770249366760254, 0.14850537478923798, 0.04204176366329193, 0.12886852025985718, 0.2162896692752838, -0.33517616987228394, -0.24788254499435425, -0.13708923757076263, 0.04301201179623604, -0.23473715782165527, 0.05102730914950371, -0.15542800724506378, 0.31022125482559204, 0.3077771067619324, -0.09545543789863586, 0.0759657472372055, -0.5525454878807068, -0.008115305565297604, 0.1718178391456604, 0.004659197758883238, -0.22359280288219452, -0.2522223889827728, -0.2995980978012085, 0.010595814324915409, -0.3605111241340637, -0.1054377481341362, 0.08272641152143478, -0.30385106801986694, -0.32654449343681335, 0.10874209553003311, 0.22702361643314362, -0.4169371426105499, -0.21405453979969025, 0.07781524956226349, -0.15722475945949554, 0.00015964446356520057, -0.16910812258720398, -0.10466315597295761, 0.05552470311522484, -0.33402931690216064, -0.2391197830438614, 0.19898183643817902, 0.0834926962852478, 0.17375871539115906, -0.09040924906730652, -0.13846732676029205, 0.11892707645893097, 0.06262646615505219, 0.16940650343894958, -0.03695760294795036, -0.20223087072372437, 0.037312064319849014, -0.17232061922550201, 0.002808426972478628, 0.33595794439315796, -0.18265049159526825, 0.11794038861989975, -0.19084389507770538, 0.2749617099761963, -0.023220088332891464, 0.21014632284641266, -0.2656266987323761, -0.17521564662456512, -0.05963622406125069, 0.15973755717277527, -0.13726076483726501, -0.2208033949136734, 0.13853032886981964, -0.14143306016921997, 0.6029781103134155, 0.06112281605601311, 0.13453203439712524, -0.34641197323799133, -0.051870230585336685, -0.13149775564670563, -0.07794743031263351, -0.3027682304382324, 0.37620529532432556, 0.1579762101173401, -0.246278777718544, -0.23860742151737213, 0.2003168761730194, -0.4164798855781555, 0.23881512880325317, -0.10469665378332138, -0.01709885708987713, 0.24164798855781555, 0.15721672773361206, 0.06722524762153625, -0.25133225321769714, -0.17217212915420532, 0.005817894823849201, 0.3103184998035431, -0.5775695443153381, -0.31306323409080505, -0.34981217980384827, 0.1898249387741089, 0.3775908052921295, 0.5459155440330505, -0.6049272418022156, 0.07178324460983276, 0.016298437491059303, 0.11056600511074066, 0.27807390689849854, -0.08669598400592804, -0.44080469012260437, 0.39570188522338867, -0.381278395652771, -0.21880148351192474, 0.09270540624856949, 0.2805077135562897, 0.24793162941932678, 0.2563110291957855, -0.23039020597934723, -0.09607160091400146, -0.31734561920166016, -0.11603957414627075, -0.22582392394542694, -0.002320215804502368, -0.3106416165828705, -0.07092464715242386, 0.23368507623672485, -0.06140865385532379, -0.5698642730712891, -0.05449111387133598, -0.32353895902633667, 0.13351590931415558, 0.2911326587200165, 0.057470597326755524, 0.2222733348608017, 0.42424917221069336, -0.012263850308954716, -0.3526660203933716, 0.0007746345363557339, -0.07065486162900925, 0.08367400616407394, -0.15358683466911316, 0.10237611830234528, 0.10659133642911911, -0.0655873641371727, 0.0737738385796547, 0.27088698744773865, -0.016291825100779533, -0.08191841095685959, 0.11328043043613434, -0.16159367561340332, -0.04448704421520233, -0.9744557738304138, 0.5648592114448547, -0.08741915971040726, 0.2162696123123169, -0.23756282031536102, -0.017493054270744324, -0.29071280360221863, 0.133165180683136, -0.20193274319171906, -0.34092462062835693, 0.2111905813217163, 0.08480299264192581, -0.09224506467580795, 0.14548024535179138, 0.04579149931669235, 0.19135768711566925, -0.3712409734725952, 0.033580757677555084, 0.04568782076239586, 0.3097853660583496, -0.1730061173439026, -0.022808866575360298, 0.17154978215694427, -0.1408170908689499, 0.1209711879491806, 0.023323381319642067, -0.24580419063568115, -0.5022494196891785, 0.4504646360874176, 0.176187202334404, 0.07131864130496979, 0.21428155899047852, 0.018936172127723694, -0.2802636921405792, 0.3597768545150757, -0.21617425978183746, 0.1235823780298233, 0.19235306978225708, -0.2143193483352661, -0.08826098591089249, 0.2606995701789856, 0.31917569041252136, 0.21279792487621307, -0.2757296562194824, 0.09578542411327362, 0.14462390542030334, 0.045128170400857925, 0.203679159283638, -0.005789553746581078, -0.15289455652236938, 0.3047059178352356, 0.2658303380012512, 0.10510014742612839, -0.16055341064929962, -0.17596575617790222, -0.0034958908800035715, 0.12701618671417236, -0.016979077830910683, -0.18044716119766235, 0.0920896828174591, -0.054043810814619064, 0.2849857807159424, -0.23978941142559052, 0.13339312374591827, -0.032447077333927155, 0.18422411382198334, 0.16153889894485474, 0.03323214128613472, 0.005113113205879927, -0.09013669192790985, -0.15945179760456085, -0.1333523839712143, 0.11076189577579498, -0.15525810420513153, 0.059912364929914474, 0.008219124749302864, -0.3613477051258087, -0.1818605661392212, 0.13385531306266785, 0.04269293695688248, -0.2964010238647461, 0.14899036288261414, 0.15276850759983063, -0.06872556358575821, 0.12839087843894958, 0.11246895790100098, -0.2809363007545471, -0.4514823853969574, 0.14618785679340363, 0.18744926154613495, -0.07947852462530136, 0.057239580899477005, -0.23968134820461273, -0.1401161253452301, 0.05921747535467148, 0.090322345495224, 0.06560654193162918, -0.4713148772716522, 0.10488426685333252, 0.2844048738479614, -0.4325890839099884, 0.03744832053780556, 0.027961600571870804, -0.05210190638899803, 0.11298549920320511, 0.12995575368404388, 0.1321210116147995, -0.040768347680568695, -0.1539400964975357, 0.047181859612464905, -0.16103312373161316, 0.3763873279094696, 0.16182130575180054, 0.09404933452606201, 0.0827888697385788, 0.13453960418701172, 0.24558210372924805, -0.15410080552101135, 0.12807460129261017, -0.026005275547504425, -0.10989125818014145, -0.02251882664859295, 0.3927968144416809, 0.24980683624744415, 0.2579978406429291, -0.43415001034736633, -0.057386334985494614, 0.16153180599212646, 0.10365654528141022, -0.1882026344537735, -0.17048503458499908, -0.15620304644107819, 0.37234607338905334, -0.2806391417980194, -0.14766474068164825, -0.1787830889225006, -0.1295153945684433, -0.1389567106962204, -0.18660059571266174, -0.11708004027605057, 0.04942307621240616, -0.06381971389055252, 0.07894463837146759, -0.04023655876517296, 0.121272511780262, -0.2777680456638336, 0.015383979305624962, 0.002937069395557046, 0.13696490228176117, -0.18652009963989258, 0.04343339055776596, -0.05116340517997742, -0.025974871590733528, 0.012594915926456451, 0.14000006020069122, 0.037600077688694, 0.19611169397830963, 0.14793480932712555, -0.2661314308643341, -0.0397258959710598, -0.1421642154455185, 0.07021624594926834, -0.07298950850963593, -0.1336953490972519, -0.27404212951660156, -0.15044212341308594, 0.06857900321483612, 0.08357428759336472, -0.045338962227106094, 0.03851975500583649, 0.04179035872220993, 0.26664283871650696, -0.16373413801193237, 0.04493687301874161, 0.018496762961149216, 0.1195218563079834, 0.14802584052085876, 0.21887898445129395, -0.10653574019670486, 0.2592572569847107, -0.08840567618608475, -0.34059563279151917, 0.18080414831638336, 0.1349140703678131, -0.1537352204322815, -0.23497892916202545, -0.13621380925178528, -0.05314163863658905, -0.045012108981609344, 0.12998808920383453, 0.10874280333518982, -0.1342882364988327, -0.17937880754470825, -0.016440950334072113, -0.02980203926563263, 0.05719892308115959, -0.12768913805484772, 0.07868923991918564, 0.028782431036233902, 0.027289681136608124, -0.3158884644508362, -0.14605097472667694, 0.25516024231910706, -0.048709481954574585, -0.0504375696182251, -0.14853033423423767, 0.012078533880412579, -0.02919328212738037, -0.05447166785597801, -0.15932413935661316, -0.042422179132699966, 0.029529571533203125, -0.1961515247821808, 0.0490695983171463, 0.029808437451720238, 0.13936875760555267, 0.11985021829605103, 0.4141322076320648, -0.24639537930488586, -0.38471904397010803, 0.12552869319915771, -0.003915860783308744, 0.1815347522497177, -0.28653112053871155, -0.0945577546954155, 0.06397334486246109, -0.21894536912441254, 0.011551073752343655, -0.14321154356002808, -0.026758303865790367, 0.1377355456352234, 0.1948065161705017, 0.008363752625882626, -0.15446440875530243, -0.16038662195205688, 0.16484111547470093, 0.18024438619613647, 0.021967962384223938, -0.23015175759792328, -0.0246373750269413, -0.13358566164970398, 0.28616559505462646, 0.19511885941028595, 0.16373327374458313, 0.20516370236873627, 0.07403094321489334, -0.07915040105581284, 0.07063190639019012, 0.18993762135505676, 0.18400511145591736, -0.025129418820142746, -0.1009460836648941, -0.012173892930150032, 0.25162896513938904, 0.01286483183503151, -0.05454490706324577, -0.09787874668836594, -0.010855428874492645, 0.10636702924966812, -0.19895769655704498, -0.16412191092967987, 0.20885533094406128, -0.05742448568344116, 0.08659327030181885, -0.1806437224149704, -0.12393532693386078, -0.13470472395420074, -0.3178313672542572, -0.15793903172016144, -0.0493730828166008, 0.2758041322231293, 0.1757497489452362, 0.2615084648132324, 0.06600143015384674, -0.07485625147819519, -0.09591961652040482, -0.25312507152557373, -0.01855902560055256, -0.36326783895492554, -0.021158207207918167, 0.14314788579940796, 0.08101299405097961, -0.007215053774416447, 0.13636361062526703, 0.048912230879068375, 0.019627971574664116, 0.02891400270164013, 0.1354186087846756, 1.0529043674468994, 0.22186972200870514, 0.13600562512874603, -0.09253387153148651, -0.17876091599464417, -0.06812690943479538, 0.0724739208817482, 0.30751243233680725, -0.05200100317597389, -0.01982416957616806, 0.0017264550551772118, -0.13007397949695587, 0.08603677898645401, 0.03390612080693245, 0.14642849564552307, 0.451948881149292, -0.5371009707450867, 0.3508014976978302, -0.32547667622566223, 0.4854201376438141, -0.05145065858960152, -0.06167716532945633, 0.07969921082258224, -0.09500536322593689, 0.2440398633480072, -0.28450602293014526, 0.12871408462524414, 0.8483200669288635, 0.2382240742444992, -0.21808162331581116, 0.053799550980329514, 0.179630845785141, 0.11037637293338776, -0.04884396120905876, -0.024561775848269463, 0.20988282561302185, -0.2783489525318146, 0.07811755686998367, -0.28672611713409424, 0.12726572155952454, -0.048612695187330246, 0.2242347002029419, -0.24204884469509125, -0.2547071874141693, 0.25637683272361755, -0.16274866461753845, -0.11873248219490051, 0.2051759660243988, -0.19472670555114746, -0.09001357108354568, 0.0006067570066079497, -0.29162126779556274, -0.4573062062263489, -0.12256700545549393, 0.4439644515514374, 0.14074084162712097, 0.28853124380111694, -0.0019382735481485724, -0.0940341204404831, 0.026989655569195747, -0.12852855026721954, 0.004763294942677021, -0.08854471147060394, -0.27068960666656494, 0.054007820785045624, 0.05637544393539429, 0.09858506172895432, -0.09225937724113464, -0.17940039932727814, 0.04646710306406021, 0.12369749695062637, -0.0501827672123909, 0.29571858048439026, 0.32651954889297485, -0.11749986559152603, -0.3443405330181122, -0.13298700749874115, 0.09947306662797928, -0.05441217124462128, 0.13950709998607635, -0.06871696561574936, 0.06880117207765579, 0.3212815821170807, -0.20851999521255493, -0.01043419074267149, -0.026192493736743927, 0.05267631635069847, 0.1081370860338211, 0.04383408650755882, -0.10940175503492355, -0.20669449865818024, 0.18681910634040833, -0.03874871879816055, -0.041463494300842285, 0.1974705010652542, -0.0037847424391657114, -0.1913413107395172, -0.3149084746837616, 0.14379321038722992, 0.24163204431533813, 0.02276073768734932, 0.07979638874530792, 0.07716982066631317, -0.001075240783393383, 0.13982971012592316, 0.009702184237539768, 0.06517882645130157, 0.08183252066373825, 0.103326216340065, -0.1084056943655014, -0.1559000313282013, -0.05173202604055405, 0.5080502033233643, 0.3094063401222229, 0.006607566960155964, -0.22478391230106354, 0.012224221602082253, -0.08175510168075562, -0.3982766270637512, 0.22792692482471466, -0.005401949398219585, -0.21229052543640137, 0.06856629252433777, -0.029074804857373238, -0.35627099871635437, -0.1070496216416359, 0.09022656828165054, -0.10102442651987076, 0.05253869295120239, 0.26234328746795654, 0.013574576936662197, 0.050906114280223846, -0.13209646940231323, 0.5380615592002869, -0.1969882696866989, -0.14585843682289124, 0.08721862733364105, -0.003757308702915907, 0.2008892148733139, -0.08874453604221344, -0.06003084033727646, -0.10425184667110443, -0.00187205383554101, 0.09300319105386734, 0.06431414186954498, 0.029541177675127983, 0.019040321931242943, -0.08398978412151337, -0.0045171817764639854, 0.00444370973855257, -0.056918397545814514, 0.1660890430212021, -0.0514705516397953, -0.2880094051361084, 0.05140725150704384, -1.3114069700241089, 0.7414138913154602, -0.4414834678173065, -0.4878513216972351, -0.04625272750854492, -0.5251256823539734, -0.6814720630645752, 0.4727844297885895, -0.5360656380653381, 0.24757997691631317, 0.9263034462928772, 0.13578757643699646, 0.13839122653007507, -0.39374324679374695, 0.2819816470146179, 0.02184617705643177, 0.3524261713027954, 0.442291796207428, -0.5881733894348145, -0.35142824053764343, -0.1470339000225067, -0.32706788182258606, -0.015307772904634476, -0.07017695158720016, -0.07027079164981842, -0.19024592638015747, 0.0893399640917778, -0.36728906631469727, 0.028414512053132057, 0.1197216808795929, 0.1582680195569992, 0.1377718150615692, -0.29282161593437195, -0.02444305084645748, 0.24651944637298584, 0.013025406748056412, 0.1720021516084671, -0.03139670565724373, 0.4215368330478668, -0.2888486385345459, 0.2570531666278839, -0.08680309355258942, 0.13562309741973877, 0.17893990874290466, -0.12941397726535797, 0.02703966200351715, -0.02117505669593811, -0.22155489027500153, 0.025019071996212006, -0.4076349139213562, -0.012236070819199085, 0.20230425894260406, 0.1509927660226822, 0.28969553112983704, 0.19294406473636627, 0.053823575377464294, -0.11223603785037994, 0.05305720120668411, 0.2749733328819275, 0.2375054806470871, -0.12426938861608505, 0.4443923830986023, -0.1520378142595291, 0.31101301312446594, -0.26894858479499817, -0.22331281006336212, 0.2075444906949997, 0.20046350359916687, -0.41881263256073, 0.07528218626976013, -0.15937069058418274, 0.14867964386940002, 0.21682210266590118, -0.18481525778770447, 0.06125645712018013, -0.12601597607135773, -0.3886423408985138, 0.038365982472896576, -0.037498123943805695, 0.14409786462783813, -0.12937694787979126, 0.30459296703338623, -0.12607261538505554, -0.10748439282178879, 0.06076788529753685, -0.2960433065891266, 0.08132902532815933, 0.34784799814224243, -0.052384596318006516, -0.12332042306661606, -0.13288035988807678, -0.047001954168081284, 0.054727960377931595, 0.6304731965065002, -0.29856613278388977, 0.23154881596565247, -0.15155746042728424, -0.12094102799892426, 0.2587243318557739, 0.07053305953741074, 0.3571871817111969, 0.10963235050439835, 0.21502436697483063, -0.05296788364648819, 0.1609557718038559, -0.17657163739204407, -0.2941782474517822, -0.3229702413082123, -0.3063843548297882, 0.3123241662979126, -0.048676490783691406, -0.12220151722431183, 0.3208293616771698, -0.012296211905777454, 0.15089420974254608, -0.13861647248268127, 0.13041657209396362, -0.22735469043254852, 0.3376823961734772, -0.03667822107672691, -0.03519720211625099, -0.23170091211795807, -0.24928146600723267, 0.31970059871673584, -0.03395790234208107, 0.20590196549892426, -0.3552929759025574, -0.40055111050605774, -0.038636576384305954, 0.34227892756462097, -0.2321624755859375, 0.23908105492591858, -0.056026335805654526, -0.026515183970332146, 0.1660470813512802, 0.17195317149162292, 0.2687496244907379, 0.15175577998161316, -0.15000377595424652, -0.250841349363327, -0.05272306501865387, -0.09239029139280319, -0.0908564105629921, -0.07856594771146774, -0.06898058950901031, -0.09763830155134201, 0.18210604786872864, 0.3143361508846283, -0.21693767607212067, 0.24020355939865112, -0.31277477741241455, -0.06719403713941574, -0.50982266664505, 0.3187468647956848, 0.2677457630634308, -0.338833749294281, 0.16085895895957947, 0.20344339311122894, 0.030929872766137123, 0.23454149067401886, -0.0889001339673996, -0.00955789815634489, -0.1299404799938202, 0.07389052212238312, -0.13488174974918365, -0.17844784259796143, 0.04602213576436043, 0.06764683872461319, -0.0805637538433075, -0.13194088637828827, -0.060661137104034424, -0.17582540214061737, 0.03457261621952057, 0.21632416546344757, 0.06646398454904556, 0.07656631618738174, -0.26900288462638855, 0.045432765036821365, 0.08506938070058823, -0.17184510827064514, 0.23670901358127594, 0.3183212876319885, 0.04047464579343796, 0.1361606866121292, -0.10552120953798294, 0.1631452441215515, 0.05457167699933052, 0.15048174560070038, 0.3809077739715576, 0.07444782555103302, 0.17402979731559753, -0.18919207155704498, -0.11181457340717316, -0.07649081200361252, 0.15552930533885956, -0.1297081559896469, -0.03157082200050354, -0.0702671930193901, -0.08125165849924088, 0.12926281988620758, 0.0007943941163830459, -0.1722397655248642, -0.17656753957271576, -0.487530916929245, 0.038041599094867706, -0.23712216317653656, 0.19115188717842102, -0.004566500894725323, -0.07344066351652145, -0.16463617980480194, -0.13246174156665802, 0.06888081133365631, 0.30669769644737244, 0.06016094237565994, 0.14516723155975342, 0.034379154443740845, 0.18309323489665985, 0.035873789340257645, 0.4168389141559601, -0.030829422175884247, 0.05043360963463783, 0.11683903634548187, -0.3358076512813568, 0.012869724072515965, 0.10639344900846481, -0.20643149316310883, 0.05817626416683197, -0.061989594250917435, -0.011308467946946621, 0.2217063307762146, 0.017925484105944633, -0.11436016112565994, 0.058124277740716934, -0.12255147844552994, 0.03601417317986488, 0.09990760684013367, 0.1139974445104599, 0.06814639270305634, 0.10375338792800903, 0.1870269626379013, 0.2180156260728836, 0.23275364935398102, 0.3567598760128021, 0.2884756028652191, 0.01254437118768692, -0.15421263873577118, -0.13099388778209686, 0.010128524154424667, 0.3785642981529236, 0.11080484092235565, -0.1379743069410324, 0.2990713119506836, -0.42065995931625366, -0.20200121402740479, -0.3198692500591278, 0.18658135831356049, 0.10244422405958176, -0.04590883105993271, -0.020696589723229408, -0.2427210956811905, -0.21149267256259918, 0.05968013405799866, 0.02080475352704525, 0.4098871946334839, -0.10422724485397339, 0.09297466278076172, -0.3390020728111267, 0.3009427785873413, 0.27629703283309937, -0.4312441647052765, 0.1606844961643219, 0.1878959685564041, 0.18594840168952942, -0.23181727528572083, -0.04747181758284569, 0.15391488373279572, -0.12736517190933228, -0.04689575359225273, 0.16223429143428802, 0.19445882737636566, -0.009044899605214596, -0.3173823356628418, -0.4051419794559479, -0.0657714232802391, 0.11894648522138596, -0.2890385389328003, -0.2707671523094177, -0.1292407363653183, 0.1397176831960678, -0.012472812086343765, -0.306850790977478, -0.11462769657373428, 0.04216068983078003, -0.10511524230241776, -0.22055913507938385, -0.03708710893988609, -0.17093414068222046, 0.09369289875030518, -0.033373016864061356, 0.11382436752319336, -0.041662365198135376, -0.16519875824451447, -0.005991911981254816, -0.06615719944238663, 0.2270963191986084, 0.1378677487373352, 0.004594490397721529, -0.2034578025341034, 0.22046710550785065, 0.11422397196292877, -0.008260015398263931, -0.1251363605260849, -0.012485056184232235, -0.023800048977136612, 0.04770755395293236, 0.18792733550071716, 0.17890460789203644, 0.18326327204704285, 0.04104459658265114, 0.19533616304397583, -0.06636130064725876, 0.019932232797145844, 0.04324891418218613, 0.1710815578699112, 0.09055721014738083, -0.25279268622398376, -0.3326452076435089, -0.04762355983257294, -0.14503136277198792, 0.07780453562736511, -0.06779855489730835, 0.012329074554145336, -0.3164435029029846, 0.06881125271320343, 0.14360713958740234, -0.12677042186260223, -0.026854172348976135, -0.014844739809632301, 0.00562272360548377, -0.1272190511226654, -0.2749354839324951, 0.10076747089624405, -0.0341314934194088, -0.08407902717590332, 0.11262241005897522, 0.07199834287166595, 0.17051050066947937, 0.05698433145880699, 0.14852945506572723, 0.06031946837902069, -0.16109541058540344, 0.18452924489974976, -0.10563483089208603, -0.1078885868191719, -0.21895113587379456, -0.050878193229436874, 0.1290038824081421, -0.16881826519966125, 0.004920349922031164, -0.1627424955368042, 0.03349343314766884, 0.014608334749937057, 0.42238327860832214, 0.0731460303068161, 0.014765170402824879, 0.1675867885351181, 0.06828147917985916, -0.022363856434822083, -0.07021629065275192, 0.00918668694794178, -0.1302076131105423, 0.10493439435958862, 0.02750423178076744, -0.028440900146961212, -0.3415459394454956, 0.057347215712070465, 0.0468900129199028, 0.1685582548379898, -0.09071756154298782, -0.1770167201757431, -0.08417532593011856, -0.061884425580501556, -0.12553881108760834, -0.034861914813518524, -0.010232755914330482, 0.1668398529291153, -0.2039097547531128, -0.22273404896259308, -0.1965397745370865, 0.0503113679587841, 0.05358150601387024, 0.19997955858707428, -0.3554421067237854, 0.21314767003059387, 0.21006539463996887, -0.1875310093164444, 0.3771685063838959, 0.12860438227653503, -0.30607908964157104, 0.007376645226031542, 0.0008936008671298623, -0.05127584561705589, -0.1934966742992401, 0.12434665858745575, 0.060752108693122864, -0.001816670992411673, -0.07967708259820938, 0.08950237929821014, -0.08817823976278305, -0.0947188064455986, 0.03630337864160538, -0.12206916511058807, 0.09946166723966599, -0.14162267744541168, 0.07988221198320389, 0.07592897862195969, 0.011232915334403515, 0.17919562757015228, -0.03773804008960724, -0.007581851910799742, -0.17907077074050903, 0.005466723348945379, -0.16489815711975098, -0.32410046458244324, 0.08986397832632065, 0.31098729372024536, 0.1390964388847351, -0.0767541155219078, -0.2207106351852417, 0.046748802065849304, 0.208195298910141, -0.23855645954608917, 0.11162354797124863, 0.08563847839832306, -0.465929239988327, 0.018025530502200127, -0.17335142195224762, 0.05310866981744766, -0.3401464521884918, -0.059753187000751495, 0.4072917699813843, 0.1727340817451477, 0.05720457062125206, -0.3449302017688751, -0.12994937598705292, -0.08056110143661499, 0.24164195358753204, -0.023405062034726143, -0.04000914469361305, 0.32247599959373474, -0.11115933954715729, 0.005649137776345015, -0.33414942026138306, 0.020225565880537033, 0.020630493760108948, -0.12011048197746277, 0.27823302149772644, -0.1409233659505844, 0.10411630570888519, 0.25467774271965027, -0.11687886714935303, 0.04546509310603142, -0.1960715800523758, -0.02782108448445797, 0.15586110949516296, -0.1385776698589325, -0.008266029879450798, -0.0099099176004529, -0.32984161376953125, -0.06058524176478386, 0.20815499126911163, -0.04120011627674103, -0.08204683661460876, -0.0863703116774559, -0.024087296798825264, -0.19901971518993378, 0.08739602565765381, -0.2097267210483551, -0.007110832259058952, -0.03666438162326813, 0.2465503215789795, -0.03447464108467102, -0.19234278798103333, 0.06278608739376068, -0.28071630001068115, -0.13630540668964386, 0.130692720413208, -0.04929383471608162, 0.03938811644911766, 0.06082150340080261, -0.06799223273992538, 0.034453704953193665, 0.2444332242012024, 0.19066183269023895, 0.10037285089492798, 0.03875701501965523, 0.057183027267456055, -0.10928549617528915, -0.015304755419492722, -0.04762900993227959, 0.23865705728530884, 0.010076543316245079, 0.09493644535541534, 0.019562853500247, -0.04772643744945526, 0.017657006159424782, 0.17114847898483276, 0.037589091807603836, 0.18485277891159058, 0.05408921092748642, -0.03982266038656235, 0.03805532678961754, -0.05819554254412651, -0.06330379843711853, 0.03226620703935623, 0.10806272178888321, -0.005479985848069191, -0.003170637646690011, -0.11981862038373947, -0.023232677951455116, 0.24852091073989868, -0.10072918236255646, 0.18822748959064484, -0.1712980717420578, -0.2517250180244446, 0.05544615909457207, -0.1163732260465622, 0.0934702679514885, -0.391610711812973, -0.12887130677700043, 0.014036835171282291, -0.1487380415201187, 0.11150256544351578, -0.0644574910402298, 0.23024284839630127, 0.21456730365753174, -0.05981955677270889, -0.11295218765735626, -0.0763411745429039, -0.11028020083904266, 0.2671188712120056, 0.022896509617567062, -0.32363903522491455, -0.131907656788826, 0.11935152858495712, -0.042095847427845, 0.19986453652381897, -0.21749959886074066, 0.21585305035114288, -0.05830106511712074, -0.04698282852768898, -0.02186013199388981, 0.06972936540842056, -0.13282538950443268, -0.062066975980997086, -0.09521958231925964, 0.06756194680929184, 0.15059326589107513, 0.3531031310558319, 0.11149521172046661, -0.06806497275829315, -0.13082405924797058, -0.08020046353340149, -0.15374362468719482, 0.27242788672447205, 0.21949461102485657, -0.27005648612976074, 0.2519993484020233, 0.17718850076198578, -0.06308865547180176, -0.16893522441387177, 0.2511693835258484, 0.2717333137989044, 0.12869778275489807, 0.1098056212067604, 0.09434880316257477, -0.28122246265411377, -0.039341092109680176, 0.27402904629707336, 0.04611697420477867, 0.014518116600811481, -0.3631698191165924, 0.02944974973797798, -0.03771974518895149, -0.5005301833152771, -0.13927817344665527, -0.039108213037252426, 0.15842950344085693, 0.2259662002325058, 0.006041527260094881, 0.3586696684360504, 0.19545483589172363, 0.13845700025558472, -0.2652024030685425, 0.02259417064487934, 0.020930536091327667, -0.05681023374199867, 0.020185772329568863, 0.38286373019218445, 0.015008809976279736, 0.1751939058303833, -0.009238502942025661, 0.09984791278839111, -0.05478411167860031, 0.025483015924692154, -0.08108928054571152, -0.17450813949108124, 0.09789230674505234, -0.1374809592962265, 0.017434000968933105, 0.03155790641903877, -0.051263365894556046, 0.8847525119781494, -0.08118844032287598, 0.2422509640455246, -0.07027081400156021, 0.2559843957424164, 0.5929805636405945, 0.8233525156974792, -0.5991690158843994, -0.5227594375610352, -1.252685308456421, -0.22324539721012115, 0.4580569565296173, -0.1888594776391983, -0.39325347542762756, 0.19366967678070068, -0.19928261637687683, -0.3795969486236572, 0.3161490857601166, -0.2603389322757721, 0.27137336134910583, -0.26078876852989197, 0.22966253757476807, -0.09822281450033188, -0.1394960582256317, 0.12592749297618866, 0.060302674770355225, -0.17138266563415527, -0.11685948818922043, -0.3111886978149414, 0.29258766770362854, 0.24518534541130066, -0.09510285407304764, -0.1288471221923828, -0.03727864474058151, 0.04252680391073227, 0.0961972177028656, 0.005660903174430132, -0.0860271230340004, -0.023632105439901352, -0.1726350039243698, -0.14413917064666748, -0.2785000205039978, -0.031140347942709923, 0.11368709802627563, -0.2563052177429199, 0.2610888183116913, 0.1498127430677414, -0.07810474187135696, -0.20119185745716095, -0.12157025933265686, -0.09267688542604446, 0.26867640018463135, 0.05342227965593338, 0.4430345594882965, -0.05246288701891899, -0.13090652227401733, 0.2656785547733307, -0.1342049539089203, -0.11319006979465485, 0.031800832599401474, 0.25068724155426025, -0.40195783972740173, 0.16540294885635376, 0.005944914650171995, 0.7336657047271729, -0.05204133316874504, 0.2621314525604248, 0.3010258376598358, -0.2090383619070053, -0.16619230806827545, 0.4637439250946045, 0.12395978718996048, -0.2679237425327301, -0.0032780535984784365, -0.21680788695812225, -0.045540858060121536, 0.1869906634092331, -0.053544722497463226, -0.28129202127456665, -0.25229090452194214, 0.23729097843170166, -0.012030959129333496, -0.048657264560461044, 0.3600604832172394, 0.06331273168325424, -0.2630859613418579, 0.3433871567249298, 0.054285645484924316, 0.3872013986110687, 0.12763728201389313, -0.03834233433008194, -0.14853979647159576, 0.06465552747249603, -0.08819499611854553, 0.1974841058254242, 0.08020398765802383, -0.1801300197839737, 0.0013996550114825368, -0.2658003866672516, -0.1391150802373886, -0.2588416337966919, 0.36440330743789673, -0.033239398151636124, -0.2970147132873535, 0.04641266539692879, 0.12530025839805603, -0.11480911821126938, -0.1770331859588623, 0.39018818736076355, 0.023935874924063683, -0.12430822104215622, 0.1313263177871704, -0.07389925420284271, 0.19747495651245117, -0.10068435221910477, -0.12647421658039093, -0.28793323040008545, -0.026724379509687424, -0.08359409123659134, 0.5948233604431152, 0.15455888211727142, -0.0940677672624588, 0.33537107706069946, -0.18073923885822296, 0.043301139026880264, -0.3999881446361542, 0.11425960063934326, 0.5289185643196106, -0.03846215084195137, -0.21534019708633423, -0.16317513585090637, -0.20953448116779327, -0.026803232729434967, -0.08224412798881531, -0.3164927661418915, -0.05810777097940445, -0.15243691205978394, 0.2760503590106964, -0.16832605004310608, 0.09414388239383698, 0.017873242497444153, 0.1856117695569992, 0.08383359760046005, 0.33457469940185547, 0.00907907448709011, 0.09268350154161453, -0.4061681926250458, -0.009359823539853096, 0.04367004707455635, -0.009602528065443039, 0.1981450766324997, -0.4371628165245056, -0.213459312915802, 0.09494868665933609, 0.0011464504059404135, -0.05565584823489189, -0.2497359961271286, -0.1720946878194809, 0.09245748072862625, 0.18747097253799438, -0.06888429075479507, -0.02135159820318222, 0.15474377572536469, -0.09481865167617798, -0.15491338074207306, -0.0038456509355455637, 0.17939651012420654, 0.009671683423221111, -0.10822466015815735, 0.049399759620428085, 0.04861034080386162, -0.08997728675603867, 0.07072368264198303, 0.20171530544757843, 0.215486541390419, 0.15172936022281647, -0.2654838263988495, 0.06291064620018005, 0.31835058331489563, -0.19058291614055634, 0.13218656182289124, 0.1293312907218933, 0.21214646100997925, -0.07371961325407028, 0.12065964192152023, -0.0675051286816597, -0.182567298412323, -0.07536088675260544, 0.12412763386964798, -0.03690150007605553, 0.10453643649816513, -0.22615772485733032, -0.12242937088012695, -0.07339730113744736, 0.2716962695121765, -0.055394116789102554, -0.10619848966598511, 0.02944997511804104, -0.20164769887924194, 0.025686774402856827, -0.1460258662700653, 0.1695026308298111, -0.002263012807816267, -0.2499261498451233, 0.013157904148101807, 0.4383494555950165, -0.5433616042137146, 0.1749630868434906, -0.03228268027305603, -0.13330961763858795, -0.3427318334579468, 0.11512377858161926, -0.01698559708893299, -0.004295944701880217, 0.27211159467697144, 0.034558311104774475, -0.3401687741279602, -0.1330185830593109, 0.1777774542570114, 0.20110292732715607, 0.34590068459510803, 0.19191806018352509, -0.16794750094413757, -0.08183059096336365, -0.0019067552639171481, -0.1845119148492813, 0.029510818421840668, -0.0675797089934349, 0.0047897701151669025, 0.08851490914821625, -0.3148707449436188, -0.01836862415075302, 0.10933194309473038, -0.17859630286693573, 0.03737538680434227, -0.022034894675016403, 0.05856826901435852, 0.00619887700304389, 0.19733832776546478, 0.16478849947452545, -0.13928161561489105, -0.15434777736663818, 0.5790292024612427, -0.10111372172832489, -0.16893790662288666, 0.2674461603164673, 0.18781667947769165, 0.0030634517315775156, -0.2065749317407608, -0.12122804671525955, -0.014747058041393757, -0.08214644342660904, 0.006693548988550901, 0.08820199221372604, -0.3915989100933075, 0.028973298147320747, -0.05200253427028656, -0.24168752133846283, -0.061748288571834564, -0.08125467598438263, -0.039398442953825, -0.04256916791200638, 0.3009340167045593, 0.020384792238473892, -0.10601138323545456, -0.09353304654359818, 0.1254398077726364, -0.09581869840621948, -0.19993123412132263, 0.03869402036070824, 0.09319474548101425, 0.0952666625380516, -0.039669495075941086, 0.09678908437490463, -0.05916222929954529, 0.05129782855510712, 0.01634250581264496, -0.10662923753261566, 0.37809446454048157, 0.18487104773521423, 0.2467426359653473, 0.22542282938957214, 0.0592501275241375, 0.14464882016181946, -0.21900714933872223, -0.19095423817634583, -0.08374478667974472, -0.19068360328674316, -0.04705483466386795, 0.10885699093341827, -0.3413674533367157, -0.1403939425945282, -0.1649610549211502, -0.09252782166004181, 0.15801550447940826, 0.0389559380710125, 0.1551966369152069, 0.04419032856822014, 0.07071452587842941, -0.029134443029761314, -0.05329838767647743, -0.13032440841197968, -0.28612053394317627, 0.02147199586033821, 0.20125779509544373, 0.10451527684926987, 0.11935542523860931, 0.1152937188744545, -0.11045368015766144, 0.03815276920795441, 0.011982660740613937, -0.12798604369163513, 0.13107161223888397, 0.09546809643507004, 0.1817924827337265, 0.14183208346366882, 0.04834955558180809, -0.09386317431926727, -0.11566753685474396, 0.14061275124549866, -0.263611376285553, 0.29919734597206116, -0.04735937714576721, -0.1791851818561554, -0.1369462013244629, 0.006232646759599447, 0.30587145686149597, 0.12210232019424438, -0.06719830632209778, -0.09989125281572342, -0.0023183124139904976, 0.010709716938436031, -0.13133765757083893, -0.10141079127788544, 0.13124731183052063, -0.18569126725196838, 0.059034984558820724, -0.047757912427186966, -0.22064852714538574, 0.01571330614387989, -0.05627680569887161, 0.20214030146598816, -0.025390541180968285, 0.14226648211479187, 0.0677354633808136, -0.09167073667049408, -0.08559887856245041, -0.08844310790300369, -0.15729938447475433, 0.1643163114786148, 0.12820293009281158, 0.06999332457780838, 0.065665602684021, 0.10198809951543808, 0.07465501874685287, 0.05057757347822189, 0.06835462898015976, -0.1370539516210556, 0.22330886125564575, 0.26201683282852173, 0.2410457879304886, -0.2645052969455719, -0.07800669968128204, -0.11854247003793716, -0.04180947691202164, 0.020553965121507645, 0.2197047472000122, 0.09279816597700119, -0.023652121424674988, 0.021705981343984604, 0.22540900111198425, 0.08038366585969925, -0.07853364944458008, 0.2035558968782425, 0.03425605967640877, -0.07237784564495087, 0.04239220917224884, 0.0028474293649196625, 0.02554289996623993, 0.024760853499174118, 0.02344142086803913, 0.0964481309056282, -0.10959894210100174, 0.014186997897922993, 0.17673306167125702, -0.20123064517974854, -0.027611492201685905, 0.29992204904556274, -0.21979250013828278, -0.04444422572851181, -0.4725436270236969, 0.3151777386665344, -0.1277567595243454, 0.07933859527111053, 0.01083736214786768, -0.07330451160669327, -0.4259108901023865, -0.09337411820888519, -0.017160452902317047, 0.19684207439422607, -0.02993316948413849, -0.12360112369060516, 0.1251586675643921, -0.28963702917099, -0.11566955596208572, -0.16798394918441772, 0.30336254835128784, 0.08075542747974396, 0.11966335773468018, 0.004792917985469103, -0.0006674104952253401, 0.02606235072016716, -0.4011850357055664, -0.06716335564851761, 0.004849400836974382, 0.12138062715530396, 0.02374652400612831, -0.018454909324645996, -0.15676340460777283, 0.17562104761600494, -0.24603043496608734, 0.0703313797712326, 0.1687854528427124, -0.21958748996257782, -0.07127048075199127, -0.04268384724855423, 0.16580604016780853, -0.08713822811841965, -0.18065141141414642, -0.02336173877120018, 0.018957117572426796, 0.24633945524692535, 0.24398809671401978, 0.08040890842676163, -0.34147390723228455, -0.2757658362388611, -0.15486301481723785, 0.13760925829410553, -0.20230717957019806, -0.021339051425457, 0.2782630920410156, 0.1404530256986618, -0.19596551358699799, -0.3617190718650818, -0.1749659776687622, -0.0809139758348465, 0.3535328805446625, 0.007929830811917782, -0.0012536800932139158, 0.005570587702095509, 0.08952891826629639, -0.0015393299981951714, 0.1711321324110031, 0.2106366753578186, -0.017661146819591522, -0.016135722398757935, -0.046122513711452484, 0.08154138922691345, 0.005716409999877214, 0.005888563580811024, 0.18488265573978424, -0.25276458263397217, -0.07306798547506332, 0.09467293322086334, 0.18953783810138702, 0.5187286734580994, -0.16550438106060028, -0.014969954267144203, 0.038244180381298065, -0.1281808614730835, 0.3338764011859894, -0.0977017804980278, -0.009070070460438728, 0.036440517753362656, 0.08233460038900375, -0.08851572871208191, -0.18543633818626404, 0.06767482310533524, -0.1709505319595337, 0.1696300357580185, 0.003620298346504569, 0.038507185876369476, -0.1144132986664772, -0.11618266254663467, 0.06293726712465286, 0.03673863038420677, -0.11213705688714981, -0.010716227814555168, -0.16453133523464203, 4.6191809815354645e-05, 0.10423310846090317, 0.14881427586078644, -0.05915180593729019, -0.22492586076259613, 0.08726140856742859, 0.025745809078216553, -0.20520439743995667, 0.1798686534166336, 0.24983720481395721, 0.13616949319839478, -0.35647761821746826, -0.022083230316638947, 0.18936216831207275, 0.08945067971944809, 0.07588601857423782, 0.17151731252670288, 0.37842312455177307, 0.006054044235497713, -0.07258869707584381, -0.1037440225481987, 0.12932489812374115, -0.07943999767303467, 0.293430358171463, 0.0720706507563591, 0.1957332342863083, -0.4482368528842926, -0.07393065094947815, -0.0501706525683403, 0.10635159909725189, 0.041895005851984024, -0.07943108677864075, 0.5045219659805298, 0.13514451682567596, 0.1344514787197113, -0.1861371248960495, -0.05203905701637268, 0.11622868478298187, -0.1660567671060562, -0.2779702842235565, 0.6571183800697327, 0.14877955615520477, -0.04126713424921036, 0.4034290313720703, -0.121279776096344, 0.1427181363105774, 0.03726831078529358, -0.045679494738578796, -0.3600814938545227, -0.3344031572341919, 0.08536224067211151, 0.08360368758440018, -0.378593772649765, 0.14646725356578827, -0.32348886132240295, -0.478475958108902, 0.07199052721261978, -0.10889273136854172, -0.28169140219688416, 0.12811698019504547, -0.06379152834415436, -0.19536927342414856, -0.059106070548295975, -0.17651133239269257, 0.024726660922169685, -0.04455922916531563, -0.29432588815689087, 0.007171094883233309, -0.13105809688568115, 0.03644731640815735, -0.03196340426802635, 0.032722119241952896, 0.030878368765115738, -0.0019065510714426637, -0.10749344527721405, 0.3165765106678009, 0.07916096597909927, 0.012005742639303207, 0.21910007297992706, 0.008679015561938286, -0.1238197535276413, -0.2534411549568176, -0.16671183705329895, 0.14208929240703583, -0.08507890999317169, 0.3510674238204956, 0.1652357429265976, -0.011554796248674393, -0.18781179189682007, -0.05050782859325409, -0.1628808081150055, -0.33369237184524536, 0.10755836963653564, 0.029987681657075882, -0.2147512435913086, 0.08237583935260773, -0.2601395547389984, 0.05279190093278885, -0.0178747046738863, -0.10288409143686295, 0.18029093742370605, 0.14081333577632904, 0.25719502568244934, 0.05312751606106758, 0.06905190646648407, 0.024859804660081863, -0.04658643901348114, 0.14669980108737946, -0.20840373635292053, 0.029714196920394897, 0.017199134454131126, -0.03143245726823807, 0.010631829500198364, -0.005949896760284901, 0.052341993898153305, 0.13735342025756836, -0.08649095892906189, 0.059738192707300186, 0.007880030199885368, 0.0736185684800148, 0.2156071811914444, 0.08673156797885895, 0.07502201944589615, 0.1563645303249359, -0.28288865089416504, 0.15077142417430878, -0.6746470332145691, 0.19597360491752625, -0.433474600315094, 0.03097393363714218, -0.898395299911499, 0.6775856018066406, -1.0614862442016602, 0.38720622658729553, 0.6882920265197754, -0.3194385766983032, 0.24600085616111755, -0.4338505268096924, -0.12189674377441406, 0.2713038921356201, -0.29830512404441833, 0.3584510087966919, -0.14229577779769897, 0.1933707445859909, -0.41750624775886536, -0.25536325573921204, 0.2545959949493408, 0.25288885831832886, -0.09242913126945496, 0.09448020160198212, -0.2660587430000305, 0.23377443850040436, -0.300319641828537, -0.18403762578964233, -0.3278316855430603, 0.26761066913604736, 0.19018614292144775, 0.17838388681411743, -0.014944289810955524, -0.2588822841644287, 0.07842623442411423, -0.21594449877738953, 0.12873440980911255, 0.015080710873007774, -0.061975035816431046, 0.374814510345459, 0.17790664732456207, -0.30946075916290283, -0.04864910617470741, -0.15838491916656494, -0.15620873868465424, 0.1425340324640274, -0.0443115271627903, 0.1819174438714981, 0.18372087180614471, 0.006262625101953745, -0.26562562584877014, 0.009175275452435017, -0.22701868414878845, 0.0856451690196991, -0.17595672607421875, -0.23849183320999146, -0.3942462205886841, -0.08732137084007263, 0.2749956548213959, -0.12052617222070694, 0.14296680688858032, 0.009947799146175385, 0.14264637231826782, 0.14033827185630798, 0.23206014931201935, -0.4046888053417206, 0.22124481201171875, -0.4235804080963135, -0.10958928614854813, 0.35083678364753723, 0.028621144592761993, 0.38737428188323975, 0.1766992062330246, 0.08017992973327637, 0.21373771131038666, 0.08065801113843918, -0.25258249044418335, -0.4050355851650238, 0.22654062509536743, 0.013568888418376446, -0.12623587250709534, -0.2184063047170639, 0.39929383993148804, -0.12378603219985962, -0.0979432761669159, 0.017779262736439705, 0.09502413868904114, 0.38669854402542114, -0.4614478051662445, 0.21984261274337769, -0.49248865246772766, -0.3160659074783325, -0.3065289556980133, 0.05141942575573921, -0.147232323884964, -0.26520705223083496, 0.27207890152931213, 0.17922523617744446, 0.019447021186351776, -0.051449842751026154, 0.03745004162192345, 0.15963555872440338, -0.24678227305412292, 0.26422470808029175, -0.09362076222896576, -0.056262608617544174, 0.034683506935834885, -0.2242591232061386, 0.12581999599933624, 0.34284964203834534, -0.16435527801513672, 0.19790467619895935, 0.1384948492050171, 0.16152755916118622, 0.15666359663009644, 0.12391574680805206, -0.13796629011631012, -0.28811076283454895, -0.2129831463098526, 0.1791197657585144, -0.5135685801506042, 0.04107292741537094, 0.06552933156490326, 0.27324384450912476, 0.2922609746456146, 0.27259814739227295, 0.055517762899398804, 0.04575583338737488, -0.027132421731948853, -0.061097148805856705, 0.20222513377666473, -0.09561145305633545, -0.17311032116413116, -0.11588161438703537, -0.33397796750068665, 0.1894955039024353, -0.067587710916996, 0.07733702659606934, -0.18005672097206116, 0.2966897189617157, 0.14094066619873047, 0.16514219343662262, -0.2942614257335663, 0.07192772626876831, 0.11923949420452118, -0.0748717337846756, 0.09822847694158554, -0.1034180074930191, 0.08697766810655594, 0.015374690294265747, 0.3017519414424896, 0.04571246728301048, 0.07629375159740448, 0.21631602942943573, -0.15258663892745972, 0.046436093747615814, 0.007285508792847395, -0.13350482285022736, 0.16546647250652313, 0.1847946047782898, -0.12533317506313324, 0.07583153247833252, 0.07105843722820282, 0.10601605474948883, 0.05985039845108986, 0.12866850197315216, 0.23125827312469482, -0.07366295903921127, 0.08311526477336884, 0.21762876212596893, -0.21968629956245422, -0.018960004672408104, -0.2527618408203125, 0.2868103086948395, -0.11091385036706924, -0.3618942201137543, -0.1920594573020935, -0.09455479681491852, 0.13631166517734528, -0.05069204792380333, -0.3655754625797272, -0.41111597418785095, -0.015976179391145706, 0.10502414405345917, 0.07994093745946884, 0.15583650767803192, -0.04685716703534126, -0.2559759020805359, 0.29798683524131775, -0.1967470943927765, 0.20312532782554626, -0.24313007295131683, 0.11498554795980453, 0.0038827769458293915, -0.5197880268096924, -0.07853241264820099, -0.07585333287715912, 0.2944406270980835, 0.057183824479579926, -0.2922758162021637, 0.07131902128458023, -0.17934833467006683, -0.034276850521564484, -0.07896837592124939, -0.2444801777601242, -0.055140212178230286, 0.05917862430214882, 0.07036899030208588, -0.21481619775295258, 0.02403082326054573, 0.059805989265441895, -0.09544981271028519, 0.09779875725507736, -0.029985491186380386, -0.008524518460035324, 0.051451925188302994, 0.08214686065912247, 0.19214221835136414, 0.12689737975597382, -0.013183971866965294, -0.049442682415246964, 0.07797951251268387, 0.0033097360283136368, -0.3572816252708435, 0.16637787222862244, 0.0871751680970192, -0.16105154156684875, 0.10627149790525436, 0.003138305153697729, 0.2529151141643524, 0.010737008415162563, 0.003763592569157481, -0.1506248414516449, -0.1692965030670166, 0.04996573552489281, 0.4811883568763733, 0.09549923986196518, -0.04741848260164261, -0.1946631819009781, -0.13389143347740173, -0.07689197361469269, -0.15627369284629822, 0.06587979942560196, 0.10085178911685944, 0.06226692721247673, -0.23709699511528015, -0.20485259592533112, -0.20127460360527039, 0.01889987476170063, 0.050451818853616714, -0.025059586390852928, -0.4023200273513794, -0.10811598598957062, 0.09935958683490753, -0.40632596611976624, -0.261280357837677, -0.13302358984947205, -0.2809508442878723, 0.2502700388431549, 0.11168110370635986, 0.2729385197162628, -0.0810631811618805, 0.001796928234398365, 0.11099722236394882, 0.016717297956347466, 0.07483281940221786, -0.15105217695236206, 0.0023928210139274597, -0.05143270269036293, -0.02961861342191696, 0.1788380891084671, 0.09500078111886978, -0.3429800570011139, -0.03241502866148949, -0.1524951308965683, -0.2417183369398117, 0.06711682677268982, 0.021713940426707268, 0.31057536602020264, -0.03577890992164612, 0.09920936077833176, -0.08776523172855377, 0.1926921010017395, 0.091966412961483, -0.3028099238872528, 0.0602228082716465, 0.0019125993130728602, 0.2432684600353241, 0.20364324748516083, 0.11827909201383591, -0.02485177107155323, -0.12182726711034775, -0.3903229534626007, -0.1651923954486847, 0.01604507490992546, 0.03994953632354736, -0.26096415519714355, -0.006097124423831701, 0.07631155848503113, 0.11013001948595047, -0.05318185314536095, 0.07057080417871475, 0.053095925599336624, 0.16966991126537323, 0.263042151927948, -0.04743415117263794, 0.05456637963652611, -0.07251721620559692, -0.0310239065438509, -0.4632142186164856, -0.07886090129613876, 0.23594804108142853, 0.08688649535179138, 0.0345294326543808, 0.249627023935318, 0.09229525923728943, 0.11763230711221695, -0.3003861904144287, 0.2342873066663742, -0.011211290955543518, -0.3281235992908478, -0.06239502876996994, 0.10886529088020325, -0.022806400433182716, 0.1026611179113388, 0.1490941196680069, -0.45660877227783203, 0.31594398617744446, 0.04989621415734291, 0.18742378056049347, 0.04546555131673813, 0.05467648431658745, -0.09049469977617264, -0.0022778715938329697, -0.02048415318131447, 0.1223336011171341, 0.11758868396282196, -0.055497393012046814, 0.07199063897132874, -0.011901026591658592, 0.17985083162784576, -0.21552646160125732, 0.11981306970119476, 0.14595717191696167, 0.07901258021593094, -0.03840827941894531, -0.09987280517816544, 0.0852256715297699, 0.05506535992026329, -0.05897792801260948, -0.21151210367679596, -0.16284894943237305, -0.2159934639930725, 0.08332277834415436, -0.32623833417892456, 0.08803161233663559, 0.14238663017749786, 0.07360412180423737, -0.18108218908309937, 0.010638539679348469, 0.025084106251597404, -0.18857711553573608, 0.05901586264371872, -0.3188038766384125, -0.1314384490251541, -0.13232950866222382, -0.1610698103904724, -0.03121211566030979, -0.21598631143569946, -0.10445671528577805, 0.038300495594739914, 0.052171044051647186, -0.056139081716537476, -0.04422864317893982, 0.1544799655675888, -0.12658318877220154, 0.0056772297248244286, -0.10414838045835495, 0.09137234091758728, 0.16748972237110138, -0.17482784390449524, -0.05209435150027275, -0.22550886869430542, -0.0028588613495230675, 0.1147523745894432, 0.02791527472436428, 0.1963215321302414, 0.06814272701740265, 0.05801869556307793, -0.24650849401950836, -0.07820741832256317, -0.024442452937364578, -0.017592117190361023, -0.11578895896673203, -0.1967887431383133, -0.05196377635002136, 0.0802636593580246, 0.01684531196951866, 0.2757141590118408, -0.1949557363986969, -0.059958405792713165, 0.04676637798547745, 0.000959063065238297, 0.00020630675135180354, 0.1727621853351593, -0.10756099224090576, 0.08145196735858917, -0.2319810688495636, -0.008350041694939137, 0.014391290955245495, 0.29143622517585754, -0.02968972735106945, -0.0638771504163742, 0.007874327711760998, 0.12219540774822235, 0.2581717371940613, 0.6974721550941467, 0.1778055876493454, 0.04950398951768875, 0.1642911583185196, -0.13064324855804443, -0.2660983204841614, -0.04523701220750809, 0.051085226237773895, -0.03307569399476051, 0.10593023896217346, -0.277700275182724, 0.04956629127264023, 0.004063730128109455, 0.2678542137145996, -0.01104617677628994, 0.10366746038198471, 0.008682961575686932, -0.14973445236682892, -0.0021842746064066887, 0.10079329460859299, -0.1691245585680008, -0.2182406187057495, -0.13856801390647888, -0.31410202383995056, -0.14254307746887207, -0.12122055143117905, 0.13685648143291473, -0.11285201460123062, -0.20901982486248016, -0.06023518368601799, -0.18919694423675537, 0.13259240984916687, -0.10304267704486847, -0.12231924384832382, -0.014747756533324718, -0.01606842689216137, -0.029210073873400688, -0.14534780383110046, -0.26529592275619507, 0.0031551120337098837, -0.3484484553337097, 0.05399029329419136, 0.16504980623722076, 0.180061474442482, -0.103546641767025, -0.14358706772327423, 0.255229115486145, 0.31823280453681946, -0.15273606777191162, -0.06197764724493027, -0.2635381817817688, -0.14653237164020538, 0.12092538177967072, 0.18176409602165222, -0.0688701644539833, -0.00895820464938879, 0.09825768321752548, -0.027715208008885384, 0.19512352347373962, -0.15870554745197296, -0.01749325357377529, -0.14577434957027435, 0.17396508157253265, 0.24914689362049103, -0.06191650405526161, 0.08347856998443604, 0.17779894173145294, -0.12878923118114471, -0.09902367740869522, -0.035336561501026154, 0.0286564864218235, -0.004155522212386131, -0.061972614377737045, 0.23838567733764648, -0.06891991943120956, -0.2856731414794922, 0.09611913561820984, 0.10576453059911728, 0.06101127341389656, -0.20388785004615784, -0.3576052784919739, -0.005171039141714573, -0.020030740648508072, 0.240696981549263, 0.2973533570766449, -0.08620775490999222, -0.3299073576927185, 0.037473976612091064, -0.11387817561626434, -0.046255938708782196, 0.48322033882141113, -0.1823895126581192, -0.16808412969112396, 0.07990635931491852, -0.21440739929676056, 0.04699307307600975, 0.23659998178482056, -0.061523064970970154, 0.04418311268091202, 0.0908304899930954, -0.05053195357322693, 0.24828146398067474, -0.23326216638088226, 0.020267246291041374, 0.23450100421905518, -0.03464264050126076, 0.00023670156951993704, -0.09095291048288345, 0.3563995063304901, 0.029981788247823715, -0.013744508847594261, -0.09700315445661545, 0.0192592591047287, 0.13797636330127716, -0.004174812696874142, -0.18655234575271606, -0.1869705617427826, 0.15070098638534546, 0.03905780240893364, 0.06080256775021553, 0.19481945037841797, -0.09603593498468399, -0.07653690129518509, 0.1566290706396103, 0.2953929901123047, -0.03734474256634712, 0.4020944833755493, -0.057218290865421295, -0.22132062911987305, -0.2106500118970871, -0.06623227149248123, 0.05442814156413078, 0.09208515286445618, -0.11417759209871292, -0.1693403273820877, 0.015666868537664413, 0.045018021017313004, -0.16260063648223877, 0.004767200443893671, -0.10421395301818848, -0.1838771253824234, -0.11709505319595337, -0.021231990307569504, 0.15124845504760742, 0.003128127194941044, -0.0933152288198471, -0.12022873014211655, -0.11025908589363098, -0.09981109201908112, -0.012661918997764587, -0.06089182570576668, 0.02197754941880703, -0.2361850142478943, 0.045686978846788406, -0.077122762799263, -0.039889708161354065, 0.26322153210639954, -0.07636837661266327, -0.4105825424194336, 0.07205438613891602, 0.06398606300354004, 0.05066926032304764, -0.01180670503526926, -0.14777493476867676, -0.2519621253013611, 0.04266127943992615, -0.004695379640907049, -0.02086491882801056, 0.11935417354106903, -0.02664138190448284, 0.08118405193090439, 0.023482520133256912, -0.05988994613289833, -0.16901369392871857, 0.12496306002140045, -0.11528102308511734, 0.11151688545942307, 0.04877167567610741, 0.039542969316244125, -0.016642503440380096, -0.08237053453922272, -0.07614079117774963, 0.034107860177755356, 0.15321069955825806, 0.11548398435115814, 0.00010570957965683192, -0.08411223441362381, -0.13678471744060516, -0.004885370843112469, 0.03508246690034866, -0.11510369926691055, 0.12107351422309875, 0.05925038456916809, -0.7843226194381714, 0.031162191182374954, 0.8728380799293518, 0.160997673869133, 0.850660502910614, 0.566893994808197, -0.501776933670044, -0.30391061305999756, -0.09726979583501816, 0.530387818813324, -0.18627066910266876, 0.6658647060394287, 0.20559276640415192, -0.3466883897781372, -0.07803084701299667, -0.44572123885154724, -0.5525595545768738, 0.1262306272983551, -0.0972672700881958, -0.2331044226884842, -0.19699928164482117, 0.18624374270439148, -0.4181024730205536, -0.19632412493228912, -0.10203187167644501, 0.14846965670585632, -0.11709555983543396, -0.11494150757789612, -0.4147624373435974, 0.05576646327972412, -0.2402743101119995, 0.14198346436023712, 0.0821678563952446, 0.118070587515831, 0.10332290828227997, -0.04042666032910347, -0.02481505274772644, -0.29134589433670044, -0.3037368059158325, -0.16219192743301392, 0.4720982611179352, -0.28179070353507996, -0.1235632374882698, -0.41210079193115234, -0.04331180080771446, -0.36206066608428955, -0.578260064125061, 0.040807873010635376, 0.2176017165184021, -0.0988348051905632, -0.18245114386081696, -0.34242022037506104, -0.21053139865398407, -0.23826450109481812, -0.25840747356414795, 0.1656365692615509, -0.1497122347354889, 0.211488276720047, -0.2864745259284973, -0.41463229060173035, 0.1450396031141281, -0.5181456804275513, -0.0161494892090559, -0.04678824916481972, -0.43992456793785095, 0.223563089966774, -0.18414776027202606, 0.05675382539629936, -0.21949052810668945, -0.5357339382171631, -0.23293577134609222, -0.4514118731021881, 0.08842355012893677, -0.20735809206962585, -0.02133137919008732, -0.029512109234929085, 0.238642156124115, -0.252737820148468, -0.1251840740442276, -0.2629122734069824, -0.08704544603824615, -0.043841417878866196, -0.3644571900367737, -0.4862150549888611, -0.24100732803344727, -0.08726175129413605, -0.22386379539966583, 0.08548809587955475, 0.23469367623329163, 0.1388414055109024, 0.3493391275405884, 0.45452576875686646, -0.18884402513504028, -0.18638059496879578, 0.0781155601143837, -0.07279146462678909, 0.279692143201828, -0.07766477763652802, -0.3713238537311554, -0.07245570421218872, -0.43616610765457153, 0.18147863447666168, 0.03466613218188286, 0.4403414726257324, -0.049459245055913925, 0.07488503307104111, -0.08588164299726486, -0.14934518933296204, -0.005828094203025103, -0.1652810275554657, -0.056768570095300674, -0.01037366408854723, -0.21370463073253632, -0.1032019853591919, 0.10254545509815216, 0.24069596827030182, 0.25932836532592773, -0.06910842657089233, -0.12227699160575867, -0.22448869049549103, -0.3144747018814087, -0.09563292562961578, -0.2161867469549179, -0.11191021651029587, 0.09490770101547241, 0.1817801296710968, -0.5129119753837585, 0.2932940423488617, 0.18619297444820404, -0.5751134157180786, 0.08466546982526779, -0.02370375767350197, 0.1249399185180664, 0.25965577363967896, -0.0357508584856987, -0.3149380087852478, 0.11158338934183121, -0.05143605172634125, 0.3076132833957672, 0.22781021893024445, 0.036727599799633026, 0.06583067029714584, 0.17102855443954468, 0.46043917536735535, -0.13085387647151947, -0.01878535933792591, -0.21867278218269348, 0.36721381545066833, -0.2572161853313446, 0.1452418565750122, 0.09220461547374725, 0.04842498153448105, -0.18936263024806976, 0.15301090478897095, 0.27158623933792114, -0.18735966086387634, 0.010949894785881042, 0.11303485929965973, -0.07859238237142563, 0.02115841954946518, 0.27256646752357483, 0.1475478708744049, 0.2192085087299347, -0.036007482558488846, 0.03896406665444374, 0.018792543560266495, -0.02395295910537243, -0.15959717333316803, 0.41299328207969666, 0.18358038365840912, 0.22894367575645447, 0.24527354538440704, -0.05356310307979584, -0.13401766121387482, -0.12134034931659698, -0.22294498980045319, 0.345672607421875, 0.0692928209900856, -0.03795163333415985, 0.3923690915107727, 0.3385603427886963, 0.1692369431257248, -0.1676643341779709, 0.04114832729101181, 0.17631836235523224, 0.4671129286289215, -0.3325214087963104, -0.160615012049675, 0.6544960737228394, 0.14769776165485382, 0.25347909331321716, 0.4472689628601074, 0.055711742490530014, -0.055001307278871536, -0.47325214743614197, 0.18492987751960754, -0.16069839894771576, -0.35964086651802063, 0.08516144007444382, -0.07099489867687225, 0.14704331755638123, -0.39298030734062195, 0.039861783385276794, 0.14061279594898224, 0.250963032245636, 0.33713552355766296, -0.03540973737835884, 0.2179918736219406, -0.0706891119480133, -0.101224884390831, -0.2979357838630676, -0.04843202605843544, 0.3725557029247284, 0.03372937813401222, 0.08052606135606766, -0.01015799306333065, 0.11776364594697952, -0.08307969570159912, 0.27343273162841797, -0.16571106016635895, 0.07154260575771332, 0.1208789274096489, -0.09656042605638504, 0.14457084238529205, 0.11727868020534515, 0.16361738741397858, 0.15915493667125702, 0.05539252236485481, 0.04478076100349426, -0.04652514308691025, -0.28060460090637207, -0.00845328439027071, 0.16324391961097717, -0.22394120693206787, -0.0514686293900013, -0.027754470705986023, -0.1857961118221283, 0.06375027447938919, 0.053950078785419464, 0.477876216173172, 0.10253732651472092, 0.07936260104179382, 0.12734022736549377, -0.04242977127432823, -0.14663779735565186, 0.18196600675582886, -0.15429869294166565, -0.010245409794151783, 0.3688005208969116, -0.04666927084326744, -0.09052135050296783, 0.048077572137117386, 0.0037905171047896147, -0.04648962244391441, 0.12680086493492126, -0.2658677399158478, 0.30941346287727356, -0.21148528158664703, 0.2343113124370575, -0.054701149463653564, -0.08999534696340561, -0.05895229056477547, -0.02692728489637375, -0.1312028020620346, 0.01129278726875782, 0.16940154135227203, -0.07930608838796616, 0.0191270150244236, -0.15003298223018646, -0.21610817313194275, 0.01809762790799141, -0.1611962616443634, 0.06500610709190369, -0.1357811987400055, 0.010754198767244816, -0.41537052392959595, 0.18338026106357574, -0.03935607522726059, -0.12997856736183167, 0.0670551210641861, 0.16201888024806976, 0.12726441025733948, -0.21917955577373505, 0.2957479953765869, -0.014097592793405056, 0.10185147821903229, -0.02183479629456997, -0.1249253898859024, -0.0007051948923617601, 0.4470583498477936, -0.12178600579500198, 0.1004396378993988, -0.5570167899131775, 0.2868686318397522, -0.10441673547029495, 0.048035651445388794, -0.11995167285203934, 0.049707770347595215, 0.24659405648708344, 0.11859812587499619, 0.07510574907064438, 0.0024635617155581713, -0.03585333004593849, -0.1429709792137146, -0.13786852359771729, -0.16772864758968353, -0.1507304608821869, 0.1412714123725891, -0.13235080242156982, 0.020109210163354874, -0.21010614931583405, 0.27446913719177246, -0.37732210755348206, 0.17745918035507202, 0.18342430889606476, -0.10774146020412445, -0.23188462853431702, 0.032753609120845795, 0.0747024342417717, -0.0026368657127022743, 0.027604136615991592, -0.09912113100290298, -0.2625407874584198, 0.14178892970085144, -0.10985659807920456, -0.5311415195465088, 0.1859256774187088, -0.28389158844947815, -0.07474576681852341, -0.08352715522050858, 0.09044536203145981, 0.06988879293203354, 0.00848615076392889, 0.06438381969928741, 0.10768570005893707, 0.06343664973974228, -0.12705086171627045, 0.06587404012680054, 0.1649397611618042, 0.088899627327919, 0.018752096220850945, 0.17095428705215454, 0.19705985486507416, -0.045828379690647125, 0.09473159909248352, 0.15105964243412018, -0.3310684263706207, -0.3546586334705353, -0.1234203428030014, 0.03484445810317993, 0.22875450551509857, 0.032030604779720306, -0.004285749047994614, 0.13817797601222992, 0.12578991055488586, 0.12237527966499329, 0.02178061380982399, 0.05308074876666069, -0.06399980932474136, -0.020470689982175827, 0.05446220561861992, 0.03980438411235809, -0.018326308578252792, -0.029894018545746803, 0.3393096625804901, -0.0943744033575058, 0.19390971958637238, 0.037995465099811554, -0.04367437586188316, 0.12116781622171402, 0.14427559077739716, -0.17632384598255157, 0.16120027005672455, 0.10975883156061172, -0.11121504008769989, 0.10626465827226639, 0.06459145247936249, -0.13774749636650085, 0.043568871915340424, -0.18529658019542694, -0.21743851900100708, 0.041309766471385956, -0.052322182804346085, -0.08170164376497269, 0.07722637057304382, -0.25269317626953125, -0.30156803131103516, 0.2983856499195099, 0.13205894827842712, 0.3410964906215668, 0.3663676381111145, -0.04190635308623314, -0.3200492560863495, 0.2232852429151535, -0.004330324940383434, -0.29376956820487976, 0.2799050509929657, -0.05636579543352127, -0.3460182547569275, 0.22985465824604034, 0.06417284160852432, -0.16531705856323242, -0.03836210444569588, 0.05176014080643654, -0.41511255502700806, 0.3669426143169403, 0.11791961640119553, -0.30974137783050537, 0.16093258559703827, -0.2389439344406128, 0.3396149277687073, 0.004376055672764778, -0.06679464876651764, -0.10310783982276917, 0.2522255778312683, -0.15189117193222046, 0.09339828789234161, 0.044948238879442215, 0.1730162501335144, 0.056099358946084976, -0.014853507280349731, -0.039262134581804276, -0.3094240128993988, -0.017910446971654892, -0.12409772723913193, 0.2321322113275528, 0.01706843264400959, 0.026401901617646217, 0.019696542993187904, 0.0244633499532938, -0.09543686360120773, -0.18637262284755707, -0.06301261484622955, -0.12898561358451843, 0.1898178905248642, 0.17677350342273712, -0.13398100435733795, 0.08393369615077972, 0.159918874502182, -0.11943353712558746, -0.005495327990502119, 0.0055306158028542995, -0.00041555752977728844, -0.5471329689025879, -0.079094298183918, -0.12713193893432617, 0.18620820343494415, 0.08277267962694168, -0.1019819974899292, 0.5734565258026123, 0.0576171800494194, -0.18633641302585602, -0.05636603757739067, -0.053242068737745285, 0.1451469510793686, -0.07015133649110794, -0.02189841866493225, -0.03287803754210472, 0.2222374826669693, -0.07854143530130386, -0.03584207221865654, -0.2738332152366638, -0.09815089404582977, -0.09192080795764923, 0.1210484430193901, 0.07439537346363068, -0.059680160135030746, 0.28722161054611206, -0.047236453741788864, 0.06920156627893448, -0.2282460480928421, -0.02996998466551304, -0.07584502547979355, -0.01472498383373022, 0.10636245459318161, -0.09757024794816971, 0.12639576196670532, 0.028822600841522217, 0.23242926597595215, 0.3521578907966614, -0.20152516663074493, -0.1482648402452469, -0.23495425283908844, -0.049475960433483124, -0.11747951060533524, -0.39343923330307007, -0.10584355145692825, -0.08579462766647339, 0.14886067807674408, 0.09970387816429138, 0.08971501886844635, -0.0035622676368802786, -0.018627678975462914, 0.024556126445531845, 0.2805703580379486, -0.15830661356449127, -0.019563890993595123, 0.15210847556591034, 0.09532731771469116, -0.0021340269595384598, 0.19789771735668182, 0.017271846532821655, 0.18845583498477936, -0.14128194749355316, 0.019473809748888016, 0.1691829413175583, 0.13408172130584717, 0.11501844972372055, 0.08153865486383438, -0.2347918003797531, -0.14408496022224426, 0.03361128270626068, -0.22765828669071198, -0.09991736710071564, 0.05350906774401665, -0.08778659999370575, -0.07323537021875381, 0.025287862867116928, 0.07934596389532089, -0.009616897441446781, 0.036659013479948044, -0.21032918989658356, -0.08756763488054276, -0.19449551403522491, -0.15899381041526794, -0.0356791689991951, -0.09990085661411285, 0.09813026338815689, -0.010104522109031677, -0.05132933706045151, -0.04574215039610863, -0.04994545504450798, -0.031164800748229027, 0.07345891743898392, 0.06560923904180527, -0.18749696016311646, 0.06867392361164093, -0.1397605687379837, -0.0597655214369297, -0.15624895691871643, -0.08599206805229187, -0.2806665599346161, -0.16367320716381073, -0.39660847187042236, -0.11628106236457825, -0.06843460351228714, -0.017265770584344864, -0.05319751054048538, -0.017458148300647736, -0.1179455891251564, -0.080173559486866, -0.07008961588144302, -0.09384191036224365, -0.1584618240594864, -0.15971769392490387, 0.12349241226911545, -0.008260278962552547, -0.11065925657749176, -0.12167738378047943, 0.03070726804435253, 0.18445970118045807, -0.018298601731657982, -0.2242644727230072, 0.10137975960969925, -0.06012167036533356, -0.03929519280791283, -0.19864515960216522, -0.3413882255554199, 0.27091094851493835, 0.20375031232833862, 0.2589040696620941, 0.1283305138349533, -0.3026982545852661, -0.16981343924999237, 0.1607041209936142, -0.2101154774427414, 0.063620924949646, 0.11679217219352722, -0.20528259873390198, -0.2834334671497345, 0.2164509892463684, -0.10357616096735, -0.09755998104810715, 0.06647787988185883, -0.1707148402929306, -0.30157044529914856, 0.09413614869117737, -0.11382576078176498, 0.1688903272151947, 0.0942964181303978, 0.3209965229034424, 0.2532469928264618, -0.14146611094474792, -0.2949511706829071, 0.07062027603387833, -0.07001230865716934, -0.01492601353675127, -0.15733496844768524, 0.26998791098594666, 0.0299210287630558, 0.09844338148832321, 0.1477777063846588, -0.04150868207216263, -0.1222653016448021, 0.05001744627952576, -0.02020912989974022, 0.05920516327023506, 0.20710159838199615, -0.10848835110664368, 0.025323987007141113, -0.1605869084596634, 0.054748065769672394, -0.6866937279701233, -0.7288567423820496, -0.14769327640533447, 0.36657267808914185, -0.25988560914993286, -0.28083983063697815, 0.6128634214401245, 0.1765253096818924, -0.9199503064155579, 0.30235713720321655, 0.23598191142082214, -0.07717300206422806, -0.11259110271930695, -0.04734553396701813, -0.01698453724384308, -0.17210054397583008, -0.041574977338314056, -0.5063210725784302, -0.08501467853784561, 0.19520141184329987, 0.04929453879594803, -0.5184992551803589, -0.13894695043563843, 0.16345486044883728, -0.09721557050943375, -0.050433576107025146, 0.09025067090988159, 0.213606595993042, -0.1371517777442932, -0.3305590748786926, 0.16709434986114502, 0.034273602068424225, -0.19487372040748596, 0.047048769891262054, 0.0054243761114776134, 0.05679404363036156, 0.06848491728305817, -0.18103758990764618, -0.7205902338027954, -0.2915208339691162, 0.31401652097702026, -0.12116271257400513, -0.08484374731779099, -0.18903988599777222, 0.1842220276594162, -0.5448743104934692, -0.1980879008769989, 0.15965276956558228, 0.008163362741470337, 0.3370702564716339, 0.12303826957941055, 0.08162427693605423, -0.028065349906682968, 0.2486724555492401, -0.11998599022626877, 0.03228741139173508, -0.07406245172023773, 0.15066224336624146, -0.05191120132803917, -0.04599849879741669, 0.34350207448005676, -0.11315124481916428, 0.27919209003448486, -0.10425100475549698, 0.13755780458450317, 0.18929389119148254, -0.21938081085681915, -0.27600231766700745, -0.0008969304035417736, -0.03468610718846321, -0.011823919601738453, -0.38803836703300476, 0.11802925914525986, -0.04483212158083916, -0.14460377395153046, 0.08816970884799957, -0.13001097738742828, 0.40722495317459106, 0.11816095560789108, -0.047341641038656235, -0.19733545184135437, 0.6204963326454163, -0.2546314299106598, 0.1371222287416458, -0.16412265598773956, -0.16306613385677338, 0.031062988564372063, 0.06222952902317047, 0.005056510679423809, -0.10569140315055847, 0.16618607938289642, -0.041611816734075546, -0.12806785106658936, 0.5433654189109802, -0.35983163118362427, -0.029939770698547363, -0.07280628383159637, 0.19209407269954681, 0.1928837150335312, 0.21503803133964539, -0.11476040631532669, 0.17707985639572144, -0.17424166202545166, 0.05759187415242195, 0.0016100319335237145, 0.2826329171657562, -0.4885913133621216, -0.003940747585147619, -0.25380006432533264, 0.10829360783100128, -0.045992761850357056, 0.1219785138964653, -0.17511804401874542, -0.29337745904922485, -0.022609127685427666, 0.2676314115524292, 0.0022230243775993586, 0.4386315643787384, 0.359289288520813, 0.20563922822475433, 0.03891468793153763, 0.3505435585975647, 0.18780943751335144, -0.11289965361356735, -0.37579378485679626, 0.032971858978271484, -0.09371808171272278, -0.21577396988868713, 0.2764480412006378, 0.2000425159931183, 0.09322476387023926, 0.0788358673453331, -0.12333864718675613, -0.15780989825725555, 0.00381856388412416, 0.00360432593151927, -0.14504818618297577, 0.981265127658844, -0.202144056558609, 0.3388485014438629, 0.07478876411914825, -0.042842619121074677, -0.21153868734836578, 0.22527028620243073, -0.14228619635105133, 0.1273377239704132, -0.1507614552974701, 0.02825005352497101, -0.37795063853263855, -0.23436938226222992, 0.25232741236686707, 0.14778922498226166, -0.2363823503255844, 0.10036320984363556, -0.13391505181789398, 0.13445724546909332, 0.13767267763614655, -0.16624923050403595, 0.40060797333717346, 0.10546323657035828, -0.11208361387252808, 0.028422871604561806, 0.14471928775310516, -0.028092389926314354, -0.06786079704761505, 0.1461869329214096, -0.01975174993276596, -0.021444322541356087, -0.19404971599578857, 0.17715276777744293, 0.2134147733449936, 0.15057829022407532, -0.017022021114826202, -0.031170178204774857, -0.07160668820142746, -0.12724994122982025, 0.03754541277885437, -0.09346325695514679, 0.07031437754631042, -0.08512810617685318, 0.1338462084531784, -0.19529207050800323, -0.03298322111368179, 0.11768399924039841, -0.1476491391658783, -0.15598340332508087, 0.1401538848876953, 0.20193618535995483, 0.0673016682267189, 0.045142535120248795, -0.23495180904865265, 0.23102660477161407, -0.05503542721271515, 0.22407472133636475, -0.02417646534740925, -0.14196088910102844, 0.18218503892421722, 0.09029196947813034, 0.2588026821613312, -0.13757625222206116, 0.05525512248277664, -0.26558828353881836, 0.1286117434501648, 0.18827468156814575, -0.2711106836795807, 0.023850014433264732, 0.11294032633304596, 0.08840633183717728, -0.1476341038942337, 0.005727370269596577, -0.06086587905883789, -0.13255159556865692, 0.0832633525133133, 0.07650287449359894, 0.1271505504846573, -0.19915039837360382, -0.16696412861347198, -0.22606971859931946, 0.23087456822395325, -0.14046359062194824, -0.03295626863837242, 0.07483931630849838, 0.1629335582256317, -0.018792519345879555, -0.17238861322402954, 0.10710153728723526, 0.28515130281448364, 0.0758727416396141, -0.08759430050849915, -0.036688219755887985, -0.18363787233829498, -0.07812295109033585, -0.11175423115491867, 0.0030763105023652315, 0.2621666491031647, -0.04289180412888527, 0.1903027892112732, -0.006570721976459026, 0.006420599762350321, 0.08982298523187637, 0.009270740672945976, -0.07093841582536697, -0.11193796992301941, 0.16888441145420074, 0.12464259564876556, 0.013251625932753086, 0.009797122329473495, -0.002725263824686408, -0.0672355592250824, 0.21566100418567657, 0.05306083709001541, -0.16286595165729523, 0.11743436008691788, 0.034785132855176926, 0.06253165006637573, -0.17080938816070557, -0.00408766558393836, -0.2589315176010132, -0.17098094522953033, -0.14770057797431946, -0.08257506042718887, -0.15791602432727814, -0.007692057639360428, 0.05485320836305618, -0.12505820393562317, 0.027875686064362526, 0.20428206026554108, -0.023142194375395775, -0.08170793950557709, -0.05501407012343407, -0.0027585732750594616, -0.08528368920087814, -0.14738765358924866, -0.13447628915309906, 0.17642836272716522, 0.10048428922891617, 0.1174854040145874, -0.015436094254255295, 0.12218648195266724, 0.04800006374716759, 0.03019418567419052, -0.09263983368873596, 0.026938561350107193, -0.03727319464087486, -0.08823668956756592, 0.05471217259764671, -0.10628928989171982, -0.12134391814470291, 0.11346253752708435, 0.12194176018238068, -0.008515039458870888, -0.15896153450012207, -0.08471249788999557, -0.06073472276329994, -0.08794839680194855, -0.08888615667819977, 0.0947863906621933, -0.21470527350902557, -0.040997862815856934, 0.17105907201766968, -0.02369076944887638, -0.010321772657334805, 0.1680029183626175, 0.07042154669761658, 0.057954005897045135, -0.03453115001320839, 0.07358525693416595, 0.053211674094200134, -0.09882977604866028, 0.08404526859521866, -0.05589718371629715, -0.1142895370721817, 0.10516846179962158, 0.0018735661869868636, -0.22234803438186646, 0.006695916410535574, -0.08914421498775482, 0.20234443247318268, -0.17367221415042877, 0.014921654015779495, 0.09264607727527618, -0.06177423894405365, -0.0575430653989315, -0.1891460418701172, 0.16131095588207245, 0.013518229126930237, 0.4168640673160553, 0.1044129952788353, 0.05367264151573181, -0.024690015241503716, 0.033490680158138275, -0.06920541822910309, 0.14786994457244873, 0.10987009108066559, -0.02298785001039505, -0.00477023096755147, -0.10731123387813568, -0.055386919528245926, 0.510464608669281, -0.21757860481739044, 0.021023206412792206, 0.37529629468917847, -0.007716788444668055, 0.1195073276758194, -0.13196994364261627, 0.12685520946979523, -0.001687435433268547, -0.36462271213531494, 0.022741209715604782, -0.05371944606304169, -0.33952751755714417, 0.14100593328475952, -0.7008962631225586, -0.01830834336578846, -0.2254679948091507, -0.009199128486216068, 0.021742144599556923, 0.06584309786558151, -0.4062308073043823, -0.2557799816131592, 0.09824885427951813, -0.2935752868652344, 0.5777262449264526, -0.07563372701406479, -0.048179950565099716, -0.06451607495546341, -0.019046081230044365, 0.0011168473865836859, -0.005399765446782112, 0.011428977362811565, 0.19470913708209991, -0.19843488931655884, 0.07775790244340897, -0.016895385459065437, 0.2732957899570465, 0.1733672320842743, 0.037951018661260605, -0.19018681347370148, 0.13810406625270844, 0.01560369972139597, 0.03803131729364395, 0.020137351006269455, 0.10054866224527359, 0.19711653888225555, 0.18761731684207916, -0.009253686293959618, 0.4175311326980591, 0.4678416848182678, 0.24595071375370026, 0.0011145282769575715, 0.7061941623687744, -0.40373316407203674, 0.12540678679943085, 0.012397290207445621, 0.2922801971435547, 0.38746243715286255, 0.24407459795475006, 0.2150992453098297, -0.41341307759284973, -0.14438405632972717, -0.026582341641187668, 0.38123878836631775, 0.04315287247300148, -0.11999373883008957, -0.23738059401512146, 0.22175045311450958, 0.3551396429538727, 0.14554037153720856, 0.1376228779554367, -0.1073685809969902, 0.057355042546987534, 0.04195902496576309, 0.17264969646930695, -0.21153004467487335, 0.025348633527755737, 0.13413526117801666, -0.3576785922050476, 0.027470780536532402, 0.05702260881662369, 0.01800619438290596, 0.15575668215751648, 0.04716544970870018, 0.06907278299331665, -0.13315735757350922, -0.138840913772583, -0.010163548402488232, -0.13629628717899323, -0.10877612978219986, -0.6860755085945129, -0.31561845541000366, 0.12935593724250793, -0.11772868782281876, -0.14443852007389069, -0.2516942322254181, 0.541901707649231, -0.3018123507499695, -0.11370283365249634, -0.14199748635292053, 0.06931625306606293, 0.22403673827648163, -0.03328503295779228, -0.25340211391448975, -0.024878164753317833, -0.0763620138168335, 0.30249786376953125, -0.31807273626327515, 0.2768515348434448, -0.0264720618724823, -0.15068569779396057, -0.31465044617652893, 0.1102660745382309, -0.009002726525068283, 0.3059966266155243, 0.09179028868675232, -0.21652176976203918, 0.35824909806251526, -0.19948439300060272, 0.08585135638713837, 0.04349124804139137, 0.22473739087581635, -0.2602340281009674, 0.49348464608192444, 0.4346400797367096, -0.017655024304986, -0.32142674922943115, -0.2601303160190582, 0.2595674991607666, 0.17381830513477325, -0.19381314516067505, -0.014928624965250492, -0.19749434292316437, -0.24548904597759247, 0.01870662532746792, -0.1610318124294281, -0.17801548540592194, 0.1679462194442749, 0.06784569472074509, 0.2420399785041809, 0.020947715267539024, 0.2267109751701355, -0.029642613604664803, 0.16257035732269287, -0.07889772951602936, 0.04661158099770546, 0.15661312639713287, -0.22557812929153442, -0.04038068652153015, -0.07446540892124176, -0.09726075828075409, -0.0058435676619410515, 0.07414079457521439, 0.03949270024895668, 0.18781934678554535, 0.09351801127195358, -0.28965482115745544, 0.12065096199512482, 0.09959205240011215, 0.08060939610004425, -0.2090536504983902, 0.18945004045963287, -0.40983325242996216, 0.01991516351699829, 0.15534132719039917, 0.12115497887134552, 0.12385088950395584, 0.004533793311566114, 0.0015234043821692467, -0.044517144560813904, 0.2559911906719208, 0.27657976746559143, 0.0663127452135086, 0.0339360348880291, -0.2515120804309845, -0.0043662115931510925, -0.017334789037704468, 0.3083049952983856, 