{"version": "0.5.4", "metadata": {"date": {"year": 2026, "month": 4, "day": 1, "hour": 17, "minute": 4, "second": 28}, "loudness": -32.1359977722168, "gain": 0.840114245218648}, "architecture": "WaveNet", "config": {"layers": [{"input_size": 1, "condition_size": 1, "head_size": 6, "channels": 12, "kernel_size": 3, "dilations": [1, 2, 4, 8, 16, 32, 64], "activation": "Tanh", "gated": false, "head_bias": false}, {"input_size": 12, "condition_size": 1, "head_size": 1, "channels": 6, "kernel_size": 3, "dilations": [128, 256, 512, 1, 2, 4, 8, 16, 32, 64, 128, 256, 512], "activation": "Tanh", "gated": false, "head_bias": true}], "head": null, "head_scale": 0.02}, "weights": [-0.5833333730697632, 0.9664597511291504, -1.1164193153381348, -0.9969955086708069, -0.6469051837921143, -0.04283982887864113, -0.29090365767478943, 0.9532255530357361, -0.6623354554176331, 0.720492959022522, -0.5268853306770325, -0.4835635721683502, 0.34529489278793335, -0.012586629949510098, -0.1696518361568451, -0.3761204481124878, -0.00884526502341032, 0.07686963677406311, 0.25953689217567444, 0.007682416588068008, 0.08485779911279678, 0.5116589665412903, 0.04846492037177086, 0.1429571509361267, 0.349022775888443, 0.09677112102508545, 0.16883043944835663, -0.45369893312454224, -0.18830712139606476, 0.03520914167165756, 0.4047088623046875, 0.24010416865348816, -0.18455161154270172, -0.44869256019592285, -0.196351557970047, -0.17199251055717468, 0.39058205485343933, 0.16613945364952087, -0.013935859315097332, -0.3238685429096222, -0.06916707009077072, -0.08709210902452469, 0.4123958945274353, -0.07333552837371826, -0.12144327163696289, 0.3211596608161926, 0.1920381635427475, 0.07396199554204941, -0.4031551480293274, -0.033761125057935715, 0.4471828043460846, 0.45703640580177307, 0.13246743381023407, -0.10713404417037964, -0.17590580880641937, -0.17309829592704773, 0.14915546774864197, -0.4170371890068054, -0.1924525946378708, 0.03700723126530647, -0.21170122921466827, -0.00513171823695302, 0.030652061104774475, 0.30774274468421936, 0.19042398035526276, -0.18416349589824677, -0.3327811062335968, -0.018328551203012466, 0.37705931067466736, 0.447458416223526, -0.055118586868047714, -0.1856008917093277, -0.3058626055717468, 0.1580740511417389, 0.444374680519104, 0.45048317313194275, 0.09669364988803864, -0.30766403675079346, -0.2766362428665161, -0.17684990167617798, -0.005231274291872978, -0.1546676903963089, 0.05742257088422775, 0.01878621242940426, 0.12284006178379059, -0.02128051221370697, -0.29512259364128113, -0.20662780106067657, 0.005057051312178373, -0.0830267071723938, 0.19618965685367584, 0.15341252088546753, 0.11287147551774979, 0.1970062106847763, -0.09412150830030441, -0.11864617466926575, 0.21234290301799774, 0.09879417717456818, -0.14694994688034058, -0.1906394213438034, 0.07926526665687561, 0.1650683879852295, 0.042619917541742325, -0.01160223875194788, -0.3301471769809723, -0.13558204472064972, -0.19169381260871887, -0.1147041842341423, 0.10879572480916977, -0.033438194543123245, -0.27202698588371277, -0.027426639571785927, -0.15395456552505493, 0.1984759122133255, 0.24217098951339722, -0.07680060714483261, -0.07890639454126358, 0.13312721252441406, 0.0841875895857811, -0.034501027315855026, -0.7192473411560059, 0.061376962810754776, 0.04317537322640419, 0.7397971749305725, -0.2694254219532013, -0.11752305179834366, -0.6806358695030212, 0.024115126579999924, -0.03810310736298561, -0.7746365666389465, 0.06316578388214111, 0.06301248073577881, -0.752617597579956, 0.0974893718957901, 0.14828787744045258, 0.4574604034423828, 0.012061979621648788, -0.11004062741994858, -0.6941640377044678, 0.14349006116390228, 0.2827727198600769, 0.741598904132843, 0.062098607420921326, -0.03890417143702507, -0.987711489200592, -0.0357043482363224, 0.1711329072713852, 0.6820114254951477, -0.18002437055110931, -0.17013095319271088, -0.8024593591690063, -0.04925805330276489, 0.01318315975368023, -0.5822110176086426, 0.16848769783973694, -0.09716697037220001, -0.5972562432289124, -0.2810293138027191, 0.41539955139160156, 0.5446584820747375, 0.06958476454019547, -0.3226988911628723, -0.7496592402458191, -0.2476176619529724, 0.25286397337913513, -0.5992292165756226, -0.18186958134174347, 0.3448176980018616, -0.7552959322929382, -0.11644666641950607, 0.43485361337661743, 0.4632541239261627, 0.30531805753707886, -0.2213021069765091, -0.8400952816009521, -0.04293869063258171, 0.38054776191711426, 0.5266201496124268, 0.23691798746585846, -0.4158362150192261, -0.7143398523330688, -0.13347169756889343, 0.5400559306144714, 0.6807291507720947, 0.18933743238449097, -0.258248895406723, -0.6522547602653503, -0.14435262978076935, 0.16630637645721436, -0.5437190532684326, 0.015279991552233696, 0.44607752561569214, -0.29108133912086487, -0.216081440448761, 0.25009214878082275, 0.07673008739948273, 0.026411570608615875, -0.032414015382528305, -0.26770007610321045, -0.12877796590328217, 0.08433813601732254, -0.06204415485262871, -0.2584814429283142, -0.031419288367033005, -0.263987272977829, -0.014267541468143463, 0.03248567879199982, 0.26775696873664856, 0.25546059012413025, -0.12235391139984131, -0.19906938076019287, -0.27197083830833435, 0.30265700817108154, 0.12839064002037048, 0.12561123073101044, -0.06107993796467781, -0.31896933913230896, -0.2275426685810089, 0.39210325479507446, 0.037178605794906616, 0.13110199570655823, 0.03242691233754158, -0.10898295789957047, -0.1401137262582779, -0.025938866659998894, -0.08803171664476395, -0.2751529812812805, 0.11111027747392654, -0.17397066950798035, -0.2309129536151886, 0.17620940506458282, 0.25512656569480896, 0.19386710226535797, 0.08744966983795166, -0.01709255948662758, -0.2806468605995178, 0.12902720272541046, -0.2363337129354477, -0.24907410144805908, 0.10424912720918655, -0.06161567568778992, -0.0517074316740036, 0.007077658548951149, 0.09229815006256104, 0.259197473526001, -0.19792936742305756, -0.01615566574037075, -0.35808369517326355, 0.11908315122127533, 0.08955524861812592, 0.08686622232198715, -0.031835347414016724, -0.008793762885034084, -0.20739561319351196, -0.0013208993477746844, 0.06282559037208557, 0.019933266565203667, 0.0007712034857831895, -0.19844238460063934, -0.2944145202636719, -0.026926549151539803, -0.025915637612342834, -0.10249144583940506, 0.21340791881084442, 0.024319976568222046, 0.07676129788160324, -0.4117286205291748, 0.05616221949458122, 0.011397931724786758, 0.2650732398033142, -0.08701109141111374, 0.04237767681479454, -0.372090607881546, 0.025962386280298233, 0.026017770171165466, -0.3669203817844391, 0.13699473440647125, 0.01361818052828312, -0.23996314406394958, 0.054840072989463806, -0.09295501559972763, 0.053923264145851135, -0.17666944861412048, 0.249450221657753, -0.30746349692344666, 0.14615580439567566, -0.17780132591724396, 0.26269596815109253, -0.04661817476153374, 0.12619638442993164, -0.38500627875328064, 0.07083325833082199, -0.07438307255506516, 0.24172541499137878, -0.05355629697442055, 0.018523504957556725, -0.12121417373418808, -0.1445598304271698, 0.1924968957901001, -0.3140133023262024, -0.26293277740478516, -0.10696951299905777, 0.022705379873514175, 0.19702458381652832, 0.15665338933467865, -0.08247049897909164, -0.13280224800109863, -0.05900988355278969, 0.019203828647732735, -0.18290045857429504, -0.2694505751132965, -0.07070202380418777, -0.10040608048439026, -0.18981091678142548, 0.023601122200489044, 0.2423200011253357, 0.024344703182578087, 0.03437260538339615, -0.12507715821266174, -0.1281091272830963, 0.05061235651373863, 0.17983929812908173, -0.004034751560539007, 0.05653378739953041, -0.05369574949145317, 0.11759724467992783, 0.14026734232902527, 0.1863889843225479, 0.20445047318935394, -0.057297807186841965, -0.3010157644748688, -0.2758773863315582, 0.13671313226222992, -0.06265465170145035, -0.25061580538749695, 0.05757788196206093, 0.4579865634441376, -0.25217404961586, 0.23954012989997864, -0.11752519756555557, 0.25953298807144165, 0.02581087313592434, 0.36925509572029114, -0.19967660307884216, -0.1886872500181198, 0.38062116503715515, -0.21895036101341248, 0.00632043182849884, 0.13515198230743408, -0.25618621706962585, -0.13788945972919464, -0.03208889439702034, 0.2578265070915222, 0.0885142982006073, 0.29507356882095337, -0.36146852374076843, -0.02616908960044384, -0.1484193503856659, 0.1737194061279297, 0.12382567673921585, 0.20930421352386475, -0.4742645025253296, -0.16969899833202362, -0.12632817029953003, 0.4162425398826599, 0.21713131666183472, 0.3724208176136017, -0.4677414000034332, -0.17754137516021729, 0.22684401273727417, -0.4373176097869873, 0.07277338951826096, 0.062978595495224, 0.1366012543439865, -0.33861908316612244, -0.22347059845924377, -0.03426627069711685, 0.16552715003490448, 0.2467479407787323, 0.2982494831085205, 0.1229667067527771, 0.08889232575893402, 0.24625428020954132, 0.11935143917798996, 0.1820206642150879, 0.3383598327636719, 0.05309242382645607, -0.040753476321697235, -0.23334234952926636, 0.1911473572254181, 0.22955919802188873, 0.1912475973367691, -0.21503964066505432, -0.22484742105007172, -0.29610198736190796, 0.14327089488506317, 0.33255523443222046, 0.14718973636627197, -0.22396402060985565, -0.01697743684053421, -0.07664630562067032, 0.06253164261579514, 0.06097214296460152, 0.33067336678504944, 0.019040152430534363, 0.02868754416704178, 0.34692129492759705, 0.05297068506479263, -0.5595449209213257, 0.4062965214252472, 0.1500285565853119, 0.39061295986175537, -0.1396166980266571, -0.28654971718788147, -0.5224649906158447, 0.2201552391052246, 0.2435552477836609, -0.43495598435401917, 0.298724502325058, 0.44339802861213684, -0.40026038885116577, 0.17968033254146576, 0.2954833507537842, 0.4161272943019867, -0.16477516293525696, -0.3248738944530487, -0.4763663709163666, 0.2362941950559616, 0.20940175652503967, 0.4651583433151245, -0.3898133337497711, -0.22079439461231232, -0.39208921790122986, 0.2682054936885834, 0.17940782010555267, 0.37084659934043884, -0.2618986964225769, -0.41381707787513733, -0.32519423961639404, 0.13812609016895294, 0.11734004318714142, -0.5829505920410156, 0.2628513276576996, 0.38142216205596924, -0.08507626503705978, 0.20295435190200806, -0.11365767568349838, -0.00748461065813899, 0.03134661167860031, -0.10206004977226257, 0.1600433886051178, 0.093266062438488, 0.2675933837890625, 0.09493866562843323, -0.06828352063894272, -0.04325833544135094, 0.022353101521730423, 0.3754390478134155, -0.8107696771621704, -0.3012945353984833, -1.2407971620559692, -0.4451729655265808, 0.1748063862323761, -0.5817487835884094, 0.37620809674263, 0.6349107027053833, 0.1527266651391983, -0.955539882183075, -0.204346165060997, -0.20454110205173492, 0.2621860206127167, 0.4444557726383209, 0.1934274584054947, 0.03737726807594299, -0.04498467966914177, -0.40104997158050537, -0.35720154643058777, -0.03971920162439346, -0.09767147898674011, 0.24305133521556854, -0.3886979818344116, 0.05890616774559021, -0.5094415545463562, 0.5807693600654602, 0.43724095821380615, 0.4240381121635437, 0.37565991282463074, 0.45049846172332764, 0.1750766485929489, 0.3017868399620056, -0.3340197503566742, -0.4265173077583313, 0.33766382932662964, -0.4312255382537842, 0.4508103132247925, -0.47489556670188904, -0.6420465111732483, -0.38136088848114014, 0.048321742564439774, 0.07071564346551895, -0.4709359407424927, 0.13343679904937744, 0.4145054817199707, 0.11982103437185287, 0.3200361430644989, -0.18308356404304504, 0.14234906435012817, -0.05554269254207611, -0.05886543169617653, 0.1386662870645523, -0.11900554597377777, 0.18164585530757904, -0.13042432069778442, -0.2209738790988922, 0.14892952144145966, 0.25264158844947815, -0.10333598405122757, -0.028636377304792404, 0.25102558732032776, -0.0441158227622509, 0.1648564487695694, -0.1723174899816513, -0.03276977688074112, -0.12734362483024597, -0.26078635454177856, -0.3098278343677521, 0.37626561522483826, 0.11486690491437912, 0.058923035860061646, -0.308297336101532, 0.4715861976146698, 0.14091193675994873, -0.3919301927089691, -0.2612066864967346, -0.32811519503593445, -0.23523955047130585, -0.1882363259792328, -0.316668301820755, 0.031130526214838028, 0.21396127343177795, -0.07889405637979507, 0.15020902454853058, -0.27842265367507935, -0.21851570904254913, 0.4499015212059021, 0.6531515121459961, -0.03675016015768051, 0.2507985532283783, -0.023643696680665016, 0.5523788928985596, -0.4488247036933899, -0.7602226138114929, 0.33454957604408264, -0.25785335898399353, 0.1670733094215393, -0.2629739046096802, -0.18414488434791565, -0.09192243963479996, 0.17438006401062012, -0.0007628496969118714, -0.291598916053772, -0.10286213457584381, -0.06548897922039032, 0.10023003816604614, -0.4077005088329315, 0.43725597858428955, -0.19163306057453156, 0.8061573505401611, 1.1179777383804321, 0.28699612617492676, 0.26227718591690063, 0.148064523935318, -0.010687346570193768, -0.42319971323013306, -0.22821731865406036, 0.7172755599021912, -0.039834000170230865, -0.3253648579120636, 0.0384950190782547, 0.3880257308483124, -0.002576515544205904, -0.23577114939689636, -0.289926677942276, 0.2625576853752136, -0.05254540964961052, -0.038854990154504776, 0.08923914283514023, -0.13183391094207764, 0.2696327567100525, 0.2503979504108429, -0.05989210680127144, -0.39733535051345825, -0.23037056624889374, 0.35560622811317444, 0.16503654420375824, 0.2832961976528168, -0.23206251859664917, 0.28991270065307617, 0.25046372413635254, 0.2575050890445709, -0.2089759260416031, -0.18444949388504028, -0.033163730055093765, 0.14569352567195892, -0.49583736062049866, -0.21110700070858002, 0.15810486674308777, -0.058769986033439636, -0.16408158838748932, -0.09215812385082245, 0.04874599725008011, -0.20805993676185608, 0.14326073229312897, -0.24586668610572815, 0.2081661820411682, 0.3910910189151764, 0.2101769894361496, 0.06329858303070068, 0.2211092859506607, 0.17467184364795685, -0.24023491144180298, 0.12684547901153564, 0.21461322903633118, -0.14019927382469177, -0.11495979875326157, 0.04827999323606491, 0.5598402619361877, -0.15318337082862854, 0.2167758345603943, -0.14071010053157806, 0.268473356962204, -0.2937757670879364, 0.09084060043096542, 0.025480270385742188, -0.2830698490142822, 0.15568047761917114, 0.04813036322593689, -0.4040031135082245, 0.13330134749412537, 0.25923991203308105, -0.3625730574131012, 0.2833123803138733, -0.129144549369812, 0.24823567271232605, -0.278636634349823, 0.24700605869293213, -0.4878399074077606, 0.1648263931274414, -0.334155410528183, 0.3877408504486084, 0.34730616211891174, -0.16754476726055145, 0.08258756995201111, -0.054643139243125916, -0.1160929799079895, -0.47835126519203186, 0.011462979950010777, 0.3727220892906189, -0.0630546510219574, 0.19914627075195312, 0.06489706039428711, -0.22714455425739288, 0.199710413813591, -0.36762535572052, -0.05535729229450226, 0.43351414799690247, 0.09339456260204315, 0.16822606325149536, -0.40183892846107483, 0.33331164717674255, -0.2518875300884247, -0.11954803764820099, 0.15752121806144714, -0.03715941309928894, -0.05753824859857559, 0.2581934928894043, -0.14176028966903687, -0.3224138915538788, 0.009358012117445469, -0.062252894043922424, 0.25042691826820374, 0.0763619914650917, 0.18978038430213928, -0.30168119072914124, 0.05557478591799736, -0.26158785820007324, 0.6974025368690491, -0.20007991790771484, -0.04450231418013573, 0.13727422058582306, 0.1659565567970276, -0.0169441569596529, -0.33785173296928406, 0.17858968675136566, 0.03970392793416977, -0.22005349397659302, 0.22658950090408325, -0.3856572210788727, -0.023820335045456886, 0.14169171452522278, -0.11175315827131271, -0.0157062616199255, -0.3115079402923584, 0.11779072135686874, -0.06991845369338989, -0.06232396513223648, -0.019971903413534164, 0.24064357578754425, -0.13237085938453674, 0.03545989841222763, 0.06245115399360657, -0.14270536601543427, -0.12948749959468842, 0.023923669010400772, 0.24010515213012695, -0.06155991554260254, -0.14586211740970612, -0.057208504527807236, 0.25276586413383484, 0.2503036558628082, 0.3969021141529083, -0.4353594183921814, -0.015712961554527283, -0.0709858238697052, -0.19405733048915863, 0.15882588922977448, 0.03582869842648506, -0.004596018232405186, 0.09218120574951172, -0.19777309894561768, 0.028216147795319557, 0.1977548599243164, -0.3596183955669403, -0.09440344572067261, -0.15937969088554382, 0.24182972311973572, 0.1061050221323967, -0.22516871988773346, -6.606103852391243e-06, -0.21948114037513733, -0.04138723388314247, 0.009383602067828178, 0.1182880699634552, 0.13646472990512848, -0.006518360693007708, 0.05734911561012268, 0.2489277422428131, -0.18113826215267181, -0.14392441511154175, 0.09483850002288818, -0.018268883228302002, 0.13828648626804352, 0.13381201028823853, 0.04138021171092987, -0.15136606991291046, 0.0783328041434288, -0.11148680001497269, 0.223054900765419, -0.11665374785661697, -0.10529974102973938, 0.05792922154068947, 0.17078794538974762, -0.13238899409770966, 0.14611728489398956, 0.21654923260211945, -0.12358587235212326, -0.07605680078268051, 0.15059399604797363, -0.4989017844200134, -0.32681798934936523, -0.6463155746459961, -0.07181820273399353, 0.23390963673591614, 0.012451828457415104, 0.05190609395503998, -0.23520885407924652, 0.2928994596004486, -0.12097575515508652, 0.06999201327562332, -0.11603216081857681, -0.1930762082338333, -0.021354379132390022, 0.020145637914538383, -0.16054274141788483, -0.33363935351371765, -0.1095428466796875, 0.05299192667007446, -0.01952233910560608, 0.0033098154235631227, -0.10294227302074432, -0.1543654203414917, 0.1477859914302826, 0.17660628259181976, 0.10800012946128845, -0.36647215485572815, -0.04934795945882797, -0.11461836099624634, -0.13462764024734497, -0.03034219518303871, -0.06615950912237167, 0.256204217672348, -0.06050904840230942, 0.11835717409849167, -0.04461302235722542, -0.0020375018939375877, 0.17448705434799194, 0.31442007422447205, -0.006038376595824957, -0.09036100655794144, -0.011610204353928566, -0.18502525985240936, 0.02613697201013565, 0.03149187192320824, -0.16257579624652863, 0.15963269770145416, 0.1343986541032791, -0.18154114484786987, 0.2553243637084961, 0.05571823567152023, 0.03122425265610218, 0.3924156725406647, 0.12280406057834625, 0.12899400293827057, -0.2539002001285553, -0.11064337193965912, 0.03409014269709587, 0.16812340915203094, -0.00530907092615962, 0.06531444936990738, -0.0130657609552145, 0.18103960156440735, -0.03919776529073715, 0.08603059500455856, -0.02440980263054371, -0.1817038208246231, 0.11706060916185379, 0.003484585089609027, -0.07040280848741531, -0.0017057490767911077, 0.06518862396478653, -0.02694590389728546, -0.033339858055114746, -0.2930331826210022, 0.04047786071896553, 0.2779560983181, -0.1377255916595459, 0.06001077592372894, -0.021441111341118813, 0.08928387612104416, 0.044872112572193146, -0.24265295267105103, 0.20412075519561768, -0.047129057347774506, -0.35368651151657104, 0.12881988286972046, -0.12460232526063919, -0.2665669023990631, -0.002838429296389222, 0.12095846235752106, 0.02710462547838688, -0.013531184755265713, 0.1694640964269638, -0.12104740738868713, 0.04663100466132164, 0.17716528475284576, -0.16871365904808044, -0.10135998576879501, -0.03451312333345413, -0.17448312044143677, 0.061079222708940506, -0.005415342282503843, -0.0927136093378067, -0.1666688323020935, 0.06999066472053528, 0.04274970293045044, 0.1607341468334198, 0.1621139943599701, 0.32838577032089233, 0.1512841433286667, 0.0536404550075531, -0.08879180252552032, -0.281197726726532, -0.1348913609981537, 0.1780805140733719, 0.19276583194732666, -0.0775829553604126, 0.014171844348311424, -0.2446971982717514, -0.1121482104063034, 0.09464370459318161, -0.07953757792711258, 0.2531847655773163, 0.28187984228134155, 0.458261102437973, -0.11478202790021896, -0.090135857462883, -0.4847332239151001, -0.05547495558857918, 0.13197968900203705, 0.3682435154914856, 0.2803941071033478, 0.30664369463920593, 0.05609507858753204, -0.09263883531093597, -0.05322550609707832, -0.14367924630641937, -0.41267040371894836, -0.2656729221343994, -0.006796188186854124, 0.09537613391876221, 0.2696535885334015, 0.24399881064891815, -0.1502423733472824, 0.5294950008392334, 0.2957601547241211, 0.31271710991859436, 0.05971621349453926, -0.4498291015625, -0.1483967900276184, -0.19840644299983978, 0.3579692840576172, -0.3290896713733673, -0.18333680927753448, 0.4249107241630554, -0.08555612713098526, -0.20975424349308014, 0.38686829805374146, -0.3946969211101532, -0.06114831194281578, 0.37723052501678467, 0.3484477996826172, 0.0024133403785526752, -0.25557824969291687, -0.13305415213108063, -0.15681438148021698, 0.49401187896728516, 0.33946341276168823, 0.2684541642665863, -0.2909432351589203, -0.09827030450105667, 0.13535602390766144, -0.12794716656208038, -0.16067849099636078, -0.09568072855472565, 0.5058017373085022, -0.056071095168590546, -0.18722939491271973, 0.0020952296908944845, -0.15866252779960632, -0.04030761495232582, -0.022945968434214592, 0.16626974940299988, -0.15349549055099487, -0.2455040067434311, -0.10711940377950668, 0.08079559355974197, 0.13011616468429565, -0.23260153830051422, 0.15991495549678802, 0.12002792209386826, -0.3215287923812866, 0.10381066799163818, 0.23942072689533234, -0.3793492615222931, -0.014971371740102768, 0.2047942578792572, 0.29527750611305237, -0.09630848467350006, 0.028549861162900925, -0.08131499588489532, 0.010946158319711685, 0.15562649071216583, 0.3663228154182434, 0.2536220848560333, -0.301234632730484, 0.06913787126541138, 0.1745857149362564, 0.12186398357152939, -0.2694866359233856, 0.1257820576429367, 0.18625161051750183, -0.22002235054969788, 0.02682158537209034, -0.07893983274698257, -0.4137609899044037, -0.7683736681938171, -0.4355931878089905, -0.16678853332996368, 0.03000187873840332, 0.1864263117313385, 0.12327007949352264, 0.13571089506149292, -0.05187990888953209, 0.17609675228595734, 0.050419241189956665, 0.12153609097003937, 0.1990097016096115, -0.1826637089252472, 0.03971533477306366, -0.1366870403289795, -0.41215479373931885, -0.4229450821876526, 0.1959361881017685, 0.20262497663497925, 0.19481401145458221, 0.15866847336292267, -0.2091880589723587, -0.42482107877731323, -0.31774231791496277, -0.44263553619384766, 0.30250677466392517, 0.18314076960086823, 0.08464627712965012, -0.10192856937646866, 0.4093605577945709, 0.3801809549331665, 0.11853901296854019, -0.3618023097515106, -0.4573732912540436, -0.3410406708717346, 0.14000797271728516, -0.4956839978694916, -0.3626013398170471, 0.10743964463472366, 0.026000266894698143, -0.15573707222938538, -0.18136493861675262, 0.09370021522045135, -0.07107239961624146, 0.010449613444507122, -0.11551590263843536, -0.1386035531759262, -0.059541527181863785, -0.2415343075990677, -0.10783693194389343, 0.05512656271457672, -0.15238189697265625, 0.024573612958192825, -0.18342351913452148, 0.00683557940647006, -0.25563591718673706, 0.19603244960308075, 0.09251720458269119, -0.008255232125520706, 0.1977236568927765, -0.26965123414993286, 0.037308499217033386, -0.012850841507315636, -0.36576852202415466, -0.032787833362817764, -0.15194177627563477, -0.09946292638778687, -0.045579906553030014, 0.18901100754737854, 0.07396601140499115, 0.1799224317073822, 0.046125225722789764, 0.049556929618120193, 0.16787421703338623, 0.0333879217505455, -0.06795365363359451, 0.14800924062728882, 0.04448815807700157, -0.056230831891298294, -0.02932087332010269, -0.061086561530828476, 0.3363991379737854, -0.3093303442001343, -0.16763275861740112, 0.6428816914558411, 0.36763259768486023, -0.17816521227359772, 0.714198112487793, -0.6259254813194275, 1.0558280944824219, -0.975875973701477, -1.309982180595398, -0.28287333250045776, 0.8292495012283325, 0.3303033709526062, -0.1347406655550003, -0.1174142137169838, 0.1536976397037506, 0.1781778633594513, 0.3116743266582489, 0.010690402239561081, 0.07217789441347122, -0.05991363897919655, 0.04303639382123947, -0.14156648516654968, -0.22505711019039154, 0.14500612020492554, 0.22050093114376068, 0.17489886283874512, 0.21704542636871338, 0.12299300730228424, 0.11731217801570892, -0.34821295738220215, 0.2174617350101471, 0.06603100895881653, -0.44234922528266907, -0.23984453082084656, 0.444502592086792, 0.35073837637901306, -0.5661847591400146, 0.38184985518455505, -0.29168596863746643, -0.24675585329532623, 0.029558932408690453, 0.13796783983707428, -0.1621732860803604, -0.2659037113189697, 0.05339328199625015, 0.24021686613559723, -0.4586891531944275, -0.5815805792808533, 0.19573169946670532, -0.1261674016714096, -0.4971175789833069, -0.16045884788036346, -0.09157109260559082, -0.22834375500679016, -0.15559959411621094, 0.07912469655275345, 0.04241090640425682, -0.008365574292838573, -0.24359402060508728, -0.22796054184436798, 0.1192471832036972, -0.1450323611497879, -0.27536559104919434, 0.13270139694213867, -0.07097049057483673, 0.27858251333236694, -0.01670619286596775, 0.08262376487255096, 0.5262689590454102, 0.18161077797412872, 0.001378418761305511, -0.36168357729911804, 0.04854504019021988, 0.24927815794944763, -0.26523929834365845, -0.16326740384101868, 0.21660810708999634, -0.28041768074035645, 0.08107496052980423, -0.34209370613098145, 0.2666480243206024, -0.19518616795539856, 0.0586005374789238, -0.24478426575660706, -0.7623680830001831, -0.06681342422962189, 0.17951719462871552, -0.5782114267349243, -0.33624014258384705, 0.3864675760269165, -0.3413965404033661, 0.3607098162174225, -0.7820742130279541, 0.2867789566516876, -0.3086869418621063, 0.16650426387786865, 0.24525651335716248, -0.20409776270389557, -0.3153816759586334, -0.06220977380871773, -0.23693495988845825, -0.06231803447008133, -0.2049088180065155, 0.2658490240573883, 0.002809483092278242, -0.05402986705303192, -0.25294288992881775, -0.18181081116199493, 0.24744242429733276, 0.19713647663593292, 0.04019313305616379, -0.2961101531982422, -0.11465630680322647, -0.05494982749223709, 0.30340468883514404, -0.3897797465324402, -0.8029165863990784, -0.5689291954040527, 0.30102628469467163, 0.44918328523635864, 0.2531970143318176, -0.32086560130119324, -0.10315550118684769, 0.24951007962226868, 0.4556823968887329, -0.11259446293115616, 0.2059309482574463, -0.3085406720638275, 0.43597057461738586, -0.15154267847537994, 0.14081142842769623, 0.24928322434425354, 0.17457027733325958, 0.4292888939380646, -0.09634895622730255, -0.3453536629676819, -0.1482984572649002, -0.17596469819545746, -0.12138351798057556, 0.14353176951408386, -1.4546632766723633, -0.7452657222747803, -0.14620858430862427, -0.30863991379737854, 0.36455079913139343, -0.4183579683303833, -0.3526860177516937, -0.10868389904499054, 0.24971763789653778, 0.031520865857601166, -0.3265278935432434, -0.01598377153277397, 0.347233384847641, 0.0881805419921875, -0.03075224906206131, -0.17227938771247864, -0.1481098085641861, -0.019023483619093895, -0.11593366414308548, 0.3014306128025055, 0.17629408836364746, -0.131244957447052, 0.22926290333271027, 0.4541092813014984, -0.16149917244911194, -0.26631900668144226, 0.22006218135356903, -0.03396504372358322, 0.41537293791770935, 0.26167336106300354, 0.27926746010780334, -0.056558143347501755, -0.10019025206565857, -0.20589177310466766, -0.0722188949584961, -0.1614110916852951, 0.2284725308418274, -0.3066495656967163, -0.218916654586792, 0.07336027920246124, -0.0409025102853775, -0.10790456086397171, 0.19717203080654144, 0.22820112109184265, 0.36030080914497375, 0.2635571360588074, -0.15700648725032806, -0.15983034670352936, 0.05552097409963608, -0.3805712163448334, -0.10320696234703064, 0.12445396929979324, -0.02728630043566227, 0.15606604516506195, 0.024053946137428284, -0.047243230044841766, 0.1260860562324524, -0.0362374410033226, -0.05068911984562874, -0.04255278781056404, 0.10980470478534698, 0.14542636275291443, -0.008105655200779438, 0.23580831289291382, -0.1138908863067627, 0.07594355940818787, 0.06265713274478912, -0.2535163462162018, 0.012257194146513939, 0.3741057813167572, 0.3100307583808899, 0.23767311871051788, -0.32144683599472046, 0.13517285883426666, 0.11876603960990906, -0.1366422176361084, 0.19442816078662872, -0.02433062344789505, -0.22325734794139862, 0.32625797390937805, -0.04050523042678833, -0.19953177869319916, 0.17310969531536102, 0.18441326916217804, -0.11124304682016373, 0.09758260101079941, -0.012084182351827621, -0.28320106863975525, 0.01605021022260189, -0.20402926206588745, 0.37073469161987305, -0.19279514253139496, -0.17658968269824982, 0.0720226913690567, 0.2357887327671051, 0.25206243991851807, 0.059900395572185516, 0.11706974357366562, -0.014686782844364643, -0.23730827867984772, -0.30236318707466125, -0.23961594700813293, 0.09150490909814835, 0.1643092781305313, 0.14342206716537476, -0.43137308955192566, -0.16469568014144897, -0.02718473970890045, 0.0773799791932106, -0.2591248154640198, 0.04135078191757202, 0.2964324355125427, -0.07375787943601608, -0.034413911402225494, 0.2177623063325882, -0.2683688700199127, -0.10497424751520157, 0.24079598486423492, -0.05828655883669853, -0.0484793558716774, 0.02931673265993595, -0.19529396295547485, -0.13067132234573364, 0.09518503397703171, 0.1819477677345276, 0.24274224042892456, -0.35249531269073486, 0.02819889597594738, 0.2314298152923584, -0.09702648967504501, -0.07848314940929413, 0.12328799068927765, -0.0081558208912611, -0.027988439425826073, -0.09608215093612671, 0.24693691730499268, -0.12767645716667175, 0.0012938040308654308, -0.047940533608198166, -0.08679796755313873, -0.013028590008616447, 0.1589910238981247, -0.045089684426784515, 0.23123714327812195, 0.19758538901805878, 0.13271643221378326, 0.01842554472386837, 0.13173477351665497, -0.17075011134147644, -0.04993658885359764, -0.025419436395168304, 0.2833457887172699, -0.26483678817749023, -0.05529043450951576, -0.08300251513719559, 0.061524081975221634, 0.11854884028434753, 0.03649980202317238, 0.12016203254461288, -0.030946940183639526, 0.042819488793611526, 0.11157543957233429, -0.14957864582538605, 0.08767734467983246, -0.11417661607265472, -0.0795508548617363, 0.1934058666229248, 0.04684161767363548, 0.11706435680389404, 0.00012184359366074204, -0.044817786663770676, 0.030320102348923683, 0.2061324119567871, 0.05213622748851776, -0.18962718546390533, -0.056571487337350845, -0.030808761715888977, 0.01089734211564064, -0.11983761191368103, -0.032460715621709824, -0.04098609834909439, 0.036340296268463135, 0.0527837797999382, 0.25987088680267334, 0.0019166602287441492, 0.25165122747421265, 0.11926446110010147, -0.13804714381694794, 0.05428760498762131, -0.18104538321495056, -0.26985177397727966, -0.28607550263404846, 0.22097939252853394, -0.25253596901893616, -0.18657930195331573, 0.14581698179244995, 0.014576436951756477, -0.16603751480579376, 0.06712742894887924, 0.13450846076011658, 0.24905048310756683, -0.23589572310447693, -0.10549450665712357, -0.3775796890258789, 0.37785080075263977, 0.1615181565284729, 0.21641650795936584, 0.04951223358511925, -0.010552773252129555, -0.2954398989677429, -0.12999852001667023, 0.1164076030254364, 0.21889153122901917, -0.2634272575378418, -0.09334047138690948, -0.19246074557304382, -0.06867323070764542, -0.07262253016233444, -0.01712723821401596, 0.1870579719543457, -0.11021729558706284, -0.2758852243423462, -0.03324560821056366, -0.057055357843637466, 0.002605808200314641, 0.025356225669384003, 0.07405541092157364, 0.14709332585334778, -0.06254158169031143, -0.16575567424297333, -0.17663456499576569, 0.3209422826766968, -0.06149907782673836, 0.20430780947208405, -0.21583646535873413, -0.21260561048984528, -0.005930408835411072, 0.01743738353252411, -0.2806957960128784, 0.1382472962141037, 0.0987846776843071, -0.16489911079406738, 0.08978595584630966, 0.23890899121761322, 0.22213110327720642, 0.13054382801055908, 0.2055046111345291, -0.3243005871772766, -0.16676229238510132, 0.24840590357780457, 0.12221358716487885, 0.16811484098434448, -0.25465816259384155, 0.11908897757530212, 0.020778700709342957, -0.3539811372756958, 0.030300553888082504, -0.07527786493301392, -0.06531547755002975, 0.30329328775405884, 0.1586897075176239, -0.11671347171068192, 0.026154696941375732, -0.05774117261171341, 0.04562101140618324, 0.2445901781320572, -0.04137720167636871, -0.33555543422698975, -0.19696198403835297, -0.22695165872573853, 0.3283868134021759, -0.028456466272473335, 0.07950799912214279, 0.19297891855239868, 0.251371830701828, -0.23381781578063965, -0.032699618488550186, 0.20130956172943115, 0.14150628447532654, -0.1825537383556366, 0.04039616882801056, 0.030966538935899734, 0.19677385687828064, 0.07725252956151962, 0.06978520005941391, -0.036448489874601364, -0.0946068987250328, -0.046893976628780365, -0.29409459233283997, -0.1393522024154663, 0.1305987536907196, -0.17555402219295502, 0.056424275040626526, -0.1424638330936432, -0.038673724979162216, -0.4896868169307709, -0.6280003190040588, -0.7136829495429993, 0.15379133820533752, 0.15432612597942352, -0.013298840261995792, 0.21090026199817657, 0.042568303644657135, -0.11549548804759979, -0.16178762912750244, -0.21374474465847015, -0.00986478291451931, -0.2417422980070114, -0.05142650380730629, 0.05212855339050293, 0.16081693768501282, -0.1762704998254776, -0.180209681391716, 0.13321001827716827, 0.03248554840683937, -0.06292244046926498, 0.07708164304494858, 0.24948757886886597, -0.055649422109127045, 0.3731021285057068, -0.17391739785671234, -0.23436875641345978, -0.4611372947692871, -0.2659047245979309, 0.02544694021344185, -0.2596745789051056, -0.04566069319844246, 0.027216261252760887, -0.1932586133480072, 0.17008757591247559, 0.21010716259479523, -0.26231345534324646, -0.4600464701652527, -0.6197314858436584, 0.07191961258649826, 0.36928194761276245, 0.2924427092075348, -0.0435323603451252, 0.08643605560064316, 0.06527630239725113, 0.16444599628448486, -0.5325813293457031, -0.4521288573741913, 0.2649756073951721, 0.10471194982528687, -0.1608707308769226, -0.051844220608472824, -0.9274993538856506, -0.6609659790992737, -0.21024882793426514, -0.0014533569337800145, -0.04936247691512108, 0.007346856873482466, 0.05333373323082924, 0.234285369515419, -0.2761349380016327, 0.07946308702230453, 0.1585732251405716, 0.11824516206979752, -0.12150220572948456, -0.3464430570602417, 0.23453809320926666, -0.11140447109937668, -0.2867441475391388, 0.32600289583206177, 0.024333149194717407, -0.13477009534835815, -0.09417302161455154, -0.29438382387161255, -0.4870995879173279, 0.22082246840000153, 0.27949967980384827, 0.09266605228185654, 0.26504263281822205, 0.04920932650566101, -0.02937972918152809, -0.041121143847703934, -0.16004078090190887, 0.10607746243476868, 0.01692468300461769, -0.059319302439689636, 0.018520262092351913, 0.2688668668270111, 0.059342123568058014, -0.19742849469184875, -0.034609198570251465, 0.13371159136295319, -0.1752648800611496, -0.17889726161956787, -0.0026757624000310898, -0.14730152487754822, 0.0911017507314682, -0.06055402010679245, 0.09423410147428513, -0.018997477367520332, -0.06434382498264313, 0.04628092795610428, -0.2036912739276886, 0.03851678594946861, 0.0781182125210762, -0.19948582351207733, 0.02911197580397129, 0.024828696623444557, 0.21096011996269226, 0.09959254413843155, 0.11192494630813599, -0.30157455801963806, 0.06880638748407364, 0.2946222126483917, -0.18148012459278107, -0.0922907218337059, 0.11062642931938171, 0.09053985029459, -0.1233629658818245, -0.13493797183036804, 0.21410241723060608, 0.11791989952325821, -0.12137213349342346, -0.05479387566447258, 0.08939969539642334, 0.29042789340019226, 0.06644224375486374, 0.013481073081493378, 0.018194863572716713, 0.06684193015098572, 0.060129981487989426, -0.21525610983371735, -0.19327250123023987, 0.08119156211614609, 0.4123982787132263, 0.21200962364673615, -0.11770432442426682, -0.13030895590782166, 0.0779925137758255, -0.08818401396274567, -0.4220546782016754, 0.001614422188140452, -0.22628512978553772, -0.5338265299797058, 0.24398869276046753, 0.04174746945500374, 0.05938524007797241, 0.20511747896671295, 0.061328329145908356, -0.2631807327270508, 0.23640307784080505, 0.14669199287891388, 0.04863477870821953, -0.01803329959511757, 0.0009620740311220288, 0.14706872403621674, -0.2501504123210907, -0.1763961762189865, -0.11318256705999374, 0.5435887575149536, 0.36678454279899597, 0.12059181928634644, 0.27053549885749817, 0.0802006796002388, 0.25392043590545654, -0.045690931379795074, 0.046848561614751816, 0.09351387619972229, 0.03395383432507515, -0.15646600723266602, -0.04345301538705826, 0.05451972037553787, -0.07660864293575287, 0.16758179664611816, 0.12110539525747299, -0.20072314143180847, -0.1550678163766861, -1.3805687427520752, 0.9955335259437561, -0.5839000940322876, -0.2879301607608795, -0.34687089920043945, -0.5297398567199707, -0.5156137943267822, 0.36474642157554626, -1.2258299589157104, 0.5582825541496277, 0.7495821118354797, 0.7574285268783569, 0.009831714443862438, -0.5726634860038757, 0.9590093493461609, 0.09520256519317627, -0.07013814151287079, 0.42036110162734985, -0.883628249168396, -0.0018884743331000209, 0.10280576348304749, -0.3001478910446167, 0.23497414588928223, -0.01431784313172102, -0.11843240261077881, 0.031836166977882385, 0.0015728463185951114, -0.44312596321105957, 0.017730137333273888, 0.07906948775053024, 0.18332482874393463, 0.2005695402622223, -0.021922389045357704, 0.05560287460684776, 0.19594033062458038, 0.09532713145017624, 0.5443760752677917, -0.20772503316402435, 0.24432280659675598, -0.25291216373443604, 0.1166684553027153, -0.22519630193710327, -0.09911400079727173, 0.20982329547405243, 0.089820496737957, -0.2938930094242096, 0.11137979477643967, 0.02210342511534691, 0.09958003461360931, -0.50846928358078, 0.211952805519104, 0.22539393603801727, 0.09526446461677551, 0.43140557408332825, 0.15190665423870087, 0.3154734969139099, 0.12730957567691803, -0.14129549264907837, 0.14636185765266418, 0.2736632525920868, 0.00035578644019551575, 0.035136230289936066, 0.15251517295837402, 0.18734148144721985, -0.4533326327800751, 0.005516732577234507, 0.007826517336070538, -0.17745265364646912, -0.38733866810798645, 0.05522122234106064, -0.5079954862594604, 0.5276307463645935, 0.13777229189872742, -0.19022125005722046, 0.04109887778759003, -0.13126102089881897, -0.10857012867927551, -0.043675705790519714, 0.07390230894088745, 0.31978940963745117, -0.08635486662387848, -0.025455156341195107, -0.26668012142181396, -0.1298760175704956, 0.014613652601838112, 0.24342279136180878, -0.16636532545089722, 0.28028634190559387, 0.15752948820590973, -0.23622825741767883, -0.2679916322231293, 0.0049054743722081184, -0.18819983303546906, 0.01329047791659832, 0.09568510949611664, 0.3117297887802124, 0.08110977709293365, -0.1460215002298355, 0.16272778809070587, 0.33679232001304626, 0.06428075581789017, 0.19063018262386322, 0.07528193295001984, -0.044932086020708084, 0.08444875478744507, -0.32113856077194214, -0.22268348932266235, -0.0634859949350357, -0.3220137357711792, 0.27649009227752686, 0.04217973351478577, 0.04830405116081238, 0.41282668709754944, 0.21887893974781036, 0.06778945028781891, -0.030699564144015312, 0.15993531048297882, 0.0396275669336319, 0.5087615847587585, 0.05800148844718933, -0.06363074481487274, 0.2780255377292633, 0.047208912670612335, -0.00844520889222622, -0.29866114258766174, 0.25024375319480896, -0.31284427642822266, -0.1126304566860199, -0.23019444942474365, 0.5152711868286133, -0.022782711312174797, 0.18932346999645233, 0.06517291069030762, -0.27736562490463257, -0.0028360660653561354, -0.02149875834584236, 0.5374176502227783, 0.022365886718034744, -0.09099791198968887, 0.001586494967341423, 0.06449870765209198, -0.3703649640083313, 0.25388258695602417, -0.03460555896162987, -0.627356231212616, 0.10940170288085938, -0.22521203756332397, 0.23218762874603271, -0.19363151490688324, 0.15914668142795563, -0.051312047988176346, -0.1384485810995102, -0.4987765848636627, 0.24042034149169922, -0.02638588286936283, -0.1201547160744667, 0.047542259097099304, 0.32267600297927856, -0.0028323919977992773, 0.30239084362983704, 0.06141173839569092, -0.09142497181892395, -0.13660885393619537, 0.09304217249155045, -0.27811214327812195, -0.2623523473739624, 0.21075858175754547, 0.11892715096473694, -0.3042218089103699, 0.08228842914104462, 0.19835330545902252, -0.016052529215812683, 0.11081588268280029, 0.08839249610900879, -0.03824090212583542, 0.13866345584392548, -0.0038890137802809477, 0.1575373262166977, 0.23050585389137268, 0.1461993157863617, 0.08120168000459671, 0.1973312497138977, 0.04619158059358597, 0.19738999009132385, -0.16333019733428955, -0.23639309406280518, 0.026629051193594933, 0.12378288060426712, 0.07352539151906967, 0.11270333081483841, 0.20362108945846558, -0.07183166593313217, -0.08136685937643051, -0.04456775262951851, 0.04400040954351425, -0.05474397912621498, -0.13517451286315918, -0.17196108400821686, 0.016268881037831306, 0.2236671894788742, 0.1858290731906891, -0.16120555996894836, -0.19914096593856812, -0.26184433698654175, 0.0021222694776952267, -0.3039570152759552, 0.40058645606040955, -0.07988584041595459, 0.014804158359766006, 0.017663858830928802, -0.10488822311162949, -0.01843603514134884, 0.17816022038459778, 0.01311549637466669, -0.25970903038978577, 0.04036905616521835, -0.11039633303880692, 0.2143770456314087, -0.0014203552855178714, -0.17058387398719788, -0.13200382888317108, -0.3130205273628235, -0.01384743582457304, 0.11027365177869797, 0.18574941158294678, 0.06123895198106766, -0.008631103672087193, 0.08047772198915482, -0.25930556654930115, 0.10365953296422958, 0.06268924474716187, -0.1364307850599289, 0.4175504744052887, -0.3401765823364258, 0.06632266193628311, -0.024842234328389168, 0.05948890373110771, 0.12803278863430023, 0.15956264734268188, -0.07842530310153961, 0.14777258038520813, -0.2965659499168396, -0.09567379951477051, 0.2631467878818512, 0.04736729711294174, -0.1216306984424591, -0.1972951591014862, -0.1386886090040207, 0.18789814412593842, -0.062453947961330414, -0.19344717264175415, 0.16299758851528168, -0.18339169025421143, 0.07265876978635788, 0.4340842366218567, -0.1707029491662979, 0.003186774207279086, 0.10539522022008896, -0.14703796803951263, -0.14575046300888062, 0.15151306986808777, -0.038344353437423706, -0.060613662004470825, 0.24559061229228973, 0.048657312989234924, 0.07175952941179276, -0.20632502436637878, 0.18347109854221344, 0.1874908059835434, -0.29972541332244873, -0.016080427914857864, -0.006744431331753731, 0.40155917406082153, -0.09673851728439331, -0.04073360562324524, 0.08991207182407379, 0.09484902024269104, 0.3242914080619812, -0.4012497365474701, 0.20795170962810516, 0.16188858449459076, 0.0689023807644844, -0.05741086229681969, 0.27650195360183716, -0.03557462990283966, -0.2722329795360565, -0.0782068520784378, -0.310627818107605, -0.34619733691215515, 0.18267221748828888, -0.20836840569972992, 0.09159267693758011, 0.17330749332904816, -0.03605317696928978, -0.2238866686820984, -0.09567990899085999, 0.07655919343233109, -0.13678689301013947, -0.26258134841918945, -0.19753775000572205, 0.018575768917798996, -0.101679228246212, 0.27544236183166504, 0.14117221534252167, 0.17250145971775055, -0.24833537638187408, -0.23106607794761658, -0.28383156657218933, 0.020814334973692894, 0.05142727121710777, -0.15814271569252014, -0.10906662791967392, 0.2131495177745819, 0.04429328069090843, -0.23605743050575256, 0.1940869390964508, 0.0199810191988945, -0.07269766926765442, -0.12480807304382324, 0.10279005020856857, 0.19403459131717682, -0.11241956800222397, -0.029487263411283493, 0.04025175794959068, -0.028336232528090477, -0.15490329265594482, 0.028645966202020645, -0.0037581706419587135, 0.04811645299196243, 0.3597065508365631, -0.08022624254226685, 0.016673734411597252, -0.08539176732301712, -0.06508183479309082, 0.0998770073056221, 0.06820370256900787, 0.13142672181129456, 0.14378060400485992, -0.1949649304151535, -0.06744618713855743, -0.08084230124950409, -0.0549069419503212, -0.24390055239200592, -0.19438064098358154, -0.10110731422901154, -0.07676070928573608, 0.16213834285736084, 0.0955648347735405, -0.029212500900030136, -0.4199680984020233, 0.18318301439285278, 0.1530413180589676, -0.019751466810703278, -0.1253385692834854, -0.08430304378271103, -0.023832254111766815, 0.1730256825685501, -0.1949365735054016, -0.0561830997467041, 0.024462953209877014, 0.062463242560625076, 0.039427150040864944, 0.30245476961135864, 0.13209055364131927, 0.1132759377360344, 0.16491879522800446, 0.09229656308889389, -0.057049527764320374, -0.19684019684791565, -0.12492100149393082, -0.16723144054412842, 0.13207882642745972, 0.059476979076862335, 0.011836015619337559, -0.2757400572299957, 0.050339244306087494, 0.19847992062568665, 0.25185227394104004, -0.2293214052915573, -0.14685676991939545, -0.04732764884829521, -0.0586618036031723, -0.0962923988699913, 0.15940254926681519, -0.2347058802843094, 0.03990694135427475, -0.22585928440093994, -0.16714675724506378, -0.17804504930973053, 0.13350005447864532, 0.04535624012351036, 0.1737183928489685, -0.3688758611679077, 0.08159859478473663, 0.06513930857181549, -0.369411438703537, 0.1548096239566803, -0.08800459653139114, -0.23884814977645874, 0.038657668977975845, 0.11625537276268005, -0.018657803535461426, -0.01191861554980278, 0.11274999380111694, -0.10062175244092941, 0.0813179761171341, -0.04543321579694748, -0.07513132691383362, -0.11609721928834915, -0.05050905793905258, 0.0876738578081131, -0.16946634650230408, 0.12319938093423843, 0.025936510413885117, 0.05790836736559868, 0.04901357367634773, -0.0666637048125267, 0.08082086592912674, -0.010142446495592594, 0.04598183184862137, -0.3573031723499298, -0.5945610404014587, 0.43577927350997925, -0.10134076327085495, 0.10177198052406311, 0.3496042788028717, 0.11814270913600922, -0.11395564675331116, -0.2808704376220703, 0.2772527039051056, -0.2013939619064331, -0.11081051826477051, 0.3263740837574005, 0.23883825540542603, 0.3469100594520569, -0.01114700734615326, -0.09456872195005417, 0.18450723588466644, 0.3971724212169647, 0.17966924607753754, -0.2248988002538681, 0.16229607164859772, -0.0898447185754776, -0.2700080871582031, -0.23543670773506165, -0.05676873400807381, -0.01027392502874136, -0.028062669560313225, 0.2355218380689621, 0.6646134257316589, -0.11995694786310196, -0.03382118418812752, -0.6180734634399414, 0.13921213150024414, 0.257487952709198, 0.15052661299705505, 0.3591788709163666, -0.06318041682243347, 0.1791582554578781, 0.13543859124183655, -0.20603430271148682, -0.06972424685955048, -0.139732226729393, -0.0925198346376419, 0.34525978565216064, 0.018049117177724838, 0.040378183126449585, 0.20906712114810944, -0.26453402638435364, -0.11266433447599411, 0.05813511088490486, 0.2332405149936676, 0.3727649450302124, 0.22094984352588654, 0.014696885831654072, -0.2623302638530731, 0.13540157675743103, -0.32502108812332153, -0.12102716416120529, 0.05186653509736061, 0.20456507802009583, -0.021804967895150185, -0.11390738934278488, 0.056794047355651855, -0.02110772393643856, -0.3250385522842407, -0.001756083220243454, -0.019186412915587425, 0.14530931413173676, 0.10517953336238861, 0.07052849233150482, -0.032013118267059326, 0.40063172578811646, 0.3494831919670105, -0.16888658702373505, 0.3135855495929718, 0.13191330432891846, -0.32208117842674255, -0.349199503660202, -0.1372537910938263, 0.3333618938922882, -0.1444217413663864, 0.12938645482063293, 0.1580660045146942, -0.3754931688308716, -0.04244708642363548, 0.3184100091457367, -0.06921906769275665, -0.03080151416361332, -0.008751449175179005, -0.21940113604068756, 0.017561670392751694, 0.1388416886329651, -0.2458934485912323, -0.03837946429848671, 0.33786073327064514, 0.15339873731136322, -0.1398414969444275, -0.2690231204032898, 0.08841859549283981, 0.017229709774255753, -0.27187323570251465, 0.005418591201305389, 0.1651776134967804, -0.01800294779241085, -0.01100253313779831, -0.23134097456932068, 0.1598486602306366, 0.013703110627830029, -0.4414803683757782, -0.2271464765071869, -0.023313719779253006, 0.14750467240810394, -0.21800296008586884, 0.042485497891902924, -0.0004977061762474477, 0.30831852555274963, -0.19402317702770233, -0.31782278418540955, -0.1209859773516655, 0.060498617589473724, -0.05734678730368614, 0.18392661213874817, -0.03143009543418884, 0.16478900611400604, 0.020767975598573685, 0.025221996009349823, -0.2492799311876297, 0.17121659219264984, -0.10072290152311325, -0.11400706321001053, 0.04949799180030823, 0.1479242891073227, 0.02292112074792385, -0.22782540321350098, -0.01074567623436451, 0.2529120147228241, 0.056874655187129974, -0.06414487957954407, -0.20355342328548431, -0.050606682896614075, -0.24379488825798035, -0.1699988692998886, -0.016757579520344734, -0.06480587273836136, 0.28166937828063965, -0.5283784866333008, -0.1250649243593216, -0.09299791604280472, 0.14578215777873993, 0.14547495543956757, 0.3591639995574951, -0.11064179986715317, 0.16222435235977173, 0.04012436047196388, -0.30436721444129944, 0.08031626045703888, -0.012668119743466377, -0.29043060541152954, 0.35358643531799316, 0.19808286428451538, -0.2592562139034271, 0.1428244709968567, 0.11672373116016388, 0.029484158381819725, -0.08672453463077545, 0.07957582175731659, -0.17126792669296265, -0.09127719700336456, -0.1451748162508011, 0.46218568086624146, -0.0726039931178093, -0.10167102515697479, 0.23050643503665924, 0.08254088461399078, 0.20339202880859375, -0.2659667134284973, -0.003952663391828537, 0.13457812368869781, -0.1441834270954132, 0.14691972732543945, 0.09219422936439514, 0.04731905087828636, -0.07643681019544601, -0.02892889827489853, -0.17616763710975647, -0.15596790611743927, 0.09835875779390335, -0.22993521392345428, 0.03922899067401886, 0.06545095890760422, -0.1255280077457428, 0.5720363855361938, -0.20747865736484528, 0.2456214278936386, -0.23243089020252228, 0.24834893643856049, 0.7476534247398376, 0.741722047328949, -0.5157626867294312, -0.6552983522415161, -0.989709734916687, -0.1399870365858078, 0.7307940721511841, -0.4003582000732422, -0.2636990249156952, 0.4560202956199646, -0.0192301943898201, 0.06677249073982239, 0.27824607491493225, -0.1514795422554016, 0.11539366841316223, -0.01676047034561634, 0.38712406158447266, -0.004851351957768202, -0.5471699833869934, -0.017698945477604866, -0.2818705439567566, -0.017785344272851944, 0.001051588449627161, -0.08706213533878326, 0.1328943371772766, 0.17822371423244476, -0.2554961144924164, -0.462952584028244, -0.0733453556895256, -0.09555651247501373, 0.4102305769920349, -0.06477338075637817, 0.14422674477100372, 0.011585273779928684, -0.16261328756809235, -0.09134945273399353, -0.20634306967258453, 0.014163185842335224, -0.015932079404592514, 0.33292683959007263, 0.3816884756088257, -0.12159603089094162, -0.4409167468547821, -0.0032656060066074133, -0.044432591646909714, -0.3052414655685425, 0.15519867837429047, 0.3625224232673645, 0.3667723536491394, 0.06348080933094025, 0.16323284804821014, 0.43922457098960876, -0.3684811294078827, -0.06967957317829132, -0.0007069199346005917, 0.49820220470428467, -0.49394556879997253, -0.3792351484298706, -0.015619314275681973, 0.1827843189239502, 0.1004786565899849, 0.4003925323486328, 0.34763652086257935, -0.23100347816944122, -0.3031447231769562, -0.139580637216568, -0.20922431349754333, -0.09780067205429077, -0.08457284420728683, -0.17826244235038757, -0.03870546817779541, 0.0439477302134037, 0.05203944817185402, -0.09500326216220856, -0.24393011629581451, 0.014263865537941456, 0.10293736308813095, -0.07256443798542023, 0.15934079885482788, 0.026828594505786896, -0.1855047196149826, 0.30720415711402893, 0.14660266041755676, 0.2597503662109375, 0.27852705121040344, -0.00867032166570425, -0.20696982741355896, 0.18610024452209473, 0.16535742580890656, 0.22519947588443756, -0.26358428597450256, -0.08711493760347366, 0.03893853351473808, -0.21628417074680328, -0.08807370066642761, -0.09546274691820145, 0.3068658709526062, 0.10335510224103928, -0.15408749878406525, 0.31420740485191345, 0.20406176149845123, 0.11527273803949356, -0.17157712578773499, 0.3419354259967804, 0.08000658452510834, 0.06540874391794205, 0.22954683005809784, -0.24683436751365662, 0.10555066168308258, -0.22734348475933075, -0.27346840500831604, -0.34101009368896484, -0.14413262903690338, -0.08693384379148483, 0.25029048323631287, 0.10723742097616196, -0.16316846013069153, -0.06476633250713348, -0.1987447440624237, -0.1801740527153015, 0.1546461433172226, -0.11632353067398071, 0.37680789828300476, -0.41108888387680054, -0.6581289768218994, -0.21416935324668884, 0.04725227504968643, -0.031289175152778625, -0.07210150361061096, -0.34319308400154114, -0.07514866441488266, 0.2219609022140503, 0.4085381031036377, 0.0040718973614275455, 0.19853225350379944, 0.37541642785072327, -0.13915690779685974, 0.4481547176837921, 0.26652368903160095, 0.26193588972091675, -0.24089013040065765, -0.051157396286726, -0.1486867517232895, -0.05771169438958168, 0.19887058436870575, -0.024610955268144608, -0.3777845501899719, -0.3173367381095886, -0.00381608703173697, 0.11334944516420364, 0.23911090195178986, -0.4230252504348755, 0.002596229314804077, -0.07740374654531479, 0.1886603832244873, 0.10450957715511322, -0.09065401554107666, 0.11760134994983673, -0.21242965757846832, -0.3295663297176361, -0.159403994679451, 0.31098610162734985, 0.05608341470360756, -0.20702986419200897, -0.02787538431584835, 0.1512041538953781, -0.18758243322372437, -0.11470862478017807, 0.33637142181396484, 0.1769440770149231, 0.19816642999649048, -0.32116714119911194, 0.21910308301448822, 0.506984531879425, -0.18693424761295319, 0.024595364928245544, 0.19577516615390778, -0.10853961855173111, -0.06401368230581284, 0.30645108222961426, -0.05342862382531166, -0.17876924574375153, -0.10210911929607391, -0.43777909874916077, 0.04992572218179703, 0.11966510117053986, -0.296296626329422, -0.1250675618648529, -0.24957160651683807, 0.31329208612442017, -0.09348250180482864, -0.07732316851615906, 0.14374512434005737, 0.00577363558113575, 0.33882585167884827, 0.02176116593182087, 0.1239827498793602, -0.10619919747114182, -0.24995991587638855, 0.12514734268188477, 0.15420258045196533, -0.7448544502258301, 0.07680156081914902, 0.17679964005947113, 0.053196027874946594, -0.12003713101148605, 0.03883586451411247, -0.08240465074777603, -0.04683227092027664, -0.10613986104726791, 0.20531530678272247, -0.02168985828757286, 0.02514185942709446, -0.033755991607904434, -0.13297715783119202, -0.038244761526584625, -0.01553165353834629, -0.024250689893960953, 0.05913617089390755, 0.11128076910972595, -0.17744222283363342, -0.06940553337335587, -0.04000401124358177, -0.09250093251466751, 0.09793149679899216, -0.18915925920009613, -0.13784600794315338, 0.04669073224067688, -0.3533184826374054, 0.0799536406993866, -0.17604118585586548, 0.13381047546863556, 0.04417296499013901, 0.030408795922994614, -0.029044685885310173, 0.21291205286979675, 0.17918597161769867, 0.18427829444408417, -0.03197234869003296, -0.20017898082733154, 0.04806971177458763, 0.05571386590600014, 0.25985202193260193, -0.07639209926128387, -0.7092546820640564, -0.3397035002708435, -0.4930466115474701, -0.09449199587106705, -0.46261483430862427, -0.08194481581449509, 0.12604011595249176, 0.12679465115070343, 0.05680771917104721, 0.1864953488111496, 0.4898182451725006, -0.25888869166374207, -0.2623310089111328, 0.3039023280143738, 0.033367376774549484, -0.08768771588802338, 0.007619640789926052, 0.0002802714006975293, -0.0942745953798294, -0.7597723603248596, -0.21408526599407196, -0.14554505050182343, -0.1664472073316574, -0.015486923977732658, 0.09258372336626053, 0.0213141068816185, 0.21665292978286743, 0.03480417653918266, -0.18904437124729156, -0.07148023694753647, 0.18950948119163513, 0.15812361240386963, 0.0018049010541290045, -0.23605576157569885, -0.038702573627233505, 0.026515474542975426, 0.018736964091658592, -0.20593276619911194, -0.10590239614248276, -0.2184828668832779, 0.3088437616825104, -0.13181202113628387, -0.12969964742660522, -0.19499951601028442, -0.029984604567289352, 0.0378463938832283, 0.07068581134080887, 0.21589557826519012, 0.008364188484847546, 0.003609592095017433, 0.13853459060192108, -0.01910150609910488, -0.11646870523691177, -0.23105467855930328, 0.14220531284809113, 0.2367205023765564, -0.2960863411426544, 0.02105201594531536, -0.0521172471344471, 0.289432168006897, -0.1818893402814865, 0.1759738326072693, 0.10202275961637497, -0.06486012786626816, -0.09612490236759186, 0.04102759063243866, -0.1380268782377243, -0.042183730751276016, 0.04193192347884178, -0.058248404413461685, 0.14781831204891205, -0.2801603078842163, 0.1187753975391388, 0.14690063893795013, 0.03478701040148735, 0.1294400990009308, 0.058572422713041306, 0.3475920557975769, 0.08589589595794678, -0.04468974843621254, 0.0011963668512180448, -0.06881080567836761, 0.01530690211802721, -0.36599481105804443, -0.16505305469036102, 0.11750897765159607, -0.3714146912097931, -0.08121603727340698, -0.0480976365506649, -0.06943567842245102, -0.07613129913806915, -0.20432044565677643, 0.08016802370548248, 0.0009810274932533503, 0.24315191805362701, 0.05505505949258804, 0.041946131736040115, -0.0931994765996933, -0.15300995111465454, 0.06335743516683578, -0.25802361965179443, -0.025613928213715553, -0.009011097252368927, -0.07241757214069366, 0.2406773567199707, 0.007883730344474316, 0.09004233032464981, -0.01192158367484808, 0.07683366537094116, 0.3910260498523712, 0.2715786397457123, 0.1382352113723755, -0.04159872978925705, -0.12383284419775009, 0.1304989457130432, 0.1818113923072815, -0.03639616817235947, 0.14384883642196655, 0.3080170452594757, -0.15499824285507202, 0.07877970486879349, 0.28831812739372253, -0.025597453117370605, 0.08338335901498795, 0.08178605884313583, 0.1334139108657837, -0.08873244374990463, 0.003982091322541237, 0.1327354460954666, 0.03184365853667259, 0.16477854549884796, 0.28394216299057007, 0.019838007166981697, -0.025819068774580956, -0.04247189685702324, 0.5106648802757263, 0.44267934560775757, -0.2895117700099945, 0.35519373416900635, -0.2682012915611267, -0.2437688410282135, -0.4017099142074585, 0.2660594582557678, -0.02387901023030281, -0.07360204309225082, 0.2147907167673111, 0.0332045778632164, -0.35498887300491333, -0.09275034070014954, 0.3876851499080658, 0.06713651120662689, 0.04823385551571846, 0.046389490365982056, 0.1728399246931076, 0.4319216012954712, -0.08175426721572876, -0.32727330923080444, 0.1372334063053131, 0.24686139822006226, 0.2246617078781128, -0.15243598818778992, -0.09065758436918259, 0.03882771357893944, -0.37318769097328186, 0.0008679080056026578, -0.16275997459888458, 0.1953216940164566, 0.08667046576738358, 0.022546665742993355, 0.09243973344564438, 0.04138946533203125, -0.1700204461812973, 0.13752911984920502, -0.03148917108774185, -0.12331165373325348, -0.14648856222629547, -0.11521217226982117, -0.12896203994750977, -0.11609324812889099, -0.08911541104316711, -0.01475417148321867, -0.009689368307590485, 0.377350777387619, -0.08969619870185852, -0.0891929641366005, 0.024805473163723946, -0.09420991688966751, -0.5489011406898499, 0.11909029632806778, 0.23779194056987762, -0.012223397381603718, 0.09694109857082367, 0.027868611738085747, -0.20758503675460815, -0.15091434121131897, -0.181437686085701, -0.22355696558952332, 0.1263193041086197, 0.18492624163627625, 0.3682999014854431, -0.003953566774725914, 0.1151675209403038, 0.15825696289539337, -0.017108265310525894, -0.06711459904909134, -0.3521692454814911, -0.2778549790382385, -0.24264785647392273, -0.5633217692375183, 0.1710604727268219, -0.1299881935119629, 0.14055520296096802, -0.018891185522079468, 0.05015948414802551, 0.018076643347740173, -0.030831199139356613, 0.17560569941997528, -0.1574999839067459, 0.139038547873497, 0.0785631313920021, -0.13720111548900604, 0.15653114020824432, -0.04204162582755089, -0.10416653752326965, -0.05836484208703041, -0.03332891687750816, 0.38113370537757874, 0.0662933811545372, 0.2023371458053589, -0.24537092447280884, -0.01917010359466076, -0.1323820799589157, 0.13734452426433563, -0.07859668135643005, 0.003173509845510125, 0.22400031983852386, 0.23606938123703003, 0.12822286784648895, 0.35487204790115356, 0.029253900051116943, 0.12612903118133545, -0.20905455946922302, -0.15091779828071594, -0.09325001388788223, -0.2631364166736603, -0.6023853421211243, 0.127529114484787, -0.12540209293365479, 0.3245924115180969, 0.1284787654876709, 0.06400539726018906, -0.48223456740379333, -0.12144764512777328, 0.1361228972673416, -0.01157700177282095, 0.08620316535234451, 0.21128004789352417, 0.07680249214172363, -0.20825250446796417, -0.08939731866121292, -0.3537916839122772, -0.07934704422950745, -0.23878972232341766, -0.06194748356938362, 0.1296830028295517, 0.1915222704410553, -0.2676227390766144, -0.08482219278812408, -0.08869007229804993, 0.10274239629507065, -0.08113172650337219, -0.10689076036214828, 0.2187436819076538, 0.021787671372294426, 0.10507039725780487, -0.002266156719997525, -0.1262091100215912, 0.012398386374115944, -0.0614200197160244, 0.16523082554340363, 0.30645328760147095, -0.6176131963729858, 0.12945042550563812, 0.32068344950675964, -0.23429380357265472, -0.050294481217861176, -0.10371056944131851, 0.19423992931842804, -0.18895572423934937, -0.4451184868812561, 0.22019287943840027, -0.0804920494556427, -0.07242590188980103, -0.08426158130168915, -0.11419471353292465, -0.2751619815826416, 0.0015934897819533944, 0.10948308557271957, -0.17286531627178192, 0.22016437351703644, -0.2568422853946686, -0.42119666934013367, 0.22549943625926971, -0.11866723746061325, -0.07021860778331757, -0.37645697593688965, -0.01843521185219288, -0.07618554681539536, -0.3460986912250519, -0.07682981342077255, -0.01126478984951973, 0.3512498140335083, 0.039701733738183975, -0.10761059820652008, 0.22489748895168304, 0.42110028862953186, -0.004334018565714359, -0.17623983323574066, 0.105496846139431, -0.09818717837333679, -0.06892108917236328, -0.17167502641677856, -0.07732932269573212, 0.1218024343252182, 0.0892975851893425, 0.4195680022239685, 0.2677939534187317, 0.09529028832912445, -0.26958125829696655, -0.006139635574072599, -0.1582881361246109, -0.11146596819162369, 0.2760949730873108, -0.0608874075114727, -0.27122393250465393, -0.12162117660045624, -0.18603937327861786, 0.011657675728201866, 0.01388337928801775, -0.14414046704769135, 0.005603482946753502, 0.08027517795562744, -0.047700341790914536, 0.010505269281566143, 0.05614128336310387, 0.08860930800437927, 0.2549439072608948, 0.12075962126255035, -0.27308881282806396, -0.08626070618629456, 0.151347354054451, 0.02986680530011654, 0.3062680661678314, 0.06483447551727295, 0.0840429738163948, 0.12938983738422394, -0.2081020474433899, 0.04920864850282669, 0.039383359253406525, 0.15293724834918976, 0.2722764313220978, 0.3016940951347351, 0.11945323646068573, 0.10310231149196625, -0.3501723110675812, -0.03689200431108475, -0.9972187280654907, -0.17123106122016907, -0.3835279047489166, 0.07764358073472977, -0.7488388419151306, 0.834574282169342, -0.8761823177337646, 0.4076506197452545, 0.5182124376296997, -0.5559006929397583, 0.3284126818180084, -0.18919946253299713, -0.2075805813074112, 0.2718540132045746, -0.2829848527908325, 0.3274548053741455, -0.12346381694078445, 0.0602191798388958, -0.5834722518920898, 0.1608636975288391, 0.14930927753448486, 0.381493479013443, -0.08488667756319046, 0.24731765687465668, -0.005853467155247927, 0.47061070799827576, 0.08875313401222229, -0.4120109975337982, -0.34709522128105164, -0.019642479717731476, 0.36924639344215393, -0.12444376200437546, -0.11602070927619934, -0.4508180618286133, 0.4064875543117523, 0.08269830048084259, 0.021076444536447525, -0.2866153419017792, -0.26472097635269165, 0.5734186172485352, 0.016649484634399414, -0.19794107973575592, -0.09507046639919281, 0.37638530135154724, -0.060188647359609604, 0.01844917982816696, -0.2844094932079315, 0.18089036643505096, -0.008928969502449036, -0.10689263045787811, -0.14125379920005798, -0.10386017709970474, -0.2424488216638565, 0.0829351395368576, -0.2361869066953659, 0.21389245986938477, -0.3159083425998688, 0.3253200948238373, -0.021957816556096077, 0.23194614052772522, 0.1645064502954483, 0.25907477736473083, 0.33609557151794434, 0.12861573696136475, -0.2312575876712799, -0.23395666480064392, 0.12380989640951157, -0.19995205104351044, -0.06588268280029297, 0.20685504376888275, -0.011128861457109451, 0.19650553166866302, 0.11548984050750732, 0.09718175232410431, 0.23448914289474487, 0.05210169777274132, -0.4177047908306122, -0.38210350275039673, 0.3821938633918762, -0.03775568678975105, -0.18961656093597412, -0.38253477215766907, 0.2963043451309204, 0.059263475239276886, -0.13270293176174164, -0.10976886004209518, -0.12038426846265793, 0.34515923261642456, -0.44261449575424194, -0.03808417543768883, -0.07037412375211716, -0.009572234004735947, -0.1390562355518341, -0.13048186898231506, -0.08142703026533127, -0.04626263305544853, 0.3840971887111664, 0.05006815493106842, -0.303737998008728, -0.1430625021457672, 0.19071777164936066, 0.2900328040122986, -0.06729599088430405, 0.3342970609664917, -0.1372191607952118, -0.16973108053207397, 0.347115159034729, -0.1899854689836502, 0.29362809658050537, 0.29913219809532166, 0.009240805171430111, 0.24503326416015625, 0.17469072341918945, -0.0006223495001904666, 0.23662851750850677, 0.1202656477689743, -0.112245112657547, -0.6243399381637573, 0.15556898713111877, 0.12273255735635757, 0.13725437223911285, -0.02701987512409687, -0.1199469193816185, 0.5341231822967529, -0.15654602646827698, -0.10095641016960144, -0.11385520547628403, 0.007789286784827709, 0.19157007336616516, -0.6831055283546448, -0.019955219700932503, -0.47864630818367004, -0.2216346263885498, -0.22015735507011414, -0.2004505693912506, 0.5257976055145264, -0.06081853806972504, -0.05461068078875542, -0.2687525451183319, 0.5918167233467102, 0.018204834312200546, -0.08022009581327438, -0.30170542001724243, -0.06771020591259003, 0.3177744150161743, -0.006781136151403189, 0.17979474365711212, 0.1961723417043686, 0.08632806688547134, 0.0668049231171608, 0.38725540041923523, -0.41022244095802307, 0.017469599843025208, 0.05488909035921097, -0.00879021268337965, -0.06167805567383766, -0.024754393845796585, 0.12395823001861572, 0.15658068656921387, 0.10667214542627335, -0.1809091418981552, 0.03279519081115723, 0.0608241967856884, -0.006948227994143963, 0.14861556887626648, 0.038243550807237625, 0.15153813362121582, -0.1680445373058319, 0.027960216626524925, 0.29672279953956604, -0.3178664445877075, -0.05980898067355156, -0.26080748438835144, 0.3587186932563782, -0.09374065697193146, -0.09996424615383148, 0.1544521600008011, -0.16876301169395447, -0.05060858651995659, 0.17416758835315704, -0.10443871468305588, -0.2756085991859436, 0.2711220979690552, 0.011212343350052834, 0.09089713543653488, 0.40511831641197205, -0.06000600755214691, -0.27163758873939514, 0.2537500262260437, 0.0021717967465519905, 0.3191589415073395, -0.1900182068347931, 0.17338372766971588, 0.07440366595983505, 0.10483601689338684, 0.07995026558637619, 0.10017288476228714, 0.5767346024513245, 0.05258531868457794, -0.20756207406520844, 0.47976410388946533, -0.1328456997871399, 0.08788497000932693, 0.06602928042411804, 0.003628923324868083, 0.009197541512548923, 0.04656923934817314, -0.018672190606594086, 0.12905113399028778, 0.06967410445213318, 0.013779042288661003, -0.11682586371898651, -0.19762901961803436, 0.045971330255270004, -0.3017696142196655, -0.1839285045862198, -0.05377946048974991, 0.27115684747695923, -0.09077572822570801, -0.008692615665495396, -0.12745706737041473, 0.1965971738100052, -0.045584291219711304, -0.13281692564487457, 0.11353176087141037, -0.17264226078987122, -0.07570341974496841, -0.08218406140804291, -0.15338082611560822, 0.004636354278773069, 0.13515983521938324, -0.004776868969202042, 0.10572224855422974, -0.4575442671775818, 0.1109374463558197, 0.015157428570091724, -0.15734893083572388, -0.10272539407014847, -0.1092190369963646, -0.21750588715076447, 0.04192804917693138, -0.22258856892585754, -0.07085373997688293, 0.06777869910001755, 0.2648310661315918, -0.1713913530111313, -0.0783231109380722, -0.010664688423275948, -0.2775724232196808, 0.16979347169399261, 0.4251057207584381, -0.156616672873497, -0.15018068253993988, 0.1750560998916626, -0.1365642249584198, -0.010931674391031265, 0.17420384287834167, -0.0986398234963417, -0.06621196866035461, -0.21634402871131897, -0.26570889353752136, 0.08866682648658752, 0.18785937130451202, 0.09468118101358414, 0.024459315463900566, 0.30524441599845886, -0.031651899218559265, 0.019666763022542, -0.164552703499794, 0.1704249083995819, -0.028516674414277077, -0.025133322924375534, -0.2028486728668213, 0.02791687287390232, -0.17559072375297546, -0.22356918454170227, 0.05657925456762314, -0.07605734467506409, 0.4625343084335327, 0.026313506066799164, 0.13153743743896484, -0.289633572101593, -0.0612030066549778, 0.08585947006940842, -0.36605754494667053, 0.17745418846607208, 0.4007846415042877, 0.22439712285995483, -0.10930544137954712, 0.03324083611369133, 0.0649365782737732, -0.013499599881470203, -0.10038812458515167, -0.11172886192798615, 0.01502606924623251, 0.028838973492383957, -0.35746490955352783, -0.10689011961221695, -0.2403658926486969, 0.053028255701065063, -0.15640084445476532, -0.3627924919128418, 0.07181154936552048, 0.07071836292743683, 0.10792270302772522, -0.21392184495925903, -0.06094561517238617, 0.03624928742647171, -0.076649971306324, 0.0358208604156971, -0.06186378002166748, -0.15478581190109253, 0.17702363431453705, 0.04989299923181534, 0.34225744009017944, 0.07486938685178757, 0.045978955924510956, -0.41839706897735596, 0.06416615843772888, 0.08584059029817581, 0.047571927309036255, 0.041720181703567505, 0.06957803666591644, 0.912348210811615, 0.05266625061631203, 0.31258445978164673, 0.19303184747695923, -0.026298465207219124, -0.07751577347517014, -0.43802180886268616, 0.026749728247523308, 0.03864898532629013, -0.17004631459712982, -0.11060111969709396, -0.16403919458389282, 0.03712194040417671, -0.055130407214164734, -0.04903208091855049, -0.09855987131595612, 0.09063257277011871, 0.12421482801437378, -0.44258299469947815, -0.006836777087301016, 0.07565559446811676, 0.24556389451026917, 0.0413900762796402, -0.03301280736923218, -0.06180627644062042, -0.026747114956378937, -0.12200818955898285, -0.12258078157901764, -0.10801239311695099, -0.2516818940639496, -0.08002869784832001, -0.10580484569072723, -0.1040152907371521, 0.1356043517589569, -0.05034688115119934, -0.20267809927463531, -0.08175376802682877, -0.23729318380355835, -0.5163280367851257, 0.02475132793188095, -0.039467763155698776, -0.174977645277977, -0.02915446273982525, -0.09141010046005249, -0.13331829011440277, -0.010720246471464634, -0.036374323070049286, -0.08792953938245773, 0.03174903243780136, 0.050899431109428406, -0.150473952293396, 0.017791444435715675, 0.1343914121389389, 0.26314428448677063, -0.08274126052856445, -0.02734760195016861, 0.15015199780464172, -0.027390336617827415, 0.05528924614191055, -0.16911108791828156, -0.11248761415481567, 0.16739726066589355, -0.100164033472538, 0.2107524871826172, 0.09180165827274323, -0.07715176045894623, -0.22857728600502014, -0.16234494745731354, -0.23124834895133972, 0.11270701885223389, 0.19981852173805237, -0.25231248140335083, -0.12224534898996353, -0.19447572529315948, -0.07619369775056839, 0.29149678349494934, -0.12668175995349884, -0.022432876750826836, 0.15685831010341644, 0.10383924096822739, -0.019386189058423042, 0.07219591736793518, 0.11282487213611603, 0.04584556072950363, 0.09163985401391983, -0.10975813865661621, -0.3831701874732971, 0.014343572780489922, 0.007660739589482546, -0.1543687880039215, 0.0017994275549426675, -0.2002224624156952, 0.053030259907245636, 0.2336093783378601, 0.051136698573827744, -0.0878610610961914, 0.24681603908538818, 0.05326370894908905, -0.06781614571809769, -0.1580762416124344, 0.10520026087760925, 0.1444118469953537, -0.10370440036058426, -0.16267581284046173, -0.0049347965978085995, -0.07435785979032516, 0.07030904293060303, 0.09964004158973694, 0.009712903760373592, 0.06966990977525711, 0.2707531154155731, -0.02771342732012272, 0.21989770233631134, 0.0768677368760109, -0.08479036390781403, -0.0590115450322628, -0.004686629865318537, -0.10204309225082397, -0.08868423849344254, 0.14574652910232544, -0.07795540988445282, 0.3230075240135193, 0.2230815589427948, 0.4343692362308502, 0.04933670163154602, -0.0005952174542471766, 0.12453244626522064, 0.01223437488079071, -0.03643945977091789, 0.14616113901138306, -0.40407881140708923, 0.29673829674720764, 0.2286319136619568, -0.2673467695713043, 0.13771820068359375, 0.050542108714580536, 0.1980658322572708, -0.37528449296951294, 0.03375503048300743, 0.2830408215522766, 0.26478642225265503, -0.1869553178548813, 0.2984296381473541, -0.43021583557128906, -0.19272781908512115, 0.17032217979431152, -0.21849259734153748, 0.05145442485809326, 0.10660363733768463, -0.13800230622291565, 0.2184838205575943, 0.4289024770259857, -0.22956833243370056, -0.16395972669124603, -0.4946778416633606, 0.08084272593259811, 0.180031880736351, -0.49925199151039124, -0.16466541588306427, 0.06358984857797623, -0.14734873175621033, -0.33183419704437256, -0.2911732494831085, 0.31207332015037537, -0.15730808675289154, -0.40438008308410645, -0.001866076374426484, 0.16654381155967712, 0.1861952841281891, -0.046782203018665314, -0.010472484864294529, -0.4306623041629791, -0.08556871861219406, -0.2762056887149811, 0.14265954494476318, 0.10317337512969971, -0.022129809483885765, 0.26526519656181335, -0.24450673162937164, -0.4421553611755371, -0.20956410467624664, 0.2706908583641052, 0.15099123120307922, 0.334560364484787, -0.1236141249537468, 0.005612882785499096, 0.2963089644908905, -0.12282801419496536, -0.19426017999649048, 0.1440022885799408, -0.0015025074826553464, -0.009122509509325027, -0.0564628541469574, 0.06403794139623642, 0.20415851473808289, -0.06947080045938492, 0.05749351903796196, 0.13056975603103638, 0.6382983326911926, 0.16746972501277924, 0.08859551697969437, 0.11831347644329071, -0.1106155589222908, 0.16234131157398224, -0.08775126934051514, 0.06315875798463821, 0.3116050660610199, 0.04067155346274376, 0.019891075789928436, -0.42998284101486206, 0.07443147897720337, 0.16618092358112335, 0.08193949609994888, -0.03287874162197113, 0.0749908834695816, 0.4127817153930664, -0.0071615856140851974, 0.17860618233680725, 0.026537947356700897, 0.2703266441822052, -0.04674259573221207, -0.4209970235824585, 0.09032491594552994, 0.008849626407027245, -0.06586593389511108, 0.025485558435320854, -0.20756277441978455, -0.21457058191299438, -0.09349718689918518, -0.14663907885551453, -0.09207648783922195, 0.012249942868947983, 0.04039914906024933, -0.6587241888046265, -0.18890380859375, -0.024649247527122498, -0.07970380038022995, -0.22653190791606903, 0.027260908856987953, -0.5013925433158875, -0.12957119941711426, 0.006318006664514542, 0.23535405099391937, 0.09009762853384018, -0.024830784648656845, -0.33611923456192017, -0.03323648124933243, 0.017847644165158272, -0.10552264750003815, 0.28931212425231934, 0.11749549955129623, 0.13489703834056854, 0.00303534884005785, 0.027248475700616837, 0.3228023946285248, -0.01743479073047638, -0.028818029910326004, 0.07032860815525055, -0.04158732667565346, -0.03187275677919388, -0.16777807474136353, 0.07775649428367615, -0.1109926775097847, -0.02865421026945114, -0.10457275807857513, -0.11932182312011719, -0.3261023759841919, -0.06265924125909805, -0.014318658970296383, -0.1665768176317215, -0.08320082724094391, -0.0022082498762756586, 0.026174472644925117, -0.15656408667564392, -0.04799850285053253, 0.10412812232971191, -0.0702410638332367, 0.34374675154685974, 0.10892345756292343, 0.02006940171122551, -0.17507722973823547, 0.0655595064163208, 0.1102064996957779, -0.5985605716705322, 0.00327664939686656, 0.056894395500421524, -0.7472731471061707, 0.592953622341156, 0.7380239963531494, 0.09568638354539871, 0.6059096455574036, 0.3973983824253082, -0.7873749732971191, -0.3110648989677429, -0.2548581659793854, 0.3136971592903137, -0.15563377737998962, 0.931955873966217, 0.31378352642059326, -0.15993858873844147, -0.1734837144613266, -0.17417097091674805, 0.8204574584960938, 0.28326231241226196, -0.11785466969013214, -0.009440677240490913, -0.360077828168869, -0.04930046573281288, -0.169082909822464, -0.149771586060524, -0.15524747967720032, -0.034630510956048965, -0.16462013125419617, -0.008236467838287354, -0.7088295221328735, 0.09413713216781616, -0.18129196763038635, 0.09059308469295502, 0.1270991712808609, 0.04492045193910599, -0.16942134499549866, -0.3095310926437378, 0.08487268537282944, 0.018276795744895935, -0.1234988272190094, -0.3025282621383667, 0.2585717737674713, -0.23013260960578918, -0.1521320939064026, 0.008871343918144703, -0.01946704275906086, -0.4445711076259613, -0.20824608206748962, -0.038437120616436005, 0.26988133788108826, 0.1001884788274765, -0.0021088789217174053, -0.2959851026535034, -0.11016121506690979, -0.4048406481742859, -0.10979100316762924, 0.3542679250240326, -0.17665328085422516, 0.020198049023747444, -0.32062381505966187, -0.38332971930503845, 0.17444291710853577, -0.24946825206279755, 0.13924096524715424, -0.1866261512041092, -0.6951159238815308, 0.18656471371650696, 0.24098531901836395, -0.03255753591656685, -0.34266021847724915, -0.47046101093292236, -0.24546267092227936, -0.22492007911205292, 0.08825983852148056, 0.12785357236862183, 0.17577806115150452, 0.13348056375980377, 0.17310354113578796, -0.29339978098869324, -0.027804208919405937, -0.12123552709817886, -0.3018975555896759, 0.05852648988366127, -0.34970158338546753, -0.17918577790260315, -0.239923894405365, 0.007363241631537676, -0.08778775483369827, 0.1364719420671463, -0.052275948226451874, 0.02585412934422493, 0.09282910078763962, 0.09771336615085602, 0.0077900877222418785, -0.01272173784673214, 0.05745813250541687, -0.13186848163604736, -0.04888392612338066, 0.20495393872261047, -0.021789778023958206, 0.08714801073074341, -0.35879775881767273, 0.22507542371749878, 0.0868060365319252, 0.3431538939476013, -0.10212323069572449, -0.10289429873228073, 0.15451224148273468, -0.0874331146478653, 0.060410141944885254, -0.23046910762786865, -0.12619756162166595, -0.2610418200492859, -0.10308012366294861, -0.2711644768714905, -0.15823416411876678, 0.139661967754364, 0.3476170003414154, 0.005376639775931835, -0.24686405062675476, -0.35055068135261536, -0.19744455814361572, -0.18611714243888855, -0.22461648285388947, -0.06131621077656746, -0.05132564902305603, -0.2913822829723358, -0.2848089337348938, 0.31267663836479187, 0.19576969742774963, -0.3120996952056885, 0.013427015393972397, 0.009054570458829403, -0.18566200137138367, 0.4108836352825165, -0.4180479943752289, -0.09134116768836975, 0.48848921060562134, 0.31496891379356384, -0.15942247211933136, -0.13575446605682373, 0.3230857849121094, -0.10368887335062027, 0.14873293042182922, 0.15893566608428955, -0.10514194518327713, -0.13796913623809814, -0.11447636783123016, 0.35662898421287537, 0.040947481989860535, 0.22580069303512573, 0.05661560222506523, 0.022451752796769142, -0.11434637755155563, 0.23922525346279144, 0.0943167433142662, -0.007162683177739382, -0.12815460562705994, 0.014645108953118324, -0.2521837651729584, 0.04045504704117775, 0.020363284274935722, 0.15389081835746765, 0.16520845890045166, -0.06369547545909882, 0.01876087859272957, -0.11075227707624435, -0.02381833642721176, -0.1289057433605194, 0.06903676688671112, -0.042391903698444366, 0.3096231520175934, 0.08501376956701279, 0.06091499328613281, 0.0004524888645391911, -0.34517353773117065, -0.13276459276676178, 0.4153132438659668, -0.3620149493217468, -0.22410230338573456, 0.8748264312744141, -0.06370434910058975, -0.11440384387969971, 0.7193710207939148, -0.2997540235519409, -0.13842667639255524, 0.11250986903905869, -0.14307300746440887, 0.19931669533252716, 0.040749143809080124, -0.11900342255830765, 0.07504559308290482, 0.432540625333786, -0.4006052017211914, 0.3882151246070862, -0.16232381761074066, -0.31192347407341003, -0.1217796579003334, 0.46313104033470154, 0.28140026330947876, 0.30771604180336, -0.435177206993103, 0.22400079667568207, -0.5177786946296692, 0.020240215584635735, 0.10175047069787979, 0.4799337089061737, 0.017820274457335472, -0.015592868439853191, -0.2964962422847748, -0.061849430203437805, -0.09416426718235016, 0.18384060263633728, 0.06731162220239639, -0.13937710225582123, 0.19788797199726105, 0.06838720291852951, 0.20852164924144745, -0.08098778128623962, 0.16268537938594818, -0.024683788418769836, -0.20432832837104797, -0.18464912474155426, 0.01817931979894638, -0.2418481856584549, -0.08199498802423477, 0.054917044937610626, 0.12756656110286713, 0.09023842215538025, 0.06866282969713211, 0.1848931610584259, 0.16214926540851593, -0.12065809220075607, 0.11950664222240448, 0.04687843844294548, -0.08768777549266815, 0.16675862669944763, -0.17255550622940063, -0.09017294645309448, -0.3650834560394287, -0.052582550793886185, 0.06954300403594971, 0.045592471957206726, 0.34225425124168396, -0.04043084383010864, -0.011783218942582607, -0.07957103103399277, 0.016918914392590523, 0.03926657885313034, 0.5125961303710938, -0.02676689252257347, -0.01587102562189102, -0.030376644805073738, 0.12008260190486908, -0.05990494787693024, -0.320168137550354, -0.05740160495042801, -0.017584137618541718, -0.19952797889709473, 0.03138014301657677, -0.04066476225852966, -0.08238963782787323, -0.02892264723777771, -0.08234843611717224, 0.17259645462036133, 0.15678301453590393, 0.10710092633962631, -0.04099857062101364, -0.030619025230407715, -0.019108209758996964, -0.24125079810619354, -0.09447003901004791, -0.06549613177776337, 0.16531707346439362, -0.04328377544879913, 0.0988282561302185, -0.3809358775615692, 0.18284177780151367, 0.33122414350509644, 0.07865899801254272, -0.007219182793051004, -0.011078842915594578, 0.04356473311781883, -0.21728074550628662, 0.2831939160823822, 0.024327995255589485, -0.06340062618255615, 0.06088635325431824, -0.07441224157810211, 4.0812024963088334e-05, 0.24094867706298828, 0.09515748918056488, 0.012591331265866756, 0.3883923888206482, 0.2661156952381134, 0.0017396083567291498, 0.027337362989783287, -0.1287357062101364, -0.15361547470092773, 0.08479076623916626, -0.06309007108211517, 0.007796830032020807, -0.10517514497041702, -0.15018677711486816, -0.29360345005989075, -0.05252766236662865, -0.033634837716817856, 0.040253933519124985, 0.20915046334266663, -0.09058408439159393, -0.1497262418270111, -0.08685716986656189, 0.3000184893608093, -0.17420364916324615, 0.05940336361527443, -0.0951978862285614, -0.018879666924476624, 0.011710608378052711, 0.11932557821273804, -0.10957761853933334, 0.012842413038015366, 0.015674656257033348, -0.028933973982930183, -0.20566140115261078, 0.1521841585636139, -0.174099400639534, 0.09033257514238358, 0.029294593259692192, 0.22852417826652527, -0.16861684620380402, 0.054662346839904785, 0.0940590426325798, -0.0271005779504776, -0.007508913520723581, -0.06434992700815201, 0.024644050747156143, 0.1618480086326599, -0.04358712211251259, -0.06626886129379272, 0.06887435168027878, -0.09992978721857071, -0.008857116103172302, 0.14814269542694092, -0.05554356053471565, 0.215743750333786, 0.0755939781665802, 0.15779070556163788, -0.01361149549484253, -0.0852951928973198, -0.04424549266695976, 0.0039658937603235245, 0.07731527835130692, 0.08266318589448929, 0.06041562929749489, 0.07346892356872559, 0.18942148983478546, 0.1252567321062088, 0.11332643777132034, 0.1074240431189537, 0.08783026039600372, -0.0013779179425910115, -0.05510517209768295, 0.001963605871424079, 0.021717168390750885, 0.03584570810198784, 0.14963772892951965, -0.038307495415210724, 0.10304778814315796, -0.027317535132169724, -0.0795893743634224, 0.010962450876832008, 0.032666273415088654, -0.25698772072792053, 0.1251388043165207, 0.055494535714387894, -0.06141725555062294, 0.018831739202141762, -0.0030194115824997425, -0.1233113706111908, -0.1087304949760437, -0.08624971657991409, -0.0006061586900614202, 0.026556141674518585, -0.037022966891527176, 0.013959317468106747, -0.08719845116138458, 0.016341285780072212, 0.15149755775928497, 0.04619523137807846, -0.18392257392406464, 0.023734822869300842, 0.18212687969207764, 0.11159417033195496, -0.08672585338354111, 0.03444657847285271, 0.12803368270397186, -0.09104111045598984, 0.004611829295754433, -0.1760195940732956, -0.45692911744117737, 0.11839105188846588, -0.06065128371119499, -0.22545795142650604, -0.1932326853275299, 0.01565946266055107, 0.08961640298366547, -0.021841321140527725, 0.27493903040885925, -0.4343457520008087, -0.016340311616659164, -0.37301772832870483, 0.17165826261043549, 0.09181118756532669, -0.06813925504684448, 0.34363508224487305, 0.009255730547010899, 0.12326382100582123, 0.2198542058467865, 0.19090233743190765, 0.06140116602182388, -0.3695749342441559, 0.03845083341002464, -0.019951453432440758, -0.10796255618333817, -0.04289650917053223, -0.23961561918258667, -0.05915399640798569, -0.04571084305644035, -0.0897727981209755, -0.06347917020320892, 0.01720890961587429, -0.14166021347045898, 0.07237529009580612, 0.012532602995634079, -0.2589779496192932, -0.10570394992828369, -0.04713558778166771, -0.37594860792160034, 0.02200780250132084, 0.025432730093598366, -0.14405079185962677, 0.038331568241119385, 0.05439626798033714, -0.0825800821185112, 0.000589397270232439, -0.10261856764554977, -0.006392361596226692, -0.05691681057214737, 0.1847587525844574, -0.1732974350452423, 0.24643480777740479, 0.1280035674571991, -0.18531405925750732, 0.1309962421655655, 0.0029155390802770853, 0.026098640635609627, -0.025356555357575417, -0.12953586876392365, -0.1486988514661789, 0.33577269315719604, -0.07692739367485046, 0.08586177229881287, 0.043228648602962494, -0.01614980958402157, 0.029901016503572464, 0.30452147126197815, 0.11276648938655853, -0.0016694788355380297, 0.05220809578895569, -0.20366676151752472, 0.2582327127456665, -0.3889162540435791, 0.05725924298167229, -0.13860151171684265, -0.12547926604747772, -0.09187372028827667, 0.009545317851006985, 0.08631867915391922, -0.048651259392499924, 0.2521830201148987, 0.24459858238697052, -0.25846439599990845, -0.268190860748291, 0.08761351555585861, 0.01055391225963831, 0.017974326387047768, -0.048955921083688736, 0.09664644300937653, 0.013282385654747486, 0.1482035517692566, 0.27371636033058167, -0.10722745209932327, -0.43853357434272766, -0.059694815427064896, -0.11477534472942352, 0.19295895099639893, 0.05200888589024544, 0.016805008053779602, 0.000999152078293264, 0.08983803540468216, 0.02219085581600666, 0.2204144150018692, 0.1255514770746231, 0.23142938315868378, -0.19646327197551727, -0.16000418365001678, -0.03132737800478935, 0.20016521215438843, 0.08140401542186737, 0.09877077490091324, -0.22627650201320648, -0.05101010203361511, 0.17710840702056885, 0.036809954792261124, -0.02108437940478325, -0.05745907500386238, -0.1580633819103241, -0.054646141827106476, 0.03675737604498863, 0.2716798186302185, 0.09555571526288986, 0.10129302740097046, -0.22249779105186462, -0.09407121688127518, -0.153962641954422, -0.2669539749622345, 0.19766557216644287, -0.13574568927288055, 0.05782633274793625, 0.08048886805772781, -0.0041724881157279015, -0.06953191012144089, -0.058014336973428726, 0.018496854230761528, -0.1832870990037918, -0.17699919641017914, -0.17499946057796478, -0.09687535464763641, -0.09383843839168549, -0.01901320368051529, 0.028133610263466835, -0.028838185593485832, -0.05932854861021042, -0.06097650155425072, -0.07705485820770264, -0.006330347154289484, 0.204231858253479, 0.11372039467096329, 0.043631892651319504, 0.004797701723873615, -0.02295365184545517, -0.17876370251178741, -0.0037213910836726427, -0.050240837037563324, -0.1420140266418457, -0.2796999216079712, -0.0887044370174408, 0.1757676899433136, -0.09614349156618118, 0.24639126658439636, -0.04947938024997711, -0.1194562017917633, -0.11953646689653397, -0.16582320630550385, 0.14278440177440643, -0.1158284842967987, 0.05741412937641144, -1.3739475011825562, 0.04765436798334122, 0.004615913610905409, 0.37638500332832336, 0.23378707468509674, 0.019889121875166893, -0.4637046456336975, 0.17742551863193512, 0.06441690772771835, -0.4164143204689026, -0.12069597095251083, -0.1128920242190361, 0.33637526631355286, -0.07816757261753082, 0.0095680458471179, 0.02029312029480934, -0.13213904201984406, 0.058736737817525864, 0.271815687417984, -0.08548567444086075, -0.050515033304691315, -0.05530720204114914, 0.04429417848587036, 0.13379353284835815, 0.13265526294708252, 0.06385359168052673, 0.10398794710636139, -0.03270191699266434, -0.17461338639259338, -0.09748764336109161, -0.20087365806102753, 0.24861228466033936, 0.16602247953414917, 0.3855806589126587, -0.19137875735759735, 0.08702352643013, -0.11821293830871582, -0.08843054622411728, 0.14090509712696075, 0.0777084082365036, -0.1930006444454193, 0.1646357774734497, -0.0687299445271492, -0.034609097987413406, -0.04881031811237335, 0.0019868239760398865, -0.522499680519104, -0.30267372727394104, -0.4127402603626251, 0.06448670476675034, -0.3551437258720398, -0.43489769101142883, 0.7918769717216492, 0.26121070981025696, -0.8213127255439758, -0.03684280067682266, 0.07964600622653961, -0.20321998000144958, 0.005533669143915176, -0.12802842259407043, -0.29959985613822937, -0.09613429754972458, 0.023684894666075706, -0.013791593722999096, -0.17075252532958984, 0.14549005031585693, 0.1117391437292099, -0.4939732849597931, -0.07215386629104614, 0.20410779118537903, -0.0319625586271286, -0.08017679303884506, 0.276379257440567, 0.15077142417430878, -0.015642112120985985, -0.10244403779506683, -0.15632691979408264, -0.012704848311841488, -0.08876598626375198, -0.022206831723451614, 0.37561094760894775, -0.03294447809457779, 0.08192737400531769, 0.16745217144489288, 0.26718515157699585, -0.24341483414173126, 0.03732265532016754, -0.1543925255537033, -0.12125442922115326, -0.056192219257354736, 0.16381621360778809, -0.111473448574543, -0.19918183982372284, 0.19676220417022705, 0.04545601084828377, 0.31272193789482117, 0.22894300520420074, 0.11141107976436615, -0.022727545350790024, 0.3057301938533783, -0.2186378836631775, -0.007874553091824055, -0.039750754833221436, -0.02914218232035637, -0.08859631419181824, 0.00846829917281866, 0.3086733818054199, -0.07792443037033081, 0.5361003279685974, -0.07312028110027313, 0.05777287855744362, 0.20337708294391632, 0.050005655735731125, -0.02437100000679493, 0.11086688190698624, -0.07911704480648041, -0.2717263102531433, -0.5642490386962891, 0.195040762424469, -0.08384127914905548, -0.22540196776390076, -0.011296975426375866, -0.2134326547384262, 0.5433962345123291, -0.10711836814880371, -0.3573782742023468, -0.15428750216960907, 0.462552011013031, -0.21088263392448425, 0.07904157042503357, -0.11358362436294556, -0.12268177419900894, 0.2230212539434433, 0.07028871029615402, -0.07469422370195389, 0.27178192138671875, 0.0964876115322113, 0.0107534509152174, -0.02899615466594696, 0.3026074171066284, -0.20784877240657806, 0.010117306374013424, -0.09223323315382004, 0.28270426392555237, 0.3937923014163971, 0.02079620584845543, -0.3019872009754181, 0.33625736832618713, -0.13354012370109558, 0.11405748128890991, 0.06297895312309265, 0.45244377851486206, -0.31734323501586914, -0.1723419576883316, -0.19063600897789001, 0.2642308473587036, 0.03916433826088905, 0.10161203145980835, -0.12635625898838043, 0.013829223811626434, -0.15755164623260498, 0.17591506242752075, -0.05097083002328873, -0.24876472353935242, 0.02558189630508423, 0.1831551194190979, 0.01236469391733408, 0.36225494742393494, 0.27008548378944397, -0.10154985636472702, -0.3174562454223633, -0.033004313707351685, -0.06946559995412827, -0.13128793239593506, 0.3523658514022827, 0.13487964868545532, 0.002938070334494114, 0.20210972428321838, -0.0989878699183464, -0.11126845329999924, -0.41837644577026367, 0.10535537451505661, -0.23599037528038025, 0.1275939643383026, -0.15016277134418488, 0.05989794433116913, -0.06948333233594894, 0.28537875413894653, -0.1502402275800705, -0.15038630366325378, -0.04525540769100189, 0.04315635561943054, -0.42480313777923584, -0.06974553316831589, -0.12915992736816406, -0.2846432626247406, 0.02720077522099018, -0.04525720328092575, -0.21213431656360626, 0.040187664330005646, -0.11659298837184906, 0.31458690762519836, -0.019572148099541664, -0.02358851209282875, 0.2688630521297455, 0.1473032385110855, -0.18360061943531036, 0.03979960083961487, 0.11264672875404358, -0.047951582819223404, 0.04433678090572357, 0.05897349864244461, -0.04065878316760063, 0.00020076629880350083, -0.1970979869365692, 0.24087496101856232, 0.18682897090911865, 0.13894589245319366, 0.009258897975087166, -0.015880201011896133, -0.09684428572654724, -0.15325014293193817, 0.05145915597677231, -0.12624317407608032, 0.052615609019994736, -0.11630091071128845, 0.1259612888097763, -0.19476689398288727, 0.013531643897294998, 0.21944324672222137, -0.18560364842414856, -0.06641751527786255, 0.12315124273300171, 0.10084422677755356, 0.09291785955429077, 0.03877091780304909, -0.09329480677843094, 0.20454755425453186, -0.04157274216413498, 0.13866011798381805, 0.016041358932852745, -0.14687767624855042, 0.1357187181711197, 0.08702737838029861, 0.2771812677383423, -0.10469363629817963, 0.030291449278593063, -0.22721099853515625, 0.13814927637577057, 0.21017864346504211, -0.2600586414337158, -0.04801124706864357, 0.13145409524440765, 0.09697838872671127, -0.1923336535692215, 0.012045808136463165, -0.03175215795636177, -0.11818726360797882, 0.06194192171096802, 0.10841887444257736, 0.13656029105186462, -0.1588505506515503, -0.15573377907276154, -0.15338991582393646, 0.2098419964313507, -0.12392104417085648, -0.024888668209314346, 0.12040108442306519, 0.11760000139474869, -0.09200772643089294, -0.16162629425525665, 0.07867803424596786, 0.30633431673049927, 0.030098581686615944, -0.08863221108913422, 0.0398174524307251, -0.19832564890384674, -0.08442319184541702, -0.07582513242959976, 0.010184334591031075, 0.22082942724227905, -0.06792566925287247, 0.21821454167366028, -0.053644776344299316, 0.0007242830470204353, 0.04041581228375435, -0.0013573840260505676, -0.06900960206985474, -0.14505407214164734, 0.19520962238311768, 0.13345403969287872, -0.036652710288763046, 0.055781494826078415, -0.13231061398983002, -0.04036508500576019, 0.08833231776952744, 0.06490367650985718, -0.1034037321805954, 0.04837885871529579, 0.07796048372983932, 0.09972216933965683, -0.12113402783870697, 0.1288377046585083, -0.21146570146083832, -0.08518047630786896, -0.04357755184173584, -0.0254973154515028, -0.0771782174706459, -0.000429374078521505, -0.036149900406599045, 0.03350574150681496, 0.07021576911211014, 0.1476537138223648, -0.07306358218193054, -0.058373257517814636, -0.03963622450828552, -0.030831579118967056, -0.02800988405942917, 0.03705799952149391, -0.07135355472564697, -0.06169858202338219, 0.11428631097078323, 0.021489568054676056, 0.03294920548796654, 0.014580944553017616, -0.002277625259011984, 0.12356413900852203, -0.1268281191587448, -0.026585757732391357, -0.050154492259025574, -0.03133720904588699, -0.00035957200452685356, 0.019819384440779686, -0.08029722422361374, 0.10308200865983963, -0.016956759616732597, 0.02802209183573723, -0.0584099180996418, -0.06094587966799736, -0.1251140832901001, -0.06733546406030655, -0.15165820717811584, 0.011803426779806614, -0.1482086181640625, -0.0005645141354762018, 0.25020715594291687, -0.009438537992537022, 0.09357769787311554, 0.1751137226819992, 0.08065443485975266, 0.1204770877957344, -0.11530309915542603, 0.03737366572022438, -0.09797335416078568, 0.01754758134484291, 0.032228272408246994, -0.0765148177742958, -0.07199462503194809, -0.04886305332183838, 0.013812415301799774, -0.18878065049648285, 0.06779015809297562, 0.015404017642140388, 0.02130250073969364, -0.025700386613607407, 0.006173606030642986, -0.07282853126525879, 0.008190236054360867, -0.01171982754021883, -0.030283857136964798, 0.034077201038599014, -0.033957622945308685, 0.2960088849067688, 0.033883366733789444, 0.0036572914104908705, -0.1659107655286789, -0.017063841223716736, 0.010089591145515442, -0.11745122820138931, 0.07811044156551361, 0.04717571660876274, -0.040594927966594696, 0.0013652949128299952, -0.03980235755443573, 0.4338245987892151, -0.06285401433706284, -0.12769705057144165, 0.49448445439338684, -0.03006802871823311, -0.0240859966725111, 0.18215800821781158, -0.0008574139210395515, 0.02758730947971344, -0.45308157801628113, -0.025401275604963303, 0.04405296593904495, 0.008478095754981041, 0.40858709812164307, -0.36263221502304077, -0.25186070799827576, -0.04235301911830902, -0.24374379217624664, 0.1825827807188034, 0.00840464886277914, -0.11027324944734573, -0.2589664161205292, 0.3593794107437134, -0.3296298682689667, 0.4137405455112457, 0.08397018164396286, -0.09694754332304001, 0.010034509003162384, -0.046449869871139526, -0.00394785450771451, -0.010203997604548931, 0.03898041322827339, 0.11895231157541275, 0.084333635866642, 0.07395119220018387, -0.07034895569086075, 0.2182425856590271, 0.06460516154766083, -0.07861033827066422, 0.03960726782679558, 0.07908685505390167, 0.07487153261899948, 0.05960077792406082, 0.0967368632555008, 0.06568639725446701, 0.08802463859319687, 0.10685593634843826, -0.036745667457580566, 0.9962581396102905, 0.24097689986228943, 0.4314438998699188, 0.12162920087575912, 0.6154350638389587, 0.04044434055685997, -0.46609264612197876, 0.3531278371810913, 0.24947091937065125, 0.3786455988883972, 0.2727961838245392, 0.41056710481643677, -0.4911555349826813, -0.020495561882853508, 0.12218163907527924, 0.5137335658073425, -0.021954426541924477, -0.02844216115772724, -0.34364378452301025, 0.14892175793647766, 0.22544671595096588, 0.14972712099552155, 0.10285097360610962, -0.10931934416294098, 0.07920090109109879, 0.08991163969039917, -0.1314670741558075, -0.15727630257606506, 0.13347016274929047, 0.23686008155345917, -0.2912803888320923, 0.025580910965800285, 0.16238147020339966, -0.0603952594101429, 0.06052505597472191, 0.024469522759318352, 0.05399515479803085, -0.0511116161942482, -0.12140189111232758, -0.0612260065972805, -0.05644061788916588, -0.3206043541431427, -0.662753701210022, -0.25249043107032776, -0.020234035328030586, -0.26685869693756104, -0.13575054705142975, 0.3215547502040863, 0.11291874200105667, 0.5907763242721558, -0.4261910319328308, 0.5304546356201172, 0.05636094510555267, 0.020472204312682152, 0.16202837228775024, -0.4101130962371826, -0.01562962867319584, 0.1514434665441513, 0.03736754506826401, -0.5302746295928955, 0.3003911077976227, -0.07146111130714417, -0.2081531286239624, -0.27103984355926514, 0.16975343227386475, -0.1825619339942932, 0.31672337651252747, -0.03900846093893051, -0.37490129470825195, -0.00542543875053525, -0.2825045585632324, -0.6735677719116211, -0.2292209416627884, 0.04876675456762314, -0.3626853823661804, 0.49391674995422363, 0.41311198472976685, 0.3809312880039215, -0.29178914427757263, 0.10200072079896927, 0.11196619272232056, 0.38263604044914246, -0.20352154970169067, -0.049096040427684784, -0.15562662482261658, -0.38883259892463684, 0.004281660541892052, -0.19092802703380585, -0.03740619495511055, -0.016468649730086327, 0.15202189981937408, -0.09005045145750046, -0.07498146593570709, 0.36052054166793823, -0.02816964127123356, 0.10948476195335388, 0.05686274543404579, 0.11818976700305939, 0.08455462753772736, -0.2779821753501892, -0.04936278983950615, -0.08491242676973343, -0.037466712296009064, -0.05729568749666214, 0.054155196994543076, 0.00889510102570057, 0.16184034943580627, 0.08413160592317581, -0.13311414420604706, 0.23652826249599457, 0.015382779762148857, -0.07666120678186417, -0.038591232150793076, -0.2012896090745926, -0.47257882356643677, -0.016018692404031754, 0.03679338097572327, 0.14444978535175323, 0.09762229025363922, 0.3941322863101959, -0.2691114842891693, -0.12703028321266174, 0.3589041829109192, 0.36167582869529724, -0.0023605467285960913, -0.0629580095410347, -0.3053121864795685, -0.06299189478158951, 0.08506116271018982, 0.2717558741569519, -0.0545741431415081, -0.058512844145298004, -0.20824822783470154, 