{"version": "0.5.4", "metadata": {"date": {"year": 2026, "month": 3, "day": 30, "hour": 20, "minute": 51, "second": 13}, "loudness": -30.06321907043457, "gain": 0.8514488279493461}, "architecture": "WaveNet", "config": {"layers": [{"input_size": 1, "condition_size": 1, "head_size": 6, "channels": 12, "kernel_size": 3, "dilations": [1, 2, 4, 8, 16, 32, 64], "activation": "Tanh", "gated": false, "head_bias": false}, {"input_size": 12, "condition_size": 1, "head_size": 1, "channels": 6, "kernel_size": 3, "dilations": [128, 256, 512, 1, 2, 4, 8, 16, 32, 64, 128, 256, 512], "activation": "Tanh", "gated": false, "head_bias": true}], "head": null, "head_scale": 0.02}, "weights": [-0.5048058032989502, 0.6296839118003845, -1.0939692258834839, -0.9472689628601074, -0.5912044644355774, 0.24110285937786102, -0.45769843459129333, 1.0973684787750244, -0.5665590167045593, 0.5108922123908997, -0.5754740834236145, -0.44948405027389526, -0.059593092650175095, -0.043092671781778336, -0.3984271287918091, -0.02020055055618286, 0.030916068702936172, 0.30679699778556824, -0.09109360724687576, -0.03538331389427185, -0.1409602016210556, 0.16172686219215393, 0.0009773599449545145, -0.07990065217018127, -0.0018478832207620144, 0.05866794288158417, -0.0492437370121479, -0.17049027979373932, -0.1095636636018753, 0.15886414051055908, 0.02209606021642685, 0.19650959968566895, -0.4367790222167969, -0.09814304858446121, -0.1496259570121765, 0.04698247089982033, -0.06507434695959091, 0.12439272552728653, -0.2313660830259323, 0.04184510558843613, -0.028746547177433968, 0.14789575338363647, 0.06651292741298676, -0.11951694637537003, -0.3471873104572296, -0.03759951889514923, 0.14888587594032288, -0.14894233644008636, 0.1538649946451187, -0.6048526167869568, 0.13010206818580627, -0.03668537363409996, 0.5883608460426331, 0.08211977034807205, 0.3272859752178192, -0.6291984915733337, -0.03725406900048256, 0.07981599867343903, -0.6419273018836975, -0.15139228105545044, 0.29492828249931335, -0.4601755142211914, -0.16321280598640442, -0.14991019666194916, 0.5780274271965027, 0.03306759148836136, 0.22907836735248566, -0.5525912046432495, 0.12017577886581421, -0.059244170784950256, 0.4065139889717102, 0.007360886782407761, 0.33921313285827637, -0.4351561367511749, 0.14430220425128937, -0.06099317595362663, 0.5719765424728394, -0.10140307992696762, 0.22265483438968658, -0.6411398649215698, -0.20559349656105042, 0.35569095611572266, -0.42081040143966675, -0.19891498982906342, -0.03211788833141327, 0.2854839563369751, -0.08069660514593124, -0.047644078731536865, -0.19771039485931396, -0.11881136149168015, 0.030463973060250282, 0.345107764005661, 0.14432424306869507, 0.03385532647371292, 0.09667079895734787, -0.08428311347961426, 0.04743754863739014, 0.2934865355491638, -0.11083389818668365, -0.05994914099574089, -0.07199163734912872, 0.08461638540029526, -0.1344064474105835, 0.26934292912483215, -0.20530283451080322, 0.03032231330871582, -0.38507065176963806, -0.15421625971794128, -0.09587448835372925, 0.28426024317741394, -0.08951886743307114, 0.1354180872440338, -0.3706101179122925, 0.14330054819583893, 0.08093257993459702, 0.12900902330875397, -0.031188461929559708, -0.031165950000286102, 0.30114614963531494, 0.03753456845879555, -0.06983012706041336, -0.04029426351189613, 0.5058325529098511, 0.1571161299943924, -0.07796568423509598, -0.4935409426689148, -0.11458846926689148, -0.16503578424453735, 0.3406619727611542, -0.2107342928647995, -0.1171291396021843, 0.43286755681037903, -0.18295533955097198, -0.09236757457256317, 0.5172433257102966, 0.06896311789751053, 0.10082919895648956, -0.39029166102409363, -0.10660823434591293, 0.05080003663897514, 0.7272179126739502, 0.18243956565856934, 0.2456926852464676, -0.41494274139404297, -0.3149671256542206, -0.19107100367546082, 0.6249335408210754, 0.08948717266321182, 0.0014769317349418998, -0.5569289922714233, -0.23980864882469177, -0.21623995900154114, 0.39514824748039246, -0.007106965407729149, 0.0074758706614375114, 0.2858934700489044, -0.045823320746421814, -0.6514689326286316, 0.29209744930267334, 0.01633967086672783, 0.4100373685359955, -0.24038486182689667, -0.2281157523393631, -0.5934889316558838, 0.1799081712961197, -0.07848559319972992, -0.5206876397132874, 0.2685586214065552, -0.22891652584075928, -0.46023231744766235, 0.349933385848999, 0.01520252600312233, 0.5842657685279846, -0.14968790113925934, -0.29385194182395935, -0.40167856216430664, 0.30618855357170105, 0.00673076743260026, 0.5886528491973877, -0.3444649875164032, -0.12428124248981476, -0.5650402307510376, 0.4321043789386749, 0.14560241997241974, 0.5427796244621277, -0.1709071546792984, -0.12986548244953156, -0.48222362995147705, 0.09516315907239914, -0.015799958258867264, -0.335376113653183, 0.3585233688354492, -0.12005525827407837, -0.502778172492981, -0.231191486120224, -0.09403377026319504, 0.2625427544116974, 0.19132043421268463, -0.09441464394330978, -0.3666936755180359, -0.13487453758716583, 0.11025825142860413, -0.48821598291397095, -0.25318050384521484, -0.08743953704833984, -0.24674545228481293, -0.1964799016714096, 0.140816792845726, 0.3859184980392456, 0.16770510375499725, -0.003453545505180955, -0.5371002554893494, -0.09883013367652893, -0.04374111443758011, 0.36327338218688965, 0.1675199419260025, -0.11230037361383438, -0.518619179725647, -0.03741183504462242, -0.13700813055038452, 0.37434279918670654, 0.2994064688682556, 0.059752050787210464, -0.38099437952041626, -0.2814091145992279, 0.08328857272863388, -0.5200944542884827, -0.17681875824928284, 0.028184931725263596, -0.22070176899433136, 0.24975049495697021, 0.11899081617593765, 0.22730213403701782, 0.01911872811615467, 0.11562355607748032, -0.31419700384140015, 0.20102748274803162, -0.10171128064393997, -0.2780039310455322, 0.1765371859073639, 0.0708710178732872, -0.08265497535467148, 0.0726456418633461, -0.01989925280213356, 0.2603527307510376, -0.28513041138648987, 0.2060973048210144, -0.33994820713996887, 0.2348836064338684, -0.043307628482580185, 0.11964546889066696, -0.10685271769762039, 0.19822914898395538, -0.24728426337242126, 0.09800323843955994, -0.09000350534915924, 0.04515151306986809, -0.0718744695186615, -0.05045299977064133, -0.3151662051677704, 0.05221189931035042, 0.12994436919689178, -0.1243421658873558, 0.287465900182724, 0.3490343391895294, -0.2588462233543396, -0.048496756702661514, -0.2218627631664276, 0.28868287801742554, 0.011042091064155102, 0.20053642988204956, -0.23474030196666718, -0.11897807568311691, 0.3128221035003662, -0.2468220293521881, -0.1117067039012909, 0.4203818738460541, -0.26616334915161133, 0.014764535240828991, -0.22345364093780518, 0.13101805746555328, -0.1632833182811737, 0.15435948967933655, -0.05791803076863289, 0.027031786739826202, -0.14563700556755066, 0.10084600001573563, 0.00697120139375329, 0.2968982756137848, -0.16001011431217194, -0.04319935664534569, -0.22432273626327515, 0.21263691782951355, -0.038178808987140656, 0.23834435641765594, -0.2619997262954712, 0.14556455612182617, 0.15410462021827698, -0.1003737673163414, -0.028468532487750053, -0.28356847167015076, -0.3240393102169037, 0.19544300436973572, 0.17202670872211456, 0.30283379554748535, -0.26004624366760254, -0.10305724292993546, -0.19829164445400238, 0.1990080177783966, -0.1544107049703598, -0.4070638418197632, 0.1072506532073021, -0.07154662162065506, -0.3304935395717621, 0.20112963020801544, 0.22147156298160553, 0.14210867881774902, -0.13105671107769012, -0.12628674507141113, -0.32554733753204346, 0.28652650117874146, 0.14954134821891785, 0.1359073370695114, -0.12298022210597992, -0.01667092740535736, -0.10164152085781097, 0.33890214562416077, 0.1659306287765503, 0.36106234788894653, -0.24461451172828674, -0.28013578057289124, -0.42372027039527893, 0.3265171945095062, -0.04538838565349579, -0.40923017263412476, 0.24619033932685852, 0.16885223984718323, -0.06559211015701294, 0.0953906923532486, 0.13607186079025269, 0.12436505407094955, 0.030557530000805855, 0.12343533337116241, -0.06980938464403152, -0.1985858976840973, 0.1382199376821518, -0.08490204811096191, -0.003589872270822525, -0.11324179917573929, -0.11716152727603912, -0.1501782089471817, 0.12810289859771729, 0.08654386550188065, 0.1597743034362793, 0.07413019239902496, -0.16621026396751404, -0.10755369812250137, 0.09149056673049927, 0.04044140875339508, 0.13763464987277985, -0.050835367292165756, -0.29320377111434937, -0.21929460763931274, 0.1261560469865799, 0.26205864548683167, 0.23965024948120117, 0.1303386092185974, -0.328560471534729, -0.20194362103939056, -0.016274336725473404, -0.28851911425590515, 0.039065394550561905, 0.04473186656832695, 0.19131451845169067, -0.360146701335907, -0.24477238953113556, -0.057519469410181046, 0.24787317216396332, 0.27222970128059387, 0.32234108448028564, 0.041707005351781845, 0.11033657193183899, 0.26852187514305115, 0.04140434041619301, 0.20432405173778534, 0.35905441641807556, -0.025318097323179245, -0.03688446432352066, -0.22365792095661163, 0.18100383877754211, 0.18465420603752136, 0.22052812576293945, -0.2898244559764862, -0.2467782199382782, -0.32056981325149536, 0.21899476647377014, 0.28004854917526245, 0.1801975816488266, -0.2547919452190399, -0.027119508013129234, -0.10194461792707443, 0.13878995180130005, 0.07408194243907928, 0.3563966453075409, -0.05897388234734535, 0.029186531901359558, 0.3753899037837982, -0.013938060961663723, -0.0023360552731901407, 0.09810882806777954, 0.3435240685939789, -0.05505825951695442, 0.2336595058441162, -0.2795040011405945, -0.08514004945755005, -0.15056687593460083, 0.2458418607711792, 0.0013239141553640366, -0.07430893182754517, 0.4468963146209717, 0.04088786244392395, -0.19502577185630798, 0.29864975810050964, 0.07156213372945786, 0.20567478239536285, -0.39850103855133057, 0.005193634890019894, -0.13912144303321838, 0.3465918302536011, 0.031079206615686417, -0.017924675717949867, -0.22645647823810577, 0.1171145811676979, -0.11107829213142395, 0.20596663653850555, -0.08622217178344727, 0.11481671780347824, -0.44227007031440735, 0.11465360224246979, -0.2276047170162201, 0.15447229146957397, -0.1356300711631775, -0.10504517704248428, 0.4395538568496704, -0.10232887417078018, 0.0651862770318985, -0.012642327696084976, 0.022053459659218788, -0.011421971954405308, -0.21370701491832733, 0.1316339373588562, 0.04053488001227379, 0.11620058864355087, 0.04653364047408104, -0.07766146957874298, 0.05989035964012146, 0.2436915934085846, 0.5525575280189514, -0.8370316028594971, -0.6665198802947998, -1.1727348566055298, -0.24677953124046326, 0.10303181409835815, -0.8235539793968201, 0.20521022379398346, 0.6377751231193542, 0.23259884119033813, -0.9471641182899475, -0.23930054903030396, -0.2879866659641266, 0.4338228702545166, 0.5875703692436218, 0.051825009286403656, -0.06666400283575058, -0.18969157338142395, -0.5080341100692749, -0.460468590259552, -0.2319183200597763, 0.10598427057266235, 0.26154208183288574, -0.2730911374092102, -0.12380218505859375, -0.23140668869018555, 0.21757882833480835, -0.12910911440849304, 0.26340168714523315, 0.1887284219264984, 0.09236232936382294, 0.009737913496792316, -0.154731884598732, -0.06747432053089142, 0.024472514167428017, 0.131866455078125, -0.32673823833465576, 0.4177398383617401, 0.014775761403143406, -0.2149793654680252, -0.309782475233078, 0.18963675200939178, 0.24792182445526123, -0.32922765612602234, 0.05685671418905258, 0.23374274373054504, 0.280874103307724, 0.3213971257209778, -0.2272796928882599, 0.17856952548027039, 0.08059914410114288, 0.3015027940273285, 0.18971006572246552, -0.1506093442440033, 0.18974415957927704, -0.135971337556839, -0.15501071512699127, 0.10998931527137756, 0.08960194885730743, -0.0895535796880722, -0.12189779430627823, 0.33369117975234985, -0.07002663612365723, -0.05471786856651306, -0.14675065875053406, -0.004031644202768803, -0.19649407267570496, -0.28012341260910034, -0.2686011493206024, 0.41091451048851013, -0.017637962475419044, -0.0020580203272402287, -0.1999199390411377, 0.38047605752944946, 0.3834727108478546, -0.30925434827804565, -0.3498733639717102, -0.29263216257095337, -0.008415470831096172, -0.10990231484174728, -0.25255900621414185, -0.010660570114850998, 0.15797914564609528, -0.03059174120426178, -0.16003958880901337, 0.12421289831399918, -0.5005160570144653, -0.4613918960094452, 0.25726523995399475, -0.35868173837661743, -0.18567709624767303, -0.33395102620124817, 0.05909506231546402, -0.013527603819966316, -0.4933534860610962, 0.37836015224456787, -0.2743489444255829, 0.1327190101146698, -0.24616903066635132, -0.45959439873695374, -0.20150813460350037, 0.05688749998807907, -0.1103639081120491, -0.2831512987613678, -0.13374421000480652, -0.013647685758769512, 0.08203086256980896, -0.27759644389152527, 0.3691157102584839, -0.07581949234008789, 0.13378950953483582, 0.5398956537246704, 0.26487109065055847, 0.2973395884037018, 0.4098896086215973, -0.11373859643936157, -0.2368609607219696, -0.05241870880126953, 0.36765989661216736, -0.055192504078149796, -0.3973853290081024, 0.23574374616146088, 0.3661917448043823, -0.2286665141582489, -0.17264464497566223, -0.3063960075378418, 0.09879918396472931, -0.20634903013706207, -0.3350721001625061, 0.21284611523151398, 0.12098567932844162, 0.2397463619709015, 0.21051418781280518, -0.05351640284061432, -0.553273618221283, -0.8948628306388855, 0.34701240062713623, 0.10653597116470337, 0.09008583426475525, -0.3176349699497223, 0.21358755230903625, 0.3922777473926544, 0.06209941580891609, -0.27196410298347473, -0.24543268978595734, 0.018075086176395416, 0.349800169467926, -0.06549908965826035, -0.36296209692955017, 0.09509755671024323, -0.1716821938753128, -0.208560973405838, -0.12587594985961914, 0.1119062602519989, -0.15508773922920227, 0.16568812727928162, -0.0651509165763855, 0.0870291069149971, 0.15517577528953552, 0.07448834180831909, -4.592420009430498e-05, 0.20059384405612946, -0.03133060783147812, -0.07698987424373627, 0.24528560042381287, 0.15166084468364716, -0.2120179831981659, 0.16858679056167603, -0.4558253288269043, 0.16834044456481934, -0.2175033837556839, 0.06225155293941498, -0.14534994959831238, 0.26272866129875183, -0.295239120721817, -0.0041455053724348545, 0.18173013627529144, -0.24778102338314056, 0.02520834468305111, 0.17435003817081451, -0.4971291422843933, -0.06363129615783691, 0.4077419340610504, -0.5620009303092957, 0.08983910083770752, -0.23913615942001343, 0.007908529601991177, -0.1029222160577774, 0.4289591312408447, -0.23353157937526703, 0.19036075472831726, -0.32622018456459045, 0.23720186948776245, 0.03448226675391197, 0.09343172609806061, -0.11127857863903046, -0.1548302322626114, -0.4537836015224457, 0.06419413536787033, -0.32563909888267517, 0.26970481872558594, -0.20380283892154694, 0.0846831351518631, 0.16639287769794464, -0.1678217202425003, 0.1829795241355896, -0.31827425956726074, 0.12486056983470917, 0.05725740268826485, 0.1744111180305481, -0.07151973247528076, -0.10627695173025131, 0.40046802163124084, -0.2230033278465271, 0.09533850103616714, 0.22134186327457428, -0.09452147781848907, 0.12229449301958084, 0.3948681354522705, -0.3644639849662781, -0.07180343568325043, -0.04684611037373543, 0.21644434332847595, 0.5355645418167114, 0.08098874986171722, -0.21148763597011566, -0.05035241320729256, 0.09555494785308838, 0.38211965560913086, -0.20225577056407928, 0.049038443714380264, 0.004362128209322691, 0.09451371431350708, 0.2671630382537842, 0.46802449226379395, 0.5003073811531067, 0.1363883912563324, -0.199151411652565, -0.2617032825946808, 0.06725993007421494, -0.12031091004610062, 0.07718393206596375, 0.13337406516075134, -0.014484441839158535, 0.022220849990844727, -0.28185898065567017, -0.024844149127602577, -0.0717817097902298, -0.10622615367174149, -0.003099007997661829, 0.21588042378425598, -0.15481199324131012, 0.08648452907800674, 0.04923155531287193, -0.08607523143291473, -0.149647057056427, -0.012703938409686089, 0.1582021415233612, -0.014974744990468025, -0.017330605536699295, 0.07138345390558243, 0.15783749520778656, 0.23202186822891235, 0.11384960263967514, -0.1350463628768921, 0.013575096614658833, -0.13685734570026398, -0.1056058257818222, 0.04090084880590439, -0.18203061819076538, -0.11305306106805801, 0.09534747153520584, -0.055012449622154236, 0.03130312263965607, 0.21220040321350098, -0.10417385399341583, 0.1774197816848755, -0.10248767584562302, 0.37151262164115906, 0.0073396447114646435, -0.10236663371324539, -0.1626795381307602, -0.05535474792122841, -0.08438774943351746, -0.1387317180633545, 0.20208758115768433, -0.043148137629032135, -0.11402227729558945, 0.23035256564617157, 0.11531290411949158, -0.3155221939086914, 0.09751605242490768, -0.0005707424716092646, -0.056351978331804276, -0.0002781288349069655, 0.20037126541137695, -0.026139182969927788, 0.062380600720644, 0.18196991086006165, 0.23369139432907104, 0.11190903931856155, -0.19656722247600555, -0.17709866166114807, 0.1440863311290741, 0.11747515201568604, -0.4559957683086395, -0.20249731838703156, 0.5166099667549133, -0.13686645030975342, 0.10093016177415848, 0.1967409998178482, -0.2301824539899826, 0.1619027853012085, 0.14900429546833038, -0.11458875238895416, 0.0445471927523613, -0.026399681344628334, -0.07945042103528976, 0.031071100383996964, 0.34899935126304626, -0.1611560732126236, 0.37814441323280334, 0.0409102700650692, -0.2912044823169708, 0.2623332738876343, 0.17947593331336975, -0.2894880175590515, -0.0549931637942791, -0.04807465150952339, 0.16941455006599426, -0.21883749961853027, 0.01491332147270441, -0.1867656111717224, -0.23429840803146362, -0.163413867354393, -0.10461436212062836, 0.24983224272727966, 0.4855089783668518, -0.13235296308994293, 0.06865645945072174, -0.01466333121061325, 0.060324136167764664, -0.26224657893180847, 0.30777671933174133, -0.22336137294769287, 0.1852772831916809, -0.14486129581928253, 0.011594935320317745, 0.06883376836776733, 0.18323582410812378, -0.14175130426883698, 0.11377415060997009, 0.016802888363599777, -0.024652209132909775, -0.15817168354988098, 0.06743873655796051, -0.04164483770728111, -0.008221451193094254, 0.1202167272567749, -0.021927600726485252, 0.025249900296330452, 0.005860838573426008, 0.17158636450767517, 0.08651290833950043, 0.10713143646717072, 0.1406908482313156, -0.14776788651943207, -0.10174611955881119, 0.23154589533805847, -0.055472660809755325, 0.0658062994480133, -0.38410335779190063, 0.3088652789592743, 0.20675408840179443, -0.04036537930369377, -0.08893914520740509, -0.09075961261987686, 0.3644678294658661, -0.15176184475421906, -0.2442040890455246, -0.02416144497692585, -0.07140372693538666, 0.08549471199512482, -0.07078905403614044, 0.051840364933013916, 0.06755208224058151, 0.08867917954921722, 0.17814794182777405, -0.1740788221359253, -0.06531382352113724, -0.06259441375732422, 0.02228117547929287, -0.07562622427940369, -0.1197352260351181, 0.19456201791763306, -0.13444891571998596, -0.2176569104194641, 0.1622534990310669, -0.14268119633197784, -0.20105253159999847, 0.024601053446531296, 0.034614790230989456, -0.1890682727098465, 0.06405507773160934, 0.31377002596855164, -0.06784118711948395, 0.06684860587120056, -0.07288677245378494, 0.11410804092884064, -0.02149471640586853, -0.0754355639219284, -0.060172438621520996, 0.055089645087718964, -0.21521896123886108, -0.19003136456012726, -0.2757962942123413, 0.008088505826890469, -0.006655531004071236, 0.07088220119476318, 0.03058564104139805, 0.21697749197483063, -0.4092925190925598, 0.06996167451143265, -0.38427817821502686, 0.05267607048153877, -0.09006334841251373, 0.533532440662384, -0.0238642655313015, 0.13002260029315948, 0.37162935733795166, -0.30001166462898254, 0.0020308257080614567, 0.4674033224582672, -0.2620922923088074, 0.18643294274806976, 0.5774569511413574, 0.027042822912335396, -0.3684379756450653, 0.22027772665023804, 0.017191007733345032, -0.39458560943603516, 0.6891340613365173, 0.11586551368236542, 1.0782527923583984, -0.4356782138347626, -0.12060268223285675, -0.059715546667575836, 0.12956158816814423, -0.21246707439422607, -0.5967509150505066, 0.4992946684360504, 0.34992918372154236, 0.028363464400172234, 0.2983522415161133, 0.13955196738243103, -0.0034664799459278584, 0.10927606374025345, 0.17337419092655182, 0.14635294675827026, -0.1134788915514946, -0.07088631391525269, -0.10074859112501144, -0.025412796065211296, 0.0037017990835011005, -0.3415030539035797, -0.2251933515071869, -0.004355992656201124, -0.05685998871922493, -0.20420093834400177, -0.023114729672670364, -0.4268129765987396, -0.03936299309134483, -0.11105978488922119, 0.4818851351737976, 0.014411743730306625, 0.03681064024567604, -0.11103608459234238, 0.029361004009842873, -0.033022135496139526, -0.06977278739213943, -0.3468462824821472, -0.017268173396587372, -0.10513472557067871, 0.17099042236804962, 0.00868917629122734, -0.02314881980419159, 0.06485540419816971, 0.2846570909023285, -0.22415496408939362, -0.2879277169704437, -0.32377633452415466, 0.009608831256628036, 0.09559017419815063, -0.16377423703670502, -0.012368610128760338, -0.20172815024852753, 0.015481565147638321, 0.06735579669475555, 0.21884211897850037, -0.055502038449048996, -0.14083047211170197, 0.146704763174057, -0.12606321275234222, -0.2088189423084259, 0.16012433171272278, 0.002580307424068451, -0.23570863902568817, 0.1779383420944214, -0.05338514968752861, 0.29172006249427795, -0.1560678333044052, -0.03553740307688713, 0.21624724566936493, 0.3238028585910797, 0.11118155717849731, 0.06294044107198715, -0.21672938764095306, 0.05448360741138458, -0.04871261119842529, 0.22119569778442383, 0.11095321923494339, 0.2875540852546692, -0.11933334916830063, -0.22550366818904877, -0.18724104762077332, 0.14538083970546722, -0.11471938341856003, 0.21541844308376312, -0.21183936297893524, -0.21554923057556152, -0.37410593032836914, -0.09335107356309891, 0.0266531091183424, 0.20055410265922546, -0.06882734596729279, -0.15053272247314453, 0.07576578855514526, -0.08055022358894348, -0.09074737131595612, 0.28128549456596375, -0.2243686020374298, -0.1444810926914215, 0.35890570282936096, -0.2999688684940338, -0.3527844548225403, 0.10207491368055344, 0.05352354049682617, 0.01040466595441103, 0.4918656051158905, -0.20274218916893005, -0.30612480640411377, -0.7955542802810669, -0.23726680874824524, 0.18455243110656738, 0.23510503768920898, 0.0866185650229454, -0.16478531062602997, 0.1782560646533966, 0.3523033559322357, 0.11087658256292343, -0.016622057184576988, -0.21570800244808197, -0.09441855549812317, 0.05111992359161377, -0.26148515939712524, -0.08508461713790894, 0.11629264801740646, 0.17643284797668457, -0.22626055777072906, -0.18445996940135956, -0.1449955552816391, -0.07088635116815567, 0.01413463894277811, -0.07162097841501236, 0.061749108135700226, -0.03394749388098717, -0.240899920463562, 0.06703970581293106, 0.1345154047012329, -0.30931970477104187, 0.10151521861553192, -0.20684516429901123, 0.07055727392435074, 0.009418831206858158, 0.49305930733680725, 0.08124299347400665, 0.22658132016658783, -0.24274860322475433, 0.024181323125958443, -0.3063328266143799, 0.03886580839753151, -0.29611411690711975, 0.07572200149297714, -0.21059547364711761, -0.1761355996131897, 0.08801739662885666, 0.2005908489227295, -0.09570147842168808, 0.1029948964715004, 0.13754621148109436, 0.2272302806377411, 0.08218804746866226, -0.10169796645641327, -0.0250248983502388, 0.11735298484563828, 0.06396850943565369, -0.01335141621530056, 0.08635953068733215, -0.122873954474926, 0.09991361200809479, -0.2627309560775757, 0.41845133900642395, 0.7996422052383423, 0.37292665243148804, 0.07322227954864502, 0.3139634430408478, -0.7558940052986145, 1.1510101556777954, -0.8265700340270996, -0.7494307160377502, -0.09355735778808594, 1.0488932132720947, 0.41277292370796204, -0.10573573410511017, -0.11146265268325806, -0.04760519042611122, -0.2996213734149933, 0.02965005673468113, 0.16797518730163574, -0.17202241718769073, -0.11781369149684906, 0.04046635329723358, 0.21335594356060028, -0.3178498446941376, 0.10047613084316254, 0.1425369381904602, 0.23281849920749664, 0.030305156484246254, -0.022231459617614746, 0.06383678317070007, -0.34780392050743103, 0.11893801391124725, -0.040989045053720474, -0.2167636752128601, -0.16252905130386353, 0.23364417254924774, 0.4048778712749481, -0.17448152601718903, 0.05718082934617996, -0.26151740550994873, -0.20625755190849304, -0.05621222406625748, 0.03347432613372803, -0.15312063694000244, -0.13964666426181793, -0.11850801110267639, 0.13422371447086334, -0.26094773411750793, -0.3136478662490845, -0.2892931401729584, -0.3193669617176056, -0.2873256504535675, 0.003049922874197364, -0.06674239039421082, -0.363166868686676, -0.2429247796535492, 0.05701427161693573, -0.1843472272157669, -0.015719568356871605, -0.2861957550048828, -0.18890303373336792, -0.013058863580226898, -0.08856059610843658, -0.3039005398750305, 0.2273743450641632, -0.10394261032342911, 0.28644421696662903, -0.13088808953762054, -0.1427106261253357, -0.047491058707237244, 0.1584876924753189, 0.24765101075172424, -0.28656530380249023, -0.17642167210578918, -0.1472320705652237, -0.02399972826242447, 0.22160957753658295, 0.0952470675110817, -0.296129435300827, 0.023920783773064613, -0.2938781976699829, 0.49694105982780457, -0.07045579701662064, 0.10728244483470917, -0.38340291380882263, -0.3248122036457062, 0.05394043028354645, 0.05389636754989624, -0.26532506942749023, -0.16691522300243378, 0.16908076405525208, -0.20130358636379242, 0.32571491599082947, -0.28333204984664917, 0.04042684659361839, -0.2799650728702545, 0.25222375988960266, -0.4058721959590912, -0.6261048913002014, -0.0703512653708458, 0.2671395242214203, -0.1195533350110054, -0.06220702454447746, -0.31877395510673523, 0.32010340690612793, 0.001489604008384049, 0.11383789777755737, -0.1439022719860077, -0.45411983132362366, 0.6699159741401672, 0.5960224866867065, -0.10325764119625092, -0.4099407494068146, -0.1596299260854721, 0.006066806614398956, 0.30365052819252014, -0.42283377051353455, -0.14117571711540222, -0.4247310757637024, 0.311018168926239, 0.42564278841018677, 0.36437082290649414, -0.06399669498205185, 0.07070600986480713, 0.23157194256782532, 0.20828743278980255, 0.1973751038312912, 0.13596947491168976, -0.4079868197441101, 0.050516724586486816, -0.03331025689840317, 0.27231746912002563, 0.06614931672811508, 0.004113021772354841, 0.26944637298583984, 0.1769551783800125, -0.30847272276878357, -0.5408611297607422, -0.4044605791568756, -0.42864754796028137, 0.28434351086616516, -0.25581908226013184, 0.20172244310379028, -0.06325685232877731, 0.17438046634197235, 0.5110288858413696, 0.08361908793449402, -0.3705872595310211, -0.5189695358276367, -0.08112598210573196, 0.190760537981987, -0.13645343482494354, -0.022917427122592926, 0.2710253596305847, -0.3454684913158417, 0.10695997625589371, 0.038714710623025894, -0.061155471950769424, 0.13132737576961517, -0.22351248562335968, 0.1074361726641655, 0.05113698169589043, -0.2312600314617157, 0.15093287825584412, 0.18920263648033142, -0.06291594356298447, -0.05928324535489082, -0.06168684735894203, -0.17996090650558472, -0.04473986476659775, -0.05491543933749199, 0.143650621175766, -0.010006318800151348, 0.09703841805458069, -0.02200358361005783, 0.029974764212965965, -0.22309784591197968, 0.08903943747282028, -0.20574164390563965, -0.23456211388111115, 0.12291598320007324, 0.06332791596651077, -0.0413668118417263, 0.14962279796600342, -0.01308094896376133, -0.016633281484246254, -0.5257686972618103, 0.1346200853586197, -0.01820855773985386, 0.15942710638046265, -0.25963571667671204, -0.195660799741745, 0.1187039390206337, -0.1250608116388321, 0.2924225926399231, 0.11804777383804321, -0.19055800139904022, 0.16318053007125854, -0.1344665288925171, 0.12053307890892029, 0.08189830183982849, 0.19277416169643402, 0.1719890981912613, 0.06869218498468399, 0.2455032914876938, -0.03219583258032799, 0.1038920134305954, -0.31620293855667114, -0.18737302720546722, -0.2152257263660431, 0.6143112182617188, 0.10700646042823792, 0.2869616150856018, -0.4920024573802948, -0.004216895438730717, 0.31764909625053406, -0.17761993408203125, 0.12384039908647537, -0.022353406995534897, -0.1766279935836792, 0.5591437220573425, -0.0721580907702446, -0.19914200901985168, -0.09177441149950027, 0.3152313828468323, -0.2068193107843399, -0.1015559732913971, 0.3474240303039551, -0.2988227307796478, 0.18152153491973877, -0.5566629767417908, 0.3882383406162262, 0.06465325504541397, -0.27285370230674744, 0.005472641903907061, -0.2058039903640747, 0.3274330794811249, 0.1194089949131012, 0.03363684192299843, -0.10446935892105103, -0.18349690735340118, -0.3479342460632324, -0.07892206311225891, 0.28381606936454773, 0.07740404456853867, 0.01087410468608141, -0.4247716963291168, -0.14568676054477692, 0.08308876305818558, 0.06779453903436661, -0.22457896173000336, 0.08185046166181564, 0.26669734716415405, -0.03310149163007736, 0.06847304105758667, 0.05460502952337265, -0.07632680237293243, -0.131032332777977, 0.22724749147891998, -0.15503403544425964, -0.21362589299678802, 0.10390335321426392, -0.23684492707252502, -0.2693789601325989, 0.06196514144539833, 0.3183932304382324, 0.37232980132102966, -0.2891239821910858, 0.04356791079044342, 0.27746641635894775, 0.003416406689211726, -0.16906315088272095, -0.20949365198612213, -0.12396255880594254, 0.014819132164120674, -0.0057258084416389465, 0.14134390652179718, -0.14847467839717865, -0.09131644666194916, 0.10445841401815414, 0.047853536903858185, -0.1752273440361023, 0.002178087830543518, -0.1921505630016327, 0.16162750124931335, 0.32220202684402466, -0.009330520406365395, -0.07391619682312012, 0.2191859930753708, -0.13829566538333893, -0.03262702375650406, 0.03553585708141327, -0.019870799034833908, 0.16403640806674957, 0.22947220504283905, -0.05703108012676239, -0.021023714914917946, 0.06591006368398666, 0.0363360196352005, 0.06792356073856354, -0.05027170851826668, -0.14246021211147308, 0.14354254305362701, -0.1857045739889145, 0.09108740836381912, -0.22056341171264648, -0.22690097987651825, 0.08429466187953949, -0.14084798097610474, 0.074268639087677, 0.1671433448791504, 0.04513286426663399, 0.12704379856586456, 0.15673820674419403, -0.08826065063476562, -0.17747977375984192, -0.023518115282058716, -0.03736693784594536, 0.06614594906568527, 0.09472820907831192, 0.03745003789663315, -0.19410499930381775, 0.11006122827529907, 0.029826536774635315, 0.06624161452054977, 0.16947020590305328, 0.1172715276479721, 0.09784477204084396, 0.01562897115945816, 0.07062974572181702, 0.10895176231861115, 0.0551079623401165, -0.05558609217405319, -0.07230187207460403, -0.17911936342716217, -0.13753624260425568, 0.052576109766960144, 0.07044772803783417, -0.08088952302932739, -0.02775082364678383, -0.04516546428203583, 0.004833601415157318, 0.08001601696014404, 0.07970313727855682, -0.10696455836296082, -0.05256359651684761, 0.2458297163248062, 0.14400909841060638, 0.026365157216787338, 0.17932049930095673, -0.1318105310201645, -0.07117882370948792, -0.008268310688436031, 0.07583846151828766, -0.07295085489749908, -0.15326480567455292, -0.1159331202507019, -0.0020899930968880653, 0.023097185418009758, 0.1422005593776703, 0.1755913496017456, -0.1160779818892479, -0.1237311139702797, -0.07305459678173065, -0.04718855768442154, 0.018443221226334572, -0.05226637423038483, -0.06216878071427345, -0.02117229998111725, 0.0705753043293953, -0.1347046047449112, -0.10216578841209412, 0.12092947959899902, -0.10016176104545593, 0.02448827587068081, 0.07165965437889099, -0.135650172829628, -0.0172993503510952, -0.016509993001818657, -0.22320780158042908, 0.05398394912481308, 0.1231299340724945, -0.188335120677948, 0.09841760993003845, 0.19549807906150818, -0.00010621148976497352, -0.012199625372886658, 0.1626499891281128, 0.03372177854180336, 0.0062780240550637245, -0.02381357178092003, -0.33284658193588257, 0.04922434315085411, 0.02092730440199375, -0.14564432203769684, -0.09714702516794205, -0.09017473459243774, -0.22968024015426636, -0.15155425667762756, 0.10595077276229858, 0.1279117465019226, -0.032179851084947586, 0.03127974271774292, -0.002940128557384014, 0.03466605395078659, 0.20363469421863556, 0.14745357632637024, -0.12000014632940292, -0.10722522437572479, -0.1419386863708496, 0.0452222041785717, 0.17083950340747833, 0.05373184755444527, 0.24714529514312744, 0.06499515473842621, -0.15096940100193024, -0.1242540180683136, 0.2184258997440338, 0.060091640800237656, 0.18635082244873047, 0.029471945017576218, -0.0858183205127716, -0.06782621145248413, 0.19531382620334625, 0.2124011069536209, 0.17387999594211578, -0.21203574538230896, -0.27696043252944946, 0.05687471851706505, 0.018402356654405594, -0.317518025636673, 0.11932777613401413, 0.04815346375107765, -0.025101471692323685, -0.10934532433748245, 0.15466786921024323, -0.2810288369655609, -0.2754722237586975, -0.11032941192388535, -0.06954112648963928, 0.14994777739048004, -0.05598871037364006, 0.01768508553504944, 0.0538007915019989, 0.0017666183412075043, -0.025511519983410835, -0.17937670648097992, -0.05912312865257263, -0.16140851378440857, -0.12212305516004562, -0.12576602399349213, -0.060838550329208374, 0.031223220750689507, 0.08491282165050507, -0.06389248371124268, -0.03413088619709015, 0.029352035373449326, -0.0007250425987876952, 0.05139901116490364, -0.058742400258779526, 0.040716055780649185, 0.14361277222633362, -0.10366715490818024, -0.11303078383207321, -0.11209942400455475, 0.26811483502388, -0.1814766526222229, -0.05069245770573616, 0.007501798681914806, -0.27707886695861816, -0.00340871955268085, 0.13470330834388733, -0.04091322422027588, -0.16188614070415497, -0.18697907030582428, -0.006282442715018988, 0.2164611667394638, 0.05707967281341553, 0.03315790370106697, 0.047440145164728165, -0.09110519289970398, -0.04439808800816536, 0.0568096898496151, -0.10927151143550873, 0.07422155886888504, -0.08758585900068283, -0.18602824211120605, -0.18232329189777374, 0.2040952444076538, 0.08088786900043488, -0.23275353014469147, -0.052990157157182693, 0.08639532327651978, 0.25936973094940186, 0.07433738559484482, 0.06298856437206268, -0.12990695238113403, 0.1765327900648117, 0.0673491358757019, 0.20340973138809204, -0.21130073070526123, -0.3063049912452698, 0.1988982856273651, -0.20758399367332458, -0.2439109832048416, 0.2203555405139923, -0.12845754623413086, -0.1452479362487793, -0.1500956118106842, 0.04052001237869263, -0.048687055706977844, 0.17271362245082855, 0.13485179841518402, -0.09850358963012695, 0.16695578396320343, -0.014591274783015251, 0.028295252472162247, 0.012293685227632523, -0.05120480805635452, 0.07364703714847565, 0.02750357612967491, 0.03273845091462135, 0.028681449592113495, 0.4105798602104187, 0.2008366733789444, -0.14518100023269653, -0.00408973079174757, 0.12679573893547058, -0.07774277776479721, -0.06094915419816971, 0.011090653948485851, 0.2168656289577484, -0.05754078924655914, -0.08004654198884964, 0.25019270181655884, 0.25729766488075256, -0.019908949732780457, -0.16522343456745148, 0.10250554233789444, 0.07597792893648148, -0.10927525162696838, 0.004237139131873846, -0.00014500843826681376, -0.057324666529893875, 0.029931817203760147, -0.09461762011051178, 0.1325775533914566, -0.0983935073018074, 0.007928719744086266, 0.0733289048075676, 0.09463677555322647, -0.06439517438411713, -0.007842394523322582, -0.03607563674449921, -0.16112716495990753, -0.02433750219643116, 0.11147666722536087, 0.046868111938238144, 0.32467716932296753, 0.22235283255577087, -0.04169442504644394, -0.015371397137641907, 0.1250922530889511, -0.09972583502531052, -0.10902908444404602, -0.03208094835281372, 0.028270026668906212, -0.17672549188137054, 0.007035765331238508, -0.159444659948349, 0.16025017201900482, -0.07732881605625153, 0.08978936821222305, 0.04112402722239494, -0.28124937415122986, -0.0865527093410492, -0.1863815188407898, 0.03369658812880516, 0.09702175110578537, -0.1599101573228836, -0.009950077161192894, -0.08687694370746613, -0.056208379566669464, 0.07800636440515518, 0.047384925186634064, -0.12466234713792801, -0.11705435067415237, 0.19084548950195312, 0.15849827229976654, 0.03298291191458702, -0.16264869272708893, 0.09447687119245529, 0.08788492530584335, -0.16378746926784515, -0.20970618724822998, 0.02034573256969452, 0.0741293877363205, -0.15446333587169647, -0.11728527396917343, -0.1008998453617096, 0.07619979977607727, 0.08770309388637543, 0.023429010063409805, 0.10624665021896362, -0.04388286545872688, -0.06744052469730377, -0.0024132083635777235, -0.021836910396814346, -0.014478102326393127, 0.08318652212619781, -0.021349608898162842, -0.12635953724384308, -0.05975589528679848, -1.1141531467437744, 1.0551049709320068, -0.5525504946708679, -0.8071508407592773, -0.2813507616519928, -0.679351270198822, -0.234401136636734, 0.6393572092056274, -0.6934512257575989, 0.3836822807788849, 0.4855214059352875, 0.189052551984787, 0.0029230816289782524, -0.25802871584892273, 0.2765021026134491, 0.37176865339279175, 0.0907113179564476, 0.26787564158439636, -0.38407889008522034, -0.20532406866550446, 0.12699724733829498, -0.1958143562078476, 0.2557556629180908, -0.10342855006456375, -0.12288539111614227, -0.143836110830307, 0.35282570123672485, 0.0743563175201416, -0.10129041224718094, 0.2294640839099884, 0.3564753532409668, 0.1720413863658905, -0.0072996593080461025, -0.27684518694877625, 0.0013594306074082851, 0.06684765964746475, 0.1868397295475006, 0.12323139607906342, -0.02413046546280384, -0.26783427596092224, 0.2377624362707138, -0.18008065223693848, -0.07140764594078064, 0.03131788223981857, -0.11805286258459091, 0.11529108136892319, 0.31150615215301514, -0.07756185531616211, -0.034253571182489395, -0.33413761854171753, -0.0172855406999588, 0.14003832638263702, 0.00022466473456006497, 0.252464234828949, 0.18322046101093292, 0.3461911976337433, 0.13711321353912354, -0.12717145681381226, 0.24871310591697693, 0.23794791102409363, -0.29547300934791565, 0.1486741155385971, -0.07304631173610687, -0.10231535136699677, -0.05050872266292572, -0.13367792963981628, 0.03174986690282822, -0.36460039019584656, -0.2746245861053467, -0.0737629234790802, 0.04100723937153816, 0.1472436934709549, 0.16777433454990387, -0.19631533324718475, 0.1457981914281845, -0.41250720620155334, -0.11411802470684052, -0.026153188198804855, 0.029741821810603142, 0.12442827224731445, -0.11407624185085297, -0.05491236597299576, -0.4421665668487549, -0.1162303015589714, 0.0029744021594524384, -0.05159909650683403, -0.12647221982479095, 0.4740712344646454, 0.1254393607378006, -0.1689080446958542, -0.08672221750020981, -0.01073157787322998, -0.09675634652376175, -0.16723623871803284, -0.17291724681854248, 0.20349662005901337, -0.1449332982301712, -0.12022779136896133, 0.11571484804153442, 0.09033185988664627, 0.20171180367469788, 0.06252926588058472, 0.06732648611068726, 0.11323845386505127, 0.1296231895685196, -0.22385311126708984, -0.2911244034767151, -0.2492503672838211, -0.3074176013469696, 0.2428733855485916, -0.02904403954744339, 0.19746842980384827, 0.3735242187976837, 0.03975986689329147, 0.04581904411315918, -0.318234920501709, 0.20056232810020447, 0.2083164006471634, 0.2613368630409241, -0.058198731392621994, 0.38492628931999207, 0.36710482835769653, -0.21381588280200958, 0.023968406021595, -0.11216851323843002, 0.09657858312129974, -0.02704371139407158, 0.14839835464954376, 0.0030008056201040745, 0.2632961869239807, -0.3907053768634796, 0.01988210529088974, -0.04657571390271187, -0.28411707282066345, 0.38439691066741943, 0.16134464740753174, 0.16542445123195648, 0.1855035275220871, 0.0036938157863914967, -0.3615063428878784, -0.17581036686897278, -0.24439525604248047, -0.06274987757205963, -0.08506523072719574, -0.3776671588420868, -0.015576843172311783, -0.0553283765912056, 0.06805587559938431, -0.044810425490140915, 0.025632483884692192, -0.267912358045578, -0.29714009165763855, -0.30603986978530884, 0.013432849198579788, 0.39848777651786804, -0.11064185202121735, 0.17724250257015228, 0.23727600276470184, -0.019753077998757362, 0.1610724925994873, -0.17340177297592163, -0.13801532983779907, -0.0178774856030941, -0.0014452484901994467, -0.14398929476737976, -0.08031811565160751, 0.02969597652554512, 0.0448138602077961, 0.05778684839606285, 0.15645496547222137, 0.3109171986579895, -0.04928826913237572, 0.14352543652057648, 0.11972373723983765, -0.0051902709528803825, 0.24207602441310883, -0.12532231211662292, -0.0433075986802578, 0.25340765714645386, 0.2397884875535965, -0.04066532477736473, 0.329180508852005, 0.08422216773033142, -0.04353518411517143, 0.027288949117064476, -0.16080041229724884, 0.07919896394014359, 0.1038966104388237, 0.24766889214515686, -0.09544374793767929, 0.2748919725418091, 0.12493995577096939, 0.04371093958616257, -0.08518864959478378, -0.03692614287137985, -0.06858572363853455, -0.18218044936656952, -0.1828661561012268, -0.10783068835735321, -0.04002496972680092, 0.21579696238040924, -0.14954878389835358, -0.10756655037403107, -0.1991000771522522, -0.007744435220956802, -0.056876275688409805, 0.30013659596443176, -0.11039845645427704, -0.1344173103570938, -0.12751241028308868, -0.11846505850553513, 0.04961245134472847, 0.19195684790611267, -0.029505882412195206, -0.09125951677560806, 0.05183921009302139, -0.16405105590820312, -0.046877820044755936, 0.3283403813838959, -0.03246351704001427, 0.04738534241914749, 0.17308105528354645, -0.036070700734853745, 0.06193949654698372, 0.02873758040368557, -0.13036108016967773, 0.048814766108989716, 0.018859241157770157, -0.11856570839881897, 0.032098907977342606, 0.005876034963876009, -0.24866613745689392, -0.1255255490541458, -0.3161914646625519, -0.04629375785589218, 0.08933299779891968, 0.011081370525062084, -0.007958872243762016, 0.02771465852856636, 0.2190854251384735, -0.4446195065975189, -0.38572657108306885, 0.10945654660463333, 0.2915157675743103, 0.07357725501060486, 0.46296659111976624, -0.4751201868057251, -0.37756747007369995, -0.608934223651886, -0.34234175086021423, -0.5680032968521118, -0.17688114941120148, -0.42502787709236145, -0.24876220524311066, -0.21841993927955627, 0.3862958252429962, 0.7596408724784851, 0.5563721656799316, -0.5396237969398499, -0.6277164220809937, -0.2521839439868927, -0.4628655016422272, -0.4909517467021942, 0.01466362550854683, 0.3003714680671692, 0.288414865732193, 0.03637482598423958, 0.1511230617761612, 0.6628984808921814, -0.6678485870361328, -0.04459741711616516, -0.2693904638290405, 0.6309400796890259, -0.1827390491962433, -0.21616536378860474, -0.21251805126667023, 0.14168505370616913, -0.03655797988176346, 0.012825584970414639, 0.2347487509250641, 0.013413109816610813, -0.1790950894355774, -0.3312534689903259, 0.20478545129299164, 0.07997063547372818, -0.05705014988780022, -0.15415017306804657, -0.0965452715754509, -0.1822757124900818, -0.086222343146801, -0.13261424005031586, -0.021301237866282463, 0.053060926496982574, -0.02221151441335678, -0.04244488477706909, -0.06230706721544266, 0.06307204812765121, 0.1743886023759842, -0.006726525723934174, -0.060766302049160004, -0.06851764768362045, -0.08008835464715958, 0.10273672640323639, 0.16626553237438202, 0.041106387972831726, 0.09585299342870712, 0.0766710564494133, -0.14102083444595337, 0.01259040180593729, 0.1054505780339241, -0.12804532051086426, 0.005806231405586004, 0.035254962742328644, 0.004358443897217512, -0.13913077116012573, -0.047929033637046814, 0.05683436989784241, 0.09341085702180862, 0.16869328916072845, 0.15369610488414764, 0.059973910450935364, -0.03414898365736008, 0.029964691027998924, 0.02802032232284546, 0.24141667783260345, -0.07747728377580643, -0.2104325294494629, 0.11062853783369064, 0.12398818880319595, 0.15928471088409424, -0.15403880178928375, 0.030592139810323715, -0.1372986137866974, -0.017188139259815216, 0.12765319645404816, 0.0007087172707542777, 0.01962338574230671, -0.0034851841628551483, -0.09859021008014679, -0.10773930698633194, 0.0024987361393868923, -0.054678432643413544, -0.02831566520035267, -0.061605263501405716, 0.052668072283267975, 0.10612542182207108, 0.1420097053050995, -0.09505699574947357, -0.04965856298804283, 0.04085031896829605, -0.03148280084133148, 0.2904190719127655, -0.09006261825561523, -0.12638244032859802, -0.18940654397010803, 0.017848016694188118, 0.1943451166152954, -0.0066604637540876865, 0.005551895592361689, -0.04644152894616127, -0.059132788330316544, -0.1128770038485527, 0.10681751370429993, 0.12509000301361084, -0.05410413816571236, 0.08728963881731033, 0.1095799058675766, -0.054215848445892334, -0.12900179624557495, 0.05356186628341675, -0.14292003214359283, 0.03532048687338829, -0.009009146131575108, 0.037669818848371506, 0.02931918203830719, -0.04748614504933357, 0.07867151498794556, 0.01937979646027088, -0.17244580388069153, 0.21934621036052704, 0.05025409162044525, -0.031086990609765053, -0.044324032962322235, 0.09891042858362198, 0.018871545791625977, 0.19394110143184662, -0.14791595935821533, -0.28398647904396057, -0.03207322582602501, 0.14075765013694763, 0.1689509153366089, 0.0743153914809227, -0.22841323912143707, 0.03303176537156105, 0.1357247680425644, -0.04184091091156006, 0.07122544199228287, -0.16089904308319092, 0.1709946244955063, -0.13176634907722473, 0.0474177785217762, -0.22587227821350098, -0.05717959254980087, 0.08325306326150894, 0.05347368121147156, -0.034629128873348236, -0.14664968848228455, 0.1641489863395691, -0.07777349650859833, 0.014954885467886925, -0.030277855694293976, -0.08293444663286209, 0.020897038280963898, -0.3609216809272766, -0.004311267286539078, -0.10162822902202606, 0.19314338266849518, 0.1344354748725891, -0.05876924842596054, 0.20930394530296326, -0.08816179633140564, -0.10045551508665085, -0.07617108523845673, -0.22007611393928528, 0.042035456746816635, 0.2130776345729828, 0.16468225419521332, -0.019741486757993698, 0.005877278279513121, 0.15995271503925323, 0.022159108892083168, -0.12650710344314575, 0.09991153329610825, 0.152956023812294, -0.15820422768592834, -0.16190746426582336, -0.14631494879722595, -0.02144237421452999, 0.2526131570339203, 0.05978885293006897, -0.02183421142399311, 0.15488427877426147, -0.0946851372718811, 0.06526163220405579, -0.055367615073919296, 0.05325602740049362, 0.12589716911315918, -0.18555708229541779, 0.16112472116947174, -0.19508153200149536, -0.05513440817594528, -0.0656343400478363, -0.08312609046697617, 0.2295076996088028, -0.08610987663269043, -0.03656085953116417, 0.15567843616008759, -0.2679802477359772, 0.489190012216568, -0.009345232509076595, 0.0006345033179968596, 0.13899651169776917, 0.2016032189130783, -0.17683002352714539, 0.1837760955095291, -0.0050060865469276905, -0.18668721616268158, 0.16459396481513977, 0.13100364804267883, -0.08050429075956345, 0.1618133932352066, -0.056540437042713165, -0.06900114566087723, 0.0705399289727211, 0.1099209412932396, -0.25037845969200134, 0.15725381672382355, -0.04950001463294029, -0.28931406140327454, 0.15510882437229156, 0.06994189321994781, 0.1386285424232483, -0.3009311854839325, -0.20834681391716003, -0.1481255143880844, -0.4808630645275116, 0.13911321759223938, -0.04494494944810867, 0.1684844046831131, 0.23724016547203064, -0.07218185812234879, 0.05724836513400078, 0.19351863861083984, 0.08235425502061844, -0.12282143533229828, -0.00614042766392231, 0.15765215456485748, -0.010528291575610638, 0.14439794421195984, -0.006873475853353739, -0.04822514206171036, 0.02195141278207302, 0.14029033482074738, -0.031787529587745667, -0.0037851810920983553, 0.14825348556041718, -0.043568965047597885, 0.058388106524944305, 0.0280474703758955, -0.11904636770486832, 0.009305296465754509, 0.07189594954252243, 0.017270486801862717, 0.01291162334382534, -0.015843113884329796, 0.058883268386125565, -0.12163476645946503, -0.0332820750772953, -0.232696533203125, -0.0051501234993338585, 0.2281942218542099, 0.17489327490329742, 0.3564777970314026, -0.08520185202360153, -0.33888116478919983, 0.14617395401000977, -0.1570412665605545, -0.1205233559012413, 0.062113817781209946, -0.3879762291908264, 0.0980081856250763, 0.19225400686264038, 0.3456243574619293, -0.004880151245743036, -0.005699420813471079, -0.14208675920963287, -0.00712138507515192, 0.0403931699693203, -0.3410083055496216, -0.143962562084198, 0.23627407848834991, -0.20728877186775208, -0.2213994860649109, 0.05559329688549042, -0.012217308394610882, -0.04833337292075157, 0.06995724886655807, -0.3197793960571289, 0.04182779788970947, 0.13144125044345856, -0.21803578734397888, 0.021200431510806084, -0.05516144260764122, 0.0681803971529007, -0.20622768998146057, 0.09638633579015732, 0.4333275258541107, 0.3170718848705292, 0.22514519095420837, 0.003455938072875142, -0.06357460469007492, -0.15417657792568207, -0.19669432938098907, -0.14766941964626312, -0.03770054504275322, 0.07102452963590622, -0.11346474289894104, 0.14963041245937347, -0.07419693470001221, -0.07369426637887955, -0.22995050251483917, 0.18895043432712555, 0.053195275366306305, 0.11895535886287689, -0.08429423719644547, -0.038967687636613846, 0.016230707988142967, 0.06071006879210472, -0.10489813983440399, 0.0761818215250969, 0.009454395622015, -0.0703372210264206, 0.1473156362771988, -0.04582884535193443, 0.10273313522338867, -0.22493471205234528, -0.038033995777368546, 0.06677745282649994, 0.05548761039972305, 0.03391576185822487, 0.17245279252529144, 0.18979988992214203, 0.13384658098220825, -0.21276193857192993, -0.09938093274831772, -0.02017361670732498, 0.07562845945358276, -0.15685467422008514, 0.10696277767419815, 0.024499962106347084, 0.07753438502550125, 0.04452693462371826, -0.15348102152347565, -0.03014226257801056, -0.04362707585096359, -0.12256328016519547, -0.2103419154882431, 0.01716480776667595, -0.006065627094358206, 0.025643667206168175, 0.12837213277816772, 0.038374245166778564, 0.5469815135002136, 0.10735981166362762, 0.2560748755931854, 0.16519543528556824, 0.15210790932178497, 0.5425443649291992, 0.6781824827194214, -0.9102785587310791, -0.36805567145347595, -1.3274073600769043, 0.034765876829624176, 0.9149708151817322, -0.4389476180076599, -0.16663087904453278, 0.17185848951339722, -0.22111383080482483, 0.14767560362815857, 0.03599654510617256, 0.07076425850391388, 0.0035338893067091703, -0.3738549053668976, 0.36181291937828064, 0.0355660542845726, -0.1344408392906189, 0.016921181231737137, 0.0242659542709589, -0.07233941555023193, 0.1346118450164795, -0.3398136496543884, 0.39901167154312134, -0.013512592762708664, -0.12202505767345428, -0.21018357574939728, -0.1823386400938034, 0.04544169083237648, 0.3028261065483093, -0.03429241105914116, -0.073016457259655, 0.05948732793331146, -0.22094213962554932, 0.011439085006713867, -0.44740381836891174, 0.10301604866981506, 0.2867578864097595, -0.08720942586660385, 0.265044242143631, -0.04161413013935089, -0.17156699299812317, -0.06760314851999283, -0.17395684123039246, 0.01601829007267952, 0.344255268573761, -0.013260270468890667, 0.16923578083515167, 0.07957165688276291, 0.018897786736488342, 0.11956294625997543, -0.1923815757036209, 0.019147604703903198, 0.07441091537475586, 0.12378303706645966, -0.38823896646499634, 0.019256653264164925, -0.2640784680843353, 0.47930267453193665, -0.04324393719434738, 0.10595081001520157, 0.19544127583503723, -0.2203368842601776, -0.03745843842625618, 0.3867901861667633, -0.2104264497756958, -0.22432345151901245, -0.13177494704723358, -0.11431535333395004, -0.03429931029677391, 0.3721047341823578, -0.005610229447484016, -0.252101868391037, -0.010447445325553417, 0.014398392289876938, -0.05583186447620392, 0.09241495281457901, 0.07726315408945084, -0.04984739050269127, -0.1629493236541748, 0.3229255676269531, 0.22977523505687714, 0.2562333345413208, 0.1099027693271637, 0.008434879593551159, 0.05839552730321884, -0.13208533823490143, -0.00727241113781929, -0.060840904712677, -0.020735234022140503, -0.02008785307407379, 0.001001064432784915, -0.04617536813020706, -0.1444951444864273, -0.27693673968315125, 0.19037549197673798, 0.004784161224961281, -0.25045347213745117, 0.13888047635555267, 0.2318684607744217, -0.15627780556678772, -0.17958973348140717, 0.2688356637954712, 0.05524587631225586, -0.08763126283884048, 0.258354514837265, -0.10215707868337631, 0.03472879156470299, -0.40312525629997253, -0.2998198866844177, -0.1388648897409439, 0.0320894829928875, 0.047662027180194855, 0.22207529842853546, -0.014197311364114285, -0.04988209903240204, 0.10811521857976913, -0.23463091254234314, -0.010702798143029213, 0.016065867617726326, -0.10652822256088257, 0.44598278403282166, -0.19335123896598816, -0.1696738749742508, -0.373751699924469, -0.06363534927368164, 0.09843721985816956, -0.02394961565732956, -0.1714777797460556, -0.06287971138954163, 0.0340266227722168, 0.15762996673583984, -0.03608079254627228, 0.006420918274670839, 0.1704772263765335, 0.06591004878282547, 0.3977845311164856, 0.3002150058746338, 0.22940336167812347, -0.21554845571517944, -0.06693980097770691, -0.3861156404018402, 0.2644574046134949, -0.008008620701730251, 0.052542414516210556, 0.24912972748279572, -0.08729994297027588, 0.31280505657196045, -0.060627732425928116, -0.11018453538417816, -0.1718650758266449, -0.09089913964271545, 0.054791923612356186, 0.0731789618730545, -0.0664590373635292, -0.14447221159934998, 0.17361247539520264, -0.11756099760532379, -0.20689553022384644, 0.08481460809707642, 0.17075365781784058, -0.002778136171400547, 0.03729397431015968, 0.4177587032318115, 0.11879625916481018, -0.2998150587081909, -0.07747246325016022, -0.14116685092449188, 0.20503860712051392, 0.23520435392856598, 0.07819044589996338, 0.0028646404389292, 0.36751589179039, -0.33575230836868286, 0.01738293096423149, -0.3486040532588959, 0.2330746203660965, -0.1059940755367279, 0.10213840007781982, -0.14213718473911285, -0.287040114402771, 0.31190958619117737, 0.06512144953012466, 0.0013226419687271118, 0.40225547552108765, -0.1371297389268875, -0.2796018421649933, -0.10737782716751099, 0.16289877891540527, 0.29929155111312866, -0.01547942217439413, 0.1827486753463745, -0.18815886974334717, -0.05647122859954834, -0.006968869362026453, 0.14034123718738556, -0.04982484504580498, -0.007077049929648638, 0.3425741195678711, 0.3455565571784973, -0.28682664036750793, 0.14049172401428223, -0.10162214189767838, 0.24148248136043549, -0.35856226086616516, 0.08383000642061234, -0.4179176390171051, 0.21029944717884064, 0.09794657677412033, 0.08115118741989136, -0.13717235624790192, 0.33229339122772217, -0.30334943532943726, 0.23199467360973358, 0.22971715033054352, 0.1454956978559494, 0.14618846774101257, -0.1148998960852623, -0.024833476170897484, 0.16568680107593536, 0.0748010128736496, -0.18967962265014648, -0.11011170595884323, -0.033630598336458206, -0.15739168226718903, -0.21727509796619415, -0.02652934193611145, -0.09038586914539337, 0.04745027422904968, -0.13302254676818848, -0.11283954232931137, -0.07108088582754135, 0.1214337944984436, -0.20689712464809418, -0.04710329696536064, 0.10087000578641891, 0.3132687509059906, -0.21872752904891968, 0.017996368929743767, -0.08265630900859833, 0.1640235185623169, -0.07073868066072464, 0.007877814583480358, -0.16136786341667175, -0.08705124258995056, -0.10648124665021896, 0.08177519589662552, -0.4326046109199524, -0.012269847095012665, 0.03553112596273422, -0.05957894027233124, 0.13098636269569397, -0.19300279021263123, 0.07126116752624512, -0.2569863796234131, -0.024106688797473907, 0.192251056432724, 0.2550045847892761, -0.1613411009311676, 0.09503939747810364, -0.008686290122568607, -0.1771371066570282, -0.14085911214351654, 0.07311885058879852, 0.16405032575130463, -0.0791521891951561, -0.03969729691743851, 0.1605330854654312, -0.0027371353935450315, -0.0351950079202652, 0.2414044886827469, 0.07420609891414642, -0.2447921335697174, -0.01997421309351921, 0.11564455181360245, 0.12911447882652283, 0.3041713535785675, 0.20901039242744446, -0.05437493696808815, 0.07491307705640793, 0.19175900518894196, 0.1876494139432907, 0.2865903675556183, 0.5693568587303162, -0.07072984427213669, 0.06853697448968887, -0.14546404778957367, -0.12367452681064606, 0.1610189825296402, 0.23966889083385468, 0.16096888482570648, -0.052892040461301804, -0.08443714678287506, 0.04669042304158211, -0.08200396597385406, -0.19053348898887634, -0.43803831934928894, 0.2694942355155945, 0.05201870948076248, -0.315432608127594, 0.14511120319366455, 0.17346541583538055, 0.41906872391700745, -0.055144231766462326, -0.03471076488494873, -0.16310419142246246, 0.0933714434504509, 0.20772376656532288, -0.09043922275304794, -0.015710270032286644, -0.11695897579193115, -0.12970402836799622, -0.2754723131656647, 0.13831235468387604, -0.2374906837940216, -0.018259508535265923, -0.09333799034357071, -0.08595654368400574, 0.14700084924697876, 0.25144270062446594, 0.0999596118927002, 0.30073779821395874, -0.11860200017690659, 0.13151350617408752, -0.03094104677438736, -0.008435619063675404, -0.06559827923774719, -0.13994012773036957, 0.11457239091396332, -0.2552438974380493, 0.0019404628546908498, 0.12142585963010788, -0.23702356219291687, 0.013865608721971512, -0.2222987413406372, 0.06937355548143387, -0.04384320229291916, 0.10620204359292984, -0.0349058173596859, 0.07029137760400772, 0.07687072455883026, -0.1999112218618393, -0.014593999832868576, -0.17006205022335052, -0.12711036205291748, -0.08620145171880722, 0.03850342705845833, 0.25487804412841797, 0.2317914515733719, 0.07467187941074371, 0.06584524363279343, -0.02701054885983467, 0.09677547216415405, -0.006685991305857897, 0.13728050887584686, -0.2124169021844864, -0.04443560913205147, -0.04424082487821579, -0.02241297997534275, -0.09500046074390411, 0.0078055583871901035, 0.037847984582185745, -0.06996212154626846, -0.008588997647166252, 0.24266855418682098, 0.1101551502943039, 0.001377608859911561, 0.18444712460041046, 0.11911557614803314, 0.09513922035694122, -0.0986855998635292, -0.009802899323403835, 0.05338592454791069, 0.02687595970928669, 0.07022799551486969, 0.21638540923595428, -0.02369723655283451, 0.059614259749650955, 0.06895492225885391, 0.11539628356695175, -0.024641554802656174, -0.07249899208545685, -0.10777752101421356, -0.07071038335561752, 0.12428290396928787, 0.17384880781173706, -0.16682511568069458, -0.06502792984247208, -0.07814004272222519, 0.12119146436452866, -0.03116690367460251, 0.027600122615695, -0.39055025577545166, -0.0002993223606608808, -0.18574877083301544, -0.09931354969739914, 0.11704140156507492, 0.12068148702383041, 0.26701438426971436, -0.10195761919021606, 0.05343930795788765, 0.2452087551355362, 0.08379010111093521, 0.13544604182243347, 0.1405280977487564, -0.08360452950000763, -0.06529282033443451, 0.005069087725132704, -0.02020951174199581, 0.057010430842638016, 0.024692477658391, 0.2023819088935852, -0.024319123476743698, -0.11071017384529114, -0.1578492969274521, 0.23255378007888794, 0.02107684127986431, -0.2829897999763489, 0.061724815517663956, -0.048277001827955246, 0.11957032978534698, -0.07089231163263321, -0.1759164184331894, 0.11203420162200928, 0.05308443680405617, 0.1372339278459549, 0.20741762220859528, 0.23171229660511017, -0.0907420963048935, -0.07481986284255981, -0.15756839513778687, 0.20138315856456757, -0.1816890984773636, 0.03403851017355919, 0.26918748021125793, -0.10121490061283112, -0.11039850115776062, -0.11916983872652054, -0.12313074618577957, -0.01328785065561533, 0.1718461513519287, 0.15350133180618286, -0.039357978850603104, -0.13364310562610626, -0.024962669238448143, -0.08698860555887222, 0.027089592069387436, 0.07081151753664017, 0.009151432663202286, -0.08503946661949158, 0.0798448771238327, 0.026196284219622612, 0.2317989021539688, 0.15402843058109283, -0.0034101358614861965, -0.10673516243696213, -0.3153103291988373, 0.11537536978721619, -0.10537674278020859, 0.06514683365821838, -0.02624184638261795, -0.057163070887327194, 0.07549428194761276, -0.1953563094139099, -0.005099676549434662, -0.12667982280254364, -0.05951066315174103, 0.022261621430516243, 0.135358065366745, 0.1313067525625229, -0.0870593786239624, -0.052541349083185196, -0.10463539510965347, -0.08706928789615631, -0.12217234075069427, -0.02558775432407856, -0.10527975112199783, 0.1976579874753952, 0.052305348217487335, 0.3755967617034912, -0.035247378051280975, 0.005407370161265135, -0.19818183779716492, 0.018516261130571365, -0.14980843663215637, -0.057335399091243744, -0.17212994396686554, -0.10414854437112808, -0.21766304969787598, 0.2013893574476242, -0.13040828704833984, -0.18320909142494202, 0.05864911898970604, 0.040599506348371506, -0.2560117840766907, -0.18895894289016724, 0.034646693617105484, 0.12883639335632324, -0.42950019240379333, -0.022621294483542442, 0.08265732228755951, -0.02157909981906414, -0.10112056881189346, -0.1547645777463913, -0.1580459028482437, -0.2020847350358963, 0.02241704985499382, 0.09876454621553421, 0.11139290034770966, -0.17363199591636658, -0.0090288445353508, -0.06541366130113602, 0.0004490040591917932, 0.1160903051495552, -0.008679443970322609, 0.31957799196243286, -0.05980733782052994, -0.018821636214852333, -0.17196789383888245, -0.15877291560173035, 0.019419781863689423, -0.08244620263576508, -0.11096461862325668, 0.05171488597989082, -0.03920880705118179, 0.18297897279262543, 0.03908240422606468, -0.44146889448165894, -0.25906142592430115, -0.08693432062864304, 0.03426485136151314, -0.10883710533380508, -0.08103121817111969, 0.15743890404701233, 0.009797213599085808, 0.05289682745933533, 0.008710972033441067, 0.09642846882343292, -0.08358816802501678, -0.07836206257343292, -0.06101524457335472, -0.03113822638988495, -0.060745906084775925, -0.34295210242271423, -0.24927650392055511, 0.07000185549259186, -0.0259135402739048, -0.12382484972476959, -0.24381393194198608, 0.1298999786376953, 0.041093870997428894, -0.11605430394411087, -0.03820257633924484, 0.06215381249785423, -0.047163400799036026, -0.12034922093153, 0.00813311617821455, 0.29284074902534485, -0.17691387236118317, -0.007636153604835272, -0.17433707416057587, 0.24399755895137787, -0.04316902160644531, 0.37312886118888855, -0.28464847803115845, -0.04140673577785492, -0.29699093103408813, -0.10175995528697968, 0.2569929361343384, -0.2997194230556488, -0.30945122241973877, -0.12897062301635742, -0.01748719811439514, -0.14914505183696747, -0.14312592148780823, 0.14977243542671204, 0.008939864113926888, -0.060778696089982986, -0.16477061808109283, -0.01902165077626705, 0.24466311931610107, -0.42311444878578186, 0.09966479986906052, -0.01064725499600172, 0.23993809521198273, -0.15229018032550812, 0.034580014646053314, 0.39291849732398987, -0.11494925618171692, 0.09629607200622559, 0.05349608138203621, -0.17108015716075897, 0.05622309073805809, -0.111238494515419, -0.08400272578001022, 0.05474115163087845, 0.014562886208295822, 0.27159222960472107, -0.04218786582350731, -0.10175799578428268, 0.08545448631048203, 0.060446787625551224, 0.1240643635392189, 0.07154875993728638, 0.13242007791996002, 0.05570688843727112, -0.2915883958339691, -0.13062943518161774, -0.06964386999607086, -0.4376385509967804, 0.04461134225130081, -0.35344839096069336, -0.37921711802482605, -1.0098638534545898, 0.533800482749939, -0.8358386158943176, 0.4985320270061493, 0.6707998514175415, -0.1783611923456192, 0.4260348081588745, -0.3376465439796448, 0.03634065389633179, 0.3769548237323761, -0.09564278274774551, 0.3673115372657776, -0.25707921385765076, -0.0577612966299057, -0.2531565725803375, -0.2174876630306244, 0.42470279335975647, 0.3384765386581421, -0.11273441463708878, -0.039421387016773224, -0.23148824274539948, 0.2427455633878708, -0.24168257415294647, -0.3090752959251404, -0.30062782764434814, 0.5008880496025085, 0.334990918636322, 0.14939677715301514, 0.044473808258771896, -0.07877124845981598, 0.11651087552309036, 0.11930610984563828, 0.04497748985886574, -0.010544005781412125, -0.03403955698013306, 0.39527446031570435, 0.2470504194498062, -0.25426778197288513, 0.03460247814655304, -0.04307720437645912, -0.06588450819253922, 0.07638535648584366, -0.11923655867576599, 0.1500774621963501, 0.2102867215871811, -0.12039047479629517, -0.010936145670711994, 0.20725934207439423, -0.22691699862480164, 0.09264557808637619, -0.15821699798107147, -0.00414712680503726, -0.33529776334762573, 0.038850922137498856, 0.21594515442848206, 0.3270781934261322, 0.0500820092856884, 0.001645539072342217, 0.2750769555568695, 0.26104822754859924, 0.3906403183937073, -0.4698798954486847, -0.17597335577011108, -0.11945261806249619, -0.08067722618579865, 0.09148062765598297, -0.16770721971988678, 0.007381091360002756, 0.17363834381103516, 0.04328939691185951, 0.046021826565265656, -0.24524879455566406, -0.5194581747055054, -0.34012511372566223, 0.2495817095041275, -0.16771358251571655, -0.2679673135280609, 0.2013009637594223, 0.11900123208761215, 0.1549970507621765, -0.0351543202996254, 0.16547271609306335, -0.07984231412410736, 0.09892494976520538, -0.25679925084114075, 0.24190330505371094, -0.004194369539618492, -0.18893790245056152, -0.1876944899559021, -0.12029633671045303, -0.11245838552713394, -0.1136857122182846, 0.24292588233947754, 0.10008776932954788, -0.2749614417552948, -0.05778873339295387, -0.17579585313796997, 0.21330972015857697, 0.03184463083744049, 0.24304400384426117, -0.08293410390615463, -0.20605279505252838, 0.1113201156258583, -0.3564513921737671, 0.402034193277359, 0.21685047447681427, -0.13131189346313477, 0.13078469038009644, 0.26192641258239746, 0.23227301239967346, 0.09839463233947754, 0.18996180593967438, -0.1303112953901291, 0.3466278612613678, -0.08031918853521347, 0.3583175837993622, -0.13585181534290314, 0.1041221171617508, -0.08313810080289841, 0.0830923318862915, 0.15462219715118408, 0.12092532217502594, -0.2709968388080597, -0.06485005468130112, 0.2948020398616791, -0.3164396584033966, 0.0909886360168457, -0.15396748483181, -0.2528814375400543, -0.2204115092754364, -0.14460550248622894, -0.28279930353164673, -0.095896415412426, 0.0121888043358922, -0.008480160497128963, 0.11735213547945023, 0.23804661631584167, 0.005071388091892004, -0.15037871897220612, -0.06707683950662613, 0.12271710485219955, 0.0471285842359066, 0.3298373818397522, 0.4607321619987488, 0.168515145778656, 0.005122058559209108, 0.31168869137763977, -0.3508167266845703, -0.03582421690225601, 0.1458965539932251, 0.025251328945159912, 0.021190058439970016, -0.10740435123443604, -0.13671761751174927, 0.03322141245007515, 0.12204878777265549, -0.16032539308071136, 0.025438642129302025, 0.16397149860858917, 0.10398098826408386, 0.054159604012966156, 0.13305628299713135, 0.36764273047447205, -0.22361613810062408, -0.2720544934272766, -0.011685017496347427, -0.6452834010124207, 0.20227336883544922, 0.20820558071136475, 0.27490851283073425, 0.03385207802057266, 0.06005771458148956, 0.12394020706415176, 0.1378340870141983, 0.06264867633581161, 0.1762150377035141, -0.21404601633548737, -0.2239885777235031, -0.16005873680114746, -0.03793364763259888, 0.035281699150800705, 0.19910216331481934, -0.06196516752243042, -0.0648014023900032, 0.2097940742969513, 0.05564132332801819, 0.041150547564029694, 0.0578758679330349, 0.26164186000823975, -0.12983226776123047, -0.3980852961540222, -0.05650617182254791, 0.0049247220158576965, 0.2788833677768707, 0.1358165144920349, 0.11290383338928223, 0.62313312292099, -0.1474658101797104, 0.15773163735866547, -0.4119254946708679, -0.3081005811691284, 0.020282940939068794, -0.40684273838996887, 0.04188394173979759, 0.05249334126710892, 0.6189414858818054, 0.02951779030263424, 0.4094719886779785, 0.18050456047058105, 0.29409411549568176, 0.11171310395002365, -0.004382466431707144, 0.03484218195080757, -0.16265402734279633, -0.45647379755973816, 0.029408423230051994, 0.07085708528757095, 0.41059204936027527, -0.0756344422698021, -0.10946992039680481, 0.2692568898200989, -0.009446505457162857, 0.033068522810935974, -0.199091836810112, 0.2489316314458847, -0.024233631789684296, 0.2839648723602295, -0.0420510359108448, -0.05912542715668678, -0.1073802188038826, 0.17115050554275513, 0.28204479813575745, 0.6683319211006165, 0.08281542360782623, 0.004497720394283533, -0.09805469959974289, 0.19985873997211456, -0.051074448972940445, -0.26372167468070984, -0.1723540872335434, -0.12385758012533188, -0.23490047454833984, -0.2500622868537903, -0.11992717534303665, -0.2824573814868927, 0.11701134592294693, 0.10137787461280823, -0.4904152452945709, -0.02256380394101143, 0.27054259181022644, 0.2239740937948227, -0.15702101588249207, -0.14080527424812317, -0.36018890142440796, 0.214128777384758, 0.1271878182888031, 0.08030200004577637, -0.03320609778165817, 0.18613499402999878, 0.23047053813934326, -0.1299951821565628, -0.22062866389751434, -0.21033693850040436, 0.06557577848434448, -0.06416475772857666, -0.15715649724006653, -0.03185464069247246, 0.01476967055350542, 0.014052429236471653, 0.12141598016023636, 0.0783751979470253, -0.24164174497127533, 0.2338966727256775, 0.05511115491390228, 0.39515164494514465, -0.06505589187145233, 0.07294522970914841, -0.27198705077171326, -0.025580156594514847, 0.0074807750061154366, -0.2433439940214157, -0.10067348182201385, 0.018606888130307198, -0.06013353168964386, -0.07687507569789886, 0.09344924986362457, -0.025323839858174324, 0.031024014577269554, -0.11055269837379456, -0.08926972001791, 0.17122231423854828, 0.1776285022497177, -0.2807047665119171, 0.13424792885780334, -0.1651112586259842, 0.266184538602829, -0.10113635659217834, 0.030771529302001, -0.02628517523407936, 0.08698069304227829, 0.24458861351013184, -0.04293326288461685, -0.09078465402126312, -0.1224224716424942, -0.23016050457954407, -0.17613442242145538, -0.15908226370811462, 0.05465651676058769, -0.07689926028251648, 0.01276647299528122, 0.13877081871032715, 0.013621380552649498, 0.1298638880252838, -0.023770468309521675, -0.08204667270183563, 0.0019767237827181816, 0.08566492795944214, 0.20237448811531067, 0.019757939502596855, -0.07740238308906555, 0.1695159673690796, 0.18110232055187225, -0.23917081952095032, -0.04958447068929672, 0.026132188737392426, 0.05062327906489372, 0.0211188942193985, -0.005352371837943792, -0.005442301742732525, -0.06099517270922661, -0.22317616641521454, -0.1512569934129715, -0.12582999467849731, -0.0414106547832489, -0.1631033718585968, -0.10026027262210846, 0.038371048867702484, -0.18397153913974762, 0.12566430866718292, 0.30880963802337646, 0.11798853427171707, -0.10657791048288345, -0.09115856885910034, -0.09664256870746613, 0.158005952835083, -0.13421444594860077, -0.1234087347984314, -0.01484149694442749, 0.01906772516667843, 0.07587223500013351, -0.09418689459562302, 0.04552152752876282, -0.12485802173614502, -0.29375985264778137, 0.004831425845623016, -0.2724709212779999, -0.15699104964733124, 0.12393864244222641, 0.05012499913573265, -0.09034097194671631, -0.09293968975543976, -0.08419457077980042, -0.10939260572195053, -0.10572335869073868, -0.23163223266601562, -0.10497500002384186, -0.09131312370300293, 0.04771869629621506, 0.06907914578914642, 0.20018154382705688, 0.1188720241189003, -0.046549562364816666, 0.21101000905036926, -0.007086997386068106, -0.0852767676115036, -0.03406756743788719, -0.2049824595451355, 0.22207124531269073, -0.0880548506975174, -0.25668203830718994, 0.2632147967815399, -0.1740264892578125, 0.07309334725141525, 0.24465139210224152, 0.09226109087467194, -0.028712276369333267, -0.1649889200925827, -0.11293961852788925, 0.1564343273639679, -0.07170496881008148, -0.12569579482078552, -0.09564267098903656, 0.0017859569052234292, 0.21041077375411987, 0.2538619339466095, 0.0019467524252831936, 0.021846672520041466, 0.0489194355905056, 0.2842836380004883, 0.16281451284885406, 0.0876653641462326, 0.37800416350364685, 0.08774025738239288, 0.03908688575029373, -0.2064715027809143, -0.20122182369232178, 0.28177163004875183, 0.12811696529388428, -0.08254392445087433, 0.14983727037906647, -0.17253537476062775, 0.02401619777083397, 0.22087423503398895, -0.0035315349232405424, -0.17480044066905975, 0.26031848788261414, -0.12611572444438934, -0.07224492728710175, -0.07094154506921768, 0.09269576519727707, 0.0877416580915451, 0.091767817735672, -0.20954422652721405, -0.030942155048251152, -0.180461585521698, 0.18895187973976135, -0.09721986949443817, -0.0890275239944458, -0.11226585507392883, 0.3774595260620117, 0.22345156967639923, -0.22166231274604797, -0.15786007046699524, -0.38140344619750977, -0.04861346259713173, 0.014590604230761528, 0.12311673909425735, -0.20798437297344208, -0.03388769552111626, -0.09751252084970474, 0.09801328182220459, -0.2161640226840973, -0.09213268756866455, 0.12342599779367447, 0.06001776456832886, -0.13532055914402008, 0.05147992819547653, 0.09927301853895187, 0.052667878568172455, -0.25208258628845215, 0.03843610733747482, 0.05633804574608803, -0.3094910681247711, 0.0758150964975357, 0.03706742450594902, -0.06173728406429291, 0.09961988776922226, -0.04552679508924484, 0.017176611348986626, 0.30980658531188965, -0.34752577543258667, 0.13047568500041962, -0.08975344896316528, 0.2101592868566513, 0.06731335073709488, -0.2214142382144928, 0.4169005751609802, 0.05172571912407875, 0.34535321593284607, 0.17744185030460358, -0.057743191719055176, 0.2578859329223633, -0.43104901909828186, -0.048857491463422775, -0.18600277602672577, 0.3264572024345398, 0.19537736475467682, 0.1253868192434311, 0.3395759165287018, -0.07126454263925552, -0.05087724328041077, -0.11696425080299377, 0.01840069517493248, 0.2533869743347168, -0.16822442412376404, -0.20192541182041168, -0.2833048403263092, -0.3056408762931824, 0.14439454674720764, -0.07941039651632309, -0.23780032992362976, -0.10742601752281189, -0.28921574354171753, -0.1378987729549408, 0.15065376460552216, 0.10126280784606934, 0.34547939896583557, -0.1619843691587448, 0.03742935135960579, 0.3052978217601776, 0.06876930594444275, 0.28873375058174133, 0.31134045124053955, -0.001534232753328979, -0.11717679351568222, 0.1789379119873047, -0.085373155772686, -0.031040720641613007, -0.05711827054619789, -0.1949189156293869, 0.008812782354652882, 0.21030659973621368, -0.14311055839061737, 0.009011340327560902, 0.08414000272750854, -0.07287148386240005, 0.06891782581806183, -0.08159546554088593, 0.10866592079401016, -0.017633505165576935, 0.06526633352041245, -0.11554460227489471, -0.23391926288604736, 0.09638802707195282, 0.11674109846353531, 0.14726318418979645, -0.10009285807609558, -0.15508456528186798, -0.2878201901912689, 0.10046513378620148, 0.06513345241546631, -0.05028450861573219, -0.1690075695514679, 0.019708482548594475, 0.08752089738845825, 0.2899739742279053, -0.11235705018043518, 0.07836365699768066, 0.5311997532844543, -0.02666669711470604, -0.09799537807703018, -0.19828404486179352, -0.017574956640601158, -0.05120362713932991, -0.001950410078279674, -0.05301734060049057, -0.16767822206020355, 0.11454612016677856, -0.08317097276449203, 0.005806355271488428, -0.1033688560128212, -0.008296804502606392, -0.2893991768360138, -0.06612773984670639, -0.04480109363794327, -0.0741356760263443, -0.11563459038734436, 0.014294699765741825, -0.019886936992406845, -0.26622530817985535, 0.015754936262965202, -0.04052417352795601, -0.22346913814544678, -0.1009380966424942, -0.21239081025123596, 0.036718204617500305, -0.09968024492263794, -0.0166876632720232, 0.7010985612869263, 0.10767050087451935, 0.02196640893816948, 0.1653754711151123, 0.011017972603440285, 0.15352220833301544, 0.11811207979917526, 0.05257044732570648, -0.09363273531198502, -0.11289281398057938, 0.04482586681842804, -0.12060558795928955, 0.2687584459781647, -0.0007706276373937726, 0.12789766490459442, -0.048919059336185455, -0.08934339880943298, -0.17434443533420563, 0.015749817714095116, -0.02662966214120388, 0.011932914145290852, 0.11628247052431107, -0.031133711338043213, -0.13939842581748962, 0.18792332708835602, -0.08524809032678604, 0.045687898993492126, -0.29833632707595825, 0.14922355115413666, -0.016952887177467346, 0.10760790854692459, -0.1247933879494667, 0.02200033888220787, 0.0462808832526207, -0.16225257515907288, -0.04441152513027191, 0.021738721057772636, -0.13440747559070587, -0.7535832524299622, 1.0847978591918945, 0.2824818789958954, 0.7864844799041748, 0.6627092361450195, -0.8102397918701172, -0.3326342701911926, 0.0848127156496048, 0.44666746258735657, -0.04966115579009056, 0.24470961093902588, -0.045187994837760925, -0.3282727599143982, -0.15327012538909912, -0.12445415556430817, -0.20003542304039001, 0.005463086999952793, 0.1350991129875183, -0.5676681399345398, -0.38315248489379883, 0.18140077590942383, -0.25728586316108704, 0.03581708297133446, -0.12142543494701385, 0.4042653441429138, -0.186494380235672, -0.04375511780381203, -0.24605897068977356, 0.2549416422843933, -0.18620339035987854, 0.2799396514892578, 0.15446552634239197, 0.0444297231733799, 0.12057247757911682, -0.012423910200595856, 0.06642479449510574, -0.1784755438566208, -0.2725200653076172, -0.11934831738471985, 0.4290269613265991, -0.46510204672813416, -0.45032986998558044, 0.03257961943745613, 0.08991583436727524, -0.35859790444374084, -0.23267193138599396, -0.017475968226790428, 0.3064720928668976, 0.03467891737818718, 0.22083896398544312, -0.4875049591064453, -0.03987359255552292, -0.08024483174085617, -0.05334336310625076, 0.23473697900772095, -0.0678032636642456, 0.23845574259757996, -0.026132600381970406, -0.2709353268146515, 0.284722238779068, -0.2719350755214691, 0.3757546842098236, 0.15263484418392181, -0.1785098761320114, 0.20634998381137848, -0.0508781261742115, -0.12206640839576721, -0.2724778354167938, -0.4787423610687256, 0.02441488392651081, -0.4225081205368042, 0.16022560000419617, 0.02560277283191681, 0.14634856581687927, -0.14776310324668884, -0.019243160262703896, 0.12459782510995865, -0.00931225810199976, -0.3339896500110626, -0.14921176433563232, 0.11321891844272614, -0.1864292025566101, -0.1856432855129242, -0.10540647059679031, -0.10474744439125061, 0.14560061693191528, 0.09750814735889435, 0.06604746729135513, 0.20460394024848938, 0.027199622243642807, 0.2958410084247589, -0.17967842519283295, -0.3340655267238617, 0.04345008730888367, 0.07457905262708664, 0.16968977451324463, -0.20254772901535034, -0.16503554582595825, 0.01770196482539177, -0.33368611335754395, 0.20641568303108215, 0.1546192169189453, 0.21159589290618896, -0.10533008724451065, 0.1353468894958496, -0.044403158128261566, -0.1891968548297882, 0.174162358045578, -0.14294923841953278, -0.16683579981327057, -0.05871844291687012, -0.22350314259529114, -0.06580296158790588, -0.2857738137245178, 0.18614165484905243, 0.26734960079193115, 0.01407573651522398, -0.0643858090043068, -0.006208410952240229, -0.1874876767396927, 0.2143212854862213, -0.07724752277135849, -0.04983580857515335, 0.28536486625671387, -0.20402339100837708, -0.3923775553703308, 0.3599116802215576, 0.12366646528244019, -0.5539483428001404, 0.15186122059822083, -0.3709619641304016, -0.11529522389173508, -0.007225584238767624, 0.14606060087680817, -0.19420412182807922, 0.4278096556663513, 0.021609429270029068, 0.07774578779935837, 0.37486717104911804, 0.06704853475093842, -0.020685438066720963, 0.38836684823036194, 0.16361656785011292, -0.2517813742160797, -0.016325561329722404, -0.29144835472106934, 0.3488003611564636, -0.25085321068763733, 0.43009451031684875, 0.45927777886390686, 0.10373957455158234, 0.027780447155237198, -0.012068591080605984, 0.0843174159526825, 0.09588328003883362, -0.12952227890491486, 0.3126346170902252, -0.24904628098011017, -0.00236339564435184, 0.12530648708343506, 0.06638481467962265, 0.12414894998073578, -0.04224816709756851, 0.0034615113399922848, -0.10581738501787186, 0.11721771955490112, -0.25523361563682556, 0.1962490826845169, 0.11354029178619385, 0.32906341552734375, -0.052940256893634796, -0.1755940318107605, -0.6343479156494141, -0.12909531593322754, -0.33603182435035706, 0.07021268457174301, 0.03960167244076729, -0.17442747950553894, 0.5548902750015259, 0.04575905576348305, 0.20542655885219574, -0.15798209607601166, -0.21336255967617035, -0.04232678562402725, -0.31859228014945984, -0.19251011312007904, -0.048302944749593735, 0.1520768105983734, -0.09272857010364532, 0.04379117861390114, 0.499573290348053, -0.10934700071811676, -0.08634757250547409, -0.22924676537513733, -0.07881122082471848, -0.10836613923311234, -0.7557370662689209, -0.12499705702066422, -0.20016591250896454, 0.27292728424072266, 0.10715409368276596, 0.12875500321388245, 0.10875203460454941, 0.1012096256017685, 0.10472816228866577, 0.0779804214835167, -0.0617436058819294, -0.1693025678396225, -0.36546096205711365, 0.09892917424440384, -0.043361540883779526, 0.15208515524864197, 0.13533994555473328, -0.09542422741651535, 0.3288649618625641, -0.10833167284727097, -0.029522206634283066, -0.01553315855562687, -0.18056783080101013, -0.208474263548851, 0.14073345065116882, -0.003740512067452073, -0.1483413577079773, -0.18669885396957397, 0.06892130523920059, -0.03977569565176964, 0.22189153730869293, -0.45252537727355957, -0.13505946099758148, -0.050788868218660355, -0.06578567624092102, 0.0410582534968853, -0.20361416041851044, 0.4667705297470093, 0.07493887096643448, -0.08025912940502167, 0.2809871435165405, 0.09975539147853851, 0.3562689423561096, 0.005183954257518053, 0.04169604927301407, -0.04002141207456589, -0.031154634431004524, -0.19045668840408325, -0.19053678214550018, 0.025752060115337372, 0.07701142132282257, 0.20578905940055847, -0.04629151150584221, -0.10116376727819443, -0.13256751000881195, 0.1326293796300888, 0.10390011966228485, -0.09952477365732193, 0.1900765597820282, 0.05952617526054382, -0.20120130479335785, -0.030392179265618324, 0.07126402109861374, -0.2910369038581848, -0.02107800543308258, -0.008212859742343426, 0.03270256519317627, -0.11070309579372406, 0.03761744871735573, -0.012234329245984554, -0.02760428562760353, -0.19661909341812134, -0.25882688164711, 0.036428969353437424, -0.10349492728710175, -0.07475857436656952, 0.3064516484737396, 0.170609712600708, 0.27750661969184875, 0.15623492002487183, -0.046255648136138916, -0.3198114037513733, -0.0779183954000473, -0.07156927138566971, 0.15220093727111816, -0.14723923802375793, 0.1626969575881958, 0.17919348180294037, 0.056609708815813065, -0.01734074018895626, 0.1649547517299652, 0.007601701654493809, 0.16036273539066315, -0.38406720757484436, 0.06918403506278992, -0.07226231694221497, -0.07184767723083496, -0.14104364812374115, -0.08454730361700058, -0.20951825380325317, -0.30177876353263855, -0.1252119392156601, -0.10879511386156082, 0.08277912437915802, -0.01104752253741026, 0.06410880386829376, 0.0674171894788742, 0.07177089154720306, 0.2788736820220947, 0.05039692297577858, 0.015605660155415535, 0.1542186141014099, -0.4899444878101349, -0.17025096714496613, -0.3381466269493103, 0.09648041427135468, 0.001770350500009954, -0.107221320271492, 0.11372409015893936, 0.09609348326921463, 0.3130674362182617, -0.1682460755109787, -0.1399645060300827, 0.20804552733898163, 0.076435387134552, 0.001013631117530167, 0.1489117592573166, -0.08599314838647842, -0.2868955731391907, -0.07130586355924606, -0.0011263050837442279, 0.01070079393684864, 0.1116606667637825, 0.04701144993305206, 0.3027685284614563, 0.22889862954616547, 0.02531343884766102, 0.10818763822317123, 0.049392957240343094, -0.003177985083311796, 0.2870115637779236, 0.17240658402442932, -0.01899871416389942, 0.04100463166832924, 0.13800695538520813, 0.03410133346915245, 0.0807097777724266, 0.42321792244911194, 0.006475094240158796, -0.282566100358963, 0.11875741183757782, -0.013115440495312214, 0.1791720688343048, 0.06596707552671432, 0.06691768765449524, -0.06550974398851395, -0.49713701009750366, 0.1081208735704422, 0.1615319401025772, 0.31603509187698364, 0.15385907888412476, -0.1788390725851059, 0.2533023953437805, -0.018584754317998886, -0.009735805913805962, -0.05960605666041374, 0.07394852489233017, -0.08391009271144867, 0.05604257434606552, -0.06881657987833023, -0.024618225172162056, -0.23749932646751404, -0.004229907412081957, 0.12837928533554077, 0.1691262125968933, -0.006366895046085119, 0.022968808189034462, -0.21891452372074127, 0.12412292510271072, -0.016250839456915855, -0.010607932694256306, 0.019917430356144905, -0.1715814173221588, -0.21087855100631714, 0.18094034492969513, 0.24676331877708435, 0.12191767245531082, 0.0765291154384613, 0.023166446015238762, 0.10941235721111298, 0.1545446366071701, 0.18695788085460663, 0.20911137759685516, -0.04731972515583038, -0.14994408190250397, -0.32280492782592773, 0.04341334477066994, 0.08745132386684418, -0.28294673562049866, -0.13261502981185913, -0.2893274128437042, -0.15147686004638672, 0.0454370453953743, -0.2985263466835022, -0.8632932901382446, -0.0905725508928299, -0.19371755421161652, -0.062030088156461716, -0.22817112505435944, -0.09727799147367477, -0.43358784914016724, -0.10177820175886154, 0.11047729104757309, 0.2138194739818573, -0.08719990402460098, 0.00950058363378048, 0.29375800490379333, 0.3204926550388336, 0.2518356442451477, 0.1916334331035614, -0.2770530581474304, -0.35370180010795593, -0.3285176455974579, 0.1453191190958023, 0.25843560695648193, -0.21280670166015625, -0.07045614719390869, 0.006579485721886158, 0.03374704718589783, -0.14709055423736572, -0.20023179054260254, 0.21576762199401855, -0.029056861996650696, -0.13865284621715546, 0.15141940116882324, -0.047655943781137466, -0.04688296094536781, -0.11619511991739273, -0.13416212797164917, -0.07720860838890076, 0.17624786496162415, 0.057850491255521774, -0.03940507024526596, -0.053879328072071075, 0.1477130800485611, 0.13507544994354248, -0.0740177109837532, -0.012102295644581318, 0.001251880661584437, 0.12294591963291168, -0.005181963089853525, -0.05745357647538185, 0.13157214224338531, -0.05385425686836243, -0.14302003383636475, 0.20038224756717682, 0.05781915783882141, -0.06477928161621094, -0.1705147922039032, -0.5508990287780762, -0.17602016031742096, 0.6793158650398254, -0.25492510199546814, -0.11285977810621262, -0.214508056640625, 0.4588874876499176, 0.11820841580629349, -0.060273583978414536, 0.5228599905967712, 0.009807505644857883, 0.017434854060411453, -0.5229719281196594, 0.08646057546138763, 0.7033023834228516, 0.08323586732149124, 0.05016389116644859, -0.6499908566474915, -0.12504403293132782, -0.1579699069261551, 0.20994918048381805, -0.3529101014137268, -0.2419082075357437, 0.34310439229011536, 0.15215212106704712, -0.18134838342666626, 0.6903426051139832, 0.6042608022689819, 0.6067609786987305, -0.05332344397902489, 0.25319966673851013, -0.2594621777534485, 0.012605788186192513, 0.1121644526720047, -0.02680133283138275, -0.5709455013275146, 0.08032160997390747, -0.09689877182245255, -0.032287634909152985, 0.0245974063873291, 0.3286057114601135, -0.025610405951738358, -0.2553926706314087, 0.0570167601108551, 0.2967999279499054, 0.06620350480079651, 0.08626659959554672, 0.11255444586277008, -0.18967677652835846, -0.3244573175907135, -0.0015318007208406925, 0.1405361443758011, 0.1268208622932434, -0.36830440163612366, -0.3061947524547577, -0.08123820275068283, -0.09539073705673218, -0.149715855717659, -0.04656293988227844, -0.1472543329000473, -0.2920587956905365, 0.1328665018081665, -0.058193374425172806, -0.10265304148197174, -0.0157427117228508, 0.19539248943328857, -0.017338844016194344, -0.035190265625715256, 0.09111867100000381, 0.3995794653892517, -0.1867763251066208, -0.2340235561132431, -0.10478965193033218, -0.11711898446083069, 0.19536590576171875, -0.008367439731955528, -0.3066987097263336, -0.14322276413440704, 0.19378025829792023, 0.07139147818088531, 0.012343589216470718, -0.046175140887498856, 0.19095081090927124, -0.07350348681211472, 0.012646064162254333, -0.08145423978567123, -0.2114756554365158, 0.14679543673992157, -0.07848235964775085, 0.14332857728004456, 0.05859466642141342, -0.005516046658158302, -0.0904679223895073, -0.018110359087586403, -0.30797892808914185, -0.1347408890724182, 0.059806764125823975, -0.19781239330768585, -0.18739862740039825, 0.10241511464118958, 0.24494676291942596, -0.16551892459392548, -0.029974080622196198, -0.2044578641653061, -0.1336517632007599, -0.07225818932056427, -0.06153212860226631, 0.2282523363828659, -0.3507184386253357, -0.11147948354482651, -0.39731937646865845, 0.008382022380828857, 0.024598313495516777, 0.9998202919960022, 0.2448618859052658, 0.06706283986568451, -0.5508373975753784, 0.053287457674741745, 0.014941741712391376, -0.4465215504169464, -0.12157288938760757, -0.013139910995960236, -0.2709783613681793, -0.10659247636795044, 0.06325812637805939, -0.18967267870903015, -0.09928374737501144, -0.12267621606588364, -0.12488500028848648, 0.07953661680221558, -0.1625722050666809, -0.6148391366004944, 0.17875489592552185, 0.4531823396682739, 0.44903630018234253, 0.11072120815515518, 0.04486371949315071, 0.22960561513900757, -0.10486903041601181, -0.1631866693496704, -0.08211171627044678, -0.006935375276952982, 0.11124708503484726, -0.1915769875049591, -0.18498803675174713, 0.006488981656730175, -0.1421501487493515, -0.015670359134674072, 0.3706918954849243, 0.037441886961460114, -0.2582275867462158, 0.10169795155525208, -0.046492788940668106, 0.057301223278045654, -0.3568264842033386, -0.028309855610132217, -0.5398074984550476, -0.8587411642074585, -0.1326742172241211, 0.08260104060173035, -0.9334864616394043, -0.606360912322998, 0.549372673034668, 0.21954885125160217, -1.0036462545394897, 0.08320018649101257, 0.3551460802555084, 0.03107757493853569, -0.007600305136293173, -0.06038493290543556, 0.1535179764032364, 0.04302958771586418, 0.10152654349803925, 0.10895708948373795, -0.1267360895872116, 0.4022318422794342, 0.3621717691421509, -0.18093593418598175, -0.1599303036928177, 0.30160653591156006, -0.14661909639835358, 0.010588191449642181, 0.2454979121685028, 0.1824362576007843, -0.20851773023605347, 0.1764369159936905, 0.009536754339933395, 0.04936312511563301, -0.1657480001449585, 0.02687157317996025, -0.06602691113948822, -0.013228969648480415, -0.004797410219907761, 0.08798642456531525, 0.004458272829651833, -0.19863681495189667, 0.054807864129543304, 0.13136671483516693, -0.1386544555425644, -0.4345515966415405, 0.3837015926837921, 0.03262421861290932, -0.1935545802116394, 0.17834359407424927, 0.08601808547973633, 0.10826849937438965, 0.14109675586223602, 0.01423848606646061, -0.363561749458313, 0.146926611661911, -0.2662222385406494, 0.030367933213710785, -0.3246368169784546, -0.13691924512386322, 0.3347834050655365, -0.06754464656114578, 0.33536770939826965, -0.08178527653217316, 0.2749466300010681, 0.12406037747859955, 0.15785688161849976, 0.33397093415260315, -0.2383396476507187, -0.06787959486246109, -0.12092920392751694, 0.05181175470352173, -0.07808147370815277, -0.16208092868328094, 0.3399646282196045, 0.06904669851064682, -0.3435869812965393, 0.0010421418119221926, -0.043067123740911484, 0.04308805614709854, 0.07984329760074615, -0.04094240441918373, -0.13867859542369843, 0.35513973236083984, -0.3157202899456024, -0.10721970349550247, 0.04420357570052147, -0.16923049092292786, 0.08841270953416824, 0.2803446352481842, -0.16945326328277588, 0.3441683053970337, -0.05583943799138069, 0.7817105054855347, -0.327963262796402, 0.4292892515659332, -0.25885075330734253, -0.017480509355664253, 0.10252750664949417, 0.24308359622955322, 0.20537833869457245, 0.28328433632850647, 0.05559395253658295, 0.14658130705356598, -0.28548476099967957, 0.21090397238731384, 0.11711474508047104, 0.21215900778770447, -0.5296173095703125, -0.035086218267679214, -0.17964178323745728, 0.14887025952339172, -0.05132792517542839, -0.22028781473636627, -0.20156246423721313, 0.051136329770088196, -0.11209410429000854, 0.15543314814567566, -0.025483282282948494, 0.1495402604341507, 0.03407646343111992, 0.0046606422401964664, 0.14261390268802643, 0.2619762420654297, 0.07084277272224426, -0.3209121525287628, -0.48137110471725464, -0.2783200144767761, -0.07704614102840424, -0.16907426714897156, 0.09216887503862381, -0.09910092502832413, 0.40218639373779297, 0.06763964891433716, -0.07567295432090759, -0.32493650913238525, 0.05040504038333893, -0.0033686570823192596, -0.3907376825809479, 0.027077391743659973, -0.10346322506666183, -0.3486487865447998, 0.07120092213153839, -0.04676356166601181, 0.3444095253944397, 0.03740663826465607, -0.10264795273542404, 0.12260515242815018, -0.1681213229894638, -0.07373607903718948, -0.44568589329719543, -0.32547885179519653, 0.17482516169548035, -0.002450905041769147, -0.20748010277748108, 0.10422557592391968, -0.029909620061516762, 0.11181742697954178, -0.12260692566633224, -0.08785974979400635, 0.2631957530975342, 0.0895235612988472, -0.05896370857954025, -0.00623200973495841, 0.06576544046401978, -0.08129174262285233, -0.14952509105205536, 0.0730108991265297, 0.025915782898664474, 0.0749693363904953, -0.22423794865608215, 0.23624156415462494, 0.19528897106647491, 0.18287375569343567, 0.007967685349285603, -0.0035828202962875366, -0.08222191035747528, -0.17996278405189514, 0.06368013471364975, -0.09889175742864609, 0.08490768074989319, -0.11457284539937973, 0.21803298592567444, -0.2322584092617035, -0.08048446476459503, 0.12076599150896072, -0.14440932869911194, -0.1647089123725891, 0.11359381675720215, 0.25415319204330444, 0.025417298078536987, 0.10952093452215195, -0.28777608275413513, 0.22165547311306, -0.025489207357168198, 0.1510244458913803, -0.014302101917564869, -0.17540673911571503, 0.16202548146247864, 0.07481925934553146, 0.2924615740776062, -0.09361205250024796, 0.014795095659792423, -0.2404443472623825, 0.1213315948843956, 0.23359648883342743, -0.23009803891181946, -0.045784782618284225, 0.11795984208583832, 0.06612399220466614, -0.16864337027072906, 0.007685094140470028, -0.04067017138004303, -0.10020001977682114, 0.057219620794057846, 0.11063938587903976, 0.1253223419189453, -0.1699206829071045, -0.19004034996032715, -0.1633175015449524, 0.24907608330249786, -0.12395834177732468, -0.044975586235523224, 0.0858413428068161, 0.11921202391386032, -0.08161545544862747, -0.13458679616451263, 0.06644764542579651, 0.3140600621700287, 0.02772878296673298, -0.13363783061504364, 0.03136894479393959, -0.16989369690418243, -0.072016641497612, -0.10334718972444534, -0.01214427500963211, 0.23852215707302094, -0.07209990173578262, 0.2220015525817871, -0.056295186281204224, 0.020039312541484833, 0.06009573116898537, 0.06137846037745476, -0.0757669061422348, -0.21108634769916534, 0.14682510495185852, 0.0847659781575203, -0.15776051580905914, 0.01162214856594801, -0.1343032717704773, 0.021820243448019028, 0.21256716549396515, 0.11541328579187393, -0.01319469790905714, 0.012288879603147507, 0.08454564958810806, 0.17271795868873596, -0.0855768695473671, -0.0444154217839241, -0.04514370113611221, -0.09704260528087616, -0.05434241145849228, -0.024954352527856827, -0.12610530853271484, -0.04505537450313568, -0.05632489547133446, -0.04414571449160576, 0.0984862670302391, 0.17667734622955322, -0.0037849333602935076, -0.14240437746047974, -0.04506642371416092, -0.08144103735685349, -0.13035598397254944, 0.03561336174607277, -0.074355348944664, 0.06863322854042053, 0.05438489839434624, 0.11254455894231796, 0.09444091469049454, -0.01313844509422779, -0.07747349888086319, 0.014910795725882053, -0.04537234455347061, 0.023921187967061996, -0.002512955805286765, 0.03007657825946808, -0.1503353714942932, -0.08845998346805573, 0.03305244445800781, 0.14266471564769745, 0.10701088607311249, -0.08007314056158066, -0.08608224987983704, -0.10417435318231583, -0.04155561700463295, 0.011948761530220509, -0.1147417202591896, 0.13721399009227753, -0.16820481419563293, -0.02433166652917862, 0.10883919149637222, -0.14582838118076324, 0.09201176464557648, 0.2447029948234558, 0.11703523993492126, 0.09468849748373032, -0.07270482182502747, -0.027361037209630013, 0.06624596565961838, -0.07948272675275803, 0.05028455704450607, -0.009567473083734512, -0.06878727674484253, 0.010456793010234833, 0.10090404748916626, -0.012133861891925335, 0.17739668488502502, -0.006372345611453056, 0.022141575813293457, -0.286919504404068, 0.03541998192667961, -0.29436367750167847, 0.0574166439473629, 0.12486343085765839, 0.031794387847185135, 0.16799943149089813, -0.06149492785334587, 0.2792517840862274, 0.06838370114564896, 0.13920371234416962, -0.2317846268415451, -0.1939338892698288, 0.01735364831984043, -0.44743582606315613, 0.23622316122055054, 0.006637542508542538, -0.019747771322727203, 0.11544790118932724, 0.2498326301574707, 0.24134306609630585, -0.146793395280838, 0.05232018232345581, 0.36465367674827576, -0.03267426788806915, -0.20219069719314575, -0.07064227759838104, -0.0689697265625, 0.10645444691181183, -0.10495635867118835, 0.029239404946565628, 0.21057412028312683, -0.2811322510242462, 0.1086057797074318, -0.012112814001739025, -0.5197688937187195, -0.4787805378437042, -0.40772557258605957, -0.4142392873764038, 0.19790002703666687, 0.1050197035074234, 0.09619173407554626, 0.07005320489406586, 0.04945998638868332, 0.04422426596283913, -0.0688195526599884, -0.0890592709183693, 0.49998602271080017, -0.04634471237659454, -0.008801358751952648, 0.20570898056030273, 0.003158546518534422, 0.11402580142021179, -0.0815059170126915, -0.0588768795132637, -0.1636279672384262, 0.27116304636001587, 0.0017088144086301327, 0.1855211853981018, -0.23553717136383057, 0.11638712137937546, 0.07507064193487167, 0.15767903625965118, 0.04451270028948784, 0.02216547355055809, 0.0797140821814537, -0.07110387831926346, -0.42848819494247437, 0.2220962643623352, 0.14501997828483582, 0.0483463816344738, 0.15349900722503662, -0.06826283037662506, -0.16466471552848816, -0.006448954809457064, 0.1614716649055481, 0.3309706449508667, 0.13558407127857208, 0.0965200662612915, 0.0962558165192604, -0.2241775095462799, 0.028734341263771057, -0.1601298302412033, 0.19364619255065918, -0.3387684226036072, -0.4084963798522949, -0.18583351373672485, 0.16061796247959137, -0.032959576696157455, 0.36599624156951904, -0.23499032855033875, -0.148488387465477, 0.3323802351951599, 0.17106884717941284, -0.029685694724321365, -0.1362592577934265, 0.20267267525196075, 0.09921757876873016, -0.19833962619304657, 0.0805777981877327, -0.19342228770256042, -0.20041872560977936, 0.135128915309906, 0.11179176717996597, 0.19984431564807892, -0.08154941350221634, 0.061031561344861984, 0.008694765157997608, -0.23997382819652557, -0.21008366346359253, -0.9986928701400757, -0.3664718270301819, 0.1245810016989708, -0.40444162487983704, -0.1601707935333252, 0.23622161149978638, 0.45468446612358093, -0.30795806646347046, -0.37895917892456055, -0.34189078211784363, 0.24461016058921814, -0.03741255775094032, -0.2585109770298004, -0.30364474654197693, -0.06707888096570969, -0.14300139248371124, 0.30651095509529114, 0.05326012894511223, 0.04975701496005058, -0.10243485867977142, -0.39908233284950256, -0.5459508895874023, 0.10774870216846466, -0.39629673957824707, -0.027612360194325447, 0.1252221316099167, -0.13012759387493134, 0.0700344666838646, -0.1816256046295166, -0.12718366086483002, -0.3402599096298218, 0.0036171921528875828, -0.46911412477493286, 0.1779126077890396, 0.17215044796466827, 0.18200479447841644, -0.1742018312215805, -0.29254356026649475, -0.06718188524246216, -0.10524170845746994, -0.04452740401029587, -0.04801976680755615, -0.13111646473407745, -0.2730765640735626, 0.07504117488861084, -0.06418637931346893, -0.03514382988214493, -0.2714815139770508, 0.09525968134403229, -0.14647676050662994, -0.2259175330400467, 0.022067803889513016, -0.08550528436899185, -0.30021652579307556, -0.13156118988990784, 0.24309927225112915, 0.4702589809894562, -0.24373935163021088, -0.03086606226861477, 0.11824684590101242, -0.4756292998790741, -0.1947702020406723, -0.06984308362007141, 0.06837518513202667, 0.16488590836524963, -0.13332848250865936, 0.06033191457390785, 0.10108715295791626, -0.27554434537887573, -0.17642927169799805, -0.20104897022247314, -0.011396453715860844, 0.16211558878421783, 0.3105930984020233, 0.22120355069637299, 0.11164005100727081, 0.023468196392059326, -0.023937232792377472, 0.3210920989513397, 0.05811413750052452, -0.19167350232601166, -0.12804310023784637, 0.09495605528354645, -0.15467244386672974, 0.18411827087402344, 0.2521620988845825, 0.8343138098716736, -0.2954953610897064, 0.03047945722937584, -0.22682450711727142, 