{"version": "0.5.4", "metadata": {"date": {"year": 2026, "month": 3, "day": 30, "hour": 19, "minute": 3, "second": 20}, "loudness": -28.165592193603516, "gain": 0.8439658390620581}, "architecture": "WaveNet", "config": {"layers": [{"input_size": 1, "condition_size": 1, "head_size": 6, "channels": 12, "kernel_size": 3, "dilations": [1, 2, 4, 8, 16, 32, 64], "activation": "Tanh", "gated": false, "head_bias": false}, {"input_size": 12, "condition_size": 1, "head_size": 1, "channels": 6, "kernel_size": 3, "dilations": [128, 256, 512, 1, 2, 4, 8, 16, 32, 64, 128, 256, 512], "activation": "Tanh", "gated": false, "head_bias": true}], "head": null, "head_scale": 0.02}, "weights": [-0.4713234305381775, 0.736395001411438, -1.048069953918457, -0.9241850972175598, -0.5145749449729919, 0.34434694051742554, -0.26796606183052063, 0.9335086941719055, -0.6111389398574829, 0.3687443733215332, -0.5103265643119812, -0.46454355120658875, -0.05317592993378639, -0.05882173404097557, -0.33396047353744507, -0.0659317746758461, 0.03187507390975952, 0.2715838551521301, -0.040490761399269104, -0.039896804839372635, -0.10835400968790054, 0.2113131284713745, 3.715656930580735e-06, -0.042614445090293884, 0.04761139303445816, 0.05469780042767525, -0.015831265598535538, -0.20843586325645447, -0.11187318712472916, 0.12700776755809784, 0.034611087292432785, 0.19168278574943542, -0.33171960711479187, -0.14783520996570587, -0.14667357504367828, 0.009217907674610615, -0.05467238277196884, 0.12610483169555664, -0.18409553170204163, 0.006643005646765232, -0.027762221172451973, 0.08977027237415314, 0.09931161254644394, -0.12211684137582779, -0.3049919605255127, -0.020886307582259178, 0.13052956759929657, -0.11324398964643478, -0.14380992949008942, -0.2545015811920166, 0.2289440929889679, 0.25802937150001526, 0.27678239345550537, -0.026743298396468163, 0.0183347649872303, -0.30702388286590576, 0.07744534313678741, -0.22564250230789185, -0.32565242052078247, -0.04157775640487671, -0.018027104437351227, -0.14113178849220276, -0.049875710159540176, 0.11907467246055603, 0.27831390500068665, -0.06702113896608353, -0.0784071683883667, -0.19121313095092773, 0.19790780544281006, 0.2532796859741211, 0.07863610237836838, -0.10409066081047058, 0.03276780620217323, -0.06573449820280075, 0.24327759444713593, 0.24045425653457642, 0.24687683582305908, -0.19373956322669983, -0.07479272782802582, -0.3201543986797333, -0.09987831115722656, 0.0762830451130867, -0.09165084362030029, -0.09287458658218384, -0.04410967603325844, 0.2367744892835617, -0.023797014728188515, -0.06830818951129913, -0.14592944085597992, -0.13893458247184753, 0.05748368427157402, 0.2929529547691345, 0.16362223029136658, 0.06134818494319916, 0.044619135558605194, -0.06432589143514633, 0.07907586544752121, 0.24291741847991943, -0.09136154502630234, -0.06868559867143631, -0.03600524738430977, 0.06208763271570206, -0.12222913652658463, 0.20087409019470215, -0.1463264673948288, 0.0020086425356566906, -0.33282792568206787, -0.1744503378868103, -0.1153063178062439, 0.2520160675048828, -0.023788368329405785, 0.11073308438062668, -0.31522464752197266, 0.11327755451202393, 0.10062088817358017, 0.0781848132610321, -0.0031778214033693075, -0.03296143561601639, 0.24871550500392914, 0.07415780425071716, -0.13858838379383087, -0.023207128047943115, 0.4253508150577545, 0.2520042061805725, -0.09684314578771591, -0.44861316680908203, -0.2126501351594925, -0.1421443372964859, 0.2915937602519989, -0.3027366101741791, -0.0946025624871254, 0.3829154074192047, -0.2718341648578644, -0.06532017886638641, 0.466696172952652, 0.16563303768634796, 0.07154911756515503, -0.35836294293403625, -0.14382144808769226, 0.0678536593914032, 0.6010640859603882, 0.27615422010421753, 0.2200833261013031, -0.35644370317459106, -0.41093793511390686, -0.16669104993343353, 0.5643018484115601, 0.1679621934890747, -0.026544611901044846, -0.4828496277332306, -0.3219519555568695, -0.19025111198425293, 0.33931684494018555, -0.10318991541862488, 0.03354174271225929, 0.24479851126670837, -0.10152260959148407, -0.6481053233146667, 0.13719727098941803, 0.11166539788246155, 0.4080774486064911, -0.1237974762916565, -0.32710814476013184, -0.5812516808509827, 0.06449020653963089, -0.17549365758895874, -0.5092428922653198, 0.1519465297460556, -0.3245413899421692, -0.4402938187122345, 0.23935839533805847, 0.09304571151733398, 0.5711665749549866, -0.03485727682709694, -0.34291818737983704, -0.35818421840667725, 0.12865856289863586, 0.10320263355970383, 0.5664659142494202, -0.2229328453540802, -0.1638038456439972, -0.5374799370765686, 0.27716559171676636, 0.2255568504333496, 0.5116928219795227, -0.033992599695920944, -0.21495133638381958, -0.47319042682647705, -0.03258437663316727, -0.08768364787101746, -0.335330992937088, 0.23160895705223083, -0.15120671689510345, -0.3861721456050873, -0.23529115319252014, -0.03434991464018822, 0.16357168555259705, 0.1690477579832077, -0.16114063560962677, -0.26220643520355225, -0.10845562070608139, 0.0447082594037056, -0.3855735659599304, -0.2282860428094864, -0.15621209144592285, -0.14357249438762665, -0.1686549335718155, 0.18710340559482574, 0.30107641220092773, 0.14296524226665497, -0.03958343341946602, -0.3858692944049835, -0.0847989097237587, 0.02127700299024582, 0.25389817357063293, 0.1366865038871765, -0.1338835209608078, -0.40818947553634644, -0.025695135816931725, -0.0810372605919838, 0.2594442367553711, 0.2740975618362427, 0.003040904877707362, -0.2762957811355591, -0.2587225139141083, 0.03793017193675041, -0.41524621844291687, -0.17000049352645874, -0.48909637331962585, -0.47267332673072815, 0.019932731986045837, 0.5763167142868042, 0.39982661604881287, 0.19157591462135315, -0.34384462237358093, -0.48383843898773193, 0.0262554083019495, -0.5588461756706238, -0.4494864344596863, 0.001529230852611363, -0.37761297821998596, -0.25127172470092773, -0.09625715762376785, 0.4317915737628937, 0.44488054513931274, -0.11213923245668411, -0.28425222635269165, -0.5584635734558105, 0.005730746313929558, 0.4113060235977173, 0.2875504493713379, 0.07099553942680359, -0.31977713108062744, -0.4545239806175232, -0.11953207105398178, 0.3557727038860321, 0.21613027155399323, 0.11086923629045486, -0.511561930179596, -0.5013579726219177, -0.13210898637771606, -0.3448731601238251, -0.3105706572532654, 0.1029910296201706, 0.48553431034088135, -0.07722283154726028, -0.001352791441604495, -0.3257048726081848, 0.1733667552471161, -0.04113844409584999, 0.29266780614852905, -0.11776044964790344, -0.07050066441297531, 0.4074889123439789, -0.13151103258132935, -0.0641428530216217, 0.5126591324806213, -0.1470320075750351, 0.05901418998837471, -0.3126462697982788, 0.04753180593252182, -0.20221348106861115, 0.2605094015598297, 0.10690134018659592, 0.06448971480131149, -0.2333141714334488, -0.018765829503536224, -0.03907797113060951, 0.3947082459926605, -0.02276773750782013, 0.0090476144105196, -0.3167456090450287, 0.08046501874923706, -0.07911994308233261, 0.33811500668525696, -0.13794009387493134, 0.1869998425245285, 0.2675536274909973, 0.03627340495586395, 0.02342171221971512, -0.11186257749795914, -0.26658883690834045, -0.006711767986416817, 0.0914260745048523, 0.2593296766281128, -0.11546210944652557, -0.024855127558112144, -0.1509980410337448, 0.05657922849059105, -0.07881910353899002, -0.3608333170413971, -0.03733321651816368, 0.0021422794088721275, -0.28467389941215515, 0.056207627058029175, 0.13250799477100372, 0.10674247145652771, 0.008499735035002232, 0.017336543649435043, -0.256228506565094, 0.05730484798550606, 0.07431383430957794, 0.08859974145889282, 0.026544107124209404, 0.17262670397758484, -0.06212414801120758, 0.1476815640926361, 0.07716069370508194, 0.3083433210849762, -0.07503294944763184, -0.18345525860786438, -0.37447085976600647, 0.17010363936424255, 0.09160949289798737, -0.35019102692604065, 0.09039397537708282, 0.1535297930240631, -0.09406837075948715, -0.07174691557884216, 0.13001568615436554, 0.10018082708120346, 0.11347447335720062, 0.1327451765537262, -0.04331651329994202, -0.2767801582813263, 0.14098802208900452, -0.06102129817008972, -0.08371094614267349, -0.1125054657459259, -0.09785614162683487, -0.2291082739830017, 0.11237412691116333, 0.07939275354146957, 0.23889979720115662, 0.031238241121172905, -0.17168858647346497, -0.25424712896347046, 0.08437255769968033, 0.016612790524959564, 0.2117018848657608, -0.014890985563397408, -0.30853214859962463, -0.36359745264053345, 0.1357315182685852, 0.24926167726516724, 0.32918649911880493, 0.1298750787973404, -0.31312692165374756, -0.2941766381263733, -0.0003723417758010328, -0.26628804206848145, -0.07352908700704575, -0.1294625997543335, 0.36301663517951965, -0.27013108134269714, -0.10328269749879837, -0.21735890209674835, 0.19785110652446747, 0.12763315439224243, 0.47922980785369873, 0.08699528127908707, -0.033085450530052185, 0.42254048585891724, 0.08835946023464203, 0.06050778925418854, 0.5118662714958191, 0.020799078047275543, 0.11174708604812622, -0.3905765414237976, 0.14094391465187073, 0.01698395609855652, 0.3590882122516632, -0.19056306779384613, -0.10022345930337906, -0.4750896096229553, 0.17126710712909698, 0.09254545718431473, 0.3874278962612152, -0.18846149742603302, 0.12185993790626526, -0.24559806287288666, 0.07732706516981125, -0.07703890651464462, 0.5103181600570679, -0.005638720467686653, -0.13181354105472565, 0.5385611653327942, 0.042633384466171265, -0.557028591632843, 0.4906356632709503, 0.47921988368034363, 0.45348456501960754, -0.13938656449317932, -0.42846518754959106, -0.6043510437011719, 0.22216755151748657, 0.39038723707199097, -0.5047309994697571, 0.2965863049030304, 0.5880902409553528, -0.45445355772972107, 0.17880961298942566, 0.43927910923957825, 0.5940201282501221, -0.1652556210756302, -0.5668144822120667, -0.4632676839828491, 0.24357926845550537, 0.4504125118255615, 0.5407280921936035, -0.39563384652137756, -0.3707328736782074, -0.5130842924118042, 0.321733295917511, 0.40453457832336426, 0.39101940393447876, -0.25382864475250244, -0.5688011050224304, -0.38222113251686096, 0.14659856259822845, 0.28947463631629944, -0.6793057918548584, 0.26627597212791443, 0.5850390791893005, -0.10947342962026596, 0.04876010864973068, -0.013343153521418571, 0.013297021389007568, -0.0997021347284317, -0.21456527709960938, 0.22708368301391602, 0.1306707113981247, 0.1279885619878769, 0.05282225459814072, -0.03064323589205742, 0.17979088425636292, 0.20850007236003876, 0.4420667290687561, -0.8539680242538452, -0.6188759803771973, -1.0585806369781494, -0.27238866686820984, 0.27222973108291626, -0.8757609128952026, 0.3426841199398041, 0.709535539150238, 0.18894287943840027, -1.0917611122131348, -0.08403424918651581, -0.21227823197841644, 0.28754574060440063, 0.5397951602935791, 0.010245315730571747, 0.04228724166750908, 0.02363177016377449, -0.5259525775909424, -0.4228520095348358, 0.008865892887115479, 0.07495377957820892, 0.31727877259254456, -0.06731455028057098, -0.09988367557525635, -0.29953837394714355, -0.1126508116722107, -0.17891652882099152, 0.19875584542751312, 0.2346029430627823, 0.15980792045593262, 0.009288285858929157, -0.020845074206590652, -0.013574597425758839, -0.09950178116559982, 0.15700547397136688, -0.23927335441112518, 0.30773547291755676, 0.053451765328645706, -0.2728704810142517, -0.3214209973812103, 0.2716403901576996, 0.45963162183761597, -0.2636738717556, 0.1353006362915039, 0.13187432289123535, 0.31096649169921875, 0.28689318895339966, -0.15112701058387756, 0.08549188822507858, 0.04274233058094978, 0.0955192893743515, 0.23466375470161438, -0.05063601955771446, 0.08037883043289185, -0.04688772186636925, -0.10344134271144867, -0.028418371453881264, 0.13119664788246155, 0.044576942920684814, -0.06397712230682373, 0.25474613904953003, -0.3072131276130676, -0.09765005856752396, -0.1498972326517105, -0.011947959661483765, -0.13806074857711792, -0.2304684817790985, -0.21497642993927002, 0.4103464186191559, -0.09282001107931137, 0.03854677826166153, -0.22150544822216034, 0.37633654475212097, 0.05807178467512131, -0.29126104712486267, -0.2901237905025482, -0.3421969413757324, 0.117050901055336, -0.10790924727916718, -0.24309299886226654, -0.0171385295689106, 0.03627342730760574, -0.026424545794725418, -0.032418444752693176, -0.0012146314838901162, -0.7288077473640442, -0.06929071992635727, 0.3179909586906433, -0.28440311551094055, 0.0963360071182251, -0.16565722227096558, 0.20718391239643097, -0.2288219928741455, -0.5595721006393433, 0.3110211491584778, -0.3139830529689789, 0.24267695844173431, 0.07929059118032455, -0.24982257187366486, -0.20889827609062195, 0.21759718656539917, 0.0470222607254982, -0.4441099464893341, -0.31734758615493774, 0.134270578622818, 0.4160982370376587, -0.25158441066741943, 0.17494824528694153, 0.11653132736682892, 0.5928442478179932, 0.5931142568588257, 0.034380290657281876, 0.14754213392734528, 0.5280733704566956, -0.12565095722675323, -0.41727742552757263, -0.19250980019569397, 0.4657297730445862, -0.07260692864656448, -0.4578612148761749, 0.35287755727767944, 0.40105512738227844, -0.35352805256843567, -0.40547069907188416, -0.411467581987381, 0.26578807830810547, -0.14255283772945404, -0.36581897735595703, 0.1705223172903061, 0.21171538531780243, 0.35003429651260376, 0.16090355813503265, 0.024338681250810623, -0.5287550091743469, -0.6706985235214233, 0.08432260900735855, 0.19725145399570465, 0.117221899330616, -0.339099645614624, 0.26945987343788147, 0.529547393321991, 0.2822608947753906, -0.24619972705841064, -0.20552220940589905, -0.0024190382100641727, 0.25128886103630066, -0.6011029481887817, -0.42608967423439026, 0.1662142127752304, -0.03980586305260658, -0.21384470164775848, -0.10764390230178833, 0.12644730508327484, -0.018236376345157623, 0.1599685698747635, -0.1382373422384262, 0.03745231032371521, 0.1808437705039978, 0.04382346570491791, -0.007083409000188112, 0.16639970242977142, -0.046247683465480804, -0.15295927226543427, 0.2997559905052185, 0.07075866311788559, -0.2084931582212448, -0.008048206567764282, -0.10793697834014893, 0.418503075838089, 0.022386064752936363, -0.028456224128603935, -0.26056522130966187, -0.10863570868968964, -0.2099977433681488, 0.19374212622642517, -0.11429638415575027, -0.06181417778134346, 0.20299315452575684, -0.09406381845474243, -0.2653447091579437, 0.05475924536585808, -0.008754078298807144, -0.2745912969112396, 0.29238614439964294, 0.18697217106819153, 0.11856286227703094, -0.38512372970581055, 0.1710154116153717, -0.3768156170845032, 0.24238550662994385, -0.38984474539756775, 0.34291765093803406, 0.8427184224128723, -0.14148558676242828, 0.005591828841716051, 0.029271794483065605, -0.24077673256397247, -0.5110048651695251, -0.1527678370475769, 0.1803639680147171, -0.07815282791852951, 0.15556111931800842, 0.11638687551021576, -0.01269799005240202, -0.04883856698870659, -0.39461708068847656, 0.07090801000595093, 0.27889788150787354, 0.25526362657546997, 0.08817397803068161, -0.21150843799114227, 0.34423717856407166, -0.2258121818304062, -0.18139410018920898, 0.177107572555542, -0.03404783457517624, -0.051634982228279114, 0.39517679810523987, -0.17590931057929993, -0.23423847556114197, -0.062102530151605606, -0.06999596208333969, 0.4306471645832062, 0.22306831181049347, -0.07868806272745132, -0.12896238267421722, 0.12049338221549988, 0.26281893253326416, -0.5445381999015808, 0.08859913796186447, 0.05845154449343681, -0.0953684076666832, 0.3531445860862732, -0.23397372663021088, 0.043642282485961914, 0.2775641083717346, 0.015780964866280556, -0.2501473128795624, 0.270528107881546, -0.11395858228206635, 0.0005313894362188876, 0.04751963168382645, 0.029278434813022614, 0.024552302435040474, -0.199911430478096, -0.0813426524400711, -0.07445726543664932, -0.06878472864627838, -0.06017536297440529, 0.1915208250284195, -0.10351844877004623, 0.022232603281736374, 0.04931718856096268, -0.09017288684844971, -0.2855360507965088, -0.07936285436153412, -0.11830060184001923, -0.043656863272190094, 0.1392357498407364, 0.14053726196289062, -0.0009756154613569379, 0.19840240478515625, 0.2570456266403198, 0.006418289616703987, -0.16331614553928375, -0.13165076076984406, -0.18203239142894745, 0.04087074473500252, 0.08064161241054535, -0.36901572346687317, 0.08792070299386978, -0.0971611961722374, -0.051232703030109406, 0.14818927645683289, 0.06213470175862312, -0.02993459813296795, -0.10474254190921783, 0.1587451696395874, 0.13416554033756256, -0.20151302218437195, -0.07636647671461105, -0.3671296536922455, -0.16482898592948914, -0.09352276474237442, -0.0037002419121563435, 0.020477546378970146, 0.12517766654491425, 0.07090181857347488, 0.15873423218727112, -0.11857602745294571, -0.2280586063861847, 0.1166381984949112, -0.23325635492801666, 0.08736241608858109, 0.21204881370067596, 0.40181830525398254, -0.14594043791294098, 0.14893382787704468, -0.37812572717666626, 0.14022719860076904, 0.05910009518265724, -0.13078396022319794, -0.08206764608621597, 0.13213296234607697, 0.06411563605070114, -0.07753099501132965, -0.1742950826883316, -0.07456941157579422, -0.02866966649889946, 0.16397099196910858, -0.24912607669830322, 0.16818249225616455, 0.04160277917981148, 0.10291890054941177, -0.00811653770506382, 0.00879713986068964, -0.16697341203689575, 0.04768090322613716, 0.3117036819458008, -0.27201715111732483, 0.31423109769821167, 0.0038578822277486324, -0.37056174874305725, 0.18016092479228973, 0.0032266341149806976, -0.520609438419342, -0.2026084065437317, -0.19471895694732666, 0.12676845490932465, -0.44139549136161804, 0.07562246918678284, -0.13307668268680573, 0.17620788514614105, 0.0514773465692997, -0.5838156938552856, 0.09945347160100937, -0.19446609914302826, -0.25425517559051514, 0.05522455647587776, -0.06602586060762405, 0.26330113410949707, 0.3883551061153412, 0.27726370096206665, -0.3339904844760895, 0.07504232227802277, -0.24684348702430725, -0.018797466531395912, 0.18518979847431183, 0.20371349155902863, 0.040530405938625336, 0.048140816390514374, -0.057970937341451645, -0.29892873764038086, -0.14585109055042267, 0.12136643379926682, -0.20311644673347473, 0.04550975188612938, 0.22457672655582428, -0.18847329914569855, 0.13730499148368835, 0.033857472240924835, -0.1807347685098648, 0.14800293743610382, 0.15543846786022186, 0.15536141395568848, -0.04456140846014023, -0.0106545090675354, -0.1077243834733963, 0.032442059367895126, 0.06888473033905029, -0.11550597846508026, -0.09361162781715393, 0.38164231181144714, -0.0991678535938263, 0.03699040040373802, 0.022647276520729065, -0.15642715990543365, 0.19922704994678497, 0.09091359376907349, -0.1456465870141983, -0.04654533416032791, 0.049770012497901917, 0.10931587964296341, 0.067860446870327, 0.08969064801931381, 0.02818259969353676, 0.20818892121315002, -0.2220258265733719, 0.0179156381636858, -0.053927820175886154, 0.11508462578058243, -0.020222190767526627, -0.10725578665733337, 0.26474183797836304, -0.07745599001646042, -0.179832324385643, 0.21946366131305695, -0.19041450321674347, -0.24437876045703888, -0.005738107021898031, -0.11041390150785446, -0.026616912335157394, 0.20042617619037628, 0.3405277729034424, -0.18606314063072205, 0.08233215659856796, 0.09557449072599411, -0.03148118779063225, -0.12828288972377777, -0.02607051655650139, -0.10165724158287048, 0.13668428361415863, 0.09869641810655594, -0.18244321644306183, 0.009866368025541306, -0.016233151778578758, -0.04453442990779877, 0.05008336529135704, 0.21016575396060944, 0.1952356994152069, -0.1660618782043457, -0.19671250879764557, -0.28648048639297485, -0.17971742153167725, 0.03165184706449509, 0.3221895098686218, 0.057646799832582474, 0.2307874858379364, 0.27322983741760254, -0.1902022510766983, 0.2015865296125412, 0.196731835603714, -0.09582630544900894, 0.5137527585029602, 0.3754775822162628, 0.26896169781684875, -0.4758504629135132, -0.217049241065979, -0.4503987431526184, 0.1690392643213272, 0.347637802362442, 0.04911709949374199, 0.491290807723999, 0.4480282962322235, 0.6597842574119568, 0.09117388725280762, 0.07013184577226639, -0.06757675856351852, -0.19236944615840912, -0.20078353583812714, -0.34958285093307495, 0.055365774780511856, 0.1837530881166458, 0.2755136787891388, 0.046087827533483505, 0.22023750841617584, 0.3140297830104828, 0.19523461163043976, -0.07464344054460526, -0.20998038351535797, -0.17344364523887634, -0.1356685310602188, 0.1397070437669754, -0.2928807735443115, -0.17621801793575287, 0.22857077419757843, 0.02136765606701374, -0.16898268461227417, 0.22382594645023346, -0.2824871242046356, -0.022699229419231415, 0.17870408296585083, 0.34683138132095337, -0.24107128381729126, -0.15072862803936005, 0.14323201775550842, 0.08145494759082794, 0.26401400566101074, -0.21861745417118073, 0.1768377721309662, 0.3361016809940338, -0.2173042893409729, 0.08470772951841354, 0.08228729665279388, -0.11844097077846527, -0.15045729279518127, 0.04879674315452576, -0.13954795897006989, -0.13426977396011353, -0.06276310980319977, 0.07968001812696457, -0.04577608034014702, -0.13704979419708252, 0.12603504955768585, -0.1038498654961586, 0.04608932510018349, 0.017539458349347115, 0.171006441116333, -0.08885272592306137, -0.15424200892448425, 0.07588310539722443, -0.08012603968381882, -0.2863202691078186, 0.094912588596344, 0.01569153554737568, -0.3192189931869507, -0.058976128697395325, -0.1673664003610611, 0.002248791279271245, -0.20148330926895142, -0.01597396470606327, 0.02498120814561844, 0.3650469183921814, 0.1122681125998497, 0.7142705917358398, 0.08668242394924164, 0.01854870840907097, -0.062098223716020584, 0.17912374436855316, 0.12522020936012268, -0.3676706850528717, 0.4721556007862091, 0.025148672983050346, -0.1860891878604889, 0.13835518062114716, -0.09188394993543625, 0.27883151173591614, -0.16439171135425568, -0.05942244827747345, -0.3937118649482727, 0.14333078265190125, 0.03471207246184349, 0.3140547275543213, -0.10232182592153549, -0.012567652389407158, 0.1986752301454544, -0.0944744348526001, 0.012686586938798428, 0.33968690037727356, -0.3020346164703369, -0.0036404943093657494, 0.2767202854156494, -0.36220407485961914, -0.21426886320114136, -0.11558742076158524, -0.014475833624601364, 0.09569390118122101, 0.5438599586486816, -0.47597023844718933, -0.21614982187747955, -0.23271164298057556, 0.1497405469417572, -0.04095663130283356, 0.3051351010799408, -0.11339551210403442, -0.14924918115139008, 0.43986189365386963, -0.3524937927722931, 0.01770170032978058, 0.1161702424287796, -0.19010025262832642, 0.016164377331733704, 0.29225340485572815, -0.2832818925380707, -0.03308297321200371, -0.10263489186763763, 0.2615436911582947, -0.23037859797477722, 0.08586539328098297, -0.20965217053890228, -0.05060373246669769, 0.22919060289859772, -0.09919443726539612, 0.07246015220880508, 0.12793102860450745, -0.38717424869537354, -0.010190028697252274, 0.18055182695388794, -0.518707811832428, -0.08331269770860672, -0.31849050521850586, 0.3413517475128174, -0.022346490994095802, 0.4967435300350189, -0.34726670384407043, -0.09841974824666977, 0.03892573341727257, 0.17097872495651245, 0.10062486678361893, 0.2666458189487457, -0.4473905861377716, 0.11244907230138779, 0.2646641731262207, -0.5503209829330444, 0.011346881277859211, 0.24308134615421295, -0.2764568030834198, 0.0030134383123368025, 0.05811934918165207, 0.1676257699728012, 0.12400265038013458, -0.1352606564760208, 0.09676170349121094, 0.17103230953216553, 0.13666632771492004, -0.029703056439757347, -0.08161156624555588, -0.12488240748643875, 0.027452174574136734, -0.027914736419916153, -0.14836125075817108, 1.081480622291565, 0.3109166920185089, -0.06747554987668991, 0.5077835321426392, -0.7862439751625061, 0.9470255374908447, -1.1309064626693726, -1.1018539667129517, -0.018534613773226738, 0.9133753180503845, 0.1579187959432602, 0.004304349422454834, -0.4268072545528412, 0.1449350118637085, 0.04534969851374626, 0.3059978485107422, 0.3546421527862549, 0.030282489955425262, -0.13750742375850677, 0.11270345747470856, 0.10198533535003662, -0.3422550857067108, -0.0050282529555261135, -0.3027792274951935, 0.4495534300804138, -0.10485538095235825, -0.15992799401283264, 0.12207963317632675, -0.42565372586250305, -0.014754969626665115, 0.006852082908153534, -0.40823256969451904, 0.06279884278774261, 0.41413846611976624, 0.29975035786628723, -0.09531919658184052, -0.07396870851516724, -0.29465925693511963, -0.4107249975204468, 0.04697411134839058, 0.1450284868478775, -0.18570756912231445, -0.40889495611190796, 0.0861724242568016, 0.22531716525554657, -0.40873661637306213, -0.4756622910499573, 0.0364302396774292, -0.3414871394634247, -0.2527592182159424, -0.09361404925584793, -0.17209218442440033, -0.2740945518016815, -0.24216711521148682, -0.1137099638581276, -0.18644274771213531, 0.1243271455168724, -0.27535727620124817, -0.1979903280735016, -0.11521027982234955, -0.09869484603404999, -0.3587241768836975, 0.006239595357328653, -0.04544786363840103, -0.0948735848069191, -0.22571304440498352, -0.18813589215278625, -0.11711810529232025, 0.24117016792297363, 0.131618469953537, -0.3599981367588043, -0.13559292256832123, 0.14484617114067078, -0.2788744270801544, -0.19793452322483063, 0.1512163132429123, -0.28102996945381165, 0.03331657126545906, -0.21923978626728058, 0.20224153995513916, -0.0037836534902453423, 0.18624790012836456, -0.3350757360458374, -0.4252449870109558, 0.18775154650211334, 0.05977246165275574, -0.38629990816116333, -0.06498890370130539, 0.10882194340229034, -0.34169062972068787, 0.014164095744490623, -0.3390737771987915, 0.5305262207984924, -0.199850931763649, 0.1006680354475975, 0.07881428301334381, -0.1971229910850525, -0.0729074478149414, -0.1380823403596878, -0.1458560824394226, -0.21183867752552032, -0.2213878333568573, 0.2736072540283203, -0.0449921116232872, 0.05798245221376419, -0.03973322734236717, 0.000688561296556145, 0.13002656400203705, 0.10587317496538162, -0.04538879171013832, -0.0788741186261177, -0.17013920843601227, -0.1672535538673401, 0.41222840547561646, -0.14817573130130768, -0.1492903232574463, -0.34170129895210266, 0.172132670879364, 0.39172592759132385, 0.4002726078033447, -0.1729421615600586, -0.04976944997906685, 0.23146146535873413, 0.06080358847975731, 0.26323920488357544, 0.021879393607378006, -0.21612663567066193, 0.32728976011276245, -0.3790304958820343, 0.1921548843383789, 0.05494029447436333, 0.27886763215065, 0.20511561632156372, 0.2598017752170563, -0.2015424519777298, -0.18285498023033142, -0.10583969950675964, -0.24932293593883514, 0.15921269357204437, 0.2062997817993164, -0.4825994074344635, 0.18937289714813232, 0.17279593646526337, -0.1709725260734558, -0.19754977524280548, -0.3057639002799988, -0.27483972907066345, 0.07979995757341385, 0.21294063329696655, -0.14041423797607422, -0.25804266333580017, -0.05327697843313217, -0.19854509830474854, -0.2465849220752716, -0.30843961238861084, -0.054084982722997665, 0.04026039317250252, -0.2026456892490387, 0.14008377492427826, 0.06244939938187599, -0.15715812146663666, 0.07266181707382202, 0.2704135775566101, -0.10045056790113449, -0.020118966698646545, 0.07436347752809525, -0.15990982949733734, -0.10153074562549591, -0.13728836178779602, -0.16432471573352814, -0.22425919771194458, -0.20991714298725128, -0.17272841930389404, -0.11620514839887619, -0.3889065086841583, 0.044108495116233826, -0.18677884340286255, -0.2350909411907196, 0.11186175793409348, 0.025839995592832565, -0.24278244376182556, 0.1270853579044342, 0.05284949019551277, 0.04994647949934006, -0.08532477170228958, 0.016921665519475937, 0.14486105740070343, 0.15070560574531555, -0.20601484179496765, 0.00675599928945303, 0.2675468325614929, -0.010545994155108929, -0.07801250368356705, 0.08241967856884003, -0.47714143991470337, -0.13061074912548065, -0.19744648039340973, -0.072666697204113, 0.09792187064886093, 0.19932596385478973, 0.18614789843559265, -0.00918987113982439, 0.2765974998474121, -0.1852247565984726, -0.1854235976934433, 0.16713111102581024, -0.019686797633767128, 0.28216466307640076, 0.19110730290412903, 0.09586572647094727, 0.2580106258392334, -0.4221678376197815, 0.0029829354025423527, 0.08821704238653183, -0.10309269279241562, 0.12808965146541595, 0.10642492771148682, -0.15508398413658142, 0.21326541900634766, 0.004810721147805452, -0.20039641857147217, 0.09322553873062134, 0.27582141757011414, -0.24064838886260986, 0.027929045259952545, -0.06665120273828506, -0.2387695014476776, -0.008016709238290787, -0.4512314200401306, 0.18838009238243103, 0.024286560714244843, -0.3184627890586853, 0.12135758996009827, 0.1934013068675995, 0.16423536837100983, 0.056233495473861694, 0.0315035879611969, 0.01504589058458805, -0.21048541367053986, 0.1600056290626526, 0.13374373316764832, 0.057257287204265594, -0.10426223278045654, -0.1371288001537323, -0.2494937926530838, 0.043075770139694214, 0.1036115288734436, 0.06476753205060959, -0.20653754472732544, 0.07907117903232574, 0.1259566992521286, -0.13525933027267456, -0.09542910009622574, -0.0006713681505061686, -0.27819332480430603, -0.1596534252166748, 0.22069822251796722, -0.028452159836888313, -0.19954529404640198, -0.07252494245767593, -0.20754636824131012, -0.09987882524728775, -0.059322539716959, 0.21051573753356934, 0.27857643365859985, 0.0006390014896169305, -0.17917267978191376, 0.2828220725059509, 0.025692079216241837, -0.1339506208896637, -0.01581449620425701, -0.056683436036109924, 0.05635543540120125, -0.02695983275771141, 0.21156509220600128, -0.09151068329811096, -0.10990805178880692, -0.13764086365699768, -0.17014794051647186, -0.04320286586880684, 0.44589295983314514, -0.03980832174420357, 0.49576810002326965, 0.06800594925880432, 0.1095297783613205, 0.03751707077026367, 0.056972432881593704, -0.07001557946205139, 0.04205802083015442, 0.030065035447478294, 0.10323455929756165, 0.2942902147769928, 0.1870039999485016, -0.26587289571762085, 0.1565292924642563, 0.003196324687451124, 0.03535444289445877, -0.011310123838484287, -0.2233242690563202, 0.02815846912562847, -0.08560679107904434, 0.07811827957630157, 0.1528395116329193, -0.3194630742073059, -0.3191356658935547, -0.022155679762363434, -0.09314684569835663, -0.06422114372253418, 0.1338685154914856, 0.11756377667188644, 0.032562464475631714, 0.44582876563072205, 0.18547844886779785, -0.29388636350631714, -0.23349018394947052, -0.3353296220302582, 0.08920712769031525, -0.17209506034851074, -0.01697816699743271, -0.00018216195167042315, -0.021053927019238472, 0.02335481531918049, 0.2559325098991394, 0.0028757299296557903, 0.17527003586292267, 0.2036123424768448, -0.32636409997940063, 0.10031913965940475, 0.035728007555007935, -0.005566894076764584, -0.2077210694551468, -0.09256631135940552, -0.2850792706012726, -0.1654394567012787, 0.1208055168390274, 0.1290859431028366, 0.09120239317417145, 0.2612420916557312, 0.055009547621011734, 0.5801418423652649, 0.07766265422105789, -0.14930588006973267, -0.08404745161533356, 0.20095013082027435, 0.08003278821706772, 0.1335018128156662, 0.02631308138370514, 0.1468566209077835, -0.11033398658037186, -0.40621572732925415, -0.12372297048568726, -0.10967829078435898, 0.049117155373096466, -0.11466970294713974, -0.09515301138162613, -0.11252779513597488, 0.012851135805249214, 0.1282753348350525, 0.1322527378797531, -0.08518257737159729, -0.1406673789024353, -0.0337408073246479, -0.10299205034971237, 0.1332506239414215, 0.0687718540430069, -0.08480725437402725, -0.07937818765640259, 0.12813036143779755, -0.2137569636106491, -0.1493455022573471, 0.17910289764404297, -0.06771896034479141, -0.01351550780236721, 0.07241982966661453, -0.23690716922283173, 0.027113603428006172, -0.028747057542204857, -0.2055782526731491, -0.11850618571043015, 0.022986022755503654, -0.22523298859596252, 0.0980478823184967, 0.15135395526885986, -0.04986745864152908, 0.22359345853328705, 0.487648606300354, -0.04139016196131706, -0.15115128457546234, -0.03994044288992882, -0.049571942538022995, 0.16164630651474, -0.29967546463012695, 0.05420142412185669, 0.039674434810876846, -0.26024848222732544, 0.047762107104063034, -0.11939624696969986, -0.0635320171713829, 0.29058417677879333, 0.09345676749944687, -0.22127793729305267, -0.0208615530282259, 0.0048920451663434505, 0.0437367744743824, 0.20390962064266205, -0.028793174773454666, -0.20994430780410767, -0.06308738887310028, -0.08181452751159668, 0.3092093765735626, 0.24553315341472626, 0.11650354415178299, 0.23925992846488953, 0.09905841201543808, -0.11032069474458694, 0.10905002057552338, 0.17151708900928497, 0.16525962948799133, -0.11945910006761551, -0.22730885446071625, 0.056939974427223206, 0.3515011668205261, 0.27184534072875977, -0.012868188321590424, -0.3223367929458618, -0.13274577260017395, 0.1407487690448761, -0.15000231564044952, -0.05842311680316925, 0.2600647509098053, -0.03022279404103756, 0.2178959995508194, -0.07610143721103668, -0.016438473016023636, 0.22537274658679962, -0.10967760533094406, -0.13798528909683228, -0.0670054703950882, 0.07949300855398178, -0.14475956559181213, 0.25539883971214294, 0.11859404295682907, 0.06705217063426971, -0.06906088441610336, -0.11058761924505234, -0.17531459033489227, -0.06992034614086151, -0.05159039422869682, 0.04269951954483986, 0.17768479883670807, -0.03191198781132698, 0.15103670954704285, 0.2003474086523056, 0.08132018148899078, -0.013261076994240284, 0.470500111579895, 0.07082569599151611, -0.21459974348545074, -0.4249938428401947, 0.09311625361442566, 0.010730931535363197, 0.42744308710098267, 0.26403841376304626, 0.24413317441940308, 0.11955574154853821, 0.12584912776947021, 0.014356867410242558, 0.04597482830286026, 0.23160381615161896, 0.1272803544998169, -0.033771783113479614, 0.30421069264411926, -0.04204312339425087, -0.05590195581316948, 0.3048170506954193, -0.2093030959367752, 0.26512402296066284, 0.16921967267990112, 0.03569039702415466, -0.267774760723114, -0.35676705837249756, 0.21162979304790497, 0.23188713192939758, -0.005385236814618111, 0.1669490933418274, -0.010452579706907272, 0.17149455845355988, 0.10095047205686569, -0.07063139230012894, -0.019714556634426117, -0.13164399564266205, 0.007050190586596727, -0.23915399610996246, 0.40856704115867615, -0.2019059807062149, 0.43621960282325745, -0.049225203692913055, 0.14752407371997833, -0.18565578758716583, -0.25566065311431885, 0.2512725591659546, -0.23263074457645416, -0.2705538868904114, 0.3376706540584564, -0.1727476269006729, -0.19645743072032928, 0.1588020920753479, -0.028298230841755867, -0.25499749183654785, 0.040131449699401855, 0.14893792569637299, -0.023927638307213783, 0.2506527602672577, -0.14394883811473846, -0.081553153693676, -0.17600980401039124, -0.04212839901447296, -0.046219296753406525, 0.10120702534914017, -0.43507522344589233, -0.09758206456899643, 0.2681233584880829, 0.015968145802617073, -0.2668774425983429, 0.04912780597805977, 0.1640065610408783, -0.07300681620836258, -0.06367846578359604, 0.03216446191072464, 0.25914904475212097, -0.11125266551971436, -0.0476112887263298, 0.32548120617866516, 0.15504874289035797, 0.131846085190773, -0.12050258368253708, -0.05339038744568825, 0.11838274449110031, -0.08763985335826874, -0.044491663575172424, 0.10554233193397522, -0.11599206179380417, 0.034288547933101654, -0.02996838465332985, -0.007151372730731964, -0.1504923403263092, -0.018223688006401062, -0.05278227478265762, -0.09342183917760849, -0.1628928780555725, -0.06388925760984421, -0.04792391508817673, 0.061991818249225616, 0.315351665019989, 0.32691651582717896, 0.22680480778217316, 0.43990594148635864, 0.09797459095716476, -0.0030537450220435858, 0.13518007099628448, 0.14232537150382996, 0.012294595129787922, -0.09818974137306213, 0.0244882982224226, 0.09687260538339615, -0.1894296407699585, -0.18620195984840393, -0.02934134565293789, 0.49772074818611145, 0.1310766339302063, 0.11182226240634918, -0.5342827439308167, -0.12075906246900558, -0.006470084190368652, -0.4251520037651062, 0.18280425667762756, 0.07041245698928833, -0.49188193678855896, 0.1728454977273941, -0.07723605632781982, -0.43224480748176575, -0.06370493769645691, -0.05643785744905472, -0.2792847454547882, -0.04887419193983078, 0.17210477590560913, -0.03335653245449066, 0.018622910603880882, -0.16794566810131073, 0.31018316745758057, 0.22045302391052246, -0.2516469955444336, -0.44170942902565, 0.12268228828907013, 0.11806190013885498, -0.11704383045434952, 0.13430450856685638, 0.029972391203045845, -0.005372935440391302, -0.13044953346252441, 0.0989435687661171, 0.047572799026966095, -0.06369476020336151, -0.1834620237350464, -0.045327965170145035, 0.05242931842803955, -0.09305163472890854, 0.15109600126743317, -0.03416537120938301, -0.092763751745224, -0.1144578605890274, -1.1126253604888916, 0.887087345123291, -0.47418296337127686, -0.773337721824646, -0.24573920667171478, -0.5944602489471436, -0.8384475111961365, 0.4950120449066162, -0.9991189241409302, 0.5778495669364929, 0.7599488496780396, 0.0778614729642868, 0.30398130416870117, -0.3075107932090759, 0.42983192205429077, 0.07910490036010742, 0.20017887651920319, 0.5336247086524963, -0.7513564825057983, -0.31698131561279297, -0.036608364433050156, -0.18505030870437622, -0.04345695674419403, -0.16703428328037262, -0.23819352686405182, -0.08743707090616226, 0.1478428989648819, -0.29938188195228577, -0.04220041260123253, 0.08781670033931732, 0.21313244104385376, 0.003382244147360325, -0.18984225392341614, -0.23423297703266144, 0.16718721389770508, 0.13397689163684845, 0.25672847032546997, -0.1029454693198204, 0.2304101586341858, -0.09671936929225922, 0.09272190183401108, -0.03240588679909706, 0.13125482201576233, -0.0639621838927269, 0.04134175553917885, 0.16673043370246887, -0.015262918546795845, -0.21211083233356476, 0.23677578568458557, -0.4378359615802765, 0.14969977736473083, 0.24956892430782318, 0.3963060975074768, 0.28506994247436523, 0.16084738075733185, 0.02407173067331314, -0.017294079065322876, -0.18211260437965393, 0.2654714584350586, -0.015422661788761616, -0.17717060446739197, 0.016050567850470543, 0.2812420725822449, -0.12272410839796066, -0.14696739614009857, -0.03493630141019821, -0.006693035364151001, -0.15949931740760803, -0.35677701234817505, -0.08227307349443436, -0.04471809044480324, 0.07273373007774353, 0.2437683790922165, -0.1625479757785797, -0.04109685868024826, -0.22558216750621796, -0.1763494908809662, -0.09292830526828766, -0.2389659583568573, 0.08806662261486053, -0.16452325880527496, 0.051097702234983444, -0.3624460697174072, -0.26615652441978455, -0.19071607291698456, -0.34403732419013977, -0.04307902976870537, 0.2141181379556656, 0.543617308139801, -0.22844265401363373, 0.13824354112148285, -0.08833587914705276, -0.19845139980316162, -0.15646982192993164, 0.25458425283432007, 0.336018443107605, -0.022103602066636086, -0.3344946503639221, 0.06004370003938675, 0.32581230998039246, 0.33705049753189087, 0.08059746026992798, -0.13865382969379425, -0.12322480976581573, 0.19985315203666687, -0.3815416395664215, -0.42017310857772827, -0.2753848731517792, -0.41426289081573486, 0.37368059158325195, 0.02127305045723915, 0.3038419187068939, 0.18984843790531158, 0.07915527373552322, 0.3390464186668396, -0.05842042714357376, 0.1407921016216278, 0.33182546496391296, 0.3734225630760193, 0.2883020341396332, 0.0050738160498440266, 0.2276133894920349, -0.2930770516395569, 0.16375574469566345, -0.3327501714229584, 0.028737256303429604, 0.022805476561188698, -0.03767234832048416, -0.14649908244609833, 0.43555912375450134, -0.3865451514720917, 0.08519735187292099, 0.22843444347381592, -0.07614385336637497, 0.38139593601226807, -0.04285678640007973, 0.13599203526973724, 0.34579068422317505, -0.1204063892364502, -0.4899020195007324, -0.17212790250778198, -0.2373177856206894, -0.04683266580104828, -0.23205143213272095, -0.30152788758277893, -0.08861099183559418, 0.09805049747228622, 0.18821343779563904, -0.13516269624233246, -0.21858318150043488, -0.40924179553985596, -0.33157479763031006, -0.11367301642894745, 0.08201272040605545, -0.09228791296482086, -0.40993160009384155, 0.15298020839691162, 0.2167513519525528, -0.032518818974494934, 0.19599437713623047, -0.16657085716724396, -0.13979820907115936, -0.06412897258996964, 0.0669589713215828, -0.20925046503543854, -0.14791381359100342, 0.1253848820924759, 0.1110486313700676, 0.04875342175364494, -0.18960222601890564, 0.09862828254699707, -0.04217375069856644, 0.17152799665927887, 0.0742575079202652, -0.028101732954382896, 0.06780112534761429, -0.0878453329205513, 0.06740450859069824, 0.03280206024646759, 0.005931115243583918, -0.08861593902111053, 0.2883371114730835, 0.17942756414413452, 0.13408447802066803, -0.04300914332270622, -0.16253024339675903, 0.06812049448490143, 0.12576161324977875, -0.00553061394020915, 0.04440225288271904, 0.18141591548919678, -0.16659606993198395, -0.02847982570528984, 0.13971872627735138, 0.19301407039165497, 0.09014078974723816, -0.13502512872219086, -0.005080268252640963, 0.0705229714512825, 0.0006629566196352243, 0.10201730579137802, -0.20481397211551666, -0.18023459613323212, -0.2665172219276428, -0.06721656024456024, -0.45674940943717957, 0.33194515109062195, -0.1653730571269989, -0.04513490945100784, -0.10355221480131149, 0.11470049619674683, -0.059847913682460785, 0.1360654979944229, 0.1502343714237213, -0.15559612214565277, -0.05199629068374634, -0.20971788465976715, -0.37136512994766235, 0.1454480141401291, 0.06286539137363434, -0.07349599897861481, 0.05750109627842903, 0.08655933290719986, 0.04883293807506561, 0.04493381828069687, 0.12603715062141418, 0.07101947069168091, 0.031216293573379517, -0.07527504116296768, 0.2043943852186203, -0.125929594039917, -0.28582778573036194, 0.0346352681517601, -0.17051386833190918, 0.05220528319478035, 0.052206821739673615, 0.0167445819824934, 0.08122903853654861, -0.1369740068912506, -0.03521693870425224, -0.5562574863433838, -0.18917904794216156, -0.057200804352760315, 0.1831442266702652, -0.0026058335788547993, 0.08183903992176056, -0.17008072137832642, -0.024491790682077408, 0.02142796851694584, -0.018181251361966133, -0.27230289578437805, -0.14403708279132843, -0.18966180086135864, 0.1502402424812317, 0.11415417492389679, 0.056172896176576614, 0.21798214316368103, 0.2884488105773926, 0.11673468351364136, 0.00848714355379343, -0.3078358769416809, 0.004861786495894194, -0.14638195931911469, -0.012835360132157803, -0.0015519848093390465, -0.10641922056674957, -0.06520215421915054, -0.20945701003074646, 0.20850296318531036, 0.1872069388628006, -0.08756899833679199, -0.012198621407151222, 0.37664175033569336, -0.016791312023997307, -0.048351701349020004, -0.1524297297000885, 0.3294938802719116, -0.07271008938550949, -0.17990225553512573, -0.11350902169942856, 0.05671783536672592, -0.013334443792700768, -0.032510414719581604, 0.21583355963230133, -0.28180041909217834, -0.09384004026651382, -0.03518793731927872, -0.13246992230415344, -0.18333783745765686, -0.0190503541380167, -0.34233278036117554, -0.15173855423927307, 0.12145155668258667, -0.20078295469284058, 0.037869662046432495, 0.12051955610513687, 0.08144427090883255, 0.0825255811214447, 0.12233927845954895, -0.06117194890975952, 0.10859395563602448, -0.12676487863063812, 0.2669626772403717, 0.20633766055107117, -0.3591076135635376, -0.04510398209095001, 0.09167838096618652, -0.05881943926215172, 0.025284679606556892, 0.039292462170124054, -0.28192079067230225, -0.32086798548698425, 0.34250742197036743, 0.15911929309368134, -0.23610840737819672, 0.13199247419834137, 0.011742218397557735, 0.056866735219955444, -0.10649074614048004, 0.07776080071926117, 0.1645110696554184, -0.1464843899011612, -0.06680002808570862, 0.14120349287986755, 0.03781513497233391, 0.03838881850242615, -0.1065826341509819, 0.05979500710964203, -0.06580265611410141, 0.18136025965213776, -0.15574070811271667, 0.050961121916770935, -0.05599016323685646, -0.20111344754695892, -0.03599325567483902, 0.022735929116606712, 0.029480259865522385, 0.11166425049304962, -0.06488986313343048, -0.03970755636692047, 0.0028919109608978033, -0.2404683530330658, -0.030982384458184242, -0.0016383685870096087, 0.05523432046175003, -0.06098094955086708, 0.09437493234872818, -0.18979619443416595, -0.1635267436504364, 0.21060596406459808, -0.0839778408408165, 0.2893533706665039, 0.02782270684838295, 0.1655954122543335, -0.26224419474601746, 0.18955853581428528, 0.13200071454048157, -0.1941249519586563, 0.19520330429077148, 0.09973430633544922, -0.14135530591011047, 0.06174144893884659, 0.09347318112850189, 0.11353491991758347, 0.10448478162288666, 0.0495469756424427, -0.022205118089914322, 0.07127097994089127, -0.007043914869427681, -0.06592858582735062, -0.00793040357530117, 0.23315487802028656, -0.047310277819633484, -0.1958366334438324, 0.03439948707818985, -0.042083535343408585, -0.06137237325310707, -0.17130054533481598, -0.2180968075990677, 0.2392280250787735, 0.12239422649145126, 0.07481024414300919, 0.10632246732711792, 0.06530705839395523, -0.03107135370373726, 0.11309155821800232, -0.41406986117362976, -0.0958709791302681, -0.2486143410205841, 0.12980835139751434, -0.18690252304077148, -0.03976844996213913, -0.4801689386367798, 0.07359787821769714, 0.14457862079143524, 0.018856683745980263, -0.28706690669059753, -0.26833584904670715, -0.33514097332954407, -0.09780874848365784, -0.0648408755660057, -0.16989865899085999, -0.1272626519203186, 0.12453774362802505, -0.013844124041497707, 0.03871746361255646, 0.042280275374650955, 0.33414170145988464, -0.12699325382709503, -0.17953550815582275, -0.04505615308880806, -0.16844724118709564, 0.13441205024719238, -0.3065316677093506, -0.1021215170621872, 0.013741875067353249, 0.10434852540493011, 0.0560665987432003, -0.10239198803901672, -0.042441047728061676, -0.053642481565475464, -0.18255144357681274, -0.02896101400256157, 0.04340096190571785, 0.29023438692092896, 0.20277516543865204, 0.008357826620340347, -0.21799646317958832, 0.10228285193443298, 0.18878477811813354, -0.05034130439162254, -0.08911042660474777, -0.14409099519252777, 0.012774367816746235, -0.2586129605770111, -0.06668443232774734, -0.1876191645860672, -0.022130360826849937, 0.04232143238186836, 0.08793776482343674, -0.1949913650751114, 0.14007623493671417, -0.20352087914943695, -0.006596951279789209, -0.06242269650101662, 0.17960214614868164, -0.030812012031674385, -0.06863672286272049, 0.4459178149700165, 0.03252188116312027, 0.17007072269916534, -0.07616343349218369, -0.06637118011713028, 0.08995133638381958, -0.03729524835944176, 0.11482112109661102, -0.03473440185189247, -0.06773964315652847, 0.26128169894218445, 0.08827913552522659, -0.1606443077325821, -0.22723320126533508, -0.009409846737980843, -0.1778215914964676, 0.2744764983654022, -0.01526518166065216, -0.03652380406856537, 0.03775773197412491, -0.02369953691959381, -0.1721457540988922, -0.018219321966171265, 0.3386698067188263, 0.13756264746189117, 0.1606331765651703, 0.0798240676522255, -0.18368597328662872, 0.19058291614055634, -0.1558087319135666, -0.15950430929660797, 0.03422951698303223, 0.207126647233963, 0.04663438722491264, -0.1892329752445221, -0.12443007528781891, -0.2568724453449249, -0.1942431479692459, -0.04293825104832649, -0.016908913850784302, -0.09000544250011444, 0.2525242269039154, -0.03887483477592468, -0.003444087225943804, 0.38168373703956604, -0.027298668399453163, -0.4131351709365845, 0.16832245886325836, 0.11010580509901047, -0.003963773604482412, -0.20953461527824402, -0.1559165120124817, 0.018513444811105728, -0.12906697392463684, -0.052999451756477356, -0.06347256153821945, -0.08332999795675278, -0.00011254171840846539, 0.0154385631904006, -0.06669686734676361, 0.012725849635899067, -0.010968443937599659, -0.04245302081108093, 0.020770542323589325, 0.01983661763370037, -0.19593094289302826, -0.04672760143876076, 0.1869063377380371, -0.006682465318590403, -0.16764654219150543, -0.09821408241987228, 0.039600636810064316, 0.20411501824855804, 0.039266809821128845, 0.26458504796028137, -0.04803304001688957, -0.21179325878620148, -0.02435397356748581, -0.15166936814785004, -0.011094396933913231, -0.06261024624109268, -0.10849540680646896, -0.03641480952501297, 0.08785797655582428, 0.1908273845911026, -0.07790346443653107, 0.04651205614209175, -0.02498047798871994, 0.24346181750297546, -0.07062803953886032, -0.21013548970222473, 0.001298486371524632, -0.08217213302850723, -0.2214009314775467, -0.2678460478782654, -0.10102568566799164, -0.002178556751459837, -0.10013768076896667, 0.08555237948894501, -0.2590528130531311, 0.14773555099964142, -0.07756465673446655, -0.14492015540599823, 0.120998814702034, 0.13401176035404205, -0.017998812720179558, -0.23316268622875214, -0.22540554404258728, 0.5215535759925842, -0.024356521666049957, 0.27742916345596313, 0.0025560297071933746, 0.15546296536922455, -0.1320590227842331, -0.035994548350572586, -0.04032876715064049, -0.09239889681339264, 0.46302294731140137, -0.3144593834877014, -0.15398362278938293, -0.2863481342792511, -0.04474956914782524, -0.0031140258070081472, 0.2980853319168091, -0.09760140627622604, 0.15507470071315765, 0.13058209419250488, -0.09295637160539627, 0.11786938458681107, -0.07675988227128983, -0.3736480474472046, 0.1215740293264389, 0.05910812318325043, -0.28230929374694824, 0.11184395104646683, -0.13280610740184784, 0.15625007450580597, -0.10976911336183548, 0.23675119876861572, -0.01145606767386198, -0.01370368804782629, -0.1117902472615242, 0.42250099778175354, 0.12432228773832321, 0.17717227339744568, 0.1411154568195343, -0.09953706711530685, 0.1166170984506607, -0.1833968311548233, -0.08891744166612625, 0.034551192075014114, -0.11237215995788574, 0.027946753427386284, -0.04528683051466942, -0.02383059449493885, -0.14891132712364197, 0.020542945712804794, -0.048595502972602844, -0.11335594207048416, 0.14897653460502625, -0.26221737265586853, 0.04966209828853607, 0.12289083003997803, -0.02078033983707428, 0.775496244430542, 0.08929856866598129, 0.2248068004846573, 0.002782875206321478, 0.2404448688030243, 0.3635762631893158, 0.6115401387214661, -0.8173673748970032, -0.451278954744339, -0.7761039137840271, -0.3707377314567566, 0.6674954891204834, -0.2040303647518158, -0.08769930899143219, 0.36429905891418457, 0.05059443414211273, 0.32384049892425537, -0.011532219126820564, 0.0505296066403389, 0.28002169728279114, -0.1632198989391327, 0.37392333149909973, 0.13934578001499176, -0.19292858242988586, 0.12381962686777115, 0.05688609182834625, -0.2164342999458313, -0.08955146372318268, -0.40880411863327026, 0.19287778437137604, 0.20703758299350739, -0.005840045865625143, -0.3468768298625946, -0.23889857530593872, 0.02364860102534294, 0.08897680044174194, -0.057570040225982666, -0.10932145267724991, 0.0767367035150528, -0.059748269617557526, -0.11447691172361374, -0.12018226087093353, -0.21432532370090485, 0.22110114991664886, -0.07873579114675522, 0.022408820688724518, -0.024726737290620804, -0.12681496143341064, 0.04413698613643646, 0.07384330034255981, -0.11553822457790375, 0.005125019233673811, 0.031339604407548904, 0.09055303782224655, -0.06255903840065002, -0.012515515089035034, 0.2224111258983612, -0.2584722638130188, -0.06782559305429459, -0.1329648643732071, 0.1186051070690155, -0.262490451335907, 0.06391538679599762, -0.27653968334198, 0.11266633123159409, 0.03407935053110123, -0.21100667119026184, 0.4037115275859833, -0.12311528623104095, -0.2203131914138794, 0.481488972902298, -0.32905566692352295, -0.2432488203048706, -0.11277773976325989, -0.3689386248588562, 0.14891652762889862, 0.13815753161907196, 0.03739016130566597, -0.14612194895744324, -0.027627738192677498, 0.18202392756938934, -0.01834866963326931, -0.06118311360478401, 0.07245860248804092, 0.05144449695944786, -0.23270142078399658, 0.26285964250564575, 0.09783641248941422, 0.25252071022987366, 0.21307340264320374, -0.15992017090320587, -0.018400616943836212, 0.09175855666399002, -0.10759276151657104, 0.02193783037364483, -0.05974682420492172, -0.15540605783462524, 0.1932787448167801, 0.0033141153398901224, -0.351266086101532, -0.3309614062309265, 0.26534155011177063, 0.02902938239276409, -0.17956531047821045, 0.21331128478050232, 0.10044262558221817, -0.026093970984220505, -0.18129992485046387, 0.3011922836303711, -0.021046841517090797, -0.07976914942264557, 0.13918030261993408, -0.3032340407371521, 0.036493103951215744, -0.2887279987335205, -0.04136442393064499, -0.18480360507965088, -0.18589681386947632, -0.0642336830496788, 0.13589125871658325, 0.10530127584934235, -0.1861131340265274, 0.21416005492210388, -0.27874284982681274, -0.31503036618232727, -0.16353102028369904, -0.46294131875038147, 0.14986148476600647, -0.06849214434623718, -0.4518349766731262, -0.30536994338035583, 0.07570785284042358, 0.18054449558258057, -0.17014457285404205, -0.44589799642562866, -0.4236556887626648, 0.40831103920936584, -0.07509365677833557, -0.2041458785533905, -0.17593805491924286, 0.3270195424556732, 0.4357379674911499, -0.07999099791049957, -0.26994290947914124, 0.293904572725296, 0.038677021861076355, -0.12402737140655518, 0.12725767493247986, 0.048426080495119095, -0.1676243394613266, -0.3819551169872284, -0.13953542709350586, 0.12318147718906403, 0.6156966686248779, -0.14327797293663025, 0.08057733625173569, -0.25146836042404175, -0.23317869007587433, 0.10307633876800537, 0.1976490616798401, -0.18869589269161224, -0.1480589061975479, 0.15861329436302185, -0.060735248029232025, -0.2596706748008728, 0.007191389333456755, 0.3601590096950531, 0.087925024330616, -0.24625849723815918, 0.000582472886890173, 0.17504067718982697, 0.16232344508171082, 0.023108744993805885, 0.1866419017314911, 0.24533043801784515, 0.1771373152732849, 0.2243308573961258, 0.2995329201221466, 0.07253675162792206, -0.31848806142807007, -0.006148334592580795, -0.04825949668884277, 0.6073204278945923, -0.15951889753341675, 0.012711064890027046, -0.24517321586608887, -0.006314312107861042, 0.07692665606737137, -0.046968013048172, 0.08735691756010056, 0.009021490812301636, -0.30641114711761475, -0.10028284788131714, -0.05774092301726341, 0.11746282130479813, 0.1055334284901619, 0.06618811935186386, -0.13309985399246216, -0.03549393638968468, 0.038159266114234924, 0.13307558000087738, -0.11277318000793457, -0.13360698521137238, 0.2303001433610916, 0.22871342301368713, 0.1619405895471573, -0.471824586391449, 0.023731019347906113, 0.056751228868961334, 0.16052184998989105, 0.03885505720973015, 0.1497446745634079, -0.11584930121898651, -0.16145382821559906, 0.007826099172234535, 0.29500848054885864, 0.009921243414282799, 0.1822521984577179, -0.3669916093349457, 0.02024654671549797, 0.09568729996681213, 0.09254689514636993, -0.08001548051834106, -0.06873516738414764, -0.1991802603006363, -0.27112025022506714, -0.07211138308048248, 0.05399221181869507, -0.00021180851035751402, -0.014935187995433807, -0.16219250857830048, -0.09461203962564468, 0.25304046273231506, 0.15207305550575256, 0.17625229060649872, -0.18137411773204803, 0.07164812088012695, 0.0993923544883728, -0.3001294732093811, 0.016700387001037598, 0.008405809290707111, 0.07357405871152878, 0.36365559697151184, -0.13117001950740814, 0.29397591948509216, -0.039577651768922806, 0.05138876289129257, -0.46012914180755615, -0.3562454879283905, -0.12540733814239502, -0.32902777194976807, -0.1915885955095291, -0.15890517830848694, 0.005304523278027773, -0.006845162715762854, 0.11357780545949936, -0.0944216176867485, 0.005861069541424513, -0.10211153328418732, -0.0024212736170738935, -0.2620902955532074, -0.010260983370244503, -0.056750260293483734, 0.10889354348182678, 0.002468070248141885, 0.015488649718463421, -0.2331596314907074, -0.5454904437065125, -0.22165919840335846, -0.38980069756507874, 0.22152107954025269, -0.1072545200586319, -0.015033743344247341, 0.4044947326183319, -0.14868444204330444, -0.003770519280806184, -0.23941823840141296, -0.2693686783313751, 0.21847054362297058, 0.191572368144989, 0.3149254024028778, -0.09353716671466827, 0.15325771272182465, 0.3197017014026642, 0.26855581998825073, 0.05812064930796623, 0.0028877544682472944, -0.019662506878376007, -0.023919861763715744, 0.34172725677490234, 0.1588185578584671, -0.15213370323181152, -0.2781171202659607, -0.08119702339172363, 0.039355333894491196, 0.21247351169586182, 0.02199103683233261, 0.1042032316327095, -0.009098266251385212, 0.019847149029374123, -0.19534562528133392, 0.03338262066245079, -0.4996587634086609, 0.20598766207695007, 0.36464568972587585, 0.17619095742702484, 0.21123939752578735, -0.07139120995998383, 0.22460049390792847, 0.043265536427497864, 0.1831774264574051, -0.09382190555334091, 0.08589059114456177, 0.15695074200630188, -0.1236041709780693, -0.18149806559085846, 0.017985766753554344, -0.04721609503030777, 0.16467921435832977, 0.28710779547691345, -0.24310587346553802, 0.04402278736233711, -0.12867552042007446, -0.20021846890449524, 0.032909002155065536, 0.0122368223965168, 0.05923202633857727, 0.11672847718000412, -0.17654940485954285, -0.0335208959877491, -0.13235945999622345, 0.12241223454475403, -0.021406173706054688, -0.1685435175895691, 0.11012490838766098, -0.2519717812538147, 0.029727930203080177, 0.07417260855436325, -0.08799831569194794, -0.22325167059898376, -0.1089887022972107, -0.15126322209835052, 0.01618780754506588, 0.017137790098786354, -0.08680123090744019, 0.06806028634309769, -0.028059856966137886, 0.13037025928497314, -0.1340240091085434, -0.11182715743780136, -0.005456140264868736, -0.008671259507536888, 0.02266536094248295, 0.23221994936466217, 0.021133961156010628, -0.015258670784533024, 0.15419650077819824, 0.048082973808050156, 0.0400753878057003, -0.0006377630634233356, 0.12916673719882965, -0.46222665905952454, 0.01789754629135132, -0.12027767300605774, -0.04358053207397461, -0.1498606652021408, 0.039342720061540604, 0.09271246194839478, -0.03866160288453102, 0.09256217628717422, 0.23599877953529358, -0.062160879373550415, -0.07992679625749588, 0.0055276816710829735, -0.012566405348479748, 0.16910171508789062, 0.10059907287359238, -0.03140537440776825, 0.022938361391425133, 0.14934396743774414, 0.12415842711925507, -0.1408158838748932, -0.050408776849508286, 0.11759909242391586, 0.15281377732753754, -0.034760892391204834, -0.04649735614657402, 0.10921301692724228, 0.23266571760177612, -0.11968902498483658, -0.03392494097352028, 0.18694180250167847, -0.11470659077167511, -0.040985628962516785, -0.22543808817863464, 0.1432589292526245, 0.047552984207868576, 0.23812314867973328, 0.19632941484451294, 0.00828102882951498, -0.07633456587791443, 0.03723399341106415, -0.06332293897867203, 0.05697334185242653, 0.20277813076972961, -0.15446077287197113, -0.04660160467028618, 0.2999495565891266, 0.0322231687605381, -0.10633289068937302, -0.0620194748044014, -0.06836919486522675, 0.07958485186100006, 0.0415448434650898, 0.013936375267803669, -0.060000818222761154, 0.06320758908987045, 0.06924692541360855, -0.05143587291240692, -0.17985181510448456, -0.22800089418888092, 0.22895927727222443, -0.003948619123548269, 0.009812626987695694, 0.03349043056368828, -0.3550705909729004, 0.27002671360969543, 0.0826246440410614, -0.2723129987716675, 0.2884146273136139, -0.02730482630431652, 0.14548803865909576, 0.07477952539920807, 0.42058131098747253, -0.27943623065948486, -0.16905200481414795, -0.19342319667339325, 0.34016183018684387, -0.04023827984929085, -0.0678086057305336, 0.3287241458892822, 0.1450754553079605, -0.1481100618839264, -0.1270764172077179, -0.13950654864311218, -0.15024171769618988, 0.010531028732657433, 0.12037409096956253, 0.10716710984706879, -0.0018629967235028744, -0.3440931439399719, -0.14777027070522308, 0.12498391419649124, 0.10101015120744705, -0.25812414288520813, -0.019295550882816315, 0.3259257972240448, 0.15599854290485382, -0.22205601632595062, -0.06559661775827408, 0.09880935400724411, 0.05429530888795853, -0.18862466514110565, 0.15585657954216003, -0.023138688877224922, -0.005890509579330683, 0.023273855447769165, 0.09587724506855011, 0.08958203345537186, -0.09337323904037476, 0.3219326138496399, -0.026019033044576645, 0.1017002984881401, 0.08004314452409744, 0.37321385741233826, 0.08045445382595062, -0.019915848970413208, -0.24103711545467377, -0.16082289814949036, 0.03222845494747162, 0.10936735570430756, 0.08877887576818466, -0.06813928484916687, 0.1508840024471283, 0.08439324051141739, 0.024987583979964256, 0.1261657178401947, 0.08535406738519669, -0.19427412748336792, 0.3223603665828705, 0.02253529243171215, 0.10243123024702072, -0.058420002460479736, -0.1748206466436386, 0.008921771310269833, 0.24050039052963257, 0.020073173567652702, -0.10772949457168579, 0.08638755977153778, -0.11511068791151047, -0.24690690636634827, -0.04736081510782242, 0.007416048552840948, 0.07410907745361328, -0.27192118763923645, -0.2503727376461029, 0.13233745098114014, -0.10638661682605743, -0.017987022176384926, -0.14606960117816925, 0.1714928299188614, 0.05375916138291359, 0.048512738198041916, 0.09593324363231659, 0.1631883978843689, -0.19382497668266296, 0.1429348886013031, 0.13333415985107422, 0.017813818529248238, 0.2102266103029251, 0.06248030439019203, 0.14523300528526306, 0.08843401819467545, 0.203227236866951, -0.017081737518310547, 0.034778445959091187, 0.30629590153694153, 0.14151231944561005, -0.3260590732097626, 0.04498391970992088, 0.4663490653038025, -0.036049243062734604, -0.0029551873449236155, -0.21639788150787354, -0.12328356504440308, -0.09608864784240723, -0.3712257146835327, 0.23375537991523743, -0.23420795798301697, -0.03406159207224846, -0.054553840309381485, 0.5800917148590088, 0.5233063697814941, 0.14376266300678253, -0.09259197860956192, 0.09456519037485123, 0.09672404080629349, -0.03488023206591606, 0.5763643383979797, 0.16973289847373962, -0.5890073776245117, -0.35728728771209717, -0.19961364567279816, -0.23045220971107483, -0.061360422521829605, 0.17482945322990417, 0.022066185250878334, 0.05237206071615219, -0.12937286496162415, -0.23870785534381866, -0.16655229032039642, -0.21105508506298065, -0.3042272925376892, -0.24180683493614197, 0.2739782929420471, -0.03967912867665291, -0.010564858093857765, 0.04771631956100464, -0.1920306235551834, -0.16395129263401031, -0.14491800963878632, -0.11157843470573425, -0.4024904668331146, -0.032611239701509476, 0.15466885268688202, -0.3413713574409485, -0.22053198516368866, -0.2544598877429962, -0.14715737104415894, 0.05817439779639244, -0.08636558055877686, 0.22685782611370087, -0.08998735249042511, -0.06857606768608093, -0.19341214001178741, 0.030493726953864098, 0.1016019880771637, -0.35994789004325867, -0.07902820408344269, 0.025176681578159332, 0.1131492629647255, 0.06836625933647156, 0.02732263319194317, 0.4178818166255951, 0.006819426082074642, 0.07692986726760864, 0.13173295557498932, -0.1456431746482849, -0.07335405796766281, 0.11401104927062988, 0.056754373013973236, 0.19399479031562805, -0.014508819207549095, 0.4449792802333832, 0.02997063472867012, -0.016244912520051003, 0.1611240655183792, 0.0033880777191370726, 0.07962547987699509, 0.08372121304273605, 0.0010764492908492684, 0.031194930896162987, 0.003128662472590804, -0.4439171850681305, 0.2648380696773529, -0.6553468704223633, 0.010572748258709908, -0.238836407661438, -0.1213061735033989, -0.6952990889549255, 0.36097678542137146, -0.7262214422225952, 0.18414953351020813, 0.8214918971061707, -0.2687685489654541, 0.338789701461792, 0.10568144172430038, -0.007117010653018951, 0.19722403585910797, -0.3726099729537964, 0.3990781009197235, -0.19006365537643433, 0.2602587640285492, -0.2965751886367798, -0.0826229453086853, 0.22527024149894714, 0.2654169201850891, -0.21138766407966614, -0.01662696711719036, -0.26227664947509766, 0.2914014756679535, -0.09154946357011795, -0.12386789172887802, -0.22974631190299988, 0.33407479524612427, 0.12483613938093185, 0.21601328253746033, 0.0722508653998375, -0.361875981092453, 0.09039323776960373, 0.22375717759132385, 0.09656564146280289, 0.05853396654129028, -0.21223986148834229, 0.08423174917697906, 0.01420348696410656, 0.006533673498779535, -0.030989328399300575, -0.05060841143131256, -0.1966407597064972, -0.03480393439531326, -0.1026250571012497, 0.0949116200208664, 0.12677550315856934, 0.012235093861818314, 0.007767146453261375, -0.12658990919589996, -0.1732432097196579, -0.042525678873062134, -0.044626712799072266, 0.024347426369786263, -0.3806968927383423, 0.1017325296998024, 0.23517073690891266, 0.19863158464431763, 0.2493680715560913, 0.19973185658454895, 0.11954315751791, 0.06390684098005295, 0.2635403275489807, -0.31116601824760437, 0.01023345347493887, -0.12227324396371841, -0.01302830409258604, 0.24931739270687103, -0.04947175085544586, 0.15339624881744385, 0.13704916834831238, 0.25734472274780273, 0.3726855516433716, -0.0310050118714571, -0.22338610887527466, -0.6017074584960938, 0.15707451105117798, -0.09026618301868439, -0.03962145745754242, -0.015881888568401337, 0.4842706620693207, 0.2549530863761902, -0.018396517261862755, -0.05736900866031647, -0.1857125461101532, 0.15079286694526672, -0.3774484395980835, 0.09951348602771759, -0.07972110062837601, -0.2180943787097931, -0.25250083208084106, -0.06877343356609344, -0.03751472383737564, -0.013995176181197166, 0.20939281582832336, 0.30286839604377747, -0.12415803968906403, -0.0956665500998497, 0.09563729166984558, 0.4211058020591736, -0.06804549694061279, 0.2138102948665619, -0.21435952186584473, -0.08060295134782791, -0.0250401608645916, -0.07046900689601898, 0.27736029028892517, 0.29421523213386536, -0.055778197944164276, 0.16542726755142212, 0.04271393641829491, 0.19436393678188324, 0.22785764932632446, 0.025928037241101265, 0.001956686843186617, -0.05590192973613739, -0.06740402430295944, 0.14733096957206726, -0.11666055023670197, 0.35373982787132263, -0.16333691775798798, 0.2712194621562958, -0.21427160501480103, 0.34276875853538513, -0.24974481761455536, -0.06490032374858856, 0.382135272026062, -0.2752698063850403, -0.3620273768901825, -0.04263033717870712, -0.2525615394115448, -0.05823265016078949, 0.09673874825239182, -0.1466391235589981, -0.2178618609905243, -0.03892494738101959, 0.011661449447274208, 0.029683560132980347, -0.07733102887868881, -0.32333341240882874, -0.3714503049850464, 0.0768980085849762, 0.0719490647315979, -0.04714317247271538, 0.20708757638931274, 0.058293990790843964, 0.2765248715877533, 0.08501733094453812, 0.2363937348127365, -0.001653773244470358, 0.07340237498283386, 0.15029814839363098, -0.14234551787376404, 0.020771127194166183, -0.15502893924713135, -0.32826876640319824, 0.09279780089855194, 0.16384448111057281, -0.13031703233718872, 0.011928930878639221, 0.11453316360712051, 0.11484310030937195, 0.24582786858081818, 0.3241294324398041, 0.08085557818412781, -0.09971015155315399, 0.0368405245244503, -0.018846431747078896, -0.29719993472099304, -0.05610891804099083, -0.4721488356590271, 0.03531751036643982, 0.03262133151292801, -0.14281368255615234, 0.331575870513916, -0.007463599555194378, 0.11654495447874069, 0.22620061039924622, -0.043619852513074875, -0.08437240868806839, 0.28329434990882874, 0.12769213318824768, 0.19448304176330566, 0.275556355714798, -0.07529401779174805, -0.4216465950012207, 0.193059042096138, 0.051190976053476334, -0.004790076985955238, -0.303314208984375, 0.1338305026292801, -0.2361752986907959, -0.18060673773288727, 0.023318888619542122, -0.25312912464141846, 0.12572987377643585, -0.08200444281101227, -0.42926642298698425, 0.35916170477867126, -0.11862156540155411, -0.0013364596525207162, -0.13688407838344574, -0.14382338523864746, -0.059824731200933456, 0.3565756380558014, -0.1849132925271988, -0.1630062609910965, -0.3738078474998474, 0.04459628835320473, 0.12409708648920059, -0.10498642921447754, 0.04954098165035248, -0.23021389544010162, -0.33458349108695984, 0.010542351752519608, -0.0014875931665301323, -0.17911291122436523, -0.0313921719789505, -0.3217819333076477, -0.003987675532698631, 0.053735729306936264, -0.03890634700655937, 0.09253690391778946, -0.13889968395233154, -0.1623326539993286, 0.39621755480766296, -0.03850928321480751, -0.22749485075473785, -0.10712791234254837, -0.1354086697101593, 0.03687191754579544, -0.13183440268039703, 0.1286470741033554, 0.3435235619544983, -0.04647478833794594, 0.07265713065862656, -0.15698184072971344, 0.05207439139485359, 0.14318011701107025, -0.17304116487503052, 0.23476554453372955, 0.21497762203216553, 0.10019455850124359, -0.21504858136177063, -0.10889238864183426, 0.11469554156064987, -0.3645050823688507, 0.23390671610832214, 0.15475277602672577, 0.06200529634952545, -0.21916575729846954, 0.3329470753669739, -0.11963953822851181, 0.06664605438709259, 0.1290351301431656, 0.07850585132837296, 0.19437140226364136, -0.10924607515335083, -0.386401504278183, 0.2099214494228363, 0.20150384306907654, 0.02804018370807171, 0.24711214005947113, -0.07424229383468628, 0.03469928354024887, 0.045553356409072876, -0.21369650959968567, -0.055423520505428314, -0.10632901638746262, -0.07425366342067719, -0.3179194927215576, -0.09942177683115005, 0.02156781032681465, -0.1780790239572525, -0.10167945176362991, -0.10418009012937546, 0.29361316561698914, -0.06086999177932739, -0.23657755553722382, -0.19430696964263916, -0.0513310469686985, 0.0033939303830266, -0.268830806016922, 0.05405484884977341, -0.09685470163822174, -0.09877914935350418, 0.14675907790660858, -0.11506851017475128, -0.23427167534828186, 0.006882648915052414, -0.126490518450737, -0.04099229723215103, -0.09777600318193436, -0.18040628731250763, -0.3866268992424011, -0.15326786041259766, -0.2481544315814972, 0.04558469355106354, -0.1797463297843933, -0.21884536743164062, -0.03678465634584427, 0.00643507856875658, 0.07265433669090271, -0.20774146914482117, 0.06542355567216873, -0.06726149469614029, -0.3612798750400543, -0.021465500816702843, -0.06540761142969131, 0.15519297122955322, 0.04996158182621002, -0.023687532171607018, -0.010793971829116344, 0.1301046460866928, 0.08787360042333603, -0.060851119458675385, -0.1663067489862442, 0.09632055461406708, 0.1451772004365921, 0.026375290006399155, 0.20650677382946014, 0.14440983533859253, -0.0138780502602458, 0.17373734712600708, -0.23673678934574127, 0.09933822602033615, 0.09934736043214798, 0.12763768434524536, 0.2946397364139557, 0.11168968677520752, 0.11788009852170944, 0.20426054298877716, 0.21223725378513336, 0.19510972499847412, 0.00648318650200963, 0.028014158830046654, -0.11879391223192215, -0.2939631938934326, -0.3542529344558716, -0.4067177176475525, -0.032466787844896317, -0.2854154109954834, -0.04939776659011841, -0.07352340221405029, -0.1595669686794281, -0.10175367444753647, -0.08513443171977997, -0.10194584727287292, -0.23996224999427795, -0.06766581535339355, -0.10735774785280228, 0.015931418165564537, -0.010293975472450256, -0.035318437963724136, -0.3267779052257538, -0.05630897358059883, -0.13992951810359955, -0.36593329906463623, -0.17019613087177277, -0.15058623254299164, -0.09057416766881943, -0.06111937761306763, -0.003684448078274727, -0.12660066783428192, -0.13517045974731445, -0.06352768838405609, -0.3699280619621277, -0.09453994780778885, -0.1461186558008194, -0.06613276898860931, -0.036788638681173325, -0.05266040563583374, 0.27930179238319397, 0.06176702678203583, 0.17549178004264832, -0.23179781436920166, -0.10082930326461792, 0.0632888674736023, -0.04354412108659744, 0.258169561624527, -0.03414474427700043, 0.0682375580072403, 0.18993361294269562, 0.02970277890563011, -0.047178756445646286, 0.2864294648170471, 0.0021163984201848507, -0.3168286085128784, -0.18622584640979767, -0.2226077765226364, 0.20407754182815552, -0.29209163784980774, 0.18833452463150024, 0.05962016060948372, -0.2735404074192047, 0.01040694396942854, 0.1635814607143402, -0.08741078525781631, 0.23538939654827118, 0.2204783409833908, 0.1866064816713333, -0.15069937705993652, -0.014055220410227776, -0.01688190922141075, -0.13512954115867615, 0.1863098293542862, -0.03566410392522812, 0.056335657835006714, -0.15574225783348083, 0.0779351070523262, -0.08503617346286774, -0.13557514548301697, -0.17403854429721832, 0.2659872770309448, -0.08903855830430984, 0.1986485868692398, 0.09571220725774765, -0.18611569702625275, 0.1540464460849762, -0.11195185780525208, 0.05294933542609215, 0.12712225317955017, -0.02211829461157322, 0.012127782218158245, -0.11140826344490051, -0.1226087361574173, -0.006044762209057808, -0.19596774876117706, -0.22160331904888153, -0.07115498930215836, -0.2792384922504425, -0.005712386220693588, 0.1645060032606125, 0.1103871688246727, -0.03253326565027237, -0.334428995847702, 0.02018895000219345, 0.02205939218401909, -0.05002639815211296, 0.11272043734788895, 0.03969184681773186, -0.0861101970076561, 0.19763247668743134, -0.05669046938419342, -0.276822954416275, 0.4100654721260071, 0.3455491065979004, -0.08306823670864105, 0.14342491328716278, -0.09712137281894684, 0.058469679206609726, -0.20173412561416626, -0.10104067623615265, 0.20330198109149933, -0.17326919734477997, 0.0785369798541069, 0.17045451700687408, -0.13123901188373566, -0.033961448818445206, 0.04300176724791527, 0.09443201124668121, 0.15409867465496063, -0.31139451265335083, -0.06940049678087234, -0.27129843831062317, 0.8177925944328308, 0.1396227777004242, 0.06803598254919052, 0.14987921714782715, -0.2686800956726074, -0.1947365701198578, 0.22835713624954224, 0.12560175359249115, 0.17063601315021515, -0.3501303791999817, -0.0014988884795457125, -0.008367064408957958, -0.12434422969818115, -0.27161434292793274, -0.0801902636885643, 0.17370525002479553, -0.06965247541666031, 0.08470677584409714, 0.03444506973028183, 0.06743036955595016, 0.09880107641220093, -0.2205091416835785, -0.0864470973610878, -0.272945761680603, 0.11476942896842957, -0.0719364583492279, -0.18037718534469604, 0.05190353840589523, -0.23195326328277588, -0.29458048939704895, 0.005301398690789938, 0.17989316582679749, 0.2585146427154541, -0.06419125944375992, -0.04265138879418373, -0.050641998648643494, -0.03789423406124115, -0.08369684964418411, 0.272233247756958, -0.056202858686447144, -0.1706221103668213, -0.062298551201820374, 0.04290583357214928, -0.05091002583503723, -0.049174267798662186, 0.03617887571454048, -0.12626728415489197, -0.12585154175758362, -0.022862259298563004, -0.1028752401471138, 0.031884029507637024, -0.03971819579601288, 0.056257568299770355, -0.04067350924015045, -0.08947792649269104, 0.028715502470731735, 0.01638762280344963, 0.13556718826293945, -0.1272420436143875, 0.061895646154880524, 0.11613578349351883, -0.0877263993024826, 0.5105422735214233, -0.08673977851867676, -0.08820657432079315, -0.388821542263031, 0.3659255802631378, 0.18129083514213562, -0.2058538794517517, -0.056410763412714005, -0.06280625611543655, 0.08337058871984482, 0.2506517469882965, 0.008093297481536865, -0.09876606613397598, 0.09403102844953537, -0.34304940700531006, -0.3031046390533447, 0.03173447027802467, 0.1364835947751999, -0.056544654071331024, 0.27222228050231934, 0.010181211866438389, 0.07919424772262573, 0.17136868834495544, -0.16248370707035065, -0.11772413551807404, -0.029922837391495705, 0.05220283567905426, -0.33323055505752563, -0.048038482666015625, 0.1080508828163147, -0.024602491408586502, -0.16878776252269745, 0.09077821671962738, 0.05563617870211601, -0.17304781079292297, -0.10945873707532883, -0.11297739297151566, 0.15244852006435394, -0.020099813118577003, -0.1880325824022293, -0.01602271944284439, -0.11542581766843796, -0.008425365202128887, 0.27133768796920776, 0.08180414885282516, -0.002628757618367672, 0.21342334151268005, -0.030078070238232613, 0.147513747215271, -0.09403033554553986, -0.09004811197519302, -0.25752606987953186, -0.012836186215281487, 0.031907450407743454, -0.062426723539829254, 0.19779658317565918, -0.05621751397848129, -0.2214016169309616, 0.09729281812906265, -0.1617298424243927, -0.3399120569229126, -0.0673389658331871, -0.10468189418315887, -0.0827188566327095, 0.10208960622549057, -0.07147382199764252, 0.02438780665397644, -0.05539756640791893, -0.2850470542907715, 0.0359310545027256, -0.05176060274243355, 0.27306103706359863, -0.030104752629995346, 0.0986824482679367, -0.11532929539680481, -0.010153758339583874, -0.13280567526817322, -0.09334853291511536, 0.03792797774076462, -0.05918256193399429, -0.7930907011032104, 0.30459505319595337, 0.8808411359786987, 0.1417199671268463, 0.7090054750442505, 0.5559141039848328, -0.8329551219940186, -0.6602706909179688, 0.10215935111045837, 0.15753179788589478, 0.014625093899667263, 0.7502431869506836, 0.19369152188301086, -0.1340659111738205, -0.20641666650772095, -0.2685568928718567, 0.10456246882677078, -0.09432219713926315, 0.22449719905853271, -0.054275497794151306, -0.19751903414726257, -0.1953180581331253, -0.2763482630252838, -0.072069451212883, -0.20784586668014526, 0.3179791569709778, 0.055737413465976715, -0.08508896827697754, -0.0530298575758934, 0.12839831411838531, -0.02695680782198906, 0.2622761130332947, 0.11409079283475876, -0.07682960480451584, 0.16686728596687317, -0.04727523773908615, 0.1628645360469818, 0.05141390115022659, -0.32932236790657043, -0.3850680887699127, -0.1532498300075531, -0.2917548418045044, -0.030177287757396698, -0.1946989744901657, 0.004345835652202368, -0.35457974672317505, -0.05916740372776985, -0.012367421761155128, 0.1969628632068634, 0.023549310863018036, 0.17859263718128204, -0.42296332120895386, -0.29125627875328064, -0.2067301869392395, -0.11952938884496689, 0.11046741157770157, -0.14163996279239655, 0.4614946246147156, -0.2394954115152359, -0.43196073174476624, 0.25746622681617737, -0.4351590871810913, 0.18595066666603088, -0.08178652822971344, -0.17258469760417938, 0.16706065833568573, 0.01189051941037178, -0.03397306799888611, -0.6236473917961121, -0.21347332000732422, -0.17918916046619415, -0.2982653081417084, -0.046291910111904144, -0.17683586478233337, 0.44446223974227905, -0.018229929730296135, 0.5256054997444153, 0.026772426441311836, -0.05050353333353996, -0.33016642928123474, -0.3606196343898773, 0.15260370075702667, -0.17378507554531097, -0.32990020513534546, -0.08118334412574768, -0.11832645535469055, -0.24683940410614014, -0.12956763803958893, 0.4536435902118683, -0.16408374905586243, 0.4804081618785858, 0.33429062366485596, -0.19699683785438538, -0.0030628270469605923, 0.02147693559527397, -0.2654435336589813, 0.09343874454498291, -0.0072535364888608456, -0.47458863258361816, -0.1965234875679016, -0.4490113854408264, 0.10439054667949677, 0.2212935835123062, 0.3469003438949585, -0.0636003389954567, 0.03421126306056976, -0.03150652348995209, -0.23807847499847412, 0.12079285830259323, -0.1676742136478424, 0.08645813167095184, -0.05268401280045509, -0.1819050908088684, -0.03911871835589409, -0.03662863373756409, -0.16860689222812653, 0.2732785642147064, 0.18443867564201355, -0.1886109709739685, -0.12133543193340302, -0.05409344658255577, -0.0350128598511219, -0.23486576974391937, 0.18585911393165588, 0.2390165776014328, 0.20064404606819153, -0.5500845313072205, -0.15325812995433807, 0.20174157619476318, 0.18299616873264313, 0.06367470324039459, -0.03509144112467766, -0.15001043677330017, 0.27937427163124084, 0.06527288258075714, -0.06856504082679749, 0.5122619867324829, 0.07223985344171524, -0.3415588438510895, -0.6160671710968018, 0.31938499212265015, 0.3072122037410736, 0.19535905122756958, -0.050812192261219025, -0.08293784409761429, 0.020480511710047722, -0.14001873135566711, 0.41303524374961853, -0.45288723707199097, 0.31643709540367126, 0.1588139533996582, 0.47275716066360474, -0.20946970582008362, -0.15810145437717438, 0.05546636879444122, -0.008360598236322403, -0.11917043477296829, 0.039516836404800415, -0.11735785007476807, 0.13301753997802734, 0.3642845153808594, 0.10215692967176437, 0.3480963110923767, 0.1270715892314911, -0.058273203670978546, -0.11947495490312576, -0.12161029130220413, 0.0019463603384792805, 0.1772887110710144, 0.07923809438943863, 0.029412508010864258, 0.039973095059394836, -0.012553117237985134, 0.18752054870128632, -0.01876603439450264, -0.10586617887020111, 0.12394914031028748, -0.06760410219430923, -0.17296406626701355, 0.5264829397201538, -0.009866684675216675, 0.05964016541838646, -0.03996932879090309, -0.1391773372888565, -0.004243539646267891, -0.23004023730754852, -0.019099010154604912, 0.0404261015355587, 0.19019795954227448, 0.005773851182311773, 0.1449965387582779, -0.06376589834690094, 0.07543720304965973, 0.0822475478053093, 0.30489182472229004, -0.05970734730362892, 0.06468888372182846, -0.3610130250453949, -0.07028155773878098, -0.020308898761868477, 0.12455262988805771, 0.09781640768051147, -0.018933018669486046, -0.4962722659111023, 0.17152069509029388, 0.12004724144935608, -0.02444540709257126, 0.13802507519721985, -0.3101794719696045, 0.03154722973704338, -0.021066851913928986, -0.07792956382036209, 0.14914968609809875, -0.049662329256534576, 0.15982039272785187, 0.06436865776777267, 0.10984388738870621, -0.2014346867799759, 0.11137368530035019, 0.38925784826278687, -0.011419719085097313, -0.0018690365832298994, 0.14209406077861786, 0.0688355416059494, -0.035689786076545715, -0.03557879477739334, 0.3581306040287018, -0.22716571390628815, 0.04440973699092865, 0.0696396678686142, 0.0931558907032013, -0.052437812089920044, -0.04235497862100601, -0.24733389914035797, -0.2044021636247635, -0.09972293674945831, 0.03191059082746506, 0.05462939292192459, 0.0722898468375206, 0.2516319155693054, 0.03273925557732582, 0.06858396530151367, 0.1471579372882843, -0.02078539878129959, -0.1672343909740448, -0.08111272007226944, -0.015103419311344624, 0.19354447722434998, 0.19057106971740723, -0.030505886301398277, -0.004791806451976299, -0.1320296674966812, 0.04881155490875244, -0.02038164995610714, -0.06807312369346619, 0.026333454996347427, -0.3149275481700897, -0.4983404576778412, 0.05188213661313057, 0.1788557767868042, -0.048824064433574677, 0.016938645392656326, 0.09531649202108383, 0.03481116145849228, 0.10491514205932617, -0.017834993079304695, -0.12886561453342438, -0.07094106078147888, -0.05111807584762573, -0.404836505651474, -0.026578040793538094, -0.17981456220149994, 0.09188293665647507, 0.09098396450281143, -0.22214564681053162, -0.08798974007368088, 0.4346151351928711, 0.08574417233467102, 0.054908473044633865, -0.0033829223830252886, 0.05907836928963661, -0.06114231422543526, -0.048159174621105194, -0.18222211301326752, 0.1883532553911209, 0.019420534372329712, -0.07861733436584473, -0.18423262238502502, -0.01919521763920784, 0.21822385489940643, -0.0934523418545723, 0.01481939572840929, 0.5072498321533203, -0.00115999486297369, -0.06485375016927719, -0.12863628566265106, -0.1575705111026764, -0.24075156450271606, -0.007103536743670702, -0.04136131331324577, 0.23329944908618927, 0.20206204056739807, 0.1183195635676384, -0.022574692964553833, -0.07215476781129837, 0.06144145131111145, 0.11315347254276276, -0.13281090557575226, 0.051561303436756134, -0.09527020901441574, -0.5254397392272949, 0.26643598079681396, -0.19321684539318085, 0.2684517800807953, 0.036132343113422394, -0.2426263391971588, -0.06234782561659813, 0.09021665155887604, -0.06211547181010246, 0.10092510282993317, 0.011681186966598034, 0.13994592428207397, -0.21078035235404968, 0.23239067196846008, -0.3941425681114197, -0.033130571246147156, 0.24047410488128662, -0.09089063107967377, -0.1844072937965393, 0.3811797499656677, -0.1451757848262787, 0.1901520937681198, 0.01883959397673607, 0.17542564868927002, -0.0003343456191942096, 0.19275328516960144, -0.149049311876297, 0.133670836687088, 0.16453386843204498, 0.06475959718227386, 0.09220034629106522, 0.16116613149642944, 0.17637154459953308, 0.18899981677532196, 0.044401951134204865, -0.020949697121977806, -0.10744529962539673, 0.06024980917572975, 0.0802593007683754, 0.072572261095047, 0.03561938926577568, -0.05302390083670616, -0.001651995349675417, -0.18677884340286255, 0.0036490056663751602, -0.002720379736274481, 0.33124253153800964, 0.02899101935327053, -0.12580060958862305, 0.19142618775367737, 0.125650092959404, -0.0012181084603071213, -0.12910744547843933, 0.11656654626131058, 0.11930029839277267, -0.0726616382598877, -0.008413287810981274, -0.022908920422196388, -0.2092968225479126, 0.03396659344434738, 0.12560078501701355, 0.2660366892814636, 0.07506169378757477, 0.0016589657170698047, 0.2057560831308365, -0.1274590939283371, -0.08422981947660446, -0.09361771494150162, -0.31309521198272705, -0.20968030393123627, -0.05312803387641907, 0.14396414160728455, 0.1495467573404312, -0.17493405938148499, -0.05301058664917946, 0.17069464921951294, -0.07444131374359131, 0.06533332169055939, -0.2313748598098755, 0.6569294929504395, 0.21186122298240662, -0.11305999010801315, -0.7158907055854797, -0.023120075464248657, -0.06958664208650589, -0.4783727526664734, -0.326172411441803, -0.5218591690063477, -0.14530782401561737, 0.35260075330734253, -0.02808782458305359, -0.5275010466575623, -0.2660989463329315, -0.2209729552268982, -0.6301384568214417, -0.02135903760790825, -0.07291196286678314, -0.8619109988212585, 0.005288857035338879, -0.11715833097696304, 0.5217061042785645, 0.022003840655088425, 0.10749517381191254, 0.9294163584709167, 0.2555874288082123, 0.39890432357788086, 0.25680112838745117, -0.4453333914279938, -0.5569092631340027, 0.1479245126247406, 0.01883191056549549, 0.17883406579494476, -0.2099963277578354, 0.025068780407309532, 0.07872644066810608, 0.043954037129879, -0.06008244305849075, 0.07238058745861053, -0.007305342238396406, -0.04787926375865936, -0.16707366704940796, 0.08347510546445847, -0.08391527086496353, -0.1884697824716568, -0.029582615941762924, -0.06356000900268555, -0.47985151410102844, 0.05027877166867256, 0.07308509945869446, -0.08107221871614456, -0.016094092279672623, 0.10768628865480423, 0.05200071632862091, -0.11802925169467926, -0.028370818123221397, -0.10847683250904083, -0.17738977074623108, 0.03644566610455513, -0.04752000793814659, 0.24334852397441864, -0.025632992386817932, 0.022968947887420654, 0.3634311556816101, 0.0959295853972435, 0.2441282570362091, -0.1578911542892456, -0.17557397484779358, -0.22322219610214233, 0.36558979749679565, -0.12839612364768982, 0.002177628455683589, 0.08430182188749313, 0.044342197477817535, 0.08771944791078568, -0.1125437393784523, 0.08592929691076279, -0.033656779676675797, 0.017863791435956955, -0.250377357006073, -0.20240817964076996, 0.23463575541973114, -0.091740682721138, -0.031723905354738235, 0.026372259482741356, 0.022697610780596733, -0.15623004734516144, 0.27243828773498535, -0.009787538088858128, 0.27609169483184814, -0.28773242235183716, -0.15926800668239594, -0.221509650349617, 0.592734694480896, 0.1315327137708664, -0.04842080920934677, -0.09078255295753479, 0.04907714203000069, 0.2000764161348343, 0.5510776042938232, -0.14210310578346252, -0.05211280286312103, -0.9497792720794678, 0.016662025824189186, 0.17832955718040466, -0.0498250350356102, -0.04243246838450432, -0.006789469160139561, -0.13648256659507751, 0.004789422731846571, 0.036237720400094986, 0.039871424436569214, -0.008657989092171192, -0.08808066695928574, -0.047884661704301834, 0.20785583555698395, -0.012237636372447014, 0.17744438350200653, 0.10878691077232361, 0.09246872365474701, 0.34165826439857483, -0.010870334692299366, 0.11343474686145782, 0.10283154994249344, -0.16805540025234222, -0.11783379316329956, -0.1497747302055359, 0.00043497292790561914, -0.1540977656841278, 0.024606971070170403, -0.10360472649335861, -0.04807198792695999, 0.01474540214985609, -0.048085834830999374, -0.24143493175506592, -0.04003923386335373, -0.06474054604768753, -0.03540847450494766, -0.33258697390556335, -0.17484036087989807, -0.06537839025259018, 0.4005872309207916, -0.16707535088062286, -0.15688666701316833, -0.06368939578533173, 0.0864531397819519, -0.06715872138738632, -0.008671876974403858, 0.0003829164197668433, 0.10034733265638351, -0.20528735220432281, -0.12577944993972778, 0.09284128993749619, 0.2464141994714737, 0.23298482596874237, 0.25002172589302063, 0.11082489788532257, -0.14790929853916168, -0.03467976301908493, 0.1312844157218933, -0.08447927236557007, -0.14996102452278137, -0.3175816535949707, -0.08626233786344528, -0.07842530310153961, 0.23139598965644836, -0.06724777072668076, -0.06796099245548248, -0.10857339203357697, 0.09311291575431824, -0.13924679160118103, -0.1506970375776291, -0.2755414545536041, -0.2555319666862488, -0.2519625425338745, -0.18166424334049225, -0.14286299049854279, -0.20931243896484375, 0.03959580510854721, 0.0869118720293045, 0.6588524580001831, 0.12438859790563583, 0.09326639026403427, -0.44065001606941223, 0.04472417011857033, 0.026830501854419708, -0.31457650661468506, 0.07670005410909653, -0.11109812557697296, -0.18640273809432983, 0.2122420370578766, 0.15017694234848022, -0.18041610717773438, 0.050573866814374924, -0.07794893532991409, 0.12954182922840118, -0.018501104786992073, 0.00011279567843303084, -0.43004873394966125, -0.05201062560081482, 0.1589864045381546, -0.1448163092136383, -0.11778417974710464, -0.03124030865728855, -0.6783791184425354, -0.03071887604892254, 0.11258234828710556, -0.060082100331783295, 0.08463747799396515, -0.14174695312976837, -0.47207534313201904, -0.0802207738161087, 0.020464932546019554, -0.2320118546485901, -0.2198895364999771, 0.17899173498153687, -0.024118497967720032, -0.5769651532173157, 0.1738349348306656, 0.05412733927369118, 0.2721710801124573, -0.3772238790988922, 0.016634473577141762, -0.39841485023498535, -0.5241736769676208, -0.21834422647953033, -0.05897419899702072, 0.06019209325313568, -0.7488565444946289, 0.8741229772567749, 0.18777433037757874, -0.45170217752456665, 0.29627087712287903, 0.5214238166809082, 0.08116227388381958, -0.14079177379608154, -0.13448607921600342, 0.11637969315052032, 0.13290831446647644, 0.03808274492621422, 0.016802847385406494, -0.08371023833751678, 0.43524307012557983, 0.25148457288742065, 0.12183581292629242, -0.2696262300014496, 0.29137706756591797, -0.05829628184437752, -0.18440452218055725, 0.1918257474899292, 0.17135359346866608, 0.0345270112156868, 0.06593521684408188, 0.24934662878513336, 0.13843032717704773, -0.011584359221160412, 0.34423381090164185, -0.3236079216003418, -0.10106035321950912, 0.2941801846027374, -0.09977908432483673, -0.14732015132904053, -0.4994623064994812, 0.026651771739125252, -0.14131426811218262, -0.34917742013931274, 0.12189078330993652, 0.21408742666244507, 0.047170329838991165, 0.2570355534553528, -0.07080935686826706, 0.25439032912254333, 0.352149099111557, 0.030118465423583984, -0.04980073869228363, -0.3298313319683075, 0.17383530735969543, -0.40686723589897156, 0.09513097256422043, -0.2611957788467407, -0.4160379469394684, 0.24442477524280548, -0.036129191517829895, 0.40714356303215027, -0.1700403243303299, 0.2644261419773102, 0.016799388453364372, -0.09821552783250809, 0.2257637083530426, -0.04483157768845558, -0.12340529263019562, -0.2072657346725464, 0.19619706273078918, 0.11341389268636703, -0.4204258918762207, 0.06900940090417862, 0.16856949031352997, -0.16680742800235748, 0.03844679519534111, -0.17773249745368958, 0.10994160920381546, 0.004385493230074644, -0.6126856207847595, 0.06386470049619675, -0.13010038435459137, -0.004011351615190506, 0.052695248275995255, 0.07656064629554749, -0.07088403403759003, 0.00025619202642701566, 0.13132983446121216, -0.2375522255897522, 0.12036523967981339, -0.06838183850049973, 0.3292699456214905, -0.4257870614528656, 0.05815009027719498, 0.07387760281562805, -0.06605087965726852, 0.028588635846972466, 0.26574695110321045, 0.1254589706659317, 0.046572647988796234, -0.16985972225666046, -0.03584860637784004, -0.18065501749515533, -0.08310408890247345, 0.09717670828104019, 0.11736427247524261, -0.002447571372613311, -0.1451723575592041, -0.4244841933250427, 0.05424583703279495, 0.08938109129667282, -0.03379078581929207, -0.05540436506271362, 0.03315037861466408, 0.03673079237341881, -0.007075708359479904, 0.0838039293885231, 0.16391323506832123, -0.23287802934646606, -0.10495017468929291, 0.005990087520331144, 0.4449038803577423, 0.16189958155155182, -0.05909101292490959, -0.3148852288722992, 0.0512152723968029, 0.03911741450428963, -0.5008013844490051, 0.10908515751361847, -0.23475858569145203, 0.1568332314491272, 0.24536636471748352, -0.2810579836368561, -0.12613478302955627, -0.0045212432742118835, 0.16120241582393646, -0.1006358191370964, 0.12059896439313889, -0.052525393664836884, -0.3759187161922455, 0.150089293718338, -0.18068787455558777, -0.15583357214927673, -0.04351191222667694, -0.21043141186237335, 0.19775374233722687, -0.1657075583934784, 0.025790337473154068, -0.30178919434547424, -0.18135851621627808, 0.2886972725391388, -0.10083449631929398, -0.12058740109205246, -0.07711716741323471, -0.1835477203130722, 0.1485670655965805, 0.09452052414417267, 0.013359942473471165, 0.22613592445850372, 0.10968830436468124, -0.14045590162277222, -0.006871026940643787, 0.11287613213062286, -0.15071813762187958, -0.025817077606916428, 0.023010484874248505, 0.017606792971491814, 0.04109383001923561, -0.15558134019374847, 0.16197814047336578, 0.14271001517772675, 0.1412843018770218, -0.011646483093500137, 0.0032809071708470583, -0.01800251565873623, -0.11982303857803345, 0.07937048375606537, -0.10824799537658691, 0.04171457514166832, -0.05610073357820511, 0.1460648626089096, -0.218400776386261, 0.0241830013692379, 0.13284672796726227, -0.16385965049266815, -0.10762590914964676, 0.07194182276725769, 0.17719940841197968, 0.024344509467482567, 0.09744106233119965, -0.1900368332862854, 0.16909903287887573, -0.08729838579893112, 0.21904051303863525, 0.04175928607583046, -0.12847670912742615, 0.18109235167503357, 0.09395482391119003, 0.2148297131061554, -0.1459469050168991, 0.003032959997653961, -0.25594189763069153, 0.15399664640426636, 0.16464442014694214, -0.29459893703460693, 0.021145811304450035, 0.17731313407421112, 0.10633423924446106, -0.1586543619632721, 0.01458744052797556, -0.10805930942296982, -0.15219645202159882, 0.043995000422000885, 0.088299460709095, 0.1585475206375122, -0.22640547156333923, -0.1425662338733673, -0.2132125198841095, 0.16691112518310547, -0.17120224237442017, -0.06863813102245331, 0.06970364600419998, 0.1794057935476303, -0.025713691487908363, -0.13151969015598297, 0.10298077762126923, 0.2711727023124695, 0.09170367568731308, -0.08795426040887833, -0.0059305643662810326, -0.22825708985328674, -0.09925948083400726, -0.10670535266399384, -0.056746844202280045, 0.29622599482536316, -0.02790268138051033, 0.23192016780376434, -0.0009378458489663899, -0.014796648174524307, 0.1154540404677391, 0.1138642281293869, 0.06777360290288925, -0.1663423627614975, 0.08032403141260147, 0.17974574863910675, -0.05856890603899956, 0.07235004007816315, -0.13021308183670044, 0.047028549015522, 0.12681779265403748, -0.003576188813894987, 0.11774427443742752, 0.0527888722717762, 0.021663131192326546, 0.16624504327774048, -0.14425095915794373, 0.051697347313165665, -0.13830077648162842, -0.027962500229477882, 0.019953202456235886, -0.0019402557518333197, -0.0942632332444191, -0.028875287622213364, -0.0028916350565850735, -0.051346585154533386, 0.043046530336141586, 0.1597636193037033, 0.003317701630294323, -0.19428183138370514, -0.028499340638518333, -0.15503297746181488, 0.024727150797843933, 0.012950445525348186, -0.14394305646419525, 0.010788863524794579, 0.07705673575401306, 0.13872013986110687, 0.05050409585237503, -0.013385020196437836, -0.005048288963735104, 0.06427204608917236, -0.04717645049095154, 0.09706198424100876, -0.07931390404701233, 0.020852621644735336, 0.019481463357806206, -0.08417205512523651, 0.06357485800981522, 0.14426830410957336, 0.07386747002601624, -0.00984445121139288, -0.11614004522562027, -0.06800790131092072, -0.027916330844163895, -0.025338970124721527, -0.05356930196285248, 0.12239342927932739, -0.028390323743224144, -0.03851468861103058, 0.18541842699050903, 0.05959959328174591, 0.0356106236577034, 0.08512241393327713, 0.11070816218852997, 0.1278674602508545, -0.1614157259464264, 0.028609737753868103, -0.06564100831747055, -0.0964323878288269, -0.047652486711740494, -0.04677420109510422, -0.02839774265885353, 0.0338919423520565, 0.09852784126996994, 0.07399314641952515, 0.10751684010028839, 0.12950648367404938, -0.08483809977769852, -0.15393252670764923, 0.0493493489921093, 0.23216672241687775, -0.06825514137744904, 0.1867254674434662, -0.1726313680410385, 0.10724528878927231, 0.057098329067230225, 0.2790836989879608, 0.03536880388855934, 0.07664385437965393, -0.24680206179618835, 0.049879059195518494, 0.20705243945121765, -0.05515080690383911, 0.10686443001031876, 0.2633149027824402, -0.0916290357708931, -0.1253277063369751, 0.20322489738464355, 0.2526845633983612, -0.04288544878363609, 0.21934983134269714, 0.4798295199871063, 0.12127696722745895, 0.005606545601040125, 0.2673128545284271, 0.05001575127243996, 0.05415153130888939, -0.4157378673553467, 0.021556619554758072, 0.02388726733624935, 0.09790562838315964, 0.013864945620298386, -0.23067040741443634, -0.23841308057308197, -0.02398601919412613, -0.18734027445316315, 0.0006223925738595426, -0.22223423421382904, -0.02449255995452404, 0.022672496736049652, 0.02732061967253685, -0.168135404586792, 0.34906864166259766, 0.013875880278646946, -0.0904238298535347, 0.1899038404226303, -0.025073926895856857, -0.14673049747943878, 0.039251212030649185, 0.22796204686164856, 0.2612914443016052, 0.016222020611166954, 0.10375459492206573, 0.10355972498655319, 0.11318062245845795, -0.1472625583410263, 0.3869877755641937, -0.2705051898956299, 0.08381954580545425, 0.20083369314670563, -0.008183947764337063, -0.063409224152565, 0.061680588871240616, 0.27294906973838806, -0.2886890172958374, -0.23204994201660156, 0.3816379904747009, 0.22330904006958008, -0.1759273260831833, 0.17733003199100494, 0.2059248685836792, -0.14497584104537964, -0.3563525378704071, -0.2705036401748657, -0.1990927755832672, 0.339576780796051, 0.04103681445121765, -0.08238266408443451, -0.4602988064289093, -0.15291975438594818, -0.16335107386112213, 0.5152391791343689, 0.0976174846291542, -0.007556553930044174, -0.5299941897392273, -0.37896934151649475, -0.09922990947961807, 0.04296127334237099, -0.24038733541965485, -0.13467077910900116, 0.31022459268569946, 0.10319975763559341, -0.08716171234846115, -0.2572780251502991, -0.011247626505792141, -0.005307925399392843, -0.4690275490283966, 0.189737007021904, 0.0014247582294046879, -0.03733881562948227, 0.08207860589027405, 0.03823554888367653, 0.09865280985832214, 0.024253487586975098, -0.3818161189556122, -0.060546908527612686, 0.07453460246324539, -0.13725684583187103, -0.6277867555618286, -0.41238290071487427, 0.4049079120159149, -0.7412260174751282, -0.2803255319595337, 0.38931044936180115, -0.0470387302339077, -0.09802135825157166, -0.20350977778434753, 0.41313549876213074, 0.17485542595386505, -0.008012240752577782, 0.006270685698837042, -0.6060163378715515, -0.21304236352443695, 0.09358546882867813, -0.03783193975687027, -0.38143226504325867, 0.3710261881351471, -0.0741841048002243, -0.5626398324966431, -0.6457345485687256, 0.3574025332927704, -0.344010591506958, -0.10585763305425644, 0.3490721583366394, -0.1683436930179596, -0.05893361568450928, -0.28302904963493347, -0.45333290100097656, -0.08216967433691025, -0.00646235654130578, -0.46187156438827515, 0.04215501248836517, 0.6856041550636292, 0.27811020612716675, -0.2010531723499298, 0.18957270681858063, 0.11739936470985413, -0.08717277646064758, -0.2650236487388611, -0.06326506286859512, -0.2859267294406891, -0.2936592400074005, -0.06846055388450623, -0.10525145381689072, 0.01665906235575676, -0.05085310339927673, -0.40353837609291077, 0.07225240767002106, -0.2900146245956421, -0.004551922902464867, -0.2020840346813202, -0.028009040281176567, -0.12662693858146667, 0.264186292886734, 0.4322267174720764, -0.32836732268333435, 0.1360057294368744, 0.11624432355165482, -0.5784327387809753, 0.037195220589637756, 0.22423115372657776, 0.5219101309776306, 0.15955395996570587, 0.12805528938770294, 0.028428923338651657, 0.13578709959983826, -0.3575580418109894, -0.08028760552406311, -0.05291096121072769, -0.16310304403305054, -0.18802672624588013, 0.024264229461550713, 0.3280462324619293, 0.16789545118808746, 0.07688280940055847, 0.0896693542599678, 0.07692064344882965, 0.10041254758834839, 0.13603998720645905, -0.17307567596435547, -0.002539226785302162, -0.26622655987739563, -0.008709235116839409, 